svm_type c_svc
kernel_type linear
nr_class 2
total_sv 211
rho 88605
label 1 -1
nr_sv 105 106
SV
512 1:779 2:231 3:148 4:768 5:278 6:269 7:500 8:90 9:72 10:863 11:1000 
512 1:545 2:455 3:361 4:446 5:389 6:154 7:350 8:316 9:228 10:531 11:931 
512 1:929 2:97 3:295 4:571 5:122 6:77 7:150 8:15 9:13 10:594 11:986 
512 1:949 2:67 3:262 4:589 5:122 6:38 7:100 8:53 9:42 10:875 11:995 
512 1:964 2:52 3:262 4:589 5:67 6:38 7:50 8:8 9:4 10:797 11:871 
512 1:941 2:90 3:262 4:589 5:144 6:38 7:100 8:60 9:30 10:758 11:1000 
512 1:976 2:45 3:262 4:589 5:56 6:38 7:100 8:23 9:30 10:727 11:986 
512 1:945 2:82 3:279 4:589 5:133 6:38 7:100 8:60 9:63 10:754 11:995 
512 1:984 2:37 3:262 4:607 5:22 6:38 7:50 8:8 9:4 10:879 11:995 
512 1:644 2:328 3:213 4:536 5:411 6:115 7:150 8:165 9:181 10:656 11:1000 
512 1:933 2:119 3:213 4:589 5:144 6:115 7:100 8:45 9:42 10:824 11:991 
512 1:957 2:60 3:295 4:571 5:89 6:77 7:150 8:15 9:8 10:770 11:991 
512 1:917 2:90 3:262 4:589 5:156 6:38 7:100 8:45 9:25 10:813 11:940 
512 1:664 2:299 3:344 4:446 5:411 6:308 7:600 8:150 9:72 10:590 11:1000 
512 1:889 2:142 3:213 4:714 5:211 6:115 7:400 8:98 9:46 10:859 11:986 
512 1:743 2:216 3:279 4:607 5:278 6:77 7:200 8:45 9:17 10:715 11:991 
512 1:743 2:276 3:328 4:518 5:311 6:115 7:200 8:158 9:165 10:563 11:1000 
512 1:905 2:216 3:443 4:482 5:178 6:231 7:150 8:68 9:59 10:426 11:1000 
512 1:802 2:209 3:361 4:536 5:267 6:269 7:250 8:68 9:38 10:555 11:995 
512 1:628 2:388 3:295 4:536 5:411 6:231 7:400 8:233 9:105 10:523 11:1000 
512 1:901 2:127 3:295 4:536 5:178 6:77 7:200 8:53 9:38 10:840 11:995 
512 1:842 2:284 3:475 4:429 5:189 6:77 7:250 8:98 9:46 10:730 11:959 
512 1:897 2:119 3:262 4:571 5:200 6:77 7:150 8:68 9:21 10:922 11:935 
512 1:925 2:90 3:279 4:571 5:156 6:77 7:100 8:45 9:17 10:910 11:903 
512 1:842 2:179 3:344 4:482 5:222 6:154 7:250 8:45 9:17 10:789 11:853 
512 1:949 2:82 3:279 4:571 5:133 6:38 7:100 8:53 9:17 10:852 11:922 
512 1:870 2:149 3:279 4:607 5:244 6:77 7:100 8:90 9:21 10:461 11:995 
512 1:917 2:104 3:262 4:589 5:178 6:77 7:200 8:75 9:55 10:848 11:995 
512 1:909 2:97 3:262 4:589 5:178 6:38 7:50 8:53 9:13 10:973 11:876 
512 1:723 2:246 3:311 4:536 5:289 6:231 7:300 8:83 9:25 10:625 11:986 
512 1:945 2:75 3:311 4:571 5:122 6:115 7:100 8:38 9:8 10:914 11:885 
512 1:889 2:119 3:246 4:536 5:200 6:154 7:250 8:68 9:4 10:500 11:995 
512 1:877 2:142 3:279 4:607 5:222 6:77 7:100 8:75 9:17 10:359 11:991 
512 1:929 2:75 3:328 4:554 5:167 6:192 7:250 8:60 9:34 10:742 11:995 
512 1:937 2:119 3:295 4:571 5:111 6:38 7:50 8:15 9:0 10:1000 11:972 
493.2818340088147 1:929 2:75 3:295 4:571 5:144 6:77 7:150 8:30 9:8 10:973 11:991 
512 1:411 2:440 3:492 4:536 5:300 6:269 7:450 8:165 9:114 10:355 11:1000 
512 1:925 2:75 3:279 4:571 5:167 6:38 7:200 8:68 9:59 10:875 11:995 
512 1:802 2:209 3:328 4:554 5:256 6:231 7:150 8:68 9:17 10:445 11:991 
512 1:838 2:201 3:262 4:589 5:211 6:115 7:150 8:53 9:34 10:750 11:991 
512 1:838 2:187 3:295 4:589 5:244 6:192 7:200 8:90 9:55 10:691 11:1000 
512 1:719 2:239 3:393 4:464 5:322 6:269 7:350 8:113 9:63 10:875 11:963 
512 1:747 2:261 3:246 4:571 5:411 6:269 7:500 8:226 9:127 10:715 11:982 
512 1:893 2:127 3:295 4:554 5:189 6:115 7:150 8:53 9:17 10:695 11:1000 
512 1:538 2:500 3:525 4:286 5:600 6:269 7:550 8:376 9:89 10:359 11:1000 
512 1:668 2:291 3:475 4:482 5:222 6:192 7:200 8:38 9:17 10:730 11:982 
246.5109994345585 1:99 2:701 3:705 4:36 5:400 6:192 7:500 8:556 9:291 10:641 11:885 
512 1:779 2:261 3:443 4:393 5:233 6:231 7:350 8:83 9:55 10:941 11:977 
512 1:877 2:201 3:295 4:518 5:211 6:38 7:150 8:98 9:46 10:871 11:1000 
512 1:688 2:321 3:426 4:393 5:311 6:192 7:300 8:180 9:122 10:516 11:1000 
512 1:688 2:418 3:443 4:357 5:478 6:192 7:400 8:361 9:177 10:688 11:986 
512 1:806 2:291 3:672 4:321 5:178 6:269 7:250 8:105 9:68 10:695 11:940 
512 1:791 2:216 3:475 4:411 5:211 6:308 7:350 8:30 9:8 10:1000 11:949 
512 1:340 2:485 3:557 4:375 5:311 6:154 7:200 8:188 9:76 10:316 11:959 
512 1:763 2:239 3:311 4:643 5:311 6:192 7:100 8:120 9:25 10:668 11:995 
512 1:771 2:276 3:246 4:589 5:500 6:346 7:500 8:256 9:63 10:449 11:1000 
512 1:593 2:373 3:0 4:804 5:467 6:577 7:450 8:248 9:148 10:664 11:995 
476.2214764267727 1:12 2:1000 3:197 4:482 5:456 6:231 7:150 8:977 9:354 10:602 11:917 
512 1:755 2:313 3:311 4:536 5:378 6:77 7:150 8:211 9:156 10:570 11:986 
512 1:494 2:448 3:230 4:554 5:444 6:154 7:150 8:241 9:110 10:539 11:972 
512 1:383 2:761 3:344 4:411 5:833 6:346 7:500 8:797 9:122 10:387 11:995 
512 1:862 2:179 3:262 4:589 5:278 6:38 7:100 8:135 9:93 10:766 11:1000 
512 1:648 2:313 3:607 4:482 5:222 6:500 7:200 8:53 9:30 10:555 11:982 
512 1:644 2:343 3:393 4:571 5:333 6:154 7:100 8:135 9:68 10:578 11:991 
512 1:451 2:433 3:328 4:821 5:367 6:615 7:1000 8:226 9:55 10:563 11:1000 
476.9956716785086 1:542 2:343 3:410 4:482 5:222 6:154 7:150 8:38 9:0 10:1000 11:935 
512 1:462 2:560 3:492 4:232 5:656 6:423 7:700 8:556 9:418 10:422 11:1000 
512 1:779 2:201 3:393 4:482 5:300 6:269 7:400 8:75 9:55 10:652 11:876 
512 1:640 2:336 3:475 4:429 5:511 6:538 7:550 8:308 9:156 10:637 11:1000 
512 1:905 2:97 3:311 4:554 5:200 6:154 7:200 8:68 9:51 10:766 11:1000 
512 1:905 2:97 3:311 4:554 5:200 6:154 7:200 8:68 9:51 10:766 11:1000 
321.335117561491 1:526 2:657 3:279 4:518 5:1000 6:77 7:250 8:797 9:232 10:504 11:1000 
512 1:763 2:269 3:393 4:500 5:244 6:192 7:300 8:113 9:72 10:891 11:986 
512 1:806 2:194 3:393 4:518 5:267 6:269 7:200 8:60 9:13 10:344 11:1000 
512 1:881 2:149 3:262 4:643 5:156 6:154 7:200 8:15 9:0 10:664 11:977 
512 1:530 2:418 3:361 4:536 5:556 6:346 7:450 8:383 9:105 10:648 11:1000 
512 1:806 2:276 3:311 4:679 5:278 6:154 7:200 8:143 9:105 10:613 11:1000 
512 1:656 2:336 3:377 4:536 5:433 6:269 7:300 8:226 9:110 10:699 11:1000 
512 1:684 2:478 3:328 4:536 5:844 6:192 7:150 8:534 9:25 10:613 11:1000 
512 1:336 2:582 3:279 4:536 5:511 6:115 7:300 8:406 9:278 10:410 11:995 
512 1:929 2:142 3:311 4:536 5:156 6:77 7:150 8:60 9:42 10:672 11:986 
22.69421589634045 1:704 2:358 3:393 4:536 5:489 6:231 7:200 8:301 9:211 10:531 11:991 
512 1:443 2:657 3:344 4:482 5:811 6:192 7:300 8:639 9:68 10:590 11:1000 
512 1:822 2:224 3:344 4:518 5:344 6:154 7:250 8:195 9:118 10:715 11:1000 
512 1:881 2:157 3:311 4:554 5:256 6:115 7:150 8:128 9:76 10:828 11:1000 
512 1:791 2:291 3:279 4:554 5:267 6:77 7:150 8:165 9:160 10:789 11:1000 
512 1:802 2:276 3:328 4:536 5:400 6:115 7:150 8:241 9:135 10:711 11:1000 
512 1:870 2:187 3:262 4:500 5:267 6:115 7:250 8:143 9:198 10:719 11:995 
512 1:862 2:187 3:295 4:554 5:267 6:115 7:150 8:128 9:72 10:695 11:1000 
512 1:684 2:485 3:279 4:536 5:844 6:38 7:150 8:541 9:38 10:750 11:1000 
512 1:383 2:478 3:311 4:464 5:344 6:192 7:350 8:241 9:131 10:789 11:1000 
512 1:826 2:194 3:443 4:482 5:322 6:423 7:350 8:128 9:59 10:762 11:1000 
512 1:909 2:119 3:344 4:500 5:167 6:154 7:250 8:45 9:25 10:980 11:931 
512 1:850 2:179 3:393 4:482 5:256 6:269 7:300 8:105 9:59 10:730 11:1000 
512 1:668 2:299 3:311 4:554 5:389 6:269 7:300 8:120 9:51 10:547 11:1000 
512 1:964 2:60 3:279 4:571 5:78 6:77 7:150 8:15 9:13 10:984 11:995 
512 1:810 2:194 3:311 4:554 5:256 6:115 7:150 8:75 9:25 10:773 11:995 
512 1:826 2:187 3:279 4:571 5:278 6:77 7:100 8:98 9:38 10:840 11:995 
512 1:949 2:67 3:279 4:589 5:100 6:38 7:50 8:15 9:4 10:855 11:991 
512 1:696 2:373 3:459 4:429 5:389 6:192 7:450 8:278 9:219 10:742 11:935 
512 1:834 2:231 3:344 4:536 5:278 6:115 7:150 8:135 9:59 10:762 11:1000 
512 1:854 2:142 3:475 4:500 5:233 6:462 7:300 8:53 9:8 10:605 11:1000 
512 1:684 2:321 3:689 4:339 5:478 6:846 7:700 8:248 9:89 10:570 11:1000 
512 1:783 2:187 3:590 4:446 5:289 6:731 7:400 8:53 9:42 10:441 11:995 
512 1:802 2:209 3:328 4:571 5:300 6:154 7:250 8:120 9:34 10:832 11:995 
-512 1:862 2:164 3:279 4:554 5:267 6:77 7:200 8:113 9:93 10:648 11:1000 
-512 1:980 2:60 3:279 4:589 5:56 6:38 7:50 8:8 9:8 10:789 11:1000 
-512 1:960 2:104 3:311 4:571 5:89 6:115 7:100 8:23 9:21 10:578 11:1000 
-512 1:925 2:142 3:590 4:482 5:156 6:577 7:300 8:38 9:38 10:492 11:986 
-512 1:988 2:37 3:279 4:607 5:33 6:38 7:50 8:0 9:0 10:711 11:982 
-162.20743133765 1:984 2:67 3:279 4:589 5:78 6:38 7:50 8:8 9:4 10:566 11:995 
-512 1:731 2:313 3:492 4:536 5:389 6:500 7:450 8:241 9:186 10:492 11:1000 
-512 1:700 2:299 3:410 4:482 5:311 6:346 7:350 8:113 9:76 10:637 11:986 
-352.4732283810008 1:680 2:343 3:246 4:607 5:500 6:154 7:100 8:271 9:80 10:375 11:1000 
-165.1312909494905 1:217 2:485 3:377 4:571 5:233 6:115 7:100 8:98 9:42 10:375 11:986 
-512 1:506 2:649 3:361 4:500 5:878 6:269 7:300 8:714 9:118 10:289 11:1000 
-512 1:498 2:463 3:279 4:554 5:533 6:77 7:100 8:308 9:80 10:473 11:1000 
-512 1:617 2:537 3:295 4:536 5:922 6:115 7:200 8:632 9:38 10:457 11:1000 
-512 1:573 2:425 3:377 4:536 5:511 6:269 7:200 8:278 9:118 10:379 11:995 
-512 1:534 2:463 3:361 4:554 5:489 6:231 7:300 8:301 9:143 10:453 11:982 
-512 1:534 2:440 3:705 4:232 5:411 6:308 7:600 8:286 9:186 10:566 11:1000 
-512 1:684 2:276 3:311 4:554 5:200 6:77 7:150 8:23 9:21 10:754 11:959 
-512 1:929 2:142 3:295 4:589 5:144 6:38 7:100 8:8 9:4 10:742 11:1000 
-512 1:877 2:164 3:311 4:571 5:200 6:115 7:150 8:8 9:8 10:656 11:995 
-512 1:771 2:157 3:295 4:607 5:189 6:38 7:50 8:0 9:0 10:1000 11:986 
-512 1:960 2:104 3:279 4:571 5:111 6:38 7:100 8:8 9:4 10:840 11:1000 
-512 1:941 2:142 3:311 4:554 5:133 6:77 7:100 8:15 9:17 10:797 11:995 
-512 1:877 2:172 3:279 4:571 5:156 6:38 7:100 8:8 9:0 10:1000 11:1000 
-512 1:877 2:164 3:295 4:571 5:156 6:38 7:100 8:0 9:0 10:1000 11:995 
-512 1:735 2:239 3:377 4:482 5:322 6:346 7:400 8:120 9:46 10:770 11:995 
-512 1:688 2:313 3:344 4:500 5:433 6:231 7:300 8:195 9:131 10:563 11:995 
-512 1:684 2:396 3:311 4:429 5:511 6:154 7:500 8:353 9:135 10:613 11:1000 
-512 1:988 2:75 3:279 4:571 5:89 6:38 7:100 8:0 9:0 10:1000 11:876 
-512 1:877 2:164 3:295 4:589 5:167 6:38 7:100 8:30 9:17 10:711 11:1000 
-512 1:866 2:149 3:295 4:571 5:189 6:38 7:100 8:23 9:25 10:625 11:1000 
-512 1:802 2:261 3:410 4:446 5:389 6:308 7:500 8:188 9:63 10:660 11:1000 
-512 1:996 2:7 3:262 4:607 5:0 6:38 7:0 8:0 9:0 10:1000 11:995 
-512 1:949 2:97 3:279 4:571 5:133 6:38 7:100 8:15 9:8 10:875 11:1000 
-512 1:988 2:82 3:262 4:607 5:89 6:38 7:100 8:0 9:4 10:1000 11:995 
-512 1:913 2:134 3:311 4:571 5:167 6:77 7:100 8:15 9:8 10:566 11:1000 
-512 1:968 2:75 3:279 4:589 5:100 6:38 7:50 8:8 9:4 10:738 11:995 
-512 1:984 2:52 3:279 4:589 5:67 6:38 7:50 8:8 9:8 10:926 11:1000 
-512 1:976 2:45 3:279 4:571 5:56 6:38 7:100 8:8 9:4 10:594 11:995 
-512 1:972 2:60 3:262 4:589 5:67 6:38 7:50 8:0 9:0 10:1000 11:995 
-512 1:241 2:500 3:1000 4:0 5:267 6:308 7:600 8:90 9:51 10:477 11:949 
-512 1:822 2:179 3:295 4:571 5:211 6:38 7:100 8:15 9:17 10:598 11:1000 
-512 1:941 2:142 3:295 4:571 5:100 6:38 7:100 8:0 9:4 10:789 11:995 
-512 1:897 2:164 3:279 4:589 5:122 6:38 7:100 8:0 9:4 10:797 11:995 
-512 1:656 2:276 3:16 4:625 5:344 6:654 7:100 8:120 9:34 10:918 11:991 
-512 1:545 2:485 3:344 4:500 5:489 6:115 7:300 8:376 9:165 10:609 11:954 
-512 1:648 2:373 3:279 4:554 5:411 6:77 7:250 8:226 9:114 10:613 11:991 
-512 1:668 2:366 3:295 4:536 5:411 6:154 7:350 8:241 9:135 10:645 11:982 
-512 1:933 2:164 3:295 4:571 5:122 6:38 7:200 8:45 9:30 10:727 11:972 
-512 1:545 2:410 3:295 4:643 5:356 6:231 7:250 8:211 9:186 10:789 11:986 
-512 1:996 2:15 3:279 4:589 5:22 6:0 7:100 8:0 9:0 10:1000 11:972 
-512 1:996 2:7 3:262 4:589 5:11 6:38 7:50 8:0 9:0 10:664 11:940 
-512 1:680 2:336 3:377 4:500 5:567 6:423 7:600 8:368 9:207 10:617 11:1000 
-512 1:640 2:351 3:344 4:518 5:322 6:192 7:300 8:143 9:80 10:586 11:1000 
-512 1:814 2:201 3:279 4:589 5:322 6:192 7:350 8:143 9:93 10:711 11:995 
-512 1:281 2:560 3:393 4:571 5:411 6:346 7:500 8:338 9:169 10:531 11:959 
-512 1:589 2:448 3:295 4:536 5:633 6:115 7:300 8:459 9:232 10:543 11:995 
-512 1:581 2:366 3:328 4:607 5:356 6:115 7:200 8:143 9:80 10:559 11:977 
-93.61379666119861 1:996 2:90 3:279 4:589 5:78 6:38 7:100 8:0 9:0 10:1000 11:641 
-512 1:640 2:537 3:279 4:571 5:878 6:38 7:150 8:594 9:46 10:445 11:1000 
-512 1:379 2:612 3:393 4:393 5:678 6:423 7:750 8:669 9:346 10:551 11:1000 
-512 1:621 2:560 3:311 4:536 5:844 6:115 7:250 8:586 9:38 10:477 11:995 
-512 1:838 2:201 3:393 4:500 5:244 6:385 7:300 8:90 9:46 10:617 11:1000 
-344.0345365059783 1:794 2:276 3:197 4:821 5:467 6:423 7:850 8:271 9:152 10:570 11:1000 
-512 1:814 2:224 3:361 4:446 5:256 6:269 7:400 8:90 9:46 10:883 11:982 
-512 1:364 2:537 3:475 4:375 5:422 6:423 7:500 8:346 9:110 10:508 11:986 
-512 1:676 2:313 3:344 4:518 5:322 6:231 7:350 8:135 9:68 10:684 11:1000 
-512 1:893 2:164 3:361 4:500 5:200 6:154 7:250 8:75 9:46 10:930 11:995 
-512 1:988 2:37 3:279 4:571 5:33 6:38 7:100 8:0 9:4 10:898 11:991 
-512 1:984 2:52 3:295 4:571 5:56 6:38 7:100 8:8 9:8 10:922 11:986 
-512 1:522 2:515 3:393 4:482 5:533 6:231 7:300 8:391 9:139 10:473 11:977 
-512 1:545 2:373 3:311 4:500 5:322 6:269 7:450 8:180 9:105 10:777 11:1000 
-512 1:992 2:15 3:262 4:589 5:22 6:38 7:100 8:0 9:0 10:1000 11:977 
-512 1:988 2:37 3:279 4:589 5:44 6:38 7:50 8:0 9:0 10:930 11:995 
-512 1:636 2:343 3:689 4:429 5:433 6:885 7:450 8:256 9:211 10:344 11:1000 
-512 1:411 2:604 3:492 4:357 5:700 6:423 7:600 8:624 9:257 10:457 11:1000 
-512 1:976 2:52 3:279 4:571 5:67 6:38 7:100 8:15 9:13 10:777 11:995 
-512 1:968 2:75 3:328 4:536 5:78 6:77 7:200 8:15 9:21 10:664 11:991 
-512 1:601 2:343 3:377 4:357 5:289 6:269 7:350 8:128 9:63 10:738 11:1000 
-512 1:992 2:22 3:279 4:589 5:22 6:38 7:50 8:0 9:0 10:1000 11:811 
-512 1:996 2:7 3:262 4:607 5:0 6:38 7:50 8:0 9:0 10:1000 11:968 
-512 1:996 2:7 3:262 4:607 5:0 6:38 7:50 8:0 9:0 10:1000 11:995 
-512 1:996 2:30 3:279 4:589 5:11 6:38 7:50 8:0 9:0 10:1000 11:733 
-512 1:996 2:7 3:262 4:607 5:0 6:38 7:50 8:0 9:0 10:1000 11:747 
-512 1:996 2:37 3:262 4:589 5:22 6:38 7:50 8:0 9:0 10:797 11:995 
-512 1:909 2:119 3:344 4:518 5:178 6:154 7:250 8:45 9:25 10:1000 11:991 
-512 1:664 2:373 3:361 4:554 5:444 6:154 7:200 8:278 9:34 10:773 11:977 
-512 1:791 2:276 3:311 4:536 5:478 6:192 7:300 8:256 9:89 10:512 11:1000 
-512 1:791 2:276 3:344 4:518 5:489 6:231 7:350 8:256 9:93 10:496 11:1000 
-512 1:708 2:321 3:328 4:571 5:478 6:192 7:250 8:241 9:76 10:531 11:1000 
-512 1:660 2:336 3:377 4:554 5:367 6:269 7:200 8:143 9:42 10:707 11:995 
-512 1:854 2:172 3:361 4:518 5:256 6:231 7:250 8:90 9:30 10:762 11:991 
-512 1:482 2:478 3:508 4:339 5:567 6:423 7:500 8:421 9:152 10:551 11:1000 
-512 1:581 2:440 3:311 4:500 5:522 6:231 7:300 8:368 9:215 10:664 11:1000 
-512 1:731 2:239 3:475 4:393 5:400 6:615 7:700 8:180 9:114 10:758 11:995 
-512 1:818 2:254 3:311 4:554 5:467 6:154 7:200 8:233 9:84 10:594 11:1000 
-512 1:779 2:246 3:230 4:589 5:456 6:154 7:300 8:271 9:122 10:645 11:1000 
-407.5790311711684 1:589 2:321 3:328 4:500 5:244 6:77 7:100 8:0 9:397 10:527 11:581 
-512 1:755 2:246 3:311 4:554 5:378 6:269 7:450 8:158 9:131 10:625 11:1000 
-512 1:632 2:328 3:590 4:393 5:322 6:615 7:700 8:135 9:59 10:773 11:995 
-512 1:636 2:343 3:393 4:429 5:544 6:577 7:650 8:361 9:232 10:617 11:991 
-512 1:735 2:276 3:180 4:518 5:489 6:462 7:350 8:293 9:215 10:586 11:995 
-512 1:597 2:366 3:377 4:500 5:378 6:269 7:350 8:203 9:135 10:551 11:1000 
-512 1:664 2:358 3:377 4:464 5:444 6:231 7:450 8:263 9:131 10:484 11:1000 
-512 1:648 2:299 3:328 4:554 5:133 6:77 7:100 8:15 9:30 10:758 11:986 
-512 1:676 2:313 3:410 4:482 5:400 6:385 7:350 8:203 9:131 10:457 11:1000 
-512 1:664 2:299 3:295 4:518 5:289 6:154 7:350 8:8 9:4 10:840 11:991 
