svm_type c_svc
kernel_type linear
nr_class 2
total_sv 232
rho -152397
label 1 -1
nr_sv 115 117
SV
512 1:658 2:478 3:413 4:279 5:185 6:92 7:0 8:594 9:0 10:116 
512 1:516 2:449 3:483 4:441 5:235 6:39 7:375 8:297 9:0 10:116 
512 1:393 2:507 3:469 4:351 5:136 6:13 7:0 8:516 9:0 10:217 
512 1:516 2:572 3:448 4:72 5:37 6:26 7:0 8:63 9:0 10:155 
512 1:571 2:500 3:483 4:135 5:148 6:26 7:0 8:16 9:0 10:202 
512 1:575 2:500 3:469 4:126 5:148 6:13 7:0 8:219 9:0 10:178 
512 1:525 2:486 3:483 4:135 5:173 6:39 7:0 8:250 9:0 10:229 
512 1:146 2:565 3:378 4:703 5:37 6:158 7:0 8:1000 9:0 10:174 
512 1:155 2:514 3:427 4:685 5:123 6:66 7:0 8:1000 9:0 10:62 
512 1:219 2:572 3:336 4:559 5:25 6:237 7:0 8:1000 9:0 10:39 
512 1:717 2:420 3:434 4:396 5:284 6:79 7:188 8:422 9:0 10:143 
511.9983262102154 1:160 2:500 3:413 4:676 5:148 6:92 7:0 8:1000 9:0 10:81 
512 1:210 2:486 3:469 4:577 5:173 6:26 7:0 8:766 9:0 10:147 
512 1:516 2:442 3:503 4:72 5:247 6:66 7:0 8:109 9:0 10:97 
512 1:548 2:435 3:483 4:117 5:259 6:53 7:0 8:344 9:0 10:182 
512 1:274 2:478 3:476 4:450 5:185 6:26 7:0 8:938 9:0 10:58 
512 1:183 2:587 3:364 4:631 5:12 6:184 7:0 8:969 9:0 10:116 
512 1:315 2:493 3:476 4:369 5:160 6:66 7:0 8:531 9:0 10:256 
512 1:237 2:471 3:462 4:523 5:198 6:26 7:0 8:781 9:0 10:105 
512 1:461 2:543 3:441 4:234 5:74 6:53 7:0 8:484 9:0 10:31 
512 1:210 2:507 3:427 4:622 5:136 6:66 7:0 8:641 9:0 10:93 
274.9585865239471 1:580 2:254 3:552 4:180 5:568 6:158 7:1000 8:0 9:0 10:333 
512 1:534 2:536 3:448 4:207 5:86 6:26 7:0 8:281 9:0 10:329 
512 1:726 2:449 3:441 4:450 5:235 6:39 7:0 8:469 9:0 10:136 
512 1:388 2:587 3:336 4:297 5:37 6:237 7:0 8:891 9:109 10:151 
512 1:342 2:580 3:343 4:342 5:37 6:224 7:0 8:891 9:109 10:151 
512 1:311 2:551 3:406 4:432 5:62 6:105 7:0 8:922 9:0 10:93 
512 1:311 2:551 3:462 4:486 5:62 6:0 7:0 8:156 9:0 10:357 
512 1:370 2:449 3:490 4:261 5:235 6:39 7:0 8:703 9:0 10:85 
512 1:388 2:428 3:490 4:225 5:272 6:39 7:0 8:625 9:0 10:147 
512 1:530 2:420 3:503 4:63 5:284 6:66 7:0 8:234 9:0 10:101 
512 1:256 2:478 3:476 4:505 5:185 6:26 7:0 8:688 9:0 10:190 
512 1:694 2:464 3:441 4:351 5:210 6:39 7:0 8:313 9:0 10:147 
101.4156034886491 1:260 2:565 3:406 4:477 5:37 6:105 7:0 8:953 9:0 10:128 
512 1:776 2:543 3:427 4:541 5:111 6:79 7:0 8:172 9:0 10:178 
512 1:539 2:565 3:336 4:171 5:148 6:237 7:0 8:656 9:344 10:132 
512 1:621 2:536 3:273 4:216 5:148 6:368 7:0 8:719 9:281 10:178 
200.317704407494 1:562 2:551 3:287 4:126 5:86 6:329 7:0 8:844 9:156 10:109 
512 1:571 2:565 3:371 4:315 5:99 6:184 7:0 8:703 9:172 10:147 
512 1:598 2:543 3:378 4:306 5:111 6:158 7:0 8:828 9:125 10:116 
512 1:356 2:478 3:462 4:396 5:185 6:26 7:16 8:516 9:0 10:151 
512 1:370 2:442 3:483 4:378 5:247 6:39 7:156 8:484 9:0 10:147 
512 1:680 2:500 3:448 4:342 5:173 6:53 7:0 8:500 9:16 10:109 
512 1:443 2:413 3:497 4:135 5:296 6:53 7:0 8:500 9:0 10:151 
512 1:447 2:507 3:469 4:126 5:136 6:13 7:0 8:375 9:0 10:140 
512 1:315 2:572 3:434 4:414 5:25 6:53 7:0 8:484 9:0 10:333 
512 1:251 2:536 3:462 4:495 5:86 6:13 7:0 8:719 9:0 10:147 
512 1:603 2:551 3:378 4:171 5:62 6:158 7:0 8:859 9:0 10:50 
512 1:621 2:565 3:378 4:216 5:37 6:158 7:0 8:641 9:0 10:50 
512 1:575 2:558 3:385 4:180 5:49 6:145 7:0 8:781 9:0 10:70 
512 1:594 2:543 3:406 4:189 5:74 6:105 7:0 8:641 9:0 10:132 
512 1:653 2:536 3:420 4:315 5:123 6:132 7:0 8:594 9:0 10:109 
512 1:594 2:565 3:392 4:180 5:37 6:132 7:0 8:734 9:0 10:128 
512 1:648 2:558 3:406 4:261 5:49 6:105 7:0 8:547 9:0 10:35 
512 1:680 2:507 3:413 4:342 5:136 6:92 7:0 8:500 9:0 10:74 
512 1:425 2:587 3:427 4:162 5:12 6:66 7:0 8:406 9:0 10:62 
512 1:525 2:558 3:441 4:396 5:111 6:53 7:0 8:438 9:0 10:310 
512 1:772 2:471 3:455 4:505 5:198 6:13 7:0 8:188 9:0 10:70 
512 1:479 2:565 3:427 4:315 5:86 6:92 7:0 8:719 9:0 10:217 
512 1:479 2:565 3:441 4:324 5:74 6:145 7:0 8:609 9:0 10:407 
512 1:521 2:551 3:441 4:216 5:62 6:39 7:0 8:344 9:0 10:310 
512 1:521 2:580 3:420 4:144 5:25 6:79 7:0 8:328 9:0 10:178 
512 1:498 2:551 3:448 4:216 5:62 6:39 7:0 8:234 9:0 10:357 
512 1:370 2:565 3:455 4:315 5:62 6:26 7:0 8:297 9:0 10:260 
512 1:621 2:536 3:448 4:297 5:99 6:26 7:0 8:188 9:0 10:380 
512 1:447 2:623 3:420 4:180 5:62 6:79 7:0 8:141 9:0 10:244 
512 1:397 2:543 3:448 4:315 5:86 6:26 7:0 8:547 9:0 10:202 
512 1:543 2:623 3:420 4:180 5:62 6:79 7:0 8:63 9:63 10:252 
512 1:443 2:659 3:420 4:198 5:111 6:79 7:0 8:78 9:31 10:275 
512 1:416 2:638 3:413 4:198 5:74 6:92 7:0 8:219 9:63 10:205 
512 1:521 2:572 3:441 4:135 5:62 6:39 7:0 8:203 9:0 10:314 
9.440703243370386 1:626 2:514 3:455 4:324 5:148 6:13 7:0 8:219 9:0 10:422 
512 1:379 2:565 3:455 4:405 5:62 6:39 7:0 8:438 9:0 10:434 
512 1:603 2:522 3:448 4:270 5:111 6:26 7:0 8:156 9:0 10:337 
512 1:548 2:572 3:462 4:261 5:86 6:26 7:0 8:109 9:0 10:407 
512 1:616 2:428 3:476 4:270 5:272 6:26 7:16 8:359 9:0 10:128 
512 1:740 2:391 3:503 4:459 5:346 6:66 7:344 8:125 9:0 10:333 
512 1:763 2:362 3:497 4:514 5:383 6:53 7:594 8:125 9:0 10:225 
512 1:356 2:587 3:448 4:297 5:49 6:26 7:0 8:234 9:0 10:128 
512 1:402 2:587 3:434 4:207 5:25 6:53 7:0 8:453 9:0 10:140 
512 1:461 2:514 3:455 4:270 5:123 6:13 7:0 8:500 9:0 10:159 
512 1:434 2:543 3:448 4:252 5:74 6:26 7:0 8:438 9:0 10:174 
512 1:776 2:333 3:524 4:514 5:432 6:105 7:969 8:0 9:0 10:283 
512 1:539 2:529 3:448 4:180 5:99 6:26 7:0 8:438 9:0 10:167 
512 1:329 2:558 3:343 4:351 5:49 6:224 7:0 8:1000 9:0 10:66 
512 1:671 2:529 3:448 4:351 5:99 6:39 7:0 8:203 9:0 10:465 
512 1:689 2:514 3:399 4:378 5:123 6:118 7:0 8:625 9:0 10:159 
512 1:443 2:500 3:483 4:234 5:148 6:26 7:0 8:234 9:0 10:264 
512 1:680 2:406 3:490 4:360 5:309 6:39 7:109 8:94 9:0 10:128 
512 1:685 2:377 3:497 4:369 5:358 6:53 7:453 8:94 9:0 10:221 
512 1:616 2:442 3:490 4:216 5:247 6:39 7:0 8:141 9:0 10:298 
512 1:534 2:543 3:476 4:297 5:74 6:13 7:0 8:16 9:0 10:314 
512 1:557 2:500 3:462 4:207 5:148 6:13 7:0 8:250 9:0 10:221 
512 1:301 2:500 3:476 4:414 5:148 6:13 7:0 8:578 9:0 10:186 
512 1:438 2:565 3:441 4:189 5:37 6:39 7:0 8:109 9:0 10:186 
512 1:534 2:543 3:441 4:126 5:86 6:39 7:0 8:266 9:0 10:190 
512 1:493 2:536 3:441 4:162 5:86 6:39 7:0 8:344 9:0 10:240 
512 1:425 2:522 3:497 4:243 5:111 6:53 7:0 8:0 9:0 10:287 
512 1:320 2:522 3:469 4:387 5:111 6:0 7:0 8:516 9:0 10:233 
512 1:658 2:522 3:469 4:387 5:111 6:13 7:0 8:0 9:0 10:531 
512 1:443 2:529 3:476 4:252 5:99 6:13 7:0 8:47 9:0 10:337 
512 1:548 2:493 3:490 4:243 5:160 6:39 7:0 8:78 9:0 10:504 
512 1:461 2:457 3:497 4:234 5:222 6:53 7:94 8:250 9:0 10:384 
512 1:639 2:500 3:490 4:333 5:148 6:39 7:16 8:0 9:0 10:512 
512 1:785 2:391 3:476 4:532 5:333 6:13 7:63 8:109 9:0 10:326 
512 1:763 2:457 3:448 4:486 5:222 6:26 7:0 8:156 9:0 10:186 
512 1:297 2:536 3:448 4:414 5:86 6:39 7:0 8:781 9:0 10:132 
512 1:411 2:543 3:406 4:207 5:74 6:105 7:0 8:766 9:0 10:47 
512 1:347 2:543 3:434 4:450 5:74 6:53 7:0 8:766 9:0 10:124 
512 1:607 2:536 3:413 4:405 5:86 6:92 7:0 8:547 9:0 10:233 
512 1:201 2:529 3:420 4:595 5:99 6:79 7:0 8:1000 9:0 10:78 
512 1:155 2:551 3:399 4:685 5:62 6:118 7:0 8:1000 9:0 10:109 
512 1:192 2:565 3:399 4:613 5:37 6:118 7:0 8:1000 9:0 10:85 
512 1:183 2:558 3:399 4:631 5:49 6:118 7:0 8:1000 9:0 10:147 
512 1:178 2:551 3:399 4:640 5:62 6:118 7:0 8:1000 9:0 10:132 
-313.9105983003868 1:530 2:645 3:350 4:99 5:99 6:211 7:0 8:203 9:781 10:62 
-512 1:562 2:522 3:434 4:369 5:111 6:53 7:0 8:516 9:0 10:434 
-512 1:443 2:493 3:469 4:369 5:160 6:39 7:0 8:625 9:0 10:279 
-512 1:338 2:558 3:434 4:468 5:49 6:66 7:0 8:531 9:0 10:120 
-512 1:260 2:558 3:462 4:523 5:49 6:13 7:0 8:188 9:0 10:271 
-512 1:639 2:435 3:462 4:270 5:259 6:13 7:16 8:328 9:0 10:47 
-512 1:301 2:558 3:336 4:405 5:49 6:289 7:47 8:719 9:0 10:151 
-512 1:621 2:529 3:378 4:261 5:123 6:171 7:16 8:438 9:156 10:155 
-512 1:265 2:514 3:455 4:468 5:123 6:13 7:0 8:938 9:0 10:19 
-512 1:301 2:478 3:462 4:396 5:185 6:53 7:0 8:984 9:0 10:31 
-512 1:452 2:362 3:538 4:162 5:383 6:132 7:625 8:203 9:0 10:124 
-512 1:142 2:572 3:441 4:748 5:25 6:39 7:0 8:484 9:0 10:612 
-512 1:393 2:543 3:517 4:658 5:74 6:92 7:0 8:0 9:0 10:1000 
-512 1:393 2:514 3:517 4:532 5:123 6:92 7:31 8:31 9:0 10:864 
-239.3634733855619 1:142 2:580 3:476 4:757 5:25 6:13 7:0 8:0 9:0 10:527 
-512 1:169 2:471 3:448 4:658 5:198 6:39 7:16 8:969 9:0 10:163 
-512 1:361 2:580 3:462 4:396 5:12 6:13 7:0 8:0 9:0 10:465 
-512 1:233 2:551 3:392 4:604 5:62 6:132 7:0 8:969 9:0 10:163 
-372.5538374208276 1:374 2:478 3:524 4:495 5:185 6:118 7:234 8:172 9:0 10:531 
-512 1:356 2:645 3:392 4:288 5:86 6:132 7:0 8:891 9:0 10:4 
-1.12438085037555 1:909 2:94 3:545 4:784 5:840 6:145 7:1000 8:0 9:0 10:19 
-512 1:721 2:507 3:455 4:405 5:136 6:13 7:0 8:31 9:0 10:217 
-512 1:626 2:471 3:413 4:261 5:198 6:92 7:0 8:781 9:0 10:388 
-512 1:612 2:543 3:441 4:225 5:74 6:39 7:0 8:125 9:0 10:112 
-512 1:671 2:536 3:434 4:306 5:86 6:53 7:0 8:203 9:0 10:147 
-512 1:516 2:529 3:434 4:90 5:99 6:53 7:0 8:969 9:0 10:159 
-512 1:498 2:558 3:385 4:18 5:49 6:145 7:0 8:1000 9:0 10:39 
-512 1:484 2:565 3:427 4:36 5:37 6:66 7:0 8:266 9:0 10:50 
-512 1:489 2:572 3:413 4:27 5:25 6:92 7:0 8:656 9:0 10:58 
-512 1:516 2:543 3:462 4:36 5:74 6:0 7:0 8:0 9:0 10:101 
-512 1:534 2:551 3:448 4:54 5:74 6:26 7:0 8:0 9:0 10:74 
-512 1:566 2:543 3:448 4:99 5:74 6:26 7:0 8:16 9:0 10:81 
-512 1:511 2:543 3:441 4:45 5:74 6:39 7:0 8:78 9:0 10:120 
-512 1:639 2:601 3:399 4:243 5:12 6:118 7:0 8:688 9:0 10:35 
-512 1:384 2:594 3:413 4:351 5:12 6:92 7:0 8:766 9:0 10:140 
-512 1:406 2:565 3:413 4:432 5:37 6:92 7:0 8:672 9:0 10:182 
-512 1:557 2:558 3:392 4:387 5:49 6:132 7:0 8:719 9:0 10:128 
-512 1:539 2:551 3:406 4:270 5:62 6:105 7:0 8:828 9:0 10:70 
-512 1:539 2:522 3:462 4:63 5:111 6:13 7:0 8:0 9:0 10:81 
-512 1:434 2:543 3:462 4:135 5:74 6:0 7:0 8:16 9:0 10:78 
-93.18058030728741 1:566 2:529 3:462 4:108 5:99 6:13 7:0 8:0 9:0 10:85 
-512 1:626 2:514 3:455 4:216 5:123 6:13 7:0 8:109 9:0 10:105 
-512 1:667 2:493 3:455 4:297 5:160 6:13 7:0 8:188 9:0 10:124 
-512 1:228 2:449 3:497 4:577 5:235 6:53 7:172 8:594 9:0 10:283 
-512 1:361 2:435 3:503 4:306 5:259 6:79 7:359 8:250 9:0 10:151 
-512 1:183 2:522 3:413 4:631 5:111 6:92 7:0 8:1000 9:0 10:23 
-512 1:237 2:428 3:462 4:523 5:272 6:39 7:125 8:844 9:0 10:16 
-512 1:288 2:558 3:441 4:423 5:160 6:79 7:0 8:516 9:156 10:101 
-512 1:516 2:514 3:462 4:108 5:136 6:13 7:0 8:313 9:0 10:140 
-512 1:557 2:580 3:462 4:306 5:49 6:26 7:47 8:31 9:0 10:353 
-512 1:466 2:493 3:490 4:216 5:160 6:79 7:63 8:422 9:0 10:256 
-512 1:516 2:558 3:434 4:54 5:49 6:66 7:0 8:453 9:0 10:93 
-512 1:607 2:601 3:469 4:351 5:12 6:13 7:0 8:0 9:0 10:570 
-512 1:301 2:580 3:469 4:405 5:37 6:13 7:0 8:31 9:0 10:465 
-512 1:420 2:594 3:427 4:441 5:86 6:92 7:31 8:563 9:0 10:349 
-512 1:703 2:377 3:503 4:369 5:358 6:66 7:563 8:63 9:0 10:8 
-512 1:388 2:543 3:462 4:279 5:148 6:53 7:0 8:359 9:94 10:132 
-512 1:338 2:478 3:483 4:450 5:185 6:39 7:172 8:219 9:0 10:198 
-512 1:534 2:587 3:434 4:108 5:12 6:53 7:0 8:172 9:0 10:89 
-512 1:498 2:536 3:476 4:288 5:99 6:26 7:0 8:78 9:0 10:353 
-512 1:644 2:457 3:476 4:252 5:222 6:13 7:0 8:125 9:0 10:93 
-512 1:635 2:391 3:483 4:243 5:333 6:26 7:0 8:594 9:0 10:116 
-0.03469432610814442 1:594 2:471 3:483 4:180 5:198 6:26 7:0 8:16 9:0 10:155 
-512 1:658 2:486 3:462 4:279 5:173 6:0 7:0 8:234 9:0 10:23 
-512 1:603 2:464 3:462 4:171 5:210 6:13 7:0 8:1000 9:0 10:16 
-232.9635096226491 1:680 2:406 3:490 4:324 5:309 6:39 7:0 8:203 9:0 10:101 
-512 1:680 2:391 3:490 4:333 5:333 6:39 7:0 8:313 9:0 10:116 
-512 1:635 2:377 3:483 4:234 5:358 6:26 7:16 8:578 9:0 10:109 
-512 1:676 2:420 3:483 4:324 5:284 6:26 7:0 8:234 9:0 10:151 
-512 1:676 2:384 3:483 4:315 5:346 6:26 7:0 8:297 9:0 10:143 
-512 1:584 2:435 3:462 4:135 5:259 6:0 7:0 8:1000 9:0 10:23 
-512 1:562 2:471 3:469 4:90 5:198 6:0 7:0 8:719 9:0 10:35 
-512 1:566 2:565 3:406 4:297 5:37 6:105 7:0 8:406 9:0 10:143 
-512 1:639 2:543 3:392 4:243 5:74 6:132 7:0 8:953 9:0 10:16 
-512 1:507 2:543 3:406 4:90 5:74 6:105 7:0 8:938 9:0 10:85 
-512 1:763 2:464 3:448 4:486 5:210 6:26 7:0 8:125 9:0 10:306 
-512 1:612 2:536 3:399 4:189 5:86 6:118 7:0 8:953 9:0 10:89 
-512 1:635 2:529 3:406 4:234 5:99 6:105 7:0 8:875 9:0 10:62 
-512 1:644 2:522 3:406 4:252 5:111 6:105 7:0 8:719 9:0 10:66 
-512 1:703 2:514 3:462 4:378 5:123 6:13 7:0 8:0 9:0 10:252 
-512 1:667 2:522 3:434 4:297 5:111 6:53 7:0 8:219 9:0 10:70 
-512 1:667 2:514 3:427 4:297 5:123 6:66 7:0 8:234 9:0 10:97 
-512 1:603 2:529 3:399 4:171 5:99 6:118 7:0 8:797 9:0 10:202 
-512 1:457 2:514 3:427 4:207 5:123 6:66 7:0 8:891 9:0 10:93 
-512 1:676 2:341 3:336 4:396 5:420 6:289 7:78 8:906 9:0 10:109 
-512 1:712 2:370 3:329 4:387 5:370 6:250 7:0 8:984 9:0 10:186 
-512 1:598 2:391 3:427 4:297 5:333 6:197 7:203 8:766 9:0 10:322 
-512 1:740 2:362 3:322 4:441 5:383 6:263 7:0 8:1000 9:0 10:167 
-512 1:685 2:268 3:427 4:378 5:543 6:342 7:250 8:750 9:0 10:93 
-512 1:772 2:348 3:294 4:514 5:407 6:316 7:0 8:1000 9:0 10:112 
-512 1:374 2:587 3:399 4:432 5:111 6:118 7:0 8:422 9:63 10:217 
-512 1:498 2:572 3:455 4:198 5:25 6:39 7:0 8:47 9:0 10:275 
-512 1:498 2:572 3:462 4:450 5:25 6:0 7:0 8:63 9:0 10:279 
-512 1:475 2:580 3:469 4:216 5:37 6:39 7:0 8:0 9:0 10:399 
-512 1:447 2:572 3:462 4:117 5:25 6:0 7:0 8:0 9:0 10:136 
-512 1:420 2:558 3:441 4:162 5:49 6:132 7:78 8:734 9:0 10:132 
-512 1:416 2:638 3:406 4:297 5:86 6:118 7:0 8:250 9:172 10:380 
-512 1:667 2:283 3:503 4:306 5:519 6:92 7:828 8:156 9:0 10:244 
-512 1:470 2:572 3:455 4:243 5:25 6:13 7:0 8:0 9:0 10:318 
-512 1:274 2:601 3:392 4:450 5:25 6:145 7:0 8:531 9:156 10:89 
-512 1:132 2:601 3:392 4:730 5:25 6:132 7:0 8:891 9:94 10:78 
-512 1:210 2:543 3:462 4:577 5:74 6:39 7:0 8:516 9:0 10:198 
-512 1:114 2:587 3:441 4:766 5:25 6:39 7:0 8:703 9:0 10:163 
-512 1:201 2:543 3:462 4:604 5:74 6:0 7:0 8:500 9:0 10:283 
-356.9998496604813 1:247 2:630 3:441 4:586 5:62 6:66 7:0 8:453 9:0 10:357 
-512 1:388 2:529 3:448 4:297 5:99 6:26 7:0 8:719 9:0 10:194 
-512 1:183 2:565 3:455 4:631 5:37 6:13 7:0 8:313 9:0 10:264 
-512 1:219 2:551 3:469 4:586 5:62 6:13 7:0 8:172 9:0 10:380 
-512 1:361 2:529 3:483 4:315 5:99 6:39 7:0 8:250 9:0 10:519 
-512 1:388 2:478 3:469 4:459 5:185 6:13 7:16 8:656 9:0 10:419 
-512 1:333 2:587 3:434 4:369 5:25 6:66 7:0 8:547 9:0 10:283 
-512 1:315 2:572 3:441 4:369 5:37 6:53 7:0 8:891 9:0 10:16 
-512 1:411 2:594 3:448 4:207 5:37 6:26 7:0 8:234 9:0 10:182 
-512 1:123 2:587 3:420 4:748 5:12 6:79 7:0 8:906 9:0 10:171 
-512 1:511 2:529 3:448 4:387 5:99 6:53 7:0 8:500 9:0 10:434 
-512 1:571 2:551 3:413 4:234 5:62 6:92 7:0 8:578 9:0 10:147 
-512 1:511 2:638 3:406 4:261 5:74 6:105 7:0 8:250 9:0 10:341 
