svm_type c_svc
kernel_type linear
nr_class 2
total_sv 570
rho -56377
label -1 0
nr_sv 293 277
SV
1 1:1675 2:8025 3:1924 4:1451 5:1997 6:419 7:957 8:34 9:599 10:0 11:748 12:0 13:809 14:0 15:1290 16:71 17:1901 18:5354 19:1279 20:2125 21:1029 22:920 23:1232 24:248 25:1206 26:863 27:1122 28:168 29:962 30:40 31:1269 32:283 33:668 34:2405 35:836 36:333 37:818 38:44 39:470 40:15 41:601 42:916 43:467 44:941 45:430 46:140 47:708 48:206 49:590 50:3820 51:551 52:516 53:1044 54:31 55:741 56:39 57:683 58:120 59:440 60:169 61:352 62:47 63:598 64:258 65:1230 66:6753 67:1065 68:975 69:1662 70:104 71:1821 72:293 73:1395 74:914 75:1270 76:9 77:588 78:5 79:969 80:947 
1 1:1911 2:8009 3:1078 4:627 5:784 6:43 7:1562 8:19 9:1640 10:421 11:406 12:378 13:822 14:326 15:1796 16:176 17:2114 18:5568 19:630 20:2746 21:747 22:75 23:1111 24:31 25:1526 26:1278 27:1185 28:106 29:1495 30:71 31:1193 32:126 33:919 34:1326 35:438 36:649 37:340 38:89 39:525 40:322 41:624 42:2385 43:413 44:69 45:648 46:4 47:1093 48:156 49:329 50:994 51:408 52:823 53:697 54:182 55:1310 56:99 57:1341 58:2812 59:344 60:78 61:270 62:1 63:301 64:12 65:988 66:1095 67:2772 68:60 69:2538 70:9 71:1116 72:53 73:790 74:6776 75:575 76:1720 77:535 78:155 79:686 80:132 
1 1:602 2:9569 3:777 4:186 5:1522 6:0 7:1556 8:0 9:2131 10:10 11:2105 12:23 13:916 14:88 15:392 16:124 17:1761 18:3322 19:740 20:2425 21:954 22:2470 23:1378 24:1464 25:1951 26:173 27:1281 28:101 29:500 30:31 31:1435 32:15 33:301 34:1577 35:325 36:226 37:424 38:77 39:995 40:408 41:1229 42:2093 43:730 44:559 45:606 46:48 47:390 48:13 49:870 50:2018 51:455 52:470 53:365 54:87 55:791 56:243 57:786 58:1079 59:352 60:496 61:400 62:281 63:980 64:326 65:1395 66:4895 67:1438 68:707 69:1380 70:524 71:1661 72:672 73:1663 74:1530 75:693 76:297 77:734 78:126 79:1036 80:1249 
1 1:350 2:7641 3:376 4:1401 5:623 6:0 7:3339 8:7 9:3204 10:496 11:458 12:400 13:926 14:5 15:724 16:51 17:1127 18:7403 19:899 20:1946 21:3084 22:120 23:1347 24:0 25:1469 26:2 27:359 28:5 29:541 30:6 31:1175 32:519 33:930 34:3069 35:752 36:51 37:611 38:35 39:524 40:49 41:379 42:557 43:292 44:217 45:491 46:136 47:1020 48:887 49:669 50:4577 51:444 52:130 53:372 54:3 55:782 56:46 57:725 58:122 59:501 60:26 61:655 62:26 63:851 64:70 65:812 66:8260 67:891 68:1627 69:1098 70:5 71:2206 72:2 73:2240 74:1 75:1097 76:1 77:814 78:9 79:842 80:95 
1 1:259 2:4765 3:262 4:4799 5:302 6:84 7:362 8:61 9:1066 10:208 11:4758 12:2 13:2584 14:16 15:406 16:64 17:1218 18:2708 19:984 20:912 21:2011 22:411 23:1582 24:318 25:1005 26:515 27:864 28:86 29:1182 30:26 31:1153 32:5023 33:630 34:1079 35:372 36:1378 37:524 38:341 39:844 40:1010 41:1287 42:715 43:520 44:185 45:370 46:63 47:453 48:228 49:284 50:2778 51:226 52:334 53:426 54:439 55:699 56:241 57:1229 58:787 59:1332 60:123 61:525 62:49 63:281 64:249 65:705 66:3959 67:799 68:1118 69:2117 70:531 71:1054 72:518 73:923 74:2626 75:1649 76:569 77:1856 78:154 79:896 80:525 
1 1:528 2:5089 3:568 4:1175 5:921 6:216 7:2256 8:525 9:3246 10:2678 11:1283 12:162 13:579 14:26 15:619 16:130 17:713 18:6434 19:591 20:799 21:904 22:227 23:1428 24:72 25:1639 26:746 27:1644 28:207 29:1865 30:47 31:1217 32:1468 33:454 34:228 35:394 36:56 37:526 38:42 39:1225 40:71 41:1150 42:4454 43:475 44:114 45:397 46:15 47:379 48:20 49:404 50:419 51:337 52:470 53:380 54:265 55:594 56:208 57:676 58:3504 59:487 60:103 61:916 62:23 63:1208 64:10 65:854 66:2561 67:669 68:5779 69:693 70:840 71:861 72:157 73:1269 74:663 75:1146 76:0 77:2857 78:0 79:1652 80:1 
1 1:3802 2:4328 3:863 4:3631 5:410 6:192 7:350 8:260 9:865 10:1153 11:1227 12:394 13:1437 14:6 15:1045 16:35 17:333 18:5377 19:276 20:4010 21:618 22:242 23:2183 24:52 25:4117 26:299 27:1417 28:18 29:656 30:2 31:400 32:0 33:151 34:414 35:168 36:1731 37:316 38:1381 39:1271 40:200 41:2159 42:1105 43:605 44:109 45:196 46:4 47:134 48:57 49:382 50:1355 51:562 52:1631 53:575 54:753 55:1003 56:233 57:1306 58:398 59:636 60:138 61:302 62:87 63:234 64:405 65:2905 66:4157 67:1149 68:2451 69:471 70:667 71:432 72:255 73:590 74:1060 75:575 76:419 77:1468 78:190 79:2411 80:801 
1 1:2539 2:6253 3:703 4:3348 5:675 6:2 7:1186 8:10 9:2289 10:221 11:994 12:17 13:737 14:19 15:877 16:130 17:533 18:4100 19:508 20:5836 21:878 22:64 23:1621 24:0 25:3780 26:0 27:1316 28:0 29:775 30:0 31:589 32:0 33:248 34:606 35:331 36:1872 37:548 38:1045 39:1002 40:410 41:1852 42:831 43:623 44:150 45:203 46:19 47:192 48:66 49:464 50:944 51:796 52:2500 53:594 54:428 55:837 56:288 57:1067 58:179 59:528 60:43 61:330 62:86 63:384 64:533 65:2457 66:5431 67:892 68:2935 69:542 70:426 71:506 72:230 73:601 74:325 75:852 76:89 77:1601 78:97 79:2549 80:466 
0.5326215492039222 1:176 2:5710 3:319 4:3253 5:663 6:279 7:2597 8:40 9:4204 10:636 11:1499 12:82 13:321 14:0 15:221 16:0 17:977 18:7679 19:601 20:1390 21:878 22:207 23:1687 24:173 25:2023 26:290 27:1089 28:232 29:962 30:12 31:1784 32:17 33:438 34:2628 35:347 36:1130 37:551 38:725 39:658 40:131 41:1271 42:275 43:633 44:18 45:584 46:4 47:517 48:89 49:429 50:804 51:372 52:1579 53:606 54:1293 55:917 56:414 57:1477 58:761 59:528 60:37 61:308 62:21 63:363 64:90 65:838 66:5373 67:1008 68:4028 69:1221 70:195 71:1923 72:99 73:2811 74:132 75:1004 76:56 77:584 78:10 79:609 80:106 
1 1:1629 2:8110 3:567 4:1491 5:510 6:2 7:1693 8:12 9:2616 10:168 11:1481 12:28 13:664 14:0 15:840 16:189 17:636 18:6116 19:772 20:3502 21:998 22:69 23:1640 24:97 25:3028 26:158 27:910 28:15 29:1042 30:18 31:974 32:26 33:312 34:1366 35:434 36:1665 37:591 38:842 39:973 40:284 41:1608 42:527 43:556 44:223 45:220 46:19 47:307 48:75 49:473 50:1024 51:625 52:2542 53:610 54:396 55:979 56:306 57:1124 58:278 59:499 60:67 61:293 62:99 63:397 64:287 65:1860 66:5011 67:796 68:2823 69:647 70:457 71:633 72:193 73:800 74:510 75:976 76:132 77:1805 78:123 79:2482 80:751 
1 1:525 2:81 3:528 4:1955 5:727 6:7644 7:4108 8:74 9:2416 10:93 11:560 12:43 13:699 14:55 15:437 16:55 17:848 18:2978 19:877 20:2020 21:1339 22:1109 23:2016 24:469 25:2397 26:2379 27:848 28:586 29:737 30:57 31:938 32:402 33:541 34:1203 35:373 36:1588 37:526 38:875 39:1055 40:61 41:1153 42:830 43:449 44:226 45:335 46:17 47:568 48:200 49:872 50:1893 51:457 52:1115 53:400 54:673 55:779 56:232 57:882 58:561 59:461 60:212 61:383 62:29 63:766 64:284 65:1372 66:3461 67:768 68:528 69:932 70:840 71:1567 72:801 73:1714 74:2873 75:914 76:320 77:1260 78:331 79:1474 80:845 
1 1:544 2:1018 3:319 4:412 5:451 6:1449 7:2980 8:443 9:4132 10:3659 11:892 12:1206 13:338 14:91 15:343 16:1721 17:775 18:1415 19:774 20:1305 21:1059 22:4941 23:2086 24:1005 25:2709 26:1088 27:1208 28:93 29:715 30:11 31:675 32:143 33:814 34:1282 35:504 36:1042 37:607 38:1182 39:873 40:178 41:646 42:917 43:496 44:287 45:431 46:13 47:629 48:99 49:513 50:493 51:430 52:1096 53:615 54:2563 55:754 56:402 57:1133 58:122 59:510 60:1 61:532 62:15 63:513 64:307 65:819 66:2529 67:645 68:2925 69:1121 70:3847 71:2026 72:303 73:2725 74:159 75:1138 76:53 77:750 78:24 79:776 80:159 
1 1:1576 2:7191 3:1090 4:2293 5:1444 6:296 7:1022 8:170 9:840 10:17 11:939 12:1 13:1237 14:10 15:1852 16:23 17:3408 18:4615 19:602 20:3516 21:506 22:1030 23:432 24:246 25:355 26:171 27:579 28:136 29:1086 30:79 31:3033 32:208 33:802 34:3917 35:562 36:564 37:632 38:59 39:524 40:26 41:451 42:69 43:509 44:123 45:701 46:107 47:820 48:136 49:696 50:2352 51:455 52:1384 53:485 54:132 55:1048 56:29 57:853 58:733 59:360 60:251 61:472 62:38 63:631 64:82 65:1224 66:2271 67:1044 68:2874 69:1016 70:950 71:1663 72:206 73:1769 74:2339 75:901 76:991 77:1179 78:211 79:1205 80:158 
1 1:855 2:7920 3:688 4:1559 5:242 6:232 7:164 8:93 9:3126 10:173 11:3076 12:14 13:1191 14:1 15:657 16:8 17:1313 18:2356 19:1014 20:1815 21:790 22:407 23:1133 24:200 25:1035 26:4581 27:1178 28:255 29:2093 30:147 31:1444 32:238 33:546 34:1744 35:505 36:800 37:603 38:238 39:1021 40:57 41:712 42:404 43:585 44:111 45:502 46:128 47:526 48:1518 49:318 50:2034 51:442 52:618 53:722 54:16 55:1245 56:6 57:898 58:642 59:537 60:81 61:471 62:26 63:367 64:1577 65:1950 66:7816 67:1193 68:1075 69:1033 70:0 71:1627 72:4 73:1619 74:104 75:767 76:278 77:788 78:241 79:1023 80:482 
0.353421807024453 1:786 2:5036 3:1242 4:3950 5:1515 6:677 7:1735 8:127 9:1346 10:88 11:1462 12:64 13:1210 14:30 15:704 16:28 17:1353 18:4173 19:1381 20:1403 21:1106 22:1194 23:1022 24:525 25:1276 26:330 27:1161 28:76 29:1178 30:20 31:1524 32:2280 33:552 34:2983 35:516 36:593 37:668 38:6 39:728 40:1 41:874 42:16 43:550 44:31 45:571 46:14 47:543 48:1354 49:464 50:2987 51:523 52:1402 53:548 54:289 55:994 56:6 57:960 58:39 59:523 60:106 61:517 62:45 63:471 64:126 65:1811 66:6768 67:915 68:528 69:966 70:87 71:1162 72:63 73:1062 74:1746 75:1132 76:374 77:1188 78:22 79:1765 80:413 
1 1:1801 2:7051 3:1651 4:2151 5:1329 6:228 7:1223 8:271 9:574 10:299 11:754 12:0 13:999 14:0 15:1669 16:0 17:1585 18:3640 19:965 20:3429 21:1039 22:1162 23:1379 24:997 25:1537 26:676 27:1119 28:48 29:1128 30:9 31:1248 32:39 33:707 34:2422 35:465 36:973 37:600 38:356 39:805 40:273 41:768 42:229 43:560 44:75 45:467 46:16 47:627 48:655 49:565 50:2917 51:531 52:653 53:725 54:114 55:755 56:77 57:692 58:77 59:556 60:229 61:548 62:344 63:629 64:588 65:1556 66:6120 67:1291 68:3684 69:1366 70:16 71:1332 72:13 73:1204 74:63 75:911 76:0 77:930 78:1 79:1411 80:105 
1 1:1163 2:3427 3:664 4:5962 5:1069 6:421 7:1706 8:190 9:2671 10:0 11:1066 12:0 13:756 14:0 15:905 16:0 17:1133 18:1513 19:1045 20:5121 21:1536 22:1996 23:1979 24:56 25:1807 26:1252 27:757 28:62 29:832 30:0 31:911 32:0 33:467 34:636 35:571 36:1302 37:670 38:2985 39:813 40:12 41:913 42:26 43:600 44:35 45:487 46:0 47:479 48:4 49:455 50:909 51:481 52:884 53:575 54:3116 55:812 56:11 57:951 58:32 59:676 60:21 61:580 62:1 63:469 64:25 65:1183 66:841 67:983 68:1894 69:1134 70:4833 71:1996 72:355 73:1856 74:1833 75:919 76:150 77:821 78:59 79:1109 80:37 
0.1458110127346029 1:2192 2:3349 3:3481 4:6651 5:2542 6:0 7:468 8:0 9:329 10:0 11:129 12:0 13:268 14:0 15:590 16:0 17:1586 18:2249 19:1110 20:5451 21:891 22:283 23:1325 24:252 25:1505 26:1481 27:1393 28:98 29:745 30:48 31:1445 32:138 33:510 34:1201 35:370 36:2012 37:439 38:86 39:1118 40:49 41:1107 42:1301 43:430 44:298 45:471 46:37 47:554 48:17 49:692 50:1451 51:512 52:1164 53:389 54:24 55:890 56:22 57:740 58:1832 59:478 60:448 61:610 62:36 63:688 64:24 65:1481 66:3060 67:1592 68:778 69:1072 70:20 71:1143 72:28 73:1247 74:3257 75:1184 76:696 77:1127 78:279 79:1154 80:1883 
0.3765208502664343 1:249 2:0 3:453 4:10000 5:1950 6:0 7:2338 8:0 9:3147 10:0 11:1207 12:0 13:395 14:0 15:261 16:0 17:1669 18:2500 19:772 20:2479 21:921 22:71 23:1565 24:169 25:1719 26:4109 27:787 28:616 29:1059 30:42 31:1508 32:14 33:552 34:797 35:379 36:631 37:511 38:90 39:767 40:54 41:1230 42:3118 43:509 44:215 45:534 46:38 47:518 48:57 49:836 50:1365 51:547 52:925 53:451 54:64 55:681 56:83 57:882 58:2108 59:461 60:177 61:448 62:36 63:695 64:241 65:1928 66:1985 67:1206 68:5755 69:1438 70:91 71:1047 72:76 73:866 74:1772 75:736 76:127 77:886 78:95 79:1895 80:99 
1 1:1152 2:0 3:998 4:615 5:1569 6:618 7:1678 8:299 9:1662 10:8150 11:989 12:317 13:1341 14:0 15:611 16:0 17:1702 18:89 19:1139 20:3947 21:959 22:239 23:1266 24:155 25:1429 26:3084 27:814 28:2431 29:1078 30:22 31:1612 32:32 33:742 34:87 35:455 36:282 37:424 38:183 39:697 40:51 41:878 42:2624 43:466 44:1745 45:594 46:23 47:745 48:5 49:800 50:90 51:539 52:117 53:566 54:13 55:769 56:31 57:698 58:3452 59:354 60:1189 61:492 62:97 63:781 64:11 65:1567 66:1058 67:938 68:151 69:969 70:1 71:1616 72:8 73:1770 74:3950 75:1133 76:3290 77:806 78:235 79:1201 80:1307 
1 1:841 2:0 3:1029 4:584 5:1385 6:1039 7:2097 8:213 9:1432 10:7597 11:1401 12:567 13:1191 14:0 15:624 16:0 17:1504 18:491 19:903 20:3614 21:922 22:561 23:1894 24:158 25:1721 26:4292 27:942 28:741 29:1008 30:95 31:1106 32:48 33:713 34:40 35:479 36:514 37:488 38:264 39:807 40:132 41:772 42:2632 43:468 44:1345 45:531 46:48 47:742 48:24 49:637 50:711 51:460 52:242 53:516 54:23 55:901 56:49 57:998 58:1901 59:549 60:1077 61:425 62:252 63:514 64:745 65:2238 66:1108 67:917 68:58 69:703 70:2 71:1555 72:9 73:1241 74:5531 75:951 76:2660 77:730 78:151 79:1665 80:481 
0.1932172024182735 1:1527 2:3616 3:1663 4:1263 5:1435 6:171 7:688 8:66 9:649 10:4686 11:1448 12:185 13:1890 14:9 15:698 16:6 17:941 18:5565 19:665 20:3601 21:1045 22:255 23:2421 24:176 25:2089 26:324 27:1263 28:39 29:863 30:0 31:714 32:40 33:466 34:2527 35:441 36:1286 37:568 38:196 39:986 40:169 41:1055 42:709 43:674 44:53 45:456 46:18 47:356 48:42 49:635 50:791 51:511 52:612 53:515 54:68 55:774 56:111 57:743 58:2910 59:575 60:383 61:558 62:80 63:690 64:44 65:1719 66:1406 67:928 68:70 69:976 70:5 71:1138 72:5 73:1376 74:6760 75:1379 76:1181 77:1141 78:218 79:1344 80:355 
1 1:1230 2:6092 3:456 4:1450 5:833 6:541 7:2305 8:355 9:803 10:1549 11:808 12:10 13:1436 14:2 15:2130 16:0 17:2109 18:3691 19:422 20:3425 21:781 22:572 23:1466 24:680 25:1423 26:1470 27:1043 28:36 29:659 30:19 31:2097 32:108 33:641 34:1369 35:564 36:697 37:573 38:366 39:722 40:373 41:961 42:1682 43:599 44:462 45:361 46:26 47:579 48:25 49:771 50:2419 51:372 52:501 53:353 54:128 55:908 56:55 57:1031 58:1338 59:421 60:187 61:428 62:78 63:716 64:294 65:1711 66:7207 67:855 68:46 69:930 70:1 71:883 72:2 73:1136 74:527 75:764 76:881 77:1296 78:481 79:2425 80:855 
1 1:1313 2:529 3:1557 4:2379 5:2454 6:51 7:1156 8:139 9:854 10:6902 11:713 12:0 13:896 14:0 15:1058 16:0 17:2582 18:2054 19:1133 20:3553 21:973 22:220 23:1134 24:277 25:775 26:3856 27:625 28:36 29:697 30:0 31:2080 32:4 33:682 34:1213 35:449 36:602 37:740 38:82 39:970 40:30 41:670 42:2981 43:488 44:78 45:347 46:3 47:654 48:10 49:508 50:817 51:433 52:12 53:672 54:1 55:1145 56:17 57:918 58:3591 59:343 60:447 61:318 62:42 63:661 64:72 65:2260 66:7090 67:654 68:348 69:1014 70:12 71:1291 72:10 73:1037 74:1607 75:580 76:547 77:839 78:53 79:2324 80:335 
1 1:1256 2:265 3:1573 4:27 5:1261 6:9 7:775 8:30 9:2131 10:9591 11:815 12:56 13:851 14:8 15:1337 16:14 17:1223 18:4395 19:1126 20:612 21:1390 22:114 23:1907 24:124 25:1395 26:3728 27:751 28:703 29:984 30:43 31:1226 32:283 33:680 34:2298 35:390 36:384 37:471 38:86 39:762 40:57 41:1062 42:1362 43:496 44:506 45:514 46:105 47:624 48:202 49:921 50:1359 51:306 52:257 53:360 54:13 55:461 56:22 57:890 58:2030 59:558 60:811 61:535 62:253 63:968 64:255 65:1302 66:748 67:666 68:2352 69:886 70:31 71:1617 72:66 73:1665 74:5953 75:1113 76:422 77:815 78:175 79:1935 80:253 
0.7318562953951948 1:943 2:245 3:1391 4:5969 5:1226 6:3388 7:1412 8:284 9:1373 10:114 11:1041 12:0 13:1784 14:0 15:830 16:0 17:1286 18:58 19:882 20:253 21:1065 22:189 23:1553 24:136 25:1848 26:8859 27:1125 28:495 29:973 30:3 31:1269 32:5 33:789 34:183 35:730 36:136 37:458 38:48 39:765 40:27 41:813 42:4359 43:494 44:223 45:425 46:9 47:527 48:16 49:839 50:317 51:449 52:199 53:465 54:33 55:782 56:27 57:719 58:4137 59:473 60:203 61:581 62:4 63:693 64:80 65:1842 66:59 67:691 68:288 69:881 70:61 71:1361 72:100 73:1656 74:8899 75:915 76:559 77:1087 78:7 79:1566 80:26 
1 1:669 2:61 3:706 4:389 5:1017 6:9 7:2020 8:16 9:2701 10:9522 11:1557 12:2 13:858 14:0 15:472 16:0 17:1013 18:2788 19:674 20:6632 21:899 22:47 23:1217 24:43 25:1245 26:486 27:1221 28:0 29:1639 30:3 31:2091 32:1 33:415 34:2493 35:351 36:269 37:624 38:53 39:1182 40:131 41:907 42:1958 43:594 44:77 45:540 46:3 47:388 48:16 49:587 50:1201 51:323 52:34 53:673 54:58 55:1298 56:19 57:820 58:3317 59:507 60:339 61:325 62:13 63:467 64:19 65:866 66:3214 67:676 68:604 69:879 70:39 71:1764 72:18 73:1993 74:5735 75:2111 76:326 77:889 78:12 79:821 80:52 
1 1:442 2:7052 3:712 4:2629 5:823 6:52 7:1065 8:29 9:2302 10:166 11:3634 12:50 13:600 14:13 15:423 16:10 17:1337 18:617 19:862 20:3356 21:2192 22:323 23:982 24:516 25:1642 26:5154 27:1017 28:27 29:625 30:2 31:1342 32:5 33:453 34:947 35:615 36:1119 37:1250 38:93 39:492 40:37 41:458 42:2757 43:946 44:29 45:363 46:8 47:424 48:9 49:814 50:1172 51:513 52:683 53:627 54:95 55:345 56:124 57:390 58:2710 59:446 60:128 61:931 62:22 63:934 64:65 65:846 66:5050 67:497 68:1281 69:510 70:118 71:719 72:491 73:980 74:2499 75:1456 76:446 77:2832 78:29 79:2160 80:86 
1 1:9 2:8348 3:19 4:1652 5:201 6:0 7:7530 8:0 9:2180 10:0 11:36 12:0 13:20 14:0 15:5 16:0 17:1399 18:2790 19:766 20:3294 21:842 22:165 23:1671 24:196 25:1579 26:3363 27:907 28:138 29:1228 30:8 31:1608 32:47 33:646 34:1311 35:432 36:865 37:402 38:197 39:1088 40:59 41:902 42:2480 43:401 44:69 45:425 46:6 47:703 48:14 49:472 50:1268 51:435 52:291 53:504 54:57 55:1052 56:32 57:1045 58:3168 59:489 60:133 61:403 62:29 63:599 64:22 65:1210 66:2929 67:713 68:647 69:1459 70:73 71:2046 72:58 73:1945 74:6054 75:840 76:114 77:619 78:47 79:1168 80:78 
1 1:3082 2:5027 3:146 4:4973 5:163 6:0 7:140 8:0 9:221 10:0 11:125 12:0 13:1415 14:0 15:4708 16:0 17:1577 18:525 19:2138 20:3024 21:806 22:981 23:605 24:1181 25:1056 26:4206 27:1617 28:75 29:1315 30:5 31:886 32:2 33:842 34:272 35:1070 36:662 37:725 38:242 39:595 40:278 41:575 42:3544 43:420 44:1 45:345 46:0 47:428 48:0 49:858 50:2039 51:644 52:764 53:472 54:68 55:664 56:62 57:674 58:2015 59:404 60:41 61:422 62:4 63:862 64:7 65:1336 66:6710 67:815 68:817 69:868 70:116 71:1727 72:351 73:2501 74:1505 75:801 76:240 77:857 78:43 79:1095 80:219 
1 1:1303 2:6585 3:374 4:1922 5:391 6:140 7:2109 8:183 9:3183 10:1107 11:288 12:28 13:493 14:14 15:1859 16:22 17:1582 18:2883 19:1211 20:1433 21:1067 22:158 23:724 24:302 25:807 26:5062 27:880 28:136 29:1684 30:13 31:2045 32:13 33:880 34:1321 35:711 36:431 37:562 38:48 39:515 40:82 41:780 42:2940 43:417 44:140 45:510 46:20 47:625 48:18 49:757 50:2889 51:455 52:423 53:501 54:23 55:915 56:20 57:814 58:1482 59:425 60:109 61:447 62:12 63:686 64:42 65:819 66:2595 67:629 68:360 69:964 70:11 71:2456 72:29 73:2296 74:6465 75:1331 76:402 77:694 78:54 79:810 80:85 
1 1:2 2:584 3:1 4:9412 5:34 6:0 7:6387 8:0 9:3195 10:0 11:297 12:0 13:84 14:2 15:0 16:2 17:2016 18:3189 19:686 20:2767 21:668 22:1218 23:1560 24:1513 25:2183 26:1305 27:666 28:6 29:594 30:0 31:1628 32:1 33:671 34:586 35:379 36:650 37:422 38:319 39:1115 40:402 41:1061 42:2996 43:383 44:27 45:415 46:9 47:554 48:11 49:488 50:359 51:353 52:607 53:513 54:162 55:1056 56:162 57:1180 58:3475 59:558 60:122 61:421 62:61 63:430 64:52 65:1644 66:1581 67:869 68:1163 69:692 70:251 71:2034 72:917 73:1587 74:5499 75:779 76:117 77:910 78:69 79:1485 80:402 
1 1:1704 2:31 3:526 4:138 5:678 6:21 7:1932 8:13 9:1796 10:4310 11:726 12:4725 13:800 14:487 15:1837 16:275 17:2870 18:1114 19:491 20:1867 21:469 22:143 23:724 24:92 25:874 26:6600 27:438 28:148 29:531 30:27 31:3603 32:10 33:359 34:360 35:384 36:2367 37:455 38:533 39:1195 40:198 41:1548 42:1319 43:402 44:189 45:343 46:19 47:314 48:15 49:522 50:316 51:468 52:686 53:520 54:432 55:1028 56:79 57:908 58:1012 59:495 60:1307 61:506 62:505 63:552 64:664 65:1252 66:441 67:1106 68:1318 69:1151 70:85 71:1616 72:14 73:1455 74:416 75:823 76:4694 77:1255 78:935 79:1342 80:2097 
1 1:378 2:5525 3:361 4:2315 5:442 6:491 7:770 8:367 9:4273 10:1293 11:2499 12:8 13:625 14:1 15:652 16:0 17:930 18:4262 19:874 20:3245 21:1214 22:137 23:2095 24:71 25:2003 26:2242 27:1094 28:15 29:807 30:3 31:983 32:25 33:475 34:2322 35:346 36:1258 37:719 38:30 39:1082 40:19 41:915 42:1298 43:528 44:20 45:374 46:26 47:561 48:28 49:477 50:2693 51:348 52:742 53:602 54:58 55:1032 56:8 57:1248 58:1391 59:530 60:24 61:314 62:19 63:449 64:65 65:818 66:3711 67:1055 68:894 69:1747 70:73 71:1883 72:94 73:2201 74:4527 75:1052 76:460 77:660 78:93 79:584 80:148 
1 1:755 2:4896 3:787 4:3047 5:1297 6:228 7:338 8:88 9:391 10:1683 11:443 12:58 13:3715 14:0 15:2274 16:0 17:825 18:3341 19:800 20:6208 21:961 22:230 23:2251 24:77 25:2172 26:142 27:679 28:0 29:1370 30:0 31:943 32:2 33:376 34:1989 35:306 36:2244 37:353 38:187 39:1127 40:114 41:1194 42:417 43:618 44:14 45:573 46:0 47:452 48:34 49:493 50:1125 51:477 52:1375 53:531 54:71 55:1019 56:76 57:1072 58:1721 59:467 60:339 61:512 62:62 63:429 64:231 65:1796 66:1005 67:1523 68:134 69:1665 70:17 71:1070 72:47 73:891 74:7118 75:734 76:1504 77:796 78:105 79:1525 80:71 
0.7689896142280869 1:182 2:0 3:1137 4:34 5:6558 6:123 7:1684 8:392 9:168 10:9437 11:105 12:13 13:90 14:0 15:76 16:0 17:924 18:5889 19:1071 20:815 21:2233 22:280 23:1842 24:538 25:1866 26:2282 27:564 28:113 29:718 30:10 31:783 32:73 33:697 34:3257 35:440 36:523 37:755 38:110 39:943 40:137 41:590 42:770 43:478 44:30 45:535 46:7 47:563 48:165 49:607 50:2394 51:498 52:232 53:645 54:89 55:583 56:68 57:938 58:1596 59:586 60:189 61:566 62:112 63:578 64:321 65:2467 66:6441 67:770 68:488 69:816 70:112 71:1903 72:86 73:1912 74:2007 75:834 76:169 77:425 78:133 79:873 80:564 
1 1:614 2:792 3:392 4:9074 5:861 6:121 7:925 8:10 9:2363 10:3 11:2949 12:0 13:1286 14:0 15:610 16:0 17:1365 18:1381 19:2008 20:330 21:1519 22:25 23:1098 24:182 25:1030 26:6551 27:901 28:1212 29:853 30:111 31:1226 32:209 33:635 34:1536 35:718 36:740 37:768 38:13 39:472 40:14 41:722 42:1861 43:697 44:613 45:440 46:74 47:547 48:149 49:677 50:1470 51:846 52:501 53:585 54:57 55:415 56:18 57:633 58:2089 59:716 60:580 61:578 62:162 63:550 64:124 65:1410 66:4210 67:1497 68:1528 69:1240 70:113 71:958 72:141 73:1269 74:2201 75:1466 76:662 77:929 78:343 79:1231 80:802 
1 1:21 2:1 3:70 4:22 5:2599 6:21 7:6185 8:224 9:1045 10:9672 11:36 12:59 13:37 14:0 15:7 16:1 17:1598 18:3370 19:886 20:1669 21:1091 22:306 23:1992 24:264 25:1243 26:4005 27:844 28:197 29:843 30:18 31:1502 32:170 33:641 34:1679 35:437 36:154 37:717 38:12 39:930 40:139 41:688 42:2479 43:418 44:388 45:413 46:53 47:757 48:97 49:629 50:110 51:463 52:22 53:492 54:51 55:941 56:88 57:1017 58:3786 59:477 60:862 61:381 62:24 63:600 64:57 65:1409 66:399 67:1008 68:154 69:870 70:66 71:1590 72:42 73:1731 74:4314 75:947 76:3121 77:933 78:546 79:1513 80:1358 
1 1:1280 2:1985 3:739 4:5217 5:1014 6:350 7:2002 8:316 9:2117 10:1896 11:705 12:199 13:543 14:18 15:1600 16:19 17:935 18:3096 19:585 20:3461 21:704 22:280 23:873 24:282 25:1271 26:2596 27:1986 28:112 29:2340 30:7 31:1306 32:167 33:990 34:449 35:415 36:1490 37:547 38:599 39:539 40:231 41:502 42:1992 43:381 44:205 45:541 46:12 47:1085 48:22 49:598 50:989 51:602 52:296 53:708 54:169 55:592 56:512 57:543 58:2430 59:589 60:386 61:737 62:27 63:631 64:190 65:1860 66:3032 67:953 68:626 69:1024 70:49 71:1285 72:158 73:1577 74:4684 75:939 76:409 77:1012 78:61 79:1351 80:979 
1 1:309 2:28 3:265 4:7588 5:724 6:1132 7:1766 8:865 9:2171 10:339 11:2861 12:48 13:1287 14:0 15:619 16:0 17:1425 18:2108 19:1105 20:5905 21:1989 22:535 23:1108 24:293 25:1117 26:1116 27:917 28:31 29:1076 30:6 31:1264 32:7 33:513 34:2306 35:508 36:936 37:716 38:109 39:776 40:171 41:781 42:1271 43:620 44:83 45:520 46:21 47:565 48:103 49:720 50:2538 51:416 52:192 53:492 54:49 55:845 56:57 57:824 58:1493 59:590 60:426 61:527 62:54 63:585 64:191 65:1347 66:4288 67:1221 68:296 69:861 70:61 71:1182 72:104 73:1386 74:2590 75:1301 76:1644 77:1387 78:229 79:1316 80:788 
1 1:476 2:1 3:787 4:270 5:674 6:5841 7:3038 8:2652 9:3694 10:1235 11:366 12:0 13:484 14:0 15:481 16:0 17:1269 18:779 19:661 20:4007 21:851 22:1953 23:1723 24:808 25:1570 26:2448 27:801 28:0 29:1691 30:1 31:1435 32:5 33:934 34:203 35:364 36:259 37:351 38:125 39:735 40:98 41:829 42:3495 43:454 44:638 45:412 46:150 47:921 48:32 49:806 50:945 51:367 52:125 53:394 54:50 55:819 56:53 57:896 58:1239 59:475 60:1005 61:421 62:275 63:822 64:1307 65:1067 66:1568 67:828 68:9 69:1177 70:30 71:1750 72:66 73:2238 74:2591 75:1109 76:4192 77:853 78:642 79:977 80:903 
1 1:278 2:0 3:354 4:473 5:2074 6:7045 7:1234 8:2280 9:2990 10:202 11:2297 12:0 13:573 14:0 15:201 16:0 17:991 18:1577 19:966 20:1461 21:903 22:345 23:2378 24:70 25:1929 26:4195 27:854 28:1406 29:935 30:269 31:1044 32:677 33:674 34:207 35:393 36:83 37:415 38:61 39:912 40:21 41:836 42:3874 43:481 44:516 45:480 46:110 47:808 48:127 49:413 50:1116 51:363 52:193 53:521 54:60 55:1107 56:21 57:1085 58:2848 59:479 60:293 61:459 62:61 63:572 64:409 65:1370 66:3557 67:877 68:391 69:1066 70:74 71:1669 72:72 73:1539 74:2730 75:964 76:1499 77:915 78:277 79:1600 80:1401 
1 1:757 2:0 3:667 4:102 5:979 6:2715 7:1617 8:5241 9:1506 10:1942 11:1585 12:0 13:1872 14:0 15:1017 16:0 17:1305 18:2402 19:834 20:1053 21:1367 22:339 23:1501 24:278 25:1605 26:4677 27:1026 28:405 29:985 30:161 31:1376 32:684 33:738 34:584 35:418 36:470 37:538 38:141 39:824 40:110 41:674 42:3102 43:482 44:345 45:393 46:72 47:932 48:175 49:477 50:702 51:364 52:107 53:567 54:57 55:1079 56:148 57:974 58:2986 59:498 60:699 61:469 62:145 63:572 64:155 65:1127 66:1219 67:853 68:98 69:894 70:46 71:1983 72:47 73:1954 74:3136 75:957 76:1448 77:887 78:852 79:1346 80:3152 
1 1:1037 2:1 3:673 4:18 5:1155 6:44 7:1432 8:4056 9:2698 10:5876 11:1043 12:6 13:1067 14:0 15:895 16:0 17:1297 18:261 19:749 20:62 21:988 22:198 23:1790 24:960 25:1758 26:6579 27:1086 28:279 29:970 30:68 31:1363 32:1593 33:469 34:685 35:506 36:225 37:616 38:38 39:897 40:319 41:1050 42:2340 43:528 44:187 45:432 46:104 47:502 48:1103 49:607 50:2304 51:423 52:137 53:781 54:30 55:821 56:110 57:766 58:358 59:458 60:665 61:489 62:334 63:654 64:1064 65:1281 66:6196 67:943 68:51 69:1578 70:4 71:1705 72:26 73:1452 74:149 75:828 76:357 77:1109 78:689 79:1104 80:2527 
1 1:295 2:1049 3:1671 4:1758 5:626 6:937 7:2375 8:606 9:3157 10:5590 11:785 12:61 13:725 14:0 15:365 16:0 17:1218 18:681 19:1281 20:5259 21:1588 22:3239 23:1389 24:116 25:1523 26:161 27:1124 28:106 29:993 30:72 31:885 32:366 33:559 34:1279 35:555 36:1396 37:522 38:638 39:933 40:182 41:1048 42:149 43:454 44:134 45:444 46:529 47:485 48:693 49:507 50:2987 51:506 52:312 53:576 54:34 55:868 56:16 57:928 58:601 59:596 60:264 61:532 62:86 63:487 64:700 65:817 66:7910 67:824 68:449 69:1168 70:1 71:1556 72:0 73:2276 74:0 75:1403 76:0 77:1128 78:22 79:828 80:1618 
1 1:718 2:133 3:488 4:1251 5:366 6:1127 7:2988 8:1281 9:3308 10:5999 11:218 12:103 13:344 14:30 15:1571 16:78 17:1342 18:4300 19:1084 20:3006 21:1319 22:982 23:1898 24:666 25:2010 26:595 27:721 28:207 29:637 30:63 31:990 32:182 33:408 34:2083 35:388 36:1219 37:615 38:425 39:1010 40:417 41:1041 42:379 43:579 44:175 45:505 46:71 47:453 48:230 49:618 50:1675 51:550 52:139 53:501 54:88 55:831 56:689 57:865 58:800 59:500 60:137 61:550 62:151 63:584 64:1321 65:1252 66:2015 67:622 68:127 69:1037 70:38 71:1818 72:243 73:1761 74:2780 75:1280 76:575 77:991 78:945 79:1239 80:3277 
0.5188579407519711 1:410 2:9757 3:548 4:233 5:1193 6:0 7:1154 8:0 9:2608 10:0 11:2582 12:0 13:1180 14:0 15:326 16:10 17:1150 18:2089 19:847 20:3459 21:1773 22:1093 23:1820 24:2728 25:1684 26:614 27:1251 28:3 29:629 30:1 31:847 32:13 33:568 34:1125 35:385 36:1772 37:571 38:594 39:781 40:1116 41:994 42:367 43:626 44:11 45:439 46:1 47:636 48:13 49:495 50:922 51:451 52:1920 53:647 54:773 55:751 56:1211 57:925 58:169 59:639 60:2 61:556 62:0 63:537 64:1 65:1140 66:1405 67:973 68:3752 69:1254 70:2072 71:1323 72:1542 73:1966 74:1081 75:1261 76:11 77:883 78:11 79:1200 80:126 
1 1:482 2:9087 3:745 4:141 5:1012 6:13 7:1482 8:33 9:2511 10:43 11:2111 12:141 13:1351 14:93 15:305 16:448 17:1530 18:776 19:712 20:1647 21:1085 22:1082 23:1972 24:1324 25:1562 26:4598 27:1207 28:12 29:838 30:428 31:1094 32:133 33:573 34:841 35:436 36:802 37:678 38:474 39:826 40:1209 41:1011 42:1651 43:710 44:6 45:351 46:2 47:414 48:14 49:575 50:797 51:409 52:1572 53:490 54:253 55:736 56:817 57:989 58:1413 59:580 60:75 61:478 62:13 63:743 64:59 65:1150 66:1304 67:1103 68:2313 69:1190 70:2299 71:1637 72:449 73:1556 74:3597 75:1290 76:7 77:915 78:12 79:1160 80:19 
1 1:627 2:9316 3:583 4:684 5:755 6:0 7:1315 8:0 9:4782 10:0 11:791 12:0 13:634 14:0 15:513 16:0 17:1181 18:2344 19:1220 20:230 21:1371 22:1795 23:1531 24:2363 25:1510 26:2934 27:907 28:93 29:994 30:48 31:1285 32:194 33:486 34:1151 35:378 36:1035 37:385 38:1035 39:740 40:1403 41:789 42:344 43:486 44:0 45:1082 46:1 47:655 48:32 49:745 50:827 51:355 52:1700 53:382 54:820 55:906 56:1405 57:848 58:64 59:790 60:0 61:443 62:31 63:532 64:153 65:1157 66:2454 67:539 68:3406 69:1257 70:1219 71:2446 72:2259 73:2008 74:630 75:1135 76:7 77:609 78:3 79:850 80:24 
1 1:535 2:9957 3:504 4:43 5:862 6:0 7:1640 8:0 9:4579 10:0 11:781 12:0 13:612 14:0 15:487 16:0 17:1305 18:2039 19:764 20:585 21:682 22:2161 23:1321 24:952 25:2204 26:4198 27:1628 28:53 29:1033 30:3 31:1062 32:8 33:541 34:1964 35:353 36:1071 37:598 38:1099 39:723 40:356 41:732 42:379 43:579 44:20 45:969 46:7 47:504 48:106 49:754 50:2013 51:346 52:1457 53:505 54:612 55:984 56:638 57:924 58:139 59:547 60:131 61:354 62:5 63:586 64:5 65:1068 66:4162 67:687 68:3311 69:1178 70:828 71:1487 72:1113 73:2076 74:505 75:1283 76:34 77:1042 78:4 79:1179 80:43 
1 1:419 2:9696 3:455 4:0 5:644 6:0 7:2992 8:0 9:3988 10:0 11:544 12:0 13:522 14:0 15:435 16:304 17:2079 18:5017 19:444 20:1548 21:494 22:53 23:1360 24:53 25:1628 26:2773 27:394 28:461 29:832 30:37 31:2770 32:59 33:394 34:919 35:365 36:556 37:801 38:51 39:969 40:61 41:911 42:2391 43:703 44:661 45:419 46:234 47:438 48:127 49:494 50:2474 51:342 52:912 53:452 54:152 55:907 56:299 57:836 58:875 59:507 60:113 61:836 62:33 63:625 64:143 65:1117 66:4952 67:622 68:1864 69:937 70:548 71:1804 72:451 73:1805 74:1565 75:1029 76:87 77:1650 78:79 79:1036 80:455 
1 1:640 2:5962 3:464 4:217 5:1116 6:352 7:4757 8:61 9:1649 10:2 11:291 12:6 13:429 14:633 15:654 16:2767 17:1223 18:6490 19:1047 20:0 21:1650 22:0 23:1060 24:0 25:1324 26:0 27:1127 28:0 29:1584 30:0 31:985 32:3510 33:1525 34:1382 35:214 36:8 37:381 38:0 39:576 40:0 41:228 42:1 43:184 44:0 45:276 46:9 47:1615 48:3600 49:1986 50:849 51:186 52:9 53:165 54:1 55:172 56:10 57:335 58:752 59:355 60:366 61:272 62:866 63:1529 64:2147 65:1640 66:159 67:922 68:41 69:1430 70:5 71:1051 72:10 73:829 74:115 75:939 76:27 77:1426 78:683 79:1763 80:8959 
1 1:2079 2:5101 3:1125 4:10 5:936 6:1 7:1364 8:0 9:1563 10:0 11:704 12:0 13:1195 14:462 15:1034 16:4425 17:1237 18:1940 19:1095 20:390 21:1155 22:476 23:1104 24:269 25:1142 26:3894 27:1150 28:618 29:1866 30:175 31:1250 32:2237 33:1062 34:2199 35:638 36:462 37:479 38:494 39:548 40:247 41:565 42:184 43:455 44:69 45:558 46:74 47:695 48:1270 49:766 50:3006 51:687 52:794 53:758 54:459 55:662 56:73 57:486 58:19 59:439 60:8 61:519 62:21 63:684 64:622 65:988 66:5223 67:1161 68:2070 69:1841 70:70 71:1535 72:12 73:1470 74:49 75:1030 76:53 77:1031 78:160 79:944 80:2362 
1 1:529 2:4491 3:710 4:4043 5:1525 6:44 7:2470 8:119 9:2548 10:1133 11:885 12:155 13:702 14:8 15:631 16:6 17:1024 18:4341 19:863 20:1928 21:904 22:16 23:2658 24:21 25:1860 26:1436 27:810 28:1789 29:644 30:191 31:1236 32:278 33:639 34:2281 35:448 36:1073 37:520 38:8 39:1071 40:8 41:918 42:1405 43:446 44:192 45:379 46:7 47:578 48:27 49:557 50:676 51:480 52:245 53:545 54:17 55:977 56:45 57:902 58:3497 59:438 60:393 61:481 62:93 63:619 64:35 65:1605 66:3207 67:944 68:2815 69:981 70:50 71:1088 72:31 73:1333 74:597 75:903 76:264 77:1190 78:137 79:1956 80:2900 
1 1:633 2:1845 3:346 4:1321 5:825 6:5 7:1841 8:18 9:4731 10:1385 11:839 12:121 13:264 14:209 15:521 16:5096 17:937 18:3549 19:803 20:965 21:1066 22:203 23:1953 24:328 25:2484 26:2057 27:878 28:211 29:941 30:74 31:938 32:2613 33:463 34:1923 35:441 36:472 37:678 38:166 39:1128 40:70 41:785 42:460 43:557 44:213 45:429 46:55 47:519 48:1641 49:622 50:1604 51:454 52:1053 53:576 54:208 55:605 56:9 57:892 58:62 59:616 60:26 61:471 62:16 63:763 64:2022 65:947 66:3796 67:721 68:2365 69:1293 70:16 71:1753 72:13 73:2047 74:1331 75:1162 76:172 77:1160 78:138 79:917 80:2169 
1 1:415 2:5209 3:502 4:57 5:883 6:4 7:3461 8:7 9:2192 10:22 11:750 12:616 13:1008 14:697 15:789 16:3389 17:920 18:4470 19:1575 20:701 21:1472 22:767 23:1188 24:1129 25:1533 26:2194 27:1674 28:96 29:999 30:44 31:639 32:599 33:633 34:3115 35:598 36:318 37:472 38:30 39:827 40:45 41:744 42:478 43:505 44:114 45:547 46:97 47:675 48:802 49:520 50:2294 51:541 52:420 53:543 54:53 55:1013 56:16 57:792 58:276 59:549 60:160 61:485 62:276 63:557 64:1506 65:1298 66:4619 67:1205 68:1348 69:1129 70:170 71:1252 72:5 73:1263 74:146 75:1212 76:427 77:1194 78:466 79:1448 80:2820 
1 1:84 2:895 3:138 4:8778 5:665 6:135 7:6928 8:62 9:1802 10:130 11:209 12:0 13:96 14:0 15:78 16:0 17:1154 18:2517 19:729 20:4296 21:907 22:535 23:2274 24:242 25:2111 26:2112 27:854 28:18 29:750 30:0 31:1222 32:282 33:508 34:222 35:384 36:2163 37:514 38:644 39:1142 40:351 41:954 42:1597 43:542 44:18 45:452 46:2 47:504 48:3 49:530 50:159 51:537 52:1926 53:505 54:311 55:1153 56:251 57:961 58:2326 59:429 60:9 61:376 62:6 63:509 64:13 65:1284 66:2127 67:1129 68:1794 69:1466 70:141 71:1620 72:131 73:1457 74:5252 75:878 76:431 77:973 78:70 79:1193 80:54 
1 1:2247 2:4491 3:873 4:5004 5:670 6:58 7:1090 8:30 9:957 10:353 11:839 12:64 13:1356 14:0 15:1968 16:0 17:1426 18:880 19:1455 20:3829 21:1042 22:282 23:1257 24:129 25:1234 26:4836 27:1275 28:7 29:820 30:20 31:1491 32:16 33:1091 34:1160 35:500 36:1126 37:460 38:570 39:558 40:463 41:483 42:1655 43:353 44:3 45:527 46:0 47:1029 48:22 49:728 50:1915 51:493 52:1540 53:712 54:634 55:700 56:218 57:503 58:498 59:491 60:87 61:571 62:15 63:801 64:92 65:1299 66:3153 67:964 68:2052 69:1567 70:1741 71:1601 72:885 73:1227 74:1870 75:947 76:222 77:1129 78:24 79:1265 80:52 
1 1:508 2:3 3:375 4:5 5:682 6:0 7:3402 8:17 9:4034 10:9290 11:485 12:682 13:310 14:3 15:205 16:0 17:1532 18:1577 19:825 20:245 21:1291 22:89 23:1688 24:182 25:1433 26:5078 27:1099 28:2497 29:805 30:131 31:1327 32:201 33:1028 34:2082 35:460 36:195 37:474 38:2 39:561 40:45 41:628 42:1516 43:549 44:351 45:435 46:40 47:866 48:768 49:513 50:760 51:299 52:1196 53:348 54:876 55:820 56:67 57:1448 58:1832 59:858 60:215 61:324 62:24 63:390 64:31 65:1870 66:2999 67:476 68:1396 69:628 70:66 71:1799 72:45 73:2793 74:4252 75:983 76:668 77:635 78:203 79:815 80:371 
1 1:524 2:6 3:340 4:9 5:485 6:11 7:3311 8:29 9:3920 10:9729 11:590 12:215 13:385 14:1 15:445 16:0 17:1805 18:1888 19:939 20:425 21:1192 22:77 23:1181 24:258 25:1190 26:5942 27:865 28:1164 29:745 30:20 31:2082 32:227 33:532 34:945 35:350 36:904 37:383 38:833 39:817 40:25 41:1410 42:1798 43:729 44:118 45:392 46:9 47:387 48:368 49:723 50:1548 51:297 52:820 53:341 54:449 55:1021 56:17 57:1233 58:1899 59:456 60:136 61:334 62:45 63:595 64:87 65:1376 66:1244 67:663 68:97 69:702 70:112 71:1566 72:160 73:2889 74:7031 75:1107 76:912 77:541 78:177 79:1157 80:266 
1 1:2398 2:9 3:430 4:24 5:391 6:2 7:1889 8:20 9:1594 10:9892 11:545 12:49 13:491 14:4 15:2262 16:1 17:1661 18:16 19:932 20:451 21:1153 22:122 23:1489 24:78 25:971 26:9099 27:675 28:234 29:814 30:0 31:2305 32:0 33:1072 34:319 35:424 36:133 37:362 38:169 39:567 40:137 41:541 42:3502 43:392 44:157 45:448 46:13 47:1195 48:571 49:487 50:424 51:346 52:198 53:471 54:361 55:859 56:990 57:1208 58:2557 59:537 60:334 61:595 62:38 63:497 64:98 65:1220 66:1544 67:588 68:23 69:965 70:13 71:1531 72:1747 73:2561 74:2569 75:1461 76:3668 77:692 78:93 79:982 80:342 
1 1:759 2:224 3:853 4:492 5:1750 6:567 7:3391 8:394 9:1526 10:8262 11:637 12:47 13:578 14:0 15:505 16:14 17:1514 18:941 19:696 20:1155 21:1001 22:52 23:996 24:42 25:1097 26:4230 27:590 28:3569 29:1184 30:1 31:2923 32:9 33:793 34:429 35:266 36:188 37:457 38:139 39:885 40:155 41:615 42:2842 43:441 44:1186 45:538 46:11 47:1006 48:50 49:834 50:934 51:425 52:77 53:577 54:25 55:757 56:75 57:601 58:3368 59:351 60:480 61:464 62:16 63:990 64:25 65:1515 66:3546 67:632 68:345 69:1055 70:39 71:1529 72:118 73:1179 74:3573 75:747 76:649 77:594 78:52 79:2749 80:1679 
1 1:1361 2:8730 3:836 4:157 5:1063 6:202 7:1035 8:404 9:2277 10:297 11:780 12:156 13:876 14:20 15:1773 16:33 17:2386 18:4789 19:906 20:337 21:768 22:75 23:664 24:47 25:573 26:4177 27:592 28:303 29:1551 30:88 31:2560 32:184 33:610 34:3454 35:646 36:762 37:665 38:286 39:1041 40:23 41:785 42:249 43:383 44:101 45:344 46:53 47:526 48:72 49:352 50:2821 51:497 52:212 53:875 54:53 55:1472 56:14 57:746 58:1106 59:376 60:376 61:276 62:79 63:407 64:339 65:1214 66:3738 67:517 68:211 69:1080 70:46 71:2009 72:75 73:1574 74:4018 75:571 76:860 77:484 78:269 79:2551 80:782 
1 1:869 2:4020 3:1565 4:1 5:2673 6:0 7:1867 8:0 9:1010 10:2656 11:616 12:2209 13:718 14:525 15:682 16:589 17:2880 18:4851 19:772 20:786 21:584 22:981 23:1070 24:227 25:1036 26:2116 27:603 28:485 29:871 30:184 31:2184 32:370 33:639 34:624 35:416 36:1874 37:690 38:1693 39:1030 40:58 41:840 42:316 43:463 44:298 45:367 46:68 47:554 48:69 49:684 50:801 51:342 52:577 53:620 54:506 55:792 56:53 57:793 58:1784 59:609 60:937 61:531 62:144 63:628 64:198 65:1496 66:1617 67:738 68:1258 69:930 70:557 71:2579 72:184 73:1614 74:4348 75:688 76:939 77:663 78:501 79:1291 80:595 
1 1:2208 2:8121 3:412 4:850 5:658 6:5 7:1553 8:5 9:2079 10:263 11:817 12:410 13:721 14:45 15:1552 16:300 17:1502 18:940 19:1997 20:1647 21:1568 22:4026 23:1189 24:1701 25:785 26:1290 27:660 28:175 29:785 30:105 31:1513 32:115 33:1144 34:2605 35:200 36:221 37:169 38:38 39:161 40:27 41:316 42:1512 43:237 44:379 45:343 46:17 47:2431 48:200 49:592 50:1964 51:512 52:47 53:616 54:3 55:734 56:5 57:626 58:2196 59:567 60:343 61:706 62:98 63:648 64:343 65:1071 66:1587 67:916 68:1901 69:906 70:828 71:1161 72:0 73:1691 74:831 75:1790 76:597 77:1301 78:230 79:1165 80:4026 
1 1:4330 2:8085 3:524 4:215 5:774 6:55 7:664 8:5 9:741 10:152 11:468 12:544 13:437 14:109 15:2062 16:836 17:920 18:746 19:830 20:1388 21:1055 22:6939 23:1298 24:382 25:1945 26:146 27:1843 28:226 29:1258 30:125 31:852 32:48 33:742 34:2335 35:419 36:600 37:1182 38:878 39:720 40:105 41:418 42:350 43:322 44:186 45:400 46:292 47:797 48:253 49:466 50:574 51:454 52:240 53:1441 54:686 55:1235 56:1346 57:491 58:1134 59:298 60:354 61:281 62:149 63:335 64:517 65:1926 66:279 67:945 68:832 69:996 70:4984 71:1122 72:28 73:1234 74:769 75:1134 76:731 77:1064 78:1152 79:1577 80:1225 
1 1:649 2:6478 3:1144 4:1064 5:1127 6:223 7:1050 8:29 9:1075 10:466 11:1011 12:1450 13:2364 14:96 15:1581 16:194 17:827 18:7876 19:1006 20:1275 21:1805 22:63 23:1786 24:3 25:1984 26:58 27:917 28:223 29:1055 30:30 31:621 32:472 33:703 34:2660 35:558 36:1494 37:752 38:609 39:746 40:5 41:732 42:47 43:568 44:10 45:443 46:26 47:497 48:149 49:983 50:1338 51:558 52:297 53:412 54:94 55:524 56:34 57:588 58:1895 59:529 60:813 61:618 62:46 63:788 64:484 65:1431 66:4943 67:597 68:23 69:578 70:1 71:1656 72:0 73:2977 74:29 75:971 76:97 77:556 78:57 79:1233 80:4851 
1 1:2036 2:8282 3:349 4:166 5:406 6:0 7:317 8:0 9:424 10:390 11:503 12:868 13:2638 14:181 15:3326 16:113 17:764 18:8675 19:706 20:806 21:1459 22:367 23:1768 24:18 25:1176 26:56 27:1158 28:44 29:1551 30:15 31:1418 32:18 33:454 34:2630 35:427 36:695 37:562 38:1475 39:574 40:7 41:884 42:81 43:699 44:28 45:733 46:39 47:669 48:45 49:335 50:4250 51:330 52:83 53:644 54:15 55:842 56:18 57:912 58:379 59:977 60:156 61:584 62:50 63:375 64:50 65:789 66:8053 67:583 68:11 69:1523 70:0 71:1461 72:0 73:2184 74:1020 75:2065 76:532 77:787 78:79 79:610 80:306 
1 1:1419 2:9756 3:524 4:234 5:637 6:6 7:543 8:0 9:992 10:0 11:867 12:0 13:1368 14:0 15:3651 16:5 17:982 18:4495 19:684 20:1682 21:1208 22:3510 23:1288 24:62 25:1390 26:53 27:1356 28:37 29:1250 30:72 31:1842 32:88 33:595 34:4206 35:204 36:114 37:353 38:213 39:640 40:29 41:1124 42:258 43:825 44:152 45:394 46:7 47:866 48:21 49:190 50:599 51:150 52:33 53:299 54:7 55:745 56:13 57:2099 58:2581 59:968 60:1444 61:348 62:175 63:201 64:149 65:1687 66:886 67:952 68:290 69:708 70:2831 71:1175 72:269 73:2481 74:3374 75:1385 76:1995 77:738 78:148 79:874 80:208 
1 1:2352 2:3519 3:1117 4:2028 5:813 6:362 7:774 8:4 9:646 10:2 11:671 12:0 13:913 14:11 15:2713 16:4074 17:929 18:2383 19:969 20:4359 21:1355 22:1470 23:1656 24:83 25:1419 26:1249 27:1314 28:3 29:1065 30:0 31:1292 32:453 33:572 34:3001 35:433 36:423 37:612 38:5 39:928 40:14 41:856 42:1059 43:622 44:76 45:464 46:19 47:515 48:402 49:576 50:2764 51:520 52:40 53:568 54:16 55:687 56:17 57:945 58:335 59:600 60:56 61:542 62:25 63:561 64:1747 65:1674 66:2031 67:1381 68:141 69:907 70:6 71:1406 72:12 73:1650 74:930 75:1010 76:235 77:870 78:54 79:1101 80:6591 
1 1:2311 2:7450 3:551 4:1132 5:730 6:2 7:829 8:0 9:1344 10:697 11:852 12:434 13:1462 14:70 15:1920 16:216 17:888 18:2402 19:596 20:1653 21:2233 22:199 23:3164 24:1580 25:893 26:3093 27:493 28:804 29:483 30:167 31:1250 32:103 33:467 34:1127 35:451 36:485 37:1185 38:1899 39:1327 40:478 41:530 42:869 43:266 44:84 45:294 46:6 47:480 48:53 49:947 50:642 51:540 52:36 53:430 54:277 55:428 56:18 57:395 58:3524 59:456 60:259 61:645 62:97 63:1159 64:148 65:1451 66:2610 67:1355 68:10 69:1105 70:3 71:1186 72:8 73:1031 74:5519 75:1045 76:450 77:1290 78:294 79:1538 80:1106 
1 1:117 2:7656 3:389 4:1825 5:1210 6:113 7:1897 8:132 9:2949 10:92 11:2584 12:27 13:598 14:37 15:256 16:119 17:1287 18:2281 19:1187 20:395 21:1330 22:28 23:1130 24:31 25:1190 26:6226 27:1045 28:859 29:1220 30:55 31:1612 32:126 33:594 34:1959 35:507 36:909 37:573 38:394 39:554 40:0 41:757 42:1203 43:769 44:144 45:526 46:17 47:719 48:373 49:778 50:2592 51:271 52:75 53:377 54:0 55:632 56:0 57:1066 58:10 59:887 60:43 61:376 62:19 63:613 64:2260 65:1793 66:4108 67:655 68:290 69:767 70:530 71:1528 72:14 73:1813 74:745 75:1550 76:297 77:663 78:109 79:1231 80:3907 
0.8709877091129383 1:3335 2:9892 3:411 4:108 5:1032 6:0 7:1161 8:0 9:1502 10:0 11:762 12:0 13:789 14:0 15:1010 16:0 17:1148 18:8130 19:767 20:425 21:764 22:10 23:1355 24:18 25:1589 26:412 27:1072 28:256 29:1270 30:315 31:2034 32:433 33:1055 34:3117 35:386 36:338 37:494 38:412 39:667 40:11 41:603 42:564 43:308 44:268 45:388 46:239 47:1098 48:51 49:455 50:261 51:505 52:389 53:564 54:3725 55:817 56:71 57:786 58:144 59:823 60:262 61:613 62:132 63:437 64:17 65:2766 66:7557 67:426 68:72 69:378 70:159 71:877 72:3 73:1245 74:209 75:1893 76:335 77:1507 78:216 79:909 80:1449 
1 1:1439 2:9513 3:1227 4:16 5:1173 6:0 7:2787 8:0 9:1100 10:10 11:601 12:81 13:682 14:150 15:991 16:231 17:1297 18:6733 19:1054 20:1058 21:1359 22:325 23:1770 24:213 25:1206 26:812 27:943 28:273 29:1035 30:94 31:1335 32:492 33:460 34:1554 35:321 36:61 37:780 38:17 39:1794 40:54 41:820 42:1235 43:251 44:1614 45:197 46:180 47:377 48:285 49:987 50:1224 51:590 52:31 53:511 54:32 55:585 56:5 57:521 58:2665 59:488 60:426 61:468 62:246 63:852 64:370 65:2324 66:1955 67:883 68:28 69:789 70:0 71:937 72:19 73:857 74:2704 75:756 76:2993 77:1076 78:1333 79:2377 80:968 
0.4468657213996103 1:329 2:7914 3:649 4:201 5:1338 6:30 7:936 8:178 9:2010 10:931 11:2244 12:8 13:1220 14:2 15:1273 16:735 17:1451 18:4750 19:384 20:557 21:611 22:14 23:623 24:104 25:1168 26:3307 27:884 28:495 29:1100 30:460 31:3779 32:313 33:810 34:1679 35:386 36:48 37:724 38:0 39:646 40:2 41:541 42:1596 43:417 44:980 45:663 46:155 47:813 48:542 49:521 50:1835 51:590 52:26 53:795 54:12 55:644 56:23 57:763 58:1516 59:556 60:275 61:539 62:96 63:592 64:1217 65:1279 66:2264 67:418 68:15 69:640 70:3 71:1623 72:0 73:2406 74:787 75:1540 76:72 77:806 78:89 79:1290 80:6771 
1 1:404 2:9498 3:409 4:477 5:1556 6:25 7:2620 8:0 9:2430 10:0 11:1314 12:0 13:957 14:0 15:311 16:0 17:1261 18:972 19:899 20:356 21:1210 22:2424 23:1976 24:738 25:1502 26:4962 27:942 28:281 29:951 30:117 31:1259 32:150 33:558 34:1407 35:227 36:42 37:368 38:2 39:1197 40:3 41:965 42:2173 43:540 44:943 45:509 46:210 47:636 48:220 49:464 50:749 51:389 52:17 53:507 54:1 55:1336 56:0 57:1104 58:1110 59:433 60:2343 61:367 62:358 63:400 64:422 65:1210 66:1324 67:812 68:368 69:1000 70:3160 71:1339 72:121 73:1670 74:2461 75:1390 76:1654 77:1344 78:226 79:1235 80:686 
1 1:504 2:4670 3:543 4:70 5:1532 6:9 7:2268 8:8 9:2102 10:178 11:1505 12:3047 13:1014 14:1216 15:532 16:801 17:1577 18:1420 19:1423 20:96 21:912 22:479 23:992 24:576 25:1439 26:6929 27:1130 28:170 29:1185 30:89 31:1342 32:242 33:738 34:1680 35:423 36:51 37:510 38:9 39:690 40:40 41:1498 42:1456 43:400 44:1342 45:345 46:121 47:397 48:301 49:620 50:606 51:356 52:11 53:454 54:0 55:716 56:9 57:1316 58:989 59:561 60:3079 61:464 62:192 63:513 64:114 65:644 66:2273 67:618 68:240 69:1008 70:2984 71:1290 72:2847 73:1685 74:602 75:1956 76:557 77:1678 78:119 79:1121 80:378 
0.7058595319322709 1:706 2:5597 3:465 4:106 5:521 6:3 7:1292 8:23 9:4456 10:3408 11:979 12:335 13:772 14:255 15:810 16:273 17:1658 18:1623 19:841 20:19 21:828 22:2 23:882 24:2 25:1125 26:286 27:1372 28:213 29:1520 30:145 31:1776 32:7710 33:483 34:1997 35:481 36:6 37:488 38:1 39:668 40:26 41:1146 42:1574 43:948 44:265 45:488 46:47 47:298 48:1084 49:743 50:4236 51:329 52:11 53:405 54:10 55:761 56:14 57:869 58:281 59:678 60:106 61:514 62:47 63:702 64:296 65:1372 66:9551 67:345 68:0 69:495 70:0 71:1853 72:0 73:2258 74:17 75:806 76:9 77:699 78:34 79:2171 80:389 
1 1:1087 2:9188 3:478 4:138 5:952 6:0 7:3549 8:0 9:2160 10:1 11:666 12:0 13:424 14:7 15:684 16:666 17:1074 18:7209 19:824 20:621 21:1329 22:62 23:1881 24:58 25:1837 26:1031 27:1176 28:728 29:864 30:82 31:1014 32:209 33:546 34:3506 35:507 36:527 37:648 38:45 39:844 40:69 41:888 42:368 43:472 44:69 45:523 46:54 47:573 48:362 49:488 50:2060 51:515 52:302 53:522 54:96 55:1062 56:179 57:1056 58:1243 59:491 60:303 61:430 62:87 63:437 64:728 65:2157 66:7163 67:1073 68:97 69:832 70:7 71:1071 72:13 73:1109 74:250 75:714 76:137 77:1019 78:117 79:2024 80:2216 
1 1:1399 2:6623 3:2083 4:829 5:1059 6:65 7:1879 8:33 9:1418 10:892 11:400 12:1380 13:580 14:98 15:1182 16:80 17:3115 18:5172 19:811 20:1644 21:601 22:186 23:640 24:106 25:727 26:2739 27:691 28:35 29:975 30:0 31:2441 32:117 33:919 34:4400 35:392 36:245 37:489 38:15 39:904 40:11 41:503 42:4 43:370 44:4 45:425 46:2 47:997 48:318 49:356 50:3000 51:1435 52:226 53:613 54:27 55:759 56:17 57:616 58:849 59:565 60:457 61:343 62:97 63:313 64:329 65:1094 66:5686 67:1750 68:281 69:1507 70:151 71:1364 72:10 73:1697 74:319 75:1089 76:2048 77:631 78:983 79:869 80:523 
1 1:2640 2:8987 3:836 4:205 5:693 6:0 7:308 8:1 9:497 10:0 11:486 12:505 13:1704 14:82 15:2835 16:220 17:1049 18:9893 19:406 20:107 21:1006 22:0 23:2227 24:0 25:1627 26:0 27:872 28:0 29:1080 30:0 31:1733 32:1 33:431 34:4674 35:388 36:82 37:667 38:4 39:779 40:4 41:814 42:3 43:763 44:1 45:592 46:0 47:567 48:233 49:289 50:3839 51:430 52:149 53:1004 54:1 55:1311 56:3 57:884 58:79 59:485 60:27 61:344 62:39 63:253 64:862 65:1209 66:7515 67:777 68:13 69:1718 70:2 71:2208 72:1 73:1527 74:70 75:841 76:96 77:658 78:135 79:1062 80:2168 
1 1:546 2:8572 3:615 4:58 5:1233 6:0 7:3096 8:0 9:2795 10:0 11:706 12:0 13:538 14:36 15:472 16:1335 17:860 18:9617 19:955 20:260 21:2085 22:3 23:1650 24:2 25:1366 26:0 27:1099 28:0 29:993 30:0 31:992 32:117 33:940 34:4004 35:591 36:27 37:803 38:1 39:664 40:2 41:681 42:3 43:315 44:3 45:287 46:21 47:720 48:940 49:742 50:3423 51:435 52:10 53:538 54:2 55:879 56:8 57:751 58:18 59:420 60:72 61:378 62:144 63:856 64:1324 65:2670 66:9365 67:662 68:30 69:648 70:0 71:1033 72:6 73:1066 74:1 75:607 76:8 77:845 78:41 79:2470 80:549 
1 1:1169 2:6522 3:439 4:8 5:1028 6:0 7:3084 8:0 9:1384 10:7 11:420 12:221 13:430 14:1265 15:2043 16:1976 17:1034 18:9556 19:810 20:233 21:1514 22:19 23:2132 24:30 25:993 26:16 27:660 28:2 29:699 30:5 31:2157 32:138 33:434 34:4923 35:470 36:27 37:989 38:2 39:854 40:1 41:700 42:8 43:467 44:4 45:490 46:0 47:595 48:35 49:876 50:4046 51:589 52:13 53:829 54:0 55:736 56:1 57:652 58:5 59:297 60:4 61:296 62:28 63:724 64:902 65:2068 66:8254 67:986 68:8 69:1038 70:3 71:1382 72:9 73:1268 74:21 75:761 76:40 77:946 78:97 79:1552 80:1568 
1 1:3229 2:8035 3:498 4:21 5:572 6:0 7:763 8:0 9:906 10:0 11:952 12:50 13:886 14:402 15:2194 16:1492 17:1813 18:9558 19:827 20:29 21:941 22:0 23:1325 24:0 25:1260 26:0 27:564 28:0 29:618 30:26 31:2651 32:387 33:824 34:2512 35:784 36:610 37:514 38:488 39:731 40:788 41:750 42:571 43:214 44:14 45:282 46:3 47:900 48:13 49:604 50:482 51:459 52:2099 53:508 54:1918 55:921 56:473 57:1170 58:13 59:438 60:5 61:313 62:0 63:587 64:9 65:1062 66:9106 67:663 68:749 69:884 70:12 71:2550 72:0 73:2243 74:0 75:854 76:0 77:806 78:5 79:939 80:128 
1 1:1509 2:1 3:932 4:7 5:1048 6:3 7:1817 8:3 9:1585 10:5956 11:614 12:1813 13:841 14:1151 15:1654 16:1067 17:1390 18:176 19:1023 20:1 21:1879 22:2 23:1888 24:46 25:1226 26:5519 27:539 28:1486 29:594 30:924 31:1460 32:1845 33:891 34:959 35:562 36:144 37:533 38:2 39:812 40:2 41:729 42:1533 43:359 44:1113 45:380 46:352 47:735 48:895 49:726 50:1544 51:728 52:45 53:680 54:4 55:589 56:7 57:523 58:1355 59:452 60:889 61:484 62:502 63:818 64:652 65:1271 66:8713 67:1825 68:189 69:1306 70:7 71:890 72:1 73:678 74:250 75:849 76:125 77:1526 78:75 79:1653 80:639 
1 1:679 2:3063 3:656 4:1339 5:911 6:136 7:2465 8:57 9:2186 10:4907 11:1573 12:33 13:874 14:12 15:654 16:452 17:1699 18:3127 19:986 20:401 21:1116 22:227 23:1507 24:141 25:1214 26:4552 27:579 28:523 29:682 30:261 31:2217 32:767 33:677 34:709 35:472 36:228 37:476 38:515 39:825 40:258 41:803 42:2719 43:522 44:327 45:525 46:114 47:700 48:129 49:707 50:1297 51:414 52:81 53:483 54:24 55:656 56:60 57:564 58:2414 59:424 60:567 61:729 62:128 63:1022 64:430 65:1700 66:2857 67:919 68:142 69:812 70:44 71:1287 72:43 73:1219 74:4693 75:1026 76:1759 77:1141 78:292 79:1896 80:170 
1 1:1123 2:2533 3:344 4:642 5:693 6:20 7:2600 8:55 9:2510 10:1119 11:988 12:5063 13:349 14:402 15:1391 16:166 17:2001 18:4465 19:865 20:847 21:912 22:30 23:1317 24:8 25:789 26:466 27:563 28:3483 29:731 30:369 31:2822 32:332 33:914 34:2804 35:729 36:25 37:502 38:2 39:466 40:9 41:435 42:745 43:383 44:1156 45:630 46:161 47:941 48:99 49:677 50:1761 51:497 52:135 53:515 54:31 55:887 56:37 57:882 58:1823 59:509 60:1015 61:415 62:126 63:618 64:73 65:1557 66:1868 67:1093 68:890 69:1172 70:27 71:1476 72:34 73:1544 74:3614 75:936 76:1021 77:878 78:62 79:1343 80:2484 
1 1:700 2:1134 3:1142 4:95 5:1471 6:74 7:2150 8:489 9:2481 10:6047 11:1060 12:1360 13:582 14:300 15:413 16:501 17:1511 18:4091 19:844 20:5046 21:1066 22:682 23:1214 24:53 25:1614 26:38 27:1005 28:7 29:892 30:1 31:1854 32:83 33:419 34:1466 35:455 36:2176 37:590 38:331 39:1143 40:60 41:1017 42:169 43:592 44:49 45:343 46:68 47:441 48:681 49:427 50:1094 51:455 52:661 53:576 54:405 55:1037 56:164 57:1067 58:633 59:595 60:947 61:459 62:252 63:384 64:844 65:795 66:1367 67:846 68:307 69:1238 70:164 71:2741 72:277 73:2451 74:3992 75:829 76:2019 77:659 78:913 79:441 80:962 
1 1:577 2:8313 3:561 4:838 5:1017 6:113 7:3199 8:115 9:3044 10:573 11:589 12:37 13:422 14:1 15:591 16:10 17:1771 18:9838 19:713 20:92 21:1218 22:15 23:1102 24:10 25:1348 26:26 27:1038 28:2 29:1118 30:1 31:1692 32:16 33:963 34:3626 35:579 36:96 37:395 38:47 39:688 40:265 41:716 42:810 43:430 44:39 45:419 46:14 47:810 48:104 49:583 50:2519 51:435 52:138 53:561 54:37 55:789 56:83 57:799 58:1596 59:585 60:393 61:626 62:37 63:623 64:198 65:992 66:2512 67:907 68:190 69:1346 70:22 71:1578 72:26 73:1639 74:3749 75:1578 76:990 77:1104 78:1137 79:855 80:1373 
1 1:555 2:2952 3:416 4:804 5:414 6:75 7:2414 8:329 9:2803 10:3035 11:1717 12:336 13:1040 14:194 15:641 16:2275 17:1982 18:1964 19:1021 20:632 21:1632 22:324 23:1039 24:987 25:881 26:4551 27:718 28:380 29:781 30:126 31:1946 32:1035 33:892 34:2946 35:661 36:173 37:487 38:88 39:542 40:164 41:493 42:1277 43:590 44:173 45:530 46:18 47:804 48:160 49:694 50:1671 51:542 52:330 53:555 54:197 55:710 56:840 57:718 58:1436 59:486 60:206 61:499 62:62 63:796 64:259 65:2165 66:3477 67:1619 68:957 69:941 70:235 71:1053 72:473 73:989 74:2911 75:765 76:427 77:1061 78:213 79:1407 80:1308 
1 1:1444 2:6641 3:727 4:1658 5:838 6:172 7:2270 8:301 9:2502 10:521 11:503 12:10 13:595 14:23 15:1120 16:674 17:2461 18:4836 19:1702 20:3204 21:1516 22:1369 23:720 24:304 25:623 26:208 27:684 28:10 29:706 30:14 31:1589 32:55 33:1309 34:1184 35:1288 36:1220 37:413 38:552 39:394 40:888 41:417 42:840 43:283 44:168 45:338 46:35 47:557 48:112 49:759 50:2232 51:441 52:409 53:389 54:84 55:594 56:323 57:750 58:1379 59:613 60:134 61:610 62:90 63:844 64:350 65:1142 66:7454 67:1668 68:313 69:1264 70:45 71:1310 72:96 73:1387 74:357 75:1395 76:136 77:1066 78:189 79:768 80:1411 
1 1:505 2:9394 3:1042 4:252 5:2380 6:15 7:1957 8:81 9:2418 10:229 11:518 12:4 13:766 14:3 15:414 16:22 17:1033 18:624 19:974 20:457 21:1080 22:386 23:1626 24:575 25:2092 26:5836 27:1135 28:1134 29:909 30:122 31:1150 32:866 33:721 34:1706 35:620 36:239 37:519 38:84 39:781 40:85 41:911 42:2232 43:459 44:406 45:387 46:36 47:600 48:212 49:622 50:2961 51:559 52:123 53:623 54:23 55:736 56:20 57:633 58:711 59:567 60:117 61:548 62:36 63:711 64:1010 65:1030 66:4017 67:1031 68:194 69:1246 70:34 71:1412 72:14 73:1693 74:1400 75:1691 76:184 77:974 78:96 79:923 80:4061 
0.2801517799132931 1:572 2:2406 3:1080 4:390 5:1039 6:104 7:1483 8:67 9:1648 10:1135 11:1939 12:109 13:1625 14:9 15:614 16:5781 17:1319 18:3352 19:969 20:552 21:1144 22:112 23:1483 24:160 25:1894 26:2089 27:874 28:454 29:963 30:241 31:1354 32:3040 33:511 34:1817 35:497 36:115 37:488 38:35 39:823 40:104 41:993 42:1155 43:576 44:583 45:617 46:109 47:495 48:1082 49:696 50:2839 51:623 52:230 53:571 54:57 55:688 56:26 57:638 58:363 59:518 60:117 61:574 62:55 63:692 64:1313 65:2118 66:1742 67:1064 68:2590 69:1093 70:289 71:918 72:736 73:912 74:3196 75:750 76:96 77:1152 78:94 79:1993 80:1259 
1 1:346 2:0 3:248 4:4248 5:745 6:4387 7:2453 8:941 9:2211 10:424 11:870 12:0 13:1883 14:0 15:1245 16:0 17:1967 18:1536 19:996 20:4382 21:744 22:1078 23:1297 24:1077 25:1342 26:1891 27:622 28:33 29:962 30:0 31:2071 32:3 33:1055 34:254 35:464 36:3321 37:356 38:390 39:630 40:349 41:639 42:679 43:365 44:6 45:481 46:0 47:1009 48:2 49:846 50:300 51:382 52:3090 53:388 54:251 55:798 56:270 57:935 58:1017 59:411 60:65 61:499 62:4 63:740 64:4 65:2626 66:1924 67:1004 68:2274 69:905 70:1103 71:1189 72:1358 73:1020 74:3260 75:633 76:33 77:792 78:0 79:1832 80:49 
1 1:580 2:8392 3:333 4:573 5:1249 6:9 7:4596 8:9 9:1964 10:467 11:570 12:227 13:417 14:49 15:291 16:274 17:1628 18:7688 19:640 20:383 21:1095 22:3 23:2027 24:32 25:1845 26:1214 27:816 28:48 29:826 30:18 31:1123 32:614 33:699 34:1927 35:286 36:71 37:426 38:1 39:868 40:2 41:1168 42:2464 43:534 44:308 45:347 46:52 47:672 48:175 49:482 50:2872 51:209 52:187 53:469 54:41 55:1378 56:50 57:1357 58:420 59:454 60:377 61:268 62:338 63:384 64:716 65:709 66:6997 67:591 68:506 69:858 70:198 71:2418 72:1133 73:3297 74:8 75:872 76:18 77:516 78:65 79:739 80:1074 
1 1:933 2:47 3:670 4:390 5:607 6:1531 7:1614 8:2596 9:2076 10:5426 11:1078 12:10 13:1851 14:0 15:1171 16:0 17:1500 18:2656 19:929 20:2257 21:1323 22:1390 23:1466 24:2747 25:1628 26:946 27:1008 28:3 29:835 30:0 31:1310 32:2 33:672 34:1365 35:399 36:130 37:586 38:373 39:687 40:493 41:830 42:2112 43:515 44:158 45:586 46:154 47:725 48:215 49:671 50:339 51:335 52:210 53:408 54:337 55:899 56:368 57:1059 58:2154 59:479 60:742 61:480 62:716 63:668 64:135 65:1778 66:5901 67:1060 68:1986 69:991 70:619 71:1218 72:424 73:1324 74:651 75:847 76:125 77:1045 78:71 79:1738 80:223 
1 1:1319 2:5347 3:1949 4:1030 5:1573 6:320 7:812 8:174 9:732 10:2901 11:910 12:91 13:1930 14:0 15:775 16:137 17:1166 18:7982 19:1272 20:811 21:1822 22:123 23:1519 24:205 25:1356 26:719 27:1015 28:45 29:766 30:16 31:1083 32:99 33:581 34:3876 35:617 36:401 37:536 38:54 39:833 40:41 41:987 42:315 43:451 44:121 45:517 46:46 47:477 48:145 49:696 50:1776 51:646 52:339 53:434 54:36 55:481 56:34 57:730 58:2290 59:442 60:294 61:696 62:115 63:876 64:115 65:1797 66:1034 67:1161 68:301 69:1669 70:419 71:571 72:378 73:610 74:7658 75:1423 76:141 77:1439 78:30 79:1330 80:39 
1 1:705 2:4431 3:609 4:5346 5:620 6:49 7:528 8:36 9:657 10:92 11:626 12:46 13:2755 14:0 15:3501 16:1 17:578 18:1638 19:418 20:3062 21:618 22:437 23:1047 24:734 25:1130 26:3591 27:1396 28:519 29:3179 30:2 31:1634 32:16 33:715 34:1152 35:197 36:701 37:216 38:84 39:312 40:122 41:457 42:2528 43:518 44:297 45:1670 46:42 47:916 48:75 49:746 50:1604 51:729 52:516 53:647 54:655 55:620 56:62 57:735 58:1674 59:557 60:285 61:420 62:67 63:546 64:138 65:1477 66:1428 67:3413 68:812 69:1801 70:425 71:686 72:625 73:865 74:4741 75:434 76:1620 77:369 78:134 79:954 80:215 
1 1:1333 2:1868 3:585 4:1406 5:693 6:98 7:253 8:108 9:274 10:5534 11:372 12:841 13:2500 14:31 15:3990 16:115 17:793 18:1342 19:2528 20:2281 21:1974 22:1107 23:1475 24:1632 25:1112 26:3115 27:851 28:291 29:617 30:97 31:650 32:135 33:484 34:475 35:852 36:980 37:515 38:179 39:412 40:277 41:487 42:2719 43:335 44:276 45:1037 46:41 47:879 48:52 49:776 50:2077 51:337 52:484 53:470 54:217 55:753 56:36 57:809 58:1601 59:394 60:350 61:403 62:126 63:1058 64:109 65:1139 66:3243 67:1289 68:880 69:2305 70:283 71:1289 72:296 73:1376 74:4129 75:1039 76:772 77:801 78:130 79:762 80:266 
1 1:1500 2:3150 3:912 4:2767 5:680 6:111 7:359 8:89 9:384 10:3457 11:643 12:255 13:2569 14:89 15:2953 16:82 17:532 18:1019 19:855 20:2657 21:3256 22:1650 23:1874 24:1368 25:1275 26:3134 27:772 28:101 29:721 30:16 31:714 32:54 33:464 34:826 35:1116 36:896 37:1039 38:150 39:783 40:148 41:551 42:2552 43:388 44:331 45:313 46:46 47:344 48:50 49:663 50:313 51:876 52:697 53:568 54:102 55:594 56:47 57:535 58:3154 59:401 60:613 61:727 62:34 63:636 64:39 65:1653 66:4220 67:777 68:1571 69:789 70:413 71:1530 72:22 73:1761 74:2827 75:807 76:597 77:751 78:197 79:1933 80:153 
1 1:817 2:4501 3:616 4:2496 5:991 6:146 7:1708 8:133 9:2547 10:2547 11:1356 12:141 13:1044 14:20 15:921 16:17 17:847 18:1732 19:676 20:3652 21:1451 22:70 23:2594 24:82 25:1951 26:3501 27:894 28:886 29:640 30:18 31:946 32:60 33:346 34:800 35:446 36:1085 37:986 38:13 39:918 40:13 41:997 42:2104 43:527 44:866 45:353 46:90 47:428 48:28 49:593 50:1712 51:549 52:516 53:696 54:5 55:809 56:13 57:967 58:2679 59:486 60:58 61:344 62:5 63:557 64:12 65:1307 66:4316 67:1133 68:529 69:1301 70:6 71:1644 72:17 73:2094 74:4712 75:1058 76:352 77:712 78:41 79:750 80:28 
1 1:1957 2:8042 3:431 4:313 5:388 6:1385 7:1796 8:243 9:1962 10:17 11:421 12:0 13:664 14:0 15:2382 16:0 17:1957 18:7326 19:857 20:783 21:1081 22:250 23:969 24:352 25:1082 26:524 27:1392 28:9 29:865 30:7 31:1797 32:748 33:683 34:3861 35:422 36:116 37:533 38:80 39:593 40:93 41:628 42:467 43:630 44:119 45:600 46:76 47:911 48:187 49:451 50:1326 51:291 52:193 53:504 54:346 55:1056 56:196 57:1243 58:1611 59:535 60:820 61:492 62:176 63:429 64:332 65:1285 66:3975 67:778 68:871 69:1046 70:1238 71:1972 72:439 73:1854 74:3240 75:981 76:171 77:942 78:35 79:1142 80:31 
1 1:480 2:7122 3:584 4:1255 5:596 6:2 7:907 8:1 9:1732 10:334 11:3200 12:867 13:1980 14:245 15:521 16:174 17:2564 18:4405 19:699 20:3394 21:773 22:117 23:735 24:49 25:1082 26:69 27:1009 28:145 29:910 30:153 31:2228 32:1668 33:855 34:2049 35:490 36:837 37:783 38:50 39:456 40:26 41:508 42:228 43:731 44:305 45:478 46:262 47:699 48:1244 49:823 50:1587 51:562 52:654 53:546 54:82 55:539 56:86 57:577 58:1315 59:644 60:578 61:682 62:262 63:626 64:438 65:1162 66:3829 67:1181 68:4906 69:1272 70:353 71:1397 72:95 73:1766 74:331 75:1069 76:37 77:965 78:24 79:1188 80:425 
1 1:640 2:876 3:638 4:1391 5:623 6:315 7:1808 8:393 9:1289 10:4775 11:2067 12:664 13:1196 14:211 15:1739 16:1375 17:1997 18:747 19:746 20:2504 21:876 22:1685 23:1463 24:1240 25:1834 26:1943 27:958 28:118 29:629 30:11 31:1498 32:1751 33:959 34:351 35:401 36:1025 37:659 38:333 39:532 40:478 41:648 42:1612 43:737 44:326 45:375 46:62 47:688 48:811 49:634 50:396 51:420 52:666 53:551 54:304 55:654 56:942 57:644 58:2198 59:864 60:221 61:653 62:32 63:580 64:242 65:791 66:909 67:1470 68:4145 69:1764 70:1562 71:1542 72:2286 73:1153 74:722 75:1034 76:30 77:1306 78:27 79:941 80:320 
1 1:943 2:1059 3:1164 4:2274 5:1201 6:2260 7:1173 8:3835 9:1325 10:560 11:908 12:8 13:2099 14:1 15:1186 16:2 17:1232 18:1137 19:819 20:180 21:916 22:97 23:1051 24:515 25:996 26:6191 27:1181 28:162 29:2288 30:47 31:1517 32:1672 33:522 34:468 35:415 36:55 37:625 38:6 39:888 40:157 41:891 42:2313 43:608 44:359 45:541 46:68 47:510 48:1575 49:493 50:890 51:403 52:120 53:891 54:25 55:760 56:284 57:634 58:2048 59:804 60:428 61:513 62:134 63:502 64:1072 65:1061 66:7870 67:874 68:545 69:1818 70:63 71:1547 72:124 73:1255 74:318 75:1608 76:168 77:903 78:158 79:934 80:753 
1 1:1387 2:1046 3:1516 4:39 5:1352 6:5 7:1492 8:24 9:2086 10:59 11:552 12:10 13:641 14:13 15:974 16:8805 17:882 18:3627 19:683 20:392 21:1577 22:126 23:2183 24:230 25:1507 26:1736 27:1271 28:88 29:701 30:56 31:1196 32:3746 33:502 34:1391 35:336 36:130 37:628 38:12 39:887 40:52 41:913 42:1864 43:853 44:167 45:333 46:81 47:548 48:1304 49:630 50:183 51:503 52:235 53:635 54:25 55:862 56:213 57:802 58:3736 59:498 60:354 61:511 62:80 63:559 64:175 65:1185 66:4990 67:1501 68:1359 69:1341 70:123 71:739 72:490 73:696 74:2445 75:830 76:63 77:2076 78:23 79:1632 80:506 
1 1:1946 2:8794 3:1732 4:286 5:2133 6:179 7:1213 8:15 9:934 10:103 11:496 12:523 13:499 14:55 15:1047 16:45 17:1580 18:4811 19:873 20:1924 21:785 22:478 23:1731 24:527 25:1946 26:1637 27:883 28:231 29:955 30:89 31:1247 32:303 33:765 34:810 35:345 36:130 37:415 38:164 39:688 40:424 41:707 42:2386 43:482 44:550 45:583 46:169 47:1016 48:367 49:926 50:2152 51:647 52:392 53:781 54:452 55:401 56:788 57:380 58:996 59:448 60:165 61:555 62:7 63:863 64:48 65:1803 66:8193 67:929 68:1174 69:871 70:250 71:953 72:30 73:1107 74:84 75:1119 76:35 77:1364 78:32 79:1855 80:204 
1 1:1283 2:791 3:712 4:1133 5:802 6:549 7:1094 8:771 9:1408 10:6106 11:1052 12:499 13:1741 14:52 15:1906 16:100 17:1705 18:4332 19:989 20:2282 21:790 22:137 23:1203 24:148 25:1219 26:2290 27:1034 28:449 29:1218 30:232 31:1841 32:130 33:771 34:1770 35:462 36:382 37:426 38:5 39:728 40:19 41:768 42:2295 43:491 44:361 45:561 46:62 47:793 48:106 49:597 50:886 51:610 52:204 53:528 54:122 55:716 56:76 57:872 58:2388 59:507 60:656 61:525 62:191 63:645 64:477 65:876 66:1275 67:667 68:676 69:958 70:205 71:1839 72:1247 73:1763 74:4071 75:998 76:1831 77:1407 78:296 79:1493 80:399 
1 1:344 2:9 3:297 4:42 5:532 6:84 7:2544 8:139 9:1560 10:9708 11:3801 12:17 13:570 14:0 15:352 16:0 17:1959 18:1705 19:789 20:2305 21:993 22:862 23:912 24:720 25:1044 26:4035 27:854 28:273 29:839 30:28 31:2610 32:72 33:813 34:1610 35:639 36:413 37:490 38:12 39:675 40:63 41:715 42:2573 43:492 44:199 45:488 46:25 47:688 48:106 49:777 50:1513 51:537 52:468 53:494 54:51 55:744 56:104 57:716 58:2525 59:541 60:278 61:526 62:16 63:665 64:46 65:1837 66:1598 67:1363 68:275 69:878 70:33 71:1106 72:153 73:1078 74:6494 75:861 76:1215 77:1222 78:105 79:1655 80:127 
1 1:940 2:6756 3:827 4:3233 5:1729 6:1 7:1791 8:0 9:2190 10:4 11:899 12:1 13:537 14:0 15:1087 16:6 17:1358 18:5189 19:1038 20:4610 21:1287 22:39 23:1330 24:77 25:1445 26:15 27:995 28:4 29:955 30:2 31:1592 32:64 33:606 34:2078 35:429 36:1749 37:486 38:35 39:664 40:35 41:721 42:1009 43:598 44:24 45:575 46:5 47:922 48:65 49:524 50:2473 51:531 52:1472 53:747 54:29 55:802 56:112 57:650 58:895 59:535 60:14 61:511 62:1 63:700 64:4 65:1567 66:5466 67:1214 68:2186 69:1368 70:57 71:1338 72:393 73:1365 74:1781 75:1037 76:103 77:849 78:4 79:1263 80:10 
1 1:312 2:0 3:764 4:0 5:2263 6:0 7:1365 8:159 9:4059 10:9841 11:660 12:0 13:429 14:0 15:147 16:0 17:1684 18:704 19:1298 20:891 21:828 22:196 23:1076 24:955 25:1277 26:6737 27:926 28:429 29:1091 30:26 31:1819 32:62 33:749 34:993 35:456 36:884 37:480 38:82 39:732 40:230 41:824 42:2109 43:465 44:680 45:490 46:3 47:805 48:18 49:707 50:1332 51:541 52:1073 53:615 54:243 55:671 56:345 57:798 58:1786 59:544 60:209 61:500 62:7 63:623 64:5 65:2284 66:1352 67:1175 68:1475 69:965 70:1156 71:1151 72:770 73:953 74:4555 75:778 76:411 77:837 78:54 79:1857 80:227 
1 1:636 2:749 3:988 4:526 5:1613 6:191 7:2427 8:419 9:3111 10:5012 11:450 12:2966 13:375 14:92 15:401 16:45 17:1256 18:6224 19:1128 20:1177 21:1135 22:145 23:1551 24:119 25:1543 26:1656 27:1008 28:312 29:1155 30:93 31:1223 32:274 33:696 34:3220 35:547 36:235 37:499 38:48 39:736 40:102 41:663 42:951 43:580 44:317 45:595 46:37 47:682 48:91 49:874 50:1482 51:534 52:645 53:593 54:63 55:470 56:58 57:546 58:2046 59:469 60:325 61:603 62:78 63:912 64:304 65:1344 66:4992 67:962 68:967 69:1035 70:85 71:1360 72:122 73:1454 74:3160 75:1374 76:396 77:1232 78:73 79:1240 80:206 
1 1:1514 2:2293 3:1223 4:460 5:1030 6:352 7:1037 8:656 9:1299 10:5719 11:1118 12:174 13:1204 14:115 15:1576 16:231 17:1441 18:5321 19:1245 20:1157 21:1263 22:225 23:1280 24:534 25:1269 26:1828 27:993 28:154 29:1154 30:141 31:1356 32:639 33:698 34:2382 35:611 36:206 37:654 38:69 39:672 40:91 41:644 42:1037 43:543 44:227 45:499 46:117 47:679 48:870 49:811 50:3518 51:551 52:228 53:501 54:49 55:557 56:173 57:645 58:272 59:499 60:76 61:641 62:47 63:795 64:638 65:1801 66:6063 67:888 68:1017 69:1050 70:253 71:955 72:585 73:1183 74:584 75:1139 76:103 77:1093 78:115 79:1891 80:1280 
1 1:1140 2:3903 3:538 4:1649 5:908 6:566 7:2025 8:293 9:2079 10:3581 11:1260 12:8 13:1019 14:0 15:1033 16:0 17:2297 18:16 19:721 20:10 21:490 22:25 23:504 24:579 25:475 26:9340 27:590 28:25 29:1336 30:2 31:3586 32:4 33:578 34:1012 35:438 36:289 37:525 38:484 39:910 40:286 41:855 42:2844 43:502 44:46 45:585 46:8 47:606 48:32 49:576 50:3600 51:395 52:177 53:590 54:326 55:1016 56:122 57:833 58:352 59:469 60:112 61:465 62:38 63:657 64:274 65:1194 66:8192 67:668 68:152 69:820 70:381 71:2026 72:391 73:1953 74:394 75:1086 76:5 77:807 78:5 79:1446 80:480 
1 1:1660 2:1306 3:816 4:4715 5:900 6:694 7:1186 8:942 9:909 10:2101 11:640 12:231 13:910 14:7 15:2978 16:4 17:1886 18:667 19:897 20:2171 21:1072 22:2166 23:1765 24:1464 25:513 26:3455 27:356 28:65 29:784 30:0 31:2727 32:11 33:314 34:133 35:218 36:945 37:471 38:1483 39:2001 40:312 41:925 42:2073 43:299 44:54 45:153 46:0 47:620 48:1 49:340 50:210 51:277 52:2188 53:717 54:2150 55:1919 56:252 57:859 58:169 59:354 60:11 61:287 62:9 63:247 64:9 65:657 66:3920 67:743 68:1234 69:1148 70:309 71:2693 72:230 73:1969 74:2244 75:1605 76:363 77:696 78:350 79:488 80:1349 
1 1:1135 2:9815 3:762 4:167 5:1544 6:0 7:1745 8:0 9:1946 10:0 11:737 12:0 13:1172 14:0 15:958 16:18 17:753 18:9011 19:1696 20:942 21:2173 22:2 23:2013 24:2 25:1308 26:41 27:616 28:2 29:709 30:0 31:731 32:0 33:737 34:4297 35:1767 36:672 37:537 38:0 39:288 40:0 41:234 42:0 43:158 44:0 45:314 46:1 47:965 48:30 49:651 50:3321 51:285 52:169 53:449 54:0 55:1085 56:0 57:1081 58:0 59:528 60:92 61:297 62:63 63:623 64:1355 65:997 66:4180 67:642 68:0 69:1052 70:0 71:2402 72:0 73:1851 74:5 75:1085 76:1 77:965 78:68 79:1006 80:5746 
1 1:1586 2:9974 3:482 4:26 5:958 6:0 7:3035 8:0 9:1242 10:0 11:628 12:0 13:770 14:0 15:1299 16:0 17:809 18:9227 19:570 20:0 21:1072 22:0 23:1318 24:0 25:2861 26:0 27:592 28:34 29:1286 30:205 31:1491 32:533 33:439 34:3738 35:272 36:45 37:563 38:0 39:833 40:0 41:1670 42:0 43:301 44:3 45:342 46:77 47:578 48:1136 49:617 50:3226 51:288 52:33 53:598 54:0 55:795 56:0 57:1637 58:0 59:324 60:0 61:271 62:0 63:470 64:1740 65:2472 66:7851 67:659 68:3 69:679 70:0 71:1585 72:0 73:2015 74:0 75:482 76:0 77:513 78:0 79:1595 80:2146 
1 1:1055 2:8672 3:903 4:745 5:1595 6:41 7:1672 8:239 9:2674 10:224 11:605 12:25 13:662 14:0 15:834 16:53 17:1578 18:7536 19:971 20:1480 21:952 22:44 23:1472 24:116 25:1164 26:189 27:725 28:111 29:1013 30:19 31:2126 32:504 33:919 34:957 35:450 36:254 37:564 38:25 39:470 40:190 41:536 42:3045 43:454 44:109 45:440 46:97 47:1168 48:322 49:948 50:8 51:354 52:56 53:433 54:46 55:469 56:123 57:699 58:4480 59:504 60:139 61:499 62:7 63:1093 64:140 65:1203 66:385 67:586 68:2 69:1060 70:0 71:1562 72:6 73:1135 74:8739 75:791 76:632 77:1310 78:77 79:2353 80:158 
1 1:892 2:4128 3:1143 4:5107 5:1449 6:743 7:1565 8:10 9:1475 10:3 11:989 12:0 13:1731 14:0 15:757 16:9 17:929 18:6401 19:747 20:614 21:1005 22:701 23:1237 24:216 25:1601 26:736 27:2278 28:303 29:1169 30:94 31:1035 32:935 33:488 34:3291 35:426 36:1064 37:537 38:125 39:824 40:12 41:765 42:82 43:833 44:50 45:577 46:31 47:549 48:345 49:506 50:3157 51:535 52:769 53:520 54:66 55:969 56:20 57:836 58:241 59:471 60:85 61:586 62:42 63:577 64:619 65:1373 66:6100 67:1711 68:1281 69:1663 70:162 71:1143 72:33 73:1123 74:1276 75:979 76:203 77:883 78:124 79:1126 80:822 
1 1:1051 2:5349 3:2742 4:2857 5:1437 6:1211 7:1091 8:448 9:1035 10:113 11:1247 12:9 13:770 14:1 15:628 16:12 17:859 18:5879 19:814 20:441 21:1064 22:577 23:1255 24:436 25:1434 26:1055 27:2099 28:387 29:1274 30:165 31:1201 32:1061 33:512 34:2744 35:476 36:1049 37:627 38:137 39:754 40:18 41:784 42:132 43:710 44:50 45:497 46:50 47:640 48:821 49:587 50:2658 51:463 52:833 53:602 54:51 55:858 56:18 57:861 58:271 59:551 60:134 61:568 62:32 63:512 64:1002 65:1017 66:6827 67:2186 68:900 69:1528 70:230 71:1123 72:157 73:1166 74:562 75:965 76:144 77:1025 78:62 79:990 80:1118 
1 1:1827 2:2198 3:1861 4:3091 5:1108 6:145 7:274 8:71 9:230 10:2669 11:940 12:1773 13:2210 14:35 15:1551 16:18 17:834 18:2516 19:715 20:1158 21:897 22:680 23:1505 24:880 25:1678 26:2347 27:1813 28:2220 29:1176 30:88 31:1383 32:112 33:1099 34:1675 35:547 36:347 37:270 38:150 39:421 40:196 41:371 42:796 43:375 44:626 45:800 46:72 47:1116 48:1138 49:924 50:1280 51:907 52:80 53:503 54:9 55:438 56:10 57:337 58:489 59:513 60:461 61:611 62:48 63:767 64:2622 65:1106 66:4586 67:909 68:723 69:1845 70:369 71:1400 72:825 73:1240 74:625 75:836 76:331 77:1442 78:129 79:1221 80:2412 
1 1:1220 2:4639 3:1439 4:854 5:1223 6:99 7:726 8:75 9:985 10:1305 11:1669 12:1290 13:1502 14:871 15:1236 16:867 17:1037 18:6380 19:882 20:1590 21:1539 22:270 23:1772 24:332 25:1823 26:920 27:1130 28:232 29:696 30:20 31:1121 32:255 33:719 34:712 35:617 36:10 37:610 38:6 39:599 40:19 41:646 42:1329 43:628 44:182 45:544 46:22 47:637 48:2721 49:704 50:1472 51:507 52:41 53:599 54:25 55:510 56:64 57:500 58:715 59:547 60:371 61:799 62:121 63:834 64:2192 65:1700 66:4568 67:972 68:396 69:1299 70:925 71:1432 72:815 73:1442 74:2833 75:877 76:141 77:922 78:71 79:1356 80:251 
0.8099763185747395 1:1345 2:595 3:719 4:701 5:2576 6:2014 7:1620 8:4757 9:896 10:829 11:403 12:1047 13:527 14:33 15:1914 16:25 17:1581 18:7209 19:700 20:20 21:754 22:0 23:1199 24:0 25:1103 26:106 27:789 28:372 29:1312 30:418 31:2563 32:1875 33:907 34:2157 35:548 36:371 37:429 38:33 39:449 40:0 41:556 42:1 43:552 44:46 45:652 46:310 47:907 48:2081 49:506 50:1387 51:362 52:1810 53:507 54:121 55:759 56:10 57:824 58:55 59:584 60:467 61:685 62:224 63:773 64:925 65:1015 66:4184 67:733 68:5216 69:1009 70:119 71:1932 72:227 73:1947 74:0 75:1353 76:0 77:1017 78:0 79:994 80:254 
1 1:976 2:1928 3:1143 4:174 5:1365 6:737 7:1981 8:5247 9:1628 10:1915 11:1100 12:0 13:1036 14:0 15:771 16:0 17:1037 18:2991 19:959 20:4364 21:1485 22:1325 23:2022 24:78 25:1664 26:753 27:903 28:278 29:935 30:16 31:994 32:195 33:718 34:2370 35:646 36:270 37:710 38:176 39:691 40:3 41:605 42:477 43:444 44:273 45:479 46:15 47:706 48:1416 49:806 50:1931 51:452 52:186 53:515 54:121 55:539 56:22 57:635 58:822 59:657 60:504 61:671 62:91 63:726 64:1322 65:2250 66:7869 67:1022 68:91 69:886 70:46 71:959 72:22 73:1079 74:130 75:1060 76:138 77:1309 78:21 79:1435 80:1682 
1 1:1056 2:735 3:940 4:26 5:1272 6:54 7:2095 8:2163 9:1548 10:7022 11:1115 12:0 13:869 14:0 15:1104 16:0 17:1053 18:1221 19:885 20:1481 21:1364 22:2382 23:1943 24:1607 25:2048 26:2701 27:1009 28:56 29:851 30:14 31:847 32:538 33:634 34:1133 35:535 36:52 37:605 38:181 39:813 40:166 41:777 42:360 43:613 44:54 45:500 46:20 47:523 48:3034 49:776 50:444 51:559 52:81 53:454 54:40 55:568 56:25 57:553 58:1473 59:580 60:447 61:629 62:54 63:881 64:2436 65:2386 66:6369 67:853 68:18 69:664 70:8 71:778 72:38 73:846 74:775 75:887 76:239 77:1317 78:150 79:2269 80:2404 
1 1:2322 2:707 3:2851 4:5016 5:1812 6:591 7:394 8:374 9:223 10:2632 11:228 12:652 13:600 14:24 15:1569 16:3 17:1964 18:3075 19:969 20:2532 21:848 22:1030 23:1033 24:414 25:972 26:2639 27:897 28:68 29:1213 30:16 31:2104 32:226 33:642 34:1171 35:774 36:506 37:589 38:102 39:848 40:63 41:849 42:3078 43:475 44:77 45:375 46:1 47:446 48:1 49:631 50:1387 51:564 52:759 53:693 54:43 55:775 56:51 57:792 58:2713 59:531 60:16 61:517 62:3 63:497 64:29 65:1509 66:3658 67:1022 68:2824 69:1461 70:193 71:1307 72:145 73:989 74:2832 75:1167 76:151 77:1143 78:53 79:1403 80:144 
1 1:1019 2:9325 3:949 4:18 5:1047 6:0 7:1788 8:0 9:2534 10:9 11:944 12:235 13:797 14:176 15:921 16:236 17:1348 18:4184 19:1015 20:116 21:1082 22:2 23:1462 24:2 25:1702 26:569 27:1162 28:122 29:1119 30:326 31:1110 32:4678 33:508 34:1755 35:479 36:2 37:764 38:0 39:877 40:0 41:854 42:0 43:648 44:0 45:474 46:24 47:395 48:3219 49:765 50:2348 51:533 52:1 53:426 54:0 55:561 56:0 57:514 58:11 59:511 60:8 61:650 62:220 63:1039 64:2412 65:1644 66:7341 67:962 68:15 69:1110 70:1 71:1523 72:6 73:1445 74:110 75:1050 76:71 77:860 78:76 79:1406 80:2380 
1 1:236 2:1598 3:228 4:1 5:909 6:49 7:3931 8:334 9:3475 10:4978 11:711 12:2074 13:337 14:516 15:173 16:450 17:842 18:4033 19:704 20:3691 21:1197 22:183 23:1641 24:545 25:2329 26:1477 27:1459 28:25 29:1069 30:2 31:760 32:45 33:639 34:1071 35:507 36:66 37:415 38:6 39:732 40:11 41:910 42:416 43:675 44:87 45:581 46:29 47:542 48:3314 49:695 50:1709 51:552 52:11 53:491 54:4 55:642 56:4 57:779 58:233 59:619 60:158 61:610 62:115 63:613 64:2766 65:1238 66:4416 67:1052 68:263 69:1102 70:11 71:1524 72:32 73:1719 74:1017 75:1147 76:408 77:1110 78:280 79:1108 80:3573 
1 1:1037 2:6853 3:1784 4:880 5:1611 6:21 7:1241 8:53 9:1448 10:802 11:972 12:819 13:921 14:250 15:987 16:323 17:727 18:4924 19:773 20:480 21:1043 22:131 23:2058 24:98 25:2653 26:3836 27:1063 28:350 29:924 30:73 31:759 32:108 33:597 34:2147 35:398 36:93 37:586 38:10 39:891 40:6 41:944 42:353 43:576 44:191 45:475 46:28 47:535 48:2172 49:621 50:1873 51:639 52:32 53:618 54:12 55:715 56:3 57:883 58:370 59:576 60:148 61:483 62:16 63:466 64:2546 65:1462 66:2428 67:1021 68:111 69:1052 70:13 71:1199 72:12 73:924 74:985 75:1282 76:171 77:1379 78:31 79:1680 80:6248 
1 1:2107 2:8679 3:1278 4:656 5:1158 6:302 7:1092 8:152 9:1293 10:203 11:769 12:3 13:959 14:0 15:1343 16:5 17:862 18:2510 19:741 20:1186 21:841 22:451 23:1863 24:1135 25:2542 26:4210 27:1393 28:113 29:856 30:126 31:902 32:269 33:1254 34:1247 35:550 36:80 37:391 38:70 39:472 40:36 41:465 42:197 43:348 44:34 45:447 46:19 47:1072 48:3318 49:729 50:1795 51:610 52:122 53:579 54:22 55:720 56:7 57:669 58:28 59:518 60:1 61:481 62:6 63:694 64:3020 65:1560 66:3585 67:855 68:5 69:786 70:51 71:1130 72:151 73:1088 74:719 75:1234 76:810 77:1353 78:122 79:1993 80:4558 
1 1:793 2:1118 3:874 4:2607 5:812 6:1782 7:2498 8:818 9:2203 10:3324 11:931 12:281 13:1086 14:7 15:804 16:61 17:1702 18:5679 19:889 20:3231 21:1164 22:748 23:1388 24:209 25:1441 26:128 27:1030 28:1 29:927 30:0 31:1459 32:4 33:634 34:1108 35:494 36:794 37:536 38:435 39:804 40:679 41:898 42:1545 43:424 44:285 45:460 46:59 47:750 48:94 49:804 50:125 51:384 52:555 53:475 54:152 55:808 56:589 57:901 58:2884 59:461 60:599 61:427 62:63 63:740 64:33 65:1785 66:5467 67:894 68:3293 69:1356 70:492 71:1319 72:323 73:1198 74:252 75:921 76:19 77:807 78:41 79:1721 80:112 
1 1:464 2:3686 3:288 4:420 5:239 6:2042 7:172 8:955 9:445 10:285 11:1966 12:70 13:4862 14:1063 15:1564 16:1479 17:1327 18:7810 19:965 20:505 21:953 22:326 23:1090 24:121 25:1281 26:599 27:2600 28:203 29:876 30:231 31:909 32:205 33:574 34:4145 35:423 36:30 37:389 38:2 39:382 40:8 41:497 42:88 43:1049 44:29 45:949 46:194 47:738 48:504 49:750 50:3103 51:544 52:39 53:550 54:1 55:407 56:15 57:535 58:68 59:792 60:600 61:610 62:537 63:812 64:637 65:1902 66:8571 67:1360 68:326 69:1296 70:23 71:905 72:50 73:821 74:90 75:996 76:132 77:1127 78:62 79:1595 80:747 
1 1:1593 2:4416 3:1728 4:1996 5:2052 6:15 7:1166 8:26 9:948 10:2998 11:682 12:545 13:1084 14:0 15:747 16:5 17:1036 18:5933 19:712 20:619 21:731 22:111 23:1514 24:47 25:2613 26:1440 27:1574 28:1179 29:704 30:261 31:1114 32:409 33:567 34:1276 35:516 36:132 37:550 38:35 39:785 40:19 41:949 42:304 43:698 44:116 45:474 46:103 47:462 48:3013 49:591 50:1115 51:541 52:67 53:696 54:18 55:683 56:17 57:805 58:910 59:613 60:665 61:522 62:264 63:549 64:1944 65:1096 66:4861 67:1321 68:416 69:2339 70:48 71:1414 72:21 73:977 74:3431 75:952 76:530 77:826 78:180 79:1076 80:515 
1 1:1713 2:726 3:1690 4:826 5:552 6:81 7:1127 8:16 9:2650 10:2497 11:408 12:4647 13:664 14:821 15:1196 16:387 17:1040 18:5382 19:789 20:956 21:903 22:61 23:1958 24:33 25:1915 26:2359 27:1163 28:673 29:1071 30:54 31:1161 32:483 33:389 34:2304 35:347 36:191 37:379 38:54 39:1277 40:13 41:1415 42:2071 43:417 44:187 45:360 46:11 47:418 48:169 49:489 50:3447 51:481 52:115 53:489 54:11 55:1009 56:3 57:1139 58:968 59:491 60:267 61:444 62:38 63:458 64:151 65:960 66:6020 67:1159 68:1029 69:1304 70:327 71:1913 72:97 73:1997 74:843 75:754 76:921 77:833 78:173 79:1080 80:590 
1 1:141 2:7005 3:520 4:2995 5:942 6:0 7:3640 8:0 9:3319 10:0 11:1001 12:0 13:327 14:0 15:111 16:0 17:2112 18:5977 19:898 20:1405 21:772 22:246 23:717 24:152 25:1035 26:1971 27:1913 28:180 29:1252 30:5 31:1302 32:64 33:411 34:2075 35:443 36:311 37:395 38:126 39:735 40:518 41:1029 42:1752 43:1183 44:107 45:493 46:23 47:313 48:88 49:435 50:3267 51:353 52:317 53:397 54:153 55:1391 56:181 57:1014 58:283 59:480 60:58 61:537 62:83 63:392 64:659 65:1528 66:5405 67:889 68:2950 69:1028 70:366 71:1718 72:179 73:1749 74:86 75:990 76:76 77:920 78:70 79:1179 80:868 
1 1:1874 2:1882 3:940 4:7 5:460 6:0 7:399 8:1 9:526 10:4899 11:1612 12:1753 13:2420 14:781 15:1771 16:675 17:1002 18:6679 19:705 20:604 21:882 22:753 23:1507 24:105 25:2575 26:1157 27:1253 28:307 29:1035 30:91 31:1042 32:304 33:519 34:1745 35:356 36:219 37:494 38:500 39:914 40:543 41:941 42:1719 43:566 44:160 45:567 46:45 47:641 48:68 49:548 50:1293 51:340 52:148 53:587 54:357 55:865 56:67 57:771 58:2621 59:451 60:293 61:697 62:21 63:741 64:198 65:1000 66:3218 67:2031 68:588 69:1310 70:675 71:1824 72:9 73:1275 74:3484 75:666 76:1751 77:940 78:114 79:955 80:159 
1 1:2181 2:8565 3:876 4:1278 5:741 6:17 7:639 8:4 9:912 10:2 11:973 12:4 13:1791 14:66 15:1885 16:64 17:3770 18:7266 19:536 20:1701 21:480 22:15 23:539 24:5 25:493 26:65 27:835 28:194 29:842 30:477 31:2505 32:276 33:901 34:4124 35:411 36:184 37:413 38:10 39:933 40:6 41:748 42:24 43:286 44:180 45:458 46:153 47:849 48:317 49:833 50:3638 51:290 52:368 53:451 54:102 55:895 56:17 57:1027 58:111 59:414 60:287 61:296 62:260 63:793 64:216 65:2013 66:7085 67:390 68:2497 69:810 70:95 71:1038 72:28 73:1700 74:62 75:935 76:98 77:416 78:39 79:2698 80:96 
1 1:475 2:9142 3:1199 4:360 5:2081 6:44 7:2957 8:22 9:1029 10:427 11:948 12:1 13:752 14:6 15:559 16:0 17:1849 18:4586 19:1023 20:112 21:979 22:22 23:1728 24:90 25:1371 26:4873 27:830 28:248 29:723 30:25 31:1497 32:44 33:610 34:3419 35:460 36:58 37:552 38:6 39:1238 40:33 41:732 42:1346 43:408 44:83 45:386 46:12 47:614 48:43 49:634 50:1025 51:403 52:11 53:670 54:1 55:945 56:38 57:784 58:3633 59:376 60:144 61:438 62:25 63:750 64:124 65:1286 66:5528 67:792 68:910 69:1047 70:200 71:1862 72:111 73:1559 74:2891 75:971 76:100 77:1022 78:86 79:1461 80:173 
1 1:1667 2:3198 3:990 4:720 5:1445 6:436 7:1127 8:804 9:1714 10:4558 11:917 12:46 13:784 14:37 15:1356 16:200 17:1567 18:385 19:822 20:76 21:998 22:16 23:1606 24:321 25:1918 26:8995 27:892 28:78 29:780 30:34 31:1416 32:94 33:936 34:268 35:509 36:35 37:384 38:13 39:666 40:83 41:708 42:4163 43:404 44:246 45:387 46:90 47:1005 48:102 49:889 50:2011 51:544 52:170 53:415 54:88 55:600 56:172 57:549 58:2239 59:514 60:132 61:635 62:24 63:855 64:164 65:2635 66:8182 67:761 68:795 69:966 70:278 71:829 72:260 73:937 74:472 75:1039 76:2 77:660 78:4 79:2173 80:7 
1 1:899 2:3916 3:643 4:378 5:2083 6:132 7:1988 8:1014 9:1431 10:4550 11:1232 12:10 13:822 14:0 15:903 16:0 17:1384 18:8119 19:1040 20:492 21:1117 22:123 23:1642 24:220 25:1523 26:788 27:976 28:98 29:1015 30:20 31:1303 32:140 33:782 34:2621 35:576 36:69 37:538 38:11 39:790 40:43 41:639 42:1844 43:498 44:165 45:507 46:44 47:670 48:204 49:716 50:3334 51:484 52:57 53:448 54:26 55:793 56:42 57:871 58:1425 59:567 60:50 61:486 62:12 63:635 64:54 65:1272 66:7482 67:942 68:699 69:1033 70:47 71:1995 72:168 73:1184 74:1443 75:935 76:41 77:1232 78:8 79:1406 80:111 
1 1:230 2:9994 3:381 4:3 5:734 6:0 7:2577 8:0 9:4218 10:1 11:1301 12:1 13:434 14:1 15:125 16:1 17:1440 18:9354 19:667 20:622 21:980 22:24 23:1562 24:1 25:2107 26:0 27:1093 28:0 29:934 30:0 31:1217 32:0 33:540 34:4181 35:488 36:815 37:694 38:4 39:831 40:0 41:837 42:0 43:547 44:0 45:529 46:0 47:534 48:0 49:355 50:3903 51:299 52:1094 53:435 54:1 55:842 56:0 57:1414 58:0 59:744 60:0 61:511 62:0 63:400 64:3 65:769 66:9694 67:649 68:218 69:976 70:51 71:1933 72:0 73:2372 74:0 75:1333 76:0 77:904 78:0 79:1063 80:36 
0.2175504075274516 1:1658 2:9703 3:568 4:297 5:650 6:0 7:2712 8:0 9:2342 10:0 11:903 12:0 13:524 14:0 15:644 16:0 17:1370 18:7694 19:1449 20:2306 21:1413 22:0 23:1094 24:0 25:1102 26:0 27:1230 28:0 29:688 30:0 31:1654 32:0 33:733 34:3693 35:378 36:1265 37:357 38:40 39:1296 40:2 41:906 42:0 43:350 44:0 45:264 46:0 47:717 48:0 49:669 50:3796 51:351 52:1181 53:284 54:20 55:1248 56:4 57:1120 58:0 59:292 60:0 61:346 62:0 63:690 64:0 65:1155 66:9401 67:457 68:596 69:524 70:0 71:2735 72:0 73:2574 74:0 75:565 76:0 77:732 78:0 79:1258 80:3 
0.6667237410669806 1:802 2:6989 3:477 4:1589 5:1097 6:79 7:1944 8:38 9:2398 10:920 11:1680 12:31 13:760 14:23 15:842 16:331 17:2998 18:2663 19:723 20:2017 21:493 22:771 23:439 24:1378 25:401 26:3025 27:356 28:139 29:708 30:4 31:3883 32:3 33:867 34:2015 35:450 36:1029 37:572 38:88 39:526 40:240 41:591 42:1452 43:462 44:150 45:543 46:8 47:990 48:19 49:586 50:3067 51:515 52:561 53:887 54:125 55:638 56:115 57:565 58:368 59:453 60:171 61:584 62:42 63:771 64:550 65:1517 66:9415 67:958 68:343 69:1045 70:54 71:1471 72:16 73:1363 74:25 75:947 76:69 77:1012 78:14 79:1687 80:64 
1 1:1169 2:6257 3:755 4:68 5:1370 6:0 7:1875 8:0 9:1918 10:0 11:866 12:2886 13:819 14:542 15:1228 16:247 17:1084 18:3190 19:892 20:1692 21:1324 22:0 23:1874 24:0 25:1891 26:0 27:904 28:0 29:880 30:0 31:1150 32:5118 33:610 34:1785 35:369 36:885 37:556 38:0 39:1132 40:0 41:1039 42:0 43:405 44:166 45:390 46:20 47:498 48:2144 49:450 50:1315 51:419 52:2588 53:633 54:0 55:1077 56:0 57:1120 58:0 59:480 60:0 61:351 62:21 63:470 64:1075 65:1063 66:4855 67:960 68:4802 69:1715 70:0 71:1567 72:0 73:1995 74:0 75:954 76:0 77:813 78:143 79:933 80:200 
0.6266923361669021 1:1026 2:9266 3:1201 4:584 5:1411 6:0 7:2727 8:0 9:2399 10:0 11:728 12:10 13:221 14:79 15:287 16:61 17:2197 18:9954 19:1321 20:35 21:786 22:0 23:1062 24:0 25:1285 26:0 27:716 28:2 29:836 30:0 31:1796 32:9 33:1208 34:4641 35:505 36:331 37:321 38:10 39:701 40:0 41:729 42:6 43:371 44:7 45:228 46:2 47:937 48:3 49:523 50:4632 51:194 52:366 53:528 54:0 55:1245 56:0 57:1352 58:0 59:517 60:0 61:237 62:0 63:405 64:1 65:2983 66:9716 67:628 68:284 69:1539 70:0 71:1055 72:0 73:563 74:0 75:467 76:0 77:699 78:0 79:2067 80:0 
1 1:886 2:5827 3:2225 4:359 5:1528 6:31 7:1056 8:55 9:1467 10:3222 11:1331 12:173 13:962 14:150 15:543 16:183 17:1403 18:1429 19:854 20:131 21:1133 22:90 23:1237 24:147 25:1401 26:4903 27:1572 28:982 29:984 30:479 31:1415 32:1840 33:1008 34:600 35:584 36:198 37:440 38:60 39:403 40:59 41:474 42:3827 43:608 44:174 45:574 46:29 47:910 48:53 49:898 50:879 51:869 52:798 53:620 54:37 55:433 56:46 57:367 58:3028 59:346 60:148 61:543 62:37 63:924 64:27 65:1544 66:7533 67:1255 68:1474 69:1439 70:114 71:1082 72:124 73:1106 74:739 75:997 76:16 77:1148 78:0 79:1428 80:0 
1 1:334 2:184 3:1485 4:994 5:2435 6:1200 7:2004 8:1640 9:1478 10:5930 11:810 12:51 13:824 14:0 15:631 16:0 17:1111 18:2558 19:1058 20:2034 21:1380 22:340 23:1542 24:214 25:1112 26:3692 27:966 28:851 29:1425 30:122 31:1405 32:188 33:722 34:935 35:432 36:1018 37:564 38:164 39:768 40:431 41:695 42:2330 43:608 44:45 45:506 46:16 47:704 48:61 49:779 50:521 51:470 52:828 53:564 54:132 55:740 56:427 57:697 58:2962 59:506 60:60 61:562 62:26 63:681 64:44 65:1180 66:721 67:916 68:1650 69:1128 70:116 71:1826 72:148 73:1646 74:6260 75:1107 76:999 77:1002 78:26 79:1196 80:80 
1 1:609 2:4704 3:862 4:1193 5:2005 6:0 7:2122 8:25 9:2209 10:3343 11:1025 12:736 13:612 14:0 15:557 16:0 17:1409 18:6195 19:915 20:1081 21:1113 22:53 23:1594 24:100 25:1400 26:1315 27:1002 28:544 29:1118 30:136 31:1448 32:576 33:727 34:1371 35:527 36:1201 37:510 38:268 39:779 40:259 41:796 42:1610 43:477 44:131 45:516 46:37 47:667 48:123 49:687 50:421 51:502 52:812 53:536 54:108 55:734 56:179 57:688 58:2973 59:565 60:439 61:546 62:3 63:741 64:65 65:1383 66:1728 67:883 68:1010 69:1042 70:59 71:1798 72:60 73:1621 74:4556 75:984 76:1980 77:836 78:77 79:1453 80:529 
1 1:1384 2:8080 3:1260 4:1029 5:1414 6:329 7:2159 8:165 9:1522 10:390 11:932 12:7 13:574 14:0 15:755 16:0 17:1609 18:4863 19:818 20:179 21:751 22:868 23:1023 24:364 25:1302 26:3104 27:1241 28:558 29:1269 30:9 31:1987 32:55 33:594 34:1400 35:595 36:505 37:681 38:610 39:690 40:461 41:621 42:1759 43:527 44:137 45:609 46:38 47:682 48:90 49:699 50:1568 51:568 52:2170 53:692 54:202 55:726 56:156 57:720 58:655 59:483 60:54 61:551 62:72 63:561 64:125 65:1875 66:7126 67:1167 68:1164 69:925 70:3 71:1117 72:1 73:801 74:467 75:951 76:721 77:1200 78:233 79:1964 80:286 
1 1:521 2:7011 3:614 4:1909 5:1276 6:503 7:2822 8:351 9:2580 10:211 11:971 12:12 13:661 14:0 15:555 16:3 17:1951 18:1703 19:975 20:1734 21:868 22:3695 23:754 24:1301 25:1008 26:1304 27:1125 28:168 29:1314 30:14 31:2005 32:80 33:642 34:2283 35:513 36:620 37:498 38:231 39:804 40:179 41:707 42:954 43:578 44:249 45:610 46:147 47:649 48:338 49:844 50:1019 51:482 52:361 53:393 54:107 55:557 56:106 57:537 58:2451 59:439 60:567 61:583 62:67 63:1165 64:323 65:1702 66:1576 67:1129 68:821 69:1188 70:139 71:1178 72:778 73:774 74:5818 75:869 76:744 77:1201 78:42 79:1959 80:82 
1 1:822 2:5623 3:795 4:2001 5:1113 6:116 7:2089 8:138 9:1890 10:2089 11:1119 12:33 13:1302 14:0 15:870 16:0 17:2030 18:7684 19:938 20:836 21:825 22:27 23:808 24:15 25:704 26:482 27:676 28:875 29:1082 30:31 31:2937 32:50 33:855 34:1549 35:546 36:2031 37:445 38:91 39:463 40:53 41:393 42:1136 43:427 44:108 45:632 46:14 47:1239 48:19 49:861 50:441 51:516 52:1400 53:443 54:217 55:642 56:350 57:599 58:2369 59:524 60:107 61:654 62:48 63:762 64:70 65:1448 66:159 67:980 68:740 69:963 70:109 71:1339 72:64 73:1459 74:8343 75:1256 76:408 77:1216 78:46 79:1338 80:131 
1 1:2314 2:4288 3:884 4:492 5:879 6:239 7:1048 8:425 9:1035 10:3518 11:836 12:878 13:1031 14:66 15:1973 16:95 17:1745 18:2400 19:931 20:452 21:1116 22:289 23:1014 24:1030 25:668 26:3175 27:772 28:332 29:1101 30:130 31:2654 32:2191 33:838 34:552 35:542 36:1329 37:451 38:89 39:490 40:91 41:455 42:2099 43:384 44:482 45:615 46:63 47:1225 48:294 49:1109 50:536 51:581 52:626 53:477 54:282 55:421 56:591 57:340 58:2177 59:350 60:305 61:557 62:109 63:1164 64:373 65:2544 66:3289 67:1196 68:744 69:683 70:532 71:634 72:437 73:983 74:4639 75:782 76:312 77:956 78:31 79:2222 80:16 
1 1:3160 2:6080 3:1101 4:3903 5:566 6:6 7:508 8:11 9:580 10:0 11:580 12:0 13:1082 14:0 15:2424 16:0 17:1633 18:5982 19:772 20:3031 21:600 22:334 23:1000 24:100 25:939 26:69 27:1056 28:87 29:1716 30:323 31:2284 32:75 33:662 34:784 35:597 36:3439 37:476 38:336 39:577 40:182 41:564 42:148 43:428 44:78 45:552 46:28 47:1144 48:6 49:1395 50:785 51:502 52:3892 53:396 54:143 55:401 56:103 57:347 58:66 59:386 60:11 61:532 62:0 63:1042 64:0 65:1936 66:1394 67:779 68:7723 69:1157 70:183 71:818 72:179 73:1026 74:478 75:930 76:33 77:984 78:2 79:2369 80:8 
1 1:808 2:8577 3:969 4:5 5:1712 6:0 7:1744 8:0 9:1358 10:0 11:1442 12:0 13:1189 14:151 15:778 16:1266 17:1228 18:9220 19:1453 20:509 21:1752 22:58 23:1665 24:13 25:1091 26:105 27:818 28:13 29:980 30:19 31:1012 32:64 33:754 34:4039 35:551 36:491 37:492 38:49 39:1073 40:34 41:602 42:189 43:377 44:76 45:475 46:30 47:676 48:93 49:401 50:3160 51:279 52:1148 53:532 54:82 55:1373 56:141 57:1282 58:419 59:573 60:11 61:247 62:11 63:313 64:28 65:528 66:7320 67:570 68:1175 69:1419 70:120 71:3329 72:71 73:2122 74:1092 75:1067 76:6 77:559 78:20 79:405 80:196 
1 1:843 2:4554 3:927 4:87 5:988 6:12 7:1845 8:124 9:1945 10:4608 11:514 12:236 13:1231 14:52 15:1706 16:326 17:1677 18:6247 19:1023 20:43 21:810 22:4 23:1009 24:34 25:1024 26:1845 27:1132 28:447 29:1220 30:211 31:2105 32:1169 33:823 34:3296 35:400 36:269 37:429 38:72 39:651 40:69 41:821 42:1197 43:648 44:30 45:486 46:7 47:743 48:60 49:514 50:3960 51:769 52:718 53:513 54:41 55:765 56:23 57:820 58:155 59:503 60:2 61:493 62:5 63:622 64:97 65:1243 66:9308 67:877 68:442 69:1263 70:39 71:1665 72:34 73:1745 74:137 75:1351 76:0 77:834 78:17 79:1021 80:24 
1 1:844 2:9170 3:916 4:43 5:922 6:0 7:1915 8:38 9:2080 10:306 11:1456 12:117 13:1073 14:140 15:794 16:184 17:1275 18:9235 19:981 20:124 21:1207 22:14 23:1492 24:20 25:1253 26:347 27:1269 28:70 29:1144 30:40 31:1380 32:151 33:636 34:1968 35:490 36:687 37:641 38:61 39:714 40:41 41:831 42:524 43:566 44:119 45:543 46:20 47:579 48:1579 49:806 50:1621 51:604 52:1334 53:476 54:20 55:733 56:30 57:725 58:621 59:544 60:35 61:441 62:28 63:670 64:1312 65:1662 66:4145 67:901 68:1322 69:876 70:36 71:1423 72:31 73:1516 74:1277 75:1065 76:109 77:1123 78:23 79:1434 80:3058 
1 1:1748 2:2780 3:2776 4:0 5:1018 6:0 7:1208 8:0 9:1552 10:882 11:551 12:1642 13:449 14:515 15:698 16:4180 17:1454 18:6873 19:1100 20:35 21:870 22:7 23:1253 24:46 25:1295 26:2028 27:990 28:266 29:1309 30:158 31:1730 32:587 33:1059 34:3022 35:952 36:331 37:429 38:43 39:458 40:49 41:379 42:1249 43:341 44:92 45:543 46:34 47:839 48:181 49:659 50:3375 51:739 52:275 53:585 54:31 55:636 56:96 57:610 58:826 59:464 60:188 61:601 62:13 63:706 64:197 65:1172 66:8631 67:968 68:156 69:1390 70:8 71:1210 72:21 73:1591 74:368 75:1173 76:327 77:1306 78:83 79:1189 80:404 
1 1:334 2:5714 3:946 4:124 5:4309 6:1 7:2909 8:28 9:499 10:4077 11:341 12:5 13:402 14:6 15:258 16:46 17:940 18:5335 19:638 20:527 21:1134 22:138 23:1490 24:76 25:1476 26:2429 27:1331 28:115 29:2034 30:13 31:957 32:1366 33:494 34:2810 35:439 36:1232 37:547 38:33 39:860 40:12 41:782 42:386 43:641 44:93 45:816 46:78 47:421 48:357 49:775 50:3413 51:445 52:1006 53:554 54:81 55:819 56:43 57:491 58:263 59:541 60:17 61:547 62:8 63:827 64:169 65:973 66:7873 67:1097 68:1222 69:1535 70:96 71:2067 72:46 73:1503 74:549 75:939 76:98 77:1044 78:48 79:844 80:68 
1 1:281 2:8231 3:628 4:1304 5:4227 6:0 7:3317 8:0 9:604 10:72 11:432 12:9 13:343 14:6 15:168 16:377 17:1184 18:9560 19:1033 20:102 21:1226 22:11 23:1591 24:1 25:1871 26:26 27:928 28:57 29:1021 30:33 31:1146 32:209 33:486 34:3746 35:542 36:256 37:894 38:30 39:826 40:78 41:599 42:726 43:643 44:56 45:604 46:31 47:407 48:77 49:651 50:2311 51:479 52:2062 53:653 54:29 55:923 56:41 57:780 58:510 59:440 60:5 61:416 62:1 63:659 64:40 65:1268 66:3250 67:1212 68:6382 69:1600 70:157 71:1753 72:80 73:1327 74:89 75:915 76:15 77:685 78:2 79:1240 80:26 
1 1:240 2:9763 3:341 4:21 5:2086 6:1 7:4774 8:6 9:1439 10:60 11:544 12:41 13:381 14:34 15:195 16:74 17:859 18:6455 19:1016 20:2621 21:1895 22:51 23:2237 24:10 25:2000 26:60 27:824 28:45 29:586 30:27 31:584 32:732 33:411 34:1448 35:322 36:2368 37:892 38:325 39:1280 40:135 41:812 42:442 43:436 44:20 45:328 46:10 47:520 48:252 49:616 50:1487 51:444 52:1570 53:402 54:1182 55:648 56:100 57:926 58:282 59:730 60:30 61:533 62:7 63:701 64:342 65:1244 66:4150 67:849 68:3824 69:1091 70:413 71:1514 72:84 73:1624 74:1108 75:1110 76:57 77:947 78:10 79:1621 80:353 
1 1:634 2:9254 3:513 4:358 5:644 6:46 7:1828 8:34 9:2811 10:107 11:1791 12:0 13:1302 14:0 15:477 16:202 17:1340 18:4919 19:885 20:26 21:1039 22:1 23:1689 24:0 25:1620 26:1719 27:1230 28:277 29:1019 30:330 31:1176 32:2728 33:533 34:3735 35:490 36:95 37:627 38:5 39:890 40:21 41:904 42:615 43:571 44:290 45:475 46:35 47:510 48:203 49:426 50:3266 51:473 52:238 53:791 54:7 55:889 56:40 57:1005 58:1048 59:613 60:136 61:433 62:18 63:370 64:248 65:893 66:8682 67:772 68:107 69:1071 70:16 71:1764 72:13 73:2124 74:583 75:1395 76:145 77:1134 78:55 79:847 80:399 
1 1:1191 2:3709 3:844 4:4 5:905 6:6 7:2667 8:146 9:1721 10:5980 11:1070 12:111 13:768 14:21 15:835 16:25 17:850 18:7998 19:1231 20:1922 21:1228 22:34 23:1955 24:7 25:1964 26:32 27:836 28:3 29:1021 30:1 31:916 32:3 33:619 34:2963 35:608 36:2006 37:444 38:14 39:521 40:0 41:1214 42:15 43:490 44:1 45:542 46:2 47:561 48:0 49:744 50:1602 51:643 52:2974 53:574 54:39 55:588 56:26 57:781 58:319 59:647 60:9 61:473 62:4 63:551 64:27 65:1322 66:4674 67:833 68:3446 69:1071 70:487 71:1771 72:190 73:1746 74:1134 75:1065 76:25 77:1164 78:16 79:1028 80:30 
0.8769299053935107 1:839 2:9891 3:837 4:0 5:1467 6:0 7:1637 8:1 9:2259 10:18 11:1185 12:3 13:1083 14:23 15:692 16:64 17:1400 18:5787 19:1067 20:760 21:989 22:193 23:1282 24:188 25:1494 26:573 27:1297 28:95 29:1056 30:87 31:1414 32:2317 33:590 34:3256 35:415 36:853 37:595 38:387 39:829 40:242 41:898 42:201 43:669 44:14 45:516 46:2 47:488 48:45 49:560 50:4250 51:367 52:718 53:623 54:7 55:1014 56:5 57:883 58:18 59:612 60:0 61:469 62:0 63:473 64:0 65:967 66:8993 67:828 68:876 69:1193 70:20 71:2018 72:6 73:1803 74:70 75:1197 76:15 77:984 78:6 79:1010 80:15 
1 1:1637 2:7480 3:1815 4:44 5:2159 6:1 7:790 8:6 9:1238 10:1119 11:551 12:437 13:509 14:414 15:1299 16:500 17:1640 18:8397 19:1507 20:607 21:845 22:34 23:1178 24:31 25:945 26:711 27:853 28:78 29:1214 30:28 31:1819 32:114 33:930 34:4373 35:593 36:299 37:386 38:4 39:327 40:10 41:398 42:206 43:304 44:8 45:841 46:12 47:1220 48:89 49:510 50:4676 51:542 52:303 53:639 54:1 55:717 56:3 57:865 58:0 59:454 60:0 61:703 62:5 63:570 64:12 65:1028 66:9393 67:843 68:245 69:1086 70:0 71:1389 72:0 73:2521 74:0 75:1373 76:0 77:796 78:0 79:963 80:362 
1 1:762 2:9957 3:944 4:0 5:1174 6:0 7:2036 8:3 9:2132 10:12 11:1256 12:2 13:1104 14:4 15:593 16:23 17:906 18:9166 19:975 20:643 21:1403 22:36 23:1592 24:20 25:1515 26:99 27:1440 28:14 29:973 30:1 31:1196 32:21 33:545 34:3422 35:482 36:1402 37:574 38:95 39:878 40:30 41:908 42:36 43:616 44:8 45:544 46:0 47:453 48:6 49:578 50:2350 51:419 52:2338 53:546 54:151 55:880 56:30 57:1026 58:131 59:659 60:0 61:393 62:0 63:497 64:0 65:1018 66:6814 67:1145 68:2545 69:1544 70:164 71:2185 72:128 73:1817 74:332 75:901 76:16 77:643 78:0 79:746 80:1 
1 1:1824 2:6398 3:772 4:2 5:1135 6:1 7:1287 8:16 9:889 10:3189 11:2021 12:349 13:1226 14:4 15:846 16:40 17:1162 18:8922 19:879 20:898 21:1208 22:6 23:1589 24:9 25:2076 26:154 27:1329 28:8 29:728 30:3 31:1029 32:1 33:586 34:3732 35:635 36:1050 37:706 38:63 39:889 40:46 41:926 42:102 43:405 44:5 45:363 46:0 47:490 48:1 49:602 50:3630 51:544 52:1293 53:570 54:32 55:800 56:16 57:1040 58:24 59:568 60:0 61:441 62:0 63:436 64:6 65:1605 66:7121 67:1012 68:2584 69:1062 70:7 71:1253 72:14 73:1611 74:237 75:1184 76:10 77:898 78:7 79:1374 80:20 
1 1:1681 2:4596 3:1067 4:271 5:934 6:182 7:1991 8:26 9:1354 10:2861 11:1153 12:1094 13:968 14:324 15:852 16:646 17:1129 18:9779 19:773 20:197 21:1356 22:1 23:1790 24:1 25:1866 26:7 27:935 28:2 29:889 30:5 31:1262 32:9 33:757 34:4696 35:469 36:239 37:501 38:1 39:523 40:2 41:678 42:17 43:879 44:5 45:603 46:4 47:590 48:37 49:511 50:4139 51:425 52:522 53:566 54:21 55:985 56:14 57:903 58:184 59:519 60:18 61:550 62:22 63:542 64:80 65:1658 66:8562 67:1880 68:230 69:770 70:7 71:863 72:20 73:707 74:724 75:553 76:61 77:1324 78:38 79:2244 80:357 
1 1:213 2:9118 3:225 4:2 5:482 6:1 7:593 8:9 9:1617 10:586 11:4638 12:151 13:1924 14:70 15:309 16:63 17:1313 18:8820 19:980 20:1043 21:1451 22:5 23:1433 24:5 25:1610 26:11 27:810 28:1 29:928 30:1 31:1476 32:114 33:480 34:2972 35:476 36:1933 37:668 38:35 39:1016 40:9 41:927 42:23 43:516 44:1 45:395 46:0 47:523 48:26 49:582 50:2245 51:525 52:2679 53:590 54:14 55:740 56:11 57:861 58:49 59:513 60:0 61:585 62:0 63:605 64:1 65:975 66:5947 67:1047 68:2944 69:1169 70:111 71:1325 72:14 73:1647 74:180 75:1733 76:7 77:1329 78:17 79:775 80:780 
1 1:815 2:9973 3:597 4:6 5:1032 6:1 7:1793 8:1 9:2208 10:16 11:1195 12:0 13:1420 14:0 15:939 16:2 17:1635 18:9329 19:890 20:589 21:848 22:11 23:1292 24:3 25:1616 26:34 27:1191 28:3 29:1097 30:4 31:1431 32:27 33:531 34:4698 35:396 36:235 37:508 38:31 39:746 40:18 41:816 42:13 43:561 44:1 45:683 46:0 47:758 48:4 49:615 50:2418 51:518 52:2167 53:505 54:46 55:676 56:42 57:687 58:300 59:693 60:25 61:679 62:1 63:627 64:3 65:1686 66:3232 67:1180 68:6045 69:1030 70:48 71:1475 72:21 73:1517 74:368 75:823 76:47 77:963 78:4 79:1326 80:234 
1 1:1705 2:9500 3:826 4:18 5:668 6:0 7:2104 8:17 9:1550 10:105 11:779 12:6 13:1269 14:3 15:1098 16:352 17:1411 18:9212 19:992 20:118 21:1016 22:19 23:1310 24:2 25:1523 26:474 27:1445 28:58 29:924 30:20 31:1379 32:97 33:476 34:3737 35:467 36:637 37:488 38:66 39:1180 40:20 41:1093 42:338 43:555 44:14 45:368 46:26 47:373 48:162 49:635 50:3714 51:490 52:869 53:553 54:93 55:828 56:47 57:904 58:164 59:386 60:6 61:503 62:4 63:701 64:103 65:1983 66:9602 67:1755 68:111 69:707 70:58 71:864 72:85 73:861 74:75 75:373 76:0 77:1013 78:0 79:2444 80:68 
1 1:362 2:7571 3:472 4:6 5:1875 6:0 7:4289 8:0 9:1223 10:1087 11:729 12:31 13:582 14:183 15:469 16:1122 17:1420 18:5374 19:983 20:301 21:1172 22:94 23:1709 24:30 25:1775 26:1336 27:966 28:1625 29:993 30:215 31:981 32:1026 33:470 34:3036 35:468 36:536 37:545 38:64 39:860 40:81 41:940 42:1014 43:772 44:51 45:482 46:24 47:464 48:195 49:1025 50:2953 51:356 52:243 53:315 54:113 55:709 56:96 57:648 58:952 59:743 60:474 61:505 62:54 63:699 64:116 65:2767 66:6605 67:897 68:734 69:744 70:183 71:1170 72:101 73:1356 74:973 75:1056 76:290 77:956 78:108 79:1055 80:1006 
1 1:754 2:9982 3:915 4:10 5:1044 6:0 7:1934 8:1 9:2977 10:6 11:942 12:0 13:761 14:0 15:673 16:1 17:1630 18:7425 19:967 20:1892 21:852 22:15 23:2057 24:19 25:1402 26:556 27:792 28:14 29:1004 30:7 31:1296 32:71 33:423 34:1791 35:565 36:2565 37:478 38:56 39:1118 40:72 41:1029 42:259 43:410 44:15 45:505 46:22 47:470 48:221 49:523 50:2227 51:369 52:1530 53:531 54:104 55:995 56:170 57:882 58:927 59:504 60:9 61:653 62:4 63:544 64:29 65:1845 66:6884 67:889 68:1749 69:849 70:81 71:1359 72:42 73:1323 74:490 75:1038 76:42 77:1139 78:16 79:1558 80:697 
1 1:732 2:5981 3:657 4:3 5:1031 6:1 7:1521 8:1 9:1767 10:89 11:1678 12:363 13:1945 14:566 15:670 16:2996 17:1717 18:9157 19:1031 20:299 21:1186 22:33 23:849 24:40 25:1116 26:258 27:1002 28:50 29:1261 30:9 31:1838 32:154 33:881 34:2575 35:667 36:723 37:441 38:1422 39:636 40:130 41:554 42:61 43:508 44:21 45:651 46:5 47:663 48:64 49:643 50:2018 51:492 52:1334 53:533 54:1308 55:910 56:60 57:648 58:183 59:507 60:39 61:697 62:15 63:569 64:43 65:1573 66:5142 67:1025 68:2155 69:915 70:150 71:1661 72:63 73:1622 74:1918 75:903 76:291 77:876 78:81 79:1426 80:200 
1 1:1803 2:6831 3:2986 4:58 5:2322 6:30 7:464 8:69 9:450 10:894 11:388 12:801 13:641 14:181 15:947 16:1136 17:1436 18:8160 19:1196 20:628 21:920 22:279 23:1430 24:11 25:1615 26:392 27:1062 28:202 29:1106 30:70 31:1234 32:258 33:942 34:3152 35:609 36:867 37:439 38:194 39:657 40:24 41:643 42:580 43:413 44:73 45:522 46:14 47:775 48:96 49:809 50:3832 51:800 52:141 53:549 54:13 55:504 56:16 57:501 58:625 59:447 60:123 61:586 62:4 63:804 64:247 65:1758 66:9773 67:1308 68:11 69:1113 70:0 71:1095 72:0 73:729 74:0 75:741 76:0 77:1904 78:32 79:1352 80:184 
1 1:995 2:8077 3:856 4:681 5:1081 6:70 7:1503 8:94 9:1895 10:963 11:1397 12:16 13:1236 14:25 15:1036 16:73 17:2341 18:7903 19:1092 20:440 21:1078 22:13 23:1363 24:20 25:768 26:243 27:673 28:91 29:854 30:72 31:1832 32:1217 33:678 34:4290 35:558 36:414 37:534 38:34 39:707 40:43 41:813 42:184 43:541 44:4 45:542 46:2 47:626 48:30 49:775 50:2547 51:501 52:1592 53:479 54:173 55:801 56:101 57:853 58:197 59:474 60:6 61:516 62:11 63:601 64:374 65:1293 66:3406 67:943 68:3722 69:1101 70:700 71:1559 72:572 73:1492 74:1532 75:1231 76:2 77:1115 78:0 79:1266 80:66 
1 1:797 2:9808 3:641 4:192 5:1355 6:0 7:1378 8:0 9:1377 10:0 11:1699 12:0 13:1830 14:0 15:923 16:0 17:1650 18:8624 19:1090 20:365 21:902 22:3 23:1425 24:13 25:1263 26:278 27:1151 28:118 29:967 30:59 31:1552 32:539 33:631 34:3751 35:619 36:383 37:499 38:21 39:747 40:55 41:815 42:612 43:579 44:50 45:530 46:58 47:579 48:70 49:517 50:3249 51:417 52:859 53:554 54:154 55:962 56:160 57:1190 58:458 59:461 60:27 61:427 62:1 63:473 64:91 65:1325 66:6013 67:813 68:1581 69:1283 70:207 71:1895 72:677 73:1769 74:1316 75:935 76:62 77:958 78:65 79:1022 80:79 
1 1:889 2:9200 3:636 4:765 5:1140 6:15 7:2325 8:5 9:2385 10:16 11:1102 12:0 13:815 14:0 15:708 16:0 17:1246 18:7991 19:898 20:379 21:1172 22:22 23:1586 24:41 25:1735 26:671 27:1081 28:99 29:1115 30:164 31:1168 32:633 33:597 34:3641 35:597 36:392 37:628 38:47 39:721 40:62 41:667 42:697 43:550 44:79 45:575 46:13 47:665 48:70 49:477 50:2981 51:448 52:840 53:586 54:190 55:837 56:238 57:1037 58:604 59:604 60:37 61:446 62:39 63:565 64:71 65:1361 66:3901 67:1218 68:2886 69:1171 70:534 71:1696 72:873 73:1462 74:1795 75:913 76:8 77:1017 78:1 79:1161 80:1 
1 1:970 2:9871 3:727 4:46 5:1148 6:0 7:2059 8:0 9:2166 10:50 11:1140 12:0 13:1158 14:7 15:634 16:27 17:1423 18:7126 19:1118 20:2382 21:1167 22:35 23:1377 24:37 25:1358 26:292 27:1111 28:4 29:1166 30:2 31:1281 32:123 33:585 34:2894 35:546 36:1900 37:514 38:17 39:878 40:11 41:910 42:124 43:451 44:7 45:528 46:8 47:588 48:39 49:475 50:2211 51:472 52:2234 53:529 54:63 55:1001 56:27 57:1092 58:229 59:580 60:1 61:423 62:12 63:428 64:222 65:1037 66:6834 67:1056 68:1441 69:836 70:70 71:1768 72:78 73:2047 74:1107 75:951 76:83 77:1337 78:32 79:968 80:354 
