svm_type c_svc
kernel_type rbf
gamma 0.5
nr_class 2
total_sv 474
rho -1461
label -1 1
nr_sv 242 232
SV
16.6642681357884 1:182 2:772 3:202 4:198 5:190 6:53 7:97 8:1 9:61 10:0 11:79 12:0 13:79 14:0 15:134 16:0 17:189 18:479 19:128 20:269 21:104 22:145 23:136 24:15 25:123 26:81 27:117 28:10 29:99 30:2 31:127 32:22 33:152 34:516 35:159 36:86 37:167 38:14 39:92 40:4 41:123 42:223 43:98 44:142 45:87 46:18 47:146 48:22 49:120 50:791 51:124 52:134 53:202 54:13 55:156 56:8 57:139 58:31 59:88 60:24 61:75 62:7 63:119 64:16 65:143 66:723 67:112 68:101 69:157 70:16 71:184 72:37 73:147 74:93 75:116 76:1 77:54 78:0 79:111 80:52 
7.127924062727836 1:34 2:803 3:38 4:108 5:62 6:7 7:353 8:0 9:324 10:87 11:50 12:15 13:88 14:0 15:76 16:4 17:118 18:514 19:91 20:467 21:316 22:36 23:142 24:0 25:155 26:0 27:32 28:0 29:53 30:0 31:118 32:7 33:189 34:694 35:146 36:35 37:120 38:36 39:107 40:16 41:79 42:123 43:60 44:39 45:96 46:20 47:227 48:62 49:139 50:912 51:88 52:45 53:77 54:19 55:165 56:4 57:159 58:32 59:96 60:2 61:136 62:4 63:163 64:6 65:122 66:872 67:83 68:148 69:96 70:2 71:204 72:0 73:217 74:0 75:102 76:0 77:79 78:1 79:121 80:1 
2.838001065698078 1:34 2:372 3:28 4:605 5:31 6:23 7:35 8:3 9:113 10:18 11:469 12:0 13:269 14:1 15:45 16:1 17:122 18:472 19:97 20:126 21:189 22:81 23:170 24:29 25:122 26:56 27:83 28:5 29:120 30:2 31:120 32:253 33:133 34:208 35:77 36:303 37:101 38:117 39:190 40:191 41:245 42:148 43:109 44:20 45:72 46:7 47:98 48:29 49:55 50:497 51:48 52:134 53:85 54:176 55:159 56:21 57:256 58:162 59:265 60:8 61:100 62:6 63:56 64:20 65:85 66:374 67:82 68:163 69:206 70:102 71:107 72:67 73:95 74:270 75:155 76:17 77:189 78:9 79:104 80:22 
4.154711152122545 1:60 2:456 3:56 4:163 5:89 6:64 7:227 8:73 9:340 10:253 11:123 12:9 13:70 14:2 15:60 16:5 17:71 18:630 19:59 20:153 21:95 22:39 23:152 24:6 25:175 26:101 27:154 28:5 29:204 30:3 31:114 32:86 33:84 34:47 35:79 36:16 37:96 38:15 39:263 40:16 41:257 42:916 43:88 44:8 45:84 46:3 47:73 48:2 49:83 50:69 51:62 52:121 53:80 54:85 55:123 56:72 57:151 58:665 59:97 60:7 61:185 62:3 63:242 64:1 65:102 66:155 67:67 68:662 69:70 70:133 71:85 72:14 73:130 74:61 75:111 76:0 77:276 78:0 79:183 80:0 
23.28806976265648 1:95 2:75 3:40 4:502 5:92 6:85 7:371 8:14 9:232 10:328 11:43 12:20 13:40 14:0 15:110 16:0 17:84 18:132 19:82 20:591 21:148 22:216 23:244 24:13 25:185 26:69 27:87 28:0 29:74 30:0 31:120 32:3 33:144 34:316 35:83 36:383 37:102 38:131 39:153 40:34 41:156 42:155 43:80 44:4 45:88 46:1 47:218 48:1 49:186 50:701 51:59 52:148 53:90 54:27 55:161 56:21 57:159 58:104 59:81 60:23 61:76 62:0 63:212 64:0 65:130 66:653 67:68 68:335 69:114 70:9 71:188 72:2 73:163 74:24 75:103 76:0 77:109 78:0 79:148 80:1 
0.03493793033904238 1:392 2:182 3:90 4:589 5:40 6:88 7:37 8:1 9:84 10:157 11:125 12:5 13:142 14:1 15:114 16:1 17:29 18:372 19:27 20:586 21:64 22:35 23:234 24:4 25:440 26:26 27:124 28:1 29:60 30:0 31:46 32:0 33:33 34:58 35:36 36:348 37:65 38:377 39:249 40:31 41:453 42:200 43:121 44:2 45:39 46:1 47:27 48:7 49:72 50:247 51:87 52:330 53:126 54:240 55:216 56:34 57:277 58:93 59:130 60:17 61:67 62:13 63:51 64:49 65:304 66:351 67:115 68:316 69:43 70:108 71:43 72:30 73:59 74:127 75:57 76:19 77:151 78:14 79:252 80:59 
4.367661368012649 1:268 2:450 3:63 4:529 5:66 6:13 7:120 8:0 9:229 10:25 11:96 12:1 13:83 14:2 15:100 16:4 17:52 18:258 19:49 20:751 21:88 22:15 23:174 24:0 25:396 26:0 27:131 28:0 29:76 30:0 31:59 32:0 33:51 34:83 35:64 36:379 37:108 38:312 39:209 40:81 41:390 42:149 43:122 44:8 45:40 46:2 47:39 48:10 49:93 50:188 51:127 52:499 53:122 54:153 55:187 56:49 57:241 58:39 59:108 60:7 61:72 62:15 63:75 64:74 65:247 66:397 67:88 68:448 69:54 70:76 71:49 72:30 73:64 74:33 75:82 76:6 77:165 78:7 79:275 80:28 
7.439238841320905 1:60 2:4 3:52 4:81 5:68 6:922 7:433 8:0 9:235 10:12 11:59 12:0 13:71 14:3 15:47 16:2 17:94 18:258 19:88 20:252 21:123 22:194 23:221 24:28 25:236 26:245 27:88 28:37 29:71 30:2 31:103 32:9 33:93 34:214 35:82 36:334 37:106 38:248 39:215 40:10 41:268 42:164 43:90 44:31 45:74 46:4 47:96 48:20 49:183 50:357 51:88 52:235 53:82 54:206 55:162 56:43 57:172 58:108 59:92 60:36 61:79 62:4 63:166 64:35 65:170 66:374 67:74 68:75 69:82 70:142 71:150 72:89 73:158 74:263 75:100 76:24 77:115 78:29 79:175 80:27 
15.62776374954888 1:60 2:117 3:39 4:72 5:62 6:251 7:293 8:39 9:398 10:398 11:85 12:29 13:44 14:5 15:43 16:112 17:82 18:102 19:75 20:129 21:128 22:669 23:220 24:32 25:269 26:90 27:114 28:1 29:66 30:0 31:71 32:1 33:155 34:208 35:111 36:234 37:127 38:320 39:168 40:31 41:152 42:197 43:116 44:21 45:81 46:2 47:113 48:11 49:96 50:86 51:87 52:214 53:127 54:630 55:176 56:33 57:231 58:19 59:104 60:0 61:106 62:1 63:99 64:41 65:71 66:207 67:87 68:269 69:88 70:509 71:220 72:15 73:277 74:16 75:110 76:1 77:95 78:1 79:74 80:5 
1.882587624779472 1:438 2:166 3:119 4:313 5:61 6:438 7:32 8:0 9:27 10:90 11:27 12:4 13:64 14:2 15:256 16:11 17:481 18:206 19:58 20:129 21:52 22:657 23:51 24:13 25:53 26:7 27:34 28:0 29:54 30:2 31:242 32:10 33:448 34:388 35:77 36:307 37:45 38:320 39:26 40:5 41:20 42:2 43:27 44:0 45:54 46:0 47:326 48:2 49:404 50:521 51:86 52:221 53:27 54:130 55:25 56:3 57:34 58:142 59:48 60:5 61:97 62:1 63:303 64:2 65:537 66:172 67:31 68:457 69:24 70:196 71:22 72:3 73:16 74:108 75:10 76:63 77:28 78:12 79:357 80:12 
26.71840155974176 1:111 2:508 3:78 4:308 5:98 6:95 7:112 8:8 9:130 10:99 11:215 12:1 13:142 14:1 15:138 16:5 17:169 18:465 19:78 20:218 21:100 22:161 23:143 24:1 25:210 26:61 27:96 28:54 29:84 30:29 31:142 32:35 33:138 34:309 35:95 36:297 37:100 38:359 39:156 40:8 41:212 42:38 43:109 44:6 45:90 46:2 47:124 48:6 49:161 50:288 51:110 52:342 53:87 54:353 55:114 56:10 57:149 58:29 59:100 60:2 61:128 62:0 63:175 64:1 65:241 66:294 67:95 68:369 69:78 70:161 71:89 72:29 73:100 74:169 75:65 76:1 77:118 78:0 79:237 80:1 
14.62583875179424 1:144 2:583 3:104 4:370 5:146 6:46 7:109 8:22 9:81 10:1 11:101 12:0 13:137 14:1 15:201 16:1 17:343 18:362 19:57 20:452 21:47 22:143 23:47 24:22 25:54 26:20 27:54 28:10 29:113 30:5 31:309 32:11 33:160 34:672 35:122 36:236 37:125 38:44 39:117 40:2 41:92 42:27 43:113 44:18 45:140 46:13 47:155 48:12 49:130 50:327 51:92 52:456 53:91 54:45 55:203 56:3 57:200 58:155 59:81 60:26 61:92 62:4 63:135 64:8 65:127 66:132 67:97 68:407 69:101 70:146 71:171 72:19 73:170 74:251 75:104 76:48 77:111 78:11 79:144 80:9 
7.433691484121166 1:83 2:85 3:59 4:95 5:100 6:560 7:223 8:22 9:253 10:198 11:122 12:45 13:86 14:6 15:99 16:13 17:81 18:337 19:57 20:306 21:114 22:311 23:227 24:8 25:307 26:46 27:92 28:3 29:56 30:1 31:90 32:12 33:171 34:256 35:86 36:231 37:82 38:146 39:147 40:33 41:206 42:336 43:101 44:4 45:91 46:1 47:140 48:16 49:183 50:155 51:125 52:45 53:93 54:211 55:102 56:58 57:95 58:551 59:89 60:4 61:137 62:0 63:201 64:0 65:107 66:56 67:62 68:86 69:76 70:605 71:257 72:114 73:225 74:95 75:114 76:2 77:91 78:2 79:91 80:64 
15.15962424216211 1:128 2:9 3:115 4:543 5:103 6:156 7:149 8:303 9:130 10:12 11:99 12:0 13:177 14:0 15:122 16:0 17:137 18:77 19:105 20:646 21:190 22:285 23:125 24:16 25:89 26:0 27:126 28:0 29:135 30:0 31:116 32:0 33:149 34:49 35:111 36:404 37:109 38:422 39:120 40:145 41:112 42:3 43:123 44:1 45:136 46:0 47:164 48:0 49:154 50:81 51:155 52:664 53:118 54:165 55:134 56:113 57:141 58:0 59:101 60:0 61:108 62:0 63:113 64:0 65:174 66:175 67:116 68:817 69:116 70:23 71:100 72:9 73:126 74:0 75:130 76:0 77:95 78:0 79:168 80:0 
32 1:189 2:563 3:174 4:364 5:135 6:44 7:124 8:28 9:57 10:27 11:71 12:0 13:103 14:0 15:171 16:0 17:155 18:278 19:90 20:430 21:109 22:157 23:152 24:95 25:159 26:58 27:116 28:3 29:109 30:1 31:134 32:1 33:134 34:491 35:90 36:255 37:129 38:114 39:173 40:46 41:159 42:49 43:124 44:9 45:89 46:2 47:125 48:59 49:116 50:505 51:108 52:287 53:148 54:63 55:156 56:5 57:147 58:25 59:112 60:58 61:116 62:31 63:122 64:52 65:159 66:603 67:134 68:403 69:143 70:3 71:132 72:2 73:122 74:6 75:94 76:0 77:91 78:0 79:150 80:7 
13.66015399463046 1:127 2:302 3:70 4:639 5:110 6:79 7:171 8:4 9:264 10:0 11:102 12:0 13:80 14:0 15:101 16:0 17:108 18:105 19:110 20:541 21:157 22:236 23:202 24:7 25:194 26:135 27:76 28:0 29:85 30:0 31:92 32:0 33:98 34:103 35:114 36:248 37:139 38:660 39:167 40:2 41:192 42:7 43:123 44:5 45:99 46:0 47:91 48:0 49:84 50:158 51:99 52:175 53:117 54:677 55:178 56:2 57:204 58:7 59:135 60:3 61:120 62:0 63:88 64:3 65:140 66:72 67:97 68:179 69:111 70:547 71:190 72:47 73:183 74:170 75:90 76:3 77:82 78:4 79:131 80:1 
12.10435028849678 1:226 2:275 3:377 4:749 5:240 6:0 7:45 8:0 9:31 10:0 11:12 12:0 13:28 14:0 15:65 16:0 17:151 18:86 19:116 20:696 21:90 22:43 23:140 24:31 25:154 26:146 27:146 28:7 29:79 30:4 31:148 32:10 33:104 34:127 35:70 36:539 37:84 38:31 39:241 40:12 41:221 42:276 43:109 44:32 45:89 46:6 47:104 48:1 49:145 50:200 51:100 52:349 53:81 54:16 55:189 56:5 57:149 58:419 59:106 60:28 61:117 62:5 63:137 64:3 65:158 66:325 67:139 68:117 69:116 70:13 71:122 72:2 73:127 74:361 75:121 76:39 77:110 78:22 79:131 80:146 
32 1:122 2:16 3:99 4:1008 5:194 6:0 7:109 8:0 9:132 10:0 11:111 12:0 13:162 14:0 15:95 16:0 17:163 18:290 19:89 20:613 21:93 22:17 23:158 24:14 25:161 26:82 27:61 28:2 29:82 30:3 31:216 32:3 33:157 34:345 35:88 36:517 37:87 38:15 39:204 40:9 41:159 42:116 43:82 44:12 45:91 46:5 47:156 48:5 49:103 50:423 51:80 52:560 53:102 54:8 55:227 56:5 57:212 58:23 59:93 60:1 61:91 62:0 63:116 64:3 65:197 66:400 67:87 68:475 69:84 70:15 71:122 72:3 73:130 74:90 75:76 76:16 77:106 78:9 79:221 80:16 
22.42684091854715 1:149 2:0 3:114 4:76 5:122 6:100 7:172 8:27 9:152 10:821 11:96 12:0 13:134 14:0 15:84 16:0 17:173 18:6 19:118 20:417 21:97 22:38 23:125 24:14 25:155 26:511 27:84 28:35 29:111 30:1 31:160 32:2 33:133 34:17 35:87 36:61 37:93 38:62 39:144 40:12 41:192 42:759 43:93 44:109 45:113 46:4 47:169 48:1 49:175 50:16 51:101 52:29 53:109 54:5 55:165 56:10 57:155 58:769 59:71 60:175 61:97 62:18 63:151 64:2 65:167 66:116 67:88 68:22 69:95 70:2 71:163 72:1 73:173 74:657 75:109 76:90 77:69 78:22 79:160 80:114 
12.80212841882917 1:91 2:0 3:102 4:28 5:141 6:178 7:212 8:25 9:135 10:793 11:142 12:0 13:122 14:0 15:79 16:0 17:153 18:34 19:94 20:390 21:89 22:102 23:193 24:16 25:188 26:438 27:99 28:33 29:95 30:8 31:113 32:3 33:147 34:5 35:101 36:106 37:92 38:87 39:167 40:29 41:162 42:686 43:93 44:100 45:110 46:9 47:152 48:2 49:120 50:145 51:93 52:58 53:108 54:11 55:191 56:18 57:200 58:496 59:116 60:117 61:83 62:46 63:114 64:133 65:224 66:115 67:91 68:12 69:78 70:3 71:161 72:0 73:117 74:766 75:93 76:74 77:87 78:13 79:173 80:41 
6.424467585676943 1:183 2:350 3:182 4:158 5:134 6:29 7:61 8:4 9:50 10:478 11:146 12:5 13:176 14:0 15:92 16:0 17:87 18:473 19:75 20:463 21:106 22:36 23:247 24:17 25:220 26:31 27:122 28:2 29:86 30:0 31:81 32:1 33:97 34:397 35:96 36:355 37:116 38:83 39:195 40:44 41:223 42:128 43:132 44:7 45:86 46:3 47:80 48:7 49:127 50:142 51:104 52:139 53:112 54:35 55:155 56:29 57:153 58:617 59:110 60:43 61:122 62:11 63:140 64:8 65:191 66:164 67:102 68:7 69:90 70:3 71:115 72:1 73:122 74:741 75:140 76:65 77:111 78:16 79:152 80:28 
32 1:144 2:122 3:48 4:248 5:63 6:73 7:81 8:18 9:114 10:563 11:198 12:0 13:168 14:0 15:208 16:0 17:94 18:31 19:94 20:130 21:112 22:52 23:257 24:39 25:259 26:772 27:84 28:0 29:61 30:0 31:62 32:0 33:112 34:36 35:104 36:102 37:96 38:43 39:211 40:30 41:215 42:814 43:98 44:0 45:74 46:0 47:114 48:0 49:125 50:83 51:93 52:163 53:85 54:23 55:132 56:14 57:127 58:731 59:144 60:10 61:153 62:1 63:166 64:1 65:134 66:148 67:88 68:212 69:88 70:8 71:189 72:1 73:211 74:604 75:79 76:35 77:101 78:7 79:134 80:9 
2.497119137198521 1:135 2:549 3:40 4:181 5:82 6:94 7:248 8:51 9:72 10:148 11:81 12:0 13:153 14:0 15:214 16:0 17:217 18:347 19:55 20:369 21:71 22:89 23:147 24:69 25:158 26:140 27:110 28:2 29:62 30:2 31:204 32:7 33:137 34:250 35:113 36:169 37:123 38:112 39:162 40:81 41:197 42:371 43:116 44:35 45:68 46:3 47:108 48:4 49:163 50:466 51:72 52:143 53:79 54:39 55:196 56:15 57:189 58:278 59:81 60:23 61:94 62:13 63:149 64:48 65:181 66:759 67:90 68:7 69:84 70:1 71:95 72:0 73:105 74:66 75:70 76:80 77:124 78:41 79:276 80:69 
6.933487099710779 1:118 2:19 3:160 4:297 5:323 6:8 7:121 8:19 9:76 10:681 11:71 12:0 13:71 14:0 15:84 16:0 17:274 18:129 19:119 20:448 21:99 22:46 23:101 24:29 25:79 26:369 27:64 28:3 29:71 30:0 31:216 32:0 33:133 34:247 35:89 36:138 37:163 38:34 39:208 40:5 41:134 42:593 43:94 44:5 45:71 46:0 47:132 48:1 49:104 50:187 51:83 52:8 53:135 54:2 55:247 56:5 57:183 58:771 59:71 60:39 61:69 62:6 63:133 64:6 65:227 66:688 67:72 68:99 69:91 70:7 71:140 72:1 73:105 74:187 75:62 76:23 77:85 78:4 79:243 80:15 
32 1:155 2:29 3:124 4:4 5:125 6:4 7:87 8:8 9:227 10:975 11:102 12:2 13:89 14:0 15:114 16:0 17:114 18:445 19:113 20:82 21:135 22:31 23:194 24:11 25:163 26:420 27:83 28:25 29:99 30:3 31:124 32:8 33:135 34:446 35:77 36:114 37:98 38:35 39:157 40:10 41:230 42:342 43:96 44:49 45:110 46:8 47:120 48:20 49:175 50:296 51:54 52:77 53:78 54:10 55:104 56:3 57:194 58:541 59:118 60:61 61:105 62:24 63:195 64:11 65:146 66:94 67:65 68:241 69:95 70:26 71:136 72:2 73:171 74:625 75:114 76:16 77:78 78:11 79:220 80:9 
0.9648170394561419 1:94 2:0 3:142 4:533 5:129 6:462 7:146 8:21 9:140 10:8 11:115 12:0 13:179 14:0 15:79 16:0 17:133 18:5 19:87 20:20 21:111 22:41 23:154 24:20 25:189 26:929 27:118 28:9 29:98 30:0 31:134 32:0 33:173 34:36 35:146 36:36 37:94 38:19 39:152 40:7 41:172 42:903 43:89 44:20 45:80 46:1 47:119 48:2 49:166 50:56 51:84 52:65 53:92 54:19 55:170 56:9 57:161 58:854 59:90 60:7 61:122 62:1 63:139 64:14 65:212 66:3 67:77 68:39 69:78 70:11 71:123 72:16 73:158 74:944 75:84 76:9 77:103 78:1 79:188 80:2 
11.46927010839429 1:84 2:220 3:121 4:798 5:213 6:4 7:165 8:2 9:152 10:0 11:114 12:0 13:106 14:0 15:68 16:0 17:133 18:19 19:90 20:420 21:107 22:26 23:185 24:24 25:179 26:530 27:101 28:2 29:94 30:2 31:136 32:0 33:126 34:89 35:85 36:132 37:98 38:11 39:197 40:9 41:219 42:771 43:117 44:7 45:86 46:3 47:96 48:1 49:77 50:163 51:78 52:97 53:147 54:8 55:209 56:5 57:189 58:675 59:153 60:69 61:101 62:6 63:70 64:2 65:121 66:143 67:78 68:461 69:164 70:21 71:178 72:4 73:154 74:283 75:147 76:92 77:93 78:15 79:89 80:6 
15.12630896546177 1:68 2:5 3:54 4:42 5:123 6:2 7:190 8:2 9:280 10:973 11:152 12:0 13:88 14:0 15:69 16:0 17:98 18:241 19:71 20:726 21:99 22:7 23:144 24:5 25:126 26:46 27:119 28:0 29:160 30:0 31:207 32:0 33:83 34:469 35:69 36:84 37:121 38:36 39:258 40:29 41:197 42:400 43:116 44:3 45:103 46:1 47:77 48:3 49:114 50:236 51:65 52:17 53:138 54:22 55:281 56:5 57:169 58:722 59:99 60:19 61:62 62:2 63:96 64:2 65:114 66:321 67:63 68:78 69:91 70:10 71:185 72:2 73:194 74:602 75:203 76:7 77:76 78:1 79:99 80:3 
2.44227320218703 1:323 2:207 3:10 4:817 5:12 6:0 7:11 8:0 9:19 10:0 11:14 12:0 13:147 14:0 15:489 16:0 17:154 18:24 19:224 20:370 21:86 22:156 23:68 24:109 25:116 26:364 27:160 28:1 29:132 30:0 31:86 32:0 33:170 34:44 35:216 36:154 37:150 38:80 39:119 40:73 41:120 42:672 43:87 44:0 45:72 46:0 47:89 48:0 49:173 50:360 51:126 52:229 53:100 54:28 55:143 56:16 57:146 58:387 59:81 60:3 61:84 62:0 63:171 64:0 65:147 66:590 67:80 68:153 69:78 70:107 71:175 72:3 73:252 74:151 75:74 76:8 77:80 78:2 79:139 80:10 
2.307642094128183 1:130 2:573 3:39 4:285 5:34 6:33 7:208 8:29 9:334 10:103 11:33 12:1 13:50 14:1 15:195 16:0 17:155 18:229 19:132 20:217 21:113 22:26 23:63 24:39 25:79 26:505 27:95 28:6 29:170 30:1 31:216 32:0 33:180 34:232 35:151 36:142 37:118 38:24 39:104 40:23 41:168 42:590 43:77 44:9 45:104 46:3 47:123 48:2 49:155 50:566 51:92 52:125 53:99 54:14 55:195 56:3 57:170 58:306 59:88 60:8 61:80 62:1 63:144 64:2 65:121 66:248 67:57 68:82 69:91 70:13 71:234 72:3 73:230 74:654 75:123 76:19 77:67 78:3 79:102 80:3 
28.83789575657087 1:264 2:859 3:79 4:156 5:125 6:2 7:99 8:0 9:105 10:4 11:84 12:2 13:82 14:1 15:186 16:0 17:167 18:724 19:93 20:262 21:94 22:19 23:150 24:2 25:169 26:15 27:96 28:1 29:103 30:0 31:152 32:0 33:177 34:859 35:81 36:96 37:85 38:10 39:166 40:4 41:168 42:41 43:105 44:7 45:100 46:5 47:143 48:2 49:298 50:804 51:84 52:115 53:67 54:37 55:82 56:5 57:77 58:44 59:69 60:3 61:64 62:2 63:283 64:14 65:153 66:843 67:95 68:114 69:109 70:6 71:161 72:1 73:142 74:47 75:86 76:6 77:91 78:2 79:187 80:4 
11.32047792908504 1:68 2:87 3:118 4:740 5:217 6:187 7:96 8:8 9:60 10:2 11:93 12:0 13:136 14:0 15:237 16:0 17:57 18:610 19:67 20:388 21:97 22:23 23:288 24:2 25:234 26:1 27:136 28:0 29:78 30:0 31:68 32:0 33:175 34:401 35:99 36:277 37:110 38:32 39:166 40:13 41:164 42:248 43:84 44:11 45:71 46:11 47:155 48:32 49:155 50:72 51:122 52:96 53:123 54:37 55:157 56:26 57:139 58:776 59:91 60:5 61:85 62:2 63:152 64:10 65:333 66:146 67:60 68:281 69:76 70:125 71:103 72:12 73:73 74:439 75:58 76:11 77:54 78:3 79:267 80:8 
1.926348828295623 1:77 2:341 3:80 4:457 5:117 6:42 7:30 8:6 9:43 10:177 11:46 12:1 13:362 14:0 15:268 16:0 17:87 18:252 19:85 20:716 21:99 22:35 23:224 24:7 25:220 26:14 27:71 28:0 29:140 30:0 31:96 32:0 33:77 34:316 35:60 36:532 37:73 38:62 39:235 40:26 41:246 42:82 43:119 44:1 45:120 46:0 47:94 48:3 49:102 50:185 51:106 52:332 53:97 54:41 55:207 56:17 57:215 58:382 59:100 60:27 61:99 62:9 63:98 64:31 65:162 66:104 67:150 68:18 69:173 70:5 71:116 72:6 73:108 74:790 75:76 76:87 77:88 78:9 79:151 80:5 
16.5740943543076 1:36 2:0 3:30 4:731 5:77 6:186 7:176 8:68 9:216 10:39 11:295 12:0 13:129 14:0 15:64 16:0 17:136 18:194 19:107 20:617 21:193 22:71 23:128 24:28 25:126 26:112 27:98 28:2 29:108 30:1 31:129 32:0 33:109 34:440 35:101 36:223 37:151 38:37 39:157 40:42 41:157 42:254 43:119 44:9 45:112 46:3 47:118 48:15 49:157 50:505 51:76 52:48 53:100 54:19 55:168 56:16 57:192 58:389 59:109 60:13 61:101 62:7 63:123 64:27 65:150 66:432 67:115 68:52 69:85 70:19 71:122 72:11 73:147 74:386 75:117 76:48 77:137 78:18 79:152 80:58 
1.258378354400025 1:50 2:0 3:89 4:16 5:277 6:629 7:202 8:279 9:247 10:101 11:89 12:0 13:45 14:0 15:25 16:0 17:110 18:157 19:85 20:319 21:99 22:308 23:150 24:111 25:143 26:110 27:100 28:2 29:168 30:1 31:169 32:16 33:174 34:337 35:92 36:259 37:107 38:171 39:128 40:37 41:127 42:161 43:77 44:27 45:117 46:11 47:200 48:21 49:182 50:61 51:90 52:121 53:79 54:61 55:127 56:16 57:132 58:735 59:123 60:8 61:101 62:6 63:190 64:15 65:163 66:93 67:103 68:35 69:119 70:19 71:179 72:6 73:136 74:774 75:90 76:10 77:80 78:9 79:154 80:78 
3.656560414963211 1:34 2:0 3:31 4:31 5:206 6:807 7:135 8:171 9:299 10:15 11:245 12:0 13:49 14:0 15:24 16:0 17:102 18:131 19:96 20:185 21:91 22:51 23:249 24:9 25:199 26:484 27:89 28:83 29:91 30:23 31:107 32:56 33:137 34:45 35:78 36:24 37:88 38:20 39:192 40:5 41:172 42:847 43:94 44:46 45:96 46:19 47:166 48:19 49:83 50:229 51:74 52:64 53:97 54:23 55:235 56:3 57:232 58:602 59:99 60:26 61:89 62:10 63:115 64:66 65:141 66:389 67:91 68:68 69:102 70:14 71:166 72:8 73:165 74:376 75:93 76:52 77:97 78:21 79:169 80:95 
8.437956667430154 1:125 2:0 3:53 4:6 5:92 6:465 7:151 8:399 9:138 10:154 11:152 12:0 13:180 14:0 15:133 16:0 17:130 18:217 19:86 20:155 21:131 22:57 23:169 24:28 25:169 26:479 27:101 28:26 29:98 30:15 31:140 32:46 33:152 34:85 35:81 36:140 37:107 38:64 39:186 40:23 41:138 42:646 43:94 44:28 45:82 46:11 47:184 48:27 49:100 50:150 51:66 52:33 53:120 54:25 55:223 56:31 57:213 58:661 59:95 60:82 61:88 62:24 63:119 64:17 65:123 66:156 67:92 68:34 69:87 70:17 71:191 72:2 73:199 74:373 75:91 76:123 77:94 78:51 79:147 80:268 
6.66002317481947 1:127 2:0 3:66 4:3 5:113 6:37 7:132 8:454 9:277 10:529 11:80 12:0 13:105 14:0 15:124 16:0 17:128 18:34 19:72 20:9 21:101 22:49 23:185 24:110 25:186 26:662 27:112 28:14 29:96 30:5 31:144 32:141 33:97 34:155 35:98 36:57 37:135 38:75 39:177 40:62 41:230 42:475 43:109 44:15 45:82 46:13 47:94 48:172 49:123 50:475 51:86 52:58 53:166 54:75 55:169 56:13 57:168 58:120 59:90 60:82 61:97 62:49 63:123 64:151 65:144 66:674 67:100 68:51 69:156 70:8 71:160 72:2 73:144 74:24 75:84 76:39 77:105 78:52 79:132 80:174 
24.32534269898713 1:67 2:28 3:72 4:280 5:206 6:420 7:234 8:146 9:199 10:110 11:106 12:8 13:66 14:15 15:73 16:17 17:87 18:203 19:79 20:158 21:122 22:86 23:239 24:25 25:224 26:345 27:98 28:73 29:76 30:27 31:99 32:108 33:94 34:208 35:83 36:172 37:122 38:23 39:209 40:15 41:228 42:351 43:112 44:93 45:81 46:48 47:96 48:113 49:116 50:188 51:114 52:105 53:117 54:13 55:182 56:4 57:165 58:240 59:110 60:108 61:101 62:70 63:119 64:296 65:174 66:135 67:86 68:115 69:102 70:1 71:168 72:2 73:146 74:430 75:79 76:146 77:90 78:53 79:179 80:142 
5.381786433427446 1:36 2:42 3:164 4:267 5:59 6:149 7:253 8:87 9:325 10:477 11:66 12:2 13:61 14:0 15:60 16:0 17:124 18:37 19:132 20:515 21:167 22:429 23:138 24:9 25:158 26:15 27:115 28:8 29:100 30:3 31:92 32:8 33:119 34:224 35:112 36:427 37:107 38:193 39:194 40:36 41:209 42:23 43:93 44:36 45:91 46:69 47:100 48:15 49:112 50:656 51:103 52:166 53:115 54:15 55:174 56:2 57:189 58:153 59:117 60:14 61:110 62:11 63:105 64:6 65:112 66:899 67:85 68:112 69:111 70:0 71:148 72:0 73:212 74:0 75:135 76:0 77:108 78:2 79:115 80:11 
9.692203321154633 1:138 2:236 3:44 4:363 5:178 6:31 7:170 8:21 9:215 10:326 11:125 12:45 13:57 14:0 15:97 16:1 17:136 18:200 19:60 20:79 21:141 22:53 23:266 24:107 25:176 26:544 27:72 28:31 29:53 30:4 31:120 32:5 33:182 34:178 35:85 36:131 37:113 38:51 39:152 40:44 41:200 42:548 43:96 44:50 45:80 46:14 47:117 48:8 49:122 50:585 51:70 52:96 53:88 54:77 55:178 56:7 57:295 58:14 59:119 60:41 61:47 62:90 63:103 64:113 65:166 66:901 67:63 68:69 69:111 70:28 71:190 72:4 73:193 74:16 75:96 76:0 77:61 78:0 79:145 80:6 
7.508090503869299 1:157 2:25 3:96 4:821 5:82 6:178 7:81 8:0 9:58 10:0 11:122 12:0 13:270 14:0 15:159 16:0 17:114 18:561 19:91 20:314 21:96 22:37 23:101 24:5 25:116 26:106 27:173 28:0 29:180 30:0 31:152 32:1 33:121 34:363 35:83 36:184 37:89 38:81 39:99 40:37 41:94 42:354 43:163 44:1 45:224 46:2 47:151 48:2 49:281 50:461 51:93 52:280 53:104 54:25 55:75 56:16 57:58 58:222 59:68 60:14 61:86 62:4 63:260 64:2 65:150 66:642 67:144 68:221 69:178 70:15 71:125 72:11 73:126 74:96 75:62 76:22 77:80 78:9 79:159 80:7 
1.906778058624399 1:84 2:14 3:51 4:154 5:37 6:184 7:293 8:131 9:329 10:534 11:21 12:3 13:36 14:1 15:173 16:3 17:136 18:347 19:109 20:375 21:133 22:151 23:196 24:72 25:215 26:52 27:74 28:15 29:67 30:5 31:96 32:6 33:86 34:260 35:76 36:419 37:130 38:134 39:205 40:64 41:217 42:85 43:116 44:16 45:102 46:11 47:91 48:35 49:131 50:326 51:109 52:126 53:103 54:44 55:161 56:139 57:190 58:168 59:96 60:25 61:118 62:14 63:116 64:181 65:160 66:279 67:65 68:24 69:103 70:12 71:178 72:25 73:164 74:324 75:119 76:33 77:94 78:77 79:142 80:249 
21.33735267936465 1:199 2:316 3:98 4:388 5:116 6:86 7:130 8:88 9:152 10:146 11:84 12:0 13:91 14:0 15:153 16:0 17:107 18:645 19:91 20:308 21:101 22:3 23:143 24:4 25:208 26:48 27:109 28:0 29:102 30:1 31:163 32:15 33:144 34:385 35:84 36:459 37:81 38:29 39:172 40:26 41:169 42:115 43:110 44:1 45:116 46:1 47:148 48:9 49:192 50:450 51:110 52:439 53:112 54:56 55:155 56:18 57:130 58:44 59:114 60:9 61:92 62:5 63:119 64:2 65:153 66:596 67:104 68:183 69:87 70:19 71:159 72:14 73:180 74:185 75:101 76:19 77:105 78:6 79:137 80:2 
16.13257832343555 1:141 2:1019 3:112 4:5 5:155 6:0 7:103 8:0 9:138 10:0 11:116 12:0 13:140 14:0 15:120 16:0 17:108 18:581 19:65 20:440 21:91 22:2 23:193 24:0 25:144 26:0 27:129 28:0 29:90 30:0 31:204 32:1 33:88 34:496 35:88 36:524 37:113 38:3 39:195 40:1 41:127 42:0 43:100 44:0 45:146 46:0 47:167 48:0 49:96 50:585 51:183 52:439 53:113 54:0 55:209 56:0 57:151 58:0 59:96 60:0 61:93 62:0 63:83 64:0 65:139 66:582 67:100 68:442 69:128 70:0 71:199 72:0 73:131 74:0 75:82 76:0 77:93 78:0 79:151 80:0 
3.951618311321035 1:59 2:1023 3:61 4:1 5:131 6:0 7:267 8:0 9:174 10:0 11:199 12:0 13:80 14:0 15:52 16:0 17:137 18:653 19:81 20:326 21:102 22:6 23:176 24:10 25:181 26:28 27:82 28:0 29:91 30:0 31:174 32:0 33:94 34:489 35:79 36:470 37:211 38:11 39:178 40:20 41:180 42:34 43:78 44:0 45:84 46:0 47:120 48:0 49:111 50:350 51:97 52:673 53:184 54:1 55:153 56:0 57:182 58:0 59:90 60:0 61:76 62:0 63:131 64:0 65:162 66:517 67:101 68:452 69:119 70:34 71:128 72:4 73:133 74:11 75:108 76:0 77:75 78:0 79:199 80:7 
2.38161339141518 1:169 2:503 3:106 4:443 5:67 6:15 7:54 8:20 9:118 10:38 11:201 12:3 13:136 14:0 15:173 16:2 17:126 18:622 19:72 20:20 21:63 22:7 23:180 24:2 25:330 26:56 27:74 28:104 29:64 30:140 31:115 32:73 33:185 34:442 35:62 36:103 37:67 38:55 39:142 40:34 41:213 42:53 43:97 44:127 45:77 46:168 47:181 48:41 49:109 50:420 51:78 52:506 53:74 54:44 55:217 56:3 57:316 58:19 59:81 60:9 61:64 62:18 63:86 64:6 65:114 66:343 67:120 68:406 69:151 70:206 71:176 72:42 73:155 74:24 75:96 76:0 77:103 78:1 79:109 80:3 
3.874930296515559 1:155 2:330 3:164 4:4 5:258 6:4 7:133 8:0 9:131 10:1 11:64 12:89 13:46 14:236 15:72 16:360 17:143 18:483 19:115 20:203 21:97 22:146 23:140 24:49 25:140 26:34 27:97 28:22 29:117 30:17 31:176 32:70 33:114 34:516 35:117 36:268 37:161 38:95 39:148 40:13 41:139 42:21 43:105 44:18 45:111 46:17 47:130 48:77 49:109 50:574 51:124 52:142 53:165 54:8 55:172 56:3 57:137 58:165 59:101 60:23 61:105 62:14 63:109 64:94 65:131 66:765 67:107 68:148 69:148 70:5 71:167 72:1 73:111 74:39 75:105 76:23 77:117 78:7 79:139 80:36 
1.422053974781872 1:255 2:735 3:110 4:2 5:88 6:2 7:126 8:0 9:146 10:0 11:67 12:0 13:121 14:52 15:113 16:233 17:135 18:227 19:106 20:43 21:99 22:87 23:117 24:25 25:123 26:411 27:111 28:34 29:190 30:15 31:141 32:182 33:199 34:534 35:141 36:96 37:100 38:171 39:114 40:52 41:124 42:38 43:88 44:8 45:95 46:12 47:163 48:114 49:151 50:637 51:139 52:184 53:161 54:145 55:136 56:5 57:102 58:6 59:93 60:0 61:104 62:3 63:137 64:45 65:98 66:586 67:119 68:267 69:179 70:12 71:165 72:0 73:159 74:9 75:99 76:4 77:107 78:14 79:98 80:131 
4.336717140316992 1:96 2:11 3:87 4:0 5:117 6:0 7:175 8:0 9:184 10:0 11:103 12:65 13:139 14:501 15:124 16:447 17:63 18:687 19:69 20:58 21:93 22:10 23:281 24:1 25:292 26:81 27:83 28:80 29:70 30:39 31:72 32:69 33:90 34:553 35:64 36:179 37:80 38:55 39:269 40:6 41:300 42:51 43:80 44:40 45:61 46:46 47:80 48:94 49:101 50:503 51:79 52:223 53:103 54:62 55:218 56:30 57:250 58:37 59:83 60:23 61:101 62:48 63:89 64:97 65:157 66:704 67:91 68:236 69:100 70:13 71:191 72:3 73:210 74:18 75:78 76:4 77:71 78:21 79:126 80:26 
4.721753550889708 1:165 2:3 3:63 4:660 5:63 6:87 7:51 8:150 9:64 10:123 11:126 12:0 13:256 14:0 15:236 16:0 17:171 18:82 19:69 20:727 21:59 22:78 23:135 24:19 25:205 26:115 27:116 28:2 29:84 30:1 31:185 32:1 33:199 34:53 35:46 36:850 37:53 38:58 39:141 40:29 41:163 42:33 43:75 44:0 45:85 46:0 47:262 48:1 49:81 50:24 51:42 52:918 53:57 54:78 55:199 56:3 57:253 58:0 59:116 60:0 61:118 62:0 63:159 64:1 65:147 66:106 67:72 68:892 69:89 70:13 71:201 72:2 73:191 74:10 75:70 76:0 77:89 78:0 79:165 80:0 
11.82285550733386 1:156 2:846 3:71 4:74 5:82 6:30 7:54 8:27 9:61 10:45 11:161 12:0 13:200 14:0 15:239 16:1 17:190 18:407 19:58 20:451 21:74 22:20 23:125 24:5 25:173 26:120 27:127 28:3 29:92 30:11 31:184 32:7 33:171 34:228 35:53 36:682 37:59 38:43 39:154 40:20 41:187 42:31 43:89 44:1 45:102 46:2 47:209 48:16 49:113 50:291 51:47 52:587 53:76 54:42 55:188 56:3 57:217 58:91 59:134 60:1 61:115 62:1 63:134 64:8 65:123 66:509 67:75 68:470 69:89 70:8 71:231 72:2 73:225 74:32 75:58 76:1 77:72 78:1 79:150 80:1 
32 1:156 2:846 3:71 4:74 5:82 6:30 7:54 8:27 9:61 10:45 11:161 12:0 13:200 14:0 15:239 16:1 17:190 18:407 19:58 20:451 21:74 22:20 23:125 24:5 25:173 26:120 27:127 28:3 29:92 30:11 31:184 32:7 33:171 34:228 35:53 36:682 37:59 38:43 39:154 40:20 41:187 42:31 43:89 44:1 45:102 46:2 47:209 48:16 49:113 50:291 51:47 52:587 53:76 54:42 55:188 56:3 57:217 58:91 59:134 60:1 61:115 62:1 63:134 64:8 65:123 66:509 67:75 68:470 69:89 70:8 71:231 72:2 73:225 74:32 75:58 76:1 77:72 78:1 79:150 80:1 
10.23086695059764 1:68 2:341 3:70 4:525 5:160 6:15 7:260 8:12 9:245 10:123 11:82 12:7 13:68 14:1 15:70 16:0 17:106 18:436 19:74 20:207 21:97 22:6 23:288 24:2 25:199 26:292 27:67 28:60 29:73 30:10 31:119 32:12 33:137 34:399 35:82 36:297 37:104 38:4 39:219 40:2 41:193 42:312 43:87 44:6 45:77 46:1 47:126 48:3 49:117 50:99 51:99 52:96 53:120 54:8 55:197 56:10 57:184 58:762 59:88 60:25 61:96 62:17 63:123 64:6 65:162 66:324 67:99 68:336 69:101 70:12 71:122 72:3 73:137 74:68 75:84 76:20 77:122 78:12 79:196 80:249 
9.936165969328881 1:42 2:359 3:40 4:310 5:226 6:30 7:411 8:117 9:177 10:84 11:63 12:24 13:32 14:8 15:34 16:93 17:121 18:213 19:80 20:216 21:113 22:49 23:177 24:63 25:177 26:371 27:145 28:12 29:93 30:19 31:118 32:82 33:120 34:472 35:75 36:228 37:109 38:128 39:248 40:95 41:183 42:37 43:88 44:5 45:79 46:6 47:121 48:53 49:92 50:671 51:94 52:70 53:110 54:22 55:184 56:42 57:234 58:111 59:141 60:9 61:79 62:20 63:89 64:79 65:103 66:499 67:85 68:122 69:108 70:30 71:247 72:150 73:211 74:139 75:98 76:19 77:86 78:10 79:87 80:55 
7.572002145742831 1:54 2:219 3:39 4:150 5:80 6:4 7:179 8:1 9:496 10:147 11:90 12:8 13:35 14:19 15:50 16:477 17:124 18:384 19:80 20:111 21:115 22:25 23:167 24:35 25:228 26:217 27:107 28:15 29:92 30:7 31:110 32:229 33:108 34:429 35:94 36:99 37:138 38:40 39:191 40:12 41:147 42:106 43:132 44:35 45:101 46:10 47:112 48:292 49:154 50:352 51:109 52:217 53:99 54:52 55:123 56:2 57:159 58:14 59:116 60:4 61:103 62:3 63:160 64:380 65:136 66:401 67:66 68:251 69:102 70:14 71:179 72:1 73:206 74:149 75:109 76:7 77:107 78:11 79:119 80:190 
4.049267838771486 1:10 2:4 3:16 4:975 5:69 6:28 7:709 8:3 9:181 10:14 11:21 12:0 13:10 14:0 15:8 16:0 17:114 18:151 19:75 20:553 21:89 22:77 23:245 24:29 25:215 26:206 27:84 28:0 29:80 30:0 31:122 32:7 33:98 34:2 35:73 36:473 37:112 38:169 39:239 40:69 41:207 42:309 43:103 44:2 45:89 46:0 47:103 48:0 49:95 50:15 51:87 52:411 53:109 54:93 55:264 56:55 57:223 58:446 59:85 60:0 61:70 62:1 63:91 64:2 65:134 66:115 67:106 68:296 69:150 70:41 71:175 72:10 73:156 74:544 75:89 76:11 77:91 78:6 79:123 80:2 
27.34093500326764 1:252 2:164 3:78 4:795 5:61 6:22 7:110 8:0 9:92 10:42 11:87 12:0 13:146 14:0 15:199 16:0 17:138 18:37 19:134 20:447 21:95 22:43 23:152 24:21 25:136 26:473 27:134 28:0 29:78 30:2 31:157 32:1 33:213 34:214 35:97 36:228 37:91 38:167 39:127 40:96 41:110 42:315 43:71 44:0 45:102 46:0 47:212 48:2 49:153 50:345 51:101 52:331 53:141 54:192 55:155 56:33 57:112 58:108 59:92 60:6 61:112 62:2 63:158 64:7 65:132 66:210 67:98 68:317 69:155 70:223 71:168 72:67 73:134 74:198 75:92 76:5 77:119 78:2 79:127 80:3 
9.782398968816434 1:44 2:0 3:28 4:2 5:49 6:3 7:361 8:5 9:431 10:1005 11:43 12:9 13:32 14:0 15:35 16:0 17:147 18:155 19:80 20:46 21:139 22:43 23:181 24:20 25:180 26:598 27:111 28:145 29:63 30:9 31:123 32:9 33:190 34:451 35:96 36:47 37:98 38:18 39:137 40:8 41:139 42:339 43:115 44:34 45:94 46:5 47:155 48:122 49:99 50:158 51:64 52:226 53:71 54:225 55:184 56:12 57:298 58:370 59:169 60:28 61:70 62:2 63:69 64:2 65:163 66:328 67:53 68:142 69:61 70:16 71:206 72:6 73:269 74:443 75:103 76:56 77:74 78:14 79:96 80:20 
0.003887047914990855 1:44 2:1 3:31 4:1 5:49 6:5 7:399 8:1 9:361 10:1012 11:62 12:4 13:46 14:0 15:33 16:0 17:182 18:188 19:104 20:53 21:134 22:66 23:135 24:16 25:122 26:638 27:98 28:45 29:77 30:1 31:173 32:16 33:108 34:199 35:68 36:187 37:78 38:205 39:177 40:6 41:292 42:355 43:156 44:12 45:76 46:1 47:70 48:59 49:136 50:293 51:53 52:186 53:72 54:130 55:214 56:4 57:274 58:384 59:95 60:11 61:75 62:6 63:105 64:9 65:129 66:139 67:61 68:23 69:76 70:65 71:159 72:15 73:293 74:699 75:123 76:61 77:63 78:11 79:120 80:12 
3.296876420131304 1:50 2:889 3:70 4:6 5:125 6:2 7:197 8:0 9:277 10:127 11:170 12:0 13:57 14:0 15:80 16:0 17:122 18:85 19:65 20:118 21:102 22:64 23:183 24:13 25:267 26:702 27:85 28:23 29:84 30:9 31:117 32:10 33:114 34:434 35:78 36:179 37:78 38:117 39:196 40:18 41:260 42:215 43:87 44:19 45:74 46:18 47:136 48:25 49:141 50:834 51:52 52:37 53:105 54:45 55:237 56:8 57:215 58:68 59:110 60:18 61:54 62:7 63:109 64:7 65:178 66:954 67:68 68:11 69:109 70:2 71:171 72:0 73:182 74:7 75:102 76:15 77:88 78:15 79:126 80:20 
21.98170770793835 1:185 2:29 3:99 4:64 5:82 6:64 7:168 8:24 9:153 10:820 11:76 12:20 13:71 14:1 15:190 16:2 17:98 18:426 19:77 20:325 21:94 22:80 23:146 24:3 25:165 26:130 27:157 28:10 29:173 30:23 31:113 32:27 33:86 34:199 35:70 36:374 37:85 38:268 39:235 40:1 41:255 42:143 43:117 44:16 45:83 46:9 47:93 48:14 49:61 50:150 51:34 52:548 53:51 54:217 55:159 56:0 57:283 58:97 59:269 60:7 61:112 62:2 63:56 64:3 65:90 66:503 67:57 68:117 69:66 70:94 71:150 72:23 73:226 74:232 75:284 76:41 77:70 78:7 79:82 80:7 
11.50603070673452 1:88 2:857 3:50 4:29 5:125 6:9 7:147 8:22 9:196 10:107 11:160 12:0 13:97 14:0 15:161 16:0 17:163 18:371 19:65 20:27 21:96 22:42 23:215 24:41 25:199 26:521 27:77 28:18 29:57 30:4 31:152 32:1 33:121 34:508 35:67 36:35 37:126 38:17 39:187 40:4 41:210 42:447 43:112 44:9 45:63 46:3 47:139 48:1 49:99 50:490 51:57 52:29 53:140 54:14 55:192 56:7 57:247 58:478 59:110 60:4 61:58 62:1 63:121 64:1 65:206 66:835 67:49 68:40 69:68 70:12 71:156 72:1 73:192 74:113 75:100 76:15 77:81 78:2 79:171 80:6 
21.56068947809542 1:233 2:0 3:35 4:5 5:33 6:12 7:226 8:3 9:152 10:1003 11:60 12:0 13:39 14:0 15:245 16:0 17:167 18:0 19:93 20:57 21:122 22:26 23:157 24:8 25:110 26:930 27:76 28:3 29:88 30:0 31:210 32:0 33:203 34:61 35:87 36:39 37:78 38:53 39:134 40:26 41:136 42:734 43:78 44:4 45:81 46:1 47:226 48:106 49:103 50:71 51:74 52:54 53:84 54:235 55:210 56:111 57:233 58:512 59:117 60:21 61:98 62:5 63:105 64:14 65:152 66:135 67:59 68:3 69:87 70:366 71:167 72:9 73:239 74:339 75:126 76:151 77:67 78:5 79:127 80:18 
4.347014579370939 1:67 2:3 3:83 4:93 5:163 6:169 7:364 8:5 9:144 10:753 11:60 12:0 13:65 14:0 15:77 16:1 17:139 18:64 19:56 20:191 21:95 22:15 23:186 24:5 25:164 26:734 27:46 28:15 29:85 30:0 31:252 32:0 33:141 34:74 35:53 36:60 37:77 38:82 39:190 40:45 41:149 42:730 43:91 44:24 45:106 46:1 47:215 48:9 49:181 50:175 51:78 52:40 53:118 54:46 55:156 56:3 57:132 58:731 59:78 60:24 61:97 62:2 63:182 64:2 65:191 66:413 67:59 68:42 69:101 70:25 71:178 72:5 73:102 74:409 75:75 76:21 77:69 78:4 79:250 80:104 
6.673802833359003 1:145 2:880 3:88 4:21 5:97 6:37 7:124 8:36 9:234 10:44 11:79 12:4 13:79 14:1 15:177 16:1 17:230 18:500 19:88 20:45 21:90 22:15 23:72 24:6 25:56 26:422 27:56 28:25 29:185 30:7 31:248 32:4 33:126 34:689 35:127 36:157 37:139 38:90 39:223 40:3 41:159 42:59 43:76 44:13 45:64 46:6 47:109 48:7 49:85 50:638 51:101 52:44 53:168 54:16 55:295 56:3 57:146 58:260 59:74 60:36 61:64 62:10 63:91 64:17 65:134 66:411 67:56 68:39 69:105 70:37 71:211 72:9 73:155 74:449 75:59 76:33 77:54 78:19 79:251 80:26 
8.000863637166132 1:87 2:480 3:179 4:0 5:200 6:1 7:92 8:0 9:89 10:339 11:87 12:123 13:234 14:54 15:54 16:27 17:225 18:485 19:82 20:2 21:138 22:0 23:146 24:0 25:125 26:535 27:62 28:1 29:77 30:0 31:171 32:0 33:236 34:283 35:66 36:9 37:54 38:32 39:67 40:3 41:47 42:485 43:71 44:84 45:110 46:31 47:373 48:97 49:231 50:357 51:96 52:187 53:70 54:212 55:134 56:16 57:120 58:177 59:78 60:49 61:97 62:14 63:197 64:13 65:117 66:49 67:95 68:104 69:152 70:212 71:241 72:9 73:179 74:534 75:78 76:96 77:60 78:10 79:102 80:10 
10.02052341864561 1:81 2:481 3:154 4:1 5:271 6:0 7:202 8:0 9:115 10:387 11:59 12:115 13:52 14:29 15:89 16:10 17:282 18:498 19:91 20:81 21:60 22:147 23:109 24:15 25:110 26:232 27:68 28:24 29:83 30:12 31:222 32:14 33:126 34:99 35:79 36:346 37:138 38:443 39:227 40:5 41:176 42:93 43:93 44:25 45:73 46:7 47:112 48:6 49:118 50:161 51:76 52:115 53:131 54:171 55:195 56:9 57:177 58:435 59:114 60:89 61:101 62:15 63:111 64:28 65:175 66:175 67:64 68:136 69:91 70:98 71:244 72:16 73:180 74:468 75:61 76:66 77:62 78:27 79:147 80:38 
7.276051615222491 1:483 2:907 3:46 4:22 5:74 6:9 7:65 8:0 9:84 10:45 11:44 12:28 13:42 14:8 15:186 16:5 17:89 18:75 19:81 20:138 21:106 22:744 23:140 24:16 25:203 26:28 27:188 28:18 29:132 30:5 31:86 32:2 33:149 34:498 35:84 36:140 37:254 38:200 39:155 40:18 41:86 42:81 43:68 44:36 45:81 46:36 47:147 48:16 49:91 50:165 51:91 52:59 53:298 54:156 55:252 56:264 57:110 58:244 59:61 60:56 61:54 62:23 63:67 64:58 65:201 66:62 67:89 68:86 69:97 70:551 71:111 72:2 73:123 74:114 75:110 76:54 77:98 78:68 79:194 80:87 
8.151631594057701 1:88 2:534 3:117 4:215 5:112 6:65 7:97 8:0 9:110 10:143 11:83 12:52 13:244 14:6 15:174 16:9 17:107 18:776 19:118 20:192 21:223 22:18 23:171 24:0 25:160 26:14 27:104 28:14 29:89 30:2 31:52 32:8 33:130 34:533 35:115 36:308 37:158 38:162 39:166 40:0 41:141 42:8 43:115 44:3 45:98 46:2 47:102 48:8 49:212 50:279 51:102 52:80 53:85 54:48 55:106 56:0 57:129 58:521 59:107 60:33 61:125 62:5 63:159 64:57 65:216 66:772 67:60 68:3 69:49 70:0 71:184 72:0 73:215 74:7 75:87 76:6 77:47 78:3 79:167 80:232 
16.53670196898401 1:218 2:843 3:22 4:28 5:36 6:3 7:28 8:0 9:35 10:96 11:68 12:50 13:285 14:3 15:333 16:3 17:85 18:843 19:65 20:102 21:148 22:66 23:186 24:1 25:122 26:7 27:127 28:3 29:163 30:1 31:128 32:1 33:97 34:494 35:89 36:120 37:108 38:382 39:118 40:0 41:188 42:19 43:147 44:3 45:148 46:4 47:129 48:1 49:66 50:856 51:62 52:25 53:127 54:18 55:181 56:0 57:205 58:94 59:193 60:26 61:114 62:4 63:76 64:2 65:113 66:857 67:54 68:1 69:147 70:0 71:156 72:0 73:198 74:139 75:186 76:19 77:73 78:4 79:98 80:3 
31.50713480470427 1:148 2:6 3:115 4:561 5:78 6:114 7:187 8:18 9:222 10:326 11:79 12:0 13:81 14:0 15:114 16:0 17:125 18:476 19:62 20:136 21:115 22:59 23:217 24:28 25:189 26:133 27:70 28:5 29:97 30:0 31:150 32:186 33:197 34:480 35:69 36:128 37:96 38:81 39:207 40:29 41:141 42:36 43:54 44:0 45:92 46:0 47:169 48:268 49:156 50:424 51:63 52:193 53:97 54:35 55:225 56:20 57:152 58:157 59:70 60:1 61:67 62:4 63:195 64:190 65:138 66:611 67:84 68:28 69:118 70:25 71:199 72:15 73:189 74:303 75:92 76:19 77:74 78:4 79:130 80:18 
10.3951891433147 1:264 2:484 3:97 4:213 5:83 6:60 7:78 8:0 9:61 10:0 11:66 12:0 13:98 14:1 15:278 16:266 17:102 18:225 19:104 20:425 21:134 22:225 23:177 24:4 25:152 26:118 27:135 28:0 29:112 30:0 31:108 32:27 33:114 34:628 35:112 36:108 37:122 38:7 39:175 40:2 41:173 42:216 43:123 44:12 45:98 46:3 47:107 48:47 49:141 50:728 51:123 52:15 53:126 54:8 55:136 56:4 57:185 58:76 59:100 60:7 61:101 62:4 63:111 64:184 65:176 66:271 67:132 68:25 69:90 70:4 71:139 72:1 73:176 74:111 75:97 76:12 77:94 78:5 79:119 80:595 
2.417512030267617 1:81 2:383 3:99 4:138 5:171 6:36 7:141 8:2 9:152 10:219 11:94 12:118 13:112 14:15 15:174 16:115 17:116 18:494 19:36 20:38 21:48 22:2 23:79 24:2 25:100 26:393 27:48 28:72 29:88 30:15 31:508 32:6 33:101 34:444 35:87 36:4 37:127 38:1 39:190 40:1 41:158 42:515 43:104 44:16 45:110 46:8 47:148 48:36 49:173 50:178 51:111 52:7 53:99 54:8 55:102 56:1 57:107 58:551 59:101 60:27 61:105 62:8 63:225 64:244 65:178 66:102 67:44 68:1 69:72 70:0 71:159 72:0 73:208 74:13 75:150 76:7 77:65 78:8 79:148 80:894 
6.814007636869116 1:234 2:785 3:51 4:100 5:75 6:11 7:71 8:0 9:136 10:107 11:84 12:10 13:162 14:5 15:212 16:6 17:86 18:250 19:65 20:178 21:234 22:40 23:318 24:150 25:99 26:335 27:49 28:54 29:46 30:14 31:127 32:4 33:97 34:229 35:89 36:115 37:243 38:402 39:264 40:86 41:118 42:181 43:60 44:7 45:58 46:1 47:94 48:4 49:191 50:142 51:111 52:14 53:87 54:68 55:90 56:2 57:84 58:749 59:88 60:17 61:127 62:15 63:246 64:18 65:172 66:324 67:140 68:3 69:104 70:1 71:110 72:1 73:95 74:581 75:95 76:28 77:127 78:22 79:182 80:64 
0.01153935589449689 1:78 2:535 3:76 4:121 5:107 6:22 7:56 8:3 9:91 10:304 11:105 12:19 13:160 14:12 15:352 16:7 17:130 18:277 19:21 20:57 21:28 22:18 23:32 24:10 25:35 26:572 27:29 28:58 29:86 30:23 31:662 32:10 33:262 34:805 35:62 36:22 37:98 38:101 39:202 40:3 41:110 42:88 43:49 44:1 45:112 46:1 47:130 48:3 49:194 50:341 51:121 52:15 53:64 54:232 55:63 56:11 57:130 58:262 59:100 60:40 61:140 62:22 63:212 64:102 65:219 66:269 67:58 68:11 69:71 70:2 71:174 72:0 73:173 74:157 75:91 76:15 77:72 78:21 79:166 80:549 
1.662822127181029 1:127 2:989 3:133 4:6 5:96 6:0 7:295 8:0 9:105 10:6 11:64 12:7 13:69 14:9 15:136 16:8 17:134 18:708 19:115 20:98 21:126 22:76 23:201 24:9 25:125 26:98 27:86 28:9 29:97 30:7 31:141 32:20 33:92 34:342 35:72 36:24 37:158 38:12 39:362 40:11 41:170 42:330 43:52 44:243 45:47 46:31 47:71 48:31 49:207 50:296 51:116 52:7 53:101 54:8 55:123 56:1 57:114 58:591 59:94 60:55 61:93 62:31 63:176 64:34 65:280 66:243 67:80 68:11 69:75 70:10 71:86 72:0 73:84 74:485 75:68 76:140 77:97 78:87 79:253 80:48 
0.2751212295610001 1:60 2:546 3:33 4:34 5:182 6:15 7:246 8:0 9:204 10:53 11:166 12:299 13:91 14:58 15:41 16:19 17:174 18:163 19:127 20:18 21:91 22:61 23:110 24:59 25:147 26:697 27:122 28:12 29:109 30:5 31:143 32:10 33:152 34:345 35:101 36:27 37:119 38:3 39:131 40:10 41:273 42:360 43:88 44:212 45:71 46:21 47:90 48:45 49:113 50:131 51:88 52:8 53:94 54:0 55:167 56:2 57:253 58:463 59:109 60:371 61:96 62:29 63:104 64:20 65:97 66:245 67:56 68:31 69:92 70:373 71:130 72:239 73:167 74:81 75:187 76:24 77:157 78:7 79:139 80:24 
13.45653930116386 1:327 2:1010 3:52 4:10 5:55 6:3 7:27 8:0 9:50 10:0 11:63 12:0 13:71 14:0 15:379 16:1 17:302 18:1020 19:39 20:4 21:33 22:0 23:46 24:0 25:49 26:0 27:36 28:0 29:82 30:0 31:437 32:0 33:315 34:972 35:74 36:48 37:67 38:1 39:60 40:0 41:61 42:0 43:41 44:1 45:54 46:0 47:353 48:1 49:112 50:780 51:85 52:50 53:105 54:15 55:136 56:4 57:129 58:56 59:104 60:7 61:185 62:8 63:168 64:104 65:171 66:801 67:65 68:71 69:83 70:8 71:224 72:0 73:239 74:63 75:83 76:2 77:69 78:6 79:91 80:75 
11.13809422742532 1:281 2:905 3:87 4:42 5:57 6:8 7:31 8:0 9:53 10:53 11:43 12:1 13:171 14:6 15:302 16:10 17:105 18:977 19:40 20:47 21:95 22:0 23:240 24:0 25:169 26:0 27:85 28:0 29:109 30:0 31:181 32:0 33:85 34:969 35:81 36:21 37:124 38:1 39:167 40:1 41:180 42:1 43:145 44:0 45:129 46:0 47:114 48:32 49:60 50:872 51:81 52:37 53:206 54:2 55:273 56:1 57:183 58:20 59:99 60:4 61:70 62:5 63:51 64:84 65:143 66:840 67:77 68:1 69:162 70:1 71:216 72:0 73:155 74:11 75:83 76:9 77:62 78:8 79:126 80:154 
0.3601510067073686 1:128 2:774 3:44 4:13 5:102 6:4 7:312 8:0 9:137 10:3 11:44 12:38 13:46 14:96 15:211 16:96 17:105 18:903 19:76 20:101 21:144 22:11 23:226 24:1 25:116 26:2 27:65 28:0 29:74 30:0 31:218 32:4 33:88 34:1011 35:93 36:7 37:192 38:2 39:187 40:0 41:152 42:3 43:97 44:0 45:100 46:0 47:114 48:1 49:172 50:896 51:117 52:3 53:164 54:1 55:168 56:0 57:134 58:1 59:62 60:2 61:56 62:4 63:150 64:118 65:217 66:918 67:85 68:2 69:101 70:1 71:139 72:1 73:133 74:3 75:75 76:6 77:89 78:6 79:186 80:88 
9.675907242687883 1:190 2:527 3:54 4:195 5:109 6:157 7:166 8:6 9:214 10:88 11:120 12:25 13:69 14:7 15:103 16:19 17:118 18:785 19:53 20:185 21:104 22:47 23:271 24:4 25:233 26:1 27:92 28:0 29:77 30:0 31:76 32:3 33:176 34:327 35:101 36:142 37:139 38:164 39:183 40:134 41:150 42:31 43:88 44:0 45:59 46:0 47:129 48:227 49:360 50:233 51:86 52:130 53:74 54:94 55:69 56:62 57:54 58:196 59:55 60:158 61:79 62:62 63:247 64:90 65:209 66:457 67:42 68:165 69:99 70:38 71:204 72:0 73:188 74:6 75:46 76:5 77:35 78:37 79:201 80:316 
3.800544899363717 1:328 2:934 3:48 4:2 5:59 6:0 7:74 8:0 9:86 10:1 11:92 12:9 13:96 14:24 15:241 16:54 17:187 18:984 19:86 20:12 21:92 22:1 23:140 24:0 25:128 26:0 27:61 28:0 29:61 30:1 31:270 32:26 33:173 34:462 35:148 36:168 37:113 38:142 39:150 40:159 41:159 42:90 43:43 44:1 45:54 46:1 47:184 48:0 49:124 50:46 51:93 52:421 53:101 54:504 55:192 56:50 57:241 58:2 59:89 60:0 61:64 62:0 63:119 64:1 65:136 66:890 67:66 68:123 69:83 70:7 71:243 72:0 73:219 74:0 75:78 76:0 77:77 78:0 79:121 80:4 
5.441540761250942 1:162 2:0 3:96 4:1 5:106 6:1 7:184 8:0 9:158 10:644 11:73 12:181 13:82 14:91 15:164 16:106 17:131 18:25 19:104 20:1 21:194 22:1 23:204 24:6 25:132 26:622 27:55 28:116 29:59 30:93 31:144 32:160 33:181 34:180 35:110 36:71 37:116 38:1 39:163 40:0 41:157 42:364 43:72 44:184 45:73 46:65 47:152 48:159 49:141 50:385 51:142 52:9 53:144 54:1 55:130 56:1 57:109 58:323 59:92 60:150 61:105 62:83 63:162 64:71 65:139 66:891 67:171 68:49 69:123 70:1 71:89 72:0 73:72 74:33 75:87 76:5 77:145 78:5 79:197 80:40 
2.661496313666415 1:131 2:536 3:97 4:33 5:87 6:2 7:211 8:0 9:157 10:34 11:113 12:34 13:106 14:68 15:120 16:316 17:113 18:811 19:95 20:148 21:129 22:25 23:170 24:5 25:170 26:3 27:120 28:0 29:111 30:0 31:117 32:32 33:149 34:729 35:109 36:155 37:142 38:9 39:195 40:4 41:124 42:10 43:92 44:12 45:96 46:11 47:118 48:95 49:122 50:629 51:87 52:7 53:98 54:4 55:143 56:1 57:137 58:211 59:126 60:57 61:156 62:28 63:154 64:87 65:99 66:910 67:76 68:64 69:87 70:0 71:268 72:0 73:207 74:1 75:126 76:21 77:81 78:6 79:80 80:22 
1.692130585087301 1:97 2:744 3:98 4:129 5:201 6:7 7:199 8:1 9:170 10:16 11:90 12:13 13:67 14:8 15:100 16:105 17:120 18:235 19:89 20:29 21:91 22:14 23:146 24:4 25:166 26:507 27:98 28:109 29:144 30:36 31:170 32:91 33:192 34:227 35:88 36:6 37:81 38:7 39:124 40:1 41:127 42:691 43:91 44:64 45:102 46:19 47:218 48:10 49:132 50:153 51:87 52:7 53:103 54:2 55:179 56:5 57:203 58:734 59:113 60:83 61:79 62:18 63:130 64:22 65:130 66:155 67:84 68:4 69:93 70:2 71:164 72:8 73:203 74:559 75:148 76:113 77:88 78:86 79:114 80:98 
10.30725678625735 1:53 2:133 3:89 4:14 5:118 6:14 7:245 8:49 9:320 10:679 11:103 12:72 13:59 14:25 15:39 16:38 17:153 18:350 19:83 20:564 21:109 22:101 23:121 24:2 25:178 26:4 27:106 28:0 29:87 30:0 31:188 32:2 33:90 34:276 35:94 36:483 37:120 38:102 39:238 40:6 41:211 42:38 43:120 44:7 45:67 46:12 47:85 48:101 49:88 50:220 51:94 52:204 53:119 54:129 55:215 56:31 57:214 58:153 59:124 60:144 61:89 62:40 63:81 64:103 65:94 66:162 67:82 68:68 69:124 70:62 71:261 72:15 73:234 74:495 75:88 76:109 77:65 78:62 79:77 80:50 
0.6063648231349484 1:76 2:168 3:57 4:284 5:181 6:191 7:181 8:8 9:274 10:246 11:143 12:9 13:44 14:24 15:69 16:94 17:101 18:351 19:84 20:135 21:123 22:67 23:173 24:97 25:178 26:142 27:143 28:29 29:103 30:11 31:119 32:193 33:165 34:242 35:118 36:240 37:109 38:100 39:137 40:223 41:137 42:147 43:94 44:36 45:113 46:4 47:152 48:30 49:194 50:541 51:133 52:141 53:102 54:19 55:121 56:70 57:101 58:102 59:86 60:29 61:112 62:14 63:174 64:107 65:183 66:368 67:94 68:64 69:93 70:29 71:138 72:2 73:133 74:116 75:95 76:133 77:116 78:79 79:172 80:234 
4.289914854955709 1:161 2:578 3:76 4:309 5:81 6:38 7:224 8:28 9:243 10:45 11:53 12:1 13:62 14:2 15:124 16:23 17:246 18:310 19:166 20:487 21:159 22:179 23:79 24:31 25:66 26:13 27:71 28:0 29:70 30:1 31:167 32:3 33:264 34:131 35:257 36:323 37:84 38:379 39:93 40:47 41:94 42:117 43:55 44:13 45:67 46:3 47:110 48:11 49:153 50:423 51:90 52:141 53:78 54:82 55:128 56:60 57:158 58:251 59:126 60:14 61:120 62:13 63:171 64:40 65:129 66:770 67:168 68:64 69:128 70:25 71:129 72:8 73:144 74:41 75:130 76:9 77:105 78:13 79:92 80:94 
10.95928669015293 1:69 2:0 3:38 4:0 5:68 6:16 7:224 8:50 9:464 10:957 11:50 12:0 13:36 14:0 15:74 16:0 17:109 18:301 19:45 20:340 21:64 22:78 23:254 24:28 25:226 26:187 27:54 28:0 29:77 30:1 31:194 32:89 33:129 34:479 35:62 36:193 37:75 38:24 39:244 40:2 41:246 42:229 43:70 44:25 45:90 46:2 47:108 48:70 49:112 50:634 51:46 52:40 53:75 54:2 55:296 56:1 57:271 58:233 59:64 60:11 61:57 62:4 63:103 64:100 65:228 66:511 67:66 68:70 69:87 70:33 71:181 72:58 73:199 74:325 75:84 76:12 77:47 78:7 79:132 80:8 
6.95661089042306 1:58 2:38 3:22 4:467 5:41 6:115 7:93 8:3 9:82 10:401 11:266 12:0 13:343 14:0 15:120 16:0 17:185 18:245 19:56 20:103 21:85 22:37 23:212 24:10 25:194 26:418 27:81 28:44 29:61 30:44 31:149 32:122 33:245 34:122 35:52 36:119 37:76 38:23 39:188 40:2 41:190 42:245 43:75 44:392 45:53 46:42 47:146 48:79 49:114 50:259 51:57 52:43 53:86 54:2 55:258 56:0 57:294 58:316 59:66 60:175 61:64 62:31 63:85 64:197 65:154 66:106 67:49 68:71 69:66 70:11 71:242 72:0 73:257 74:295 75:70 76:315 77:72 78:142 79:115 80:85 
17.74377804312586 1:122 2:16 3:118 4:679 5:126 6:184 7:85 8:14 9:251 10:120 11:120 12:7 13:144 14:2 15:58 16:1 17:73 18:150 19:79 20:177 21:105 22:97 23:225 24:59 25:267 26:539 27:108 28:0 29:79 30:0 31:87 32:2 33:99 34:358 35:75 36:177 37:96 38:40 39:227 40:35 41:209 42:411 43:130 44:0 45:87 46:0 47:101 48:3 49:60 50:446 51:48 52:198 53:140 54:69 55:310 56:59 57:291 58:251 59:66 60:0 61:51 62:0 63:58 64:0 65:63 66:389 67:45 68:280 69:131 70:142 71:346 72:69 73:272 74:141 75:70 76:1 77:47 78:0 79:50 80:2 
19.48690398390244 1:129 2:93 3:56 4:285 5:66 6:57 7:32 8:3 9:32 10:567 11:34 12:11 13:254 14:3 15:420 16:6 17:84 18:63 19:263 20:278 21:200 22:390 23:151 24:37 25:108 26:239 27:83 28:8 29:71 30:4 31:65 32:5 33:84 34:27 35:177 36:297 37:110 38:177 39:78 40:13 41:98 42:490 43:72 44:9 45:200 46:4 47:206 48:6 49:161 50:387 51:72 52:149 53:87 54:53 55:169 56:6 57:170 58:373 59:74 60:23 61:85 62:20 63:206 64:13 65:134 66:276 67:122 68:150 69:241 70:105 71:119 72:3 73:121 74:443 75:111 76:24 77:75 78:7 79:103 80:16 
9.239759985267829 1:169 2:268 3:91 4:364 5:75 6:27 7:30 8:6 9:40 10:350 11:66 12:3 13:256 14:3 15:298 16:4 17:57 18:45 19:86 20:332 21:329 22:234 23:195 24:140 25:139 26:267 27:77 28:1 29:73 30:1 31:69 32:4 33:95 34:105 35:229 36:270 37:209 38:56 39:165 40:39 41:115 42:532 43:81 44:10 45:65 46:6 47:66 48:5 49:121 50:26 51:176 52:202 53:112 54:48 55:133 56:4 57:122 58:705 59:74 60:26 61:149 62:7 63:137 64:6 65:195 66:384 67:81 68:218 69:70 70:44 71:151 72:2 73:172 74:328 75:67 76:17 77:70 78:18 79:218 80:13 
18.2896357067949 1:96 2:337 3:75 4:686 5:115 6:0 7:239 8:0 9:230 10:0 11:109 12:0 13:68 14:0 15:92 16:0 17:74 18:108 19:69 20:853 21:136 22:49 23:245 24:7 25:235 26:5 27:81 28:0 29:71 30:0 31:111 32:1 33:95 34:60 35:96 36:803 37:99 38:119 39:263 40:12 41:232 42:29 43:60 44:0 45:62 46:0 47:117 48:0 49:132 50:141 51:86 52:598 53:96 54:49 55:248 56:11 57:198 58:192 59:75 60:26 61:62 62:3 63:127 64:3 65:92 66:336 67:62 68:459 69:89 70:35 71:217 72:7 73:250 74:116 75:95 76:58 77:114 78:6 79:106 80:6 
2.147240677902337 1:103 2:372 3:66 4:348 5:100 6:28 7:160 8:20 9:245 10:250 11:148 12:5 13:106 14:1 15:96 16:1 17:84 18:129 19:68 20:431 21:150 22:22 23:271 24:4 25:212 26:400 27:87 28:34 29:64 30:1 31:87 32:2 33:72 34:124 35:93 36:278 37:195 38:13 39:200 40:2 41:206 42:486 43:107 44:104 45:73 46:14 47:78 48:3 49:120 50:324 51:112 52:148 53:138 54:6 55:162 56:2 57:218 58:539 59:107 60:2 61:63 62:1 63:102 64:2 65:136 66:398 67:124 68:100 69:130 70:6 71:161 72:1 73:207 74:503 75:106 76:13 77:73 78:2 79:88 80:1 
22.18587431435041 1:210 2:797 3:46 4:35 5:31 6:183 7:179 8:8 9:187 10:2 11:38 12:0 13:68 14:0 15:265 16:0 17:225 18:779 19:80 20:81 21:98 22:31 23:92 24:42 25:109 26:48 27:148 28:1 29:79 30:0 31:193 32:43 33:142 34:781 35:84 36:36 37:103 38:24 39:121 40:19 41:141 42:116 43:113 44:14 45:134 46:10 47:186 48:23 49:99 50:271 51:58 52:95 53:89 54:104 55:231 56:41 57:259 58:387 59:108 60:96 61:91 62:10 63:89 64:19 65:151 66:348 67:78 68:126 69:101 70:180 71:196 72:40 73:184 74:322 75:91 76:3 77:90 78:3 79:133 80:1 
2.110012667658431 1:84 2:753 3:81 4:201 5:290 6:35 7:305 8:31 9:78 10:4 11:45 12:0 13:66 14:0 15:76 16:0 17:153 18:605 19:75 20:143 21:117 22:8 23:199 24:7 25:177 26:258 27:84 28:0 29:81 30:1 31:137 32:1 33:131 34:848 35:65 36:3 37:132 38:0 39:210 40:16 41:199 42:128 43:92 44:12 45:92 46:5 47:103 48:13 49:140 50:942 51:42 52:0 53:99 54:6 55:217 56:17 57:246 58:23 59:107 60:12 61:58 62:12 63:114 64:12 65:169 66:975 67:64 68:6 69:87 70:6 71:188 72:17 73:213 74:10 75:91 76:1 77:85 78:5 79:127 80:4 
3.499710920010833 1:45 2:85 3:46 4:578 5:68 6:276 7:99 8:11 9:175 10:70 11:324 12:3 13:191 14:0 15:77 16:0 17:154 18:70 19:66 20:75 21:86 22:169 23:187 24:78 25:187 26:321 27:112 28:6 29:66 30:4 31:166 32:300 33:191 34:53 35:79 36:277 37:118 38:117 39:108 40:63 41:113 42:368 43:93 44:9 45:75 46:4 47:246 48:133 49:114 50:182 51:109 52:107 53:140 54:75 55:94 56:81 57:108 58:435 59:179 60:18 61:154 62:12 63:127 64:115 65:141 66:117 67:109 68:223 69:136 70:264 71:121 72:120 73:121 74:258 75:119 76:23 77:155 78:4 79:122 80:15 
32 1:80 2:85 3:59 4:170 5:72 6:191 7:164 8:15 9:139 10:434 11:220 12:20 13:132 14:16 15:159 16:94 17:197 18:65 19:73 20:240 21:94 22:347 23:154 24:63 25:193 26:175 27:100 28:2 29:65 30:1 31:148 32:131 33:193 34:57 35:84 36:226 37:133 38:184 39:120 40:52 41:129 42:347 43:150 44:17 45:79 46:7 47:138 48:134 49:132 50:27 51:84 52:189 53:110 54:229 55:126 56:146 57:134 58:375 59:179 60:20 61:140 62:4 63:119 64:34 65:99 66:47 67:137 68:434 69:176 70:265 71:170 72:204 73:114 74:49 75:99 76:1 77:125 78:2 79:104 80:22 
2.040823133906064 1:116 2:19 3:102 4:291 5:130 6:456 7:115 8:237 9:134 10:22 11:97 12:0 13:202 14:0 15:129 16:0 17:116 18:113 19:79 20:27 21:94 22:43 23:117 24:66 25:125 26:620 27:105 28:5 29:235 30:4 31:153 32:147 33:104 34:117 35:87 36:14 37:110 38:43 39:185 40:40 41:213 42:519 43:120 44:24 45:107 46:10 47:98 48:257 49:105 50:210 51:79 52:59 53:173 54:36 55:165 56:64 57:145 58:460 59:157 60:44 61:103 62:16 63:97 64:135 65:114 66:803 67:81 68:70 69:193 70:23 71:150 72:15 73:133 74:46 75:148 76:9 77:92 78:10 79:113 80:48 
2.202066681779691 1:135 2:144 3:115 4:9 5:111 6:5 7:341 8:4 9:131 10:7 11:32 12:1 13:48 14:1 15:111 16:853 17:90 18:368 19:73 20:64 21:157 22:35 23:217 24:24 25:173 26:187 27:137 28:1 29:69 30:5 31:109 32:339 33:92 34:295 35:69 36:34 37:126 38:14 39:178 40:15 41:212 42:414 43:170 44:13 45:73 46:13 47:104 48:226 49:125 50:39 51:101 52:56 53:116 54:25 55:182 56:59 57:175 58:780 59:103 60:28 61:102 62:14 63:120 64:24 65:140 66:486 67:143 68:159 69:122 70:29 71:79 72:63 73:78 74:250 75:79 76:1 77:211 78:2 79:172 80:34 
6.808628355657283 1:203 2:856 3:193 4:56 5:200 6:42 7:131 8:1 9:94 10:32 11:49 12:33 13:50 14:2 15:104 16:2 17:163 18:334 19:79 20:203 21:77 22:331 23:184 24:19 25:207 26:116 27:88 28:6 29:93 30:5 31:133 32:9 33:153 34:160 35:67 36:47 37:86 38:141 39:141 40:50 41:162 42:510 43:99 44:51 45:116 46:23 47:200 48:43 49:183 50:388 51:129 52:92 53:145 54:196 55:102 56:137 57:94 58:193 59:90 60:12 61:114 62:1 63:167 64:5 65:183 66:836 67:99 68:125 69:88 70:30 71:99 72:4 73:110 74:10 75:107 76:2 77:137 78:3 79:202 80:13 
32 1:136 2:51 3:53 4:165 5:86 6:108 7:117 8:60 9:152 10:613 11:90 12:15 13:190 14:4 15:200 16:7 17:168 18:385 19:104 20:293 21:82 22:36 23:133 24:15 25:137 26:258 27:99 28:15 29:121 30:19 31:181 32:4 33:158 34:363 35:90 36:105 37:93 38:7 39:146 40:4 41:163 42:508 43:92 44:20 45:119 46:6 47:164 48:9 49:110 50:219 51:104 52:56 53:126 54:37 55:169 56:17 57:199 58:556 59:99 60:63 61:105 62:25 63:113 64:51 65:125 66:74 67:66 68:115 69:86 70:307 71:176 72:12 73:169 74:430 75:88 76:52 77:127 78:15 79:186 80:19 
19.86327450598553 1:121 2:509 3:48 4:379 5:78 6:5 7:135 8:2 9:117 10:52 11:128 12:50 13:120 14:22 15:277 16:6 17:101 18:817 19:56 20:195 21:181 22:0 23:187 24:0 25:135 26:0 27:67 28:0 29:87 30:0 31:209 32:11 33:161 34:968 35:92 36:38 37:90 38:3 39:79 40:0 41:87 42:4 43:64 44:0 45:76 46:1 47:376 48:10 49:127 50:603 51:142 52:1 53:155 54:0 55:123 56:0 57:111 58:0 59:120 60:2 61:111 62:2 63:135 64:417 65:147 66:728 67:87 68:3 69:153 70:2 71:126 72:0 73:147 74:1 75:103 76:8 77:105 78:21 79:156 80:261 
16.10970485219135 1:185 2:88 3:77 4:531 5:102 6:103 7:118 8:112 9:67 10:181 11:67 12:9 13:92 14:0 15:316 16:0 17:194 18:16 19:89 20:260 21:105 22:325 23:182 24:159 25:75 26:265 27:33 28:0 29:79 30:0 31:267 32:0 33:65 34:9 35:43 36:167 37:92 38:393 39:407 40:108 41:202 42:347 43:62 44:0 45:31 46:0 47:122 48:0 49:72 50:11 51:49 52:382 53:135 54:554 55:396 56:57 57:197 58:16 59:68 60:1 61:58 62:1 63:48 64:1 65:90 66:310 67:67 68:271 69:115 70:89 71:265 72:6 73:195 74:228 75:146 76:22 77:64 78:22 79:81 80:77 
0.5859038457250606 1:152 2:1005 3:49 4:10 5:78 6:0 7:248 8:0 9:86 10:0 11:62 12:0 13:88 14:7 15:259 16:2 17:104 18:894 19:99 20:0 21:269 22:0 23:255 24:0 25:72 26:0 27:41 28:14 29:68 30:103 31:116 32:13 33:110 34:1020 35:85 36:1 37:221 38:0 39:89 40:0 41:81 42:0 43:30 44:0 45:93 46:0 47:314 48:3 49:224 50:705 51:82 52:17 53:48 54:1 55:70 56:0 57:57 58:53 59:26 60:229 61:41 62:17 63:476 64:4 65:153 66:753 67:12 68:22 69:18 70:0 71:70 72:0 73:211 74:0 75:25 76:147 77:23 78:93 79:511 80:8 
1.497619135217989 1:180 2:1019 3:71 4:0 5:63 6:0 7:166 8:0 9:134 10:0 11:44 12:0 13:28 14:0 15:340 16:4 17:87 18:657 19:68 20:100 21:114 22:0 23:360 24:0 25:136 26:0 27:45 28:0 29:53 30:0 31:160 32:267 33:73 34:919 35:39 36:101 37:59 38:0 39:177 40:0 41:82 42:0 43:36 44:0 45:55 46:0 47:504 48:3 49:214 50:1023 51:74 52:0 53:70 54:0 55:167 56:1 57:108 58:0 59:45 60:0 61:62 62:0 63:286 64:0 65:177 66:1003 67:63 68:0 69:62 70:0 71:94 72:0 73:178 74:19 75:137 76:1 77:82 78:0 79:230 80:0 
4.910370754059612 1:308 2:723 3:63 4:115 5:69 6:34 7:99 8:40 9:180 10:112 11:77 12:0 13:69 14:0 15:159 16:0 17:116 18:975 19:61 20:40 21:87 22:5 23:257 24:4 25:231 26:0 27:43 28:0 29:83 30:0 31:147 32:0 33:310 34:919 35:44 36:37 37:46 38:9 39:109 40:3 41:115 42:37 43:40 44:6 45:58 46:4 47:302 48:8 49:386 50:793 51:35 52:56 53:28 54:13 55:89 56:3 57:57 58:79 59:120 60:9 61:87 62:43 63:222 64:28 65:277 66:781 67:71 68:13 69:62 70:8 71:167 72:1 73:98 74:25 75:104 76:18 77:63 78:112 79:183 80:66 
13.31313900652006 1:109 2:178 3:113 4:749 5:144 6:97 7:149 8:0 9:150 10:0 11:100 12:0 13:177 14:0 15:81 16:1 17:99 18:636 19:76 20:117 21:107 22:104 23:125 24:13 25:168 26:85 27:226 28:17 29:119 30:6 31:103 32:47 33:99 34:689 35:87 36:263 37:116 38:33 39:165 40:2 41:153 42:21 43:174 44:7 45:118 46:4 47:112 48:5 49:108 50:696 51:105 52:207 53:108 54:20 55:201 56:4 57:169 58:56 59:97 60:9 61:124 62:5 63:113 64:26 65:149 66:636 67:175 68:151 69:162 70:26 71:108 72:3 73:114 74:128 75:100 76:16 77:96 78:10 79:120 80:53 
1.283258475447196 1:32 2:194 3:33 4:82 5:212 6:4 7:357 8:0 9:274 10:497 11:53 12:171 13:33 14:46 15:30 16:29 17:92 18:331 19:68 20:107 21:111 22:52 23:186 24:340 25:164 26:38 27:154 28:84 29:149 30:15 31:100 32:57 33:152 34:304 35:82 36:23 37:109 38:16 39:150 40:2 41:149 42:137 43:122 44:36 45:125 46:7 47:135 48:500 49:111 50:102 51:98 52:3 53:99 54:2 55:166 56:12 57:161 58:276 59:120 60:131 61:117 62:16 63:153 64:482 65:90 66:192 67:95 68:2 69:118 70:7 71:213 72:105 73:223 74:360 75:118 76:355 77:81 78:3 79:86 80:0 
4.732396066679717 1:183 2:50 3:196 4:541 5:115 6:32 7:31 8:2 9:24 10:334 11:99 12:62 13:225 14:1 15:151 16:1 17:83 18:227 19:72 20:180 21:94 22:119 23:156 24:71 25:175 26:228 27:184 28:191 29:117 30:5 31:142 32:2 33:238 34:313 35:113 36:129 37:55 38:50 39:87 40:37 41:77 42:223 43:77 44:72 45:161 46:5 47:215 48:195 49:177 50:276 51:171 52:31 53:99 54:5 55:104 56:2 57:59 58:169 59:114 60:47 61:140 62:5 63:161 64:490 65:118 66:480 67:90 68:111 69:173 70:61 71:142 72:83 73:120 74:88 75:90 76:12 77:150 78:9 79:141 80:180 
6.350624632175435 1:133 2:61 3:72 4:63 5:270 6:275 7:160 8:453 9:95 10:145 11:44 12:24 13:52 14:2 15:197 16:2 17:138 18:900 19:71 20:11 21:75 22:2 23:147 24:0 25:153 26:28 27:72 28:27 29:116 30:35 31:251 32:21 33:171 34:467 35:108 36:86 37:81 38:10 39:98 40:0 41:125 42:2 43:118 44:48 45:132 46:15 47:190 48:397 49:105 50:286 51:74 52:379 53:97 54:34 55:166 56:1 57:165 58:64 59:116 60:61 61:139 62:20 63:162 64:180 65:115 66:419 67:78 68:542 69:92 70:21 71:196 72:23 73:198 74:0 75:131 76:0 77:98 78:0 79:116 80:20 
8.561027274721381 1:104 2:73 3:111 4:4 5:130 6:7 7:205 8:273 9:155 10:667 11:111 12:0 13:90 14:0 15:118 16:0 17:106 18:126 19:92 20:150 21:136 22:269 23:208 24:158 25:206 26:273 27:104 28:3 29:89 30:1 31:82 32:44 33:125 34:250 35:106 36:12 37:128 38:47 39:166 40:38 41:168 42:78 43:115 44:7 45:114 46:4 47:101 48:589 49:132 50:99 51:99 52:29 53:88 54:19 55:134 56:6 57:129 58:363 59:128 60:36 61:131 62:9 63:182 64:463 65:224 66:684 67:94 68:4 69:63 70:3 71:92 72:5 73:92 74:90 75:84 76:23 77:138 78:7 79:238 80:207 
2.00308166375991 1:49 2:387 3:80 4:72 5:113 6:118 7:230 8:19 9:261 10:68 11:159 12:141 13:90 14:158 15:42 16:61 17:118 18:504 19:74 20:497 21:114 22:23 23:188 24:0 25:168 26:0 27:103 28:0 29:138 30:0 31:121 32:0 33:145 34:620 35:78 36:29 37:93 38:12 39:130 40:6 41:245 42:150 43:130 44:66 45:82 46:20 47:122 48:120 49:146 50:453 51:54 52:42 53:74 54:20 55:177 56:9 57:252 58:210 59:121 60:60 61:92 62:51 63:107 64:180 65:104 66:304 67:73 68:33 69:90 70:15 71:225 72:12 73:225 74:445 75:108 76:79 77:80 78:53 79:119 80:84 
4.578491524821454 1:28 2:581 3:27 4:171 5:54 6:3 7:120 8:0 9:68 10:68 11:243 12:189 13:405 14:8 15:78 16:4 17:84 18:476 19:79 20:338 21:91 22:122 23:358 24:3 25:200 26:81 27:98 28:0 29:64 30:1 31:49 32:4 33:66 34:757 35:47 36:116 37:89 38:84 39:427 40:1 41:192 42:50 43:78 44:3 45:64 46:1 47:61 48:13 49:70 50:409 51:75 52:83 53:110 54:68 55:300 56:7 57:182 58:337 59:122 60:98 61:96 62:10 63:68 64:12 65:100 66:593 67:75 68:98 69:118 70:54 71:177 72:11 73:160 74:205 75:118 76:46 77:143 78:4 79:134 80:13 
13.27158024399723 1:54 2:469 3:76 4:92 5:128 6:14 7:113 8:0 9:223 10:310 11:232 12:110 13:148 14:20 15:49 16:9 17:120 18:354 19:91 20:70 21:126 22:24 23:262 24:4 25:178 26:282 27:82 28:11 29:68 30:51 31:98 32:229 33:139 34:395 35:65 36:31 37:122 38:25 39:178 40:3 41:209 42:536 43:106 44:16 45:98 46:7 47:106 48:10 49:121 50:461 51:84 52:279 53:89 54:24 55:209 56:3 57:212 58:182 59:125 60:46 61:93 62:20 63:91 64:8 65:73 66:498 67:59 68:348 69:92 70:14 71:224 72:1 73:198 74:104 75:156 76:45 77:131 78:8 79:91 80:6 
3.34470829562342 1:172 2:295 3:158 4:365 5:212 6:8 7:127 8:0 9:125 10:344 11:58 12:11 13:91 14:0 15:81 16:0 17:108 18:568 19:68 20:122 21:75 22:26 23:155 24:4 25:273 26:217 27:159 28:51 29:73 30:17 31:114 32:19 33:116 34:279 35:108 36:54 37:103 38:19 39:161 40:3 41:207 42:78 43:144 44:14 45:93 46:14 47:92 48:563 49:104 50:244 51:109 52:23 53:135 54:13 55:165 56:1 57:179 58:241 59:129 60:95 61:100 62:45 63:101 64:362 65:137 66:507 67:135 68:73 69:228 70:18 71:138 72:3 73:108 74:364 75:91 76:31 77:80 78:10 79:106 80:18 
15.04912430403746 1:181 2:72 3:177 4:121 5:54 6:18 7:103 8:1 9:264 10:497 11:37 12:258 13:72 14:31 15:137 16:28 17:101 18:508 19:78 20:150 21:87 22:29 23:206 24:2 25:193 26:270 27:124 28:26 29:122 30:5 31:112 32:34 33:78 34:452 35:65 36:79 37:80 38:16 39:265 40:2 41:294 42:454 43:89 44:5 45:74 46:1 47:78 48:15 49:93 50:677 51:105 52:69 53:101 54:12 55:209 56:1 57:236 58:235 59:101 60:11 61:93 62:6 63:86 64:13 65:106 66:543 67:126 68:167 69:134 70:83 71:190 72:3 73:203 74:138 75:71 76:42 77:76 78:8 79:120 80:41 
32 1:195 2:260 3:97 4:6 5:41 6:2 7:36 8:0 9:48 10:602 11:157 12:87 13:259 14:52 15:191 16:16 17:103 18:747 19:67 20:40 21:91 22:76 23:163 24:11 25:268 26:113 27:128 28:24 29:105 30:5 31:98 32:8 33:106 34:360 35:75 36:71 37:97 38:114 39:198 40:116 41:190 42:345 43:113 44:7 45:116 46:6 47:129 48:5 49:112 50:271 51:72 52:50 53:111 54:79 55:183 56:15 57:161 58:559 59:85 60:17 61:145 62:3 63:155 64:31 65:122 66:328 67:208 68:97 69:125 70:71 71:175 72:1 73:137 74:431 75:60 76:82 77:91 78:7 79:105 80:7 
12.51900146160897 1:231 2:882 3:92 4:130 5:71 6:4 7:66 8:0 9:90 10:1 11:98 12:0 13:177 14:5 15:200 16:2 17:382 18:694 19:52 20:244 21:46 22:11 23:64 24:1 25:58 26:15 27:81 28:23 29:86 30:28 31:254 32:8 33:186 34:806 35:81 36:114 37:82 38:14 39:200 40:0 41:150 42:16 43:58 44:29 45:93 46:21 47:174 48:24 49:172 50:677 51:54 52:163 53:93 54:40 55:181 56:2 57:222 58:51 59:85 60:41 61:59 62:29 63:158 64:21 65:220 66:535 67:35 68:443 69:78 70:19 71:98 72:4 73:166 74:11 75:90 76:6 77:43 78:3 79:294 80:4 
0.6551797037035443 1:176 2:314 3:107 4:96 5:151 6:74 7:125 8:82 9:155 10:443 11:88 12:2 13:88 14:2 15:133 16:10 17:157 18:46 19:84 20:10 21:101 22:5 23:165 24:45 25:197 26:909 27:89 28:3 29:82 30:2 31:149 32:5 33:200 34:66 35:108 36:11 37:84 38:6 39:130 40:24 41:137 42:873 43:85 44:25 45:87 46:13 47:194 48:8 49:186 50:397 51:110 52:58 53:87 54:52 55:113 56:36 57:115 58:451 59:108 60:10 61:124 62:2 63:181 64:19 65:266 66:797 67:77 68:107 69:99 70:49 71:82 72:24 73:85 74:46 75:100 76:0 77:72 78:0 79:243 80:0 
5.307417843919716 1:113 2:724 3:111 4:61 5:85 6:23 7:130 8:27 9:236 10:177 11:106 12:1 13:135 14:7 15:107 16:5 17:128 18:471 19:86 20:158 21:101 22:71 23:183 24:105 25:169 26:207 27:102 28:3 29:97 30:2 31:159 32:8 33:129 34:223 35:67 36:56 37:81 38:46 39:215 40:24 41:224 42:523 43:96 44:17 45:78 46:14 47:134 48:121 49:177 50:555 51:56 52:170 53:74 54:39 55:240 56:6 57:220 58:242 59:64 60:5 61:60 62:2 63:132 64:6 65:199 66:547 67:73 68:211 69:59 70:84 71:175 72:24 73:220 74:145 75:78 76:6 77:50 78:5 79:170 80:2 
10.04386659758121 1:80 2:401 3:70 4:34 5:209 6:29 7:190 8:130 9:156 10:430 11:136 12:0 13:86 14:0 15:98 16:0 17:149 18:749 19:99 20:107 21:118 22:54 23:159 24:20 25:156 26:82 27:101 28:2 29:100 30:1 31:142 32:9 33:160 34:512 35:119 36:38 37:107 38:37 39:168 40:5 41:122 42:380 43:100 44:15 45:105 46:8 47:143 48:29 49:142 50:680 51:102 52:23 53:97 54:9 55:158 56:10 57:176 58:292 59:119 60:5 61:98 62:2 63:132 64:3 65:144 66:755 67:99 68:78 69:104 70:13 71:177 72:24 73:126 74:144 75:99 76:2 77:122 78:1 79:154 80:7 
5.85055133395606 1:171 2:623 3:232 4:41 5:196 6:31 7:145 8:3 9:138 10:26 11:36 12:113 13:30 14:70 15:76 16:119 17:152 18:410 19:149 20:162 21:152 22:123 23:136 24:45 25:114 26:134 27:83 28:112 29:87 30:26 31:150 32:11 33:188 34:598 35:92 36:28 37:99 38:3 39:126 40:1 41:122 42:189 43:91 44:74 45:114 46:39 47:192 48:92 49:204 50:372 51:207 52:145 53:125 54:27 55:66 56:5 57:56 58:277 59:64 60:98 61:114 62:40 63:189 64:60 65:187 66:97 67:81 68:104 69:131 70:69 71:108 72:89 73:137 74:477 75:114 76:113 77:96 78:65 79:169 80:12 
16.8257074396217 1:168 2:423 3:230 4:9 5:54 6:0 7:93 8:0 9:100 10:25 11:164 12:275 13:114 14:205 15:100 16:85 17:135 18:724 19:86 20:99 21:98 22:5 23:176 24:2 25:163 26:109 27:164 28:65 29:96 30:16 31:106 32:5 33:77 34:552 35:77 36:173 37:82 38:3 39:186 40:2 41:215 42:208 43:144 44:66 45:145 46:8 47:99 48:12 49:109 50:593 51:98 52:228 53:95 54:10 55:220 56:33 57:209 58:100 59:84 60:44 61:99 62:6 63:109 64:10 65:125 66:680 67:146 68:234 69:119 70:4 71:163 72:1 73:211 74:29 75:89 76:48 77:92 78:17 79:79 80:11 
6.258756510380366 1:83 2:990 3:37 4:28 5:97 6:4 7:197 8:0 9:279 10:1 11:153 12:0 13:79 14:0 15:99 16:1 17:276 18:930 19:44 20:87 21:68 22:6 23:134 24:0 25:97 26:0 27:37 28:0 29:72 30:0 31:296 32:1 33:206 34:459 35:56 36:553 37:52 38:10 39:131 40:0 41:162 42:1 43:100 44:0 45:81 46:0 47:236 48:0 49:199 50:713 51:92 52:291 53:88 54:17 55:132 56:0 57:147 58:2 59:92 60:0 61:82 62:0 63:191 64:0 65:150 66:948 67:74 68:73 69:77 70:1 71:206 72:0 73:209 74:1 75:91 76:0 77:77 78:0 79:139 80:0 
15.17477834085678 1:169 2:999 3:69 4:25 5:79 6:0 7:253 8:0 9:224 10:0 11:92 12:0 13:61 14:0 15:77 16:0 17:136 18:745 19:146 20:275 21:156 22:4 23:109 24:0 25:119 26:0 27:119 28:0 29:72 30:0 31:166 32:0 33:142 34:714 35:82 36:292 37:70 38:17 39:255 40:0 41:192 42:0 43:73 44:0 45:57 46:0 47:152 48:0 49:136 50:732 51:66 52:285 53:57 54:6 55:248 56:0 57:245 58:0 59:71 60:0 61:67 62:0 63:134 64:0 65:128 66:903 67:43 68:121 69:57 70:0 71:252 72:0 73:248 74:0 75:60 76:0 77:82 78:0 79:155 80:0 
9.484539030090412 1:121 2:669 3:84 4:12 5:137 6:0 7:181 8:0 9:193 10:0 11:94 12:291 13:82 14:41 15:131 16:11 17:96 18:518 19:83 20:202 21:131 22:0 23:244 24:0 25:192 26:0 27:82 28:0 29:85 30:0 31:112 32:303 33:122 34:363 35:71 36:221 37:102 38:0 39:252 40:0 41:222 42:0 43:84 44:34 45:76 46:3 47:96 48:403 49:91 50:273 51:82 52:553 53:109 54:0 55:249 56:0 57:228 58:0 59:92 60:0 61:69 62:3 63:105 64:195 65:145 66:469 67:102 68:535 69:149 70:0 71:160 72:0 73:187 74:0 75:88 76:0 77:72 78:12 79:122 80:9 
19.83360370079013 1:36 2:0 3:151 4:139 5:260 6:294 7:199 8:135 9:144 10:455 11:81 12:0 13:87 14:0 15:66 16:0 17:113 18:188 19:107 20:290 21:144 22:52 23:150 24:24 25:127 26:419 27:95 28:25 29:143 30:10 31:145 32:15 33:146 34:154 35:91 36:243 37:114 38:62 39:151 40:103 41:151 42:449 43:122 44:5 45:104 46:2 47:146 48:6 49:151 50:93 51:104 52:180 53:110 54:40 55:157 56:103 57:142 58:593 59:109 60:5 61:105 62:3 63:145 64:5 65:135 66:56 67:91 68:184 69:114 70:19 71:187 72:16 73:160 74:700 75:110 76:40 77:95 78:2 79:134 80:7 
31.91473752244768 1:238 2:385 3:95 4:95 5:87 6:86 7:100 8:28 9:108 10:390 11:87 12:33 13:106 14:4 15:202 16:4 17:181 18:261 19:101 20:79 21:114 22:69 23:106 24:142 25:75 26:303 27:79 28:15 29:111 30:5 31:257 32:150 33:179 34:121 35:106 36:276 37:92 38:44 39:100 40:17 41:93 42:495 43:78 44:23 45:122 46:9 47:254 48:38 49:223 50:93 51:119 52:142 53:101 54:300 55:88 56:9 57:77 58:401 59:74 60:25 61:108 62:12 63:233 64:42 65:258 66:292 67:118 68:117 69:69 70:93 71:65 72:33 73:102 74:473 75:76 76:14 77:102 78:1 79:234 80:1 
2.403545579782131 1:48 2:344 3:58 4:605 5:83 6:75 7:129 8:0 9:211 10:0 11:370 12:0 13:78 14:0 15:47 16:0 17:94 18:743 19:84 20:83 21:154 22:170 23:195 24:20 25:176 26:8 27:93 28:0 29:85 30:0 31:141 32:0 33:162 34:644 35:86 36:116 37:114 38:225 39:150 40:38 41:154 42:0 43:103 44:0 45:72 46:0 47:183 48:0 49:86 50:531 51:69 52:253 53:127 54:239 55:158 56:0 57:198 58:0 59:128 60:0 61:122 62:0 63:135 64:0 65:237 66:308 67:75 68:367 69:50 70:334 71:85 72:8 73:229 74:5 75:97 76:1 77:54 78:0 79:196 80:0 
23.7004720855647 1:162 2:190 3:152 4:834 5:111 6:0 7:146 8:0 9:162 10:0 11:123 12:0 13:73 14:0 15:96 16:0 17:246 18:179 19:80 20:843 21:72 22:2 23:71 24:0 25:113 26:0 27:143 28:0 29:81 30:0 31:218 32:0 33:203 34:496 35:115 36:486 37:112 38:7 39:135 40:1 41:119 42:8 43:106 44:1 45:113 46:16 47:120 48:9 49:129 50:511 51:123 52:483 53:136 54:10 55:122 56:5 57:119 58:3 59:110 60:0 61:134 62:3 63:152 64:9 65:115 66:490 67:53 68:530 69:71 70:1 71:191 72:1 73:292 74:0 75:103 76:0 77:76 78:0 79:123 80:1 
23.24524079328318 1:330 2:415 3:87 4:607 5:56 6:1 7:49 8:1 9:63 10:0 11:66 12:0 13:120 14:0 15:253 16:0 17:166 18:497 19:87 20:404 21:58 22:63 23:102 24:10 25:108 26:13 27:112 28:18 29:163 30:15 31:228 32:2 33:133 34:116 35:108 36:706 37:100 38:117 39:117 40:29 41:115 42:41 43:92 44:11 45:126 46:3 47:233 48:1 49:273 50:144 51:101 52:800 53:82 54:43 55:89 56:24 57:82 58:11 59:81 60:1 61:106 62:0 63:211 64:0 65:217 66:108 67:77 68:818 69:134 70:27 71:80 72:21 73:102 74:49 75:71 76:1 77:107 78:0 79:236 80:0 
3.624439934886973 1:39 2:1000 3:30 4:8 5:203 6:1 7:478 8:0 9:147 10:7 11:59 12:3 13:35 14:3 15:32 16:2 17:88 18:688 19:123 20:286 21:150 22:8 23:230 24:1 25:230 26:8 27:87 28:3 29:60 30:3 31:56 32:28 33:87 34:286 35:76 36:468 37:170 38:121 39:256 40:30 41:172 42:82 43:80 44:2 45:75 46:2 47:108 48:33 49:133 50:317 51:88 52:341 53:106 54:250 55:141 56:19 57:179 58:60 59:141 60:2 61:92 62:1 63:145 64:34 65:147 66:406 67:85 68:424 69:104 70:68 71:155 72:8 73:167 74:104 75:92 76:3 77:89 78:1 79:185 80:11 
4.444547692046017 1:94 2:475 3:165 4:53 5:157 6:22 7:154 8:96 9:120 10:351 11:146 12:1 13:124 14:5 15:64 16:21 17:104 18:752 19:80 20:13 21:122 22:1 23:218 24:1 25:186 26:137 27:115 28:20 29:98 30:14 31:99 32:86 33:114 34:710 35:94 36:55 37:106 38:15 39:170 40:18 41:177 42:153 43:135 44:19 45:118 46:16 47:110 48:37 49:152 50:757 51:148 52:111 53:131 54:34 55:108 56:47 57:123 58:62 59:90 60:2 61:128 62:2 63:144 64:8 65:93 66:462 67:101 68:178 69:115 70:44 71:204 72:25 73:218 74:51 75:113 76:20 77:91 78:14 79:88 80:229 
4.74857193918648 1:117 2:375 3:86 4:2 5:71 6:3 7:295 8:31 9:173 10:604 11:121 12:7 13:68 14:2 15:95 16:1 17:79 18:710 19:120 20:304 21:116 22:5 23:212 24:1 25:213 26:3 27:98 28:0 29:98 30:0 31:88 32:0 33:125 34:536 35:115 36:478 37:99 38:7 39:123 40:0 41:249 42:3 43:100 44:0 45:101 46:0 47:112 48:0 49:165 50:245 51:135 52:693 53:113 54:11 55:121 56:5 57:159 58:62 59:125 60:2 61:99 62:1 63:107 64:5 65:188 66:335 67:84 68:481 69:96 70:71 71:146 72:18 73:152 74:112 75:102 76:2 77:104 78:1 79:151 80:2 
32 1:177 2:658 3:74 4:1 5:95 6:1 7:133 8:2 9:84 10:359 11:203 12:4 13:143 14:0 15:114 16:1 17:115 18:817 19:84 20:188 21:122 22:1 23:170 24:2 25:227 26:15 27:137 28:0 29:73 30:0 31:96 32:0 33:110 34:692 35:133 36:285 37:136 38:17 39:191 40:8 41:198 42:20 43:84 44:1 45:74 46:0 47:96 48:0 49:107 50:673 51:114 52:332 53:117 54:10 55:176 56:4 57:225 58:5 59:109 60:0 61:88 62:0 63:88 64:1 65:182 66:635 67:102 68:358 69:100 70:2 71:121 72:3 73:167 74:24 75:113 76:1 77:86 78:0 79:153 80:1 
23.07218241723806 1:195 2:497 3:104 4:35 5:94 6:23 7:189 8:2 9:120 10:347 11:121 12:56 13:87 14:27 15:113 16:36 17:106 18:998 19:85 20:24 21:135 22:0 23:189 24:0 25:186 26:1 27:104 28:0 29:85 30:0 31:134 32:0 33:176 34:935 35:86 36:76 37:95 38:1 39:112 40:0 41:121 42:4 43:191 44:1 45:103 46:1 47:142 48:6 49:107 50:785 51:87 52:178 53:117 54:7 55:203 56:3 57:189 58:38 59:107 60:2 61:105 62:3 63:109 64:7 65:200 66:868 67:176 68:49 69:77 70:1 71:79 72:3 73:69 74:68 75:58 76:7 77:135 78:5 79:230 80:24 
25.2991383357792 1:88 2:434 3:99 4:17 5:159 6:33 7:231 8:45 9:84 10:446 11:185 12:32 13:98 14:15 15:80 16:2 17:160 18:736 19:75 20:167 21:231 22:20 23:124 24:8 25:123 26:45 27:76 28:0 29:62 30:0 31:173 32:48 33:155 34:714 35:87 36:257 37:137 38:31 39:120 40:6 41:167 42:3 43:94 44:0 45:95 46:1 47:169 48:12 49:145 50:471 51:92 52:405 53:108 54:45 55:114 56:15 57:155 58:82 59:129 60:1 61:138 62:1 63:143 64:5 65:118 66:277 67:111 68:592 69:97 70:76 71:172 72:18 73:152 74:59 75:180 76:0 77:61 78:0 79:133 80:2 
5.913087169767743 1:107 2:871 3:143 4:7 5:189 6:1 7:161 8:2 9:131 10:108 11:117 12:1 13:104 14:3 15:72 16:31 17:132 18:264 19:91 20:171 21:109 22:315 23:174 24:100 25:161 26:170 27:95 28:1 29:104 30:1 31:157 32:2 33:112 34:386 35:93 36:420 37:92 38:138 39:172 40:38 41:186 42:37 43:110 44:0 45:116 46:1 47:143 48:5 49:187 50:625 51:111 52:281 53:101 54:24 55:126 56:6 57:152 58:78 59:80 60:2 61:103 62:1 63:163 64:7 65:161 66:723 67:83 68:128 69:119 70:15 71:183 72:10 73:122 74:144 75:104 76:3 77:96 78:1 79:157 80:2 
8.891227641040203 1:110 2:330 3:102 4:26 5:212 6:15 7:201 8:7 9:136 10:406 11:84 12:45 13:66 14:47 15:114 16:149 17:164 18:968 19:124 20:33 21:87 22:1 23:145 24:1 25:184 26:12 27:104 28:3 29:92 30:1 31:124 32:5 33:127 34:945 35:89 36:65 37:92 38:2 39:131 40:2 41:164 42:6 43:82 44:1 45:157 46:0 47:182 48:3 49:126 50:764 51:92 52:187 53:118 54:8 55:110 56:4 57:114 58:42 59:86 60:7 61:183 62:5 63:194 64:7 65:121 66:639 67:81 68:113 69:125 70:20 71:165 72:27 73:142 74:169 75:118 76:15 77:152 78:7 79:120 80:34 
32 1:169 2:212 3:131 4:84 5:189 6:55 7:157 8:67 9:75 10:594 11:80 12:1 13:76 14:1 15:148 16:10 17:135 18:769 19:85 20:164 21:118 22:8 23:157 24:10 25:150 26:56 27:115 28:10 29:107 30:4 31:158 32:5 33:89 34:682 35:106 36:202 37:150 38:15 39:222 40:12 41:183 42:92 43:109 44:10 45:79 46:4 47:87 48:6 49:126 50:748 51:78 52:147 53:134 54:30 55:216 56:24 57:155 58:51 59:97 60:6 61:101 62:5 63:116 64:13 65:140 66:853 67:110 68:96 69:118 70:8 71:254 72:8 73:116 74:34 75:76 76:16 77:86 78:4 79:123 80:6 
20.83029568868221 1:199 2:547 3:141 4:210 5:146 6:34 7:90 8:7 9:89 10:140 11:84 12:63 13:113 14:14 15:162 16:9 17:160 18:570 19:105 20:248 21:95 22:34 23:113 24:15 25:129 26:91 27:112 28:10 29:123 30:2 31:186 32:55 33:125 34:136 35:112 36:250 37:139 38:109 39:165 40:29 41:131 42:104 43:107 44:32 45:113 46:25 47:132 48:341 49:136 50:475 51:119 52:149 53:136 54:25 55:177 56:6 57:114 58:22 59:90 60:11 61:106 62:53 63:146 64:284 65:144 66:597 67:103 68:167 69:106 70:5 71:166 72:3 73:126 74:50 75:113 76:7 77:128 78:6 79:138 80:190 
9.917357347627714 1:152 2:1010 3:54 4:1 5:81 6:0 7:264 8:0 9:82 10:8 11:43 12:1 13:124 14:3 15:223 16:1 17:84 18:819 19:106 20:140 21:136 22:4 23:259 24:4 25:210 26:25 27:83 28:6 29:61 30:3 31:84 32:22 33:109 34:827 35:96 36:135 37:140 38:3 39:236 40:13 41:196 42:20 43:70 44:3 45:62 46:7 47:114 48:16 49:192 50:873 51:117 52:121 53:91 54:8 55:134 56:7 57:129 58:4 59:92 60:2 61:87 62:0 63:182 64:8 65:235 66:913 67:90 68:72 69:70 70:14 71:100 72:2 73:130 74:13 75:83 76:6 77:103 78:1 79:213 80:2 
8.818205359193318 1:143 2:896 3:112 4:3 5:144 6:0 7:160 8:1 9:132 10:75 11:126 12:11 13:93 14:15 15:114 16:23 17:212 18:498 19:107 20:240 21:100 22:12 23:105 24:6 25:102 26:178 27:79 28:40 29:101 30:8 31:218 32:43 33:177 34:419 35:135 36:419 37:110 38:34 39:126 40:34 41:126 42:99 43:110 44:6 45:111 46:5 47:129 48:8 49:97 50:247 51:78 52:669 53:112 54:19 55:213 56:19 57:245 58:44 59:113 60:1 61:92 62:9 63:74 64:17 65:116 66:400 67:69 68:568 69:84 70:30 71:217 72:5 73:200 74:17 75:106 76:0 77:112 78:1 79:121 80:3 
5.407510912655581 1:99 2:1024 3:105 4:0 5:130 6:0 7:122 8:0 9:180 10:0 11:147 12:0 13:127 14:0 15:114 16:0 17:95 18:894 19:99 20:122 21:145 22:2 23:282 24:1 25:164 26:4 27:88 28:1 29:76 30:0 31:76 32:1 33:90 34:746 35:104 36:175 37:148 38:17 39:223 40:32 41:138 42:44 43:150 44:1 45:90 46:1 47:81 48:9 49:73 50:667 51:116 52:281 53:170 54:14 55:232 56:21 57:154 58:39 59:130 60:0 61:73 62:0 63:75 64:1 65:86 66:616 67:88 68:345 69:164 70:19 71:228 72:21 73:176 74:23 75:126 76:0 77:62 78:0 79:95 80:1 
7.524452967482089 1:213 2:611 3:102 4:0 5:86 6:0 7:51 8:0 9:49 10:97 11:83 12:13 13:182 14:57 15:258 16:246 17:193 18:784 19:140 20:20 21:110 22:0 23:86 24:0 25:94 26:0 27:84 28:7 29:133 30:79 31:184 32:135 33:301 34:903 35:102 36:33 37:86 38:6 39:65 40:0 41:80 42:5 43:84 44:8 45:93 46:42 47:212 48:26 49:399 50:531 51:136 52:72 53:54 54:12 55:25 56:3 57:31 58:222 59:41 60:95 61:80 62:65 63:259 64:24 65:222 66:841 67:88 68:18 69:67 70:3 71:137 72:1 73:147 74:114 75:78 76:18 77:95 78:8 79:189 80:20 
0.7480607889774082 1:42 2:752 3:69 4:0 5:163 6:1 7:432 8:5 9:123 10:89 11:61 12:8 13:41 14:12 15:93 16:158 17:139 18:761 19:67 20:46 21:101 22:8 23:219 24:4 25:229 26:160 27:82 28:5 29:61 30:3 31:126 32:38 33:107 34:851 35:79 36:94 37:117 38:49 39:232 40:3 41:198 42:13 43:87 44:0 45:91 46:0 47:113 48:12 49:117 50:953 51:93 52:29 53:108 54:8 55:225 56:7 57:175 58:23 59:85 60:0 61:83 62:1 63:138 64:3 65:99 66:960 67:81 68:29 69:125 70:5 71:236 72:10 73:211 74:6 75:86 76:0 77:84 78:0 79:102 80:14 
3.598126537620331 1:95 2:555 3:68 4:344 5:94 6:24 7:112 8:14 9:352 10:81 11:126 12:6 13:87 14:0 15:90 16:0 17:121 18:772 19:102 20:203 21:105 22:29 23:211 24:2 25:178 26:16 27:103 28:0 29:79 30:0 31:124 32:1 33:201 34:526 35:80 36:438 37:93 38:34 39:147 40:2 41:136 42:22 43:74 44:1 45:76 46:0 47:217 48:1 49:143 50:354 51:106 52:553 53:113 54:56 55:186 56:12 57:150 58:41 59:103 60:4 61:97 62:1 63:125 64:2 65:179 66:424 67:109 68:277 69:97 70:44 71:109 72:19 73:134 74:169 75:102 76:57 77:125 78:17 79:168 80:17 
16.16044629924484 1:187 2:530 3:144 4:429 5:92 6:44 7:100 8:2 9:118 10:6 11:82 12:2 13:127 14:6 15:174 16:3 17:203 18:776 19:127 20:206 21:95 22:15 23:109 24:4 25:126 26:11 27:90 28:5 29:118 30:3 31:156 32:2 33:219 34:541 35:121 36:207 37:93 38:28 39:142 40:11 41:147 42:193 43:84 44:13 45:84 46:5 47:134 48:26 49:163 50:569 51:110 52:265 53:123 54:25 55:129 56:5 57:131 58:128 59:100 60:12 61:121 62:4 63:148 64:15 65:187 66:751 67:87 68:152 69:75 70:7 71:156 72:1 73:102 74:37 75:96 76:18 77:131 78:48 79:190 80:11 
7.525881550183479 1:113 2:182 3:36 4:601 5:64 6:85 7:58 8:49 9:137 10:96 11:404 12:7 13:89 14:3 15:121 16:1 17:155 18:699 19:118 20:254 21:117 22:33 23:118 24:13 25:176 26:23 27:107 28:0 29:86 30:1 31:147 32:0 33:124 34:536 35:113 36:326 37:145 38:32 39:130 40:13 41:155 42:113 43:117 44:3 45:111 46:1 47:129 48:0 49:202 50:502 51:77 52:423 53:102 54:23 55:103 56:5 57:143 58:66 59:104 60:2 61:121 62:1 63:172 64:3 65:231 66:653 67:107 68:360 69:77 70:3 71:123 72:0 73:127 74:5 75:89 76:1 77:96 78:1 79:174 80:2 
32 1:162 2:501 3:103 4:268 5:104 6:124 7:97 8:27 9:103 10:97 11:97 12:3 13:138 14:1 15:221 16:4 17:205 18:612 19:73 20:339 21:83 22:18 23:121 24:3 25:127 26:8 27:86 28:19 29:93 30:11 31:236 32:14 33:128 34:384 35:86 36:248 37:86 38:45 39:180 40:28 41:212 42:85 43:85 44:2 45:98 46:3 47:149 48:228 49:101 50:372 51:96 52:336 53:112 54:81 55:198 56:54 57:205 58:137 59:110 60:9 61:88 62:6 63:114 64:30 65:165 66:234 67:110 68:409 69:103 70:109 71:114 72:80 73:139 74:166 75:106 76:6 77:134 78:6 79:154 80:14 
20.17929895478728 1:180 2:142 3:135 4:326 5:122 6:61 7:106 8:14 9:103 10:237 11:90 12:205 13:113 14:29 15:175 16:10 17:100 18:423 19:105 20:484 21:133 22:34 23:181 24:18 25:194 26:58 27:99 28:5 29:106 30:0 31:106 32:0 33:92 34:496 35:98 36:262 37:102 38:41 39:226 40:21 41:202 42:57 43:104 44:3 45:105 46:0 47:95 48:144 49:152 50:597 51:104 52:214 53:108 54:105 55:159 56:18 57:144 58:76 59:97 60:1 61:106 62:2 63:155 64:11 65:176 66:821 67:176 68:169 69:108 70:16 71:96 72:3 73:98 74:6 75:92 76:1 77:118 78:1 79:159 80:7 
0.4337278450312686 1:39 2:954 3:46 4:64 5:279 6:5 7:285 8:1 9:200 10:1 11:92 12:0 13:44 14:0 15:40 16:0 17:52 18:356 19:51 20:511 21:88 22:24 23:192 24:24 25:274 26:77 27:187 28:20 29:104 30:7 31:76 32:5 33:68 34:497 35:50 36:432 37:90 38:20 39:222 40:25 41:267 42:34 43:172 44:2 45:96 46:3 47:59 48:11 49:61 50:618 51:53 52:318 53:94 54:18 55:296 56:16 57:322 58:20 59:92 60:3 61:57 62:3 63:49 64:28 65:103 66:929 67:63 68:68 69:95 70:2 71:273 72:4 73:278 74:6 75:90 76:3 77:47 78:5 79:75 80:6 
2.356694026502399 1:45 2:76 3:39 4:904 5:131 6:43 7:449 8:0 9:180 10:0 11:63 12:1 13:87 14:1 15:31 16:0 17:95 18:226 19:83 20:77 21:70 22:13 23:244 24:14 25:225 26:156 27:86 28:353 29:112 30:141 31:109 32:45 33:46 34:34 35:20 36:297 37:37 38:133 39:318 40:18 41:509 42:450 43:36 44:82 45:27 46:2 47:29 48:7 49:112 50:196 51:33 52:513 53:49 54:201 55:219 56:28 57:416 58:75 59:71 60:6 61:43 62:2 63:80 64:2 65:119 66:7 67:56 68:857 69:45 70:158 71:151 72:2 73:387 74:1 75:88 76:0 77:55 78:0 79:123 80:0 
8.73931424606535 1:44 2:503 3:28 4:495 5:67 6:24 7:354 8:1 9:391 10:0 11:62 12:0 13:39 14:0 15:39 16:1 17:86 18:916 19:89 20:97 21:99 22:1 23:264 24:0 25:210 26:0 27:95 28:1 29:75 30:3 31:106 32:5 33:106 34:664 35:90 36:232 37:112 38:65 39:195 40:11 41:175 42:26 43:107 44:3 45:110 46:7 47:129 48:16 49:131 50:321 51:110 52:589 53:115 54:81 55:161 56:19 57:185 58:13 59:92 60:0 61:82 62:0 63:150 64:1 65:104 66:124 67:85 68:896 69:111 70:4 71:224 72:0 73:211 74:0 75:75 76:0 77:96 78:0 79:118 80:0 
0.5766322323719636 1:39 2:646 3:22 4:10 5:48 6:2 7:106 8:0 9:84 10:0 11:342 12:0 13:157 14:15 15:227 16:351 17:100 18:655 19:104 20:107 21:197 22:112 23:189 24:78 25:143 26:32 27:92 28:2 29:90 30:3 31:109 32:35 33:81 34:396 35:105 36:34 37:128 38:147 39:179 40:78 41:121 42:329 43:219 44:4 45:105 46:3 47:87 48:33 49:97 50:426 51:79 52:60 53:111 54:153 55:147 56:50 57:105 58:223 59:184 60:3 61:119 62:9 63:181 64:100 65:140 66:691 67:98 68:109 69:80 70:45 71:138 72:5 73:109 74:8 75:106 76:1 77:116 78:3 79:237 80:163 
2.010923707342599 1:103 2:564 3:81 4:0 5:96 6:0 7:211 8:0 9:138 10:7 11:102 12:14 13:126 14:65 15:168 16:374 17:42 18:842 19:59 20:55 21:87 22:12 23:346 24:3 25:301 26:10 27:95 28:7 29:44 30:28 31:51 32:67 33:82 34:759 35:67 36:82 37:96 38:30 39:340 40:16 41:248 42:19 43:64 44:7 45:57 46:22 47:70 48:89 49:70 50:452 51:71 52:255 53:94 54:104 55:345 56:34 57:233 58:108 59:73 60:16 61:63 62:18 63:75 64:38 65:89 66:718 67:78 68:89 69:91 70:35 71:325 72:2 73:188 74:44 75:82 76:82 77:88 78:23 79:83 80:31 
3.449026866144517 1:50 2:339 3:71 4:12 5:549 6:1 7:141 8:0 9:66 10:0 11:72 12:5 13:28 14:135 15:46 16:532 17:115 18:232 19:75 20:36 21:180 22:34 23:164 24:11 25:175 26:671 27:130 28:13 29:76 30:5 31:109 32:22 33:69 34:402 35:82 36:24 37:163 38:10 39:251 40:10 41:203 42:536 43:109 44:10 45:77 46:5 47:69 48:26 49:72 50:391 51:86 52:77 53:143 54:18 55:278 56:12 57:198 58:493 59:122 60:14 61:69 62:4 63:57 64:15 65:78 66:364 67:75 68:27 69:151 70:13 71:239 72:6 73:181 74:579 75:120 76:4 77:91 78:3 79:89 80:29 
14.37405394459302 1:113 2:126 3:65 4:26 5:82 6:21 7:210 8:1 9:117 10:772 11:70 12:6 13:234 14:10 15:134 16:62 17:54 18:169 19:81 20:48 21:156 22:31 23:195 24:21 25:205 26:718 27:209 28:7 29:69 30:5 31:54 32:25 33:67 34:217 35:107 36:240 37:127 38:61 39:145 40:21 41:175 42:476 43:171 44:5 45:154 46:1 47:78 48:2 49:109 50:262 51:81 52:168 53:116 54:28 55:165 56:9 57:164 58:547 59:120 60:1 61:146 62:2 63:123 64:7 65:217 66:361 67:182 68:507 69:98 70:11 71:127 72:4 73:93 74:135 75:85 76:2 77:90 78:1 79:131 80:4 
10.47346769742304 1:180 2:781 3:266 4:5 5:85 6:3 7:62 8:0 9:87 10:0 11:30 12:46 13:86 14:26 15:227 16:163 17:125 18:731 19:79 20:194 21:92 22:44 23:175 24:1 25:177 26:3 27:85 28:1 29:125 30:1 31:166 32:50 33:115 34:734 35:134 36:140 37:134 38:64 39:192 40:2 41:145 42:49 43:84 44:5 45:90 46:1 47:131 48:29 49:89 50:689 51:101 52:161 53:163 54:42 55:211 56:3 57:153 58:61 59:107 60:55 61:95 62:4 63:105 64:9 65:137 66:596 67:110 68:23 69:163 70:23 71:155 72:7 73:128 74:169 75:76 76:80 77:102 78:9 79:152 80:117 
0.4054410395527465 1:55 2:802 3:74 4:1 5:123 6:1 7:106 8:0 9:447 10:0 11:136 12:11 13:39 14:79 15:44 16:130 17:129 18:407 19:90 20:440 21:101 22:20 23:162 24:4 25:165 26:59 27:120 28:22 29:132 30:19 31:126 32:53 33:111 34:385 35:77 36:423 37:115 38:59 39:174 40:7 41:248 42:45 43:111 44:13 45:86 46:17 47:102 48:75 49:96 50:392 51:92 52:292 53:132 54:88 55:185 56:32 57:218 58:146 59:123 60:12 61:85 62:8 63:93 64:53 65:83 66:544 67:79 68:75 69:115 70:121 71:231 72:32 73:258 74:178 75:101 76:11 77:81 78:15 79:77 80:50 
32 1:121 2:501 3:106 4:65 5:109 6:24 7:184 8:13 9:168 10:307 11:128 12:32 13:83 14:13 15:125 16:68 17:94 18:653 19:77 20:43 21:107 22:18 23:187 24:0 25:217 26:118 27:129 28:135 29:112 30:11 31:100 32:46 33:118 34:547 35:97 36:131 37:112 38:7 39:163 40:2 41:212 42:179 43:104 44:50 45:96 46:3 47:123 48:105 49:98 50:690 51:102 52:121 53:136 54:12 55:203 56:8 57:206 58:116 59:109 60:1 61:80 62:9 63:91 64:66 65:90 66:778 67:83 68:203 69:94 70:25 71:237 72:1 73:221 74:1 75:118 76:2 77:90 78:7 79:91 80:7 
5.762579413804312 1:239 2:677 3:160 4:153 5:93 6:19 7:64 8:3 9:52 10:67 11:72 12:0 13:119 14:56 15:226 16:48 17:88 18:770 19:73 20:10 21:70 22:0 23:105 24:0 25:193 26:0 27:306 28:0 29:104 30:39 31:85 32:205 33:173 34:807 35:92 36:113 37:95 38:17 39:97 40:9 41:101 42:48 43:95 44:7 45:137 46:3 47:233 48:21 49:152 50:770 51:125 52:126 53:131 54:22 55:150 56:6 57:132 58:85 59:103 60:7 61:100 62:5 63:131 64:3 65:133 66:576 67:138 68:388 69:155 70:48 71:148 72:11 73:158 74:1 75:101 76:0 77:83 78:0 79:108 80:0 
8.8653647636496 1:36 2:690 3:29 4:1 5:62 6:0 7:276 8:0 9:463 10:12 11:75 12:8 13:38 14:121 15:44 16:192 17:80 18:347 19:81 20:153 21:116 22:205 23:215 24:7 25:249 26:151 27:98 28:30 29:86 30:43 31:99 32:88 33:109 34:393 35:61 36:191 37:108 38:176 39:208 40:21 41:260 42:69 43:98 44:28 45:88 46:42 47:91 48:104 49:108 50:518 51:92 52:240 53:108 54:65 55:184 56:3 57:223 58:59 59:119 60:12 61:90 62:28 63:100 64:99 65:139 66:727 67:85 68:107 69:69 70:18 71:186 72:3 73:225 74:19 75:109 76:21 77:102 78:20 79:108 80:109 
19.56856617403026 1:272 2:434 3:54 4:3 5:54 6:2 7:125 8:0 9:145 10:2 11:56 12:89 13:54 14:147 15:264 16:346 17:94 18:429 19:99 20:63 21:103 22:186 23:113 24:33 25:135 26:243 27:190 28:15 29:200 30:12 31:91 32:43 33:236 34:398 35:85 36:69 37:99 38:310 39:112 40:12 41:127 42:163 43:78 44:12 45:109 46:6 47:178 48:54 49:164 50:733 51:107 52:85 53:128 54:97 55:160 56:1 57:172 58:24 59:86 60:2 61:86 62:6 63:121 64:77 65:210 66:306 67:52 68:471 69:72 70:161 71:162 72:1 73:139 74:10 75:59 76:33 77:101 78:31 79:228 80:11 
2.445210029766146 1:30 2:568 3:34 4:6 5:285 6:0 7:375 8:0 9:167 10:0 11:62 12:0 13:40 14:1 15:31 16:449 17:184 18:652 19:70 20:12 21:164 22:0 23:201 24:0 25:151 26:2 27:71 28:3 29:57 30:15 31:127 32:341 33:88 34:599 35:75 36:23 37:134 38:12 39:247 40:1 41:222 42:15 43:116 44:6 45:65 46:22 47:78 48:347 49:58 50:450 51:63 52:48 53:110 54:28 55:268 56:8 57:285 58:161 59:109 60:95 61:70 62:64 63:62 64:170 65:70 66:476 67:60 68:151 69:140 70:52 71:323 72:9 73:189 74:159 75:112 76:80 77:57 78:47 79:74 80:50 
8.893582327381321 1:41 2:449 3:119 4:2 5:82 6:3 7:123 8:0 9:493 10:2 11:103 12:9 13:36 14:177 15:26 16:380 17:60 18:449 19:101 20:432 21:99 22:99 23:206 24:15 25:273 26:14 27:124 28:1 29:89 30:5 31:71 32:8 33:66 34:235 35:106 36:382 37:134 38:111 39:204 40:40 41:256 42:103 43:108 44:1 45:81 46:20 47:69 48:132 49:83 50:275 51:64 52:582 53:116 54:40 55:175 56:12 57:264 58:52 59:153 60:2 61:82 62:13 63:86 64:48 65:105 66:399 67:68 68:455 69:121 70:60 71:181 72:9 73:230 74:33 75:126 76:19 77:98 78:20 79:95 80:29 
10.77326034036056 1:74 2:593 3:62 4:2 5:78 6:0 7:389 8:0 9:151 10:0 11:77 12:2 13:87 14:132 15:107 16:295 17:72 18:452 19:59 20:114 21:85 22:79 23:278 24:120 25:278 26:154 27:98 28:32 29:64 30:18 31:90 32:54 33:122 34:372 35:98 36:176 37:94 38:45 39:232 40:151 41:178 42:152 43:91 44:18 45:86 46:15 47:122 48:94 49:133 50:361 51:93 52:173 53:81 54:62 55:284 56:32 57:189 58:243 59:58 60:64 61:77 62:13 63:110 64:76 65:109 66:521 67:80 68:186 69:89 70:80 71:278 72:10 73:229 74:82 75:69 76:44 77:72 78:11 79:98 80:90 
3.586656924365688 1:128 2:7 3:44 4:2 5:89 6:1 7:140 8:0 9:321 10:5 11:109 12:274 13:65 14:579 15:128 16:156 17:116 18:619 19:96 20:125 21:110 22:10 23:165 24:2 25:220 26:19 27:98 28:15 29:91 30:133 31:128 32:102 33:120 34:362 35:80 36:95 37:99 38:25 39:196 40:9 41:190 42:59 43:116 44:41 45:108 46:266 47:115 48:167 49:66 50:424 51:104 52:85 53:131 54:60 55:202 56:14 57:258 58:92 59:106 60:62 61:84 62:167 63:72 64:120 65:86 66:485 67:125 68:79 69:128 70:35 71:209 72:10 73:229 74:105 75:98 76:25 77:73 78:95 79:76 80:192 
21.4912358907834 1:34 2:0 3:38 4:9 5:230 6:79 7:195 8:58 9:277 10:861 11:179 12:13 13:34 14:3 15:37 16:1 17:122 18:455 19:88 20:25 21:108 22:11 23:180 24:28 25:138 26:398 27:104 28:6 29:111 30:8 31:174 32:92 33:177 34:232 35:79 36:75 37:131 38:109 39:168 40:123 41:104 42:476 43:85 44:3 45:106 46:0 47:175 48:5 49:151 50:679 51:112 52:68 53:123 54:21 55:162 56:14 57:117 58:229 59:88 60:1 61:114 62:1 63:156 64:12 65:147 66:284 67:99 68:231 69:148 70:252 71:139 72:69 73:141 74:165 75:99 76:3 77:110 78:2 79:141 80:18 
12.02086984842824 1:144 2:958 3:100 4:66 5:161 6:0 7:170 8:0 9:117 10:0 11:103 12:0 13:104 14:0 15:126 16:0 17:122 18:685 19:94 20:339 21:151 22:0 23:163 24:0 25:173 26:0 27:91 28:0 29:90 30:0 31:141 32:0 33:154 34:308 35:88 36:708 37:113 38:8 39:129 40:0 41:137 42:0 43:109 44:0 45:94 46:0 47:200 48:0 49:213 50:191 51:101 52:812 53:97 54:13 55:133 56:5 57:137 58:3 59:88 60:0 61:91 62:0 63:164 64:0 65:292 66:59 67:63 68:829 69:82 70:40 71:105 72:29 73:117 74:66 75:65 76:0 77:63 78:0 79:237 80:0 
32 1:158 2:219 3:163 4:62 5:80 6:12 7:111 8:3 9:133 10:629 11:87 12:29 13:152 14:30 15:139 16:40 17:89 18:188 19:117 20:274 21:146 22:38 23:182 24:13 25:174 26:474 27:165 28:31 29:92 30:4 31:58 32:4 33:112 34:410 35:116 36:411 37:108 38:20 39:110 40:9 41:138 42:159 43:138 44:6 45:158 46:3 47:146 48:7 49:140 50:237 51:116 52:437 53:114 54:16 55:144 56:7 57:136 58:301 59:112 60:3 61:117 62:2 63:144 64:22 65:127 66:249 67:147 68:727 69:134 70:10 71:131 72:3 73:118 74:26 75:127 76:3 77:117 78:2 79:123 80:4 
8.2863146697084 1:279 2:861 3:76 4:22 5:34 6:3 7:58 8:0 9:84 10:48 11:99 12:62 13:251 14:15 15:142 16:12 17:48 18:429 19:102 20:147 21:184 22:4 23:171 24:1 25:199 26:398 27:144 28:27 29:141 30:7 31:35 32:10 33:97 34:355 35:118 36:50 37:123 38:5 39:191 40:7 41:167 42:584 43:134 44:14 45:122 46:2 47:72 48:6 49:165 50:214 51:100 52:40 53:109 54:23 55:152 56:8 57:148 58:716 59:103 60:14 61:102 62:4 63:146 64:5 65:127 66:167 67:83 68:144 69:78 70:38 71:165 72:5 73:186 74:655 75:107 76:14 77:116 78:1 79:162 80:0 
0.1222512779276582 1:87 2:548 3:130 4:3 5:364 6:2 7:91 8:0 9:108 10:0 11:96 12:99 13:58 14:207 15:90 16:165 17:89 18:224 19:92 20:157 21:115 22:37 23:186 24:3 25:167 26:522 27:123 28:75 29:130 30:6 31:122 32:1 33:87 34:385 35:78 36:112 37:127 38:23 39:186 40:7 41:169 42:460 43:165 44:27 45:115 46:5 47:99 48:5 49:133 50:482 51:94 52:194 53:128 54:37 55:168 56:28 57:140 58:246 59:99 60:19 61:128 62:11 63:134 64:7 65:94 66:713 67:67 68:216 69:119 70:16 71:228 72:4 73:217 74:34 75:133 76:10 77:76 78:7 79:91 80:25 
20.65072848470025 1:109 2:658 3:35 4:1 5:44 6:2 7:85 8:0 9:90 10:2 11:205 12:224 13:276 14:111 15:181 16:26 17:95 18:252 19:86 20:468 21:125 22:156 23:182 24:1 25:218 26:4 27:155 28:9 29:83 30:8 31:81 32:126 33:130 34:162 35:105 36:507 37:104 38:309 39:154 40:6 41:181 42:7 43:139 44:5 45:97 46:8 47:113 48:20 49:91 50:262 51:91 52:499 53:113 54:244 55:167 56:2 57:169 58:2 59:147 60:2 61:161 62:4 63:83 64:10 65:241 66:404 67:102 68:521 69:81 70:76 71:108 72:1 73:115 74:4 75:92 76:7 77:90 78:5 79:195 80:7 
9.75235707549205 1:228 2:980 3:81 4:25 5:68 6:1 7:120 8:0 9:143 10:0 11:70 12:0 13:158 14:0 15:157 16:18 17:180 18:410 19:204 20:133 21:120 22:8 23:141 24:2 25:143 26:455 27:56 28:11 29:69 30:2 31:112 32:2 33:132 34:659 35:170 36:235 37:102 38:19 39:160 40:11 41:170 42:78 43:95 44:1 45:105 46:2 47:90 48:20 49:155 50:657 51:69 52:283 53:88 54:1 55:116 56:1 57:124 58:79 59:96 60:2 61:171 62:1 63:206 64:1 65:134 66:410 67:90 68:128 69:61 70:4 71:75 72:7 73:84 74:461 75:98 76:4 77:222 78:1 79:260 80:8 
3.276311517850138 1:248 2:968 3:144 4:6 5:81 6:0 7:86 8:0 9:184 10:0 11:73 12:0 13:79 14:2 15:129 16:47 17:136 18:661 19:146 20:208 21:120 22:29 23:139 24:12 25:155 26:64 27:98 28:8 29:122 30:6 31:108 32:37 33:175 34:411 35:64 36:460 37:80 38:12 39:89 40:3 41:100 42:136 43:91 44:2 45:205 46:0 47:220 48:1 49:126 50:359 51:112 52:71 53:71 54:10 55:77 56:7 57:79 58:574 59:92 60:2 61:227 62:0 63:240 64:1 65:126 66:406 67:88 68:17 69:92 70:6 71:109 72:13 73:121 74:564 75:155 76:4 77:169 78:1 79:164 80:12 
18.96712219619107 1:111 2:1024 3:93 4:0 5:185 6:0 7:195 8:0 9:165 10:0 11:100 12:0 13:90 14:0 15:85 16:0 17:60 18:632 19:69 20:230 21:130 22:86 23:247 24:28 25:267 26:18 27:112 28:2 29:78 30:12 31:61 32:15 33:63 34:480 35:70 36:410 37:126 38:94 39:240 40:18 41:270 42:2 43:130 44:1 45:66 46:5 47:59 48:14 49:63 50:638 51:87 52:269 53:142 54:65 55:216 56:11 57:249 58:21 59:123 60:1 61:80 62:3 63:64 64:16 65:78 66:459 67:80 68:451 69:121 70:41 71:204 72:7 73:239 74:13 75:140 76:7 77:88 78:14 79:73 80:33 
27.50691171067251 1:160 2:564 3:93 4:225 5:105 6:39 7:118 8:1 9:196 10:10 11:109 12:13 13:91 14:41 15:153 16:131 17:110 18:456 19:88 20:374 21:124 22:17 23:198 24:27 25:203 26:33 27:81 28:7 29:89 30:8 31:131 32:102 33:105 34:232 35:88 36:314 37:93 38:84 39:185 40:46 41:216 42:230 43:87 44:12 45:120 46:20 47:131 48:86 49:42 50:205 51:53 52:182 53:74 54:35 55:350 56:78 57:348 58:275 59:67 60:23 61:48 62:25 63:42 64:202 65:75 66:151 67:80 68:300 69:90 70:63 71:242 72:81 73:261 74:227 75:128 76:19 77:90 78:13 79:58 80:170 
5.513751099861692 1:36 2:208 3:35 4:8 5:241 6:2 7:405 8:0 9:152 10:1 11:73 12:194 13:39 14:418 15:43 16:193 17:112 18:838 19:94 20:40 21:141 22:10 23:207 24:6 25:169 26:101 27:108 28:13 29:94 30:4 31:98 32:11 33:119 34:780 35:109 36:74 37:172 38:22 39:139 40:11 41:155 42:120 43:114 44:7 45:102 46:6 47:114 48:5 49:136 50:769 51:99 52:173 53:156 54:29 55:201 56:3 57:159 58:9 59:77 60:11 61:88 62:4 63:106 64:26 65:99 66:176 67:59 68:733 69:96 70:54 71:287 72:3 73:180 74:30 75:112 76:14 77:83 78:7 79:109 80:7 
14.7559541665906 1:45 2:51 3:30 4:3 5:87 6:466 7:211 8:22 9:233 10:57 11:278 12:101 13:90 14:279 15:49 16:47 17:69 18:453 19:62 20:514 21:116 22:13 23:251 24:0 25:272 26:5 27:113 28:15 29:60 30:10 31:81 32:14 33:60 34:249 35:60 36:535 37:99 38:140 39:243 40:25 41:255 42:9 43:158 44:22 45:74 46:15 47:76 48:30 49:101 50:234 51:77 52:459 53:106 54:155 55:165 56:26 57:242 58:83 59:137 60:35 61:79 62:11 63:117 64:21 65:179 66:162 67:84 68:547 69:109 70:224 71:129 72:19 73:120 74:63 75:122 76:1 77:111 78:1 79:170 80:7 
7.76133815108017 1:93 2:153 3:138 4:2 5:167 6:0 7:90 8:0 9:183 10:0 11:111 12:219 13:103 14:272 15:138 16:377 17:98 18:821 19:96 20:78 21:107 22:19 23:179 24:3 25:195 26:33 27:99 28:7 29:100 30:17 31:150 32:45 33:64 34:502 35:88 36:234 37:153 38:86 39:258 40:8 41:206 42:116 43:97 44:13 45:96 46:25 47:62 48:40 49:88 50:583 51:83 52:244 53:146 54:30 55:226 56:7 57:195 58:122 59:112 60:1 61:92 62:10 63:82 64:28 65:108 66:769 67:94 68:111 69:127 70:6 71:177 72:3 73:178 74:34 75:120 76:8 77:106 78:9 79:114 80:84 
1.452380757779614 1:91 2:662 3:146 4:27 5:187 6:7 7:82 8:0 9:268 10:6 11:94 12:127 13:78 14:138 15:79 16:58 17:124 18:820 19:81 20:145 21:91 22:7 23:158 24:0 25:165 26:5 27:125 28:9 29:135 30:10 31:146 32:30 33:130 34:849 35:106 36:127 37:116 38:4 39:170 40:0 41:185 42:13 43:97 44:15 45:94 46:9 47:126 48:6 49:111 50:827 51:102 52:156 53:146 54:4 55:145 56:2 57:118 58:12 59:80 60:6 61:115 62:8 63:208 64:8 65:154 66:665 67:111 68:300 69:145 70:5 71:116 72:4 73:129 74:20 75:110 76:9 77:104 78:9 79:156 80:12 
13.25729302893082 1:170 2:1000 3:222 4:24 5:211 6:0 7:69 8:0 9:42 10:0 11:66 12:0 13:96 14:0 15:149 16:0 17:91 18:239 19:53 20:696 21:88 22:61 23:356 24:6 25:220 26:20 27:61 28:0 29:78 30:1 31:76 32:1 33:107 34:383 35:116 36:518 37:113 38:94 39:240 40:4 41:185 42:22 43:73 44:1 45:78 46:1 47:112 48:2 49:95 50:492 51:105 52:355 53:133 54:45 55:235 56:9 57:192 58:114 59:82 60:3 61:88 62:3 63:92 64:2 65:132 66:523 67:93 68:454 69:118 70:29 71:241 72:1 73:134 74:11 75:86 76:3 77:86 78:2 79:134 80:2 
15.9138452694607 1:98 2:421 3:68 4:479 5:89 6:124 7:124 8:0 9:206 10:0 11:197 12:0 13:111 14:0 15:131 16:0 17:75 18:885 19:77 20:59 21:121 22:17 23:226 24:13 25:285 26:48 27:80 28:2 29:79 30:0 31:80 32:0 33:104 34:659 35:100 36:277 37:98 38:67 39:196 40:10 41:228 42:11 43:95 44:0 45:92 46:0 47:111 48:0 49:184 50:753 51:67 52:227 53:99 54:30 55:128 56:10 57:188 58:4 59:113 60:0 61:70 62:0 63:174 64:0 65:167 66:792 67:90 68:184 69:113 70:41 71:122 72:6 73:159 74:1 75:117 76:0 77:100 78:0 79:156 80:0 
9.080479168930088 1:312 2:952 3:89 4:72 5:89 6:0 7:52 8:0 9:47 10:0 11:64 12:0 13:166 14:0 15:206 16:0 17:129 18:615 19:95 20:303 21:141 22:18 23:152 24:35 25:145 26:43 27:109 28:9 29:101 30:0 31:152 32:1 33:92 34:618 35:104 36:339 37:112 38:16 39:166 40:15 41:165 42:33 43:131 44:2 45:127 46:0 47:128 48:1 49:152 50:443 51:112 52:576 53:119 54:3 55:140 56:0 57:126 58:0 59:97 60:0 61:129 62:0 63:150 64:0 65:340 66:372 67:64 68:649 69:24 70:3 71:23 72:0 73:30 74:0 75:42 76:0 77:94 78:0 79:406 80:0 
4.149917131790597 1:389 2:821 3:91 4:175 5:47 6:8 7:26 8:18 9:25 10:1 11:40 12:0 13:97 14:0 15:308 16:0 17:109 18:387 19:94 20:545 21:101 22:19 23:199 24:21 25:192 26:47 27:78 28:4 29:108 30:0 31:142 32:0 33:161 34:324 35:144 36:693 37:107 38:5 39:104 40:0 41:127 42:2 43:95 44:0 45:112 46:0 47:175 48:0 49:360 50:134 51:45 52:783 53:35 54:83 55:31 56:22 57:31 58:3 59:32 60:0 61:80 62:0 63:410 64:0 65:426 66:54 67:20 68:808 69:8 70:138 71:10 72:24 73:11 74:0 75:22 76:0 77:56 78:0 79:470 80:0 
6.652611654312878 1:305 2:989 3:74 4:22 5:33 6:1 7:33 8:2 9:29 10:8 11:83 12:1 13:143 14:0 15:324 16:1 17:110 18:697 19:96 20:183 21:102 22:12 23:203 24:19 25:176 26:93 27:102 28:8 29:93 30:7 31:142 32:5 33:106 34:503 35:94 36:457 37:108 38:27 39:215 40:9 41:198 42:27 43:102 44:2 45:98 46:0 47:104 48:0 49:290 50:428 51:73 52:578 53:58 54:16 55:74 56:0 57:91 58:1 59:51 60:0 61:113 62:0 63:274 64:0 65:319 66:272 67:48 68:594 69:33 70:47 71:41 72:2 73:31 74:106 75:40 76:1 77:78 78:1 79:434 80:0 
1.109045566542062 1:114 2:6 3:72 4:873 5:107 6:61 7:157 8:61 9:214 10:23 11:171 12:0 13:89 14:0 15:99 16:0 17:196 18:6 19:99 20:237 21:111 22:298 23:158 24:426 25:138 26:53 27:101 28:2 29:70 30:2 31:152 32:0 33:121 34:94 35:61 36:268 37:101 38:363 39:191 40:258 41:244 42:35 43:100 44:2 45:80 46:4 47:125 48:0 49:124 50:205 51:87 52:303 53:106 54:291 55:159 56:110 57:175 58:93 59:119 60:15 61:108 62:4 63:147 64:3 65:198 66:111 67:97 68:114 69:73 70:351 71:113 72:84 73:127 74:349 75:68 76:12 77:92 78:3 79:257 80:1 
6.304148101347989 1:71 2:714 3:66 4:69 5:99 6:174 7:182 8:46 9:212 10:0 11:179 12:0 13:130 14:0 15:86 16:22 17:75 18:767 19:93 20:227 21:206 22:25 23:207 24:2 25:119 26:0 27:75 28:0 29:147 30:1 31:102 32:2 33:112 34:566 35:74 36:265 37:102 38:170 39:207 40:0 41:186 42:4 43:114 44:4 45:81 46:5 47:148 48:9 49:78 50:680 51:90 52:280 53:154 54:40 55:182 56:1 57:121 58:2 59:95 60:2 61:125 62:12 63:180 64:7 65:204 66:646 67:121 68:264 69:107 70:33 71:106 72:68 73:120 74:9 75:79 76:0 77:88 78:0 79:199 80:4 
6.762830196641405 1:28 2:514 3:7 4:28 5:33 6:4 7:211 8:0 9:599 10:3 11:109 12:43 13:24 14:322 15:12 16:110 17:33 18:739 19:43 20:194 21:95 22:36 23:300 24:2 25:161 26:6 27:68 28:9 29:207 30:25 31:117 32:14 33:59 34:830 35:62 36:91 37:127 38:95 39:356 40:0 41:171 42:4 43:126 44:0 45:79 46:2 47:44 48:1 49:56 50:714 51:70 52:161 53:134 54:125 55:337 56:1 57:157 58:12 59:109 60:1 61:97 62:3 63:67 64:7 65:109 66:727 67:66 68:149 69:110 70:64 71:294 72:1 73:163 74:52 75:77 76:15 77:88 78:5 79:116 80:13 
8.895758373492903 1:194 2:0 3:102 4:151 5:113 6:703 7:91 8:3 9:159 10:4 11:114 12:56 13:109 14:105 15:143 16:2 17:61 18:709 19:42 20:22 21:77 22:0 23:332 24:0 25:239 26:1 27:84 28:33 29:118 30:151 31:72 32:107 33:34 34:777 35:62 36:34 37:140 38:82 39:332 40:0 41:189 42:31 43:138 44:29 45:77 46:44 47:53 48:26 49:65 50:480 51:72 52:19 53:103 54:159 55:320 56:4 57:195 58:118 59:115 60:121 61:101 62:74 63:52 64:49 65:168 66:543 67:98 68:25 69:111 70:93 71:191 72:2 73:162 74:60 75:69 76:168 77:82 78:106 79:143 80:28 
