svm_type c_svc
kernel_type linear
nr_class 2
total_sv 530
rho -4463
label -1 1
nr_sv 268 262
SV
1 1:1911 2:8009 3:1078 4:627 5:784 6:43 7:1562 8:19 9:1640 10:421 11:406 12:378 13:822 14:326 15:1796 16:176 17:2114 18:5568 19:630 20:2746 21:747 22:75 23:1111 24:31 25:1526 26:1278 27:1185 28:106 29:1495 30:71 31:1193 32:126 33:919 34:1326 35:438 36:649 37:340 38:89 39:525 40:322 41:624 42:2385 43:413 44:69 45:648 46:4 47:1093 48:156 49:329 50:994 51:408 52:823 53:697 54:182 55:1310 56:99 57:1341 58:2812 59:344 60:78 61:270 62:1 63:301 64:12 65:988 66:1095 67:2772 68:60 69:2538 70:9 71:1116 72:53 73:790 74:6776 75:575 76:1720 77:535 78:155 79:686 80:132 
1 1:259 2:4765 3:262 4:4799 5:302 6:84 7:362 8:61 9:1066 10:208 11:4758 12:2 13:2584 14:16 15:406 16:64 17:1218 18:2708 19:984 20:912 21:2011 22:411 23:1582 24:318 25:1005 26:515 27:864 28:86 29:1182 30:26 31:1153 32:5023 33:630 34:1079 35:372 36:1378 37:524 38:341 39:844 40:1010 41:1287 42:715 43:520 44:185 45:370 46:63 47:453 48:228 49:284 50:2778 51:226 52:334 53:426 54:439 55:699 56:241 57:1229 58:787 59:1332 60:123 61:525 62:49 63:281 64:249 65:705 66:3959 67:799 68:1118 69:2117 70:531 71:1054 72:518 73:923 74:2626 75:1649 76:569 77:1856 78:154 79:896 80:525 
1 1:528 2:5089 3:568 4:1175 5:921 6:216 7:2256 8:525 9:3246 10:2678 11:1283 12:162 13:579 14:26 15:619 16:130 17:713 18:6434 19:591 20:799 21:904 22:227 23:1428 24:72 25:1639 26:746 27:1644 28:207 29:1865 30:47 31:1217 32:1468 33:454 34:228 35:394 36:56 37:526 38:42 39:1225 40:71 41:1150 42:4454 43:475 44:114 45:397 46:15 47:379 48:20 49:404 50:419 51:337 52:470 53:380 54:265 55:594 56:208 57:676 58:3504 59:487 60:103 61:916 62:23 63:1208 64:10 65:854 66:2561 67:669 68:5779 69:693 70:840 71:861 72:157 73:1269 74:663 75:1146 76:0 77:2857 78:0 79:1652 80:1 
1 1:839 2:2278 3:482 4:3295 5:861 6:413 7:3600 8:131 9:2305 10:3560 11:447 12:322 13:357 14:0 15:1110 16:0 17:845 18:2016 19:818 20:5600 21:1427 22:1467 23:2370 24:100 25:1805 26:774 27:833 28:1 29:726 30:0 31:1175 32:42 33:669 34:1825 35:402 36:1708 37:502 38:414 39:734 40:174 41:766 42:811 43:416 44:50 45:446 46:7 47:1065 48:10 49:833 50:3434 51:263 52:704 53:460 54:87 55:772 56:74 57:660 58:523 59:452 60:176 61:465 62:1 63:1095 64:1 65:894 66:7301 67:613 68:2369 69:1241 70:54 71:2504 72:14 73:1388 74:235 75:1132 76:17 77:1325 78:2 79:902 80:7 
1 1:3802 2:4328 3:863 4:3631 5:410 6:192 7:350 8:260 9:865 10:1153 11:1227 12:394 13:1437 14:6 15:1045 16:35 17:333 18:5377 19:276 20:4010 21:618 22:242 23:2183 24:52 25:4117 26:299 27:1417 28:18 29:656 30:2 31:400 32:0 33:151 34:414 35:168 36:1731 37:316 38:1381 39:1271 40:200 41:2159 42:1105 43:605 44:109 45:196 46:4 47:134 48:57 49:382 50:1355 51:562 52:1631 53:575 54:753 55:1003 56:233 57:1306 58:398 59:636 60:138 61:302 62:87 63:234 64:405 65:2905 66:4157 67:1149 68:2451 69:471 70:667 71:432 72:255 73:590 74:1060 75:575 76:419 77:1468 78:190 79:2411 80:801 
1 1:2539 2:6253 3:703 4:3348 5:675 6:2 7:1186 8:10 9:2289 10:221 11:994 12:17 13:737 14:19 15:877 16:130 17:533 18:4100 19:508 20:5836 21:878 22:64 23:1621 24:0 25:3780 26:0 27:1316 28:0 29:775 30:0 31:589 32:0 33:248 34:606 35:331 36:1872 37:548 38:1045 39:1002 40:410 41:1852 42:831 43:623 44:150 45:203 46:19 47:192 48:66 49:464 50:944 51:796 52:2500 53:594 54:428 55:837 56:288 57:1067 58:179 59:528 60:43 61:330 62:86 63:384 64:533 65:2457 66:5431 67:892 68:2935 69:542 70:426 71:506 72:230 73:601 74:325 75:852 76:89 77:1601 78:97 79:2549 80:466 
1 1:525 2:81 3:528 4:1955 5:727 6:7644 7:4108 8:74 9:2416 10:93 11:560 12:43 13:699 14:55 15:437 16:55 17:848 18:2978 19:877 20:2020 21:1339 22:1109 23:2016 24:469 25:2397 26:2379 27:848 28:586 29:737 30:57 31:938 32:402 33:541 34:1203 35:373 36:1588 37:526 38:875 39:1055 40:61 41:1153 42:830 43:449 44:226 45:335 46:17 47:568 48:200 49:872 50:1893 51:457 52:1115 53:400 54:673 55:779 56:232 57:882 58:561 59:461 60:212 61:383 62:29 63:766 64:284 65:1372 66:3461 67:768 68:528 69:932 70:840 71:1567 72:801 73:1714 74:2873 75:914 76:320 77:1260 78:331 79:1474 80:845 
1 1:544 2:1018 3:319 4:412 5:451 6:1449 7:2980 8:443 9:4132 10:3659 11:892 12:1206 13:338 14:91 15:343 16:1721 17:775 18:1415 19:774 20:1305 21:1059 22:4941 23:2086 24:1005 25:2709 26:1088 27:1208 28:93 29:715 30:11 31:675 32:143 33:814 34:1282 35:504 36:1042 37:607 38:1182 39:873 40:178 41:646 42:917 43:496 44:287 45:431 46:13 47:629 48:99 49:513 50:493 51:430 52:1096 53:615 54:2563 55:754 56:402 57:1133 58:122 59:510 60:1 61:532 62:15 63:513 64:307 65:819 66:2529 67:645 68:2925 69:1121 70:3847 71:2026 72:303 73:2725 74:159 75:1138 76:53 77:750 78:24 79:776 80:159 
0.01026116289466273 1:4263 2:2445 3:1151 4:1856 5:653 6:3570 7:289 8:243 9:282 10:868 11:254 12:265 13:611 14:31 15:2498 16:722 17:4679 18:2402 19:671 20:1444 21:543 22:5308 23:303 24:294 25:318 26:81 27:348 28:5 29:624 30:39 31:2514 32:428 33:2159 34:2605 35:398 36:1161 37:172 38:1108 39:149 40:82 41:98 42:10 43:127 44:7 45:281 46:1 47:1616 48:27 49:1955 50:2932 51:400 52:819 53:147 54:350 55:125 56:108 57:148 58:549 59:243 60:219 61:493 62:8 63:1490 64:15 65:5361 66:2254 67:341 68:3951 69:209 70:1225 71:153 72:191 73:69 74:739 75:104 76:1165 77:278 78:268 79:3485 80:207 
1 1:844 2:967 3:688 4:775 5:1054 6:4072 7:1904 8:758 9:2347 10:1525 11:1175 12:1259 13:1022 14:138 15:966 16:506 17:717 18:4329 19:531 20:2150 21:1193 22:1999 23:2140 24:431 25:2879 26:374 27:968 28:136 29:591 30:25 31:981 32:557 33:873 34:1652 35:371 36:732 37:449 38:376 39:653 40:280 41:976 42:1596 43:544 44:206 45:427 46:12 47:707 48:146 49:919 50:863 51:588 52:217 53:494 54:594 55:489 56:341 57:429 58:2421 59:463 60:541 61:579 62:3 63:1040 64:19 65:841 66:623 67:661 68:662 69:1004 70:4131 71:2570 72:1969 73:2040 74:1324 75:1153 76:48 77:893 78:49 79:837 80:1193 
1 1:1722 2:4901 3:1678 4:2827 5:2128 6:114 7:1048 8:158 9:613 10:1787 11:804 12:86 13:961 14:25 15:1046 16:101 17:1452 18:3513 19:994 20:3709 21:1091 22:659 23:1397 24:203 25:1612 26:1445 27:1272 28:111 29:1062 30:128 31:1121 32:232 33:946 34:4096 35:489 36:176 37:508 38:23 39:461 40:18 41:523 42:299 43:678 44:30 45:570 46:25 47:826 48:334 49:714 50:4538 51:405 52:152 53:535 54:122 55:599 56:52 57:863 58:92 59:761 60:0 61:517 62:0 63:606 64:44 65:1544 66:9399 67:828 68:125 69:929 70:15 71:1294 72:23 73:1631 74:169 75:1524 76:1 77:1021 78:1 79:1229 80:267 
1 1:1801 2:7051 3:1651 4:2151 5:1329 6:228 7:1223 8:271 9:574 10:299 11:754 12:0 13:999 14:0 15:1669 16:0 17:1585 18:3640 19:965 20:3429 21:1039 22:1162 23:1379 24:997 25:1537 26:676 27:1119 28:48 29:1128 30:9 31:1248 32:39 33:707 34:2422 35:465 36:973 37:600 38:356 39:805 40:273 41:768 42:229 43:560 44:75 45:467 46:16 47:627 48:655 49:565 50:2917 51:531 52:653 53:725 54:114 55:755 56:77 57:692 58:77 59:556 60:229 61:548 62:344 63:629 64:588 65:1556 66:6120 67:1291 68:3684 69:1366 70:16 71:1332 72:13 73:1204 74:63 75:911 76:0 77:930 78:1 79:1411 80:105 
0.5267346887466885 1:1163 2:3427 3:664 4:5962 5:1069 6:421 7:1706 8:190 9:2671 10:0 11:1066 12:0 13:756 14:0 15:905 16:0 17:1133 18:1513 19:1045 20:5121 21:1536 22:1996 23:1979 24:56 25:1807 26:1252 27:757 28:62 29:832 30:0 31:911 32:0 33:467 34:636 35:571 36:1302 37:670 38:2985 39:813 40:12 41:913 42:26 43:600 44:35 45:487 46:0 47:479 48:4 49:455 50:909 51:481 52:884 53:575 54:3116 55:812 56:11 57:951 58:32 59:676 60:21 61:580 62:1 63:469 64:25 65:1183 66:841 67:983 68:1894 69:1134 70:4833 71:1996 72:355 73:1856 74:1833 75:919 76:150 77:821 78:59 79:1109 80:37 
1 1:1152 2:0 3:998 4:615 5:1569 6:618 7:1678 8:299 9:1662 10:8150 11:989 12:317 13:1341 14:0 15:611 16:0 17:1702 18:89 19:1139 20:3947 21:959 22:239 23:1266 24:155 25:1429 26:3084 27:814 28:2431 29:1078 30:22 31:1612 32:32 33:742 34:87 35:455 36:282 37:424 38:183 39:697 40:51 41:878 42:2624 43:466 44:1745 45:594 46:23 47:745 48:5 49:800 50:90 51:539 52:117 53:566 54:13 55:769 56:31 57:698 58:3452 59:354 60:1189 61:492 62:97 63:781 64:11 65:1567 66:1058 67:938 68:151 69:969 70:1 71:1616 72:8 73:1770 74:3950 75:1133 76:3290 77:806 78:235 79:1201 80:1307 
1 1:841 2:0 3:1029 4:584 5:1385 6:1039 7:2097 8:213 9:1432 10:7597 11:1401 12:567 13:1191 14:0 15:624 16:0 17:1504 18:491 19:903 20:3614 21:922 22:561 23:1894 24:158 25:1721 26:4292 27:942 28:741 29:1008 30:95 31:1106 32:48 33:713 34:40 35:479 36:514 37:488 38:264 39:807 40:132 41:772 42:2632 43:468 44:1345 45:531 46:48 47:742 48:24 49:637 50:711 51:460 52:242 53:516 54:23 55:901 56:49 57:998 58:1901 59:549 60:1077 61:425 62:252 63:514 64:745 65:2238 66:1108 67:917 68:58 69:703 70:2 71:1555 72:9 73:1241 74:5531 75:951 76:2660 77:730 78:151 79:1665 80:481 
1 1:1527 2:3616 3:1663 4:1263 5:1435 6:171 7:688 8:66 9:649 10:4686 11:1448 12:185 13:1890 14:9 15:698 16:6 17:941 18:5565 19:665 20:3601 21:1045 22:255 23:2421 24:176 25:2089 26:324 27:1263 28:39 29:863 30:0 31:714 32:40 33:466 34:2527 35:441 36:1286 37:568 38:196 39:986 40:169 41:1055 42:709 43:674 44:53 45:456 46:18 47:356 48:42 49:635 50:791 51:511 52:612 53:515 54:68 55:774 56:111 57:743 58:2910 59:575 60:383 61:558 62:80 63:690 64:44 65:1719 66:1406 67:928 68:70 69:976 70:5 71:1138 72:5 73:1376 74:6760 75:1379 76:1181 77:1141 78:218 79:1344 80:355 
1 1:627 2:1014 3:664 4:2734 5:752 6:34 7:1043 8:49 9:4387 10:6024 11:1153 12:140 13:757 14:1 15:618 16:4 17:801 18:2463 19:602 20:4488 21:963 22:78 23:2200 24:48 25:3202 26:2873 27:788 28:45 29:569 30:1 31:875 32:4 33:518 34:1441 35:291 36:1146 37:467 38:73 39:999 40:75 41:1486 42:2236 43:395 44:23 45:292 46:3 47:551 48:2 49:439 50:2565 51:279 52:507 53:469 54:39 55:1237 56:33 57:1518 58:1816 59:320 60:28 61:284 62:3 63:455 64:10 65:1062 66:5484 67:580 68:503 69:934 70:30 71:2065 72:18 73:2995 74:3707 75:672 76:196 77:758 78:24 79:934 80:38 
1 1:1413 2:1495 3:404 4:2101 5:708 6:351 7:791 8:227 9:1045 10:5824 11:1879 12:3 13:1695 14:0 15:2064 16:0 17:976 18:517 19:921 20:1058 21:933 22:338 23:2467 24:334 25:2641 26:7734 27:769 28:19 29:509 30:1 31:785 32:0 33:612 34:234 35:514 36:421 37:406 38:104 39:1008 40:134 41:1075 42:4098 43:450 44:9 45:341 46:0 47:594 48:0 49:603 50:599 51:413 52:561 53:384 54:45 55:529 56:64 57:538 58:3542 59:640 60:180 61:763 62:2 63:1130 64:8 65:1205 66:2170 67:887 68:1222 69:909 70:14 71:1909 72:24 73:2147 74:5614 75:815 76:742 77:972 78:89 79:1158 80:125 
1 1:1313 2:529 3:1557 4:2379 5:2454 6:51 7:1156 8:139 9:854 10:6902 11:713 12:0 13:896 14:0 15:1058 16:0 17:2582 18:2054 19:1133 20:3553 21:973 22:220 23:1134 24:277 25:775 26:3856 27:625 28:36 29:697 30:0 31:2080 32:4 33:682 34:1213 35:449 36:602 37:740 38:82 39:970 40:30 41:670 42:2981 43:488 44:78 45:347 46:3 47:654 48:10 49:508 50:817 51:433 52:12 53:672 54:1 55:1145 56:17 57:918 58:3591 59:343 60:447 61:318 62:42 63:661 64:72 65:2260 66:7090 67:654 68:348 69:1014 70:12 71:1291 72:10 73:1037 74:1607 75:580 76:547 77:839 78:53 79:2324 80:335 
1 1:1256 2:265 3:1573 4:27 5:1261 6:9 7:775 8:30 9:2131 10:9591 11:815 12:56 13:851 14:8 15:1337 16:14 17:1223 18:4395 19:1126 20:612 21:1390 22:114 23:1907 24:124 25:1395 26:3728 27:751 28:703 29:984 30:43 31:1226 32:283 33:680 34:2298 35:390 36:384 37:471 38:86 39:762 40:57 41:1062 42:1362 43:496 44:506 45:514 46:105 47:624 48:202 49:921 50:1359 51:306 52:257 53:360 54:13 55:461 56:22 57:890 58:2030 59:558 60:811 61:535 62:253 63:968 64:255 65:1302 66:748 67:666 68:2352 69:886 70:31 71:1617 72:66 73:1665 74:5953 75:1113 76:422 77:815 78:175 79:1935 80:253 
1 1:669 2:61 3:706 4:389 5:1017 6:9 7:2020 8:16 9:2701 10:9522 11:1557 12:2 13:858 14:0 15:472 16:0 17:1013 18:2788 19:674 20:6632 21:899 22:47 23:1217 24:43 25:1245 26:486 27:1221 28:0 29:1639 30:3 31:2091 32:1 33:415 34:2493 35:351 36:269 37:624 38:53 39:1182 40:131 41:907 42:1958 43:594 44:77 45:540 46:3 47:388 48:16 49:587 50:1201 51:323 52:34 53:673 54:58 55:1298 56:19 57:820 58:3317 59:507 60:339 61:325 62:13 63:467 64:19 65:866 66:3214 67:676 68:604 69:879 70:39 71:1764 72:18 73:1993 74:5735 75:2111 76:326 77:889 78:12 79:821 80:52 
1 1:442 2:7052 3:712 4:2629 5:823 6:52 7:1065 8:29 9:2302 10:166 11:3634 12:50 13:600 14:13 15:423 16:10 17:1337 18:617 19:862 20:3356 21:2192 22:323 23:982 24:516 25:1642 26:5154 27:1017 28:27 29:625 30:2 31:1342 32:5 33:453 34:947 35:615 36:1119 37:1250 38:93 39:492 40:37 41:458 42:2757 43:946 44:29 45:363 46:8 47:424 48:9 49:814 50:1172 51:513 52:683 53:627 54:95 55:345 56:124 57:390 58:2710 59:446 60:128 61:931 62:22 63:934 64:65 65:846 66:5050 67:497 68:1281 69:510 70:118 71:719 72:491 73:980 74:2499 75:1456 76:446 77:2832 78:29 79:2160 80:86 
1 1:3082 2:5027 3:146 4:4973 5:163 6:0 7:140 8:0 9:221 10:0 11:125 12:0 13:1415 14:0 15:4708 16:0 17:1577 18:525 19:2138 20:3024 21:806 22:981 23:605 24:1181 25:1056 26:4206 27:1617 28:75 29:1315 30:5 31:886 32:2 33:842 34:272 35:1070 36:662 37:725 38:242 39:595 40:278 41:575 42:3544 43:420 44:1 45:345 46:0 47:428 48:0 49:858 50:2039 51:644 52:764 53:472 54:68 55:664 56:62 57:674 58:2015 59:404 60:41 61:422 62:4 63:862 64:7 65:1336 66:6710 67:815 68:817 69:868 70:116 71:1727 72:351 73:2501 74:1505 75:801 76:240 77:857 78:43 79:1095 80:219 
1 1:1704 2:31 3:526 4:138 5:678 6:21 7:1932 8:13 9:1796 10:4310 11:726 12:4725 13:800 14:487 15:1837 16:275 17:2870 18:1114 19:491 20:1867 21:469 22:143 23:724 24:92 25:874 26:6600 27:438 28:148 29:531 30:27 31:3603 32:10 33:359 34:360 35:384 36:2367 37:455 38:533 39:1195 40:198 41:1548 42:1319 43:402 44:189 45:343 46:19 47:314 48:15 49:522 50:316 51:468 52:686 53:520 54:432 55:1028 56:79 57:908 58:1012 59:495 60:1307 61:506 62:505 63:552 64:664 65:1252 66:441 67:1106 68:1318 69:1151 70:85 71:1616 72:14 73:1455 74:416 75:823 76:4694 77:1255 78:935 79:1342 80:2097 
1 1:755 2:4896 3:787 4:3047 5:1297 6:228 7:338 8:88 9:391 10:1683 11:443 12:58 13:3715 14:0 15:2274 16:0 17:825 18:3341 19:800 20:6208 21:961 22:230 23:2251 24:77 25:2172 26:142 27:679 28:0 29:1370 30:0 31:943 32:2 33:376 34:1989 35:306 36:2244 37:353 38:187 39:1127 40:114 41:1194 42:417 43:618 44:14 45:573 46:0 47:452 48:34 49:493 50:1125 51:477 52:1375 53:531 54:71 55:1019 56:76 57:1072 58:1721 59:467 60:339 61:512 62:62 63:429 64:231 65:1796 66:1005 67:1523 68:134 69:1665 70:17 71:1070 72:47 73:891 74:7118 75:734 76:1504 77:796 78:105 79:1525 80:71 
1 1:182 2:0 3:1137 4:34 5:6558 6:123 7:1684 8:392 9:168 10:9437 11:105 12:13 13:90 14:0 15:76 16:0 17:924 18:5889 19:1071 20:815 21:2233 22:280 23:1842 24:538 25:1866 26:2282 27:564 28:113 29:718 30:10 31:783 32:73 33:697 34:3257 35:440 36:523 37:755 38:110 39:943 40:137 41:590 42:770 43:478 44:30 45:535 46:7 47:563 48:165 49:607 50:2394 51:498 52:232 53:645 54:89 55:583 56:68 57:938 58:1596 59:586 60:189 61:566 62:112 63:578 64:321 65:2467 66:6441 67:770 68:488 69:816 70:112 71:1903 72:86 73:1912 74:2007 75:834 76:169 77:425 78:133 79:873 80:564 
1 1:21 2:1 3:70 4:22 5:2599 6:21 7:6185 8:224 9:1045 10:9672 11:36 12:59 13:37 14:0 15:7 16:1 17:1598 18:3370 19:886 20:1669 21:1091 22:306 23:1992 24:264 25:1243 26:4005 27:844 28:197 29:843 30:18 31:1502 32:170 33:641 34:1679 35:437 36:154 37:717 38:12 39:930 40:139 41:688 42:2479 43:418 44:388 45:413 46:53 47:757 48:97 49:629 50:110 51:463 52:22 53:492 54:51 55:941 56:88 57:1017 58:3786 59:477 60:862 61:381 62:24 63:600 64:57 65:1409 66:399 67:1008 68:154 69:870 70:66 71:1590 72:42 73:1731 74:4314 75:947 76:3121 77:933 78:546 79:1513 80:1358 
1 1:1280 2:1985 3:739 4:5217 5:1014 6:350 7:2002 8:316 9:2117 10:1896 11:705 12:199 13:543 14:18 15:1600 16:19 17:935 18:3096 19:585 20:3461 21:704 22:280 23:873 24:282 25:1271 26:2596 27:1986 28:112 29:2340 30:7 31:1306 32:167 33:990 34:449 35:415 36:1490 37:547 38:599 39:539 40:231 41:502 42:1992 43:381 44:205 45:541 46:12 47:1085 48:22 49:598 50:989 51:602 52:296 53:708 54:169 55:592 56:512 57:543 58:2430 59:589 60:386 61:737 62:27 63:631 64:190 65:1860 66:3032 67:953 68:626 69:1024 70:49 71:1285 72:158 73:1577 74:4684 75:939 76:409 77:1012 78:61 79:1351 80:979 
1 1:1028 2:181 3:559 4:85 5:1161 6:3287 7:1947 8:5232 9:2411 10:570 11:1404 12:0 13:618 14:0 15:871 16:644 17:729 18:2803 19:794 20:4285 21:1252 22:824 23:2047 24:580 25:2016 26:1090 27:1250 28:60 29:917 30:41 31:994 32:318 33:435 34:1097 35:449 36:909 37:647 38:449 39:981 40:463 41:1199 42:1317 43:546 44:275 45:330 46:88 47:413 48:401 49:727 50:583 51:455 52:608 53:545 54:139 55:643 56:643 57:795 58:1685 59:645 60:808 61:545 62:106 63:645 64:427 65:1458 66:3226 67:877 68:539 69:1058 70:155 71:1487 72:558 73:1771 74:1629 75:1041 76:2788 77:1073 78:208 79:1234 80:897 
1 1:309 2:28 3:265 4:7588 5:724 6:1132 7:1766 8:865 9:2171 10:339 11:2861 12:48 13:1287 14:0 15:619 16:0 17:1425 18:2108 19:1105 20:5905 21:1989 22:535 23:1108 24:293 25:1117 26:1116 27:917 28:31 29:1076 30:6 31:1264 32:7 33:513 34:2306 35:508 36:936 37:716 38:109 39:776 40:171 41:781 42:1271 43:620 44:83 45:520 46:21 47:565 48:103 49:720 50:2538 51:416 52:192 53:492 54:49 55:845 56:57 57:824 58:1493 59:590 60:426 61:527 62:54 63:585 64:191 65:1347 66:4288 67:1221 68:296 69:861 70:61 71:1182 72:104 73:1386 74:2590 75:1301 76:1644 77:1387 78:229 79:1316 80:788 
1 1:393 2:5 3:856 4:407 5:2803 6:4846 7:2073 8:3259 9:2342 10:1480 11:890 12:0 13:460 14:0 15:182 16:2 17:1133 18:2232 19:835 20:2652 21:975 22:2021 23:1357 24:1424 25:1364 26:1247 27:1013 28:144 29:1678 30:15 31:1646 32:267 33:871 34:1871 35:477 36:1088 37:507 38:501 39:584 40:193 41:598 42:794 43:394 44:187 45:570 46:130 47:1000 48:237 49:913 50:400 51:407 52:394 53:398 54:60 55:593 56:135 57:631 58:3468 59:590 60:378 61:534 62:52 63:934 64:112 65:1631 66:874 67:966 68:187 69:1218 70:70 71:1724 72:87 73:1476 74:6743 75:888 76:949 77:832 78:116 79:1266 80:973 
1 1:476 2:1 3:787 4:270 5:674 6:5841 7:3038 8:2652 9:3694 10:1235 11:366 12:0 13:484 14:0 15:481 16:0 17:1269 18:779 19:661 20:4007 21:851 22:1953 23:1723 24:808 25:1570 26:2448 27:801 28:0 29:1691 30:1 31:1435 32:5 33:934 34:203 35:364 36:259 37:351 38:125 39:735 40:98 41:829 42:3495 43:454 44:638 45:412 46:150 47:921 48:32 49:806 50:945 51:367 52:125 53:394 54:50 55:819 56:53 57:896 58:1239 59:475 60:1005 61:421 62:275 63:822 64:1307 65:1067 66:1568 67:828 68:9 69:1177 70:30 71:1750 72:66 73:2238 74:2591 75:1109 76:4192 77:853 78:642 79:977 80:903 
0.3911175997376011 1:278 2:0 3:354 4:473 5:2074 6:7045 7:1234 8:2280 9:2990 10:202 11:2297 12:0 13:573 14:0 15:201 16:0 17:991 18:1577 19:966 20:1461 21:903 22:345 23:2378 24:70 25:1929 26:4195 27:854 28:1406 29:935 30:269 31:1044 32:677 33:674 34:207 35:393 36:83 37:415 38:61 39:912 40:21 41:836 42:3874 43:481 44:516 45:480 46:110 47:808 48:127 49:413 50:1116 51:363 52:193 53:521 54:60 55:1107 56:21 57:1085 58:2848 59:479 60:293 61:459 62:61 63:572 64:409 65:1370 66:3557 67:877 68:391 69:1066 70:74 71:1669 72:72 73:1539 74:2730 75:964 76:1499 77:915 78:277 79:1600 80:1401 
1 1:757 2:0 3:667 4:102 5:979 6:2715 7:1617 8:5241 9:1506 10:1942 11:1585 12:0 13:1872 14:0 15:1017 16:0 17:1305 18:2402 19:834 20:1053 21:1367 22:339 23:1501 24:278 25:1605 26:4677 27:1026 28:405 29:985 30:161 31:1376 32:684 33:738 34:584 35:418 36:470 37:538 38:141 39:824 40:110 41:674 42:3102 43:482 44:345 45:393 46:72 47:932 48:175 49:477 50:702 51:364 52:107 53:567 54:57 55:1079 56:148 57:974 58:2986 59:498 60:699 61:469 62:145 63:572 64:155 65:1127 66:1219 67:853 68:98 69:894 70:46 71:1983 72:47 73:1954 74:3136 75:957 76:1448 77:887 78:852 79:1346 80:3152 
1 1:1037 2:1 3:673 4:18 5:1155 6:44 7:1432 8:4056 9:2698 10:5876 11:1043 12:6 13:1067 14:0 15:895 16:0 17:1297 18:261 19:749 20:62 21:988 22:198 23:1790 24:960 25:1758 26:6579 27:1086 28:279 29:970 30:68 31:1363 32:1593 33:469 34:685 35:506 36:225 37:616 38:38 39:897 40:319 41:1050 42:2340 43:528 44:187 45:432 46:104 47:502 48:1103 49:607 50:2304 51:423 52:137 53:781 54:30 55:821 56:110 57:766 58:358 59:458 60:665 61:489 62:334 63:654 64:1064 65:1281 66:6196 67:943 68:51 69:1578 70:4 71:1705 72:26 73:1452 74:149 75:828 76:357 77:1109 78:689 79:1104 80:2527 
1 1:295 2:1049 3:1671 4:1758 5:626 6:937 7:2375 8:606 9:3157 10:5590 11:785 12:61 13:725 14:0 15:365 16:0 17:1218 18:681 19:1281 20:5259 21:1588 22:3239 23:1389 24:116 25:1523 26:161 27:1124 28:106 29:993 30:72 31:885 32:366 33:559 34:1279 35:555 36:1396 37:522 38:638 39:933 40:182 41:1048 42:149 43:454 44:134 45:444 46:529 47:485 48:693 49:507 50:2987 51:506 52:312 53:576 54:34 55:868 56:16 57:928 58:601 59:596 60:264 61:532 62:86 63:487 64:700 65:817 66:7910 67:824 68:449 69:1168 70:1 71:1556 72:0 73:2276 74:0 75:1403 76:0 77:1128 78:22 79:828 80:1618 
1 1:1324 2:918 3:983 4:7767 5:847 6:1285 7:877 8:30 9:567 10:0 11:1207 12:0 13:2822 14:0 15:1375 16:0 17:1150 18:6258 19:922 20:2446 21:918 22:157 23:957 24:82 25:1066 26:1007 27:1653 28:27 29:1761 30:4 31:1572 32:19 33:597 34:2100 35:417 36:697 37:427 38:144 39:453 40:195 41:447 42:1808 43:810 44:26 45:1121 46:11 47:728 48:18 49:1359 50:2638 51:468 52:1013 53:502 54:32 55:361 56:70 57:278 58:1113 59:311 60:81 61:462 62:30 63:1259 64:23 65:1482 66:6906 67:1435 68:1609 69:1758 70:15 71:1224 72:64 73:1209 74:882 75:664 76:324 77:793 78:88 79:1436 80:113 
1 1:718 2:133 3:488 4:1251 5:366 6:1127 7:2988 8:1281 9:3308 10:5999 11:218 12:103 13:344 14:30 15:1571 16:78 17:1342 18:4300 19:1084 20:3006 21:1319 22:982 23:1898 24:666 25:2010 26:595 27:721 28:207 29:637 30:63 31:990 32:182 33:408 34:2083 35:388 36:1219 37:615 38:425 39:1010 40:417 41:1041 42:379 43:579 44:175 45:505 46:71 47:453 48:230 49:618 50:1675 51:550 52:139 53:501 54:88 55:831 56:689 57:865 58:800 59:500 60:137 61:550 62:151 63:584 64:1321 65:1252 66:2015 67:622 68:127 69:1037 70:38 71:1818 72:243 73:1761 74:2780 75:1280 76:575 77:991 78:945 79:1239 80:3277 
1 1:1924 2:3754 3:958 4:3225 5:1116 6:541 7:1374 8:859 9:1619 10:1602 11:776 12:11 13:921 14:0 15:1312 16:8 17:1089 18:6860 19:936 20:2323 21:1012 22:23 23:1191 24:38 25:2023 26:443 27:1119 28:6 29:1024 30:13 31:1605 32:294 33:687 34:2286 35:388 36:1866 37:447 38:121 39:757 40:96 41:767 42:563 43:576 44:13 45:612 46:4 47:766 48:52 49:936 50:2776 51:562 52:1618 53:582 54:194 55:719 56:80 57:615 58:143 59:527 60:113 61:472 62:38 63:588 64:37 65:1290 66:6409 67:892 68:1287 69:935 70:108 71:1707 72:98 73:1839 74:1709 75:1212 76:257 77:1013 78:94 79:1112 80:38 
1 1:681 2:7161 3:633 4:47 5:863 6:21 7:1307 8:123 9:2066 10:447 11:2481 12:58 13:1291 14:130 15:678 16:2014 17:1066 18:2671 19:785 20:3058 21:1126 22:322 23:1727 24:788 25:1661 26:2488 27:1314 28:355 29:943 30:34 31:1378 32:285 33:590 34:1541 35:472 36:1169 37:588 38:944 39:679 40:465 41:834 42:786 43:680 44:49 45:448 46:12 47:708 48:34 49:682 50:2144 51:535 52:1024 53:523 54:316 55:710 56:630 57:828 58:744 59:622 60:59 61:411 62:15 63:689 64:67 65:937 66:2488 67:852 68:1583 69:1090 70:169 71:1870 72:1057 73:2364 74:3346 75:1014 76:1153 77:816 78:87 79:1058 80:117 
0.5797422499782424 1:445 2:9551 3:551 4:356 5:812 6:2 7:727 8:0 9:2646 10:0 11:2969 12:0 13:1471 14:0 15:379 16:91 17:1289 18:2818 19:871 20:3560 21:1147 22:881 23:1612 24:1710 25:1866 26:974 27:1152 28:14 29:920 30:5 31:1143 32:39 33:450 34:1120 35:470 36:1660 37:657 38:660 39:811 40:1117 41:984 42:423 43:764 44:6 45:419 46:1 47:445 48:12 49:560 50:1003 51:555 52:1720 53:563 54:1034 55:722 56:676 57:873 58:541 59:731 60:0 61:399 62:11 63:598 64:16 65:849 66:1238 67:1032 68:3573 69:1184 70:1478 71:1553 72:2536 73:2347 74:1092 75:1331 76:45 77:766 78:5 79:938 80:32 
1 1:1277 2:1883 3:1579 4:19 5:2540 6:1 7:1362 8:0 9:1381 10:1 11:747 12:779 13:475 14:2567 15:639 16:4750 17:1341 18:4632 19:1147 20:1920 21:969 22:805 23:1296 24:498 25:1408 26:352 27:1009 28:139 29:1208 30:333 31:1622 32:1321 33:585 34:2615 35:589 36:1254 37:733 38:287 39:698 40:89 41:705 42:50 43:457 44:82 45:627 46:116 47:606 48:507 49:535 50:2570 51:623 52:631 53:823 54:19 55:809 56:15 57:690 58:630 59:499 60:227 61:509 62:95 63:512 64:813 65:1092 66:7255 67:1002 68:1228 69:1415 70:23 71:1820 72:9 73:1221 74:334 75:1191 76:244 77:1234 78:92 79:1025 80:815 
1 1:157 2:830 3:465 4:14 5:2805 6:1 7:4157 8:0 9:1326 10:0 11:721 12:1508 13:251 14:2636 15:119 16:5011 17:844 18:6490 19:694 20:662 21:1876 22:25 23:2540 24:1 25:1629 26:16 27:986 28:14 29:696 30:68 31:735 32:2725 33:562 34:3834 35:434 36:470 37:701 38:46 39:1023 40:4 41:832 42:10 43:587 44:36 45:412 46:67 47:449 48:534 49:381 50:3606 51:403 52:456 53:767 54:181 55:904 56:253 57:1015 58:126 59:712 60:130 61:433 62:74 63:385 64:174 65:916 66:7116 67:957 68:1220 69:1484 70:210 71:1986 72:79 73:1838 74:275 75:1056 76:347 77:803 78:239 79:960 80:515 
1 1:2079 2:5101 3:1125 4:10 5:936 6:1 7:1364 8:0 9:1563 10:0 11:704 12:0 13:1195 14:462 15:1034 16:4425 17:1237 18:1940 19:1095 20:390 21:1155 22:476 23:1104 24:269 25:1142 26:3894 27:1150 28:618 29:1866 30:175 31:1250 32:2237 33:1062 34:2199 35:638 36:462 37:479 38:494 39:548 40:247 41:565 42:184 43:455 44:69 45:558 46:74 47:695 48:1270 49:766 50:3006 51:687 52:794 53:758 54:459 55:662 56:73 57:486 58:19 59:439 60:8 61:519 62:21 63:684 64:622 65:988 66:5223 67:1161 68:2070 69:1841 70:70 71:1535 72:12 73:1470 74:49 75:1030 76:53 77:1031 78:160 79:944 80:2362 
0.1935012863530981 1:359 2:16 3:342 4:43 5:617 6:1 7:1897 8:1 9:4791 10:25 11:1372 12:7129 13:442 14:2718 15:180 16:67 17:1719 18:5245 19:971 20:900 21:948 22:180 23:1332 24:548 25:1772 26:1358 27:853 28:688 29:896 30:304 31:1507 32:777 33:752 34:2100 35:400 36:1409 37:334 38:406 39:585 40:151 41:837 42:375 43:410 44:257 45:714 46:167 47:969 48:135 49:678 50:2149 51:215 52:1600 53:399 54:260 55:817 56:18 57:1263 58:273 59:553 60:268 61:507 62:88 63:567 64:343 65:1222 66:6496 67:579 68:1760 69:750 70:146 71:1104 72:48 73:2390 74:235 75:1739 76:218 77:1036 78:88 79:1179 80:1009 
0.2062975166681158 1:929 2:0 3:850 4:0 5:1070 6:0 7:1626 8:0 9:2005 10:0 11:1056 12:512 13:1221 14:5498 15:1243 16:3990 17:714 18:6168 19:610 20:336 21:981 22:48 23:2732 24:8 25:2733 26:536 27:775 28:954 29:705 30:525 31:750 32:1425 33:429 34:2705 35:309 36:619 37:423 38:189 39:1337 40:37 41:1341 42:205 43:404 44:237 45:338 46:275 47:419 48:732 49:478 50:2442 51:378 52:825 53:506 54:210 55:1070 56:146 57:1176 58:165 59:441 60:133 61:482 62:289 63:467 64:790 65:1139 66:7278 67:972 68:1656 69:947 70:92 71:2326 72:25 73:2022 74:170 75:827 76:37 77:775 78:248 79:991 80:495 
1 1:1194 2:831 3:636 4:5281 5:695 6:585 7:542 8:1340 9:721 10:1955 11:1301 12:0 13:2748 14:0 15:2163 16:8 17:1729 18:1246 19:705 20:6768 21:517 22:499 23:1284 24:181 25:1962 26:1253 27:1102 28:30 29:859 30:15 31:1841 32:8 33:982 34:444 35:241 36:3983 37:285 38:196 39:771 40:139 41:718 42:217 43:345 44:7 45:465 46:3 47:1193 48:11 49:399 50:507 51:197 52:4192 53:268 54:271 55:962 56:22 57:1250 58:1 59:550 60:1 61:597 62:1 63:778 64:5 65:1254 66:1982 67:781 68:7773 69:1016 70:81 71:2108 72:18 73:1967 74:132 75:754 76:14 77:944 78:0 79:1175 80:0 
1 1:1194 2:831 3:636 4:5281 5:695 6:585 7:542 8:1340 9:721 10:1955 11:1301 12:0 13:2748 14:0 15:2163 16:8 17:1729 18:1246 19:705 20:6768 21:517 22:499 23:1284 24:181 25:1962 26:1253 27:1102 28:30 29:859 30:15 31:1841 32:8 33:982 34:444 35:241 36:3983 37:285 38:196 39:771 40:139 41:718 42:217 43:345 44:7 45:465 46:3 47:1193 48:11 49:399 50:507 51:197 52:4192 53:268 54:271 55:962 56:22 57:1250 58:1 59:550 60:1 61:597 62:1 63:778 64:5 65:1254 66:1982 67:781 68:7773 69:1016 70:81 71:2108 72:18 73:1967 74:132 75:754 76:14 77:944 78:0 79:1175 80:0 
1 1:1277 2:7657 3:780 4:1475 5:883 6:33 7:600 8:226 9:633 10:520 11:1694 12:20 13:2048 14:0 15:2086 16:70 17:1906 18:5986 19:618 20:2272 21:737 22:68 23:1170 24:61 25:1642 26:1238 27:1226 28:67 29:920 30:135 31:1781 32:174 33:951 34:2153 35:227 36:2337 37:265 38:106 39:697 40:94 41:881 42:151 43:405 44:19 45:411 46:14 47:1162 48:127 49:573 50:2349 51:235 52:1995 53:380 54:130 55:842 56:20 57:1081 58:388 59:688 60:19 61:542 62:15 63:659 64:84 65:1079 66:6739 67:825 68:2896 69:761 70:28 71:2411 72:17 73:2244 74:250 75:683 76:20 77:717 78:8 79:1280 80:44 
1 1:1277 2:7657 3:780 4:1475 5:883 6:33 7:600 8:226 9:633 10:520 11:1694 12:20 13:2048 14:0 15:2086 16:70 17:1906 18:5986 19:618 20:2272 21:737 22:68 23:1170 24:61 25:1642 26:1238 27:1226 28:67 29:920 30:135 31:1781 32:174 33:951 34:2153 35:227 36:2337 37:265 38:106 39:697 40:94 41:881 42:151 43:405 44:19 45:411 46:14 47:1162 48:127 49:573 50:2349 51:235 52:1995 53:380 54:130 55:842 56:20 57:1081 58:388 59:688 60:19 61:542 62:15 63:659 64:84 65:1079 66:6739 67:825 68:2896 69:761 70:28 71:2411 72:17 73:2244 74:250 75:683 76:20 77:717 78:8 79:1280 80:44 
0.1935980357091815 1:633 2:1845 3:346 4:1321 5:825 6:5 7:1841 8:18 9:4731 10:1385 11:839 12:121 13:264 14:209 15:521 16:5096 17:937 18:3549 19:803 20:965 21:1066 22:203 23:1953 24:328 25:2484 26:2057 27:878 28:211 29:941 30:74 31:938 32:2613 33:463 34:1923 35:441 36:472 37:678 38:166 39:1128 40:70 41:785 42:460 43:557 44:213 45:429 46:55 47:519 48:1641 49:622 50:1604 51:454 52:1053 53:576 54:208 55:605 56:9 57:892 58:62 59:616 60:26 61:471 62:16 63:763 64:2022 65:947 66:3796 67:721 68:2365 69:1293 70:16 71:1753 72:13 73:2047 74:1331 75:1162 76:172 77:1160 78:138 79:917 80:2169 
1 1:2247 2:4491 3:873 4:5004 5:670 6:58 7:1090 8:30 9:957 10:353 11:839 12:64 13:1356 14:0 15:1968 16:0 17:1426 18:880 19:1455 20:3829 21:1042 22:282 23:1257 24:129 25:1234 26:4836 27:1275 28:7 29:820 30:20 31:1491 32:16 33:1091 34:1160 35:500 36:1126 37:460 38:570 39:558 40:463 41:483 42:1655 43:353 44:3 45:527 46:0 47:1029 48:22 49:728 50:1915 51:493 52:1540 53:712 54:634 55:700 56:218 57:503 58:498 59:491 60:87 61:571 62:15 63:801 64:92 65:1299 66:3153 67:964 68:2052 69:1567 70:1741 71:1601 72:885 73:1227 74:1870 75:947 76:222 77:1129 78:24 79:1265 80:52 
1 1:508 2:3 3:375 4:5 5:682 6:0 7:3402 8:17 9:4034 10:9290 11:485 12:682 13:310 14:3 15:205 16:0 17:1532 18:1577 19:825 20:245 21:1291 22:89 23:1688 24:182 25:1433 26:5078 27:1099 28:2497 29:805 30:131 31:1327 32:201 33:1028 34:2082 35:460 36:195 37:474 38:2 39:561 40:45 41:628 42:1516 43:549 44:351 45:435 46:40 47:866 48:768 49:513 50:760 51:299 52:1196 53:348 54:876 55:820 56:67 57:1448 58:1832 59:858 60:215 61:324 62:24 63:390 64:31 65:1870 66:2999 67:476 68:1396 69:628 70:66 71:1799 72:45 73:2793 74:4252 75:983 76:668 77:635 78:203 79:815 80:371 
1 1:524 2:6 3:340 4:9 5:485 6:11 7:3311 8:29 9:3920 10:9729 11:590 12:215 13:385 14:1 15:445 16:0 17:1805 18:1888 19:939 20:425 21:1192 22:77 23:1181 24:258 25:1190 26:5942 27:865 28:1164 29:745 30:20 31:2082 32:227 33:532 34:945 35:350 36:904 37:383 38:833 39:817 40:25 41:1410 42:1798 43:729 44:118 45:392 46:9 47:387 48:368 49:723 50:1548 51:297 52:820 53:341 54:449 55:1021 56:17 57:1233 58:1899 59:456 60:136 61:334 62:45 63:595 64:87 65:1376 66:1244 67:663 68:97 69:702 70:112 71:1566 72:160 73:2889 74:7031 75:1107 76:912 77:541 78:177 79:1157 80:266 
1 1:2398 2:9 3:430 4:24 5:391 6:2 7:1889 8:20 9:1594 10:9892 11:545 12:49 13:491 14:4 15:2262 16:1 17:1661 18:16 19:932 20:451 21:1153 22:122 23:1489 24:78 25:971 26:9099 27:675 28:234 29:814 30:0 31:2305 32:0 33:1072 34:319 35:424 36:133 37:362 38:169 39:567 40:137 41:541 42:3502 43:392 44:157 45:448 46:13 47:1195 48:571 49:487 50:424 51:346 52:198 53:471 54:361 55:859 56:990 57:1208 58:2557 59:537 60:334 61:595 62:38 63:497 64:98 65:1220 66:1544 67:588 68:23 69:965 70:13 71:1531 72:1747 73:2561 74:2569 75:1461 76:3668 77:692 78:93 79:982 80:342 
1 1:759 2:224 3:853 4:492 5:1750 6:567 7:3391 8:394 9:1526 10:8262 11:637 12:47 13:578 14:0 15:505 16:14 17:1514 18:941 19:696 20:1155 21:1001 22:52 23:996 24:42 25:1097 26:4230 27:590 28:3569 29:1184 30:1 31:2923 32:9 33:793 34:429 35:266 36:188 37:457 38:139 39:885 40:155 41:615 42:2842 43:441 44:1186 45:538 46:11 47:1006 48:50 49:834 50:934 51:425 52:77 53:577 54:25 55:757 56:75 57:601 58:3368 59:351 60:480 61:464 62:16 63:990 64:25 65:1515 66:3546 67:632 68:345 69:1055 70:39 71:1529 72:118 73:1179 74:3573 75:747 76:649 77:594 78:52 79:2749 80:1679 
1 1:4330 2:8085 3:524 4:215 5:774 6:55 7:664 8:5 9:741 10:152 11:468 12:544 13:437 14:109 15:2062 16:836 17:920 18:746 19:830 20:1388 21:1055 22:6939 23:1298 24:382 25:1945 26:146 27:1843 28:226 29:1258 30:125 31:852 32:48 33:742 34:2335 35:419 36:600 37:1182 38:878 39:720 40:105 41:418 42:350 43:322 44:186 45:400 46:292 47:797 48:253 49:466 50:574 51:454 52:240 53:1441 54:686 55:1235 56:1346 57:491 58:1134 59:298 60:354 61:281 62:149 63:335 64:517 65:1926 66:279 67:945 68:832 69:996 70:4984 71:1122 72:28 73:1234 74:769 75:1134 76:731 77:1064 78:1152 79:1577 80:1225 
1 1:2036 2:8282 3:349 4:166 5:406 6:0 7:317 8:0 9:424 10:390 11:503 12:868 13:2638 14:181 15:3326 16:113 17:764 18:8675 19:706 20:806 21:1459 22:367 23:1768 24:18 25:1176 26:56 27:1158 28:44 29:1551 30:15 31:1418 32:18 33:454 34:2630 35:427 36:695 37:562 38:1475 39:574 40:7 41:884 42:81 43:699 44:28 45:733 46:39 47:669 48:45 49:335 50:4250 51:330 52:83 53:644 54:15 55:842 56:18 57:912 58:379 59:977 60:156 61:584 62:50 63:375 64:50 65:789 66:8053 67:583 68:11 69:1523 70:0 71:1461 72:0 73:2184 74:1020 75:2065 76:532 77:787 78:79 79:610 80:306 
1 1:2352 2:3519 3:1117 4:2028 5:813 6:362 7:774 8:4 9:646 10:2 11:671 12:0 13:913 14:11 15:2713 16:4074 17:929 18:2383 19:969 20:4359 21:1355 22:1470 23:1656 24:83 25:1419 26:1249 27:1314 28:3 29:1065 30:0 31:1292 32:453 33:572 34:3001 35:433 36:423 37:612 38:5 39:928 40:14 41:856 42:1059 43:622 44:76 45:464 46:19 47:515 48:402 49:576 50:2764 51:520 52:40 53:568 54:16 55:687 56:17 57:945 58:335 59:600 60:56 61:542 62:25 63:561 64:1747 65:1674 66:2031 67:1381 68:141 69:907 70:6 71:1406 72:12 73:1650 74:930 75:1010 76:235 77:870 78:54 79:1101 80:6591 
1 1:1509 2:1 3:932 4:7 5:1048 6:3 7:1817 8:3 9:1585 10:5956 11:614 12:1813 13:841 14:1151 15:1654 16:1067 17:1390 18:176 19:1023 20:1 21:1879 22:2 23:1888 24:46 25:1226 26:5519 27:539 28:1486 29:594 30:924 31:1460 32:1845 33:891 34:959 35:562 36:144 37:533 38:2 39:812 40:2 41:729 42:1533 43:359 44:1113 45:380 46:352 47:735 48:895 49:726 50:1544 51:728 52:45 53:680 54:4 55:589 56:7 57:523 58:1355 59:452 60:889 61:484 62:502 63:818 64:652 65:1271 66:8713 67:1825 68:189 69:1306 70:7 71:890 72:1 73:678 74:250 75:849 76:125 77:1526 78:75 79:1653 80:639 
1 1:1268 2:4391 3:914 4:156 5:846 6:11 7:2173 8:3 9:1560 10:244 11:1069 12:340 13:1032 14:806 15:1138 16:4049 17:1041 18:8146 19:978 20:965 21:1258 22:182 23:1612 24:35 25:1666 26:44 27:1204 28:0 29:1081 30:0 31:1161 32:628 33:700 34:3327 35:543 36:698 37:683 38:18 39:967 40:15 41:619 42:30 43:473 44:71 45:409 46:63 47:607 48:778 49:608 50:2889 51:424 52:11 53:478 54:6 55:697 56:2 57:663 58:871 59:585 60:369 61:793 62:219 63:752 64:633 65:861 66:8710 67:693 68:469 69:909 70:0 71:2846 72:0 73:2014 74:4 75:1230 76:172 77:764 78:117 79:682 80:529 
1 1:548 2:1951 3:769 4:1902 5:1447 6:30 7:2573 8:46 9:2355 10:5258 11:871 12:708 13:808 14:46 15:629 16:60 17:1757 18:3726 19:983 20:521 21:866 22:18 23:1015 24:24 25:1004 26:1627 27:852 28:3226 29:1281 30:516 31:2242 32:342 33:754 34:3230 35:494 36:111 37:572 38:1 39:537 40:1 41:533 42:561 43:618 44:860 45:767 46:118 47:725 48:118 49:702 50:2559 51:498 52:198 53:388 54:8 55:668 56:11 57:737 58:1083 59:593 60:843 61:690 62:141 63:724 64:157 65:1444 66:839 67:854 68:502 69:895 70:65 71:1528 72:81 73:1771 74:7057 75:1275 76:1426 77:968 78:19 79:1266 80:12 
1 1:700 2:1134 3:1142 4:95 5:1471 6:74 7:2150 8:489 9:2481 10:6047 11:1060 12:1360 13:582 14:300 15:413 16:501 17:1511 18:4091 19:844 20:5046 21:1066 22:682 23:1214 24:53 25:1614 26:38 27:1005 28:7 29:892 30:1 31:1854 32:83 33:419 34:1466 35:455 36:2176 37:590 38:331 39:1143 40:60 41:1017 42:169 43:592 44:49 45:343 46:68 47:441 48:681 49:427 50:1094 51:455 52:661 53:576 54:405 55:1037 56:164 57:1067 58:633 59:595 60:947 61:459 62:252 63:384 64:844 65:795 66:1367 67:846 68:307 69:1238 70:164 71:2741 72:277 73:2451 74:3992 75:829 76:2019 77:659 78:913 79:441 80:962 
1 1:1444 2:6641 3:727 4:1658 5:838 6:172 7:2270 8:301 9:2502 10:521 11:503 12:10 13:595 14:23 15:1120 16:674 17:2461 18:4836 19:1702 20:3204 21:1516 22:1369 23:720 24:304 25:623 26:208 27:684 28:10 29:706 30:14 31:1589 32:55 33:1309 34:1184 35:1288 36:1220 37:413 38:552 39:394 40:888 41:417 42:840 43:283 44:168 45:338 46:35 47:557 48:112 49:759 50:2232 51:441 52:409 53:389 54:84 55:594 56:323 57:750 58:1379 59:613 60:134 61:610 62:90 63:844 64:350 65:1142 66:7454 67:1668 68:313 69:1264 70:45 71:1310 72:96 73:1387 74:357 75:1395 76:136 77:1066 78:189 79:768 80:1411 
1 1:572 2:2406 3:1080 4:390 5:1039 6:104 7:1483 8:67 9:1648 10:1135 11:1939 12:109 13:1625 14:9 15:614 16:5781 17:1319 18:3352 19:969 20:552 21:1144 22:112 23:1483 24:160 25:1894 26:2089 27:874 28:454 29:963 30:241 31:1354 32:3040 33:511 34:1817 35:497 36:115 37:488 38:35 39:823 40:104 41:993 42:1155 43:576 44:583 45:617 46:109 47:495 48:1082 49:696 50:2839 51:623 52:230 53:571 54:57 55:688 56:26 57:638 58:363 59:518 60:117 61:574 62:55 63:692 64:1313 65:2118 66:1742 67:1064 68:2590 69:1093 70:289 71:918 72:736 73:912 74:3196 75:750 76:96 77:1152 78:94 79:1993 80:1259 
1 1:412 2:615 3:445 4:932 5:744 6:231 7:3181 8:143 9:3367 10:1691 11:804 12:6239 13:509 14:35 15:538 16:115 17:1301 18:1646 19:789 20:1756 21:1027 22:853 23:1835 24:1244 25:1557 26:2659 27:1004 28:731 29:963 30:39 31:1527 32:1072 33:529 34:2934 35:598 36:755 37:602 38:118 39:870 40:65 41:870 42:728 43:600 44:121 45:463 46:59 47:467 48:220 49:567 50:1383 51:490 52:435 53:598 54:140 55:920 56:37 57:850 58:2220 59:530 60:619 61:474 62:45 63:571 64:122 65:1507 66:369 67:1017 68:506 69:882 70:210 71:1391 72:189 73:1387 74:7216 75:1049 76:727 77:1121 78:57 79:1646 80:726 
1 1:346 2:0 3:248 4:4248 5:745 6:4387 7:2453 8:941 9:2211 10:424 11:870 12:0 13:1883 14:0 15:1245 16:0 17:1967 18:1536 19:996 20:4382 21:744 22:1078 23:1297 24:1077 25:1342 26:1891 27:622 28:33 29:962 30:0 31:2071 32:3 33:1055 34:254 35:464 36:3321 37:356 38:390 39:630 40:349 41:639 42:679 43:365 44:6 45:481 46:0 47:1009 48:2 49:846 50:300 51:382 52:3090 53:388 54:251 55:798 56:270 57:935 58:1017 59:411 60:65 61:499 62:4 63:740 64:4 65:2626 66:1924 67:1004 68:2274 69:905 70:1103 71:1189 72:1358 73:1020 74:3260 75:633 76:33 77:792 78:0 79:1832 80:49 
1 1:639 2:0 3:331 4:4 5:815 6:107 7:2310 8:304 9:4176 10:9461 11:616 12:124 13:398 14:0 15:715 16:0 17:1113 18:4165 19:483 20:1868 21:718 22:304 23:2315 24:320 25:2080 26:2039 27:612 28:51 29:781 30:19 31:1899 32:1234 33:613 34:2635 35:279 36:575 37:389 38:31 39:1232 40:25 41:1139 42:869 43:337 44:331 45:445 46:40 47:566 48:494 49:526 50:2992 51:242 52:99 53:407 54:1 55:1438 56:2 57:1271 58:1061 59:365 60:116 61:304 62:32 63:448 64:698 65:1875 66:5131 67:686 68:410 69:998 70:168 71:1981 72:556 73:2058 74:3003 75:848 76:363 77:521 78:113 79:1033 80:257 
1 1:933 2:47 3:670 4:390 5:607 6:1531 7:1614 8:2596 9:2076 10:5426 11:1078 12:10 13:1851 14:0 15:1171 16:0 17:1500 18:2656 19:929 20:2257 21:1323 22:1390 23:1466 24:2747 25:1628 26:946 27:1008 28:3 29:835 30:0 31:1310 32:2 33:672 34:1365 35:399 36:130 37:586 38:373 39:687 40:493 41:830 42:2112 43:515 44:158 45:586 46:154 47:725 48:215 49:671 50:339 51:335 52:210 53:408 54:337 55:899 56:368 57:1059 58:2154 59:479 60:742 61:480 62:716 63:668 64:135 65:1778 66:5901 67:1060 68:1986 69:991 70:619 71:1218 72:424 73:1324 74:651 75:847 76:125 77:1045 78:71 79:1738 80:223 
1 1:1319 2:5347 3:1949 4:1030 5:1573 6:320 7:812 8:174 9:732 10:2901 11:910 12:91 13:1930 14:0 15:775 16:137 17:1166 18:7982 19:1272 20:811 21:1822 22:123 23:1519 24:205 25:1356 26:719 27:1015 28:45 29:766 30:16 31:1083 32:99 33:581 34:3876 35:617 36:401 37:536 38:54 39:833 40:41 41:987 42:315 43:451 44:121 45:517 46:46 47:477 48:145 49:696 50:1776 51:646 52:339 53:434 54:36 55:481 56:34 57:730 58:2290 59:442 60:294 61:696 62:115 63:876 64:115 65:1797 66:1034 67:1161 68:301 69:1669 70:419 71:571 72:378 73:610 74:7658 75:1423 76:141 77:1439 78:30 79:1330 80:39 
1 1:705 2:4431 3:609 4:5346 5:620 6:49 7:528 8:36 9:657 10:92 11:626 12:46 13:2755 14:0 15:3501 16:1 17:578 18:1638 19:418 20:3062 21:618 22:437 23:1047 24:734 25:1130 26:3591 27:1396 28:519 29:3179 30:2 31:1634 32:16 33:715 34:1152 35:197 36:701 37:216 38:84 39:312 40:122 41:457 42:2528 43:518 44:297 45:1670 46:42 47:916 48:75 49:746 50:1604 51:729 52:516 53:647 54:655 55:620 56:62 57:735 58:1674 59:557 60:285 61:420 62:67 63:546 64:138 65:1477 66:1428 67:3413 68:812 69:1801 70:425 71:686 72:625 73:865 74:4741 75:434 76:1620 77:369 78:134 79:954 80:215 
1 1:1333 2:1868 3:585 4:1406 5:693 6:98 7:253 8:108 9:274 10:5534 11:372 12:841 13:2500 14:31 15:3990 16:115 17:793 18:1342 19:2528 20:2281 21:1974 22:1107 23:1475 24:1632 25:1112 26:3115 27:851 28:291 29:617 30:97 31:650 32:135 33:484 34:475 35:852 36:980 37:515 38:179 39:412 40:277 41:487 42:2719 43:335 44:276 45:1037 46:41 47:879 48:52 49:776 50:2077 51:337 52:484 53:470 54:217 55:753 56:36 57:809 58:1601 59:394 60:350 61:403 62:126 63:1058 64:109 65:1139 66:3243 67:1289 68:880 69:2305 70:283 71:1289 72:296 73:1376 74:4129 75:1039 76:772 77:801 78:130 79:762 80:266 
1 1:1500 2:3150 3:912 4:2767 5:680 6:111 7:359 8:89 9:384 10:3457 11:643 12:255 13:2569 14:89 15:2953 16:82 17:532 18:1019 19:855 20:2657 21:3256 22:1650 23:1874 24:1368 25:1275 26:3134 27:772 28:101 29:721 30:16 31:714 32:54 33:464 34:826 35:1116 36:896 37:1039 38:150 39:783 40:148 41:551 42:2552 43:388 44:331 45:313 46:46 47:344 48:50 49:663 50:313 51:876 52:697 53:568 54:102 55:594 56:47 57:535 58:3154 59:401 60:613 61:727 62:34 63:636 64:39 65:1653 66:4220 67:777 68:1571 69:789 70:413 71:1530 72:22 73:1761 74:2827 75:807 76:597 77:751 78:197 79:1933 80:153 
0.2940289071139146 1:776 2:5902 3:756 4:4094 5:1079 6:0 7:2525 8:1 9:2429 10:0 11:1073 12:0 13:663 14:0 15:699 16:3 17:784 18:1731 19:690 20:7825 21:1346 22:292 23:2343 24:72 25:2215 26:53 27:802 28:11 29:723 30:3 31:1097 32:13 33:482 34:682 35:470 36:3660 37:483 38:413 39:1249 40:86 41:1135 42:149 43:293 44:9 45:321 46:0 47:566 48:1 49:655 50:1193 51:456 52:2484 53:499 54:87 55:1172 56:72 57:893 58:828 59:391 60:288 61:312 62:27 63:622 64:22 65:808 66:4921 67:582 68:2934 69:984 70:139 71:2059 72:76 73:2443 74:711 75:982 76:965 77:1158 78:137 79:985 80:117 
1 1:817 2:4501 3:616 4:2496 5:991 6:146 7:1708 8:133 9:2547 10:2547 11:1356 12:141 13:1044 14:20 15:921 16:17 17:847 18:1732 19:676 20:3652 21:1451 22:70 23:2594 24:82 25:1951 26:3501 27:894 28:886 29:640 30:18 31:946 32:60 33:346 34:800 35:446 36:1085 37:986 38:13 39:918 40:13 41:997 42:2104 43:527 44:866 45:353 46:90 47:428 48:28 49:593 50:1712 51:549 52:516 53:696 54:5 55:809 56:13 57:967 58:2679 59:486 60:58 61:344 62:5 63:557 64:12 65:1307 66:4316 67:1133 68:529 69:1301 70:6 71:1644 72:17 73:2094 74:4712 75:1058 76:352 77:712 78:41 79:750 80:28 
1 1:179 2:1065 3:199 4:53 5:1628 6:27 7:4426 8:154 9:2205 10:6422 11:787 12:1087 13:311 14:729 15:265 16:463 17:1316 18:8081 19:813 20:258 21:1062 22:111 23:1697 24:172 25:1708 26:376 27:789 28:100 29:822 30:335 31:1793 32:569 33:617 34:2268 35:230 36:6 37:458 38:95 39:1041 40:30 41:1415 42:120 43:351 44:1078 45:272 46:771 47:616 48:632 49:986 50:665 51:198 52:190 53:407 54:330 55:901 56:88 57:1053 58:904 59:311 60:1203 61:228 62:1171 63:915 64:450 65:1614 66:687 67:372 68:48 69:690 70:28 71:1708 72:524 73:2632 74:7772 75:975 76:763 77:519 78:67 79:1491 80:111 
0.7760884096895075 1:480 2:7122 3:584 4:1255 5:596 6:2 7:907 8:1 9:1732 10:334 11:3200 12:867 13:1980 14:245 15:521 16:174 17:2564 18:4405 19:699 20:3394 21:773 22:117 23:735 24:49 25:1082 26:69 27:1009 28:145 29:910 30:153 31:2228 32:1668 33:855 34:2049 35:490 36:837 37:783 38:50 39:456 40:26 41:508 42:228 43:731 44:305 45:478 46:262 47:699 48:1244 49:823 50:1587 51:562 52:654 53:546 54:82 55:539 56:86 57:577 58:1315 59:644 60:578 61:682 62:262 63:626 64:438 65:1162 66:3829 67:1181 68:4906 69:1272 70:353 71:1397 72:95 73:1766 74:331 75:1069 76:37 77:965 78:24 79:1188 80:425 
1 1:640 2:876 3:638 4:1391 5:623 6:315 7:1808 8:393 9:1289 10:4775 11:2067 12:664 13:1196 14:211 15:1739 16:1375 17:1997 18:747 19:746 20:2504 21:876 22:1685 23:1463 24:1240 25:1834 26:1943 27:958 28:118 29:629 30:11 31:1498 32:1751 33:959 34:351 35:401 36:1025 37:659 38:333 39:532 40:478 41:648 42:1612 43:737 44:326 45:375 46:62 47:688 48:811 49:634 50:396 51:420 52:666 53:551 54:304 55:654 56:942 57:644 58:2198 59:864 60:221 61:653 62:32 63:580 64:242 65:791 66:909 67:1470 68:4145 69:1764 70:1562 71:1542 72:2286 73:1153 74:722 75:1034 76:30 77:1306 78:27 79:941 80:320 
1 1:943 2:1059 3:1164 4:2274 5:1201 6:2260 7:1173 8:3835 9:1325 10:560 11:908 12:8 13:2099 14:1 15:1186 16:2 17:1232 18:1137 19:819 20:180 21:916 22:97 23:1051 24:515 25:996 26:6191 27:1181 28:162 29:2288 30:47 31:1517 32:1672 33:522 34:468 35:415 36:55 37:625 38:6 39:888 40:157 41:891 42:2313 43:608 44:359 45:541 46:68 47:510 48:1575 49:493 50:890 51:403 52:120 53:891 54:25 55:760 56:284 57:634 58:2048 59:804 60:428 61:513 62:134 63:502 64:1072 65:1061 66:7870 67:874 68:545 69:1818 70:63 71:1547 72:124 73:1255 74:318 75:1608 76:168 77:903 78:158 79:934 80:753 
1 1:1387 2:1046 3:1516 4:39 5:1352 6:5 7:1492 8:24 9:2086 10:59 11:552 12:10 13:641 14:13 15:974 16:8805 17:882 18:3627 19:683 20:392 21:1577 22:126 23:2183 24:230 25:1507 26:1736 27:1271 28:88 29:701 30:56 31:1196 32:3746 33:502 34:1391 35:336 36:130 37:628 38:12 39:887 40:52 41:913 42:1864 43:853 44:167 45:333 46:81 47:548 48:1304 49:630 50:183 51:503 52:235 53:635 54:25 55:862 56:213 57:802 58:3736 59:498 60:354 61:511 62:80 63:559 64:175 65:1185 66:4990 67:1501 68:1359 69:1341 70:123 71:739 72:490 73:696 74:2445 75:830 76:63 77:2076 78:23 79:1632 80:506 
1 1:1300 2:32 3:607 4:185 5:607 6:176 7:490 8:466 9:1092 10:3526 11:2861 12:5033 13:1050 14:572 15:1992 16:9 17:2237 18:2878 19:774 20:1202 21:688 22:830 23:1029 24:408 25:1712 26:909 27:813 28:564 29:713 30:157 31:2034 32:3052 33:845 34:1484 35:458 36:589 37:332 38:175 39:440 40:108 41:759 42:364 43:634 44:1183 45:619 46:553 47:912 48:544 49:678 50:1744 51:462 52:177 53:485 54:73 55:614 56:199 57:598 58:1193 59:593 60:1264 61:895 62:99 63:674 64:252 65:1479 66:1831 67:986 68:215 69:1039 70:188 71:1286 72:517 73:1289 74:5114 75:1045 76:1729 77:1168 78:104 79:1708 80:300 
1 1:1283 2:791 3:712 4:1133 5:802 6:549 7:1094 8:771 9:1408 10:6106 11:1052 12:499 13:1741 14:52 15:1906 16:100 17:1705 18:4332 19:989 20:2282 21:790 22:137 23:1203 24:148 25:1219 26:2290 27:1034 28:449 29:1218 30:232 31:1841 32:130 33:771 34:1770 35:462 36:382 37:426 38:5 39:728 40:19 41:768 42:2295 43:491 44:361 45:561 46:62 47:793 48:106 49:597 50:886 51:610 52:204 53:528 54:122 55:716 56:76 57:872 58:2388 59:507 60:656 61:525 62:191 63:645 64:477 65:876 66:1275 67:667 68:676 69:958 70:205 71:1839 72:1247 73:1763 74:4071 75:998 76:1831 77:1407 78:296 79:1493 80:399 
1 1:344 2:9 3:297 4:42 5:532 6:84 7:2544 8:139 9:1560 10:9708 11:3801 12:17 13:570 14:0 15:352 16:0 17:1959 18:1705 19:789 20:2305 21:993 22:862 23:912 24:720 25:1044 26:4035 27:854 28:273 29:839 30:28 31:2610 32:72 33:813 34:1610 35:639 36:413 37:490 38:12 39:675 40:63 41:715 42:2573 43:492 44:199 45:488 46:25 47:688 48:106 49:777 50:1513 51:537 52:468 53:494 54:51 55:744 56:104 57:716 58:2525 59:541 60:278 61:526 62:16 63:665 64:46 65:1837 66:1598 67:1363 68:275 69:878 70:33 71:1106 72:153 73:1078 74:6494 75:861 76:1215 77:1222 78:105 79:1655 80:127 
1 1:312 2:0 3:764 4:0 5:2263 6:0 7:1365 8:159 9:4059 10:9841 11:660 12:0 13:429 14:0 15:147 16:0 17:1684 18:704 19:1298 20:891 21:828 22:196 23:1076 24:955 25:1277 26:6737 27:926 28:429 29:1091 30:26 31:1819 32:62 33:749 34:993 35:456 36:884 37:480 38:82 39:732 40:230 41:824 42:2109 43:465 44:680 45:490 46:3 47:805 48:18 49:707 50:1332 51:541 52:1073 53:615 54:243 55:671 56:345 57:798 58:1786 59:544 60:209 61:500 62:7 63:623 64:5 65:2284 66:1352 67:1175 68:1475 69:965 70:1156 71:1151 72:770 73:953 74:4555 75:778 76:411 77:837 78:54 79:1857 80:227 
1 1:636 2:749 3:988 4:526 5:1613 6:191 7:2427 8:419 9:3111 10:5012 11:450 12:2966 13:375 14:92 15:401 16:45 17:1256 18:6224 19:1128 20:1177 21:1135 22:145 23:1551 24:119 25:1543 26:1656 27:1008 28:312 29:1155 30:93 31:1223 32:274 33:696 34:3220 35:547 36:235 37:499 38:48 39:736 40:102 41:663 42:951 43:580 44:317 45:595 46:37 47:682 48:91 49:874 50:1482 51:534 52:645 53:593 54:63 55:470 56:58 57:546 58:2046 59:469 60:325 61:603 62:78 63:912 64:304 65:1344 66:4992 67:962 68:967 69:1035 70:85 71:1360 72:122 73:1454 74:3160 75:1374 76:396 77:1232 78:73 79:1240 80:206 
1 1:1514 2:2293 3:1223 4:460 5:1030 6:352 7:1037 8:656 9:1299 10:5719 11:1118 12:174 13:1204 14:115 15:1576 16:231 17:1441 18:5321 19:1245 20:1157 21:1263 22:225 23:1280 24:534 25:1269 26:1828 27:993 28:154 29:1154 30:141 31:1356 32:639 33:698 34:2382 35:611 36:206 37:654 38:69 39:672 40:91 41:644 42:1037 43:543 44:227 45:499 46:117 47:679 48:870 49:811 50:3518 51:551 52:228 53:501 54:49 55:557 56:173 57:645 58:272 59:499 60:76 61:641 62:47 63:795 64:638 65:1801 66:6063 67:888 68:1017 69:1050 70:253 71:955 72:585 73:1183 74:584 75:1139 76:103 77:1093 78:115 79:1891 80:1280 
1 1:628 2:1324 3:458 4:1701 5:2902 6:643 7:1016 8:34 9:2059 10:0 11:1637 12:1133 13:1004 14:2405 15:295 16:2759 17:1245 18:4903 19:1377 20:1674 21:972 22:2789 23:1023 24:401 25:1215 26:83 27:1267 28:0 29:985 30:4 31:1916 32:147 33:771 34:4308 35:660 36:311 37:447 38:22 39:456 40:4 41:538 42:15 43:606 44:9 45:750 46:16 47:773 48:315 49:493 50:4531 51:522 52:96 53:635 54:4 55:616 56:1 57:622 58:112 59:614 60:2 61:796 62:8 63:702 64:246 65:1316 66:8984 67:917 68:28 69:1873 70:1 71:2417 72:0 73:1373 74:0 75:905 76:7 77:655 78:53 79:544 80:927 
1 1:1660 2:1306 3:816 4:4715 5:900 6:694 7:1186 8:942 9:909 10:2101 11:640 12:231 13:910 14:7 15:2978 16:4 17:1886 18:667 19:897 20:2171 21:1072 22:2166 23:1765 24:1464 25:513 26:3455 27:356 28:65 29:784 30:0 31:2727 32:11 33:314 34:133 35:218 36:945 37:471 38:1483 39:2001 40:312 41:925 42:2073 43:299 44:54 45:153 46:0 47:620 48:1 49:340 50:210 51:277 52:2188 53:717 54:2150 55:1919 56:252 57:859 58:169 59:354 60:11 61:287 62:9 63:247 64:9 65:657 66:3920 67:743 68:1234 69:1148 70:309 71:2693 72:230 73:1969 74:2244 75:1605 76:363 77:696 78:350 79:488 80:1349 
1 1:181 2:3415 3:2126 4:490 5:6388 6:348 7:510 8:1797 9:290 10:3951 11:207 12:0 13:191 14:0 15:107 16:0 17:912 18:3862 19:1087 20:920 21:2518 22:1428 23:1578 24:1773 25:1246 26:1709 27:878 28:143 29:740 30:29 31:1041 32:135 33:736 34:2842 35:521 36:550 37:680 38:190 39:970 40:427 41:697 42:535 43:358 44:282 45:406 46:36 47:632 48:139 49:541 50:510 51:452 52:103 53:715 54:49 55:1144 56:399 57:669 58:2376 59:480 60:892 61:396 62:104 63:602 64:568 65:1048 66:158 67:886 68:67 69:1687 70:24 71:2023 72:257 73:1533 74:9068 75:1015 76:341 77:834 78:60 79:975 80:24 
1 1:1827 2:2198 3:1861 4:3091 5:1108 6:145 7:274 8:71 9:230 10:2669 11:940 12:1773 13:2210 14:35 15:1551 16:18 17:834 18:2516 19:715 20:1158 21:897 22:680 23:1505 24:880 25:1678 26:2347 27:1813 28:2220 29:1176 30:88 31:1383 32:112 33:1099 34:1675 35:547 36:347 37:270 38:150 39:421 40:196 41:371 42:796 43:375 44:626 45:800 46:72 47:1116 48:1138 49:924 50:1280 51:907 52:80 53:503 54:9 55:438 56:10 57:337 58:489 59:513 60:461 61:611 62:48 63:767 64:2622 65:1106 66:4586 67:909 68:723 69:1845 70:369 71:1400 72:825 73:1240 74:625 75:836 76:331 77:1442 78:129 79:1221 80:2412 
1 1:1220 2:4639 3:1439 4:854 5:1223 6:99 7:726 8:75 9:985 10:1305 11:1669 12:1290 13:1502 14:871 15:1236 16:867 17:1037 18:6380 19:882 20:1590 21:1539 22:270 23:1772 24:332 25:1823 26:920 27:1130 28:232 29:696 30:20 31:1121 32:255 33:719 34:712 35:617 36:10 37:610 38:6 39:599 40:19 41:646 42:1329 43:628 44:182 45:544 46:22 47:637 48:2721 49:704 50:1472 51:507 52:41 53:599 54:25 55:510 56:64 57:500 58:715 59:547 60:371 61:799 62:121 63:834 64:2192 65:1700 66:4568 67:972 68:396 69:1299 70:925 71:1432 72:815 73:1442 74:2833 75:877 76:141 77:922 78:71 79:1356 80:251 
1 1:1345 2:595 3:719 4:701 5:2576 6:2014 7:1620 8:4757 9:896 10:829 11:403 12:1047 13:527 14:33 15:1914 16:25 17:1581 18:7209 19:700 20:20 21:754 22:0 23:1199 24:0 25:1103 26:106 27:789 28:372 29:1312 30:418 31:2563 32:1875 33:907 34:2157 35:548 36:371 37:429 38:33 39:449 40:0 41:556 42:1 43:552 44:46 45:652 46:310 47:907 48:2081 49:506 50:1387 51:362 52:1810 53:507 54:121 55:759 56:10 57:824 58:55 59:584 60:467 61:685 62:224 63:773 64:925 65:1015 66:4184 67:733 68:5216 69:1009 70:119 71:1932 72:227 73:1947 74:0 75:1353 76:0 77:1017 78:0 79:994 80:254 
1 1:976 2:1928 3:1143 4:174 5:1365 6:737 7:1981 8:5247 9:1628 10:1915 11:1100 12:0 13:1036 14:0 15:771 16:0 17:1037 18:2991 19:959 20:4364 21:1485 22:1325 23:2022 24:78 25:1664 26:753 27:903 28:278 29:935 30:16 31:994 32:195 33:718 34:2370 35:646 36:270 37:710 38:176 39:691 40:3 41:605 42:477 43:444 44:273 45:479 46:15 47:706 48:1416 49:806 50:1931 51:452 52:186 53:515 54:121 55:539 56:22 57:635 58:822 59:657 60:504 61:671 62:91 63:726 64:1322 65:2250 66:7869 67:1022 68:91 69:886 70:46 71:959 72:22 73:1079 74:130 75:1060 76:138 77:1309 78:21 79:1435 80:1682 
1 1:1056 2:735 3:940 4:26 5:1272 6:54 7:2095 8:2163 9:1548 10:7022 11:1115 12:0 13:869 14:0 15:1104 16:0 17:1053 18:1221 19:885 20:1481 21:1364 22:2382 23:1943 24:1607 25:2048 26:2701 27:1009 28:56 29:851 30:14 31:847 32:538 33:634 34:1133 35:535 36:52 37:605 38:181 39:813 40:166 41:777 42:360 43:613 44:54 45:500 46:20 47:523 48:3034 49:776 50:444 51:559 52:81 53:454 54:40 55:568 56:25 57:553 58:1473 59:580 60:447 61:629 62:54 63:881 64:2436 65:2386 66:6369 67:853 68:18 69:664 70:8 71:778 72:38 73:846 74:775 75:887 76:239 77:1317 78:150 79:2269 80:2404 
1 1:2322 2:707 3:2851 4:5016 5:1812 6:591 7:394 8:374 9:223 10:2632 11:228 12:652 13:600 14:24 15:1569 16:3 17:1964 18:3075 19:969 20:2532 21:848 22:1030 23:1033 24:414 25:972 26:2639 27:897 28:68 29:1213 30:16 31:2104 32:226 33:642 34:1171 35:774 36:506 37:589 38:102 39:848 40:63 41:849 42:3078 43:475 44:77 45:375 46:1 47:446 48:1 49:631 50:1387 51:564 52:759 53:693 54:43 55:775 56:51 57:792 58:2713 59:531 60:16 61:517 62:3 63:497 64:29 65:1509 66:3658 67:1022 68:2824 69:1461 70:193 71:1307 72:145 73:989 74:2832 75:1167 76:151 77:1143 78:53 79:1403 80:144 
1 1:236 2:1598 3:228 4:1 5:909 6:49 7:3931 8:334 9:3475 10:4978 11:711 12:2074 13:337 14:516 15:173 16:450 17:842 18:4033 19:704 20:3691 21:1197 22:183 23:1641 24:545 25:2329 26:1477 27:1459 28:25 29:1069 30:2 31:760 32:45 33:639 34:1071 35:507 36:66 37:415 38:6 39:732 40:11 41:910 42:416 43:675 44:87 45:581 46:29 47:542 48:3314 49:695 50:1709 51:552 52:11 53:491 54:4 55:642 56:4 57:779 58:233 59:619 60:158 61:610 62:115 63:613 64:2766 65:1238 66:4416 67:1052 68:263 69:1102 70:11 71:1524 72:32 73:1719 74:1017 75:1147 76:408 77:1110 78:280 79:1108 80:3573 
1 1:1032 2:6158 3:1293 4:524 5:1169 6:282 7:1090 8:253 9:1374 10:278 11:1403 12:40 13:1525 14:64 15:1113 16:2401 17:1441 18:7329 19:1265 20:1345 21:965 22:313 23:1178 24:65 25:1698 26:352 27:1152 28:182 29:1023 30:35 31:1277 32:379 33:804 34:4331 35:351 36:382 37:487 38:6 39:798 40:10 41:838 42:10 43:558 44:4 45:439 46:1 47:724 48:256 49:513 50:4368 51:591 52:94 53:574 54:19 55:867 56:68 57:813 58:91 59:667 60:2 61:506 62:1 63:470 64:357 65:974 66:8013 67:1105 68:478 69:1094 70:122 71:2004 72:123 73:1765 74:514 75:1169 76:173 77:1043 78:52 79:845 80:524 
1 1:1419 2:3826 3:1128 4:182 5:947 6:39 7:1692 8:12 9:1250 10:1180 11:878 12:976 13:1257 14:644 15:1429 16:3142 17:1423 18:9683 19:893 20:304 21:822 22:12 23:1576 24:1 25:1412 26:0 27:1055 28:0 29:1428 30:0 31:1390 32:0 33:938 34:4755 35:420 36:154 37:351 38:1 39:867 40:1 41:892 42:4 43:394 44:7 45:406 46:22 47:732 48:57 49:538 50:4187 51:374 52:122 53:407 54:7 55:949 56:17 57:929 58:33 59:480 60:26 61:466 62:49 63:858 64:559 65:1129 66:9118 67:689 68:266 69:764 70:22 71:1868 72:13 73:1955 74:190 75:858 76:98 77:926 78:58 79:1811 80:236 
1 1:793 2:1118 3:874 4:2607 5:812 6:1782 7:2498 8:818 9:2203 10:3324 11:931 12:281 13:1086 14:7 15:804 16:61 17:1702 18:5679 19:889 20:3231 21:1164 22:748 23:1388 24:209 25:1441 26:128 27:1030 28:1 29:927 30:0 31:1459 32:4 33:634 34:1108 35:494 36:794 37:536 38:435 39:804 40:679 41:898 42:1545 43:424 44:285 45:460 46:59 47:750 48:94 49:804 50:125 51:384 52:555 53:475 54:152 55:808 56:589 57:901 58:2884 59:461 60:599 61:427 62:63 63:740 64:33 65:1785 66:5467 67:894 68:3293 69:1356 70:492 71:1319 72:323 73:1198 74:252 75:921 76:19 77:807 78:41 79:1721 80:112 
1 1:464 2:3686 3:288 4:420 5:239 6:2042 7:172 8:955 9:445 10:285 11:1966 12:70 13:4862 14:1063 15:1564 16:1479 17:1327 18:7810 19:965 20:505 21:953 22:326 23:1090 24:121 25:1281 26:599 27:2600 28:203 29:876 30:231 31:909 32:205 33:574 34:4145 35:423 36:30 37:389 38:2 39:382 40:8 41:497 42:88 43:1049 44:29 45:949 46:194 47:738 48:504 49:750 50:3103 51:544 52:39 53:550 54:1 55:407 56:15 57:535 58:68 59:792 60:600 61:610 62:537 63:812 64:637 65:1902 66:8571 67:1360 68:326 69:1296 70:23 71:905 72:50 73:821 74:90 75:996 76:132 77:1127 78:62 79:1595 80:747 
0.338124084084061 1:262 2:5571 3:295 4:1607 5:566 6:0 7:1170 8:3 9:749 10:186 11:2469 12:2344 13:3885 14:215 15:605 16:75 17:880 18:5597 19:837 20:2631 21:898 22:592 23:3366 24:188 25:1925 26:871 27:956 28:32 29:668 30:6 31:470 32:83 33:283 34:3986 35:296 36:366 37:454 38:135 39:2041 40:47 41:936 42:202 43:397 44:57 45:338 46:10 47:256 48:197 49:361 50:2142 51:336 52:213 53:560 54:149 55:1452 56:54 57:892 58:1076 59:560 60:1131 61:467 62:97 63:373 64:139 65:856 66:6257 67:779 68:389 69:1150 70:230 71:1768 72:183 73:1590 74:1115 75:1169 76:1477 77:1386 78:63 79:1302 80:288 
1 1:498 2:4470 3:767 4:459 5:1318 6:7 7:1214 8:13 9:2122 10:1647 11:2264 12:2529 13:1331 14:484 15:487 16:390 17:1175 18:3366 19:901 20:490 21:1244 22:139 23:2509 24:45 25:1671 26:2642 27:803 28:238 29:644 30:492 31:1053 32:2590 33:733 34:1898 35:385 36:77 37:533 38:70 39:826 40:12 41:946 42:2442 43:541 44:309 45:518 46:59 47:518 48:133 49:639 50:2173 51:418 52:1315 53:461 54:40 55:982 56:21 57:988 58:727 59:607 60:342 61:462 62:182 63:442 64:200 65:642 66:5206 67:608 68:3014 69:880 70:11 71:2197 72:26 73:2015 74:601 75:1466 76:840 77:1302 78:163 79:889 80:139 
1 1:1593 2:4416 3:1728 4:1996 5:2052 6:15 7:1166 8:26 9:948 10:2998 11:682 12:545 13:1084 14:0 15:747 16:5 17:1036 18:5933 19:712 20:619 21:731 22:111 23:1514 24:47 25:2613 26:1440 27:1574 28:1179 29:704 30:261 31:1114 32:409 33:567 34:1276 35:516 36:132 37:550 38:35 39:785 40:19 41:949 42:304 43:698 44:116 45:474 46:103 47:462 48:3013 49:591 50:1115 51:541 52:67 53:696 54:18 55:683 56:17 57:805 58:910 59:613 60:665 61:522 62:264 63:549 64:1944 65:1096 66:4861 67:1321 68:416 69:2339 70:48 71:1414 72:21 73:977 74:3431 75:952 76:530 77:826 78:180 79:1076 80:515 
1 1:1713 2:726 3:1690 4:826 5:552 6:81 7:1127 8:16 9:2650 10:2497 11:408 12:4647 13:664 14:821 15:1196 16:387 17:1040 18:5382 19:789 20:956 21:903 22:61 23:1958 24:33 25:1915 26:2359 27:1163 28:673 29:1071 30:54 31:1161 32:483 33:389 34:2304 35:347 36:191 37:379 38:54 39:1277 40:13 41:1415 42:2071 43:417 44:187 45:360 46:11 47:418 48:169 49:489 50:3447 51:481 52:115 53:489 54:11 55:1009 56:3 57:1139 58:968 59:491 60:267 61:444 62:38 63:458 64:151 65:960 66:6020 67:1159 68:1029 69:1304 70:327 71:1913 72:97 73:1997 74:843 75:754 76:921 77:833 78:173 79:1080 80:590 
1 1:1874 2:1882 3:940 4:7 5:460 6:0 7:399 8:1 9:526 10:4899 11:1612 12:1753 13:2420 14:781 15:1771 16:675 17:1002 18:6679 19:705 20:604 21:882 22:753 23:1507 24:105 25:2575 26:1157 27:1253 28:307 29:1035 30:91 31:1042 32:304 33:519 34:1745 35:356 36:219 37:494 38:500 39:914 40:543 41:941 42:1719 43:566 44:160 45:567 46:45 47:641 48:68 49:548 50:1293 51:340 52:148 53:587 54:357 55:865 56:67 57:771 58:2621 59:451 60:293 61:697 62:21 63:741 64:198 65:1000 66:3218 67:2031 68:588 69:1310 70:675 71:1824 72:9 73:1275 74:3484 75:666 76:1751 77:940 78:114 79:955 80:159 
1 1:899 2:3916 3:643 4:378 5:2083 6:132 7:1988 8:1014 9:1431 10:4550 11:1232 12:10 13:822 14:0 15:903 16:0 17:1384 18:8119 19:1040 20:492 21:1117 22:123 23:1642 24:220 25:1523 26:788 27:976 28:98 29:1015 30:20 31:1303 32:140 33:782 34:2621 35:576 36:69 37:538 38:11 39:790 40:43 41:639 42:1844 43:498 44:165 45:507 46:44 47:670 48:204 49:716 50:3334 51:484 52:57 53:448 54:26 55:793 56:42 57:871 58:1425 59:567 60:50 61:486 62:12 63:635 64:54 65:1272 66:7482 67:942 68:699 69:1033 70:47 71:1995 72:168 73:1184 74:1443 75:935 76:41 77:1232 78:8 79:1406 80:111 
0.2430484161204508 1:239 2:4776 3:345 4:749 5:140 6:86 7:395 8:132 9:3535 10:738 11:4109 12:1904 13:884 14:1483 15:354 16:132 17:434 18:8143 19:440 20:965 21:915 22:163 23:2067 24:147 25:3920 26:568 27:1241 28:2 29:506 30:1 31:476 32:11 33:582 34:871 35:346 36:380 37:331 38:150 39:539 40:806 41:1398 42:2721 43:985 44:16 45:324 46:9 47:495 48:47 49:458 50:781 51:337 52:96 53:333 54:78 55:597 56:453 57:1249 58:2490 59:1161 60:437 61:377 62:174 63:488 64:492 65:594 66:3612 67:422 68:812 69:502 70:352 71:1192 72:527 73:3131 74:2500 75:2534 76:1211 77:833 78:362 79:791 80:624 
1 1:616 2:4867 3:863 4:111 5:1098 6:0 7:1295 8:26 9:1539 10:1657 11:2485 12:2855 13:1390 14:328 15:714 16:156 17:1639 18:9610 19:813 20:355 21:976 22:19 23:1493 24:2 25:1606 26:4 27:973 28:1 29:990 30:1 31:1510 32:8 33:683 34:3463 35:320 36:989 37:671 38:2 39:756 40:2 41:623 42:477 43:490 44:30 45:638 46:10 47:820 48:27 49:675 50:1316 51:351 52:660 53:544 54:22 55:1042 56:87 57:884 58:2751 59:415 60:145 61:427 62:12 63:662 64:7 65:1375 66:1989 67:892 68:3226 69:1038 70:119 71:2480 72:114 73:2134 74:4136 75:533 76:403 77:458 78:4 79:1091 80:8 
1 1:1502 2:3577 3:2098 4:41 5:512 6:0 7:952 8:1 9:988 10:28 11:1688 12:2410 13:1146 14:2585 15:1112 16:1358 17:1191 18:7037 19:879 20:844 21:875 22:26 23:1726 24:22 25:1625 26:792 27:1703 28:813 29:995 30:267 31:1005 32:199 33:401 34:2867 35:377 36:599 37:376 38:6 39:889 40:8 41:1029 42:698 43:711 44:627 45:727 46:85 47:490 48:112 49:545 50:3183 51:460 52:832 53:465 54:29 55:1103 56:123 57:993 58:333 59:424 60:361 61:500 62:62 63:510 64:79 65:1123 66:6889 67:1454 68:1871 69:1209 70:20 71:1716 72:8 73:1982 74:104 75:921 76:472 77:911 78:398 79:685 80:237 
1 1:917 2:44 3:639 4:166 5:681 6:114 7:1031 8:1511 9:3657 10:7774 11:1143 12:374 13:603 14:9 15:1330 16:7 17:1571 18:3350 19:662 20:1607 21:960 22:315 23:1931 24:2073 25:1343 26:2645 27:745 28:4 29:842 30:1 31:1945 32:5 33:446 34:3563 35:371 36:441 37:644 38:39 39:1003 40:40 41:1058 42:601 43:474 44:155 45:419 46:43 47:584 48:117 49:896 50:1082 51:442 52:404 53:396 54:50 55:757 56:37 57:753 58:1896 59:459 60:1035 61:381 62:335 63:915 64:161 65:1441 66:73 67:880 68:643 69:996 70:621 71:1868 72:690 73:1570 74:7802 75:1021 76:115 77:924 78:24 79:1300 80:32 
1 1:532 2:282 3:466 4:3198 5:1722 6:955 7:3540 8:2225 9:1315 10:3306 11:1247 12:23 13:724 14:10 15:455 16:1 17:1915 18:606 19:1390 20:459 21:962 22:49 23:847 24:90 25:815 26:8101 27:880 28:489 29:1360 30:96 31:1832 32:111 33:884 34:2167 35:515 36:1244 37:511 38:68 39:520 40:38 41:515 42:1169 43:509 44:222 45:586 46:51 47:961 48:41 49:633 50:1214 51:540 52:2772 53:689 54:177 55:914 56:102 57:723 58:608 59:488 60:102 61:481 62:22 63:532 64:2 65:1840 66:526 67:1034 68:878 69:1208 70:455 71:1402 72:232 73:1276 74:5339 75:985 76:2473 77:801 78:21 79:1454 80:76 
1 1:334 2:184 3:1485 4:994 5:2435 6:1200 7:2004 8:1640 9:1478 10:5930 11:810 12:51 13:824 14:0 15:631 16:0 17:1111 18:2558 19:1058 20:2034 21:1380 22:340 23:1542 24:214 25:1112 26:3692 27:966 28:851 29:1425 30:122 31:1405 32:188 33:722 34:935 35:432 36:1018 37:564 38:164 39:768 40:431 41:695 42:2330 43:608 44:45 45:506 46:16 47:704 48:61 49:779 50:521 51:470 52:828 53:564 54:132 55:740 56:427 57:697 58:2962 59:506 60:60 61:562 62:26 63:681 64:44 65:1180 66:721 67:916 68:1650 69:1128 70:116 71:1826 72:148 73:1646 74:6260 75:1107 76:999 77:1002 78:26 79:1196 80:80 
1 1:1022 2:2762 3:1200 4:4417 5:956 6:1048 7:1476 8:491 9:3499 10:1012 11:853 12:149 13:382 14:17 15:612 16:105 17:1216 18:3705 19:852 20:4700 21:1111 22:1595 23:2429 24:0 25:1720 26:0 27:767 28:0 29:1079 30:0 31:827 32:0 33:321 34:123 35:545 36:3321 37:602 38:1556 39:1677 40:0 41:970 42:0 43:287 44:0 45:357 46:0 47:240 48:0 49:1775 50:258 51:346 52:2670 53:192 54:1690 55:416 56:216 57:409 58:141 59:144 60:20 61:208 62:3 63:1510 64:3 65:2244 66:194 67:503 68:6512 69:582 70:2100 71:1550 72:438 73:1741 74:704 75:464 76:43 77:542 78:6 79:2374 80:2 
1 1:1568 2:2263 3:1544 4:7736 5:1189 6:0 7:1603 8:0 9:1528 10:0 11:1062 12:0 13:701 14:0 15:806 16:0 17:2299 18:2395 19:762 20:7588 21:797 22:17 23:746 24:0 25:941 26:0 27:1326 28:0 29:780 30:0 31:2348 32:0 33:994 34:2532 35:511 36:2184 37:596 38:17 39:584 40:5 41:610 42:41 43:596 44:1 45:549 46:94 47:560 48:127 49:730 50:2494 51:609 52:2264 53:583 54:33 55:550 56:27 57:610 58:13 59:529 60:0 61:663 62:35 63:725 64:133 65:1053 66:4970 67:538 68:4940 69:583 70:12 71:1923 72:12 73:3125 74:0 75:1429 76:0 77:610 78:0 79:740 80:66 
1 1:3160 2:6080 3:1101 4:3903 5:566 6:6 7:508 8:11 9:580 10:0 11:580 12:0 13:1082 14:0 15:2424 16:0 17:1633 18:5982 19:772 20:3031 21:600 22:334 23:1000 24:100 25:939 26:69 27:1056 28:87 29:1716 30:323 31:2284 32:75 33:662 34:784 35:597 36:3439 37:476 38:336 39:577 40:182 41:564 42:148 43:428 44:78 45:552 46:28 47:1144 48:6 49:1395 50:785 51:502 52:3892 53:396 54:143 55:401 56:103 57:347 58:66 59:386 60:11 61:532 62:0 63:1042 64:0 65:1936 66:1394 67:779 68:7723 69:1157 70:183 71:818 72:179 73:1026 74:478 75:930 76:33 77:984 78:2 79:2369 80:8 
1 1:843 2:4554 3:927 4:87 5:988 6:12 7:1845 8:124 9:1945 10:4608 11:514 12:236 13:1231 14:52 15:1706 16:326 17:1677 18:6247 19:1023 20:43 21:810 22:4 23:1009 24:34 25:1024 26:1845 27:1132 28:447 29:1220 30:211 31:2105 32:1169 33:823 34:3296 35:400 36:269 37:429 38:72 39:651 40:69 41:821 42:1197 43:648 44:30 45:486 46:7 47:743 48:60 49:514 50:3960 51:769 52:718 53:513 54:41 55:765 56:23 57:820 58:155 59:503 60:2 61:493 62:5 63:622 64:97 65:1243 66:9308 67:877 68:442 69:1263 70:39 71:1665 72:34 73:1745 74:137 75:1351 76:0 77:834 78:17 79:1021 80:24 
1 1:1748 2:2780 3:2776 4:0 5:1018 6:0 7:1208 8:0 9:1552 10:882 11:551 12:1642 13:449 14:515 15:698 16:4180 17:1454 18:6873 19:1100 20:35 21:870 22:7 23:1253 24:46 25:1295 26:2028 27:990 28:266 29:1309 30:158 31:1730 32:587 33:1059 34:3022 35:952 36:331 37:429 38:43 39:458 40:49 41:379 42:1249 43:341 44:92 45:543 46:34 47:839 48:181 49:659 50:3375 51:739 52:275 53:585 54:31 55:636 56:96 57:610 58:826 59:464 60:188 61:601 62:13 63:706 64:197 65:1172 66:8631 67:968 68:156 69:1390 70:8 71:1210 72:21 73:1591 74:368 75:1173 76:327 77:1306 78:83 79:1189 80:404 
1 1:334 2:5714 3:946 4:124 5:4309 6:1 7:2909 8:28 9:499 10:4077 11:341 12:5 13:402 14:6 15:258 16:46 17:940 18:5335 19:638 20:527 21:1134 22:138 23:1490 24:76 25:1476 26:2429 27:1331 28:115 29:2034 30:13 31:957 32:1366 33:494 34:2810 35:439 36:1232 37:547 38:33 39:860 40:12 41:782 42:386 43:641 44:93 45:816 46:78 47:421 48:357 49:775 50:3413 51:445 52:1006 53:554 54:81 55:819 56:43 57:491 58:263 59:541 60:17 61:547 62:8 63:827 64:169 65:973 66:7873 67:1097 68:1222 69:1535 70:96 71:2067 72:46 73:1503 74:549 75:939 76:98 77:1044 78:48 79:844 80:68 
1 1:913 2:4738 3:1613 4:362 5:1390 6:139 7:1451 8:679 9:1215 10:3722 11:1436 12:28 13:1343 14:7 15:640 16:325 17:1073 18:6958 19:874 20:82 21:1301 22:0 23:1816 24:9 25:1938 26:988 27:1142 28:448 29:904 30:207 31:951 32:1307 33:546 34:3408 35:516 36:209 37:450 38:49 39:824 40:74 41:848 42:701 43:662 44:139 45:558 46:110 47:597 48:310 49:721 50:3855 51:716 52:429 53:699 54:89 55:477 56:202 57:559 58:332 59:456 60:14 61:644 62:16 63:729 64:64 65:918 66:4857 67:872 68:1389 69:1228 70:249 71:1900 72:278 73:2148 74:469 75:1034 76:254 77:980 78:188 79:920 80:2317 
1 1:1191 2:3709 3:844 4:4 5:905 6:6 7:2667 8:146 9:1721 10:5980 11:1070 12:111 13:768 14:21 15:835 16:25 17:850 18:7998 19:1231 20:1922 21:1228 22:34 23:1955 24:7 25:1964 26:32 27:836 28:3 29:1021 30:1 31:916 32:3 33:619 34:2963 35:608 36:2006 37:444 38:14 39:521 40:0 41:1214 42:15 43:490 44:1 45:542 46:2 47:561 48:0 49:744 50:1602 51:643 52:2974 53:574 54:39 55:588 56:26 57:781 58:319 59:647 60:9 61:473 62:4 63:551 64:27 65:1322 66:4674 67:833 68:3446 69:1071 70:487 71:1771 72:190 73:1746 74:1134 75:1065 76:25 77:1164 78:16 79:1028 80:30 
1 1:1824 2:6398 3:772 4:2 5:1135 6:1 7:1287 8:16 9:889 10:3189 11:2021 12:349 13:1226 14:4 15:846 16:40 17:1162 18:8922 19:879 20:898 21:1208 22:6 23:1589 24:9 25:2076 26:154 27:1329 28:8 29:728 30:3 31:1029 32:1 33:586 34:3732 35:635 36:1050 37:706 38:63 39:889 40:46 41:926 42:102 43:405 44:5 45:363 46:0 47:490 48:1 49:602 50:3630 51:544 52:1293 53:570 54:32 55:800 56:16 57:1040 58:24 59:568 60:0 61:441 62:0 63:436 64:6 65:1605 66:7121 67:1012 68:2584 69:1062 70:7 71:1253 72:14 73:1611 74:237 75:1184 76:10 77:898 78:7 79:1374 80:20 
1 1:1681 2:4596 3:1067 4:271 5:934 6:182 7:1991 8:26 9:1354 10:2861 11:1153 12:1094 13:968 14:324 15:852 16:646 17:1129 18:9779 19:773 20:197 21:1356 22:1 23:1790 24:1 25:1866 26:7 27:935 28:2 29:889 30:5 31:1262 32:9 33:757 34:4696 35:469 36:239 37:501 38:1 39:523 40:2 41:678 42:17 43:879 44:5 45:603 46:4 47:590 48:37 49:511 50:4139 51:425 52:522 53:566 54:21 55:985 56:14 57:903 58:184 59:519 60:18 61:550 62:22 63:542 64:80 65:1658 66:8562 67:1880 68:230 69:770 70:7 71:863 72:20 73:707 74:724 75:553 76:61 77:1324 78:38 79:2244 80:357 
1 1:213 2:9118 3:225 4:2 5:482 6:1 7:593 8:9 9:1617 10:586 11:4638 12:151 13:1924 14:70 15:309 16:63 17:1313 18:8820 19:980 20:1043 21:1451 22:5 23:1433 24:5 25:1610 26:11 27:810 28:1 29:928 30:1 31:1476 32:114 33:480 34:2972 35:476 36:1933 37:668 38:35 39:1016 40:9 41:927 42:23 43:516 44:1 45:395 46:0 47:523 48:26 49:582 50:2245 51:525 52:2679 53:590 54:14 55:740 56:11 57:861 58:49 59:513 60:0 61:585 62:0 63:605 64:1 65:975 66:5947 67:1047 68:2944 69:1169 70:111 71:1325 72:14 73:1647 74:180 75:1733 76:7 77:1329 78:17 79:775 80:780 
1 1:383 2:6393 3:331 4:4 5:609 6:1 7:838 8:11 9:999 10:207 11:4241 12:810 13:1954 14:387 15:645 16:2187 17:1512 18:9457 19:895 20:371 21:1381 22:34 23:1290 24:7 25:1217 26:9 27:1082 28:14 29:789 30:10 31:1834 32:98 33:745 34:3775 35:358 36:359 37:374 38:9 39:731 40:32 41:845 42:42 43:771 44:8 45:371 46:7 47:805 48:768 49:565 50:4267 51:393 52:463 53:571 54:79 55:691 56:57 57:840 58:51 59:925 60:1 61:461 62:4 63:553 64:78 65:872 66:7688 67:842 68:543 69:1321 70:160 71:2413 72:23 73:1648 74:1270 75:1117 76:38 77:856 78:53 79:931 80:224 
1 1:659 2:4130 3:977 4:147 5:1682 6:273 7:2307 8:440 9:957 10:4342 11:1898 12:424 13:1047 14:173 15:472 16:73 17:1570 18:7503 19:689 20:1365 21:2240 22:141 23:1285 24:81 25:1169 26:417 27:723 28:4 29:649 30:1 31:1675 32:488 33:787 34:3685 35:431 36:1092 37:688 38:80 39:570 40:49 41:779 42:12 43:471 44:0 45:475 46:5 47:797 48:77 49:688 50:2669 51:501 52:1652 53:475 54:162 55:545 56:69 57:790 58:367 59:613 60:16 61:693 62:5 63:695 64:60 65:1067 66:3615 67:1000 68:4961 69:1062 70:633 71:1753 72:190 73:1617 74:576 75:1751 76:2 77:688 78:0 79:1061 80:23 
1 1:732 2:5981 3:657 4:3 5:1031 6:1 7:1521 8:1 9:1767 10:89 11:1678 12:363 13:1945 14:566 15:670 16:2996 17:1717 18:9157 19:1031 20:299 21:1186 22:33 23:849 24:40 25:1116 26:258 27:1002 28:50 29:1261 30:9 31:1838 32:154 33:881 34:2575 35:667 36:723 37:441 38:1422 39:636 40:130 41:554 42:61 43:508 44:21 45:651 46:5 47:663 48:64 49:643 50:2018 51:492 52:1334 53:533 54:1308 55:910 56:60 57:648 58:183 59:507 60:39 61:697 62:15 63:569 64:43 65:1573 66:5142 67:1025 68:2155 69:915 70:150 71:1661 72:63 73:1622 74:1918 75:903 76:291 77:876 78:81 79:1426 80:200 
1 1:1010 2:3002 3:1031 4:212 5:2006 6:107 7:1992 8:44 9:1340 10:3509 11:997 12:833 13:683 14:577 15:942 16:1716 17:1607 18:9461 19:1193 20:286 21:834 22:8 23:1328 24:8 25:1914 26:86 27:1083 28:37 29:896 30:13 31:1145 32:101 33:547 34:4756 35:392 36:179 37:473 38:3 39:666 40:5 41:759 42:28 43:474 44:6 45:722 46:3 47:967 48:19 49:605 50:4033 51:467 52:595 53:556 54:20 55:528 56:19 57:542 58:143 59:419 60:86 61:939 62:32 63:944 64:72 65:1123 66:6395 67:859 68:793 69:1294 70:132 71:1644 72:234 73:1449 74:1670 75:1106 76:190 77:1551 78:107 79:974 80:479 
1 1:1866 2:2016 3:1043 4:703 5:2034 6:376 7:1631 8:599 9:579 10:6090 11:545 12:25 13:699 14:12 15:1602 16:178 17:1364 18:8204 19:839 20:937 21:1145 22:33 23:1438 24:63 25:1288 26:494 27:1109 28:123 29:1072 30:49 31:1744 32:97 33:403 34:3563 35:499 36:670 37:783 38:45 39:1057 40:61 41:964 42:425 43:506 44:123 45:370 46:40 47:419 48:73 49:620 50:3757 51:427 52:555 53:668 54:102 55:1003 56:118 57:735 58:243 59:497 60:54 61:498 62:34 63:553 64:138 65:1304 66:8610 67:1045 68:550 69:1371 70:54 71:2528 72:77 73:1144 74:255 75:847 76:234 77:819 78:74 79:942 80:146 
1 1:1948 2:5513 3:1233 4:1754 5:1265 6:263 7:914 8:67 9:975 10:1190 11:911 12:867 13:1271 14:178 15:1484 16:168 17:1629 18:5873 19:1001 20:2114 21:897 22:234 23:1073 24:141 25:1267 26:763 27:1107 28:175 29:1278 30:34 31:1747 32:666 33:683 34:641 35:557 36:1116 37:672 38:467 39:744 40:114 41:559 42:532 43:502 44:177 45:592 46:100 47:692 48:1854 49:707 50:2338 51:621 52:601 53:683 54:97 55:763 56:32 57:504 58:93 59:360 60:59 61:534 62:271 63:829 64:1510 65:1446 66:5755 67:1002 68:1526 69:1076 70:29 71:1311 72:27 73:1216 74:485 75:1098 76:74 77:1329 78:47 79:1523 80:2057 
1 1:1307 2:8314 3:1107 4:143 5:1392 6:2 7:1667 8:4 9:1152 10:641 11:1386 12:244 13:866 14:200 15:1122 16:452 17:2163 18:5283 19:1133 20:1747 21:976 22:71 23:953 24:43 25:944 26:1487 27:744 28:571 29:963 30:99 31:2125 32:700 33:815 34:2389 35:585 36:1718 37:549 38:120 39:694 40:156 41:681 42:528 43:483 44:34 45:486 46:21 47:706 48:34 49:475 50:1407 51:402 52:3059 53:548 54:58 55:1020 56:91 57:1237 58:218 59:502 60:9 61:441 62:36 63:375 64:122 65:1004 66:4629 67:707 68:4921 69:904 70:178 71:2209 72:37 73:2127 74:156 75:994 76:8 77:1124 78:4 79:931 80:67 
1 1:1353 2:4375 3:1092 4:0 5:884 6:0 7:615 8:0 9:539 10:898 11:928 12:137 13:2224 14:564 15:2365 16:4026 17:2035 18:6484 19:1462 20:52 21:1084 22:0 23:714 24:0 25:707 26:0 27:903 28:53 29:1295 30:862 31:1799 32:2548 33:1487 34:4313 35:567 36:73 37:381 38:4 39:236 40:1 41:333 42:4 43:441 44:36 45:447 46:207 47:1109 48:362 49:1941 50:2701 51:689 52:189 53:222 54:24 55:107 56:17 57:149 58:955 59:154 60:541 61:421 62:349 63:1317 64:224 65:1708 66:8203 67:1019 68:146 69:736 70:16 71:1423 72:12 73:1603 74:980 75:963 76:217 77:949 78:114 79:1599 80:311 
1 1:1169 2:2380 3:370 4:5433 5:650 6:572 7:599 8:535 9:1428 10:759 11:3742 12:237 13:848 14:57 15:1194 16:28 17:1485 18:7642 19:1101 20:1753 21:1173 22:196 23:1142 24:134 25:1688 26:218 27:1067 28:28 29:789 30:14 31:1556 32:16 33:659 34:2821 35:587 36:1409 37:560 38:122 39:645 40:58 41:791 42:551 43:582 44:26 45:565 46:3 47:611 48:9 49:1003 50:2676 51:347 52:1876 53:493 54:68 55:521 56:27 57:670 58:299 59:500 60:27 61:604 62:4 63:862 64:23 65:2058 66:6685 67:878 68:3217 69:953 70:2 71:1299 72:3 73:1245 74:23 75:903 76:14 77:1001 78:14 79:1663 80:42 
1 1:1331 2:5238 3:997 4:2377 5:940 6:1012 7:1014 8:255 9:1117 10:983 11:993 12:41 13:1281 14:7 15:2326 16:88 17:2015 18:6487 19:639 20:2799 21:792 22:106 23:1107 24:26 25:1267 26:49 27:820 28:174 29:996 30:196 31:2363 32:162 33:691 34:2002 35:406 36:1091 37:478 38:165 39:903 40:126 41:968 42:388 43:434 44:30 45:449 46:21 47:671 48:1179 49:520 50:2091 51:451 52:1402 53:519 54:261 55:995 56:256 57:1007 58:670 59:529 60:63 61:448 62:63 63:531 64:193 65:1519 66:2828 67:981 68:3550 69:1368 70:749 71:1217 72:956 73:1255 74:1588 75:1241 76:60 77:1150 78:84 79:1269 80:184 
1 1:608 2:399 3:485 4:1035 5:635 6:476 7:3548 8:1630 9:2916 10:5918 11:569 12:47 13:614 14:18 15:624 16:477 17:2163 18:7125 19:813 20:200 21:910 22:16 23:1478 24:175 25:1783 26:819 27:929 28:832 29:793 30:133 31:1132 32:699 33:412 34:3812 35:318 36:597 37:450 38:157 39:1185 40:156 41:1458 42:215 43:584 44:43 45:308 46:9 47:285 48:10 49:419 50:3159 51:428 52:925 53:424 54:166 55:918 56:162 57:1424 58:542 59:493 60:25 61:406 62:10 63:489 64:11 65:1669 66:6950 67:890 68:1383 69:722 70:523 71:1597 72:374 73:2509 74:731 75:742 76:23 77:564 78:7 79:1307 80:9 
1 1:1748 2:1510 3:1413 4:2855 5:1083 6:404 7:1006 8:120 9:1007 10:1741 11:828 12:2691 13:1255 14:484 15:1659 16:194 17:1009 18:4999 19:1070 20:3952 21:1235 22:266 23:1782 24:169 25:1941 26:490 27:951 28:113 29:1015 30:9 31:996 32:3 33:489 34:2508 35:428 36:1159 37:501 38:137 39:1135 40:99 41:1029 42:288 43:520 44:25 45:498 46:1 47:399 48:783 49:751 50:2927 51:470 52:1040 53:520 54:441 55:786 56:97 57:678 58:368 59:482 60:7 61:538 62:10 63:775 64:109 65:1958 66:8051 67:1453 68:1579 69:1450 70:85 71:970 72:24 73:910 74:76 75:851 76:8 77:906 78:7 79:1502 80:170 
1 1:673 2:0 3:626 4:10000 5:724 6:0 7:2438 8:0 9:2964 10:0 11:1196 12:0 13:734 14:0 15:645 16:0 17:727 18:1990 19:454 20:7542 21:666 22:94 23:3803 24:33 25:2880 26:328 27:466 28:8 29:432 30:2 31:572 32:3 33:715 34:17 35:329 36:4192 37:371 38:386 39:1065 40:176 41:921 42:229 43:329 44:0 45:377 46:0 47:892 48:0 49:643 50:220 51:434 52:4369 53:516 54:411 55:973 56:1 57:911 58:0 59:462 60:0 61:396 62:0 63:665 64:0 65:1318 66:1104 67:892 68:8117 69:1014 70:769 71:2087 72:10 73:1718 74:0 75:1019 76:0 77:792 78:0 79:1161 80:0 
1 1:760 2:167 3:682 4:8 5:862 6:0 7:2356 8:93 9:2178 10:79 11:918 12:3204 13:1131 14:5108 15:1114 16:1339 17:821 18:1582 19:702 20:567 21:1236 22:910 23:2038 24:83 25:2022 26:338 27:1417 28:4420 29:916 30:1880 31:849 32:220 33:525 34:339 35:494 36:683 37:601 38:771 39:837 40:10 41:765 42:165 43:525 44:1814 45:699 46:1173 47:554 48:44 49:459 50:317 51:518 52:1222 53:541 54:664 55:855 56:15 57:1056 58:247 59:684 60:1624 61:542 62:719 63:345 64:191 65:1068 66:4240 67:659 68:1083 69:942 70:510 71:1918 72:16 73:2059 74:123 75:989 76:256 77:1004 78:1094 79:1360 80:2678 
1 1:483 2:3058 3:3222 4:8 5:3103 6:1 7:541 8:0 9:1160 10:1 11:657 12:1 13:491 14:281 15:343 16:6650 17:1566 18:7741 19:1437 20:903 21:1123 22:678 23:1082 24:61 25:1301 26:13 27:1080 28:6 29:901 30:192 31:1511 32:406 33:503 34:2434 35:565 36:754 37:816 38:215 39:891 40:80 41:643 42:512 43:543 44:26 45:447 46:27 47:592 48:951 49:474 50:2572 51:433 52:887 53:858 54:300 55:1136 56:199 57:794 58:163 59:421 60:34 61:363 62:45 63:522 64:800 65:1101 66:6044 67:879 68:1651 69:1650 70:466 71:2401 72:369 73:1371 74:163 75:948 76:47 77:737 78:91 79:914 80:1170 
1 1:403 2:4268 3:220 4:54 5:484 6:1 7:1168 8:1 9:903 10:1 11:3179 12:0 13:1567 14:150 15:2076 16:5526 17:953 18:6371 19:949 20:949 21:1819 22:925 23:2009 24:812 25:1358 26:294 27:978 28:21 29:808 30:34 31:1126 32:594 33:398 34:1956 35:495 36:163 37:725 38:528 39:997 40:388 41:498 42:1592 43:929 44:93 45:479 46:18 47:479 48:262 49:443 50:1927 51:414 52:290 53:639 54:447 55:680 56:296 57:520 58:1115 59:853 60:60 61:588 62:48 63:863 64:818 65:1304 66:5545 67:1146 68:909 69:941 70:175 71:1382 72:103 73:1214 74:74 75:1054 76:9 77:1146 78:24 79:1813 80:3162 
1 1:1016 2:2938 3:787 4:0 5:944 6:0 7:2029 8:0 9:1295 10:0 11:922 12:175 13:1301 14:962 15:1706 16:5925 17:455 18:7806 19:496 20:332 21:805 22:72 23:3339 24:27 25:2928 26:59 27:977 28:26 29:490 30:402 31:510 32:1277 33:413 34:3579 35:389 36:289 37:475 38:77 39:1611 40:69 41:1142 42:85 43:350 44:21 45:244 46:142 47:376 48:737 49:342 50:2342 51:343 52:921 53:489 54:323 55:1638 56:212 57:1154 58:497 59:352 60:115 61:310 62:120 63:371 64:469 65:670 66:6487 67:603 68:660 69:844 70:230 71:3415 72:16 73:1887 74:371 75:917 76:994 77:806 78:264 79:858 80:979 
1 1:1325 2:6942 3:2698 4:33 5:725 6:7 7:921 8:0 9:1229 10:0 11:269 12:0 13:1122 14:4 15:1712 16:3014 17:1409 18:5434 19:1432 20:649 21:1336 22:107 23:1433 24:102 25:1235 26:302 27:891 28:404 29:958 30:259 31:1305 32:2743 33:626 34:3836 35:413 36:599 37:399 38:64 39:813 40:11 41:762 42:23 43:422 44:8 45:545 46:19 47:1019 48:440 49:498 50:3308 51:910 52:833 53:585 54:78 55:806 56:10 57:686 58:68 59:522 60:14 61:499 62:77 63:493 64:612 65:619 66:7533 67:975 68:726 69:1404 70:180 71:1051 72:43 73:1063 74:31 75:2062 76:58 77:2055 78:141 79:770 80:1288 
1 1:736 2:1369 3:800 4:0 5:959 6:4 7:1259 8:257 9:1849 10:4739 11:1251 12:1047 13:2377 14:401 15:769 16:2183 17:475 18:7742 19:718 20:610 21:1314 22:100 23:1836 24:12 25:2417 26:592 27:1856 28:83 29:901 30:44 31:484 32:818 33:616 34:368 35:423 36:431 37:574 38:50 39:882 40:20 41:750 42:2974 43:552 44:553 45:615 46:288 47:588 48:316 49:638 50:1482 51:463 52:592 53:453 54:95 55:891 56:23 57:712 58:482 59:447 60:528 61:522 62:466 63:874 64:1332 65:1682 66:4310 67:710 68:1865 69:816 70:927 71:2135 72:249 73:1778 74:1150 75:808 76:491 77:677 78:297 79:1393 80:711 
1 1:392 2:3163 3:371 4:1 5:949 6:1 7:2515 8:1 9:1007 10:1 11:422 12:0 13:2587 14:3 15:1756 16:6830 17:1075 18:2928 19:781 20:138 21:829 22:141 23:1347 24:25 25:1907 26:1246 27:2127 28:301 29:958 30:707 31:976 32:4513 33:382 34:2470 35:375 36:420 37:700 38:151 39:898 40:35 41:832 42:281 43:962 44:66 45:460 46:77 47:391 48:1500 49:340 50:3481 51:330 52:286 53:801 54:77 55:1031 56:5 57:759 58:5 59:1019 60:10 61:410 62:8 63:309 64:1126 65:839 66:6820 67:678 68:265 69:868 70:194 71:1767 72:49 73:1273 74:594 75:849 76:239 77:2026 78:380 79:1700 80:1459 
1 1:460 2:2230 3:730 4:60 5:5299 6:2 7:1362 8:1 9:666 10:0 11:780 12:31 13:296 14:1908 15:407 16:5768 17:1047 18:1982 19:833 20:293 21:1826 22:217 23:1476 24:105 25:1619 26:6486 27:1286 28:328 29:854 30:62 31:1059 32:528 33:328 34:1853 35:415 36:98 37:793 38:31 39:1298 40:36 41:936 42:2630 43:539 44:76 45:363 46:35 47:327 48:239 49:365 50:1872 51:430 52:332 53:719 54:53 55:1316 56:42 57:879 58:2368 59:585 60:144 61:379 62:26 63:327 64:163 65:765 66:3325 67:783 68:192 69:1635 70:73 71:2387 72:92 73:1733 74:5725 75:1104 76:61 77:790 78:45 79:802 80:487 
1 1:990 2:1199 3:734 4:315 5:841 6:207 7:1450 8:13 9:1270 10:7083 11:1010 12:105 13:2537 14:136 15:1167 16:943 17:560 18:1516 19:807 20:371 21:1428 22:185 23:1857 24:173 25:1997 26:7128 27:2057 28:171 29:690 30:55 31:604 32:401 33:371 34:1193 35:514 36:971 37:566 38:227 39:682 40:110 41:921 42:2419 43:838 44:27 45:719 46:12 47:390 48:39 49:553 50:1449 51:406 52:781 53:575 54:123 55:757 56:49 57:808 58:2456 59:586 60:11 61:769 62:9 63:547 64:122 65:2084 66:3732 67:1970 68:4928 69:1052 70:86 71:1086 72:34 73:890 74:1095 75:789 76:18 77:858 78:8 79:1271 80:97 
1 1:1548 2:3416 3:2598 4:23 5:1052 6:1 7:660 8:1 9:890 10:1 11:410 12:478 13:909 14:282 15:1933 16:5798 17:1233 18:7033 19:878 20:1662 21:927 22:330 23:1631 24:13 25:1573 26:24 27:892 28:17 29:1214 30:10 31:1653 32:912 33:561 34:3591 35:752 36:550 37:609 38:207 39:840 40:37 41:723 42:216 43:353 44:58 45:570 46:7 47:592 48:334 49:441 50:3501 51:486 52:666 53:847 54:149 55:1011 56:12 57:737 58:245 59:560 60:326 61:444 62:23 63:473 64:78 65:1197 66:5640 67:910 68:174 69:1808 70:165 71:1536 72:47 73:1330 74:1248 75:723 76:1187 77:1077 78:151 79:1418 80:1388 
1 1:1253 2:4596 3:1184 4:499 5:1078 6:141 7:1780 8:148 9:1587 10:3174 11:1155 12:404 13:779 14:144 15:1185 16:894 17:971 18:6090 19:973 20:376 21:1102 22:172 23:1623 24:1 25:1819 26:928 27:1259 28:1566 29:1163 30:118 31:1089 32:749 33:586 34:2345 35:432 36:620 37:539 38:27 39:843 40:10 41:954 42:712 43:524 44:319 45:537 46:16 47:585 48:951 49:440 50:3113 51:461 52:560 53:698 54:44 55:937 56:41 57:961 58:539 59:631 60:5 61:441 62:48 63:432 64:650 65:915 66:7833 67:756 68:1731 69:1104 70:213 71:2199 72:10 73:2069 74:10 75:1173 76:27 77:840 78:73 79:944 80:103 
1 1:1045 2:5563 3:1328 4:830 5:1360 6:44 7:1436 8:89 9:1428 10:2706 11:1093 12:126 13:1125 14:279 15:1184 16:363 17:693 18:7548 19:791 20:402 21:1269 22:50 23:2082 24:5 25:2226 26:16 27:1336 28:77 29:889 30:304 31:715 32:1597 33:538 34:2797 35:487 36:421 37:657 38:22 39:909 40:21 41:827 42:899 43:653 44:167 45:480 46:67 47:449 48:607 49:577 50:1805 51:474 52:594 53:525 54:140 55:718 56:186 57:965 58:2122 59:709 60:122 61:453 62:5 63:580 64:25 65:1017 66:5882 67:993 68:2332 69:1401 70:542 71:1417 72:158 73:1271 74:949 75:1500 76:11 77:1091 78:22 79:1310 80:103 
1 1:2302 2:6851 3:1283 4:1133 5:951 6:129 7:750 8:38 9:552 10:645 11:708 12:11 13:1026 14:639 15:2429 16:554 17:944 18:6970 19:749 20:209 21:755 22:3 23:1050 24:0 25:1879 26:2 27:2788 28:1 29:1003 30:400 31:831 32:2416 33:929 34:3995 35:492 36:410 37:419 38:47 39:440 40:35 41:537 42:220 43:461 44:66 45:676 46:23 47:1047 48:206 49:759 50:3851 51:656 52:494 53:592 54:79 55:556 56:35 57:617 58:354 59:544 60:89 61:530 62:31 63:746 64:68 65:1392 66:6225 67:1378 68:3271 69:1435 70:360 71:1243 72:129 73:1455 74:3 75:1120 76:8 77:808 78:1 79:1169 80:4 
1 1:2604 2:2648 3:582 4:10 5:553 6:1 7:1344 8:0 9:1494 10:0 11:549 12:810 13:558 14:1693 15:2316 16:4837 17:853 18:4033 19:1030 20:590 21:1061 22:1330 23:1079 24:383 25:1211 26:2298 27:1899 28:318 29:1996 30:185 31:870 32:864 33:1073 34:1695 35:533 36:350 37:477 38:1297 39:491 40:54 41:483 42:756 43:550 44:166 45:545 46:82 47:848 48:601 49:858 50:3542 51:547 52:345 53:592 54:419 55:846 56:2 57:781 58:117 59:411 60:10 61:430 62:41 63:535 64:524 65:1956 66:3268 67:555 68:4277 69:645 70:1392 71:1750 72:12 73:1549 74:82 75:921 76:251 77:1092 78:493 79:1533 80:224 
1 1:735 2:2431 3:596 4:3 5:730 6:0 7:1363 8:0 9:1176 10:1 11:2154 12:1 13:2291 14:236 15:954 16:7328 17:935 18:3319 19:1094 20:1209 21:1784 22:159 23:1277 24:1446 25:1579 26:1304 27:1456 28:672 29:615 30:545 31:1260 32:1346 33:552 34:2557 35:477 36:853 37:570 38:25 39:634 40:205 41:765 42:565 43:611 44:176 45:596 46:139 47:794 48:480 49:609 50:1436 51:490 52:957 53:582 54:34 55:581 56:242 57:628 58:1158 59:812 60:235 61:729 62:96 63:568 64:842 65:1030 66:5144 67:1290 68:1712 69:953 70:4 71:1330 72:10 73:1236 74:943 75:1399 76:383 77:1436 78:234 79:1326 80:1569 
1 1:326 2:1738 3:1139 4:10 5:858 6:3 7:1400 8:3 9:4653 10:4 11:1042 12:81 13:341 14:2088 15:242 16:6073 17:589 18:4365 19:952 20:4096 21:987 22:937 23:1959 24:162 25:2698 26:130 27:1166 28:1 29:917 30:60 31:733 32:249 33:306 34:1039 35:563 36:1820 37:592 38:470 39:1003 40:167 41:1223 42:521 43:617 44:10 45:400 46:105 47:295 48:868 49:452 50:1456 51:306 52:2590 53:584 54:149 55:827 56:48 57:1271 58:269 59:705 60:16 61:437 62:67 63:418 64:404 65:710 66:4059 67:659 68:4131 69:1263 70:450 71:1814 72:92 73:2509 74:295 75:1228 76:122 77:1010 78:291 79:806 80:560 
1 1:841 2:9321 3:369 4:467 5:458 6:0 7:736 8:0 9:826 10:0 11:3567 12:0 13:1531 14:14 15:1673 16:198 17:786 18:7888 19:634 20:311 21:603 22:290 23:1231 24:0 25:2784 26:0 27:2445 28:0 29:816 30:9 31:702 32:1502 33:246 34:4302 35:238 36:294 37:313 38:6 39:651 40:8 41:1064 42:7 43:1464 44:2 45:768 46:8 47:257 48:374 49:881 50:3525 51:348 52:766 53:364 54:207 55:656 56:0 57:705 58:18 59:417 60:33 61:525 62:18 63:1104 64:432 65:725 66:5826 67:1065 68:2961 69:1961 70:1130 71:2135 72:1 73:1709 74:3 75:904 76:4 77:716 78:0 79:785 80:74 
1 1:866 2:1623 3:767 4:41 5:501 6:3 7:1567 8:1 9:3983 10:3 11:1115 12:31 13:507 14:2579 15:695 16:5719 17:605 18:3892 19:641 20:1209 21:1002 22:3862 23:2783 24:70 25:3024 26:220 27:897 28:26 29:565 30:26 31:482 32:696 33:509 34:2059 35:341 36:1709 37:364 38:559 39:1174 40:70 41:1367 42:51 43:449 44:1 45:332 46:6 47:464 48:544 49:559 50:2321 51:356 52:1518 53:412 54:481 55:798 56:34 57:828 58:50 59:748 60:109 61:690 62:6 63:609 64:482 65:1058 66:6421 67:754 68:2062 69:782 70:646 71:1901 72:65 73:1969 74:164 75:1310 76:86 77:1071 78:72 79:1156 80:484 
1 1:374 2:6 3:359 4:61 5:2263 6:125 7:1795 8:673 9:2618 10:8249 11:1780 12:834 13:449 14:39 15:363 16:14 17:1226 18:4124 19:936 20:204 21:1042 22:36 23:1680 24:148 25:1486 26:3422 27:935 28:158 29:1068 30:110 31:1627 32:1798 33:950 34:995 35:392 36:326 37:690 38:318 39:770 40:432 41:539 42:2690 43:420 44:105 45:520 46:7 47:720 48:127 49:701 50:3175 51:611 52:264 53:578 54:61 55:768 56:48 57:541 58:1182 59:444 60:59 61:567 62:10 63:790 64:202 65:1225 66:3223 67:933 68:2090 69:1483 70:1757 71:1604 72:559 73:1204 74:1955 75:1242 76:33 77:896 78:33 79:1414 80:350 
1 1:858 2:242 3:431 4:9758 5:979 6:0 7:2945 8:0 9:2953 10:0 11:624 12:0 13:571 14:0 15:639 16:0 17:1374 18:30 19:789 20:9947 21:862 22:20 23:2170 24:3 25:2121 26:0 27:723 28:0 29:757 30:0 31:1204 32:0 33:470 34:9 35:246 36:4952 37:380 38:39 39:1236 40:0 41:1478 42:0 43:372 44:0 45:257 46:0 47:561 48:0 49:229 50:0 51:249 52:4702 53:390 54:298 55:1396 56:0 57:1739 58:0 59:459 60:0 61:297 62:0 63:241 64:0 65:771 66:0 67:441 68:9584 69:657 70:416 71:3045 72:0 73:3477 74:0 75:739 76:0 77:448 78:0 79:422 80:0 
1 1:741 2:0 3:560 4:8189 5:1342 6:1780 7:2757 8:31 9:2142 10:1 11:1025 12:0 13:860 14:0 15:572 16:0 17:1534 18:1380 19:753 20:4189 21:882 22:3458 23:1446 24:835 25:1966 26:106 27:930 28:0 29:943 30:0 31:1546 32:31 33:805 34:0 35:255 36:3139 37:411 38:1514 39:951 40:335 41:1363 42:12 43:344 44:0 45:243 46:0 47:628 48:0 49:561 50:40 51:175 52:2185 53:304 54:2416 55:1279 56:354 57:1458 58:5 59:452 60:0 61:301 62:0 63:471 64:0 65:1886 66:0 67:676 68:6665 69:654 70:3320 71:1609 72:15 73:2181 74:0 75:889 76:0 77:638 78:0 79:1467 80:0 
1 1:258 2:0 3:316 4:9985 5:638 6:15 7:2367 8:0 9:4444 10:0 11:1161 12:0 13:453 14:0 15:363 16:0 17:497 18:565 19:518 20:8705 21:808 22:285 23:3019 24:66 25:3444 26:377 27:688 28:1 29:578 30:0 31:448 32:1 33:956 34:90 35:408 36:4409 37:458 38:437 39:867 40:41 41:787 42:23 43:400 44:0 45:442 46:0 47:682 48:0 49:658 50:59 51:473 52:4606 53:564 54:310 55:922 56:26 57:994 58:0 59:441 60:0 61:430 62:0 63:519 64:0 65:1814 66:70 67:859 68:9749 69:977 70:181 71:1736 72:0 73:1900 74:0 75:931 76:0 77:865 78:0 79:920 80:0 
1 1:298 2:0 3:239 4:10000 5:592 6:0 7:2409 8:0 9:4392 10:0 11:1223 12:0 13:559 14:0 15:287 16:0 17:477 18:1072 19:443 20:8593 21:812 22:102 23:3001 24:5 25:3513 26:221 27:729 28:6 29:600 30:0 31:424 32:0 33:946 34:81 35:368 36:4594 37:500 38:312 39:850 40:13 41:793 42:0 43:433 44:0 45:406 46:0 47:704 48:0 49:731 50:98 51:390 52:4636 53:553 54:257 55:1032 56:9 57:859 58:0 59:484 60:0 61:374 62:0 63:576 64:0 65:1923 66:119 67:843 68:9799 69:845 70:82 71:2004 72:0 73:1885 74:0 75:912 76:0 77:787 78:0 79:801 80:0 
0.435614306585516 1:516 2:1898 3:366 4:154 5:916 6:3 7:4314 8:6 9:2140 10:898 11:762 12:1500 13:399 14:773 15:587 16:4767 17:1094 18:4459 19:1012 20:3 21:1258 22:0 23:1923 24:0 25:1564 26:144 27:907 28:282 29:994 30:1187 31:1248 32:3925 33:584 34:3559 35:581 36:157 37:648 38:38 39:985 40:31 41:876 42:83 43:386 44:79 45:423 46:30 47:518 48:1023 49:529 50:3459 51:499 52:476 53:686 54:64 55:1004 56:18 57:751 58:463 59:444 60:102 61:538 62:34 63:548 64:384 65:1100 66:7191 67:972 68:800 69:1121 70:216 71:1620 72:1141 73:1616 74:221 75:1177 76:36 77:1164 78:48 79:1230 80:348 
1 1:1611 2:1851 3:1571 4:592 5:645 6:94 7:905 8:38 9:1676 10:6214 11:847 12:292 13:1417 14:322 15:1327 16:597 17:868 18:1783 19:1109 20:2433 21:1497 22:274 23:1704 24:144 25:1706 26:4668 27:1602 28:597 29:979 30:45 31:534 32:56 33:715 34:2064 35:558 36:1933 37:551 38:50 39:564 40:37 41:600 42:816 43:614 44:29 45:735 46:13 47:664 48:59 49:724 50:1189 51:613 52:2079 53:544 54:56 55:614 56:33 57:658 58:1457 59:499 60:20 61:592 62:10 63:756 64:155 65:1097 66:2565 67:1315 68:7018 69:1241 70:32 71:1462 72:42 73:1089 74:229 75:1408 76:33 77:1357 78:25 79:1031 80:56 
1 1:2507 2:8403 3:732 4:56 5:338 6:1 7:663 8:2 9:864 10:174 11:1020 12:831 13:2450 14:292 15:1425 16:241 17:464 18:4072 19:945 20:1273 21:1842 22:28 23:1650 24:10 25:1934 26:3692 27:1503 28:499 29:1262 30:94 31:401 32:331 33:431 34:1723 35:524 36:193 37:634 38:20 39:919 40:27 41:879 42:2763 43:629 44:166 45:654 46:21 47:331 48:86 49:776 50:1062 51:474 52:155 53:522 54:65 55:753 56:47 57:690 58:3401 59:533 60:196 61:505 62:23 63:748 64:52 65:1177 66:1769 67:780 68:1269 69:1064 70:254 71:1564 72:31 73:1882 74:6121 75:1027 76:531 77:1054 78:9 79:1453 80:16 
1 1:672 2:4601 3:1540 4:10 5:3249 6:1 7:1022 8:0 9:1238 10:0 11:896 12:881 13:581 14:2182 15:803 16:2326 17:941 18:2340 19:984 20:1464 21:1284 22:283 23:1693 24:34 25:1543 26:4051 27:1266 28:1708 29:1193 30:50 31:1097 32:69 33:443 34:1900 35:396 36:508 37:692 38:79 39:878 40:41 41:866 42:2044 43:738 44:354 45:536 46:26 47:450 48:48 49:691 50:2463 51:454 52:815 53:582 54:106 55:860 56:127 57:637 58:1110 59:477 60:203 61:595 62:80 63:704 64:98 65:793 66:7013 67:712 68:1957 69:1287 70:121 71:2303 72:28 73:2117 74:306 75:1286 76:98 77:828 78:102 79:675 80:374 
1 1:1059 2:6115 3:387 4:5 5:395 6:1 7:756 8:2 9:968 10:8 11:1946 12:2132 13:2782 14:1323 15:1707 16:414 17:797 18:2188 19:910 20:4194 21:1156 22:1302 23:1773 24:17 25:2257 26:31 27:1454 28:91 29:841 30:104 31:811 32:2073 33:582 34:760 35:535 36:2522 37:522 38:1391 39:823 40:27 41:858 42:35 43:691 44:25 45:437 46:47 47:552 48:194 49:417 50:1389 51:499 52:2453 53:570 54:998 55:791 56:17 57:807 58:7 59:723 60:15 61:790 62:28 63:403 64:94 65:2436 66:4914 67:897 68:4170 69:834 70:639 71:1036 72:10 73:1142 74:32 75:828 76:69 77:985 78:47 79:1841 80:119 
1 1:2431 2:9533 3:557 4:198 5:563 6:2 7:1419 8:1 9:1254 10:0 11:690 12:0 13:1850 14:1 15:1236 16:265 17:1852 18:4118 19:2231 20:908 21:1069 22:56 23:1246 24:17 25:1296 26:4622 27:616 28:178 29:678 30:36 31:1012 32:64 33:635 34:3239 35:887 36:1074 37:521 38:50 39:698 40:48 41:787 42:426 43:465 44:17 45:551 46:7 47:455 48:138 49:786 50:3364 51:352 52:1178 53:421 54:3 55:568 56:3 57:603 58:390 59:394 60:23 61:838 62:6 63:1039 64:33 65:1266 66:4359 67:885 68:881 69:572 70:15 71:680 72:71 73:779 74:4455 75:940 76:57 77:2391 78:10 79:2487 80:151 
0.9711140336726163 1:2533 2:9212 3:1478 4:38 5:690 6:1 7:1052 8:1 9:1871 10:0 11:634 12:0 13:636 14:26 15:1105 16:721 17:1372 18:7233 19:1519 20:1070 21:1142 22:90 23:1362 24:168 25:1466 26:578 27:1026 28:205 29:1165 30:136 31:948 32:519 33:942 34:2753 35:330 36:1450 37:370 38:49 39:441 40:13 41:447 42:669 43:471 44:15 45:897 46:5 47:1101 48:45 49:689 50:1889 51:557 52:273 53:308 54:32 55:269 56:33 57:314 58:2669 59:378 60:19 61:1179 62:4 63:1306 64:79 65:1079 66:4397 67:924 68:129 69:720 70:27 71:943 72:147 73:1064 74:4917 75:1644 76:72 77:1953 78:16 79:1673 80:294 
1 1:635 2:2205 3:3503 4:34 5:1576 6:2 7:1232 8:5 9:1771 10:296 11:714 12:5363 13:323 14:1247 15:246 16:846 17:828 18:3212 19:1184 20:3468 21:1424 22:2758 23:1955 24:66 25:1854 26:83 27:1045 28:56 29:833 30:133 31:878 32:224 33:599 34:2604 35:353 36:715 37:566 38:579 39:869 40:644 41:829 42:266 43:481 44:55 45:550 46:43 47:753 48:93 49:617 50:1738 51:355 52:814 53:537 54:580 55:1149 56:952 57:864 58:428 59:574 60:156 61:356 62:69 63:549 64:264 65:1132 66:5288 67:734 68:3213 69:1307 70:514 71:2027 72:171 73:1336 74:214 75:1821 76:290 77:718 78:68 79:925 80:243 
1 1:122 2:2845 3:200 4:16 5:536 6:1 7:1362 8:0 9:4077 10:1 11:2924 12:4428 13:557 14:1881 15:222 16:828 17:566 18:6095 19:669 20:1815 21:1331 22:698 23:2314 24:272 25:2737 26:97 27:1158 28:344 29:628 30:253 31:598 32:426 33:377 34:2946 35:425 36:1221 37:557 38:304 39:981 40:58 41:1241 42:41 43:670 44:113 45:396 46:185 47:352 48:133 49:307 50:2767 51:402 52:1537 53:835 54:154 55:1063 56:50 57:1199 58:66 59:562 60:47 61:294 62:142 63:338 64:236 65:556 66:6636 67:1010 68:1805 69:1802 70:266 71:1905 72:38 73:2149 74:179 75:1268 76:22 77:741 78:121 79:569 80:933 
1 1:1124 2:256 3:590 4:20 5:613 6:1 7:1018 8:1 9:2879 10:24 11:1811 12:599 13:820 14:3488 15:1145 16:5613 17:564 18:7579 19:655 20:1175 21:962 22:9 23:2022 24:1 25:2742 26:10 27:1587 28:77 29:801 30:281 31:668 32:867 33:737 34:3009 35:387 36:956 37:333 38:19 39:952 40:28 41:1111 42:168 43:448 44:231 45:391 46:234 47:640 48:356 49:667 50:2614 51:393 52:1347 53:459 54:15 55:684 56:10 57:1307 58:23 59:443 60:75 61:423 62:176 63:623 64:740 65:980 66:6669 67:846 68:2036 69:931 70:39 71:1574 72:2 73:2528 74:71 75:1160 76:343 77:938 78:230 79:1043 80:610 
1 1:683 2:473 3:427 4:16 5:2876 6:1 7:3390 8:2 9:1055 10:48 11:439 12:4634 13:256 14:2467 15:875 16:2359 17:1358 18:6301 19:770 20:2835 21:970 22:515 23:1638 24:1 25:1369 26:5 27:1426 28:57 29:1087 30:132 31:1382 32:153 33:300 34:650 35:200 36:3799 37:420 38:549 39:2213 40:0 41:923 42:0 43:334 44:0 45:254 46:0 47:355 48:2 49:646 50:2912 51:449 52:747 53:515 54:655 55:935 56:27 57:773 58:322 59:646 60:74 61:447 62:39 63:591 64:223 65:1494 66:1765 67:968 68:2684 69:1018 70:567 71:1750 72:166 73:1554 74:1264 75:1129 76:1445 77:901 78:129 79:1185 80:1980 
1 1:161 2:4 3:283 4:10 5:468 6:0 7:2554 8:2 9:5180 10:54 11:820 12:8059 13:338 14:1821 15:197 16:50 17:1230 18:8080 19:1224 20:482 21:1080 22:31 23:1454 24:32 25:1929 26:327 27:952 28:555 29:1088 30:120 31:1043 32:374 33:536 34:2299 35:406 36:1302 37:501 38:126 39:981 40:185 41:1113 42:398 43:598 44:438 45:353 46:80 47:512 48:172 49:535 50:1415 51:471 52:1032 53:496 54:668 55:904 56:228 57:1263 58:483 59:562 60:548 61:346 62:93 63:422 64:532 65:1919 66:2143 67:933 68:4854 69:748 70:505 71:1367 72:406 73:2024 74:652 75:931 76:708 77:1039 78:152 79:1039 80:581 
1 1:1791 2:5632 3:832 4:1900 5:983 6:328 7:1088 8:17 9:1699 10:87 11:1203 12:122 13:908 14:403 15:1496 16:1512 17:1074 18:4565 19:1050 20:3220 21:1215 22:84 23:1917 24:272 25:1863 26:280 27:824 28:83 29:821 30:116 31:1235 32:1379 33:652 34:1211 35:537 36:1445 37:387 38:266 39:865 40:235 41:912 42:1134 43:484 44:100 45:508 46:126 47:654 48:482 49:240 50:893 51:290 52:806 53:366 54:76 55:1585 56:372 57:1689 58:1302 59:329 60:157 61:272 62:158 63:229 64:1235 65:732 66:1271 67:572 68:2730 69:792 70:502 71:2556 72:762 73:2613 74:2330 75:1196 76:192 77:803 78:185 79:735 80:2029 
1 1:621 2:1402 3:358 4:40 5:756 6:1 7:3936 8:0 9:2353 10:0 11:704 12:745 13:764 14:2178 15:507 16:5635 17:1639 18:4561 19:1456 20:413 21:1206 22:13 23:653 24:61 25:834 26:470 27:1169 28:600 29:1453 30:1318 31:1589 32:2565 33:757 34:2333 35:625 36:1213 37:481 38:105 39:860 40:265 41:749 42:212 43:364 44:35 45:471 46:58 47:692 48:779 49:485 50:1242 51:375 52:3003 53:499 54:309 55:1144 56:37 57:1177 58:153 59:418 60:53 61:458 62:41 63:445 64:164 65:928 66:1589 67:683 68:3107 69:909 70:1527 71:2361 72:160 73:2585 74:1337 75:1018 76:865 77:767 78:800 79:750 80:616 
1 1:391 2:865 3:428 4:41 5:2471 6:2 7:3739 8:2 9:1574 10:1 11:623 12:1538 13:375 14:4399 15:399 16:3152 17:1042 18:8313 19:921 20:293 21:1300 22:51 23:2005 24:50 25:1571 26:706 27:1190 28:357 29:930 30:52 31:1041 32:178 33:721 34:3903 35:554 36:328 37:629 38:39 39:751 40:61 41:666 42:498 43:483 44:99 45:478 46:42 47:718 48:31 49:646 50:3905 51:476 52:659 53:713 54:77 55:1065 56:22 57:798 58:38 59:348 60:55 61:433 62:28 63:520 64:216 65:600 66:1931 67:595 68:6996 69:1024 70:346 71:3154 72:40 73:1824 74:263 75:1277 76:175 77:843 78:120 79:684 80:129 
1 1:443 2:258 3:265 4:17 5:816 6:4498 7:2043 8:202 9:2195 10:357 11:2815 12:1014 13:945 14:2942 15:478 16:712 17:725 18:4444 19:650 20:4840 21:1172 22:50 23:2307 24:0 25:2495 26:20 27:1201 28:153 29:575 30:148 31:875 32:344 33:303 34:1139 35:314 36:2688 37:559 38:449 39:1129 40:149 41:1287 42:40 43:658 44:96 45:414 46:135 47:335 48:305 49:472 50:1119 51:365 52:2210 53:523 54:595 55:853 56:143 57:1176 58:355 59:641 60:203 61:459 62:104 63:512 64:271 65:1311 66:1513 67:1062 68:5371 69:1118 70:2068 71:1247 72:314 73:1186 74:596 75:1414 76:10 77:1199 78:22 79:1463 80:105 
1 1:856 2:673 3:1310 4:12 5:1609 6:0 7:873 8:0 9:1743 10:0 11:931 12:2069 13:1095 14:2686 15:1583 16:4559 17:1103 18:7561 19:917 20:645 21:1056 22:134 23:1694 24:28 25:1796 26:292 27:968 28:85 29:914 30:211 31:1553 32:1045 33:294 34:2648 35:439 36:833 37:685 38:235 39:1353 40:77 41:929 42:566 43:468 44:107 45:473 46:140 47:360 48:394 49:457 50:2934 51:444 52:904 53:697 54:63 55:1107 56:41 57:939 58:616 59:525 60:26 61:442 62:60 63:389 64:356 65:947 66:7414 67:818 68:557 69:1182 70:14 71:1817 72:27 73:1790 74:285 75:1238 76:115 77:1036 78:101 79:1172 80:1487 
1 1:3924 2:5991 3:1748 4:3661 5:521 6:348 7:272 8:0 9:207 10:0 11:464 12:0 13:720 14:0 15:2144 16:0 17:1384 18:687 19:940 20:8702 21:1238 22:480 23:1437 24:98 25:927 26:27 27:1196 28:1 29:1426 30:0 31:1451 32:6 33:963 34:740 35:652 36:3937 37:465 38:306 39:452 40:12 41:491 42:5 43:445 44:0 45:646 46:0 47:886 48:0 49:1906 50:142 51:167 52:2658 53:126 54:1446 55:75 56:714 57:115 58:39 59:136 60:1 61:342 62:0 63:2134 64:1 65:2769 66:0 67:618 68:2590 69:527 70:4858 71:328 72:2251 73:537 74:302 75:759 76:0 77:1591 78:0 79:2872 80:0 
