svm_type c_svc
kernel_type linear
nr_class 2
total_sv 247
rho 34039
label 1 -1
nr_sv 125 122
SV
512 1:456 2:771 3:276 4:394 5:246 6:58 7:223 8:214 9:27 10:0 11:325 12:523 13:158 14:708 15:651 16:555 17:59 18:697 19:194 20:536 
512 1:333 2:583 3:306 4:673 5:82 6:58 7:523 8:230 9:67 10:477 11:0 12:496 13:95 14:790 15:791 16:660 17:5 18:267 19:111 20:153 
512 1:272 2:646 3:429 4:558 5:98 6:188 7:309 8:56 9:169 10:0 11:8 12:469 13:126 14:429 15:395 16:293 17:73 18:231 19:309 20:360 
512 1:410 2:542 3:347 4:654 5:148 6:72 7:434 8:278 9:102 10:41 11:0 12:424 13:184 14:932 15:856 16:801 17:137 18:208 19:290 20:90 
512 1:308 2:521 3:480 4:625 5:230 6:304 7:523 8:151 9:486 10:229 11:0 12:508 13:184 14:662 15:581 16:450 17:242 18:290 19:235 20:203 
512 1:492 2:531 3:347 4:663 5:164 6:116 7:336 8:353 9:216 10:92 11:12 12:439 13:137 14:977 15:944 16:403 17:466 18:498 19:742 20:662 
512 1:508 2:552 3:388 4:635 5:148 6:130 7:316 8:345 9:302 10:5 11:4 12:447 13:158 14:977 15:926 16:393 17:438 18:489 19:691 20:667 
512 1:374 2:531 3:500 4:846 5:164 6:290 7:625 8:317 9:416 10:0 11:0 12:355 13:74 14:977 15:1000 16:115 17:416 18:389 19:673 20:716 
512 1:251 2:563 3:408 4:644 5:230 6:203 7:543 8:99 9:318 10:14 11:75 12:546 13:100 14:562 15:553 16:398 17:78 18:303 19:46 20:135 
512 1:277 2:563 3:541 4:683 5:180 6:348 7:566 8:163 9:478 10:0 11:4 12:534 13:89 14:699 15:702 16:539 17:37 18:172 19:120 20:68 
512 1:236 2:583 3:327 4:615 5:115 6:101 7:414 8:44 9:125 10:119 11:12 12:534 13:132 14:370 15:330 16:382 17:151 18:176 19:60 20:95 
512 1:226 2:615 3:388 4:692 5:33 6:130 7:633 8:79 9:90 10:0 11:0 12:599 13:147 14:406 15:353 16:361 17:96 18:154 19:74 20:117 
512 1:133 2:365 3:765 4:798 5:426 6:667 7:762 8:36 9:890 10:0 11:0 12:538 13:53 14:347 15:377 16:152 17:73 18:276 19:161 20:113 
512 1:446 2:635 3:592 4:721 5:115 6:420 7:480 8:349 9:267 10:0 11:0 12:527 13:126 14:977 15:953 16:1000 17:55 18:222 19:92 20:104 
512 1:338 2:927 3:265 4:471 5:443 6:116 7:242 8:95 9:0 10:0 11:510 12:454 13:211 14:566 15:460 16:497 17:100 18:312 19:212 20:261 
512 1:400 2:531 3:388 4:654 5:164 6:130 7:430 8:290 9:349 10:5 11:0 12:519 13:89 14:877 15:884 16:801 17:96 18:109 19:189 20:99 
512 1:297 2:677 3:327 4:577 5:98 6:116 7:391 8:99 9:55 10:0 11:67 12:397 13:142 14:534 15:488 16:356 17:59 18:127 19:235 20:369 
512 1:338 2:542 3:357 4:538 5:148 6:116 7:340 8:135 9:220 10:106 11:0 12:416 13:205 14:635 15:535 16:319 17:100 18:222 19:502 20:293 
11.48995396530506 1:395 2:604 3:306 4:529 5:98 6:43 7:270 8:167 9:39 10:50 11:0 12:374 13:163 14:799 15:740 16:628 17:82 18:136 19:240 20:356 
512 1:292 2:583 3:163 4:567 5:98 6:188 7:465 8:91 9:4 10:638 11:16 12:550 13:126 14:511 15:479 16:476 17:132 18:127 19:111 20:158 
512 1:441 2:583 3:357 4:779 5:82 6:101 7:512 8:357 9:180 10:9 11:0 12:443 13:95 14:995 15:1000 16:482 17:457 18:489 19:502 20:518 
512 1:338 2:594 3:296 4:490 5:66 6:87 7:309 8:107 9:86 10:303 11:0 12:519 13:163 14:584 15:521 16:560 17:169 18:335 19:152 20:140 
512 1:421 2:573 3:316 4:510 5:131 6:101 7:238 8:218 9:173 10:220 11:24 12:546 13:216 14:808 15:702 16:634 17:96 18:186 19:295 20:419 
512 1:328 2:542 3:429 4:490 5:148 6:188 7:352 8:87 9:443 10:0 11:0 12:584 13:142 14:562 15:516 16:476 17:274 18:249 19:143 20:158 
512 1:323 2:563 3:316 4:500 5:148 6:87 7:254 8:75 9:75 10:486 11:0 12:340 13:200 14:493 15:395 16:487 17:96 18:199 19:300 20:279 
512 1:344 2:604 3:357 4:740 5:82 6:87 7:551 8:254 9:129 10:18 11:0 12:557 13:89 14:909 15:916 16:298 17:315 18:425 19:226 20:378 
512 1:379 2:698 3:245 4:404 5:180 6:72 7:102 8:63 9:8 10:211 11:224 12:573 13:268 14:493 15:335 16:445 17:196 18:380 19:235 20:293 
512 1:282 2:583 3:367 4:596 5:82 6:101 7:500 8:87 9:94 10:0 11:0 12:359 13:158 14:553 15:493 16:272 17:233 18:90 19:461 20:248 
512 1:133 2:531 3:286 4:769 5:164 6:72 7:781 8:24 9:94 10:670 11:0 12:553 13:95 14:233 15:223 16:283 17:23 18:109 19:41 20:68 
512 1:385 2:552 3:347 4:529 5:131 6:72 7:309 8:163 9:67 10:28 11:0 12:611 13:189 14:735 15:651 16:733 17:146 18:204 19:147 20:158 
165.9890639930267 1:246 2:885 3:276 4:654 5:377 6:29 7:473 8:95 9:0 10:0 11:353 12:405 13:100 14:511 15:502 16:377 17:82 18:81 19:166 20:252 
175.2695479454956 1:441 2:375 3:490 4:327 5:410 6:275 7:4 8:127 9:988 10:0 11:0 12:321 13:316 14:616 15:419 16:471 17:242 18:235 19:498 20:568 
512 1:333 2:313 3:571 4:433 5:508 6:391 7:55 8:52 9:988 10:0 11:0 12:492 13:279 14:466 15:298 16:487 17:192 18:213 19:244 20:252 
512 1:246 2:646 3:388 4:577 5:66 6:130 7:441 8:36 9:59 10:0 11:0 12:435 13:174 14:429 15:353 16:309 17:142 18:195 19:203 20:288 
512 1:436 2:531 3:347 4:279 5:197 6:101 7:31 8:67 9:357 10:14 11:12 12:393 13:321 14:534 15:330 16:524 17:233 18:317 19:461 20:410 
512 1:436 2:542 3:347 4:308 5:180 6:87 7:4 8:83 9:314 10:14 11:8 12:450 13:316 14:566 15:367 16:356 17:685 18:471 19:498 20:450 
512 1:456 2:542 3:347 4:317 5:164 6:101 7:12 8:123 9:239 10:55 11:4 12:370 13:347 14:612 15:386 16:586 17:301 18:267 19:318 20:514 
512 1:344 2:542 3:327 4:452 5:164 6:72 7:238 8:63 9:165 10:50 11:12 12:496 13:211 14:511 15:405 16:455 17:301 18:186 19:304 20:185 
512 1:297 2:573 3:367 4:663 5:131 6:130 7:523 8:131 9:169 10:9 11:4 12:515 13:153 14:658 15:605 16:319 17:114 18:271 19:106 20:378 
512 1:251 2:563 3:327 4:529 5:115 6:58 7:195 8:0 9:90 10:9 11:0 12:504 13:232 14:338 15:209 16:277 17:219 18:253 19:194 20:207 
512 1:379 2:573 3:306 4:365 5:180 6:87 7:59 8:48 9:224 10:37 11:47 12:393 13:284 14:470 15:298 16:414 17:192 18:376 19:419 20:378 
512 1:682 2:573 3:255 4:346 5:98 6:87 7:4 8:460 9:8 10:349 11:0 12:618 13:495 14:913 15:563 16:901 17:429 18:710 19:401 20:432 
512 1:441 2:521 3:378 4:798 5:197 6:116 7:484 8:357 9:294 10:18 11:0 12:321 13:79 14:977 15:995 16:246 17:347 18:412 19:760 20:680 
512 1:236 2:552 3:337 4:673 5:148 6:116 7:570 8:99 9:200 10:271 11:0 12:553 13:84 14:553 15:558 16:419 17:128 18:104 19:65 20:86 
512 1:338 2:583 3:327 4:500 5:82 6:58 7:313 8:111 9:59 10:165 11:0 12:557 13:168 14:594 15:526 16:555 17:91 18:281 19:124 20:239 
437.640865056243 1:215 2:604 3:347 4:673 5:66 6:72 7:598 8:40 9:47 10:32 11:0 12:592 13:147 14:352 15:298 16:288 17:59 18:398 19:143 20:126 
512 1:303 2:615 3:276 4:577 5:66 6:58 7:418 8:111 9:16 10:229 11:16 12:641 13:137 14:571 15:530 16:366 17:137 18:742 19:69 20:131 
512 1:251 2:552 3:571 4:673 5:131 6:391 7:527 8:103 9:592 10:5 11:0 12:607 13:132 14:511 15:474 16:314 17:132 18:434 19:101 20:171 
512 1:359 2:573 3:337 4:413 5:131 6:72 7:141 8:60 9:153 10:9 11:4 12:489 13:247 14:493 15:353 16:524 17:123 18:303 19:276 20:302 
512 1:272 2:771 3:337 4:558 5:328 6:246 7:387 8:52 9:227 10:9 11:302 12:424 13:153 14:466 15:409 16:314 17:183 18:95 19:258 20:360 
512 1:226 2:573 3:388 4:577 5:98 6:130 7:387 8:4 9:149 10:0 11:0 12:569 13:168 14:333 15:260 16:351 17:260 18:186 19:115 20:113 
512 1:292 2:552 3:347 4:548 5:164 6:101 7:328 8:71 9:243 10:64 11:8 12:431 13:189 14:479 15:391 16:408 17:365 18:118 19:171 20:203 
512 1:415 2:698 3:388 4:462 5:311 6:232 7:199 8:187 9:294 10:0 11:318 12:500 13:205 14:731 15:633 16:361 17:333 18:380 19:152 20:518 
512 1:318 2:594 3:347 4:654 5:98 6:101 7:438 8:163 9:118 10:28 11:4 12:637 13:137 14:763 15:726 16:382 17:717 18:186 19:203 20:297 
512 1:226 2:615 3:286 4:683 5:49 6:14 7:508 8:63 9:0 10:248 11:0 12:603 13:147 14:338 15:284 16:157 17:863 18:145 19:111 20:216 
512 1:210 2:615 3:286 4:731 5:49 6:43 7:637 8:75 9:16 10:275 11:8 12:679 13:100 14:447 15:437 16:178 17:87 18:873 19:69 20:117 
512 1:292 2:604 3:296 4:567 5:66 6:14 7:320 8:87 9:0 10:229 11:0 12:603 13:211 14:498 15:391 16:487 17:142 18:362 19:157 20:189 
186.8158695894581 1:149 2:615 3:306 4:808 5:33 6:29 7:797 8:60 9:4 10:115 11:0 12:615 13:95 14:260 15:251 16:115 17:247 18:281 19:60 20:54 
512 1:282 2:615 3:306 4:558 5:49 6:43 7:242 8:44 9:0 10:128 11:0 12:412 13:226 14:393 15:270 16:241 17:406 18:131 19:594 20:203 
512 1:323 2:552 3:337 4:442 5:148 6:72 7:316 8:32 9:306 10:18 11:0 12:332 13:195 14:484 15:391 16:267 17:251 18:118 19:521 20:387 
512 1:262 2:615 3:316 4:548 5:33 6:29 7:395 8:28 9:0 10:0 11:0 12:496 13:153 14:420 15:363 16:272 17:160 18:416 19:106 20:360 
163.9851300207866 1:215 2:583 3:337 4:596 5:82 6:58 7:516 8:0 9:0 10:106 11:0 12:427 13:158 14:370 15:307 16:288 17:100 18:122 19:207 20:311 
512 1:487 2:552 3:367 4:308 5:148 6:101 7:66 8:183 9:188 10:41 11:8 12:385 13:295 14:658 15:479 16:466 17:648 18:208 19:622 20:495 
512 1:369 2:604 3:316 4:404 5:98 6:72 7:238 8:63 9:63 10:206 11:8 12:385 13:211 14:530 15:423 16:346 17:466 18:131 19:498 20:311 
139.727253377063 1:297 2:625 3:327 4:462 5:66 6:43 7:336 8:12 9:8 10:5 11:0 12:294 13:216 14:438 15:326 16:293 17:151 18:131 19:442 20:473 
512 1:333 2:646 3:296 4:471 5:82 6:72 7:227 8:75 9:12 10:92 11:67 12:378 13:216 14:507 15:395 16:455 17:91 18:204 19:230 20:468 
512 1:297 2:615 3:327 4:471 5:66 6:58 7:137 8:20 9:16 10:23 11:8 12:477 13:247 14:379 15:237 16:277 17:215 18:317 19:406 20:248 
512 1:338 2:552 3:337 4:442 5:148 6:72 7:219 8:60 9:161 10:73 11:8 12:385 13:216 14:484 15:372 16:471 17:78 18:190 19:184 20:414 
512 1:333 2:594 3:347 4:519 5:82 6:87 7:324 8:91 9:149 10:23 11:4 12:569 13:184 14:548 15:465 16:398 17:269 18:158 19:442 20:126 
512 1:277 2:563 3:337 4:519 5:131 6:72 7:348 8:32 9:173 10:28 11:0 12:481 13:184 14:434 15:349 16:351 17:78 18:276 19:152 20:320 
512 1:359 2:635 3:306 4:471 5:66 6:58 7:281 8:103 9:39 10:46 11:31 12:576 13:147 14:580 15:530 16:476 17:87 18:416 19:318 20:81 
512 1:267 2:604 3:306 4:538 5:164 6:101 7:293 8:20 9:216 10:60 11:82 12:523 13:179 14:361 15:279 16:314 17:420 18:136 19:92 20:279 
512 1:313 2:615 3:306 4:567 5:33 6:29 7:449 8:139 9:0 10:23 11:0 12:473 13:105 14:630 15:619 16:503 17:18 18:471 19:258 20:185 
512 1:174 2:604 3:439 4:769 5:164 6:232 7:738 8:63 9:239 10:60 11:27 12:485 13:105 14:406 15:391 16:209 17:73 18:109 19:147 20:86 
512 1:282 2:708 3:255 4:596 5:164 6:130 7:410 8:87 9:27 10:106 11:149 12:500 13:137 14:489 15:447 16:335 17:297 18:72 19:189 20:234 
512 1:359 2:625 3:306 4:481 5:82 6:58 7:238 8:107 9:59 10:37 11:20 12:282 13:226 14:575 15:456 16:440 17:205 18:140 19:364 20:351 
512 1:359 2:677 3:214 4:596 5:131 6:159 7:391 8:198 9:43 10:101 11:224 12:767 13:174 14:776 15:707 16:283 17:799 18:335 19:147 20:293 
512 1:446 2:625 3:316 4:317 5:82 6:72 7:51 8:87 9:8 10:18 11:31 12:576 13:332 14:530 15:316 16:366 17:379 18:783 19:364 20:423 
512 1:379 2:698 3:245 4:404 5:180 6:72 7:102 8:63 9:8 10:211 11:224 12:573 13:268 14:493 15:335 16:445 17:196 18:380 19:235 20:293 
512 1:282 2:583 3:367 4:596 5:82 6:101 7:500 8:87 9:94 10:0 11:0 12:359 13:158 14:553 15:493 16:272 17:233 18:90 19:461 20:248 
167.4744844923434 1:344 2:615 3:367 4:548 5:131 6:116 7:297 8:115 9:129 10:69 11:12 12:412 13:163 14:584 15:521 16:628 17:283 18:127 19:92 20:302 
512 1:436 2:531 3:347 4:279 5:197 6:101 7:31 8:67 9:357 10:14 11:12 12:393 13:321 14:534 15:330 16:524 17:233 18:317 19:461 20:410 
512 1:436 2:542 3:347 4:308 5:180 6:87 7:4 8:83 9:314 10:14 11:8 12:450 13:316 14:566 15:367 16:356 17:685 18:471 19:498 20:450 
512 1:456 2:542 3:347 4:317 5:164 6:101 7:12 8:123 9:239 10:55 11:4 12:370 13:347 14:612 15:386 16:586 17:301 18:267 19:318 20:514 
512 1:349 2:563 3:337 4:433 5:197 6:116 7:125 8:60 9:282 10:32 11:43 12:477 13:253 14:493 15:349 16:325 17:479 18:181 19:359 20:320 
466.2080761984846 1:205 2:635 3:337 4:635 5:66 6:87 7:492 8:8 9:24 10:9 11:24 12:477 13:147 14:329 15:274 16:194 17:82 18:190 19:230 20:140 
512 1:292 2:500 3:449 4:529 5:213 6:217 7:449 8:75 9:529 10:0 11:0 12:573 13:184 14:571 15:488 16:503 17:301 18:145 19:276 20:153 
512 1:405 2:500 3:378 4:337 5:213 6:116 7:63 8:71 9:373 10:14 11:0 12:538 13:311 14:521 15:326 16:408 17:489 18:561 19:309 20:257 
512 1:344 2:542 3:327 4:452 5:164 6:72 7:238 8:63 9:165 10:50 11:12 12:496 13:211 14:511 15:405 16:455 17:301 18:186 19:304 20:185 
512 1:297 2:573 3:367 4:663 5:131 6:130 7:523 8:131 9:169 10:9 11:4 12:515 13:153 14:658 15:605 16:319 17:114 18:271 19:106 20:378 
512 1:251 2:563 3:327 4:529 5:115 6:58 7:195 8:0 9:90 10:9 11:0 12:504 13:232 14:338 15:209 16:277 17:219 18:253 19:194 20:207 
512 1:379 2:573 3:306 4:365 5:180 6:87 7:59 8:48 9:224 10:37 11:47 12:393 13:284 14:470 15:298 16:414 17:192 18:376 19:419 20:378 
298.2805238512621 1:262 2:552 3:337 4:519 5:131 6:72 7:90 8:0 9:94 10:0 11:0 12:450 13:263 14:324 15:167 16:225 17:301 18:186 19:327 20:365 
512 1:436 2:531 3:357 4:317 5:180 6:101 7:51 8:103 9:251 10:0 11:0 12:359 13:311 14:584 15:391 16:429 17:155 18:407 19:544 20:482 
512 1:236 2:583 3:316 4:625 5:131 6:72 7:523 8:40 9:98 10:9 11:20 12:550 13:174 14:356 15:279 16:366 17:274 18:172 19:138 20:126 
512 1:333 2:573 3:337 4:452 5:164 6:87 7:234 8:67 9:173 10:32 11:35 12:382 13:216 14:493 15:381 16:335 17:228 18:204 19:401 20:396 
512 1:369 2:635 3:378 4:433 5:82 6:145 7:215 8:91 9:188 10:32 11:0 12:393 13:205 14:589 15:488 16:236 17:397 18:253 19:290 20:568 
326.7203599399986 1:215 2:604 3:347 4:673 5:66 6:72 7:598 8:40 9:47 10:32 11:0 12:592 13:147 14:352 15:298 16:288 17:59 18:398 19:143 20:126 
512 1:359 2:573 3:337 4:413 5:131 6:72 7:141 8:60 9:153 10:9 11:4 12:489 13:247 14:493 15:353 16:524 17:123 18:303 19:276 20:302 
512 1:292 2:552 3:347 4:548 5:164 6:101 7:328 8:71 9:243 10:64 11:8 12:431 13:189 14:479 15:391 16:408 17:365 18:118 19:171 20:203 
512 1:313 2:635 3:316 4:663 5:33 6:58 7:516 8:151 9:20 10:50 11:4 12:485 13:121 14:703 15:679 16:377 17:571 18:118 19:327 20:81 
512 1:549 2:635 3:306 4:365 5:66 6:116 7:78 8:270 9:94 10:197 11:31 12:401 13:332 14:868 15:660 16:576 17:164 18:321 19:926 20:473 
512 1:272 2:583 3:378 4:663 5:115 6:130 7:430 8:103 9:129 10:5 11:12 12:576 13:158 14:479 15:419 16:183 17:626 18:195 19:221 20:212 
512 1:292 2:604 3:327 4:606 5:82 6:72 7:445 8:107 9:43 10:41 11:12 12:477 13:168 14:516 15:447 16:403 17:219 18:113 19:129 20:176 
512 1:246 2:406 3:510 4:606 5:361 6:304 7:406 8:44 9:667 10:0 11:0 12:603 13:179 14:347 15:265 16:340 17:178 18:235 19:134 20:131 
88.38022731508875 1:149 2:333 3:602 4:740 5:475 6:435 7:836 8:8 9:980 10:0 11:0 12:508 13:179 14:164 15:79 16:178 17:114 18:145 19:111 20:135 
512 1:272 2:500 3:449 4:529 5:213 6:217 7:309 8:24 9:506 10:0 11:0 12:538 13:205 14:388 15:284 16:340 17:219 18:303 19:171 20:126 
512 1:262 2:510 3:378 4:558 5:197 6:116 7:359 8:32 9:247 10:0 11:0 12:634 13:216 14:388 15:274 16:230 17:420 18:394 19:157 20:140 
512 1:313 2:500 3:398 4:452 5:213 6:145 7:55 8:24 9:365 10:0 11:0 12:519 13:289 14:393 15:214 16:393 17:242 18:303 19:235 20:212 
512 1:292 2:469 3:388 4:500 5:262 6:130 7:215 8:32 9:427 10:0 11:0 12:546 13:211 14:425 15:316 16:372 17:297 18:534 19:129 20:176 
346.5664686042022 1:313 2:552 3:388 4:500 5:148 6:130 7:191 8:56 9:278 10:0 11:0 12:546 13:226 14:475 15:353 16:445 17:169 18:557 19:92 20:239 
512 1:190 2:365 3:418 4:692 5:426 6:174 7:395 8:24 9:639 10:0 11:0 12:626 13:79 14:265 15:270 16:246 17:132 18:416 19:23 20:54 
512 1:251 2:604 3:347 4:663 5:49 6:72 7:555 8:95 9:106 10:9 11:0 12:721 13:126 14:507 15:474 16:293 17:420 18:122 19:65 20:81 
512 1:472 2:604 3:276 4:635 5:49 6:43 7:285 8:290 9:24 10:261 11:0 12:664 13:221 14:995 15:888 16:754 17:183 18:403 19:147 20:167 
512 1:190 2:563 3:255 4:712 5:115 6:43 7:621 8:48 9:16 10:711 11:0 12:645 13:111 14:324 15:302 16:262 17:311 18:109 19:41 20:77 
512 1:205 2:563 3:327 4:692 5:115 6:43 7:605 8:48 9:86 10:110 11:0 12:626 13:132 14:338 15:298 16:272 17:333 18:113 19:55 20:95 
512 1:231 2:500 3:418 4:731 5:213 6:174 7:535 8:79 9:388 10:0 11:0 12:706 13:116 14:333 15:307 16:398 17:192 18:190 19:74 20:72 
512 1:323 2:552 3:357 4:500 5:148 6:87 7:273 8:83 9:161 10:9 11:0 12:496 13:221 14:507 15:391 16:419 17:137 18:262 19:235 20:162 
512 1:256 2:500 3:398 4:567 5:213 6:145 7:379 8:24 9:435 10:0 11:0 12:576 13:179 14:411 15:330 16:330 17:438 18:109 19:161 20:149 
512 1:369 2:521 3:561 4:471 5:180 6:377 7:211 8:119 9:749 10:0 11:0 12:615 13:184 14:594 15:512 16:429 17:498 18:484 19:129 20:329 
512 1:277 2:510 3:469 4:538 5:213 6:246 7:262 8:48 9:620 10:0 11:0 12:592 13:184 14:347 15:260 16:340 17:242 18:258 19:189 20:171 
512 1:395 2:583 3:531 4:394 5:82 6:333 7:102 8:139 9:667 10:0 11:0 12:534 13:300 14:635 15:451 16:476 17:370 18:339 19:235 20:266 
512 1:267 2:531 3:357 4:644 5:197 6:217 7:473 8:99 9:290 10:275 11:35 12:427 13:132 14:498 15:460 16:319 17:388 18:68 19:138 20:405 
512 1:369 2:552 3:265 4:510 5:131 6:58 7:305 8:143 9:8 10:894 11:0 12:546 13:205 14:653 15:553 16:476 17:169 18:380 19:152 20:225 
512 1:313 2:469 3:571 4:490 5:279 6:391 7:180 8:63 9:706 10:0 11:0 12:412 13:232 14:457 15:330 16:414 17:137 18:181 19:419 20:185 
-218.3439109002076 1:497 2:990 3:102 4:385 5:557 6:290 7:0 8:238 9:4 10:0 11:627 12:233 13:379 14:840 15:591 16:445 17:269 18:290 19:834 20:577 
-413.8494038613465 1:436 2:771 3:194 4:202 5:197 6:130 7:0 8:0 9:0 10:64 11:569 12:412 13:426 14:511 15:214 16:529 17:297 18:321 19:373 20:550 
-512 1:374 2:448 3:541 4:308 5:295 6:348 7:66 8:0 9:776 10:0 11:0 12:595 13:347 14:447 15:219 16:403 17:411 18:475 19:147 20:302 
-512 1:400 2:573 3:388 4:260 5:131 6:130 7:43 8:0 9:275 10:0 11:0 12:515 13:379 14:457 15:200 16:497 17:251 18:462 19:240 20:369 
-512 1:190 2:427 3:429 4:663 5:328 6:217 7:570 8:8 9:486 10:234 11:4 12:595 13:84 14:370 15:372 16:173 17:301 18:290 19:111 20:113 
-512 1:200 2:531 3:439 4:635 5:164 6:203 7:438 8:0 9:420 10:0 11:0 12:611 13:79 14:379 15:386 16:215 17:329 18:380 19:37 20:72 
-512 1:195 2:406 3:612 4:702 5:361 6:449 7:598 8:36 9:749 10:0 11:0 12:447 13:184 14:219 15:130 16:188 17:128 18:271 19:157 20:387 
-512 1:195 2:448 3:694 4:644 5:295 6:565 7:309 8:0 9:675 10:0 11:0 12:500 13:168 14:242 15:167 16:220 17:196 18:213 19:97 20:131 
-512 1:246 2:458 3:469 4:548 5:279 6:246 7:258 8:4 9:714 10:0 11:0 12:519 13:89 14:356 15:353 16:325 17:205 18:158 19:143 20:207 
-512 1:277 2:563 3:337 4:596 5:131 6:87 7:441 8:107 9:227 10:133 11:0 12:672 13:89 14:580 15:581 16:277 17:603 18:321 19:157 20:117 
-512 1:174 2:583 3:388 4:683 5:98 6:130 7:590 8:0 9:282 10:0 11:0 12:637 13:89 14:397 15:395 16:241 17:279 18:335 19:28 20:50 
-512 1:364 2:458 3:429 4:346 5:279 6:188 7:102 8:20 9:569 10:0 11:0 12:626 13:274 14:484 15:321 16:403 17:457 18:471 19:134 20:252 
-512 1:349 2:708 3:306 4:356 5:131 6:58 7:70 8:0 9:47 10:0 11:55 12:626 13:274 14:434 15:270 16:372 17:406 18:394 19:212 20:221 
-512 1:533 2:500 3:347 4:442 5:262 6:116 7:211 8:369 9:412 10:303 11:0 12:263 13:189 14:840 15:758 16:859 17:105 18:86 19:401 20:414 
-512 1:472 2:740 3:214 4:192 5:148 6:101 7:0 8:83 9:0 10:284 11:0 12:427 13:479 14:575 15:233 16:607 17:356 18:357 19:424 20:392 
-512 1:128 2:490 3:469 4:769 5:246 6:246 7:617 8:12 9:439 10:0 11:0 12:443 13:100 14:228 15:214 16:215 17:14 18:45 19:69 20:212 
-512 1:446 2:740 3:204 4:490 5:164 6:116 7:199 8:218 9:0 10:41 11:357 12:450 13:211 14:858 15:758 16:565 17:333 18:290 19:410 20:171 
-512 1:492 2:719 3:224 4:490 5:131 6:87 7:94 8:349 9:0 10:28 11:329 12:359 13:311 14:826 15:637 16:665 17:233 18:240 19:608 20:288 
-512 1:256 2:500 3:500 4:519 5:213 6:290 7:184 8:0 9:510 10:0 11:0 12:569 13:232 14:329 15:200 16:277 17:329 18:330 19:203 20:194 
-512 1:41 2:490 3:592 4:952 5:230 6:420 7:980 8:12 9:561 10:0 11:0 12:489 13:58 14:68 15:88 16:68 17:64 18:95 19:32 20:50 
-512 1:574 2:625 3:296 4:654 5:33 6:29 7:281 8:476 9:0 10:119 11:0 12:183 13:147 14:932 15:888 16:455 17:648 18:127 19:871 20:869 
-512 1:328 2:490 3:439 4:404 5:279 6:246 7:70 8:8 9:498 10:69 11:16 12:500 13:284 14:425 15:251 16:419 17:292 18:262 19:235 20:221 
-512 1:313 2:583 3:378 4:433 5:131 6:130 7:367 8:8 9:235 10:0 11:8 12:687 13:216 14:475 15:363 16:398 17:425 18:285 19:134 20:158 
-512 1:313 2:594 3:327 4:519 5:82 6:43 7:398 8:87 9:118 10:0 11:0 12:729 13:137 14:543 15:502 16:476 17:361 18:376 19:97 20:104 
-512 1:262 2:615 3:408 4:538 5:328 6:232 7:379 8:24 9:353 10:0 11:204 12:466 13:153 14:461 15:405 16:461 17:123 18:95 19:120 20:95 
-512 1:231 2:313 3:663 4:577 5:508 6:522 7:410 8:8 9:937 10:0 11:0 12:328 13:68 14:447 15:465 16:408 17:23 18:0 19:249 20:261 
-512 1:185 2:521 3:500 4:654 5:295 6:290 7:461 8:0 9:478 10:0 11:0 12:492 13:147 14:260 15:205 16:225 17:174 18:190 19:115 20:81 
-512 1:246 2:260 3:531 4:567 5:590 6:333 7:129 8:12 9:922 10:0 11:0 12:489 13:253 14:288 15:140 16:319 17:192 18:204 19:189 20:198 
-512 1:236 2:302 3:571 4:587 5:525 6:391 7:316 8:20 9:859 10:0 11:0 12:542 13:221 14:315 15:195 16:262 17:274 18:213 19:212 20:185 
-509.4614889262446 1:774 2:719 3:214 4:567 5:115 6:116 7:35 8:583 9:0 10:151 11:208 12:206 13:458 14:986 15:670 16:738 17:671 18:457 19:968 20:892 
-512 1:123 2:448 3:612 4:798 5:328 6:464 7:883 8:16 9:675 10:0 11:0 12:469 13:158 14:151 15:84 16:183 17:137 18:136 19:97 20:108 
-512 1:308 2:375 3:480 4:490 5:410 6:261 7:141 8:44 9:855 10:0 11:0 12:634 13:247 14:402 15:260 16:461 17:237 18:303 19:171 20:104 
-512 1:185 2:281 3:663 4:663 5:557 6:522 7:563 8:8 9:894 10:0 11:0 12:389 13:158 14:288 15:223 16:230 17:100 18:122 19:184 20:185 
-512 1:97 2:490 3:541 4:827 5:230 6:348 7:723 8:4 9:522 10:0 11:0 12:573 13:84 14:210 15:209 16:79 17:178 18:190 19:55 20:54 
-512 1:103 2:323 3:653 4:808 5:492 6:507 7:941 8:0 9:898 10:0 11:0 12:492 13:132 14:137 15:93 16:126 17:82 18:90 19:74 20:135 
-512 1:303 2:521 3:480 4:471 5:230 6:261 7:63 8:28 9:478 10:0 11:0 12:469 13:279 14:397 15:228 16:466 17:192 18:163 19:244 20:225 
-512 1:241 2:458 3:418 4:558 5:279 6:174 7:305 8:0 9:271 10:0 11:0 12:469 13:168 14:338 15:265 16:199 17:237 18:253 19:263 20:284 
-512 1:123 2:469 3:449 4:779 5:262 6:217 7:766 8:4 9:431 10:0 11:0 12:523 13:89 14:178 15:172 16:110 17:164 18:208 19:134 20:126 
-512 1:256 2:406 3:480 4:663 5:361 6:261 7:488 8:95 9:553 10:0 11:0 12:691 13:121 14:525 15:498 16:403 17:183 18:285 19:78 20:86 
-512 1:338 2:542 3:398 4:385 5:164 6:145 7:156 8:8 9:298 10:0 11:0 12:603 13:221 14:493 15:377 16:476 17:361 18:249 19:203 20:149 
-104.4971102693443 1:297 2:615 3:316 4:481 5:115 6:87 7:371 8:28 9:125 10:78 11:43 12:634 13:95 14:539 15:535 16:346 17:470 18:186 19:184 20:162 
-512 1:303 2:594 3:316 4:760 5:82 6:43 7:613 8:218 9:43 10:9 11:0 12:779 13:100 14:836 15:833 16:497 17:621 18:59 19:55 20:59 
-512 1:251 2:542 3:357 4:548 5:164 6:116 7:418 8:12 9:271 10:124 11:0 12:695 13:79 14:425 15:433 16:314 17:251 18:376 19:18 20:63 
-512 1:344 2:583 3:327 4:500 5:115 6:87 7:199 8:95 9:78 10:216 11:27 12:420 13:211 14:484 15:377 16:340 17:301 18:321 19:346 20:405 
-512 1:456 2:573 3:306 4:462 5:98 6:29 7:94 8:187 9:0 10:257 11:0 12:244 13:268 14:936 15:786 16:372 17:247 18:253 19:853 20:532 
-512 1:359 2:615 3:296 4:500 5:33 6:14 7:293 8:131 9:0 10:92 11:0 12:706 13:174 14:621 15:549 16:576 17:292 18:312 19:97 20:117 
-512 1:241 2:542 3:531 4:663 5:148 6:348 7:613 8:103 9:612 10:60 11:0 12:626 13:158 14:548 15:488 16:136 17:644 18:208 19:180 20:198 
-512 1:385 2:594 3:347 4:298 5:98 6:87 7:0 8:8 9:78 10:18 11:0 12:382 13:353 14:475 15:242 16:361 17:333 18:281 19:525 20:523 
-512 1:349 2:604 3:265 4:587 5:98 6:29 7:375 8:143 9:27 10:436 11:8 12:615 13:153 14:680 15:628 16:565 17:365 18:167 19:88 20:153 
-512 1:405 2:573 3:357 4:413 5:148 6:130 7:176 8:111 9:282 10:96 11:24 12:527 13:221 14:594 15:479 16:545 17:311 18:253 19:387 20:176 
-512 1:364 2:615 3:296 4:538 5:49 6:14 7:270 8:131 9:0 10:179 11:0 12:557 13:168 14:639 15:572 16:534 17:82 18:371 19:217 20:243 
-512 1:405 2:656 3:276 4:404 5:49 6:58 7:195 8:115 9:4 10:284 11:31 12:466 13:179 14:598 15:521 16:466 17:96 18:407 19:369 20:491 
-512 1:297 2:552 3:337 4:500 5:164 6:101 7:227 8:56 9:263 10:119 11:8 12:576 13:195 14:457 15:363 16:241 17:447 18:262 19:244 20:162 
-512 1:379 2:667 3:255 4:519 5:49 6:58 7:336 8:266 9:0 10:390 11:16 12:168 13:142 14:708 15:665 16:366 17:64 18:176 19:714 20:554 
-512 1:482 2:625 3:286 4:433 5:66 6:43 7:78 8:214 9:35 10:266 11:0 12:580 13:284 14:886 15:721 16:649 17:315 18:525 19:359 20:333 
-106.9877279996966 1:487 2:656 3:276 4:144 5:49 6:29 7:8 8:28 9:0 10:64 11:27 12:450 13:489 14:521 15:167 16:508 17:333 18:398 19:433 20:559 
-512 1:421 2:635 3:296 4:529 5:49 6:29 7:371 8:286 9:0 10:18 11:31 12:492 13:147 14:799 15:753 16:466 17:434 18:443 19:415 20:581 
-511.0921503905844 1:400 2:656 3:276 4:356 5:66 6:43 7:141 8:63 9:0 10:78 11:27 12:626 13:184 14:511 15:428 16:450 17:320 18:543 19:83 20:532 
-512 1:421 2:635 3:286 4:404 5:16 6:14 7:82 8:159 9:0 10:14 11:0 12:260 13:268 14:653 15:498 16:524 17:279 18:172 19:516 20:333 
-512 1:415 2:635 3:296 4:615 5:16 6:14 7:305 8:214 9:0 10:37 11:0 12:698 13:168 14:995 15:935 16:503 17:137 18:570 19:198 20:257 
-512 1:379 2:604 3:276 4:471 5:82 6:29 7:215 8:111 9:0 10:440 11:4 12:481 13:211 14:580 15:474 16:429 17:347 18:226 19:415 20:261 
-512 1:385 2:604 3:296 4:567 5:66 6:14 7:324 8:187 9:0 10:252 11:0 12:447 13:158 14:804 15:749 16:581 17:87 18:416 19:134 20:329 
-512 1:292 2:635 3:286 4:606 5:49 6:14 7:406 8:151 9:0 10:73 11:0 12:511 13:147 14:685 15:637 16:466 17:73 18:167 19:323 20:225 
-512 1:313 2:479 3:418 4:413 5:246 6:174 7:371 8:0 9:502 10:0 11:0 12:687 13:95 14:479 15:474 16:455 17:201 18:480 19:46 20:59 
-512 1:333 2:656 3:276 4:644 5:49 6:29 7:430 8:159 9:4 10:73 11:16 12:679 13:137 14:721 15:684 16:487 17:283 18:303 19:97 20:131 
-512 1:410 2:563 3:306 4:519 5:131 6:43 7:273 8:202 9:20 10:459 11:4 12:279 13:189 14:836 15:753 16:366 17:123 18:281 19:558 20:734 
-512 1:195 2:813 3:184 4:635 5:262 6:145 7:520 8:0 9:0 10:9 11:557 12:618 13:126 14:356 15:321 16:293 17:132 18:244 19:74 20:77 
-512 1:733 2:625 3:306 4:625 5:82 6:72 7:70 8:540 9:71 10:96 11:39 12:0 13:321 14:995 15:800 16:775 17:370 18:258 19:1000 20:1000 
-512 1:605 2:594 3:306 4:481 5:98 6:72 7:43 8:393 9:12 10:436 11:4 12:126 13:321 14:932 15:735 16:581 17:292 18:326 19:954 20:964 
-306.5211471128649 1:492 2:573 3:347 4:356 5:148 6:101 7:125 8:290 9:247 10:18 11:8 12:401 13:247 14:740 15:605 16:665 17:128 18:321 19:493 20:545 
-126.2114843835743 1:385 2:510 3:561 4:471 5:213 6:377 7:262 8:179 9:796 10:23 11:0 12:553 13:189 14:689 15:605 16:304 17:534 18:425 19:479 20:324 
-512 1:333 2:604 3:347 4:529 5:49 6:72 7:207 8:95 9:0 10:28 11:0 12:366 13:242 14:493 15:358 16:403 17:151 18:244 19:512 20:284 
-362.1972698748202 1:451 2:615 3:296 4:385 5:66 6:29 7:137 8:155 9:0 10:284 11:0 12:450 13:242 14:662 15:530 16:419 17:192 18:855 19:410 20:554 
-512 1:267 2:531 3:480 4:692 5:197 6:261 7:555 8:127 9:541 10:0 11:20 12:469 13:121 14:635 15:609 16:168 17:247 18:158 19:194 20:437 
-512 1:231 2:479 3:602 4:654 5:295 6:449 7:578 8:56 9:616 10:14 11:12 12:408 13:121 14:452 15:423 16:372 17:50 18:90 19:378 20:203 
-512 1:282 2:604 3:306 4:538 5:49 6:29 7:508 8:44 9:86 10:18 11:0 12:748 13:89 14:516 15:516 16:330 17:461 18:462 19:37 20:54 
-512 1:241 2:521 3:378 4:577 5:180 6:116 7:535 8:20 9:353 10:0 11:0 12:821 13:89 14:493 15:493 16:277 17:342 18:452 19:28 20:50 
-512 1:333 2:646 3:286 4:683 5:16 6:29 7:488 8:167 9:0 10:206 11:0 12:637 13:142 14:963 15:926 16:356 17:274 18:385 19:235 20:257 
-512 1:297 2:510 3:439 4:510 5:197 6:203 7:363 8:48 9:365 10:0 11:0 12:489 13:126 14:484 15:451 16:377 17:123 18:226 19:221 20:176 
-512 1:292 2:646 3:276 4:567 5:82 6:72 7:355 8:67 9:24 10:78 11:59 12:626 13:126 14:502 15:470 16:398 17:151 18:204 19:258 20:117 
-512 1:267 2:604 3:357 4:577 5:82 6:116 7:379 8:44 9:90 10:41 11:12 12:462 13:121 14:461 15:433 16:340 17:178 18:172 19:175 20:207 
-512 1:328 2:656 3:265 4:567 5:82 6:72 7:309 8:123 9:8 10:119 11:94 12:481 13:179 14:603 15:526 16:455 17:123 18:222 19:217 20:338 
-512 1:421 2:646 3:276 4:385 5:82 6:58 7:172 8:127 9:8 10:165 11:75 12:393 13:211 14:616 15:512 16:529 17:260 18:222 19:230 20:563 
-512 1:451 2:625 3:296 4:413 5:82 6:58 7:137 8:198 9:0 10:101 11:4 12:401 13:237 14:744 15:619 16:686 17:219 18:217 19:424 20:297 
-512 1:364 2:625 3:286 4:558 5:49 6:43 7:285 8:167 9:4 10:124 11:0 12:538 13:189 14:817 15:735 16:450 17:507 18:167 19:300 20:180 
-512 1:421 2:635 3:306 4:404 5:49 6:43 7:74 8:123 9:8 10:32 11:16 12:405 13:311 14:612 15:419 16:597 17:269 18:244 19:276 20:419 
-512 1:282 2:625 3:296 4:635 5:49 6:43 7:453 8:107 9:20 10:188 11:0 12:431 13:142 14:548 15:502 16:492 17:55 18:136 19:171 20:149 
-512 1:313 2:594 3:337 4:548 5:82 6:72 7:250 8:99 9:51 10:28 11:0 12:489 13:195 14:516 15:423 16:435 17:132 18:235 19:175 20:306 
-512 1:349 2:667 3:276 4:519 5:82 6:72 7:258 8:127 9:8 10:41 11:75 12:595 13:211 14:621 15:516 16:445 17:379 18:204 19:295 20:207 
-512 1:359 2:646 3:276 4:548 5:66 6:72 7:344 8:151 9:0 10:23 11:78 12:592 13:174 14:689 15:619 16:403 17:507 18:154 19:364 20:144 
-512 1:374 2:635 3:296 4:375 5:49 6:29 7:66 8:56 9:4 10:50 11:16 12:504 13:332 14:452 15:237 16:414 17:279 18:285 19:295 20:383 
-512 1:369 2:635 3:296 4:529 5:49 6:43 7:223 8:119 9:0 10:119 11:4 12:477 13:200 14:589 15:493 16:435 17:219 18:154 19:332 20:243 
-512 1:282 2:646 3:286 4:577 5:16 6:14 7:344 8:60 9:0 10:60 11:0 12:492 13:174 14:374 15:298 16:288 17:78 18:321 19:171 20:315 
-512 1:467 2:656 3:276 4:394 5:49 6:43 7:43 8:155 9:0 10:174 11:8 12:588 13:321 14:753 15:553 16:649 17:347 18:249 19:346 20:284 
-512 1:349 2:646 3:265 4:731 5:33 6:29 7:551 8:210 9:0 10:115 11:0 12:752 13:168 14:963 15:902 16:571 17:183 18:199 19:134 20:144 
-512 1:297 2:479 3:388 4:538 5:246 6:130 7:379 8:79 9:463 10:0 11:0 12:420 13:126 14:525 15:493 16:366 17:137 18:127 19:318 20:230 
-512 1:385 2:448 3:398 4:471 5:295 6:145 7:328 8:179 9:494 10:0 11:0 12:401 13:153 14:667 15:614 16:524 17:160 18:308 19:189 20:491 
-512 1:395 2:448 3:408 4:433 5:295 6:159 7:297 8:119 9:580 10:0 11:0 12:351 13:142 14:612 15:567 16:487 17:169 18:443 19:382 20:437 
-512 1:415 2:427 3:408 4:471 5:328 6:159 7:250 8:218 9:624 10:9 11:0 12:317 13:121 14:717 15:693 16:592 17:306 18:154 19:212 20:450 
-315.3861306300683 1:421 2:688 3:306 4:462 5:98 6:58 7:203 8:210 9:0 10:0 11:43 12:611 13:232 14:726 15:605 16:628 17:283 18:326 19:189 20:207 
-512 1:344 2:656 3:296 4:471 5:66 6:58 7:367 8:95 9:0 10:14 11:43 12:531 13:179 14:589 15:512 16:476 17:160 18:208 19:143 20:198 
-512 1:287 2:677 3:306 4:606 5:66 6:43 7:480 8:111 9:0 10:5 11:8 12:637 13:189 14:571 15:484 16:403 17:174 18:222 19:111 20:167 
-512 1:431 2:688 3:276 4:481 5:98 6:58 7:180 8:238 9:0 10:9 11:63 12:592 13:242 14:749 15:619 16:675 17:201 18:299 19:184 20:234 
-512 1:426 2:656 3:306 4:538 5:49 6:43 7:234 8:250 9:8 10:9 11:4 12:450 13:226 14:813 15:698 16:670 17:178 18:357 19:281 20:230 
-512 1:456 2:615 3:337 4:442 5:66 6:101 7:145 8:210 9:94 10:0 11:12 12:504 13:221 14:813 15:702 16:628 17:100 18:520 19:207 20:293 
-512 1:431 2:635 3:347 4:490 5:66 6:87 7:215 8:234 9:110 10:0 11:4 12:282 13:221 14:781 15:670 16:696 17:183 18:222 19:346 20:257 
-512 1:333 2:573 3:306 4:644 5:131 6:43 7:520 8:187 9:98 10:115 11:0 12:611 13:174 14:822 15:753 16:408 17:110 18:579 19:124 20:162 
-512 1:338 2:573 3:327 4:519 5:98 6:43 7:352 8:135 9:16 10:179 11:0 12:317 13:179 14:644 15:567 16:340 17:146 18:339 19:636 20:419 
-512 1:313 2:615 3:316 4:500 5:49 6:43 7:273 8:67 9:31 10:5 11:0 12:462 13:163 14:484 15:419 16:461 17:247 18:244 19:207 20:113 
-512 1:328 2:656 3:316 4:462 5:33 6:29 7:270 8:63 9:8 10:0 11:0 12:313 13:211 14:479 15:372 16:335 17:187 18:258 19:401 20:351 
-512 1:241 2:583 3:306 4:587 5:98 6:29 7:391 8:28 9:8 10:482 11:0 12:538 13:179 14:352 15:270 16:225 17:374 18:335 19:138 20:167 
-512 1:231 2:583 3:306 4:606 5:98 6:14 7:445 8:28 9:8 10:450 11:0 12:584 13:168 14:347 15:274 16:246 17:416 18:353 19:101 20:149 
-512 1:215 2:615 3:296 4:596 5:33 6:14 7:434 8:4 9:0 10:261 11:0 12:538 13:132 14:379 15:340 16:325 17:205 18:109 19:106 20:99 
-512 1:236 2:615 3:306 4:644 5:33 6:29 7:406 8:48 9:0 10:142 11:0 12:588 13:189 14:306 15:214 16:178 17:205 18:566 19:120 20:194 
-512 1:226 2:615 3:306 4:673 5:33 6:14 7:586 8:63 9:0 10:9 11:0 12:576 13:158 14:402 15:340 16:178 17:78 18:643 19:120 20:185 
-512 1:195 2:615 3:316 4:663 5:33 6:43 7:609 8:16 9:0 10:41 11:0 12:557 13:147 14:347 15:293 16:236 17:164 18:208 19:138 20:122 
-512 1:267 2:615 3:306 4:558 5:33 6:29 7:395 8:44 9:0 10:92 11:0 12:653 13:158 14:461 15:400 16:257 17:292 18:633 19:129 20:221 
-512 1:221 2:615 3:316 4:596 5:33 6:29 7:504 8:4 9:0 10:32 11:0 12:397 13:168 14:342 15:270 16:204 17:256 18:253 19:258 20:342 
-512 1:323 2:615 3:337 4:663 5:33 6:58 7:484 8:139 9:0 10:0 11:0 12:733 13:216 14:804 15:698 16:283 17:279 18:371 19:129 20:189 
-512 1:169 2:625 3:286 4:683 5:16 6:14 7:508 8:0 9:0 10:119 11:0 12:496 13:147 14:224 15:167 16:194 17:205 18:163 19:161 20:153 
-512 1:236 2:615 3:306 4:606 5:49 6:14 7:367 8:32 9:4 10:41 11:0 12:443 13:153 14:333 15:274 16:267 17:338 18:127 19:221 20:221 
-512 1:87 2:594 3:306 4:837 5:66 6:14 7:891 8:0 9:0 10:225 11:0 12:500 13:111 14:151 15:126 16:110 17:146 18:68 19:78 20:68 
