svm_type c_svc
kernel_type linear
nr_class 2
total_sv 370
rho 46893
label 1 -1
nr_sv 186 184
SV
512 1:495 2:429 3:545 4:456 5:149 6:61 7:128 8:125 9:253 10:575 11:0 12:0 13:383 14:553 15:781 16:47 17:37 18:485 19:513 
512 1:297 2:269 3:579 4:359 5:448 6:286 7:282 8:384 9:131 10:421 11:196 12:102 13:620 14:543 15:979 16:126 17:65 18:471 19:592 
512 1:354 2:423 3:545 4:427 5:522 6:163 7:128 8:405 9:249 10:413 11:0 12:0 13:617 14:378 15:984 16:193 17:212 18:436 19:529 
512 1:260 2:397 3:620 4:417 5:328 6:143 7:282 8:534 9:176 10:264 11:0 12:0 13:526 14:899 15:930 16:161 17:269 18:319 19:581 
512 1:245 2:199 3:579 4:379 5:194 6:184 7:282 8:401 9:8 10:248 11:86 12:0 13:464 14:404 15:690 16:110 17:33 18:299 19:581 
512 1:401 2:327 3:397 4:495 5:224 6:327 7:282 8:181 9:65 10:614 11:129 12:0 13:482 14:378 15:743 16:75 17:24 18:402 19:403 
512 1:484 2:391 3:413 4:553 5:179 6:143 7:179 8:91 9:163 10:846 11:0 12:0 13:383 14:447 15:861 16:114 17:41 18:471 19:377 
512 1:484 2:391 3:413 4:553 5:179 6:143 7:179 8:95 9:159 10:850 11:0 12:0 13:383 14:532 15:872 16:114 17:49 18:471 19:377 
512 1:688 2:641 3:273 4:553 5:522 6:327 7:103 8:69 9:722 10:874 11:0 12:0 13:245 14:431 15:963 16:126 17:41 18:593 19:288 
512 1:688 2:641 3:273 4:553 5:522 6:306 7:103 8:69 9:722 10:874 11:0 12:0 13:245 14:543 15:963 16:126 17:65 18:593 19:288 
512 1:245 2:224 3:595 4:388 5:149 6:143 7:282 8:422 9:12 10:181 11:43 12:0 13:580 14:457 15:882 16:28 17:24 18:382 19:581 
512 1:245 2:224 3:595 4:388 5:149 6:143 7:282 8:422 9:12 10:181 11:43 12:0 13:580 14:521 15:888 16:28 17:33 18:382 19:581 
512 1:396 2:263 3:413 4:767 5:164 6:184 7:179 8:69 9:0 10:634 11:0 12:0 13:296 14:564 15:578 16:51 17:29 18:328 19:267 
512 1:396 2:263 3:413 4:767 5:164 6:184 7:179 8:69 9:0 10:634 11:0 12:0 13:296 14:415 15:588 16:51 17:41 18:328 19:267 
512 1:318 2:288 3:545 4:476 5:224 6:184 7:154 8:375 9:57 10:346 11:0 12:0 13:533 14:436 15:904 16:118 17:82 18:377 19:508 
242.636536372036 1:547 2:500 3:314 4:612 5:463 6:224 7:154 8:129 9:433 10:917 11:0 12:0 13:453 14:681 15:968 16:75 17:33 18:534 19:288 
512 1:276 2:205 3:388 4:728 5:343 6:245 7:308 8:397 9:53 10:539 11:0 12:0 13:354 14:670 15:1000 16:83 17:20 18:260 19:267 
512 1:245 2:173 3:446 4:563 5:284 6:122 7:154 8:302 9:65 10:886 11:0 12:0 13:354 14:516 15:989 16:130 17:114 18:216 19:398 
512 1:245 2:173 3:446 4:563 5:299 6:122 7:154 8:306 9:65 10:890 11:0 12:0 13:358 14:484 15:989 16:126 17:110 18:221 19:398 
334.8869438336015 1:167 2:90 3:579 4:505 5:194 6:184 7:333 8:526 9:4 10:217 11:0 12:0 13:518 14:516 15:995 16:91 17:53 18:265 19:513 
512 1:396 2:308 3:537 4:456 5:299 6:245 7:308 8:172 9:122 10:469 11:20 12:51 13:511 14:527 15:1000 16:327 17:127 18:407 19:508 
488.9358336101345 1:417 2:474 3:653 4:330 5:463 6:163 7:179 8:323 9:380 10:126 11:0 12:212 13:766 14:420 15:1000 16:165 17:78 18:520 19:649 
512 1:422 2:474 3:653 4:330 5:463 6:163 7:179 8:323 9:380 10:126 11:0 12:212 13:766 14:564 15:1000 16:165 17:78 18:520 19:649 
512 1:495 2:487 3:298 4:583 5:463 6:204 7:128 8:203 9:384 10:933 11:0 12:0 13:369 14:543 15:1000 16:295 17:302 18:471 19:293 
512 1:500 2:487 3:306 4:573 5:448 6:204 7:128 8:203 9:388 10:933 11:0 12:0 13:369 14:473 15:1000 16:299 17:318 18:471 19:298 
512 1:411 2:308 3:579 4:359 5:134 6:265 7:256 8:121 9:41 10:280 11:141 12:75 13:628 14:505 15:1000 16:150 17:86 18:441 19:592 
512 1:406 2:295 3:628 4:330 5:284 6:204 7:205 8:108 9:135 10:161 11:0 12:216 13:562 14:463 15:893 16:98 17:45 18:436 19:634 
512 1:484 2:404 3:587 4:340 5:45 6:184 7:179 8:129 9:41 10:209 11:184 12:0 13:693 14:489 15:979 16:51 17:49 18:510 19:607 
512 1:245 2:609 3:587 4:379 5:687 6:102 7:103 8:720 9:229 10:110 11:0 12:0 13:657 14:777 15:995 16:220 17:237 18:422 19:586 
512 1:583 2:513 3:455 4:466 5:448 6:184 7:154 8:95 9:498 10:720 11:0 12:0 13:536 14:436 15:957 16:268 17:98 18:637 19:455 
512 1:448 2:436 3:711 4:320 5:478 6:184 7:179 8:250 9:347 10:83 11:0 12:357 13:701 14:479 15:1000 16:323 17:143 18:578 19:686 
512 1:490 2:353 3:570 4:388 5:328 6:265 7:231 8:34 9:212 10:291 11:0 12:0 13:416 14:649 15:968 16:126 17:86 18:480 19:565 
291.1708283595508 1:552 2:455 3:603 4:417 5:806 6:122 7:179 8:73 9:412 10:252 11:0 12:0 13:799 14:516 15:979 16:75 17:98 18:843 19:576 
512 1:234 2:295 3:645 4:301 5:448 6:265 7:308 8:565 9:106 10:189 11:184 12:220 13:620 14:548 15:957 16:94 17:90 18:377 19:654 
512 1:500 2:462 3:595 4:369 5:478 6:102 7:154 8:185 9:380 10:181 11:0 12:0 13:679 14:489 15:979 16:220 17:90 18:549 19:592 
512 1:469 2:378 3:628 4:359 5:328 6:184 7:179 8:116 9:229 10:165 11:0 12:98 13:584 14:495 15:989 16:154 17:73 18:534 19:623 
512 1:318 2:276 3:678 4:311 5:284 6:367 7:462 8:280 9:73 10:173 11:20 12:384 13:664 14:383 15:1000 16:122 17:135 18:368 19:670 
512 1:411 2:583 3:603 4:408 5:627 6:102 7:154 8:491 9:384 10:252 11:8 12:0 13:745 14:691 15:957 16:83 17:69 18:623 19:576 
512 1:490 2:365 3:479 4:485 5:388 6:122 7:103 8:56 9:261 10:701 11:0 12:0 13:562 14:505 15:995 16:110 17:65 18:598 19:461 
512 1:505 2:519 3:620 4:398 5:507 6:143 7:179 8:254 9:498 10:217 11:0 12:0 13:737 14:426 15:925 16:102 17:139 18:647 19:592 
512 1:417 2:455 3:620 4:340 5:358 6:82 7:103 8:358 9:322 10:79 11:0 12:0 13:719 14:410 15:995 16:98 17:94 18:569 19:623 
512 1:193 2:256 3:529 4:485 5:358 6:102 7:154 8:638 9:45 10:476 11:0 12:0 13:526 14:516 15:995 16:118 17:110 18:304 19:492 
512 1:333 2:333 3:488 4:466 5:463 6:143 7:154 8:388 9:163 10:598 11:0 12:0 13:496 14:569 15:973 16:236 17:302 18:368 19:476 
512 1:208 2:141 3:612 4:388 5:134 6:204 7:256 8:409 9:16 10:181 11:43 12:82 13:588 14:479 15:995 16:102 17:20 18:304 19:592 
512 1:229 2:122 3:455 4:602 5:254 6:122 7:487 8:405 9:37 10:421 11:0 12:0 13:394 14:447 15:1000 16:161 17:69 18:230 19:377 
512 1:229 2:122 3:455 4:602 5:254 6:122 7:487 8:409 9:37 10:429 11:0 12:0 13:394 14:532 15:1000 16:161 17:69 18:230 19:377 
512 1:411 2:244 3:587 4:408 5:194 6:204 7:256 8:0 9:49 10:276 11:0 12:0 13:464 14:505 15:567 16:98 17:24 18:431 19:565 
512 1:411 2:244 3:587 4:417 5:194 6:204 7:256 8:0 9:49 10:272 11:0 12:0 13:464 14:479 15:583 16:98 17:24 18:431 19:565 
512 1:193 2:109 3:595 4:553 5:149 6:204 7:205 8:513 9:12 10:378 11:0 12:0 13:467 14:569 15:882 16:126 17:98 18:250 19:492 
512 1:193 2:115 3:595 4:553 5:164 6:204 7:231 8:517 9:16 10:378 11:0 12:0 13:467 14:410 15:866 16:126 17:94 18:250 19:497 
512 1:771 2:712 3:190 4:602 5:373 6:306 7:308 8:26 9:808 10:642 11:0 12:0 13:467 14:516 15:941 16:161 17:78 18:819 19:209 
512 1:781 2:718 3:182 4:602 5:358 6:306 7:308 8:17 9:816 10:650 11:0 12:0 13:471 14:447 15:904 16:161 17:82 18:828 19:209 
110.055518362944 1:401 2:282 3:463 4:553 5:224 6:143 7:205 8:116 9:41 10:791 11:0 12:0 13:369 14:511 15:802 16:378 17:86 18:377 19:414 
303.7981588753177 1:401 2:276 3:463 4:553 5:224 6:143 7:205 8:116 9:41 10:795 11:0 12:0 13:369 14:473 15:807 16:382 17:90 18:377 19:414 
512 1:297 2:551 3:612 4:369 5:448 6:102 7:128 8:647 9:302 10:150 11:0 12:0 13:693 14:436 15:989 16:165 17:167 18:466 19:602 
512 1:333 2:551 3:612 4:369 5:433 6:102 7:128 8:582 9:347 10:150 11:0 12:0 13:690 14:426 15:989 16:177 17:184 18:466 19:602 
512 1:245 2:526 3:587 4:398 5:552 6:102 7:128 8:724 9:224 10:205 11:0 12:0 13:668 14:452 15:1000 16:181 17:184 18:431 19:576 
512 1:318 2:372 3:537 4:466 5:433 6:102 7:128 8:478 9:237 10:531 11:0 12:0 13:609 14:691 15:973 16:134 17:127 18:461 19:503 
512 1:359 2:372 3:537 4:466 5:433 6:102 7:128 8:392 9:269 10:531 11:0 12:0 13:562 14:718 15:968 16:150 17:143 18:471 19:503 
512 1:339 2:391 3:529 4:476 5:418 6:102 7:128 8:453 9:269 10:583 11:0 12:0 13:620 14:691 15:968 16:122 17:118 18:485 19:492 
512 1:276 2:340 3:529 4:485 5:463 6:122 7:128 8:543 9:180 10:563 11:0 12:0 13:599 14:702 15:973 16:138 17:135 18:417 19:487 
512 1:297 2:487 3:587 4:398 5:776 6:102 7:103 8:629 9:241 10:185 11:0 12:0 13:697 14:505 15:989 16:201 17:196 18:529 19:576 
512 1:323 2:526 3:587 4:398 5:746 6:82 7:103 8:603 9:278 10:197 11:0 12:0 13:697 14:532 15:973 16:220 17:216 18:529 19:571 
512 1:313 2:500 3:587 4:398 5:791 6:102 7:103 8:603 9:261 10:197 11:0 12:0 13:701 14:410 15:989 16:193 17:196 18:534 19:576 
512 1:234 2:404 3:579 4:408 5:776 6:102 7:128 8:703 9:163 10:248 11:0 12:0 13:650 14:521 15:984 16:197 17:192 18:466 19:565 
512 1:260 2:429 3:587 4:398 5:657 6:102 7:128 8:642 9:204 10:197 11:0 12:0 13:664 14:298 15:984 16:94 17:102 18:456 19:576 
512 1:292 2:442 3:587 4:398 5:642 6:102 7:128 8:595 9:233 10:205 11:0 12:0 13:657 14:287 15:984 16:106 17:114 18:456 19:576 
156.9400155987999 1:271 2:449 3:587 4:398 5:657 6:102 7:128 8:642 9:216 10:217 11:0 12:0 13:672 14:229 15:984 16:87 17:94 18:471 19:576 
512 1:208 2:365 3:579 4:408 5:672 6:102 7:128 8:724 9:135 10:276 11:0 12:0 13:624 14:314 15:989 16:91 17:94 18:407 19:560 
512 1:318 2:462 3:562 4:437 5:657 6:122 7:128 8:565 9:273 10:370 11:0 12:0 13:646 14:293 15:979 16:173 17:171 18:490 19:539 
512 1:250 2:397 3:562 4:437 5:672 6:143 7:154 8:681 9:176 10:421 11:0 12:0 13:628 14:309 15:984 16:146 17:147 18:461 19:534 
452.7973313252238 1:266 2:417 3:562 4:437 5:537 6:102 7:128 8:638 9:200 10:350 11:0 12:0 13:675 14:676 15:973 16:118 17:122 18:500 19:539 
512 1:281 2:423 3:562 4:437 5:567 6:102 7:128 8:621 9:216 10:390 11:0 12:0 13:675 14:617 15:963 16:114 17:122 18:500 19:534 
512 1:323 2:468 3:579 4:408 5:701 6:102 7:128 8:552 9:249 10:248 11:0 12:0 13:675 14:723 15:973 16:177 17:171 18:495 19:560 
512 1:359 2:468 3:579 4:408 5:687 6:102 7:128 8:478 9:282 10:248 11:0 12:0 13:668 14:745 15:973 16:197 17:192 18:495 19:560 
512 1:344 2:468 3:579 4:417 5:358 6:102 7:154 8:504 9:355 10:276 11:0 12:0 13:664 14:468 15:979 16:126 17:139 18:471 19:555 
512 1:385 2:474 3:570 4:417 5:343 6:102 7:154 8:427 9:408 10:280 11:0 12:0 13:650 14:479 15:979 16:134 17:151 18:471 19:555 
512 1:302 2:442 3:562 4:437 5:403 6:102 7:154 8:569 9:282 10:350 11:0 12:0 13:635 14:473 15:984 16:134 17:147 18:441 19:534 
512 1:380 2:410 3:554 4:456 5:612 6:122 7:154 8:397 9:253 10:437 11:0 12:0 13:682 14:293 15:947 16:209 17:257 18:529 19:524 
512 1:427 2:410 3:554 4:456 5:612 6:122 7:154 8:302 9:286 10:437 11:0 12:0 13:672 14:266 15:930 16:232 17:286 18:529 19:524 
512 1:365 2:391 3:554 4:447 5:582 6:122 7:154 8:405 9:229 10:413 11:0 12:0 13:668 14:298 15:947 16:213 17:269 18:505 19:524 
512 1:339 2:372 3:554 4:456 5:582 6:143 7:154 8:453 9:204 10:441 11:0 12:0 13:661 14:309 15:936 16:197 17:241 18:505 19:518 
86.80260193111883 1:328 2:365 3:554 4:447 5:552 6:143 7:154 8:466 9:184 10:406 11:0 12:0 13:668 14:383 15:957 16:173 17:208 18:495 19:529 
512 1:370 2:365 3:554 4:447 5:552 6:143 7:154 8:375 9:208 10:406 11:0 12:0 13:653 14:367 15:941 16:197 17:237 18:495 19:529 
512 1:292 2:340 3:562 4:447 5:537 6:143 7:154 8:530 9:143 10:374 11:0 12:0 13:653 14:383 15:957 16:157 17:184 18:480 19:529 
512 1:333 2:359 3:570 4:437 5:672 6:122 7:154 8:453 9:204 10:358 11:0 12:0 13:661 14:340 15:952 16:350 17:404 18:495 19:539 
512 1:370 2:359 3:570 4:427 5:672 6:122 7:128 8:362 9:237 10:358 11:0 12:0 13:642 14:319 15:936 16:394 17:453 18:495 19:545 
512 1:333 2:378 3:562 4:427 5:701 6:143 7:128 8:461 9:216 10:366 11:0 12:0 13:672 14:298 15:952 16:343 17:400 18:505 19:545 
512 1:292 2:333 3:570 4:437 5:642 6:143 7:154 8:517 9:171 10:350 11:0 12:0 13:646 14:346 15:952 16:311 17:355 18:480 19:545 
512 1:344 2:340 3:545 4:456 5:522 6:102 7:128 8:397 9:233 10:421 11:0 12:0 13:522 14:707 15:957 16:339 17:388 18:426 19:518 
512 1:380 2:340 3:545 4:456 5:522 6:102 7:128 8:293 9:269 10:421 11:0 12:0 13:478 14:734 15:947 16:382 17:441 18:436 19:518 
512 1:375 2:346 3:545 4:456 5:537 6:102 7:128 8:328 9:269 10:441 11:0 12:0 13:617 14:612 15:952 16:358 17:412 18:422 19:513 
512 1:318 2:321 3:545 4:466 5:507 6:122 7:154 8:435 9:196 10:461 11:0 12:0 13:580 14:702 15:963 16:339 17:392 18:368 19:508 
512 1:271 2:429 3:570 4:427 5:687 6:122 7:154 8:647 9:200 10:343 11:0 12:0 13:613 14:303 15:979 16:240 17:278 18:407 19:550 
512 1:292 2:449 3:570 4:427 5:672 6:122 7:154 8:608 9:229 10:358 11:0 12:0 13:620 14:287 15:979 16:268 17:306 18:407 19:545 
512 1:292 2:442 3:562 4:437 5:522 6:102 7:154 8:603 9:233 10:374 11:0 12:0 13:639 14:335 15:979 16:236 17:269 18:422 19:534 
512 1:318 2:462 3:562 4:447 5:493 6:102 7:154 8:556 9:265 10:390 11:0 12:0 13:653 14:319 15:979 16:256 17:298 18:422 19:529 
512 1:292 2:442 3:562 4:447 5:522 6:122 7:179 8:603 9:229 10:378 11:0 12:0 13:635 14:346 15:979 16:248 17:282 18:417 19:534 
512 1:266 2:417 3:562 4:447 5:522 6:122 7:179 8:638 9:196 10:413 11:0 12:0 13:642 14:367 15:979 16:220 17:257 18:436 19:529 
512 1:349 2:481 3:620 4:369 5:493 6:82 7:128 8:530 9:347 10:118 11:0 12:0 13:723 14:452 15:957 16:98 17:106 18:564 19:613 
512 1:380 2:519 3:620 4:369 5:418 6:82 7:128 8:491 9:396 10:126 11:0 12:0 13:730 14:463 15:957 16:110 17:118 18:564 19:607 
512 1:302 2:442 3:612 4:379 5:567 6:82 7:128 8:586 9:273 10:150 11:0 12:0 13:719 14:426 15:947 16:106 17:118 18:559 19:597 
512 1:328 2:429 3:587 4:398 5:567 6:102 7:128 8:530 9:302 10:228 11:0 12:0 13:701 14:559 15:952 16:47 17:57 18:544 19:571 
512 1:333 2:481 3:620 4:369 5:433 6:82 7:128 8:552 9:327 10:118 11:0 12:0 13:723 14:431 15:963 16:91 17:102 18:549 19:607 
512 1:281 2:442 3:612 4:379 5:507 6:82 7:128 8:616 9:249 10:157 11:0 12:0 13:712 14:410 15:930 16:98 17:110 18:534 19:597 
512 1:333 2:333 3:603 4:379 5:731 6:122 7:128 8:409 9:229 10:197 11:0 12:0 13:682 14:473 15:973 16:126 17:139 18:578 19:597 
512 1:349 2:378 3:595 4:388 5:761 6:122 7:128 8:427 9:265 10:228 11:0 12:0 13:693 14:484 15:968 16:138 17:151 18:578 19:586 
512 1:354 2:353 3:603 4:379 5:746 6:122 7:128 8:384 9:257 10:217 11:0 12:0 13:723 14:383 15:968 16:110 17:122 18:632 19:592 
512 1:266 2:231 3:612 4:369 5:552 6:122 7:128 8:457 9:143 10:185 11:0 12:0 13:631 14:441 15:973 16:122 17:135 18:510 19:607 
512 1:417 2:545 3:620 4:359 5:507 6:102 7:128 8:453 9:437 10:118 11:0 12:0 13:745 14:463 15:925 16:142 17:159 18:593 19:618 
512 1:427 2:545 3:620 4:359 5:537 6:102 7:128 8:427 9:441 10:130 11:0 12:0 13:752 14:388 15:925 16:146 17:167 18:608 19:613 
512 1:365 2:513 3:612 4:369 5:582 6:102 7:128 8:517 9:351 10:150 11:0 12:0 13:708 14:457 15:914 16:165 17:184 18:539 19:602 
512 1:344 2:532 3:612 4:379 5:567 6:82 7:128 8:565 9:331 10:154 11:0 12:0 13:730 14:457 15:920 16:173 17:192 18:549 19:602 
300.4527240324965 1:411 2:564 3:595 4:398 5:388 6:82 7:128 8:470 9:429 10:232 11:0 12:0 13:737 14:447 15:856 16:161 17:184 18:544 19:576 
512 1:318 2:481 3:587 4:408 5:522 6:102 7:128 8:586 9:282 10:283 11:0 12:0 13:690 14:452 15:856 16:169 17:192 18:500 19:571 
512 1:432 2:481 3:562 4:447 5:343 6:61 7:103 8:341 9:449 10:476 11:0 12:0 13:653 14:527 15:717 16:150 17:176 18:603 19:529 
512 1:479 2:481 3:562 4:447 5:388 6:82 7:128 8:263 9:498 10:469 11:0 12:0 13:602 14:431 15:711 16:169 17:188 18:613 19:534 
512 1:521 2:571 3:579 4:388 5:881 6:102 7:128 8:306 9:420 10:272 11:0 12:0 13:803 14:622 15:904 16:173 17:204 18:745 19:576 
512 1:536 2:583 3:579 4:388 5:881 6:102 7:128 8:289 9:437 10:268 11:0 12:0 13:814 14:590 15:904 16:173 17:196 18:765 19:576 
512 1:448 2:481 3:579 4:398 5:851 6:122 7:154 8:349 9:335 10:315 11:0 12:0 13:752 14:628 15:904 16:201 17:233 18:681 19:571 
512 1:521 2:558 3:554 4:447 5:284 6:82 7:103 8:263 9:612 10:508 11:0 12:0 13:672 14:585 15:717 16:122 17:147 18:691 19:529 
512 1:589 2:558 3:554 4:447 5:284 6:82 7:103 8:155 9:698 10:516 11:0 12:0 13:569 14:590 15:701 16:130 17:155 18:691 19:524 
512 1:510 2:494 3:562 4:447 5:328 6:82 7:128 8:220 9:567 10:449 11:0 12:0 13:591 14:463 15:679 16:118 17:147 18:627 19:534 
512 1:568 2:506 3:562 4:447 5:299 6:82 7:128 8:125 9:649 10:465 11:0 12:0 13:511 14:452 15:668 16:122 17:147 18:632 19:529 
512 1:510 2:487 3:562 4:447 5:343 6:82 7:128 8:207 9:559 10:449 11:0 12:0 13:577 14:436 15:663 16:118 17:143 18:623 19:534 
512 1:479 2:474 3:554 4:456 5:358 6:82 7:128 8:250 9:498 10:531 11:0 12:0 13:599 14:457 15:701 16:138 17:171 18:608 19:524 
512 1:333 2:429 3:603 4:417 5:731 6:102 7:179 8:530 9:253 10:335 11:0 12:0 13:755 14:484 15:914 16:173 17:229 18:627 19:576 
512 1:365 2:462 3:595 4:417 5:716 6:102 7:154 8:491 9:290 10:358 11:0 12:0 13:759 14:484 15:914 16:181 17:241 18:627 19:565 
512 1:255 2:301 3:612 4:398 5:627 6:122 7:179 8:603 9:151 10:256 11:0 12:0 13:690 14:479 15:877 16:181 17:237 18:539 19:586 
512 1:464 2:462 3:545 4:476 5:478 6:102 7:128 8:267 9:424 10:689 11:0 12:0 13:661 14:426 15:679 16:193 17:253 18:632 19:503 
512 1:521 2:462 3:537 4:476 5:478 6:82 7:128 8:151 9:486 10:693 11:0 12:0 13:609 14:415 15:674 16:213 17:282 18:657 19:503 
512 1:458 2:455 3:545 4:476 5:463 6:82 7:128 8:272 9:412 10:673 11:0 12:0 13:653 14:399 15:679 16:193 17:257 18:623 19:508 
512 1:422 2:417 3:545 4:476 5:478 6:102 7:154 8:306 9:339 10:638 11:0 12:0 13:646 14:420 15:668 16:220 17:290 18:583 19:503 
512 1:552 2:494 3:537 4:485 5:403 6:61 7:103 8:134 9:535 10:764 11:0 12:0 13:624 14:473 15:658 16:173 17:224 18:696 19:497 
512 1:469 2:436 3:545 4:476 5:463 6:82 7:128 8:216 9:412 10:650 11:0 12:0 13:628 14:431 15:658 16:217 17:278 18:623 19:508 
409.7292519141478 1:417 2:429 3:554 4:466 5:463 6:82 7:154 8:332 9:359 10:646 11:0 12:0 13:672 14:426 15:674 16:193 17:249 18:593 19:513 
512 1:370 2:378 3:554 4:466 5:463 6:102 7:154 8:375 9:269 10:583 11:0 12:0 13:657 14:441 15:695 16:220 17:286 18:544 19:513 
512 1:339 2:353 3:661 4:311 5:284 6:143 7:128 8:397 9:114 10:71 11:0 12:122 13:679 14:388 15:979 16:39 17:24 18:471 19:660 
512 1:302 2:365 3:653 4:330 5:239 6:122 7:128 8:491 9:82 10:87 11:0 12:0 13:672 14:511 15:973 16:35 17:24 18:461 19:644 
512 1:521 2:442 3:587 4:388 5:239 6:163 7:154 8:112 9:220 10:240 11:0 12:0 13:639 14:468 15:925 16:43 17:33 18:554 19:581 
47.28234234036424 1:563 2:462 3:554 4:417 5:299 6:163 7:154 8:56 9:273 10:362 11:0 12:0 13:631 14:388 15:893 16:51 17:37 18:593 19:545 
512 1:302 2:404 3:612 4:379 5:746 6:143 7:154 8:526 9:265 10:213 11:0 12:0 13:639 14:500 15:973 16:150 17:147 18:466 19:602 
512 1:307 2:256 3:686 4:291 5:254 6:122 7:103 8:293 9:41 10:39 11:0 12:165 13:668 14:404 15:1000 16:51 17:37 18:382 19:686 
512 1:292 2:583 3:603 4:388 5:418 6:82 7:103 8:668 9:298 10:169 11:0 12:0 13:664 14:277 15:995 16:169 17:176 18:461 19:592 
512 1:391 2:327 3:579 4:447 5:209 6:82 7:154 8:224 9:8 10:551 11:0 12:0 13:580 14:479 15:973 16:12 17:16 18:510 19:545 
512 1:453 2:622 3:587 4:388 5:612 6:102 7:128 8:440 9:457 10:232 11:0 12:0 13:697 14:495 15:989 16:134 17:118 18:534 19:576 
512 1:266 2:359 3:595 4:359 5:537 6:163 7:103 8:586 9:151 10:224 11:0 12:0 13:562 14:362 15:984 16:67 17:131 18:304 19:597 
512 1:266 2:346 3:603 4:350 5:522 6:163 7:103 8:573 9:143 10:189 11:0 12:0 13:584 14:426 15:984 16:75 17:122 18:324 19:607 
512 1:156 2:141 3:603 4:359 5:164 6:102 7:77 8:603 9:0 10:79 11:0 12:0 13:584 14:505 15:813 16:24 17:24 18:250 19:602 
512 1:130 2:154 3:603 4:398 5:224 6:102 7:77 8:681 9:20 10:118 11:0 12:0 13:588 14:473 15:984 16:24 17:33 18:289 19:586 
512 1:333 2:372 3:587 4:398 5:239 6:102 7:103 8:409 9:118 10:193 11:0 12:0 13:628 14:319 15:984 16:102 17:122 18:402 19:571 
512 1:422 2:513 3:529 4:456 5:403 6:122 7:128 8:397 9:388 10:512 11:0 12:0 13:580 14:527 15:973 16:134 17:155 18:549 19:503 
512 1:427 2:519 3:521 4:437 5:373 6:122 7:103 8:392 9:408 10:520 11:0 12:0 13:617 14:197 15:984 16:114 17:114 18:578 19:508 
512 1:438 2:532 3:529 4:447 5:358 6:122 7:128 8:384 9:429 10:457 11:0 12:0 13:653 14:723 15:989 16:154 17:167 18:456 19:513 
512 1:359 2:583 3:521 4:456 5:716 6:122 7:128 8:565 9:310 10:555 11:0 12:0 13:664 14:973 15:989 16:169 17:176 18:475 19:503 
512 1:292 2:442 3:545 4:408 5:328 6:102 7:77 8:547 9:273 10:319 11:0 12:0 13:646 14:234 15:909 16:291 17:314 18:368 19:539 
512 1:318 2:417 3:579 4:388 5:194 6:102 7:51 8:474 9:151 10:134 11:0 12:0 13:650 14:378 15:968 16:161 17:196 18:490 19:576 
512 1:266 2:167 3:471 4:476 5:194 6:347 7:436 8:332 9:24 10:378 11:86 12:16 13:380 14:468 15:989 16:94 17:49 18:255 19:461 
30.8072315128437 1:344 2:212 3:579 4:515 5:224 6:184 7:436 8:121 9:33 10:425 11:16 12:0 13:526 14:367 15:989 16:228 17:159 18:446 19:503 
512 1:302 2:154 3:653 4:466 5:149 6:102 7:231 8:151 9:20 10:126 11:0 12:0 13:478 14:511 15:920 16:71 17:20 18:363 19:576 
512 1:292 2:141 3:347 4:748 5:239 6:265 7:308 8:181 9:16 10:610 11:0 12:0 13:266 14:436 15:947 16:118 17:45 18:206 19:236 
512 1:292 2:141 3:347 4:738 5:224 6:265 7:308 8:177 9:20 10:610 11:0 12:0 13:266 14:585 15:952 16:118 17:45 18:206 19:236 
512 1:557 2:468 3:537 4:437 5:597 6:224 7:385 8:78 9:384 10:543 11:149 12:8 13:657 14:324 15:979 16:185 17:265 18:647 19:518 
512 1:557 2:468 3:537 4:437 5:597 6:224 7:385 8:78 9:388 10:555 11:149 12:8 13:657 14:707 15:963 16:185 17:245 18:652 19:518 
512 1:406 2:340 3:545 4:573 5:433 6:408 7:462 8:211 9:212 10:287 11:0 12:94 13:325 14:410 15:989 16:465 17:167 18:363 19:450 
512 1:406 2:340 3:545 4:573 5:433 6:408 7:462 8:203 9:212 10:295 11:0 12:98 13:325 14:564 15:984 16:461 17:176 18:363 19:450 
512 1:391 2:353 3:264 4:903 5:269 6:184 7:256 8:259 9:110 10:154 11:0 12:0 13:449 14:511 15:979 16:224 17:151 18:397 19:99 
512 1:391 2:353 3:264 4:903 5:269 6:184 7:256 8:254 9:114 10:161 11:0 12:0 13:445 14:511 15:973 16:220 17:143 18:397 19:99 
512 1:297 2:301 3:289 4:718 5:358 6:367 7:333 8:401 9:131 10:575 11:0 12:0 13:241 14:553 15:791 16:398 17:453 18:206 19:215 
512 1:302 2:301 3:298 4:718 5:343 6:367 7:308 8:397 9:122 10:571 11:0 12:0 13:241 14:468 15:813 16:394 17:461 18:211 19:215 
512 1:635 2:526 3:248 4:631 5:373 6:245 7:205 8:9 9:486 10:906 11:0 12:0 13:372 14:356 15:877 16:146 17:69 18:613 19:230 
512 1:635 2:526 3:240 4:631 5:373 6:245 7:205 8:9 9:490 10:909 11:0 12:0 13:369 14:681 15:872 16:142 17:69 18:613 19:230 
512 1:328 2:526 3:446 4:515 5:567 6:204 7:205 8:534 9:302 10:772 11:0 12:0 13:540 14:601 15:995 16:528 17:404 18:402 19:419 
512 1:479 2:628 3:645 4:350 5:642 6:122 7:103 8:427 9:445 10:75 11:0 12:90 13:799 14:580 15:947 16:165 17:102 18:691 19:639 
512 1:479 2:622 3:653 4:350 5:657 6:122 7:103 8:422 9:437 10:71 11:0 12:86 13:796 14:473 15:952 16:165 17:102 18:686 19:639 
512 1:474 2:365 3:537 4:427 5:463 6:163 7:154 8:86 9:339 10:390 11:0 12:0 13:620 14:574 15:920 16:142 17:82 18:593 19:524 
512 1:531 2:519 3:686 4:320 5:343 6:204 7:128 8:216 9:416 10:79 11:0 12:278 13:580 14:622 15:909 16:94 17:53 18:642 19:670 
512 1:526 2:519 3:686 4:320 5:343 6:204 7:128 8:220 9:412 10:83 11:0 12:271 13:580 14:436 15:882 16:94 17:53 18:642 19:670 
512 1:281 2:147 3:380 4:699 5:254 6:163 7:205 8:220 9:37 10:795 11:0 12:0 13:303 14:516 15:872 16:276 17:86 18:235 19:283 
512 1:281 2:147 3:380 4:689 5:239 6:163 7:205 8:220 9:37 10:811 11:0 12:0 13:296 14:500 15:872 16:276 17:86 18:230 19:283 
512 1:203 2:231 3:331 4:689 5:433 6:306 7:256 8:664 9:69 10:630 11:0 12:0 13:237 14:527 15:893 16:106 17:167 18:98 19:257 
512 1:484 2:596 3:702 4:320 5:284 6:327 7:205 8:371 9:518 10:169 11:0 12:431 13:763 14:527 15:941 16:201 17:110 18:681 19:686 
512 1:484 2:609 3:702 4:320 5:269 6:327 7:205 8:375 9:522 10:169 11:0 12:435 13:766 14:527 15:941 16:201 17:90 18:686 19:686 
512 1:427 2:481 3:331 4:583 5:537 6:204 7:205 8:341 9:306 10:933 11:0 12:0 13:511 14:335 15:995 16:429 17:473 18:466 19:314 
512 1:344 2:218 3:521 4:544 5:299 6:367 7:410 8:168 9:78 10:382 11:0 12:31 13:332 14:559 15:941 16:228 17:90 18:294 19:450 
512 1:344 2:218 3:521 4:544 5:299 6:367 7:410 8:168 9:78 10:382 11:0 12:31 13:332 14:420 15:936 16:224 17:90 18:294 19:450 
-327.1110943744785 1:89 2:378 3:702 4:379 5:537 6:469 7:282 8:875 9:69 10:264 11:8 12:243 13:405 14:559 15:989 16:256 17:249 18:98 19:654 
-512 1:68 2:410 3:529 4:417 5:627 6:163 7:205 8:918 9:61 10:339 11:27 12:0 13:423 14:441 15:1000 16:165 17:163 18:74 19:524 
-512 1:365 2:506 3:479 4:524 5:716 6:265 7:333 8:457 9:278 10:594 11:0 12:4 13:591 14:277 15:1000 16:390 17:367 18:382 19:435 
-512 1:172 2:160 3:463 4:495 5:358 6:367 7:359 8:612 9:37 10:457 11:35 12:0 13:409 14:404 15:995 16:181 17:196 18:181 19:440 
-512 1:172 2:160 3:463 4:495 5:358 6:367 7:359 8:612 9:37 10:457 11:35 12:0 13:409 14:404 15:995 16:181 17:196 18:181 19:440 
-512 1:63 2:333 3:380 4:544 5:507 6:429 7:308 8:914 9:45 10:697 11:8 12:55 13:310 14:622 15:968 16:197 17:208 18:20 19:361 
-512 1:323 2:404 3:512 4:485 5:448 6:163 7:231 8:427 9:233 10:598 11:8 12:0 13:496 14:0 15:995 16:197 17:265 18:333 19:482 
-512 1:203 2:231 3:496 4:942 5:418 6:102 7:513 8:599 9:69 10:130 11:0 12:8 13:493 14:660 15:1000 16:173 17:294 18:279 19:220 
-512 1:115 2:378 3:488 4:641 5:522 6:224 7:359 8:841 9:82 10:587 11:0 12:0 13:325 14:521 15:1000 16:429 17:396 18:78 19:382 
-512 1:109 2:423 3:488 4:505 5:642 6:286 7:333 8:871 9:78 10:563 11:20 12:27 13:489 14:468 15:1000 16:122 17:90 18:137 19:450 
-295.5823663438152 1:172 2:314 3:455 4:553 5:478 6:143 7:128 8:707 9:94 10:839 11:0 12:0 13:383 14:489 15:989 16:626 17:539 18:176 19:408 
-512 1:68 2:321 3:463 4:728 5:567 6:102 7:333 8:909 9:49 10:563 11:0 12:0 13:500 14:686 15:1000 16:98 17:102 18:176 19:319 
-512 1:21 2:244 3:438 4:563 5:358 6:163 7:179 8:1000 9:12 10:854 11:0 12:0 13:471 14:399 15:947 16:94 17:135 18:88 19:393 
-512 1:198 2:679 3:579 4:476 5:701 6:224 7:333 8:789 9:200 10:370 11:0 12:0 13:493 14:452 15:1000 16:287 17:335 18:343 19:524 
-512 1:578 2:449 3:612 4:359 5:597 6:184 7:128 8:0 9:343 10:20 11:0 12:0 13:693 14:463 15:775 16:228 17:155 18:804 19:613 
-512 1:219 2:186 3:537 4:534 5:418 6:184 7:179 8:547 9:86 10:433 11:0 12:0 13:547 14:447 15:963 16:98 17:33 18:289 19:466 
-512 1:708 2:705 3:603 4:350 5:955 6:102 7:26 8:134 9:604 10:4 11:4 12:0 13:803 14:229 15:947 16:138 17:159 18:1000 19:613 
-512 1:83 2:122 3:430 4:583 5:224 6:122 7:103 8:875 9:4 10:957 11:0 12:0 13:365 14:527 15:898 16:307 17:286 18:78 19:372 
-512 1:250 2:436 3:140 4:709 5:239 6:245 7:179 8:634 9:163 10:480 11:35 12:0 13:562 14:548 15:727 16:91 17:94 18:270 19:126 
-512 1:563 2:462 3:603 4:369 5:672 6:122 7:103 8:47 9:306 10:122 11:0 12:0 13:686 14:569 15:909 16:240 17:204 18:789 19:597 
-512 1:531 2:462 3:504 4:456 5:239 6:61 7:51 8:121 9:376 10:795 11:0 12:0 13:511 14:372 15:888 16:173 17:224 18:569 19:487 
-512 1:573 2:526 3:463 4:495 5:313 6:61 7:51 8:134 9:547 10:917 11:0 12:0 13:496 14:436 15:888 16:185 17:229 18:623 19:445 
-512 1:422 2:385 3:512 4:476 5:313 6:122 7:103 8:259 9:212 10:756 11:0 12:4 13:547 14:356 15:877 16:193 17:290 18:603 19:482 
-360.2384964478085 1:380 2:327 3:636 4:330 5:433 6:41 7:77 8:272 9:155 10:0 11:24 12:0 13:639 14:346 15:989 16:421 17:249 18:696 19:639 
-512 1:370 2:250 3:471 4:485 5:388 6:204 7:231 8:151 9:167 10:642 11:0 12:43 13:449 14:521 15:914 16:264 17:273 18:382 19:455 
-512 1:219 2:378 3:380 4:709 5:239 6:163 7:205 8:603 9:102 10:768 11:0 12:0 13:434 14:356 15:749 16:98 17:106 18:250 19:277 
-512 1:203 2:385 3:479 4:563 5:269 6:204 7:128 8:629 9:118 10:831 11:0 12:0 13:569 14:410 15:738 16:110 17:94 18:245 19:414 
-20.05996807306617 1:89 2:19 3:645 4:932 5:15 6:143 7:462 8:733 9:0 10:0 11:94 12:0 13:405 14:484 15:396 16:59 17:53 18:108 19:319 
-512 1:250 2:513 3:562 4:388 5:209 6:163 7:103 8:638 9:269 10:224 11:0 12:0 13:547 14:505 15:759 16:87 17:90 18:270 19:565 
-512 1:271 2:397 3:174 4:631 5:254 6:245 7:154 8:543 9:143 10:697 11:0 12:0 13:547 14:484 15:733 16:83 17:82 18:289 19:183 
-512 1:161 2:301 3:298 4:621 5:239 6:184 7:231 8:690 9:24 10:945 11:0 12:0 13:482 14:404 15:711 16:110 17:114 18:225 19:267 
-512 1:167 2:545 3:620 4:359 5:328 6:122 7:103 8:797 9:184 10:122 11:20 12:0 13:544 14:404 15:829 16:91 17:90 18:201 19:618 
-512 1:193 2:385 3:645 4:621 5:328 6:102 7:308 8:681 9:114 10:165 11:55 12:0 13:540 14:484 15:834 16:169 17:167 18:216 19:487 
-512 1:161 2:103 3:455 4:874 5:149 6:122 7:667 8:573 9:0 10:28 11:43 12:0 13:482 14:431 15:604 16:142 17:151 18:201 19:230 
-512 1:219 2:455 3:198 4:583 5:328 6:347 7:282 8:703 9:184 10:524 11:63 12:0 13:547 14:495 15:797 16:118 17:127 18:265 19:225 
-512 1:234 2:410 3:231 4:505 5:493 6:429 7:333 8:711 9:176 10:425 11:247 12:0 13:511 14:564 15:856 16:71 17:94 18:309 19:293 
-512 1:365 2:590 3:545 4:456 5:866 6:163 7:359 8:526 9:310 10:390 11:4 12:0 13:836 14:590 15:1000 16:193 17:184 18:917 19:513 
-512 1:365 2:590 3:545 4:456 5:866 6:163 7:359 8:526 9:310 10:390 11:4 12:0 13:836 14:590 15:1000 16:193 17:184 18:917 19:513 
-512 1:208 2:340 3:587 4:786 5:254 6:61 7:256 8:711 9:57 10:331 11:8 12:0 13:540 14:404 15:802 16:209 17:176 18:299 19:366 
-512 1:120 2:321 3:512 4:709 5:448 6:163 7:359 8:789 9:61 10:528 11:0 12:0 13:416 14:197 15:1000 16:189 17:237 18:147 19:356 
-512 1:203 2:442 3:364 4:621 5:627 6:245 7:359 8:750 9:147 10:697 11:8 12:0 13:471 14:473 15:979 16:417 17:465 18:260 19:309 
-512 1:328 2:218 3:653 4:301 5:179 6:204 7:205 8:233 9:57 10:114 11:0 12:275 13:529 14:532 15:749 16:142 17:90 18:407 19:660 
-512 1:531 2:763 3:570 4:369 5:597 6:122 7:103 8:435 9:486 10:142 11:4 12:0 13:712 14:670 15:979 16:343 17:310 18:917 19:576 
-512 1:578 2:468 3:537 4:437 5:582 6:122 7:103 8:34 9:355 10:335 11:4 12:0 13:617 14:250 15:979 16:343 17:294 18:784 19:524 
-512 1:500 2:423 3:463 4:505 5:418 6:347 7:410 8:125 9:449 10:598 11:0 12:114 13:566 14:713 15:845 16:213 17:139 18:667 19:435 
-512 1:464 2:410 3:521 4:476 5:478 6:143 7:154 8:194 9:376 10:697 11:0 12:0 13:642 14:505 15:904 16:303 17:114 18:529 19:487 
-512 1:438 2:571 3:628 4:350 5:299 6:122 7:128 8:379 9:457 10:106 11:0 12:0 13:748 14:707 15:968 16:197 17:147 18:525 19:628 
-512 1:453 2:506 3:595 4:369 5:821 6:102 7:154 8:349 9:363 10:165 11:4 12:0 13:679 14:250 15:1000 16:177 17:151 18:510 19:592 
-512 1:401 2:385 3:645 4:330 5:687 6:82 7:51 8:319 9:278 10:0 11:8 12:0 13:726 14:436 15:866 16:114 17:86 18:686 19:644 
-512 1:365 2:410 3:521 4:563 5:478 6:163 7:385 8:379 9:241 10:488 11:4 12:4 13:628 14:495 15:1000 16:339 17:294 18:377 19:445 
-512 1:500 2:449 3:496 4:495 5:448 6:122 7:128 8:155 9:408 10:701 11:0 12:0 13:639 14:596 15:995 16:283 17:253 18:534 19:461 
-512 1:354 2:308 3:537 4:524 5:463 6:184 7:282 8:306 9:163 10:516 11:0 12:0 13:536 14:606 15:968 16:220 17:237 18:451 19:476 
-512 1:510 2:410 3:388 4:602 5:239 6:122 7:103 8:82 9:265 10:969 11:0 12:0 13:529 14:527 15:963 16:150 17:147 18:510 19:340 
-512 1:542 2:692 3:595 4:398 5:373 6:224 7:282 8:323 9:580 10:350 11:0 12:0 13:828 14:543 15:941 16:91 17:139 18:691 19:581 
-512 1:292 2:276 3:686 4:301 5:701 6:82 7:103 8:474 9:188 10:0 11:0 12:157 13:803 14:426 15:1000 16:201 17:192 18:750 19:686 
-512 1:500 2:353 3:661 4:398 5:224 6:102 7:179 8:0 9:220 10:0 11:0 12:0 13:507 14:516 15:679 16:51 17:20 18:583 19:623 
-512 1:380 2:340 3:471 4:544 5:388 6:265 7:308 8:284 9:143 10:646 11:4 12:0 13:485 14:309 15:963 16:205 17:233 18:377 19:424 
-512 1:432 2:404 3:463 4:583 5:448 6:265 7:231 8:250 9:298 10:740 11:0 12:8 13:555 14:649 15:984 16:252 17:327 18:441 19:393 
-512 1:359 2:449 3:603 4:379 5:433 6:102 7:128 8:444 9:306 10:146 11:0 12:0 13:690 14:431 15:834 16:79 17:57 18:554 19:592 
-512 1:370 2:474 3:570 4:408 5:373 6:122 7:154 8:448 9:302 10:394 11:0 12:0 13:712 14:473 15:807 16:75 17:41 18:534 19:560 
-512 1:422 2:359 3:579 4:388 5:463 6:184 7:154 8:211 9:220 10:173 11:0 12:0 13:609 14:718 15:995 16:303 17:253 18:431 19:571 
-512 1:536 2:397 3:554 4:806 5:104 6:102 7:51 8:0 9:143 10:299 11:0 12:0 13:427 14:447 15:658 16:150 17:102 18:544 19:335 
-512 1:474 2:391 3:471 4:515 5:448 6:143 7:179 8:142 9:327 10:815 11:4 12:8 13:540 14:500 15:984 16:106 17:82 18:505 19:440 
-512 1:458 2:346 3:579 4:417 5:507 6:184 7:205 8:91 9:245 10:303 11:4 12:43 13:504 14:463 15:973 16:335 17:200 18:480 19:560 
-512 1:161 2:365 3:364 4:631 5:463 6:224 7:128 8:716 9:114 10:957 11:0 12:0 13:394 14:500 15:963 16:500 17:482 18:172 19:309 
-512 1:531 2:404 3:562 4:379 5:269 6:306 7:282 8:17 9:282 10:594 11:4 12:208 13:522 14:537 15:914 16:264 17:241 18:642 19:565 
-72.22710314359489 1:458 2:404 3:587 4:369 5:582 6:204 7:154 8:190 9:310 10:102 11:16 12:35 13:580 14:420 15:989 16:228 17:208 18:593 19:592 
-512 1:313 2:442 3:529 4:573 5:552 6:122 7:462 8:517 9:220 10:433 11:0 12:0 13:635 14:590 15:984 16:142 17:98 18:328 19:440 
-512 1:255 2:423 3:529 4:524 5:522 6:143 7:436 8:603 9:167 10:425 11:0 12:0 13:518 14:601 15:995 16:217 17:127 18:275 19:466 
-512 1:52 2:135 3:562 4:456 5:224 6:122 7:179 8:966 9:0 10:354 11:0 12:8 13:474 14:457 15:995 16:75 17:94 18:123 19:524 
-512 1:57 2:154 3:488 4:427 5:313 6:184 7:103 8:953 9:8 10:339 11:0 12:0 13:460 14:543 15:989 16:79 17:69 18:123 19:492 
-512 1:57 2:154 3:488 4:427 5:313 6:184 7:103 8:953 9:8 10:339 11:0 12:0 13:460 14:543 15:989 16:79 17:69 18:123 19:492 
-512 1:182 2:199 3:521 4:485 5:358 6:122 7:179 8:638 9:53 10:701 11:0 12:0 13:489 14:495 15:989 16:47 17:73 18:255 19:487 
-512 1:453 2:410 3:430 4:583 5:224 6:20 7:77 8:194 9:269 10:996 11:0 12:0 13:496 14:319 15:936 16:67 17:86 18:466 19:372 
-512 1:427 2:372 3:421 4:592 5:269 6:41 7:77 8:194 9:216 10:1000 11:0 12:0 13:489 14:324 15:973 16:63 17:82 18:441 19:366 
-512 1:271 2:186 3:612 4:359 5:418 6:41 7:51 8:341 9:78 10:16 11:0 12:0 13:602 14:612 15:989 16:150 17:151 18:505 19:607 
-512 1:354 2:327 3:636 4:340 5:806 6:41 7:26 8:336 9:188 10:0 11:4 12:0 13:792 14:601 15:984 16:130 17:139 18:750 19:634 
-512 1:469 2:372 3:455 4:485 5:493 6:245 7:205 8:125 9:306 10:669 11:0 12:12 13:613 14:633 15:850 16:118 17:163 18:529 19:445 
-512 1:490 2:378 3:471 4:476 5:358 6:82 7:77 8:78 9:335 10:795 11:0 12:0 13:580 14:441 15:765 16:303 17:269 18:485 19:455 
-512 1:344 2:276 3:496 4:515 5:507 6:184 7:256 8:302 9:159 10:634 11:0 12:0 13:398 14:527 15:979 16:55 17:94 18:348 19:455 
-512 1:443 2:321 3:521 4:485 5:313 6:102 7:128 8:86 9:159 10:504 11:0 12:0 13:504 14:489 15:957 16:83 17:184 18:520 19:487 
-512 1:474 2:391 3:496 4:495 5:388 6:143 7:154 8:147 9:245 10:736 11:4 12:0 13:536 14:367 15:947 16:209 17:176 18:578 19:461 
-512 1:302 2:244 3:388 4:748 5:388 6:265 7:385 8:379 9:102 10:516 11:16 12:0 13:467 14:426 15:979 16:94 17:122 18:348 19:257 
-512 1:484 2:429 3:678 4:301 5:687 6:61 7:51 8:168 9:388 10:0 11:0 12:24 13:693 14:415 15:957 16:154 17:114 18:676 19:681 
-512 1:547 2:532 3:669 4:301 5:776 6:61 7:51 8:198 9:486 10:0 11:0 12:12 13:810 14:580 15:973 16:154 17:114 18:809 19:670 
-512 1:557 2:519 3:678 4:291 5:672 6:82 7:77 8:151 9:490 10:8 11:4 12:35 13:734 14:468 15:989 16:193 17:94 18:657 19:681 
-207.6015149219942 1:500 2:423 3:612 4:398 5:522 6:102 7:179 8:129 9:318 10:189 11:8 12:0 13:595 14:356 15:995 16:150 17:155 18:534 19:586 
-512 1:599 2:474 3:570 4:388 5:269 6:143 7:128 8:0 9:514 10:268 11:0 12:0 13:500 14:452 15:599 16:102 17:82 18:652 19:565 
-512 1:609 2:487 3:579 4:388 5:373 6:204 7:179 8:0 9:531 10:358 11:0 12:0 13:482 14:489 15:626 16:71 17:61 18:647 19:576 
-512 1:573 2:449 3:413 4:573 5:343 6:143 7:154 8:13 9:408 10:929 11:0 12:0 13:412 14:346 15:904 16:102 17:147 18:569 19:366 
-512 1:427 2:365 3:446 4:485 5:269 6:82 7:77 8:198 9:224 10:846 11:0 12:0 13:321 14:479 15:690 16:55 17:45 18:368 19:435 
-512 1:542 2:519 3:653 4:320 5:791 6:41 7:51 8:185 9:331 10:0 11:0 12:24 13:785 14:606 15:968 16:154 17:90 18:863 19:649 
-512 1:578 2:583 3:512 4:476 5:373 6:184 7:205 8:185 9:600 10:602 11:0 12:0 13:529 14:287 15:979 16:272 17:273 18:662 19:482 
-512 1:526 2:385 3:595 4:398 5:478 6:143 7:179 8:4 9:478 10:240 11:0 12:0 13:609 14:590 15:722 16:102 17:69 18:578 19:576 
-512 1:286 2:494 3:612 4:369 5:567 6:20 7:77 8:677 9:216 10:8 11:0 12:0 13:661 14:500 15:984 16:201 17:237 18:495 19:607 
-512 1:589 2:468 3:587 4:388 5:433 6:61 7:77 8:9 9:429 10:106 11:0 12:0 13:606 14:473 15:674 16:138 17:106 18:716 19:576 
-512 1:401 2:417 3:595 4:437 5:313 6:61 7:77 8:328 9:265 10:224 11:0 12:0 13:661 14:399 15:936 16:165 17:220 18:436 19:560 
-512 1:375 2:397 3:512 4:515 5:537 6:204 7:256 8:349 9:261 10:685 11:4 12:8 13:566 14:537 15:1000 16:252 17:208 18:451 19:466 
-512 1:542 2:500 3:537 4:456 5:642 6:163 7:231 8:168 9:473 10:496 11:0 12:0 13:653 14:670 15:984 16:240 17:220 18:676 19:513 
-512 1:281 2:212 3:521 4:534 5:463 6:163 7:359 8:353 9:159 10:563 11:0 12:0 13:471 14:431 15:1000 16:193 17:147 18:328 19:461 
-512 1:641 2:609 3:595 4:437 5:627 6:82 7:256 8:121 9:616 10:280 11:12 12:0 13:701 14:383 15:968 16:122 17:122 18:672 19:555 
-512 1:484 2:353 3:554 4:466 5:493 6:122 7:256 8:39 9:355 10:350 11:24 12:0 13:580 14:468 15:930 16:106 17:147 18:598 19:518 
-512 1:422 2:397 3:620 4:320 5:194 6:41 7:26 8:267 9:135 10:0 11:0 12:0 13:639 14:633 15:620 16:87 17:106 18:475 19:639 
-512 1:589 2:551 3:661 4:388 5:612 6:163 7:154 8:134 9:486 10:142 11:0 12:102 13:690 14:601 15:904 16:272 17:159 18:623 19:623 
-512 1:484 2:449 3:529 4:485 5:403 6:82 7:179 8:203 9:347 10:646 11:8 12:0 13:555 14:559 15:968 16:232 17:184 18:534 19:492 
-512 1:589 2:532 3:521 4:456 5:537 6:184 7:205 8:103 9:478 10:591 11:0 12:0 13:602 14:388 15:984 16:228 17:224 18:627 19:497 
-512 1:516 2:474 3:430 4:515 5:537 6:143 7:179 8:181 9:367 10:862 11:4 12:0 13:650 14:495 15:979 16:134 17:127 18:721 19:408 
-512 1:667 2:577 3:554 4:388 5:493 6:143 7:77 8:26 9:527 10:252 11:12 12:0 13:624 14:452 15:898 16:181 17:122 18:730 19:555 
-512 1:589 2:551 3:504 4:408 5:537 6:388 7:205 8:129 9:522 10:358 11:4 12:0 13:562 14:553 15:979 16:224 17:224 18:578 19:518 
-512 1:297 2:276 3:612 4:340 5:433 6:184 7:77 8:349 9:135 10:118 11:12 12:0 13:562 14:473 15:1000 16:268 17:192 18:299 19:623 
-512 1:417 2:288 3:438 4:728 5:134 6:388 7:615 8:99 9:0 10:201 11:0 12:141 13:474 14:537 15:460 16:87 17:57 18:417 19:304 
-512 1:469 2:506 3:901 4:447 5:388 6:204 7:179 8:302 9:494 10:0 11:0 12:24 13:770 14:468 15:984 16:79 17:122 18:608 19:743 
-512 1:349 2:295 3:521 4:485 5:328 6:122 7:154 8:293 9:110 10:583 11:0 12:0 13:588 14:330 15:786 16:567 17:331 18:603 19:482 
-512 1:328 2:250 3:537 4:466 5:194 6:61 7:103 8:241 9:29 10:417 11:0 12:4 13:518 14:420 15:979 16:205 17:196 18:377 19:503 
-512 1:479 2:538 3:529 4:398 5:343 6:82 7:77 8:310 9:506 10:555 11:0 12:0 13:628 14:686 15:995 16:110 17:98 18:490 19:539 
-512 1:490 2:436 3:612 4:340 5:522 6:265 7:231 8:172 9:367 10:244 11:31 12:216 13:704 14:505 15:952 16:307 17:192 18:745 19:623 
-512 1:583 2:474 3:612 4:359 5:478 6:265 7:154 8:26 9:457 10:213 11:0 12:71 13:617 14:479 15:995 16:358 17:216 18:676 19:607 
-512 1:276 2:173 3:537 4:447 5:269 6:184 7:154 8:306 9:57 10:319 11:0 12:16 13:533 14:447 15:866 16:138 17:147 18:289 19:518 
-512 1:438 2:481 3:628 4:340 5:687 6:102 7:51 8:345 9:424 10:0 11:0 12:0 13:755 14:500 15:957 16:220 17:224 18:657 19:634 
-512 1:521 2:628 3:678 4:340 5:761 6:143 7:205 8:328 9:473 10:59 11:0 12:243 13:814 14:495 15:989 16:213 17:208 18:691 19:660 
-512 1:521 2:532 3:653 4:330 5:433 6:163 7:179 8:224 9:584 10:51 11:0 12:188 13:770 14:420 15:904 16:114 17:106 18:637 19:644 
-512 1:495 2:962 3:645 4:359 5:239 6:41 7:26 8:565 9:469 10:0 11:0 12:0 13:1000 14:500 15:979 16:59 17:33 18:863 19:634 
-512 1:536 2:744 3:678 4:340 5:716 6:41 7:51 8:401 9:473 10:0 11:0 12:0 13:909 14:612 15:979 16:75 17:65 18:794 19:654 
-512 1:526 2:429 3:496 4:485 5:358 6:204 7:179 8:91 9:392 10:685 11:0 12:0 13:471 14:489 15:989 16:55 17:106 18:564 19:471 
-512 1:422 2:436 3:521 4:456 5:493 6:143 7:128 8:323 9:310 10:638 11:0 12:0 13:577 14:755 15:995 16:106 17:143 18:593 19:497 
-512 1:536 2:545 3:636 4:330 5:866 6:41 7:26 8:220 9:380 10:0 11:0 12:0 13:807 14:410 15:1000 16:161 17:155 18:838 19:639 
-512 1:474 2:417 3:554 4:437 5:627 6:204 7:179 8:181 9:343 10:327 11:0 12:8 13:664 14:362 15:1000 16:110 17:102 18:593 19:529 
-512 1:484 2:423 3:612 4:369 5:597 6:204 7:103 8:155 9:376 10:232 11:4 12:4 13:639 14:633 15:1000 16:142 17:155 18:711 19:602 
-512 1:193 2:244 3:645 4:330 5:493 6:82 7:77 8:573 9:78 10:39 11:0 12:51 13:602 14:580 15:1000 16:102 17:147 18:299 19:639 
-512 1:479 2:590 3:612 4:359 5:493 6:122 7:103 8:336 9:494 10:94 11:0 12:39 13:734 14:399 15:1000 16:146 17:237 18:598 19:607 
-512 1:370 2:378 3:529 4:476 5:284 6:102 7:77 8:332 9:151 10:697 11:0 12:0 13:628 14:426 15:834 16:39 17:61 18:441 19:492 
-512 1:380 2:397 3:529 4:476 5:284 6:102 7:77 8:336 9:204 10:720 11:0 12:0 13:631 14:410 15:845 16:39 17:61 18:451 19:497 
-512 1:193 2:692 3:636 4:350 5:448 6:41 7:26 8:841 9:196 10:12 11:0 12:0 13:547 14:521 15:995 16:114 17:90 18:225 19:628 
-512 1:510 2:423 3:612 4:359 5:597 6:184 7:103 8:112 9:265 10:122 11:16 12:0 13:810 14:495 15:957 16:287 17:257 18:951 19:613 
-512 1:516 2:455 3:661 4:350 5:657 6:102 7:128 8:142 9:359 10:0 11:12 12:43 13:730 14:468 15:984 16:260 17:196 18:789 19:639 
-512 1:339 2:423 3:413 4:466 5:373 6:122 7:77 8:474 9:245 10:854 11:0 12:0 13:518 14:484 15:829 16:106 17:151 18:338 19:429 
-512 1:469 2:513 3:612 4:369 5:761 6:102 7:77 8:306 9:339 10:28 11:0 12:0 13:741 14:383 15:1000 16:181 17:155 18:725 19:602 
-512 1:469 2:654 3:529 4:408 5:716 6:245 7:333 8:431 9:416 10:295 11:98 12:8 13:686 14:649 15:995 16:102 17:163 18:833 19:534 
-512 1:464 2:455 3:645 4:320 5:687 6:61 7:77 8:254 9:367 10:8 11:4 12:0 13:734 14:468 15:973 16:209 17:180 18:711 19:644 
-512 1:484 2:365 3:421 4:534 5:373 6:245 7:282 8:82 9:237 10:776 11:59 12:0 13:518 14:537 15:973 16:382 17:441 18:480 19:398 
-512 1:589 2:513 3:463 4:476 5:343 6:163 7:154 8:86 9:539 10:827 11:27 12:4 13:478 14:410 15:973 16:220 17:212 18:647 19:455 
-512 1:615 2:622 3:545 4:398 5:716 6:102 7:77 8:172 9:535 10:366 11:0 12:0 13:839 14:441 15:947 16:39 17:24 18:897 19:545 
-512 1:250 2:160 3:322 4:680 5:179 6:224 7:179 8:358 9:0 10:913 11:0 12:0 13:328 14:415 15:968 16:134 17:118 18:206 19:251 
-512 1:505 2:417 3:554 4:408 5:433 6:265 7:359 8:121 9:282 10:287 11:35 12:4 13:577 14:495 15:979 16:209 17:237 18:559 19:550 
-512 1:281 2:179 3:554 4:417 5:224 6:163 7:128 8:289 9:45 10:260 11:0 12:0 13:438 14:479 15:984 16:228 17:139 18:328 19:545 
-512 1:0 2:327 3:512 4:515 5:552 6:184 7:282 8:1000 9:24 10:524 11:12 12:0 13:434 14:473 15:1000 16:189 17:192 18:59 19:466 
-512 1:0 2:327 3:512 4:515 5:552 6:184 7:282 8:1000 9:24 10:524 11:12 12:0 13:434 14:473 15:1000 16:189 17:192 18:59 19:466 
-512 1:135 2:103 3:479 4:495 5:164 6:102 7:154 8:698 9:8 10:575 11:0 12:0 13:394 14:564 15:1000 16:83 17:94 18:147 19:455 
-512 1:31 2:321 3:339 4:670 5:552 6:327 7:282 8:983 9:24 10:732 11:0 12:0 13:456 14:585 15:1000 16:67 17:106 18:93 19:267 
-512 1:313 2:256 3:802 4:262 5:358 6:1000 7:949 8:323 9:98 10:276 11:0 12:518 13:584 14:548 15:963 16:299 17:290 18:353 19:780 
-224.6471921761526 1:380 2:269 3:521 4:359 5:627 6:204 7:77 8:177 9:314 10:169 11:239 12:0 13:730 14:516 15:834 16:193 17:78 18:681 19:555 
-512 1:469 2:615 3:694 4:262 5:522 6:224 7:256 8:401 9:449 10:102 11:4 12:451 13:807 14:633 15:1000 16:146 17:94 18:637 19:712 
-512 1:500 2:641 3:678 4:282 5:582 6:184 7:205 8:388 9:449 10:102 11:0 12:306 13:858 14:489 15:995 16:161 17:86 18:755 19:686 
-512 1:167 2:26 3:455 4:524 5:30 6:82 7:103 8:461 9:0 10:886 11:24 12:0 13:369 14:420 15:369 16:28 17:33 18:157 19:419 
-512 1:135 2:0 3:479 4:495 5:0 6:61 7:77 8:612 9:0 10:854 11:27 12:0 13:420 14:436 15:321 16:24 17:24 18:162 19:450 
-512 1:458 2:333 3:554 4:447 5:373 6:122 7:154 8:69 9:286 10:429 11:39 12:4 13:533 14:484 15:802 16:114 17:131 18:549 19:524 
-512 1:495 2:679 3:636 4:330 5:269 6:20 7:26 8:427 9:551 10:0 11:0 12:0 13:847 14:468 15:979 16:83 17:45 18:701 19:639 
-512 1:302 2:410 3:678 4:291 5:388 6:122 7:128 8:526 9:167 10:8 11:4 12:204 13:686 14:479 15:995 16:193 17:192 18:471 19:681 
-512 1:484 2:468 3:653 4:320 5:209 6:20 7:26 8:220 9:371 10:0 11:0 12:8 13:712 14:527 15:775 16:157 17:163 18:520 19:649 
-512 1:495 2:603 3:645 4:330 5:612 6:20 7:26 8:353 9:502 10:0 11:0 12:0 13:774 14:691 15:989 16:134 17:155 18:735 19:644 
-512 1:339 2:673 3:678 4:301 5:209 6:61 7:51 8:629 9:396 10:0 11:0 12:59 13:814 14:378 15:984 16:75 17:57 18:618 19:675 
-512 1:422 2:404 3:636 4:359 5:612 6:82 7:154 8:302 9:261 10:39 11:12 12:39 13:668 14:447 15:984 16:252 17:184 18:627 19:628 
-512 1:417 2:417 3:636 4:340 5:642 6:82 7:128 8:328 9:282 10:28 11:16 12:39 13:697 14:457 15:995 16:209 17:184 18:627 19:639 
-512 1:448 2:391 3:587 4:447 5:388 6:102 7:282 8:190 9:253 10:228 11:0 12:0 13:526 14:410 15:984 16:118 17:143 18:485 19:545 
-512 1:448 2:391 3:587 4:447 5:388 6:102 7:282 8:190 9:253 10:228 11:0 12:0 13:526 14:410 15:984 16:118 17:143 18:485 19:545 
-512 1:73 2:135 3:372 4:534 5:239 6:224 7:128 8:884 9:8 10:886 11:0 12:0 13:292 14:532 15:786 16:71 17:86 18:15 19:366 
-512 1:240 2:141 3:463 4:456 5:164 6:122 7:77 8:362 9:20 10:713 11:0 12:0 13:380 14:383 15:952 16:98 17:106 18:230 19:466 
-512 1:146 2:51 3:488 4:437 5:75 6:102 7:103 8:595 9:0 10:602 11:47 12:0 13:412 14:489 15:957 16:47 17:41 18:167 19:487 
-512 1:255 2:147 3:496 4:427 5:134 6:184 7:154 8:332 9:12 10:606 11:0 12:31 13:409 14:473 15:936 16:43 17:49 18:270 19:497 
-512 1:188 2:90 3:471 4:456 5:60 6:102 7:51 8:461 9:0 10:567 11:0 12:0 13:325 14:580 15:947 16:79 17:78 18:147 19:471 
-212.8275825876804 1:193 2:96 3:471 4:447 5:75 6:102 7:51 8:453 9:0 10:559 11:0 12:0 13:328 14:590 15:941 16:83 17:78 18:157 19:471 
-512 1:141 2:83 3:430 4:485 5:104 6:102 7:51 8:647 9:0 10:874 11:0 12:0 13:318 14:367 15:968 16:106 17:90 18:98 19:424 
-512 1:73 2:115 3:471 4:466 5:269 6:122 7:128 8:978 9:4 10:500 11:8 12:0 13:442 14:489 15:973 16:39 17:33 18:103 19:466 
-512 1:500 2:417 3:628 4:359 5:701 6:102 7:128 8:121 9:261 10:43 11:71 12:4 13:828 14:553 15:995 16:256 17:188 18:922 19:623 
-512 1:484 2:519 3:620 4:359 5:672 6:102 7:128 8:297 9:429 10:114 11:12 12:0 13:723 14:245 15:979 16:201 17:159 18:755 19:613 
-512 1:573 2:603 3:636 4:340 5:687 6:41 7:77 8:233 9:551 10:12 11:0 12:0 13:737 14:282 15:909 16:110 17:90 18:819 19:639 
-512 1:490 2:500 3:636 4:359 5:478 6:61 7:128 8:237 9:400 10:87 11:4 12:4 13:672 14:553 15:989 16:236 17:212 18:598 19:628 
-512 1:557 2:583 3:628 4:340 5:687 6:61 7:51 8:220 9:441 10:16 11:8 12:0 13:737 14:452 15:989 16:228 17:196 18:652 19:634 
-512 1:542 2:468 3:612 4:369 5:224 6:61 7:77 8:103 9:600 10:71 11:0 12:0 13:690 14:521 15:695 16:8 17:16 18:578 19:607 
-512 1:359 2:340 3:603 4:379 5:493 6:122 7:179 8:328 9:147 10:209 11:0 12:59 13:599 14:622 15:989 16:118 17:110 18:490 19:592 
-512 1:365 2:256 3:636 4:330 5:343 6:143 7:154 8:185 9:131 10:83 11:16 12:39 13:500 14:447 15:995 16:236 17:86 18:436 19:639 
-512 1:505 2:410 3:653 4:320 5:672 6:41 7:26 8:103 9:367 10:0 11:0 12:0 13:701 14:500 15:898 16:138 17:98 18:730 19:654 
-512 1:531 2:526 3:645 4:320 5:358 6:41 7:26 8:207 9:588 10:0 11:0 12:0 13:715 14:532 15:770 16:126 17:102 18:642 19:649 
-512 1:344 2:353 3:612 4:369 5:701 6:61 7:77 8:392 9:188 10:31 11:0 12:0 13:606 14:383 15:968 16:83 17:73 18:471 19:607 
