svm_type c_svc
kernel_type linear
nr_class 2
total_sv 552
rho -393
label -1 0
nr_sv 284 268
SV
1 1:180 2:812 3:194 4:135 5:190 6:42 7:97 8:4 9:60 10:0 11:79 12:0 13:76 14:0 15:125 16:7 17:187 18:544 19:126 20:207 21:103 22:91 23:128 24:24 25:116 26:88 27:116 28:17 29:96 30:4 31:127 32:25 33:151 34:480 35:156 36:60 37:165 38:9 39:87 40:3 41:117 42:186 43:98 44:191 45:86 46:29 47:141 48:42 49:119 50:771 51:121 52:101 53:200 54:6 55:148 56:4 57:133 58:23 59:86 60:33 61:74 62:10 63:119 64:52 65:121 66:686 67:112 68:100 69:164 70:11 71:183 72:25 73:149 74:79 75:118 76:1 77:54 78:1 79:99 80:98 
1 1:26 2:492 3:27 4:463 5:30 6:8 7:35 8:7 9:112 10:22 11:467 12:0 13:264 14:2 15:40 16:7 17:123 18:273 19:96 20:93 21:191 22:39 23:155 24:32 25:113 26:52 27:81 28:9 29:122 30:3 31:120 32:499 33:134 34:217 35:77 36:276 37:103 38:62 39:180 40:204 41:228 42:145 43:109 44:37 45:73 46:13 47:97 48:46 49:56 50:564 51:47 52:68 53:86 54:77 55:142 56:47 57:246 58:160 59:267 60:25 61:100 62:10 63:56 64:51 65:72 66:407 67:79 68:109 69:211 70:48 71:106 72:47 73:92 74:262 75:161 76:59 77:190 78:16 79:89 80:54 
1 1:57 2:492 3:54 4:119 5:86 6:23 7:224 8:55 9:334 10:278 11:125 12:18 13:61 14:3 15:59 16:14 17:73 18:636 19:58 20:80 21:95 22:24 23:139 24:8 25:168 26:75 27:152 28:21 29:203 30:5 31:114 32:153 33:82 34:46 35:81 36:11 37:94 38:9 39:253 40:15 41:246 42:890 43:87 44:23 45:84 46:3 47:73 48:4 49:82 50:85 51:61 52:91 53:79 54:54 55:115 56:43 57:145 58:699 59:96 60:21 61:184 62:5 63:239 64:2 65:85 66:254 67:65 68:573 69:71 70:88 71:86 72:16 73:126 74:70 75:112 76:0 77:290 78:0 79:165 80:0 
1 1:385 2:432 3:84 4:357 5:41 6:15 7:34 8:27 9:86 10:124 11:120 12:41 13:144 14:1 15:107 16:4 17:30 18:538 19:26 20:408 21:63 22:25 23:223 24:3 25:431 26:25 27:122 28:2 29:60 30:0 31:46 32:0 33:34 34:84 35:36 36:338 37:63 38:280 39:240 40:41 41:443 42:224 43:119 44:22 45:40 46:1 47:27 48:12 49:70 50:273 51:84 52:325 53:124 54:150 55:211 56:46 57:268 58:80 59:127 60:28 61:66 62:18 63:50 64:82 65:296 66:410 67:113 68:234 69:44 70:68 71:40 72:27 73:57 74:112 75:56 76:44 77:152 78:20 79:243 80:85 
1 1:256 2:632 3:60 4:327 5:69 6:0 7:120 8:1 9:230 10:23 11:94 12:2 13:84 14:2 15:89 16:14 17:52 18:417 19:49 20:578 21:88 22:6 23:160 24:0 25:385 26:0 27:132 28:0 29:76 30:0 31:57 32:0 33:51 34:123 35:66 36:360 37:107 38:214 39:195 40:84 41:379 42:171 43:124 44:31 45:40 46:4 47:39 48:14 49:92 50:190 51:125 52:496 53:120 54:86 55:176 56:58 57:235 58:36 59:106 60:9 61:71 62:17 63:75 64:108 65:246 66:551 67:87 68:276 69:52 70:45 71:45 72:24 73:61 74:35 75:82 76:10 77:165 78:10 79:262 80:50 
1 1:16 2:570 3:29 4:336 5:67 6:31 7:257 8:4 9:428 10:53 11:151 12:6 13:30 14:0 15:23 16:0 17:110 18:772 19:73 20:134 21:84 22:22 23:135 24:18 25:217 26:28 27:111 28:24 29:98 30:1 31:173 32:2 33:90 34:523 35:80 36:225 37:95 38:147 39:117 40:27 41:274 42:56 43:116 44:4 45:120 46:1 47:108 48:18 49:87 50:164 51:75 52:297 53:122 54:266 55:174 56:85 57:307 58:157 59:101 60:8 61:65 62:4 63:69 64:19 65:84 66:535 67:87 68:403 69:123 70:20 71:196 72:10 73:291 74:14 75:103 76:6 77:58 78:1 79:58 80:11 
1 1:166 2:815 3:54 4:143 5:51 6:0 7:174 8:1 9:259 10:17 11:148 12:3 13:67 14:0 15:81 16:21 17:63 18:607 19:69 20:358 21:102 22:7 23:161 24:8 25:315 26:15 27:89 28:2 29:102 30:2 31:99 32:3 33:62 34:274 35:87 36:324 37:117 38:172 39:189 40:58 41:329 42:108 43:108 44:46 45:47 46:4 47:62 48:15 49:89 50:207 51:106 52:503 53:118 54:80 55:206 56:62 57:238 58:56 59:104 60:14 61:61 62:20 63:77 64:58 65:195 66:502 67:71 68:265 69:65 70:49 71:57 72:21 73:77 74:55 75:92 76:14 77:191 78:13 79:252 80:81 
1 1:53 2:3 3:52 4:206 5:68 6:785 7:420 8:6 9:239 10:0 11:56 12:0 13:71 14:0 15:42 16:0 17:92 18:296 19:88 20:204 21:122 22:109 23:207 24:44 25:230 26:245 27:86 28:61 29:71 30:6 31:105 32:34 33:105 34:241 35:76 36:318 37:103 38:175 39:213 40:12 41:241 42:166 43:87 44:45 45:66 46:3 47:111 48:39 49:176 50:379 51:89 52:224 53:79 54:135 55:155 56:47 57:168 58:113 59:90 60:40 61:77 62:5 63:167 64:57 65:144 66:345 67:70 68:53 69:97 70:83 71:164 72:76 73:160 74:290 75:99 76:32 77:122 78:35 79:145 80:88 
1 1:52 2:93 3:37 4:41 5:50 6:147 7:291 8:46 9:413 10:365 11:85 12:117 13:36 14:9 15:38 16:182 17:80 18:143 19:70 20:131 21:112 22:494 23:208 24:100 25:265 26:108 27:117 28:9 29:75 30:1 31:73 32:14 33:152 34:258 35:106 36:209 37:128 38:233 39:169 40:36 41:126 42:184 43:100 44:58 45:98 46:3 47:122 48:20 49:101 50:100 51:85 52:221 53:125 54:509 55:152 56:81 57:220 58:25 59:108 60:0 61:103 62:3 63:107 64:62 65:76 66:256 67:68 68:294 69:107 70:382 71:206 72:27 73:278 74:16 75:112 76:5 77:73 78:3 79:81 80:16 
1 1:153 2:727 3:105 4:223 5:152 6:32 7:102 8:16 9:80 10:1 11:99 12:0 13:120 14:0 15:188 16:0 17:334 18:464 19:59 20:352 21:52 22:106 23:42 24:25 25:35 26:17 27:56 28:10 29:111 30:5 31:311 32:20 33:165 34:786 35:114 36:112 37:119 38:11 39:103 40:5 41:88 42:13 43:107 44:25 45:133 46:21 47:172 48:27 49:140 50:465 51:90 52:276 53:98 54:27 55:200 56:6 57:171 58:150 59:76 60:51 61:93 62:8 63:133 64:17 65:116 66:235 67:107 68:280 69:98 70:96 71:163 72:22 73:177 74:231 75:93 76:97 77:119 78:22 79:127 80:17 
1 1:80 2:511 3:120 4:388 5:154 6:66 7:175 8:14 9:128 10:10 11:145 12:7 13:127 14:3 15:72 16:3 17:135 18:425 19:133 20:133 21:120 22:117 23:106 24:48 25:128 26:32 27:116 28:8 29:127 30:2 31:135 32:236 33:126 34:596 35:108 36:119 37:131 38:1 39:141 40:0 41:170 42:3 43:113 44:6 45:112 46:3 47:99 48:271 49:94 50:596 51:100 52:281 53:107 54:58 55:199 56:1 57:202 58:8 59:107 60:21 61:98 62:9 63:93 64:25 65:175 66:676 67:94 68:54 69:92 70:9 71:115 72:6 73:108 74:179 75:110 76:39 77:123 78:2 79:184 80:34 
1 1:65 2:550 3:110 4:371 5:146 6:54 7:202 8:11 9:197 10:13 11:136 12:1 13:92 14:0 15:53 16:0 17:138 18:457 19:183 20:150 21:119 22:112 23:103 24:45 25:110 26:22 27:88 28:2 29:108 30:2 31:151 32:209 33:115 34:629 35:130 36:110 37:131 38:5 39:148 40:0 41:174 42:4 43:105 44:4 45:94 46:1 47:102 48:247 49:135 50:635 51:117 52:266 53:107 54:15 55:156 56:3 57:160 58:26 59:106 60:13 61:93 62:7 63:128 64:36 65:195 66:612 67:87 68:82 69:69 70:27 71:166 72:7 73:152 74:202 75:82 76:38 77:89 78:7 79:160 80:26 
1 1:174 2:702 3:167 4:212 5:138 6:24 7:121 8:30 9:55 10:33 11:73 12:0 13:100 14:0 15:171 16:0 17:155 18:362 19:92 20:337 21:108 22:120 23:141 24:103 25:144 26:69 27:121 28:4 29:110 30:1 31:129 32:4 33:132 34:482 35:91 36:195 37:128 38:72 39:165 40:55 41:153 42:46 43:122 44:15 45:87 46:3 47:123 48:132 49:115 50:581 51:105 52:131 53:147 54:23 55:149 56:16 57:139 58:16 59:111 60:46 61:113 62:69 63:122 64:118 65:157 66:613 67:129 68:368 69:143 70:2 71:127 72:1 73:121 74:5 75:90 76:0 77:92 78:0 79:142 80:11 
1 1:118 2:351 3:67 4:593 5:108 6:39 7:170 8:17 9:264 10:0 11:102 12:0 13:79 14:0 15:92 16:0 17:107 18:153 19:107 20:509 21:155 22:206 23:197 24:6 25:186 26:121 27:75 28:6 29:85 30:0 31:89 32:0 33:95 34:127 35:112 36:260 37:136 38:598 39:164 40:3 41:186 42:5 43:120 44:7 45:97 46:0 47:90 48:1 49:84 50:182 51:95 52:177 53:115 54:624 55:173 56:2 57:201 58:6 59:132 60:4 61:117 62:0 63:85 64:5 65:114 66:86 67:95 68:195 69:120 70:478 71:201 72:35 73:187 74:181 75:92 76:15 77:84 78:6 79:107 80:4 
1 1:219 2:339 3:360 4:662 5:245 6:0 7:44 8:0 9:32 10:0 11:12 12:0 13:29 14:0 15:60 16:0 17:151 18:234 19:112 20:547 21:89 22:30 23:133 24:27 25:153 26:133 27:141 28:9 29:76 30:5 31:143 32:15 33:103 34:243 35:68 36:395 37:83 38:17 39:232 40:10 41:220 42:263 43:103 44:60 45:90 46:7 47:101 48:4 49:142 50:293 51:98 52:224 53:78 54:5 55:184 56:4 57:147 58:371 59:102 60:91 61:116 62:7 63:134 64:5 65:146 66:307 67:142 68:68 69:115 70:2 71:123 72:3 73:126 74:330 75:121 76:71 77:108 78:28 79:122 80:192 
0.9990097649994322 1:25 2:0 3:39 4:1000 5:209 6:0 7:226 8:0 9:321 10:0 11:118 12:0 13:39 14:0 15:25 16:0 17:149 18:256 19:78 20:254 21:97 22:7 23:168 24:17 25:190 26:400 27:73 28:60 29:111 30:5 31:134 32:2 33:98 34:154 35:80 36:126 37:88 38:18 39:183 40:11 41:255 42:629 43:106 44:43 45:102 46:8 47:89 48:12 49:170 50:266 51:102 52:187 53:91 54:13 55:139 56:17 57:178 58:426 59:91 60:36 61:92 62:7 63:137 64:49 65:203 66:207 67:112 68:558 69:155 70:9 71:106 72:8 73:84 74:186 75:68 76:13 77:103 78:10 79:170 80:11 
1 1:125 2:0 3:112 4:62 5:135 6:63 7:163 8:27 9:165 10:814 11:92 12:34 13:142 14:0 15:66 16:0 17:174 18:9 19:120 20:389 21:92 22:25 23:122 24:16 25:146 26:305 27:80 28:251 29:112 30:2 31:154 32:3 33:131 34:18 35:85 36:57 37:94 38:37 39:134 40:10 41:184 42:523 43:94 44:350 45:110 46:5 47:168 48:1 49:175 50:18 51:98 52:24 53:108 54:3 55:158 56:6 57:150 58:687 59:70 60:240 61:96 62:20 63:146 64:2 65:148 66:111 67:94 68:16 69:100 70:0 71:171 72:1 73:182 74:388 75:113 76:322 77:72 78:25 79:120 80:137 
1 1:82 2:0 3:104 4:57 5:135 6:103 7:212 8:20 9:136 10:759 11:139 12:61 13:128 14:0 15:63 16:0 17:150 18:49 19:92 20:359 21:89 22:58 23:187 24:16 25:177 26:431 27:99 28:74 29:94 30:10 31:113 32:4 33:145 34:8 35:98 36:103 37:91 38:53 39:161 40:27 41:155 42:525 43:90 44:270 45:110 46:10 47:150 48:5 49:120 50:143 51:90 52:49 53:107 54:5 55:183 56:10 57:194 58:376 59:114 60:217 61:82 62:51 63:110 64:150 65:209 66:117 67:91 68:6 69:82 70:0 71:161 72:1 73:122 74:538 75:92 76:272 77:89 78:16 79:153 80:51 
1 1:169 2:360 3:184 4:114 5:133 6:17 7:61 8:6 9:51 10:487 11:141 12:16 13:178 14:0 15:85 16:1 17:88 18:557 19:71 20:358 21:104 22:25 23:239 24:18 25:219 26:34 27:115 28:4 29:87 30:0 31:77 32:4 33:93 34:505 35:95 36:257 37:112 38:39 39:192 40:34 41:216 42:142 43:129 44:11 45:84 46:4 47:79 48:9 49:126 50:157 51:104 52:123 53:108 54:14 55:151 56:22 57:147 58:583 59:109 60:77 61:119 62:16 63:135 64:9 65:171 66:123 67:104 68:6 69:92 70:1 71:117 72:1 73:124 74:691 75:143 76:121 77:115 78:22 79:135 80:36 
1 1:139 2:148 3:40 4:190 5:64 6:33 7:80 8:22 9:109 10:607 11:199 12:0 13:162 14:0 15:206 16:0 17:91 18:49 19:91 20:100 21:109 22:34 23:255 24:33 25:250 26:781 27:84 28:2 29:58 30:0 31:63 32:0 33:109 34:47 35:103 36:84 37:94 38:21 39:204 40:27 41:211 42:821 43:95 44:2 45:73 46:0 47:111 48:0 49:125 50:120 51:91 52:112 53:82 54:9 55:128 56:12 57:123 58:709 59:141 60:36 61:148 62:0 63:162 64:2 65:114 66:218 67:87 68:123 69:93 70:1 71:191 72:2 73:219 74:569 75:82 76:72 77:99 78:8 79:115 80:7 
1 1:127 2:602 3:40 4:134 5:81 6:57 7:239 8:35 9:74 10:170 11:77 12:1 13:147 14:0 15:215 16:0 17:217 18:365 19:55 20:352 21:73 22:56 23:142 24:59 25:141 26:152 27:109 28:4 29:63 30:2 31:200 32:11 33:141 34:264 35:111 36:141 37:124 38:74 39:147 40:76 41:189 42:341 43:115 44:94 45:69 46:5 47:105 48:5 49:161 50:477 51:72 52:102 53:80 54:26 55:180 56:11 57:184 58:271 59:83 60:38 61:92 62:16 63:148 64:60 65:165 66:705 67:92 68:5 69:87 70:0 71:92 72:0 73:107 74:56 75:72 76:93 77:130 78:51 79:255 80:90 
1 1:110 2:53 3:152 4:219 5:327 6:5 7:116 8:13 9:79 10:709 11:63 12:0 13:73 14:0 15:79 16:0 17:274 18:208 19:117 20:356 21:100 22:21 23:95 24:28 25:71 26:384 27:62 28:3 29:70 30:0 31:212 32:0 33:130 34:236 35:88 36:121 37:160 38:17 39:201 40:6 41:131 42:602 43:91 44:16 45:69 46:1 47:132 48:2 49:105 50:159 51:81 52:2 53:134 54:0 55:237 56:3 57:178 58:722 59:69 60:90 61:68 62:9 63:129 64:15 65:211 66:695 67:72 68:33 69:92 70:1 71:138 72:1 73:105 74:171 75:61 76:58 77:84 78:6 79:237 80:36 
1 1:122 2:27 3:125 4:3 5:132 6:1 7:87 8:3 9:231 10:959 11:105 12:6 13:92 14:1 15:108 16:2 17:115 18:444 19:111 20:60 21:134 22:11 23:186 24:13 25:151 26:369 27:81 28:71 29:98 30:4 31:122 32:28 33:134 34:464 35:76 36:78 37:100 38:17 39:147 40:12 41:218 42:266 43:96 44:102 45:111 46:21 47:118 48:41 49:176 50:276 51:55 52:52 53:78 54:3 55:91 56:5 57:183 58:397 59:118 60:165 61:105 62:51 63:194 64:52 65:125 66:77 67:63 68:244 69:97 70:3 71:143 72:5 73:177 74:584 75:114 76:43 77:79 78:18 79:202 80:26 
1 1:40 2:498 3:44 4:82 5:54 6:15 7:63 8:20 9:100 10:343 11:277 12:34 13:353 14:1 15:70 16:7 17:228 18:903 19:49 20:87 21:71 22:5 23:115 24:4 25:104 26:0 27:75 28:0 29:100 30:0 31:258 32:0 33:101 34:719 35:97 36:139 37:101 38:1 39:187 40:14 41:212 42:88 43:110 44:24 45:75 46:6 47:118 48:8 49:101 50:966 51:66 52:6 53:142 54:1 55:178 56:4 57:204 58:5 59:105 60:2 61:85 62:2 63:119 64:15 65:133 66:827 67:66 68:11 69:79 70:0 71:151 72:10 73:187 74:56 75:145 76:18 77:143 78:25 79:97 80:53 
1 1:82 2:923 3:79 4:7 5:84 6:1 7:59 8:3 9:87 10:63 11:98 12:3 13:208 14:0 15:303 16:0 17:129 18:564 19:60 20:115 21:81 22:8 23:118 24:113 25:106 26:195 27:75 28:1 29:214 30:0 31:218 32:4 33:111 34:697 35:80 36:163 37:126 38:2 39:160 40:7 41:180 42:114 43:94 44:6 45:78 46:1 47:171 48:10 49:110 50:750 51:73 52:1 53:109 54:1 55:165 56:16 57:209 58:166 59:90 60:3 61:90 62:1 63:154 64:63 65:131 66:853 67:58 68:1 69:118 70:0 71:190 72:1 73:170 74:83 75:112 76:22 77:83 78:7 79:138 80:34 
1 1:79 2:373 3:113 4:623 5:215 6:2 7:162 8:1 9:150 10:1 11:108 12:0 13:107 14:0 15:66 16:0 17:129 18:42 19:88 20:368 21:104 22:14 23:179 24:20 25:173 26:545 27:100 28:8 29:92 30:2 31:136 32:1 33:125 34:97 35:81 36:100 37:99 38:5 39:189 40:7 41:215 42:771 43:111 44:15 45:86 46:4 47:94 48:2 49:78 50:169 51:76 52:64 53:145 54:4 55:204 56:4 57:178 58:640 59:153 60:100 61:98 62:14 63:69 64:5 65:104 66:136 67:81 68:451 69:167 70:16 71:176 72:4 73:157 74:239 75:143 76:104 77:93 78:34 79:80 80:17 
1 1:51 2:7 3:56 4:40 5:125 6:1 7:184 8:2 9:287 10:951 11:154 12:0 13:90 14:0 15:52 16:0 17:95 18:284 19:74 20:655 21:97 22:5 23:128 24:5 25:119 26:51 27:120 28:0 29:161 30:0 31:206 32:0 33:81 34:500 35:69 36:54 37:120 38:9 39:249 40:26 41:187 42:393 43:116 44:16 45:102 46:1 47:77 48:3 49:113 50:241 51:64 52:7 53:139 54:10 55:268 56:4 57:163 58:665 59:97 60:68 61:63 62:3 63:93 64:4 65:81 66:328 67:61 68:59 69:98 70:3 71:192 72:2 73:202 74:570 75:214 76:33 77:80 78:1 79:73 80:5 
1 1:44 2:718 3:70 4:250 5:89 6:5 7:105 8:3 9:238 10:17 11:349 12:5 13:61 14:1 15:45 16:1 17:141 18:60 19:78 20:325 21:228 22:34 23:106 24:55 25:150 26:523 27:89 28:3 29:62 30:0 31:146 32:0 33:85 34:190 35:128 36:226 37:263 38:19 39:97 40:8 41:93 42:548 43:187 44:6 45:66 46:2 47:81 48:2 49:162 50:234 51:97 52:137 53:132 54:19 55:81 56:25 57:80 58:542 59:95 60:25 61:176 62:5 63:179 64:13 65:88 66:495 67:50 68:124 69:50 70:12 71:70 72:51 73:100 74:260 75:148 76:47 77:282 78:3 79:213 80:8 
1 1:2 2:845 3:2 4:155 5:19 6:0 7:729 8:0 9:242 10:0 11:4 12:0 13:2 14:0 15:1 16:0 17:139 18:281 19:82 20:327 21:81 22:15 23:177 24:18 25:149 26:338 27:85 28:14 29:127 30:1 31:160 32:5 33:122 34:259 35:89 36:173 37:80 38:40 39:216 40:12 41:186 42:499 43:75 44:14 45:86 46:1 47:146 48:3 49:94 50:247 51:86 52:59 53:102 54:12 55:203 56:7 57:218 58:639 59:99 60:27 61:75 62:6 63:124 64:4 65:116 66:281 67:66 68:61 69:135 70:7 71:217 72:6 73:201 74:621 75:87 76:11 77:63 78:5 79:116 80:8 
1 1:305 2:520 3:11 4:480 5:14 6:0 7:11 8:0 9:20 10:0 11:15 12:0 13:146 14:0 15:479 16:0 17:155 18:50 19:219 20:292 21:84 22:101 23:65 24:123 25:104 26:425 27:156 28:8 29:132 30:1 31:85 32:0 33:170 34:50 35:212 36:128 37:147 38:48 39:116 40:56 41:113 42:717 43:86 44:0 45:69 46:0 47:88 48:0 49:174 50:403 51:125 52:153 53:99 54:14 55:133 56:13 57:138 58:408 59:80 60:8 61:83 62:1 63:169 64:1 65:125 66:649 67:84 68:83 69:87 70:12 71:179 72:38 73:263 74:164 75:80 76:26 77:80 78:5 79:103 80:24 
1 1:128 2:669 3:37 4:176 5:36 6:14 7:211 8:20 9:337 10:114 11:24 12:3 13:45 14:2 15:183 16:2 17:153 18:281 19:130 20:141 21:113 22:14 23:60 24:28 25:71 26:519 27:91 28:14 29:172 30:1 31:211 32:1 33:178 34:263 35:148 36:86 37:115 38:10 39:100 40:17 41:159 42:590 43:77 44:28 45:101 46:4 47:123 48:4 49:151 50:579 51:90 52:83 53:95 54:5 55:191 56:4 57:167 58:297 59:86 60:22 61:79 62:2 63:141 64:8 65:95 66:263 67:53 68:34 69:91 70:1 71:248 72:3 73:243 74:644 75:125 76:41 77:67 78:6 79:79 80:9 
1 1:0 2:61 3:0 4:939 5:3 6:0 7:645 8:0 9:311 10:0 11:32 12:0 13:8 14:0 15:0 16:0 17:200 18:313 19:73 20:274 21:68 22:123 23:146 24:157 25:222 26:132 27:70 28:1 29:56 30:0 31:166 32:0 33:135 34:113 35:77 36:129 37:80 38:64 39:211 40:81 41:225 42:604 43:77 44:6 45:86 46:2 47:110 48:2 49:100 50:71 51:77 52:121 53:106 54:32 55:198 56:33 57:232 58:696 59:110 60:24 61:86 62:12 63:91 64:10 65:158 66:158 67:88 68:109 69:74 70:23 71:202 72:89 73:159 74:559 75:78 76:12 77:102 78:7 79:141 80:42 
1 1:65 2:488 3:82 4:299 5:125 6:24 7:35 8:9 9:41 10:175 11:50 12:6 13:385 14:0 15:217 16:0 17:86 18:340 19:83 20:618 21:97 22:24 23:219 24:8 25:215 26:12 27:67 28:0 29:139 30:0 31:94 32:0 33:75 34:397 35:60 36:449 37:71 38:38 39:230 40:23 41:239 42:84 43:115 44:3 45:118 46:0 47:93 48:7 49:101 50:225 51:103 52:274 53:95 54:14 55:201 56:15 57:210 58:345 59:97 60:68 61:97 62:12 63:97 64:46 65:147 66:101 67:146 68:13 69:182 70:1 71:116 72:4 73:108 74:717 75:77 76:146 77:84 78:11 79:140 80:7 
1 1:131 2:201 3:65 4:502 5:94 6:35 7:208 8:34 9:215 10:203 11:68 12:21 13:59 14:1 15:160 16:2 17:94 18:316 19:57 20:343 21:74 22:28 23:88 24:28 25:125 26:258 27:198 28:10 29:238 30:1 31:126 32:17 33:195 34:88 35:81 36:298 37:109 38:120 39:109 40:47 41:106 42:400 43:78 44:41 45:102 46:2 47:219 48:4 49:114 50:198 51:120 52:56 53:133 54:34 55:131 56:103 57:108 58:488 59:115 60:78 61:148 62:6 63:132 64:38 65:187 66:299 67:103 68:60 69:94 70:5 71:130 72:16 73:171 74:474 75:85 76:40 77:100 78:6 79:129 80:101 
0.1326324199272579 1:113 2:19 3:50 4:9 5:122 6:319 7:205 8:529 9:229 10:56 11:131 12:0 13:64 14:0 15:87 16:68 17:78 18:277 19:78 20:427 21:126 22:86 23:196 24:57 25:205 26:109 27:133 28:6 29:86 30:4 31:99 32:34 33:99 34:220 35:84 36:182 37:120 38:90 39:194 40:92 41:236 42:263 43:105 44:55 45:73 46:18 47:90 48:80 49:149 50:116 51:97 52:121 53:108 54:28 55:139 56:129 57:150 58:339 59:119 60:161 61:110 62:21 63:129 64:86 65:147 66:327 67:85 68:54 69:103 70:14 71:155 72:56 73:178 74:159 75:112 76:283 77:103 78:18 79:117 80:90 
1 1:43 2:0 3:81 4:30 5:68 6:573 7:296 8:276 9:382 10:122 11:38 12:0 13:45 14:0 15:47 16:0 17:133 18:78 19:67 20:398 21:85 22:197 23:177 24:77 25:150 26:251 27:79 28:0 29:168 30:0 31:141 32:1 33:182 34:39 35:73 36:51 37:74 38:25 39:147 40:20 41:164 42:700 43:82 44:128 45:84 46:30 47:193 48:6 49:157 50:186 51:74 52:25 53:75 54:10 55:171 56:11 57:181 58:249 59:94 60:202 61:80 62:55 63:167 64:262 65:107 66:160 67:77 68:1 69:119 70:3 71:182 72:7 73:230 74:253 75:108 76:420 77:86 78:66 79:92 80:91 
1 1:27 2:0 3:29 4:44 5:206 6:706 7:131 8:229 9:298 10:21 11:240 12:0 13:51 14:0 15:19 16:0 17:99 18:154 19:93 20:146 21:89 22:34 23:242 24:7 25:195 26:427 27:87 28:143 29:89 30:27 31:106 32:63 33:135 34:39 35:76 36:16 37:86 38:12 39:190 40:4 41:166 42:777 43:91 44:104 45:95 46:22 47:162 48:26 49:81 50:221 51:73 52:39 53:94 54:12 55:232 56:4 57:224 58:571 59:98 60:59 61:85 62:12 63:113 64:82 65:138 66:350 67:86 68:36 69:101 70:7 71:164 72:8 73:166 74:272 75:90 76:154 77:93 78:29 79:162 80:144 
1 1:73 2:0 3:55 4:10 5:101 6:262 7:167 8:549 9:153 10:180 11:161 12:0 13:200 14:0 15:90 16:0 17:128 18:241 19:84 20:105 21:130 22:33 23:161 24:28 25:162 26:466 27:100 28:40 29:97 30:16 31:138 32:71 33:152 34:114 35:81 36:94 37:105 38:28 39:177 40:22 41:133 42:622 43:93 44:69 45:82 46:15 47:179 48:35 49:100 50:139 51:65 52:21 53:118 54:11 55:216 56:30 57:206 58:599 59:94 60:140 61:88 62:29 63:115 64:31 65:110 66:116 67:89 68:10 69:90 70:5 71:195 72:5 73:203 74:320 75:92 76:148 77:92 78:88 79:130 80:310 
1 1:111 2:0 3:56 4:1 5:123 6:3 7:134 8:407 9:288 10:589 11:83 12:1 13:111 14:0 15:96 16:0 17:127 18:27 19:71 20:6 21:100 22:20 23:175 24:95 25:183 26:652 27:107 28:29 29:96 30:7 31:142 32:164 33:97 34:137 35:95 36:45 37:133 38:7 39:171 40:64 41:219 42:468 43:110 44:37 45:81 46:21 47:94 48:221 49:124 50:462 51:86 52:26 53:164 54:6 55:159 56:22 57:161 58:72 59:88 60:133 61:96 62:67 63:122 64:213 65:128 66:638 67:97 68:3 69:161 70:0 71:164 72:3 73:151 74:15 75:84 76:37 77:103 78:71 79:113 80:233 
1 1:44 2:24 3:74 4:357 5:215 6:277 7:238 8:145 9:205 10:137 11:107 12:13 13:61 14:27 15:55 16:21 17:84 18:209 19:79 20:129 21:120 22:58 23:227 24:21 25:220 26:335 27:95 28:89 29:75 30:30 31:99 32:129 33:93 34:206 35:81 36:139 37:121 38:13 39:200 40:12 41:220 42:323 43:111 44:120 45:80 46:47 47:94 48:139 49:115 50:175 51:112 52:89 53:114 54:4 55:172 56:5 57:163 58:190 59:106 60:145 61:101 62:77 63:116 64:315 65:159 66:136 67:86 68:87 69:104 70:0 71:172 72:2 73:150 74:279 75:81 76:272 77:92 78:60 79:158 80:165 
1 1:30 2:109 3:160 4:168 5:62 6:90 7:247 8:57 9:330 10:570 11:64 12:7 13:64 14:0 15:43 16:0 17:121 18:71 19:129 20:533 21:159 22:317 23:138 24:12 25:155 26:13 27:110 28:9 29:98 30:7 31:90 32:39 33:113 34:257 35:110 36:282 37:106 38:129 39:187 40:37 41:207 42:29 43:92 44:21 45:89 46:106 47:97 48:140 49:108 50:601 51:101 52:63 53:113 54:7 55:172 56:3 57:186 58:121 59:114 60:52 61:106 62:13 63:100 64:140 65:80 66:788 67:83 68:46 69:115 70:0 71:157 72:0 73:228 74:0 75:141 76:0 77:112 78:1 79:84 80:166 
1 1:25 2:990 3:37 4:2 5:106 6:2 7:200 8:1 9:474 10:4 11:89 12:0 13:43 14:0 15:26 16:1 17:104 18:846 19:98 20:109 21:108 22:17 23:168 24:3 25:165 26:8 27:109 28:7 29:113 30:2 31:136 32:9 33:107 34:695 35:78 36:26 37:106 38:27 39:208 40:25 41:155 42:163 43:121 44:46 45:106 46:6 47:118 48:13 49:138 50:685 51:83 52:19 53:101 54:9 55:213 56:17 57:156 58:129 59:108 60:62 61:86 62:32 63:116 64:47 65:174 66:491 67:97 68:22 69:96 70:4 71:161 72:4 73:149 74:178 75:91 76:139 77:87 78:77 79:145 80:84 
0.3123805992391966 1:108 2:416 3:49 4:137 5:184 6:3 7:174 8:21 9:217 10:337 11:130 12:83 13:65 14:1 15:73 16:2 17:133 18:215 19:58 20:41 21:138 22:14 23:260 24:92 25:173 26:562 27:71 28:56 29:50 30:8 31:117 32:12 33:176 34:219 35:81 36:67 37:109 38:24 39:149 40:44 41:199 42:516 43:92 44:97 45:79 46:21 47:116 48:13 49:120 50:471 51:68 52:75 53:87 54:49 55:173 56:10 57:289 58:8 59:117 60:32 61:45 62:116 63:101 64:239 65:153 66:874 67:64 68:61 69:114 70:18 71:193 72:6 73:200 74:14 75:99 76:1 77:59 78:0 79:118 80:27 
1 1:81 2:10 3:52 4:128 5:34 6:109 7:287 8:126 9:337 10:607 11:19 12:11 13:32 14:3 15:159 16:5 17:133 18:443 19:107 20:299 21:132 22:86 23:187 24:65 25:209 26:61 27:71 28:22 29:66 30:7 31:95 32:19 33:84 34:412 35:74 36:246 37:129 38:86 39:200 40:84 41:208 42:76 43:113 44:35 45:101 46:14 47:91 48:47 49:130 50:333 51:107 52:27 53:100 54:18 55:158 56:138 57:182 58:161 59:91 60:28 61:117 62:30 63:115 64:265 65:129 66:189 67:64 68:7 69:109 70:4 71:184 72:24 73:175 74:288 75:121 76:60 77:99 78:100 79:119 80:327 
1 1:127 2:1000 3:94 4:0 5:168 6:0 7:100 8:0 9:155 10:0 11:105 12:0 13:152 14:0 15:100 16:0 17:111 18:665 19:64 20:334 21:88 22:2 23:175 24:0 25:139 26:0 27:132 28:0 29:86 30:0 31:206 32:0 33:112 34:608 35:93 36:387 37:102 38:4 39:171 40:1 41:128 42:0 43:98 44:0 45:141 46:0 47:154 48:0 49:95 50:674 51:184 52:326 53:112 54:0 55:194 56:0 57:143 58:0 59:91 60:0 61:99 62:0 63:82 64:0 65:103 66:662 67:112 68:338 69:136 70:0 71:205 72:0 73:146 74:0 75:99 76:0 77:93 78:0 79:106 80:0 
1 1:50 2:999 3:59 4:1 5:130 6:0 7:268 8:0 9:171 10:0 11:199 12:0 13:79 14:0 15:45 16:0 17:141 18:673 19:81 20:287 21:94 22:4 23:166 24:7 25:176 26:29 27:80 28:0 29:89 30:0 31:173 32:0 33:112 34:527 35:90 36:414 37:208 38:7 39:151 40:16 41:167 42:36 43:79 44:0 45:80 46:0 47:113 48:0 49:110 50:409 51:97 52:590 53:179 54:0 55:146 56:0 57:181 58:0 59:86 60:0 61:75 62:0 63:127 64:0 65:135 66:577 67:101 68:367 69:128 70:21 71:142 72:7 73:162 74:17 75:117 76:0 77:70 78:0 79:146 80:12 
0.2881356519876462 1:36 2:978 3:57 4:21 5:123 6:0 7:126 8:0 9:236 10:0 11:260 12:0 13:121 14:0 15:40 16:1 17:116 18:214 19:79 20:335 21:190 22:111 23:181 24:276 25:157 26:62 27:130 28:0 29:63 30:0 31:85 32:1 33:126 34:226 35:73 36:352 37:110 38:119 39:156 40:224 41:205 42:74 43:116 44:2 45:85 46:0 47:128 48:3 49:97 50:183 51:89 52:382 53:139 54:156 55:149 56:244 57:181 58:34 59:132 60:1 61:109 62:0 63:105 64:0 65:116 66:138 67:92 68:374 69:138 70:210 71:125 72:157 73:188 74:108 75:130 76:1 77:88 78:1 79:124 80:11 
0.03789424111383787 1:51 2:921 3:74 4:12 5:100 6:1 7:148 8:3 9:248 10:5 11:199 12:11 13:149 14:10 15:32 16:37 17:151 18:77 19:68 20:161 21:110 22:107 23:200 24:132 25:154 26:463 27:122 28:1 29:81 30:45 31:114 32:14 33:115 34:170 35:89 36:159 37:144 38:90 39:166 40:244 41:198 42:333 43:140 44:1 45:65 46:0 47:83 48:3 49:132 50:160 51:74 52:315 53:96 54:47 55:144 56:163 57:198 58:284 59:115 60:15 61:94 62:3 63:147 64:12 65:106 66:131 67:111 68:232 69:126 70:235 71:159 72:47 73:158 74:352 75:126 76:1 77:98 78:1 79:115 80:2 
1 1:59 2:939 3:62 4:61 5:83 6:0 7:132 8:0 9:467 10:0 11:82 12:0 13:65 14:0 15:51 16:0 17:127 18:239 19:124 20:22 21:135 22:171 23:129 24:242 25:138 26:293 27:97 28:9 29:99 30:4 31:152 32:20 33:99 34:235 35:77 36:209 37:70 38:197 39:152 40:283 41:159 42:70 43:100 44:0 45:218 46:0 47:126 48:7 49:160 50:167 51:66 52:336 53:73 54:165 55:191 56:283 57:167 58:13 59:152 60:0 61:86 62:6 63:105 64:31 65:113 66:248 67:52 68:338 69:133 70:116 71:237 72:231 73:205 74:63 75:114 76:1 77:62 78:0 79:84 80:3 
1 1:58 2:996 3:52 4:4 5:93 6:0 7:173 8:0 9:417 10:0 11:89 12:0 13:73 14:0 15:46 16:0 17:130 18:209 19:85 20:57 21:66 22:207 23:138 24:94 25:213 26:427 27:153 28:5 29:102 30:0 31:113 32:1 33:103 34:399 35:67 36:215 37:125 38:209 39:148 40:72 41:139 42:77 43:121 44:4 45:189 46:1 47:107 48:22 49:150 50:407 51:72 52:284 53:98 54:124 55:196 56:129 57:182 58:28 59:103 60:27 61:76 62:1 63:122 64:1 65:110 66:431 67:66 68:311 69:114 70:85 71:158 72:112 73:199 74:52 75:125 76:4 77:103 78:0 79:125 80:5 
1 1:40 2:979 3:48 4:0 5:61 6:0 7:295 8:0 9:391 10:0 11:59 12:0 13:61 14:0 15:46 16:21 17:214 18:496 19:41 20:146 21:51 22:5 23:136 24:6 25:166 26:289 27:38 28:48 29:77 30:4 31:276 32:6 33:76 34:185 35:81 36:103 37:153 38:10 39:201 40:12 41:178 42:483 43:131 44:134 45:92 46:47 47:89 48:26 49:95 50:498 51:71 52:177 53:92 54:29 55:171 56:60 57:173 58:177 59:99 60:23 61:170 62:7 63:128 64:29 65:107 66:491 67:69 68:182 69:92 70:56 71:171 72:47 73:188 74:161 75:96 76:7 77:171 78:8 79:107 80:47 
1 1:145 2:176 3:157 4:2 5:261 6:0 7:136 8:0 9:131 10:0 11:65 12:76 13:46 14:259 15:58 16:487 17:139 18:451 19:113 20:186 21:94 22:86 23:135 24:52 25:132 26:38 27:98 28:14 29:118 30:34 31:170 32:139 33:121 34:526 35:126 36:247 37:135 38:58 39:151 40:18 41:121 42:10 43:97 44:17 45:120 46:23 47:128 48:102 49:107 50:516 51:122 52:123 53:163 54:4 55:166 56:3 57:128 58:126 59:102 60:46 61:102 62:19 63:110 64:163 65:120 66:721 67:122 68:126 69:138 70:2 71:170 72:1 73:119 74:35 75:98 76:25 77:122 78:9 79:111 80:81 
1 1:231 2:515 3:116 4:1 5:89 6:0 7:126 8:0 9:151 10:0 11:66 12:0 13:124 14:38 15:99 16:445 17:133 18:201 19:102 20:39 21:101 22:51 23:108 24:28 25:115 26:364 27:111 28:62 29:190 30:18 31:140 32:238 33:213 34:443 35:126 36:90 37:97 38:96 39:109 40:50 41:111 42:37 43:93 44:14 45:108 46:15 47:142 48:256 49:153 50:605 51:138 52:155 53:160 54:90 55:127 56:15 57:91 58:4 59:92 60:2 61:105 62:4 63:134 64:125 65:94 66:527 67:115 68:201 69:185 70:6 71:157 72:1 73:148 74:5 75:111 76:6 77:101 78:17 79:90 80:237 
1 1:51 2:463 3:68 4:392 5:164 6:5 7:257 8:13 9:249 10:112 11:84 12:14 13:70 14:1 15:59 16:1 17:105 18:421 19:74 20:196 21:97 22:2 23:272 24:2 25:191 26:146 27:66 28:184 29:75 30:20 31:120 32:29 33:135 34:451 35:82 36:214 37:104 38:2 39:205 40:2 41:190 42:286 43:86 44:39 45:76 46:2 47:122 48:5 49:113 50:128 51:98 52:46 53:121 54:4 55:185 56:9 57:178 58:709 59:87 60:80 61:94 62:18 63:124 64:7 65:151 66:325 67:93 68:270 69:103 70:5 71:122 72:3 73:141 74:62 75:86 76:25 77:119 78:14 79:185 80:297 
1 1:53 2:187 3:37 4:138 5:79 6:0 7:173 8:2 9:489 10:141 11:88 12:12 13:34 14:20 15:47 16:500 17:121 18:352 19:77 20:92 21:115 22:21 23:163 24:33 25:221 26:209 27:106 28:22 29:90 30:7 31:108 32:266 33:106 34:383 35:91 36:95 37:136 38:33 39:186 40:14 41:143 42:93 43:128 44:43 45:102 46:11 47:109 48:328 49:153 50:323 51:107 52:206 53:97 54:41 55:118 56:2 57:153 58:13 59:115 60:5 61:101 62:3 63:156 64:407 65:120 66:382 67:66 68:242 69:108 70:2 71:184 72:1 73:200 74:135 75:113 76:16 77:108 78:13 79:101 80:210 
1 1:44 2:521 3:53 4:6 5:94 6:0 7:335 8:1 9:226 10:2 11:80 12:63 13:97 14:66 15:72 16:341 17:90 18:457 19:157 20:68 21:152 22:75 23:119 24:104 25:151 26:220 27:167 28:10 29:102 30:5 31:62 32:62 33:126 34:623 35:112 36:63 37:91 38:6 39:173 40:9 41:152 42:96 43:104 44:23 45:109 46:20 47:134 48:161 49:111 50:457 51:100 52:84 53:111 54:11 55:194 56:3 57:152 58:55 59:116 60:32 61:101 62:55 63:115 64:302 65:161 66:463 67:116 68:138 69:107 70:17 71:119 72:1 73:115 74:15 75:113 76:42 77:124 78:44 79:146 80:280 
1 1:8 2:87 3:14 4:878 5:66 6:15 7:693 8:6 9:183 10:14 11:19 12:0 13:10 14:0 15:7 16:0 17:113 18:242 19:72 20:427 21:90 22:55 23:232 24:25 25:210 26:221 27:82 28:2 29:82 30:0 31:119 32:28 33:98 34:42 35:72 36:429 37:113 38:130 39:230 40:71 41:196 42:323 43:103 44:4 45:87 46:1 47:102 48:1 49:94 50:32 51:85 52:378 53:109 54:63 55:254 56:51 57:212 58:471 59:85 60:2 61:71 62:1 63:90 64:3 65:120 66:215 67:109 68:181 69:149 70:14 71:176 72:14 73:154 74:517 75:86 76:46 77:93 78:7 79:113 80:6 
1 1:42 2:0 3:27 4:0 5:48 6:0 7:361 8:1 9:427 10:937 11:43 12:62 13:30 14:0 15:22 16:0 17:149 18:150 19:80 20:22 21:140 22:8 23:174 24:18 25:156 26:515 27:114 28:254 29:64 30:13 31:124 32:20 33:188 34:415 35:97 36:39 37:99 38:1 39:121 40:9 41:127 42:304 43:116 44:71 45:94 46:8 47:158 48:154 49:98 50:152 51:64 52:240 53:71 54:176 55:168 56:14 57:293 58:366 59:168 60:42 61:70 62:5 63:68 64:6 65:154 66:303 67:52 68:144 69:62 70:7 71:207 72:4 73:270 74:418 75:103 76:67 77:73 78:20 79:79 80:37 
1 1:41 2:1 3:29 4:1 5:48 6:1 7:385 8:2 9:365 10:976 11:56 12:19 13:43 14:0 15:33 16:0 17:180 18:192 19:104 20:43 21:133 22:7 23:126 24:26 25:110 26:592 27:97 28:114 29:77 30:2 31:173 32:24 33:108 34:190 35:66 36:182 37:79 38:167 39:163 40:5 41:282 42:358 43:155 44:22 45:78 46:2 47:70 48:74 49:136 50:308 51:53 52:164 53:71 54:90 55:210 56:3 57:253 58:381 59:96 60:27 61:76 62:9 63:105 64:17 65:127 66:123 67:59 68:9 69:77 70:9 71:158 72:14 73:294 74:709 75:121 76:91 77:58 78:18 79:107 80:27 
1 1:221 2:1 3:35 4:3 5:29 6:0 7:221 8:2 9:157 10:988 11:60 12:6 13:40 14:0 15:239 16:0 17:171 18:2 19:91 20:42 21:121 22:11 23:153 24:7 25:102 26:914 27:72 28:24 29:91 30:0 31:201 32:0 33:203 34:61 35:84 36:27 37:78 38:34 39:128 40:27 41:131 42:702 43:76 44:32 45:81 46:3 47:221 48:115 49:102 50:79 51:71 52:39 53:84 54:72 55:203 56:199 57:223 58:515 59:115 60:67 61:99 62:8 63:103 64:20 65:133 66:155 67:62 68:2 69:97 70:1 71:151 72:168 73:243 74:260 75:138 76:372 77:73 78:8 79:103 80:34 
1 1:65 2:21 3:85 4:46 5:163 6:52 7:373 8:41 9:146 10:835 11:57 12:4 13:64 14:0 15:47 16:1 17:157 18:91 19:65 20:111 21:111 22:5 23:150 24:4 25:90 26:425 27:50 28:363 29:100 30:0 31:277 32:1 33:150 34:83 35:53 36:37 37:83 38:29 39:158 40:32 41:126 42:570 43:94 44:237 45:117 46:2 47:220 48:10 49:177 50:178 51:78 52:16 53:116 54:5 55:150 56:15 57:129 58:681 59:75 60:97 61:96 62:3 63:179 64:5 65:152 66:362 67:54 68:27 69:107 70:1 71:189 72:12 73:108 74:351 75:76 76:67 77:67 78:5 79:248 80:175 
1 1:136 2:866 3:83 4:15 5:94 6:22 7:132 8:44 9:219 10:31 11:80 12:16 13:77 14:2 15:179 16:4 17:228 18:481 19:86 20:33 21:89 22:8 23:67 24:4 25:55 26:415 27:53 28:31 29:181 30:9 31:241 32:19 33:126 34:686 35:124 36:155 37:139 38:58 39:216 40:5 41:151 42:50 43:75 44:21 45:64 46:11 47:106 48:15 49:85 50:556 51:98 52:43 53:168 54:11 55:283 56:3 57:141 58:225 59:74 60:77 61:63 62:16 63:88 64:69 65:127 66:368 67:54 68:21 69:104 70:5 71:208 72:8 73:156 74:404 75:58 76:87 77:51 78:28 79:242 80:80 
1 1:81 2:411 3:145 4:0 5:283 6:0 7:199 8:0 9:115 10:257 11:60 12:223 13:51 14:52 15:66 16:58 17:277 18:475 19:86 20:80 21:61 22:100 23:103 24:23 25:109 26:217 27:65 28:49 29:83 30:19 31:215 32:38 33:124 34:121 35:78 36:376 37:135 38:340 39:218 40:12 41:172 42:64 43:92 44:60 45:70 46:14 47:111 48:14 49:118 50:159 51:73 52:116 53:131 54:102 55:187 56:11 57:172 58:358 59:112 60:187 61:99 62:29 63:108 64:40 65:165 66:162 67:68 68:125 69:89 70:56 71:244 72:18 73:178 74:443 75:62 76:96 77:64 78:48 79:130 80:54 
1 1:470 2:808 3:40 4:15 5:75 6:6 7:67 8:0 9:80 10:15 11:45 12:55 13:42 14:11 15:182 16:90 17:89 18:77 19:81 20:136 21:106 22:698 23:130 24:37 25:189 26:14 27:189 28:20 29:132 30:13 31:85 32:4 33:146 34:469 35:83 36:121 37:248 38:176 39:151 40:21 41:84 42:70 43:66 44:37 45:79 46:57 47:144 48:49 49:87 50:115 51:91 52:48 53:286 54:137 55:250 56:270 57:107 58:227 59:59 60:71 61:53 62:29 63:67 64:103 65:186 66:28 67:93 68:85 69:103 70:507 71:113 72:3 73:128 74:68 75:117 76:72 77:104 78:115 79:156 80:123 
1 1:64 2:635 3:115 4:98 5:114 6:20 7:98 8:3 9:113 10:52 11:87 12:160 13:247 14:11 15:163 16:21 17:107 18:800 19:111 20:119 21:222 22:5 23:169 24:0 25:149 26:5 27:104 28:21 29:88 30:3 31:50 32:48 33:127 34:533 35:112 36:300 37:155 38:122 39:163 40:1 41:135 42:7 43:114 44:2 45:95 46:5 47:99 48:30 49:210 50:271 51:101 52:60 53:84 54:19 55:98 56:7 57:121 58:373 59:104 60:163 61:125 62:9 63:158 64:98 65:204 66:493 67:62 68:2 69:52 70:0 71:192 72:0 73:226 74:3 75:88 76:10 77:50 78:6 79:128 80:487 
1 1:220 2:832 3:19 4:9 5:40 6:0 7:23 8:0 9:39 10:35 11:52 12:92 13:278 14:20 15:329 16:12 17:84 18:863 19:64 20:83 21:145 22:38 23:178 24:2 25:119 26:6 27:126 28:5 29:159 30:2 31:126 32:2 33:93 34:522 35:89 36:140 37:104 38:298 39:113 40:2 41:181 42:16 43:141 44:6 45:149 46:8 47:130 48:9 49:67 50:852 51:63 52:17 53:129 54:3 55:167 56:1 57:188 58:76 59:193 60:32 61:117 62:10 63:77 64:10 65:74 66:798 67:56 68:0 69:160 70:0 71:158 72:0 73:209 74:106 75:204 76:56 77:80 78:8 79:60 80:32 
1 1:129 2:979 3:46 4:20 5:64 6:1 7:54 8:0 9:106 10:0 11:80 12:0 13:132 14:0 15:390 16:1 17:83 18:471 19:74 20:165 21:120 22:333 23:131 24:6 25:138 26:5 27:138 28:4 29:124 30:8 31:193 32:9 33:105 34:841 35:42 36:23 37:82 38:43 39:126 40:6 41:238 42:52 43:175 44:30 45:76 46:1 47:157 48:4 49:36 50:120 51:33 52:7 53:67 54:1 55:132 56:3 57:417 58:517 59:200 60:289 61:66 62:35 63:48 64:30 65:154 66:89 67:100 68:29 69:69 70:274 71:121 72:26 73:264 74:343 75:137 76:204 77:70 78:15 79:85 80:21 
1 1:260 2:341 3:97 4:204 5:82 6:37 7:78 8:0 9:62 10:0 11:66 12:0 13:100 14:1 15:256 16:416 17:100 18:229 19:105 20:449 21:131 22:152 23:171 24:8 25:143 26:118 27:132 28:0 29:111 30:0 31:108 32:45 33:114 34:601 35:110 36:85 37:121 38:1 39:166 40:3 41:164 42:211 43:122 44:15 45:97 46:4 47:106 48:81 49:138 50:554 51:122 52:8 53:123 54:3 55:132 56:3 57:178 58:66 59:99 60:11 61:99 62:5 63:109 64:350 65:163 66:203 67:134 68:13 69:88 70:1 71:136 72:1 73:177 74:92 75:95 76:23 77:95 78:5 79:113 80:662 
1 1:220 2:738 3:50 4:115 5:76 6:0 7:70 8:0 9:136 10:70 11:84 12:47 13:163 14:7 15:201 16:23 17:86 18:240 19:64 20:158 21:230 22:20 23:310 24:161 25:94 26:313 27:47 28:81 29:46 30:17 31:123 32:11 33:96 34:225 35:86 36:97 37:237 38:380 39:258 40:96 41:113 42:174 43:60 44:17 45:57 46:1 47:93 48:10 49:191 50:131 51:110 52:7 53:85 54:57 55:82 56:4 57:79 58:699 59:86 60:53 61:125 62:20 63:242 64:30 65:157 66:257 67:140 68:1 69:106 70:0 71:109 72:1 73:95 74:556 75:95 76:46 77:127 78:29 79:171 80:110 
1 1:13 2:764 3:38 4:184 5:122 6:10 7:186 8:13 9:298 10:10 11:264 12:3 13:56 14:4 15:24 16:13 17:139 18:234 19:125 20:36 21:129 22:3 23:113 24:3 25:121 26:619 27:95 28:88 29:119 30:6 31:160 32:13 33:144 34:396 35:95 36:184 37:108 38:80 39:108 40:0 41:132 42:233 43:155 44:29 45:120 46:4 47:137 48:76 49:189 50:519 51:52 52:15 53:67 54:0 55:134 56:0 57:196 58:2 59:157 60:8 61:83 62:4 63:123 64:453 65:182 66:415 67:67 68:29 69:68 70:50 71:160 72:1 73:186 74:67 75:150 76:29 77:67 78:11 79:120 80:399 
1 1:81 2:843 3:23 4:38 5:58 6:2 7:192 8:7 9:407 10:92 11:149 12:15 13:38 14:1 15:53 16:3 17:176 18:193 19:20 20:14 21:27 22:2 23:44 24:9 25:70 26:628 27:33 28:126 29:63 30:18 31:569 32:10 33:172 34:544 35:94 36:12 37:124 38:0 39:130 40:2 41:95 42:259 43:87 44:87 45:121 46:19 47:177 48:78 49:123 50:247 51:90 52:21 53:118 54:9 55:123 56:1 57:143 58:225 59:130 60:45 61:158 62:26 63:115 64:427 65:189 66:126 67:53 68:3 69:58 70:0 71:142 72:0 73:243 74:0 75:132 76:2 77:70 78:7 79:113 80:862 
1 1:127 2:948 3:134 4:1 5:100 6:0 7:290 8:0 9:107 10:1 11:65 12:9 13:71 14:16 15:106 16:25 17:132 18:688 19:112 20:108 21:126 22:34 23:188 24:21 25:119 26:70 27:89 28:25 29:93 30:8 31:141 32:47 33:88 34:311 35:71 36:12 37:155 38:3 39:353 40:11 41:164 42:247 43:51 44:323 45:48 46:36 47:71 48:56 49:209 50:250 51:114 52:6 53:101 54:7 55:112 56:1 57:109 58:524 59:93 60:86 61:90 62:50 63:172 64:76 65:227 66:192 67:84 68:2 69:81 70:0 71:90 72:2 73:90 74:266 75:72 76:306 77:109 78:133 79:248 80:99 
1 1:29 2:784 3:76 4:21 5:119 6:3 7:94 8:18 9:186 10:88 11:230 12:1 13:132 14:0 15:134 16:85 17:138 18:491 19:37 20:55 21:59 22:1 23:64 24:5 25:128 26:324 27:89 28:51 29:114 30:44 31:369 32:30 33:151 34:341 35:88 36:10 37:147 38:0 39:127 40:0 41:104 42:310 43:78 44:197 45:141 46:31 47:164 48:110 49:122 50:373 51:109 52:5 53:138 54:3 55:129 56:5 57:157 58:293 59:109 60:55 61:113 62:20 63:123 64:247 65:158 66:230 67:46 68:1 69:62 70:0 71:172 72:0 73:187 74:78 75:132 76:7 77:81 78:8 79:164 80:675 
1 1:31 2:956 3:26 4:43 5:156 6:1 7:257 8:0 9:252 10:0 11:151 12:0 13:101 14:0 15:27 16:0 17:122 18:98 19:93 20:34 21:118 22:241 23:208 24:71 25:146 26:501 27:99 28:28 29:93 30:12 31:122 32:16 33:107 34:285 35:48 36:9 37:69 38:0 39:243 40:1 41:185 42:428 43:119 44:191 45:94 46:42 47:137 48:45 49:89 50:151 51:87 52:3 53:98 54:0 55:265 56:0 57:213 58:222 59:86 60:467 61:80 62:72 63:82 64:85 65:120 66:129 67:78 68:37 69:99 70:321 71:128 72:12 73:171 74:243 75:143 76:166 77:132 78:23 79:130 80:70 
0.8735098765074075 1:43 2:482 3:33 4:5 5:178 6:0 7:243 8:0 9:209 10:14 11:159 12:283 13:98 14:130 15:38 16:85 17:174 18:146 19:125 20:8 21:90 22:43 23:98 24:53 25:146 26:700 27:118 28:16 29:107 30:9 31:143 32:25 33:151 34:337 35:101 36:10 37:119 38:1 39:122 40:8 41:259 42:291 43:89 44:269 45:72 46:24 47:89 48:60 49:118 50:123 51:87 52:2 53:94 54:0 55:158 56:2 57:238 58:196 59:107 60:615 61:96 62:39 63:102 64:23 65:64 66:226 67:59 68:24 69:94 70:302 71:129 72:284 73:170 74:59 75:202 76:55 77:167 78:12 79:114 80:38 
0.3171437289648166 1:67 2:549 3:47 4:9 5:52 6:0 7:126 8:2 9:471 10:345 11:85 12:36 13:81 14:29 15:73 16:30 17:163 18:165 19:75 20:2 21:79 22:0 23:94 24:0 25:121 26:30 27:130 28:23 29:178 30:15 31:159 32:765 33:97 34:398 35:93 36:1 37:114 38:0 39:125 40:6 41:224 42:329 43:192 44:55 45:91 46:10 47:64 48:201 49:160 50:853 51:70 52:2 53:74 54:2 55:154 56:3 57:161 58:50 59:127 60:21 61:85 62:9 63:168 64:60 65:117 66:956 67:23 68:0 69:51 70:0 71:213 72:0 73:223 74:1 75:55 76:0 77:54 78:3 79:264 80:39 
1 1:98 2:290 3:167 4:514 5:81 6:0 7:132 8:1 9:96 10:138 11:128 12:39 13:177 14:9 15:121 16:10 17:91 18:120 19:63 20:67 21:84 22:33 23:130 24:26 25:167 26:393 27:264 28:107 29:102 30:15 31:98 32:238 33:93 34:111 35:71 36:164 37:102 38:2 39:160 40:8 41:168 42:475 43:204 44:100 45:105 46:51 47:97 48:90 49:116 50:272 51:104 52:143 53:109 54:1 55:170 56:4 57:131 58:512 59:105 60:35 61:115 62:7 63:151 64:25 65:198 66:570 67:88 68:257 69:80 70:1 71:118 72:1 73:90 74:152 75:86 76:7 77:113 78:1 79:228 80:12 
1 1:105 2:921 3:41 4:12 5:105 6:0 7:394 8:0 9:204 10:0 11:55 12:0 13:43 14:1 15:54 16:66 17:109 18:716 19:74 20:62 21:130 22:6 23:189 24:6 25:176 26:107 27:111 28:74 29:86 30:9 31:126 32:21 33:110 34:700 35:97 36:105 37:135 38:9 39:177 40:14 41:179 42:74 43:96 44:14 45:100 46:11 47:105 48:73 49:93 50:414 51:102 52:61 53:104 54:18 55:218 56:36 57:208 58:248 59:96 60:61 61:91 62:17 63:88 64:146 65:207 66:706 67:112 68:10 69:87 70:1 71:116 72:1 73:121 74:26 75:66 76:14 77:114 78:12 79:176 80:229 
1 1:144 2:677 3:226 4:85 5:100 6:5 7:188 8:2 9:148 10:75 11:39 12:137 13:46 14:10 15:110 16:8 17:304 18:543 19:79 20:168 21:69 22:18 23:65 24:11 25:76 26:245 27:69 28:4 29:96 30:0 31:241 32:12 33:190 34:882 35:74 36:48 37:93 38:2 39:178 40:2 41:103 42:1 43:71 44:1 45:90 46:0 47:201 48:64 49:76 50:599 51:310 52:44 53:125 54:5 55:152 56:3 57:112 58:171 59:95 60:92 61:64 62:20 63:67 64:66 65:120 66:562 67:198 68:28 69:159 70:13 71:127 72:1 73:137 74:33 75:97 76:213 77:58 78:98 79:103 80:52 
1 1:263 2:896 3:84 4:20 5:57 6:0 7:29 8:0 9:53 10:0 11:39 12:53 13:178 14:9 15:297 16:22 17:107 18:989 19:40 20:11 21:98 22:0 23:212 24:0 25:160 26:0 27:87 28:0 29:112 30:0 31:184 32:0 33:87 34:934 35:80 36:17 37:125 38:1 39:158 40:1 41:161 42:1 43:147 44:0 45:130 46:0 47:113 48:48 49:61 50:763 51:81 52:31 53:205 54:0 55:260 56:1 57:176 58:16 59:100 60:6 61:69 62:8 63:50 64:176 65:120 66:748 67:80 68:1 69:170 70:0 71:219 72:0 73:156 74:7 75:88 76:10 77:63 78:14 79:104 80:219 
1 1:55 2:854 3:59 4:6 5:123 6:0 7:307 8:0 9:280 10:0 11:70 12:0 13:57 14:2 15:49 16:138 17:81 18:961 19:93 20:27 21:211 22:0 23:169 24:0 25:136 26:0 27:106 28:0 29:104 30:0 31:101 32:12 33:188 34:796 35:119 36:6 37:161 38:0 39:130 40:0 41:142 42:1 43:59 44:1 45:58 46:4 47:144 48:192 49:147 50:679 51:91 52:2 53:105 54:0 55:176 56:2 57:151 58:4 59:85 60:15 61:78 62:29 63:167 64:269 65:279 66:938 67:62 68:3 69:69 70:0 71:101 72:1 73:105 74:0 75:61 76:1 77:81 78:4 79:243 80:53 
1 1:113 2:627 3:43 4:1 5:103 6:0 7:311 8:0 9:138 10:1 11:45 12:25 13:47 14:140 15:201 16:207 17:105 18:956 19:80 20:24 21:146 22:2 23:208 24:3 25:99 26:2 27:66 28:0 29:76 30:0 31:220 32:14 33:86 34:984 35:95 36:6 37:193 38:0 39:173 40:0 41:140 42:2 43:96 44:1 45:101 46:0 47:116 48:7 49:173 50:807 51:117 52:3 53:162 54:0 55:152 56:0 57:128 58:1 59:63 60:1 61:56 62:6 63:149 64:183 65:202 66:819 67:88 68:1 69:104 70:0 71:139 72:1 73:126 74:2 75:78 76:4 77:91 78:10 79:173 80:162 
0.6764591578586811 1:304 2:801 3:48 4:2 5:58 6:0 7:76 8:0 9:87 10:0 11:94 12:6 13:94 14:40 15:239 16:151 17:184 18:952 19:83 20:3 21:89 22:0 23:135 24:0 25:122 26:0 27:58 28:0 29:61 30:3 31:266 32:42 33:167 34:495 35:153 36:123 37:109 38:99 39:141 40:160 41:155 42:116 43:42 44:3 45:53 46:1 47:181 48:3 49:121 50:95 51:93 52:419 53:101 54:386 55:183 56:95 57:234 58:3 59:88 60:1 61:64 62:0 63:116 64:2 65:105 66:909 67:63 68:77 69:90 70:1 71:253 72:0 73:229 74:0 75:83 76:0 77:79 78:0 79:96 80:12 
1 1:154 2:0 3:95 4:0 5:103 6:0 7:182 8:0 9:157 10:579 11:73 12:186 13:83 14:120 15:154 16:115 17:132 18:18 19:102 20:0 21:190 22:0 23:197 24:4 25:124 26:555 27:53 28:152 29:58 30:88 31:144 32:183 33:180 34:187 35:108 36:29 37:113 38:0 39:157 40:0 41:151 42:309 43:70 44:224 45:73 46:71 47:148 48:180 49:140 50:306 51:138 52:9 53:141 54:1 55:124 56:2 57:104 58:273 59:89 60:179 61:101 62:101 63:162 64:130 65:124 66:870 67:181 68:18 69:131 70:1 71:89 72:0 73:68 74:26 75:92 76:13 77:154 78:8 79:162 80:66 
1 1:78 2:301 3:57 4:124 5:82 6:12 7:236 8:6 9:216 10:507 11:143 12:3 13:85 14:1 15:103 16:47 17:163 18:322 19:97 20:39 21:112 22:20 23:152 24:14 25:121 26:446 27:57 28:53 29:68 30:27 31:230 32:79 33:138 34:142 35:92 36:46 37:97 38:103 39:160 40:46 41:161 42:549 43:103 44:66 45:107 46:23 47:143 48:25 49:140 50:264 51:84 52:16 53:95 54:5 55:126 56:11 57:113 58:479 59:85 60:112 61:148 62:25 63:208 64:88 65:171 66:285 67:92 68:13 69:80 70:4 71:124 72:4 73:127 74:470 75:102 76:177 77:121 78:30 79:184 80:17 
1 1:105 2:258 3:32 4:63 5:68 6:1 7:255 8:5 9:253 10:92 11:97 12:521 13:37 14:43 15:154 16:17 17:205 18:443 19:86 20:77 21:90 22:3 23:131 24:1 25:82 26:41 27:51 28:363 29:74 30:39 31:283 32:33 33:186 34:563 35:139 36:5 37:101 38:0 39:94 40:2 41:92 42:149 43:77 44:230 45:115 46:32 47:197 48:20 49:148 50:347 51:97 52:26 53:98 54:6 55:176 56:8 57:174 58:368 59:102 60:205 61:83 62:25 63:123 64:15 65:168 66:188 67:109 68:79 69:110 70:2 71:152 72:3 73:151 74:365 75:93 76:103 77:84 78:6 79:134 80:254 
1 1:52 2:116 3:85 4:9 5:117 6:6 7:239 8:48 9:315 10:611 11:99 12:139 13:57 14:29 15:36 16:42 17:155 18:419 19:81 20:493 21:111 22:70 23:113 24:5 25:163 26:4 27:104 28:1 29:88 30:0 31:185 32:9 33:87 34:295 35:92 36:433 37:119 38:66 39:232 40:12 41:204 42:34 43:117 44:10 45:65 46:14 47:84 48:137 49:87 50:221 51:90 52:129 53:117 54:77 55:205 56:33 57:214 58:128 59:120 60:191 61:86 62:51 63:81 64:170 65:74 66:139 67:80 68:31 69:129 70:12 71:273 72:26 73:246 74:394 75:90 76:206 77:62 78:93 79:47 80:99 
1 1:66 2:835 3:51 4:79 5:113 6:11 7:317 8:10 9:284 10:61 11:62 12:3 13:40 14:0 15:68 16:1 17:183 18:983 19:68 20:10 21:101 22:2 23:112 24:1 25:131 26:3 27:103 28:0 29:125 30:0 31:178 32:2 33:209 34:724 35:107 36:19 37:78 38:10 39:138 40:53 41:127 42:163 43:87 44:8 45:79 46:3 47:176 48:21 49:120 50:504 51:86 52:28 53:122 54:8 55:150 56:17 57:161 58:318 59:109 60:79 61:121 62:7 63:132 64:40 65:100 66:248 67:87 68:18 69:141 70:2 71:165 72:3 73:161 74:371 75:160 76:102 77:101 78:116 79:84 80:141 
1 1:52 2:308 3:36 4:74 5:39 6:5 7:239 8:30 9:280 10:299 11:177 12:35 13:106 14:14 15:70 16:235 17:198 18:203 19:103 20:63 21:163 22:32 23:104 24:96 25:84 26:448 27:73 28:39 29:79 30:13 31:196 32:107 33:179 34:588 35:131 36:34 37:97 38:17 39:111 40:33 41:99 42:257 43:108 44:35 45:114 46:4 47:161 48:32 49:142 50:335 51:106 52:66 53:113 54:40 55:141 56:166 57:149 58:288 59:97 60:41 61:102 62:12 63:150 64:52 65:218 66:348 67:162 68:89 69:92 70:24 71:106 72:45 73:98 74:294 75:75 76:44 77:105 78:22 79:144 80:135 
1 1:154 2:676 3:76 4:156 5:79 6:16 7:223 8:24 9:240 10:52 11:52 12:1 13:63 14:2 15:113 16:72 17:245 18:489 19:166 20:310 21:153 22:141 23:73 24:30 25:61 26:21 27:69 28:1 29:71 30:2 31:163 32:6 33:261 34:240 35:259 36:247 37:84 38:111 39:77 40:170 41:86 42:168 43:54 44:34 45:68 46:7 47:112 48:23 49:153 50:447 51:89 52:80 53:75 54:17 55:124 56:63 57:151 58:277 59:124 60:27 61:118 62:18 63:166 64:71 65:109 66:741 67:168 68:29 69:131 70:5 71:132 72:10 73:144 74:37 75:131 76:14 77:105 78:20 79:79 80:145 
1 1:51 2:942 3:97 4:21 5:244 6:1 7:203 8:9 9:241 10:24 11:47 12:0 13:69 14:0 15:47 16:2 17:103 18:62 19:101 20:45 21:104 22:36 23:174 24:57 25:201 26:588 27:119 28:113 29:84 30:12 31:115 32:86 33:146 34:339 35:115 36:48 37:112 38:16 39:153 40:17 41:179 42:449 43:101 44:82 45:74 46:7 47:120 48:43 49:125 50:590 51:104 52:25 53:127 54:5 55:150 56:4 57:130 58:145 59:118 60:24 61:118 62:7 63:127 64:201 65:103 66:402 67:105 68:19 69:115 70:3 71:147 72:1 73:166 74:138 75:171 76:18 77:101 78:9 79:91 80:409 
1 1:46 2:75 3:44 4:105 5:67 6:25 7:328 8:16 9:327 10:173 11:81 12:588 13:45 14:4 15:63 16:14 17:133 18:168 19:81 20:179 21:99 22:84 23:184 24:125 25:158 26:271 27:99 28:74 29:95 30:4 31:151 32:96 33:106 34:584 35:113 36:152 37:124 38:23 39:167 40:13 41:181 42:147 43:119 44:24 45:99 46:12 47:92 48:44 49:121 50:275 51:100 52:87 53:121 54:28 55:173 56:7 57:174 58:446 59:109 60:124 61:98 62:9 63:102 64:24 65:176 66:32 67:104 68:51 69:79 70:19 71:119 72:18 73:121 74:742 75:100 76:75 77:116 78:6 79:187 80:58 
0.4085176882913004 1:30 2:0 3:20 4:381 5:72 6:469 7:264 8:103 9:224 10:48 11:89 12:0 13:190 14:0 15:112 16:0 17:199 18:159 19:102 20:423 21:72 22:109 23:132 24:111 25:132 26:195 27:60 28:3 29:97 30:0 31:206 32:0 33:219 34:51 35:88 36:661 37:73 38:79 39:122 40:71 41:130 42:137 43:74 44:1 45:93 46:0 47:202 48:0 49:174 50:61 51:75 52:612 53:73 54:51 55:160 56:55 57:195 58:207 59:82 60:13 61:97 62:1 63:145 64:1 65:277 66:184 67:100 68:217 69:85 70:108 71:110 72:138 73:104 74:345 75:66 76:4 77:78 78:0 79:181 80:5 
0.7259268260760742 1:58 2:859 3:34 4:44 5:125 6:0 7:457 8:1 9:209 10:38 11:51 12:24 13:41 14:5 15:25 16:29 17:144 18:782 19:53 20:33 21:122 22:0 23:204 24:3 25:186 26:112 27:89 28:5 29:63 30:2 31:138 32:63 33:130 34:386 35:53 36:11 37:91 38:0 39:187 40:0 41:235 42:495 43:114 44:62 45:64 46:10 47:126 48:35 49:100 50:577 51:40 52:32 53:93 54:8 55:270 56:10 57:275 58:85 59:95 60:76 61:51 62:68 63:74 64:144 65:69 66:697 67:55 68:45 69:83 70:21 71:247 72:117 73:343 74:1 75:85 76:2 77:49 78:7 79:69 80:111 
1 1:85 2:4 3:72 4:40 5:61 6:144 7:170 8:252 9:216 10:559 11:101 12:1 13:179 14:0 15:118 16:0 17:148 18:278 19:94 20:221 21:133 22:136 23:149 24:267 25:163 26:97 27:98 28:0 29:83 30:0 31:132 32:0 33:134 34:276 35:80 36:26 37:114 38:67 39:141 40:99 41:167 42:426 43:102 44:32 45:114 46:31 47:147 48:43 49:135 50:69 51:64 52:43 53:82 54:57 55:183 56:73 57:211 58:436 59:97 60:150 61:96 62:145 63:133 64:27 65:178 66:590 67:106 68:200 69:98 70:61 71:127 72:38 73:130 74:66 75:85 76:13 77:102 78:8 79:174 80:24 
1 1:121 2:547 3:192 4:95 5:170 6:27 7:98 8:16 9:72 10:291 11:91 12:10 13:181 14:0 15:76 16:14 17:117 18:805 19:121 20:76 21:191 22:11 23:150 24:18 25:134 26:73 27:102 28:5 29:76 30:2 31:109 32:10 33:122 34:779 35:111 36:77 37:107 38:10 39:166 40:8 41:200 42:63 43:82 44:24 45:111 46:9 47:101 48:29 49:143 50:356 51:139 52:64 53:85 54:6 55:87 56:7 57:150 58:462 59:76 60:59 61:148 62:23 63:172 64:23 65:142 66:102 67:135 68:28 69:177 70:36 71:72 72:39 73:67 74:774 75:133 76:15 77:152 78:3 79:122 80:4 
1 1:69 2:475 3:55 4:502 5:65 6:5 7:51 8:4 9:70 10:9 11:60 12:4 13:287 14:0 15:344 16:0 17:55 18:166 19:45 20:304 21:58 22:39 23:100 24:72 25:112 26:367 27:126 28:52 29:357 30:0 31:148 32:2 33:136 34:230 35:41 36:140 37:41 38:16 39:59 40:24 41:84 42:506 43:96 44:60 45:367 46:9 47:177 48:15 49:147 50:323 51:149 52:97 53:120 54:133 55:117 56:12 57:172 58:338 59:98 60:57 61:83 62:13 63:114 64:28 65:145 66:148 67:379 68:76 69:165 70:39 71:70 72:55 73:75 74:482 75:40 76:163 77:42 78:14 79:84 80:23 
1 1:129 2:186 3:53 4:127 5:66 6:9 7:29 8:10 9:31 10:565 11:33 12:88 13:255 14:3 15:404 16:11 17:83 18:135 19:257 20:231 21:194 22:110 23:146 24:160 25:107 26:311 27:80 28:28 29:70 30:10 31:62 32:14 33:83 34:96 35:173 36:191 37:109 38:36 39:73 40:56 41:95 42:547 43:69 44:56 45:198 46:8 47:202 48:11 49:157 50:417 51:72 52:93 53:83 54:44 55:163 56:7 57:167 58:322 59:73 60:70 61:82 62:25 63:203 64:22 65:106 66:329 67:118 68:80 69:259 70:29 71:122 72:25 73:130 74:416 75:113 76:80 77:75 78:14 79:79 80:28 
1 1:155 2:323 3:89 4:250 5:74 6:9 7:32 8:9 9:39 10:363 11:63 12:27 13:261 14:10 15:287 16:9 17:56 18:106 19:85 20:262 21:324 22:158 23:188 24:136 25:131 26:320 27:76 28:11 29:73 30:2 31:67 32:6 33:92 34:166 35:228 36:175 37:207 38:30 39:157 40:30 41:107 42:513 43:79 44:67 45:63 46:9 47:67 48:10 49:120 50:63 51:177 52:133 53:113 54:21 55:117 56:9 57:113 58:635 59:73 60:124 61:149 62:7 63:138 64:8 65:163 66:424 67:83 68:147 69:77 70:40 71:154 72:2 73:188 74:289 75:71 76:62 77:74 78:20 79:190 80:16 
1 1:92 2:458 3:63 4:223 5:102 6:14 7:159 8:14 9:248 10:272 11:144 12:15 13:105 14:2 15:87 16:2 17:85 18:178 19:66 20:353 21:150 22:7 23:260 24:9 25:202 26:353 27:87 28:93 29:65 30:2 31:86 32:6 33:71 34:154 35:95 36:216 37:191 38:3 39:192 40:3 41:198 42:426 43:104 44:175 45:73 46:18 47:78 48:6 49:119 50:336 51:110 52:104 53:137 54:1 55:158 56:3 57:206 58:541 59:106 60:12 61:63 62:1 63:102 64:2 65:123 66:428 67:121 68:45 69:134 70:1 71:163 72:2 73:208 74:481 75:105 76:37 77:72 78:4 79:75 80:3 
1 1:195 2:805 3:45 4:31 5:33 6:138 7:183 8:24 9:190 10:2 11:39 12:0 13:69 14:0 15:246 16:0 17:218 18:742 19:79 20:72 21:95 22:23 23:90 24:30 25:105 26:54 27:145 28:1 29:76 30:1 31:192 32:77 33:139 34:774 35:85 36:23 37:102 38:16 39:114 40:16 41:133 42:94 43:109 44:24 45:134 46:15 47:184 48:38 49:97 50:268 51:57 52:39 53:92 54:70 55:214 56:30 57:249 58:325 59:106 60:165 61:96 62:36 63:89 64:67 65:129 66:402 67:74 68:80 69:105 70:122 71:202 72:39 73:188 74:332 75:97 76:18 77:90 78:4 79:115 80:3 
1 1:47 2:728 3:53 4:111 5:60 6:0 7:87 8:0 9:184 10:30 11:307 12:91 13:208 14:25 15:54 16:15 17:249 18:443 19:66 20:335 21:65 22:11 23:68 24:5 25:113 26:7 27:117 28:15 29:93 30:16 31:228 32:169 33:165 34:410 35:100 36:167 37:158 38:10 39:84 40:5 41:107 42:44 43:156 44:61 45:107 46:53 47:125 48:250 49:165 50:318 51:114 52:131 53:108 54:15 55:105 56:16 57:115 58:264 59:130 60:116 61:139 62:53 63:124 64:88 65:119 66:403 67:115 68:467 69:137 70:36 71:139 72:10 73:177 74:35 75:101 76:4 77:98 78:3 79:115 80:43 
1 1:77 2:88 3:58 4:122 5:71 6:26 7:160 8:41 9:136 10:484 11:215 12:68 13:129 14:23 15:154 16:149 17:196 18:76 19:70 20:252 21:91 22:167 23:151 24:121 25:187 26:196 27:99 28:12 29:62 30:1 31:145 32:175 33:192 34:70 35:81 36:205 37:130 38:67 39:112 40:96 41:124 42:322 43:147 44:65 45:78 46:12 47:136 48:163 49:130 50:80 51:82 52:134 53:109 54:61 55:122 56:183 57:129 58:442 59:174 60:45 61:138 62:6 63:116 64:49 65:80 66:95 67:138 68:403 69:186 70:156 71:166 72:233 73:109 74:75 75:101 76:3 77:127 78:3 79:94 80:32 
1 1:90 2:117 3:100 4:219 5:140 6:212 7:123 8:394 9:141 10:58 11:87 12:1 13:206 14:0 15:113 16:0 17:119 18:120 19:77 20:18 21:96 22:9 23:106 24:47 25:113 26:610 27:108 28:16 29:233 30:5 31:149 32:176 33:106 34:94 35:85 36:11 37:112 38:1 39:177 40:26 41:197 42:465 43:119 44:72 45:108 46:14 47:95 48:317 49:102 50:179 51:80 52:24 53:173 54:5 55:153 56:55 57:135 58:409 59:157 60:86 61:103 62:27 63:97 64:216 65:115 66:779 67:77 68:57 69:193 70:7 71:147 72:12 73:128 74:33 75:150 76:18 77:86 78:17 79:104 80:79 
1 1:129 2:105 3:111 4:3 5:109 6:0 7:336 8:2 9:130 10:5 11:33 12:1 13:50 14:1 15:102 16:883 17:89 18:366 19:71 20:35 21:152 22:12 23:212 24:22 25:166 26:175 27:133 28:9 29:70 30:6 31:107 32:374 33:91 34:280 35:67 36:26 37:124 38:3 39:170 40:9 41:205 42:371 43:169 44:34 45:72 46:16 47:102 48:262 49:124 50:37 51:98 52:47 53:116 54:5 55:176 56:39 57:167 58:750 59:99 60:71 61:102 62:16 63:119 64:35 65:125 66:481 67:144 68:140 69:124 70:12 71:73 72:52 73:71 74:253 75:82 76:7 77:218 78:3 79:163 80:54 
1 1:194 2:878 3:189 4:27 5:198 6:16 7:128 8:1 9:94 10:10 11:51 12:56 13:48 14:6 15:99 16:5 17:162 18:487 19:80 20:184 21:77 22:45 23:173 24:52 25:198 26:167 27:87 28:24 29:91 30:9 31:133 32:31 33:155 34:163 35:68 36:25 37:85 38:31 39:135 40:85 41:149 42:479 43:98 44:111 45:116 46:34 47:195 48:74 49:184 50:437 51:128 52:77 53:149 54:85 55:89 56:155 57:78 58:201 59:91 60:34 61:114 62:1 63:169 64:10 65:175 66:815 67:96 68:121 69:86 70:24 71:93 72:3 73:108 74:8 75:109 76:4 77:137 78:3 79:196 80:22 
0.3446195737452145 1:93 2:698 3:113 4:4 5:319 6:4 7:197 8:55 9:112 10:206 11:49 12:20 13:44 14:5 15:74 16:9 17:104 18:399 19:91 20:134 21:165 22:30 23:167 24:49 25:147 26:305 27:101 28:39 29:106 30:11 31:119 32:33 33:157 34:547 35:108 36:60 37:198 38:7 39:107 40:18 41:103 42:209 43:134 44:31 45:76 46:11 47:118 48:117 49:188 50:455 51:105 52:15 53:117 54:10 55:90 56:100 57:94 58:304 59:150 60:39 61:82 62:21 63:175 64:56 65:211 66:819 67:102 68:38 69:106 70:10 71:111 72:20 73:86 74:68 75:78 76:6 77:92 78:2 79:215 80:38 
1 1:131 2:78 3:51 4:108 5:88 6:54 7:112 8:82 9:155 10:611 11:90 12:51 13:192 14:5 15:182 16:11 17:165 18:442 19:104 20:209 21:81 22:13 23:124 24:15 25:130 26:237 27:97 28:47 29:119 30:24 31:180 32:14 33:159 34:356 35:90 36:71 37:92 38:1 39:131 40:4 41:155 42:462 43:91 44:73 45:121 46:13 47:161 48:21 49:108 50:178 51:103 52:37 53:125 54:25 55:158 56:15 57:189 58:479 59:99 60:132 61:105 62:38 63:114 64:96 65:87 66:131 67:66 68:61 69:96 70:19 71:190 72:125 73:185 74:407 75:102 76:187 77:136 78:31 79:139 80:41 
1 1:38 2:1 3:26 4:4 5:54 6:7 7:243 8:13 9:160 10:974 11:381 12:2 13:64 14:0 15:34 16:0 17:203 18:171 19:78 20:208 21:104 22:79 23:90 24:76 25:97 26:427 27:85 28:29 29:81 30:3 31:263 32:8 33:169 34:325 35:122 36:84 37:95 38:2 39:135 40:12 41:144 42:511 43:106 44:40 45:97 46:5 47:133 48:21 49:158 50:305 51:104 52:94 53:108 54:10 55:149 56:21 57:137 58:502 59:100 60:56 61:109 62:3 63:134 64:9 65:186 66:159 67:136 68:28 69:91 70:4 71:107 72:16 73:105 74:644 75:83 76:126 77:120 78:11 79:171 80:13 
1 1:90 2:700 3:80 4:300 5:173 6:0 7:186 8:0 9:214 10:0 11:93 12:0 13:54 14:0 15:111 16:0 17:131 18:529 19:108 20:451 21:112 22:4 23:144 24:8 25:141 26:2 27:107 28:0 29:93 30:0 31:164 32:7 33:119 34:420 35:81 36:343 37:104 38:7 39:137 40:7 41:150 42:205 43:112 44:5 45:110 46:1 47:188 48:13 49:105 50:501 51:114 52:285 53:144 54:6 55:161 56:23 57:133 58:181 59:108 60:3 61:99 62:0 63:136 64:1 65:147 66:556 67:120 68:215 69:142 70:6 71:146 72:37 73:133 74:175 75:109 76:11 77:90 78:0 79:114 80:1 
1 1:30 2:0 3:74 4:0 5:180 6:0 7:118 8:16 9:473 10:984 11:64 12:0 13:46 14:0 15:16 16:0 17:173 18:68 19:123 20:85 21:89 22:19 23:108 24:97 25:127 26:679 27:94 28:44 29:110 30:3 31:177 32:5 33:146 34:200 35:89 36:178 37:93 38:16 39:140 40:45 41:179 42:420 43:91 44:137 45:103 46:1 47:161 48:4 49:138 50:268 51:104 52:216 53:116 54:48 55:146 56:67 57:154 58:356 59:107 60:42 61:104 62:1 63:131 64:1 65:240 66:132 67:109 68:137 69:93 70:113 71:108 72:75 73:102 74:470 75:79 76:43 77:83 78:6 79:186 80:24 
1 1:61 2:68 3:100 4:45 5:158 6:15 7:246 8:39 9:316 10:516 11:45 12:304 13:36 14:10 15:38 16:4 17:134 18:635 19:107 20:120 21:114 22:14 23:149 24:11 25:154 26:157 27:102 28:26 29:111 30:9 31:130 32:29 33:135 34:644 35:110 36:46 37:106 38:10 39:140 40:20 41:136 42:191 43:112 44:64 45:116 46:7 47:145 48:18 49:187 50:298 51:106 52:126 53:118 54:13 55:98 56:12 57:98 58:410 59:93 60:65 61:118 62:16 63:183 64:61 65:130 66:508 67:96 68:89 69:106 70:8 71:139 72:12 73:152 74:315 75:136 76:40 77:121 78:8 79:120 80:21 
1 1:155 2:226 3:121 4:46 5:105 6:37 7:104 8:66 9:130 10:570 11:114 12:19 13:120 14:12 15:150 16:25 17:132 18:537 19:136 20:111 21:125 22:20 23:130 24:51 25:129 26:185 27:95 28:16 29:110 30:15 31:143 32:66 33:147 34:478 35:119 36:41 37:128 38:14 39:138 40:17 41:127 42:207 43:110 44:46 45:105 46:23 47:127 48:175 49:159 50:703 51:101 52:45 53:103 54:10 55:115 56:35 57:126 58:55 59:110 60:15 61:127 62:9 63:159 64:128 65:170 66:605 67:95 68:104 69:103 70:26 71:102 72:56 73:124 74:54 75:122 76:11 77:119 78:12 79:166 80:133 
1 1:112 2:390 3:56 4:159 5:89 6:52 7:192 8:29 9:202 10:370 11:122 12:0 13:106 14:0 15:122 16:0 17:213 18:1 19:74 20:1 21:60 22:3 23:54 24:52 25:62 26:940 27:68 28:2 29:124 30:0 31:345 32:0 33:109 34:204 35:83 36:58 37:114 38:94 39:184 40:55 41:173 42:572 43:98 44:9 45:111 46:2 47:129 48:6 49:112 50:723 51:84 52:35 53:115 54:62 55:202 56:25 57:165 58:71 59:92 60:22 61:94 62:8 63:135 64:55 65:120 66:822 67:68 68:16 69:86 70:37 71:205 72:36 73:201 74:40 75:112 76:1 77:88 78:1 79:122 80:49 
1 1:179 2:129 3:79 4:469 5:96 6:73 7:116 8:99 9:67 10:209 11:60 12:20 13:92 14:0 15:311 16:1 17:196 18:62 19:88 20:195 21:106 22:226 23:172 24:152 25:54 26:358 27:33 28:7 29:80 30:0 31:272 32:1 33:69 34:27 35:41 36:191 37:91 38:300 39:402 40:63 41:187 42:411 43:59 44:8 45:32 46:0 47:120 48:0 49:71 50:42 51:51 52:440 53:144 54:431 55:374 56:48 57:182 58:33 59:70 60:2 61:58 62:2 63:51 64:2 65:70 66:390 67:65 68:115 69:124 70:27 71:265 72:23 73:201 74:230 75:156 76:38 77:65 78:37 79:54 80:141 
0.9422589211979168 1:109 2:987 3:91 4:11 5:133 6:0 7:175 8:0 9:189 10:0 11:82 12:0 13:125 14:0 15:96 16:2 17:76 18:901 19:167 20:94 21:226 22:0 23:192 24:0 25:134 26:4 27:62 28:0 29:69 30:0 31:75 32:0 33:152 34:858 35:354 36:136 37:107 38:0 39:58 40:0 41:46 42:0 43:30 44:0 45:63 46:0 47:191 48:6 49:154 50:667 51:56 52:34 53:86 54:0 55:205 56:0 57:213 58:0 59:103 60:19 61:61 62:13 63:122 64:268 65:117 66:431 67:69 68:0 69:100 70:0 71:239 72:0 73:179 74:1 75:117 76:0 77:86 78:7 79:94 80:561 
1 1:134 2:997 3:54 4:3 5:103 6:0 7:321 8:0 9:124 10:0 11:63 12:0 13:74 14:0 15:129 16:0 17:79 18:920 19:54 20:0 21:109 22:0 23:139 24:0 25:277 26:0 27:65 28:4 29:127 30:21 31:150 32:55 33:102 34:749 35:55 36:7 37:121 38:0 39:165 40:0 41:314 42:0 43:60 44:1 45:62 46:16 47:122 48:228 49:139 50:646 51:54 52:5 53:126 54:0 55:159 56:0 57:326 58:0 59:66 60:0 61:46 62:0 63:83 64:349 65:231 66:777 67:75 68:0 69:67 70:0 71:155 72:0 73:202 74:0 75:53 76:0 77:55 78:0 79:162 80:222 
1 1:89 2:417 3:106 4:526 5:149 6:55 7:150 8:1 9:152 10:0 11:100 12:0 13:177 14:0 15:77 16:1 17:99 18:637 19:74 20:59 21:104 22:72 23:120 24:21 25:167 26:76 27:219 28:31 29:115 30:10 31:102 32:95 33:96 34:656 35:86 36:214 37:112 38:25 39:163 40:3 41:150 42:17 43:167 44:10 45:116 46:6 47:110 48:69 49:105 50:628 51:102 52:155 53:106 54:13 55:196 56:4 57:166 58:49 59:95 60:17 61:117 62:9 63:113 64:125 65:136 66:598 67:172 68:133 69:165 70:17 71:106 72:4 73:118 74:134 75:98 76:21 77:95 78:12 79:111 80:82 
1 1:179 2:225 3:191 4:307 5:111 6:15 7:29 8:7 9:24 10:260 11:95 12:181 13:223 14:4 15:149 16:2 17:85 18:260 19:69 20:119 21:93 22:67 23:153 24:92 25:169 26:233 27:181 28:209 29:115 30:9 31:136 32:12 33:237 34:336 35:112 36:70 37:53 38:30 39:81 40:39 41:71 42:157 43:74 44:125 45:159 46:14 47:213 48:229 49:174 50:257 51:169 52:16 53:97 54:2 55:99 56:2 57:58 58:95 59:109 60:91 61:137 62:10 63:158 64:527 65:107 66:455 67:90 68:70 69:177 70:37 71:141 72:86 73:118 74:65 75:87 76:35 77:152 78:13 79:129 80:239 
1 1:119 2:457 3:149 4:78 5:124 6:10 7:72 8:7 9:97 10:140 11:164 12:132 13:155 14:92 15:121 16:84 17:101 18:648 19:87 20:157 21:160 22:26 23:180 24:33 25:182 26:83 27:114 28:24 29:73 30:2 31:103 32:26 33:130 34:142 35:107 36:2 37:117 38:1 39:104 40:4 41:127 42:265 43:138 44:36 45:117 46:4 47:159 48:545 49:138 50:294 51:106 52:8 53:117 54:5 55:99 56:13 57:101 58:142 59:106 60:73 61:172 62:24 63:161 64:440 65:167 66:445 67:97 68:38 69:128 70:95 71:147 72:84 73:145 74:292 75:89 76:15 77:90 78:7 79:137 80:25 
0.3254774563257474 1:137 2:55 3:72 4:64 5:264 6:215 7:161 8:470 9:91 10:79 11:42 12:112 13:53 14:4 15:180 16:2 17:149 18:711 19:71 20:1 21:83 22:0 23:112 24:0 25:125 26:11 27:74 28:39 29:124 30:44 31:262 32:193 33:168 34:431 35:106 36:74 37:79 38:7 39:92 40:0 41:120 42:0 43:113 44:9 45:134 46:62 47:189 48:417 49:104 50:275 51:72 52:363 53:95 54:24 55:161 56:2 57:160 58:11 59:114 60:94 61:135 62:45 63:160 64:186 65:100 66:418 67:78 68:522 69:97 70:12 71:204 72:23 73:192 74:0 75:134 76:0 77:98 78:0 79:98 80:26 
1 1:109 2:197 3:107 4:18 5:142 6:72 7:196 8:522 9:151 10:191 11:111 12:0 13:103 14:0 15:82 16:0 17:109 18:307 19:97 20:428 21:142 22:130 23:211 24:8 25:162 26:77 27:97 28:28 29:81 30:2 31:103 32:20 33:150 34:473 35:133 36:53 37:140 38:35 39:135 40:1 41:117 42:96 43:88 44:55 45:94 46:3 47:145 48:284 49:165 50:387 51:85 52:37 53:100 54:24 55:112 56:4 57:127 58:164 59:129 60:101 61:137 62:18 63:145 64:265 65:180 66:781 67:105 68:9 69:100 70:5 71:104 72:2 73:108 74:13 75:116 76:14 77:142 78:2 79:145 80:174 
1 1:101 2:74 3:104 4:3 5:124 6:6 7:206 8:213 9:157 10:705 11:105 12:0 13:89 14:0 15:114 16:0 17:105 18:120 19:90 20:148 21:135 22:237 23:201 24:160 25:198 26:272 27:103 28:6 29:87 30:2 31:81 32:56 33:124 34:227 35:104 36:11 37:126 38:36 39:160 40:33 41:158 42:68 43:114 44:10 45:113 46:4 47:101 48:611 49:135 50:90 51:100 52:17 53:88 54:8 55:118 56:5 57:114 58:284 59:131 60:90 61:135 62:11 63:181 64:495 65:219 66:637 67:96 68:2 69:66 70:1 71:81 72:4 73:86 74:73 75:83 76:24 77:145 78:15 79:224 80:245 
1 1:230 2:77 3:278 4:508 5:182 6:52 7:41 8:35 9:24 10:265 11:23 12:60 13:60 14:3 15:161 16:0 17:193 18:312 19:96 20:252 21:83 22:95 23:104 24:40 25:97 26:269 27:88 28:7 29:120 30:2 31:220 32:23 33:130 34:233 35:155 36:101 37:113 38:21 39:171 40:13 41:172 42:617 43:95 44:16 45:76 46:0 47:88 48:0 49:129 50:275 51:108 52:152 53:143 54:9 55:156 56:10 57:159 58:544 59:109 60:3 61:95 62:1 63:101 64:6 65:145 66:370 67:99 68:285 69:147 70:17 71:137 72:13 73:105 74:280 75:116 76:15 77:109 78:6 79:142 80:15 
1 1:100 2:930 3:96 4:2 5:106 6:0 7:177 8:0 9:262 10:1 11:87 12:24 13:81 14:19 15:92 16:26 17:137 18:413 19:109 20:12 21:107 22:0 23:145 24:0 25:164 26:58 27:113 28:12 29:106 30:32 31:121 32:474 33:106 34:352 35:94 36:0 37:153 38:0 39:184 40:0 41:146 42:0 43:118 44:0 45:105 46:4 47:94 48:644 49:148 50:471 51:106 52:0 53:93 54:0 55:110 56:0 57:103 58:2 59:90 60:2 61:129 62:42 63:222 64:483 65:149 66:743 67:103 68:2 69:112 70:0 71:155 72:1 73:153 74:11 75:114 76:7 77:85 78:7 79:129 80:229 
1 1:23 2:160 3:18 4:0 5:74 6:3 7:401 8:28 9:362 10:506 11:71 12:208 13:34 14:51 15:16 16:46 17:88 18:406 19:72 20:363 21:118 22:19 23:162 24:56 25:236 26:148 27:142 28:3 29:109 30:0 31:73 32:5 33:137 34:216 35:104 36:13 37:84 38:1 39:149 40:2 41:185 42:82 43:120 44:18 45:116 46:6 47:105 48:662 49:130 50:345 51:101 52:2 53:90 54:1 55:147 56:1 57:154 58:45 59:120 60:30 61:123 62:23 63:135 64:553 65:128 66:441 67:108 68:27 69:103 70:1 71:154 72:3 73:176 74:106 75:114 76:42 77:113 78:29 79:104 80:350 
1 1:100 2:692 3:179 4:88 5:169 6:1 7:120 8:5 9:141 10:76 11:97 12:77 13:96 14:26 15:98 16:34 17:80 18:505 19:72 20:47 21:116 22:12 23:187 24:9 25:272 26:372 27:105 28:36 29:94 30:8 31:75 32:11 33:130 34:423 35:93 36:19 37:99 38:2 39:162 40:1 41:198 42:71 43:123 44:39 45:92 46:6 47:102 48:439 49:112 50:367 51:137 52:7 53:145 54:2 55:145 56:1 57:152 58:75 59:116 60:30 61:100 62:3 63:94 64:516 65:125 66:234 67:99 68:11 69:116 70:1 71:130 72:1 73:87 74:99 75:140 76:18 77:137 78:3 79:166 80:633 
1 1:205 2:865 3:125 4:69 5:126 6:30 7:108 8:15 9:133 10:21 11:81 12:0 13:96 14:0 15:127 16:1 17:88 18:249 19:71 20:113 21:84 22:43 23:185 24:112 25:259 26:431 27:139 28:12 29:87 30:13 31:88 32:27 33:259 34:250 35:121 36:16 37:80 38:14 39:86 40:7 41:95 42:40 43:66 44:7 45:81 46:4 47:212 48:663 49:151 50:364 51:126 52:25 53:106 54:5 55:136 56:1 57:138 58:6 59:102 60:0 61:101 62:1 63:141 64:599 65:149 66:360 67:73 68:1 69:80 70:5 71:120 72:16 73:106 74:65 75:118 76:77 77:158 78:12 79:197 80:464 
1 1:108 2:623 3:122 4:50 5:122 6:28 7:109 8:25 9:137 10:25 11:148 12:2 13:151 14:6 15:103 16:241 17:117 18:730 19:120 20:132 21:110 22:32 23:132 24:7 25:184 26:36 27:125 28:19 29:107 30:4 31:107 32:40 33:117 34:866 35:77 36:76 37:114 38:1 39:175 40:2 41:170 42:2 43:130 44:1 45:95 46:0 47:122 48:52 49:99 50:872 51:116 52:19 53:116 54:4 55:179 56:14 57:160 58:18 59:140 60:0 61:98 62:0 63:93 64:72 65:102 66:806 67:110 68:46 69:107 70:11 71:205 72:12 73:173 74:48 75:114 76:17 77:108 78:5 79:83 80:54 
0.1585076705650127 1:152 2:391 3:108 4:17 5:115 6:3 7:130 8:1 9:130 10:123 11:105 12:98 13:125 14:62 15:136 16:305 17:124 18:968 19:93 20:31 21:91 22:1 23:138 24:0 25:147 26:0 27:117 28:0 29:159 30:0 31:131 32:0 33:136 34:951 35:80 36:31 37:88 38:0 39:194 40:0 41:199 42:1 43:89 44:1 45:90 46:4 47:124 48:11 49:109 50:838 51:72 52:24 53:91 54:1 55:206 56:3 57:211 58:6 59:102 60:5 61:94 62:10 63:115 64:113 65:99 66:915 67:69 68:25 69:92 70:1 71:219 72:1 73:221 74:19 75:90 76:10 77:91 78:6 79:119 80:23 
1 1:77 2:105 3:90 4:250 5:77 6:171 7:250 8:83 9:230 10:353 11:87 12:31 13:109 14:1 15:80 16:7 17:164 18:576 19:96 20:317 21:113 22:75 23:143 24:20 25:148 26:12 27:103 28:0 29:93 30:0 31:140 32:0 33:129 34:223 35:99 36:160 37:108 38:88 39:160 40:133 41:176 42:309 43:87 44:57 45:90 46:12 47:151 48:19 49:163 50:25 51:77 52:112 53:94 54:31 55:158 56:113 57:174 58:579 59:97 60:121 61:86 62:13 63:151 64:7 65:177 66:548 67:90 68:329 69:136 70:47 71:130 72:31 73:123 74:26 75:94 76:2 77:79 78:4 79:172 80:12 
0.04318364887841916 1:42 2:372 3:21 4:41 5:24 6:183 7:17 8:104 9:39 10:31 11:205 12:8 13:500 14:111 15:152 16:150 17:132 18:796 19:88 20:47 21:89 22:31 23:111 24:9 25:124 26:53 27:277 28:20 29:88 30:23 31:92 32:21 33:116 34:828 35:80 36:5 37:80 38:0 39:74 40:2 41:89 42:18 43:222 44:6 45:199 46:39 47:140 48:102 49:149 50:622 51:103 52:6 53:111 54:0 55:78 56:3 57:101 58:14 59:171 60:120 61:126 62:107 63:162 64:128 65:191 66:855 67:112 68:31 69:138 70:2 71:88 72:5 73:86 74:9 75:101 76:14 77:123 78:7 79:163 80:78 
1 1:131 2:459 3:165 4:180 5:223 6:1 7:122 8:3 9:131 10:301 11:59 12:57 13:106 14:0 15:64 16:1 17:106 18:601 19:67 20:57 21:74 22:10 23:151 24:5 25:263 26:138 27:155 28:121 29:72 30:27 31:112 32:42 33:116 34:259 35:107 36:27 37:100 38:7 39:153 40:4 41:197 42:62 43:143 44:22 45:93 46:21 47:92 48:598 49:102 50:225 51:107 52:14 53:134 54:4 55:156 56:4 57:175 58:185 59:126 60:135 61:98 62:53 63:102 64:381 65:108 66:480 67:135 68:39 69:241 70:5 71:139 72:1 73:106 74:348 75:92 76:55 77:83 78:19 79:96 80:54 
1 1:179 2:72 3:172 4:77 5:54 6:6 7:101 8:2 9:255 10:254 11:37 12:467 13:72 14:82 15:130 16:39 17:100 18:536 19:76 20:93 21:86 22:6 23:199 24:3 25:188 26:237 27:121 28:69 29:119 30:6 31:111 32:50 33:75 34:456 35:65 36:38 37:79 38:11 39:256 40:3 41:289 42:418 43:88 44:38 45:73 46:2 47:77 48:34 49:91 50:685 51:104 52:23 53:100 54:2 55:200 56:1 57:233 58:197 59:96 60:54 61:92 62:8 63:85 64:31 65:95 66:606 67:123 68:102 69:131 70:32 71:191 72:9 73:206 74:79 75:69 76:94 77:75 78:18 79:111 80:60 
1 1:18 2:708 3:48 4:292 5:89 6:0 7:368 8:0 9:345 10:0 11:92 12:0 13:32 14:0 15:8 16:0 17:217 18:599 19:93 20:139 21:82 22:24 23:72 24:12 25:109 26:200 27:191 28:18 29:111 30:1 31:124 32:6 33:74 34:415 35:85 36:61 37:80 38:25 39:143 40:104 41:210 42:351 43:252 44:22 45:94 46:5 47:63 48:18 49:87 50:655 51:70 52:62 53:77 54:29 55:280 56:37 57:191 58:57 59:96 60:12 61:108 62:17 63:90 64:133 65:148 66:556 67:87 68:284 69:109 70:35 71:172 72:19 73:171 74:9 75:97 76:8 77:94 78:7 79:122 80:82 
1 1:187 2:178 3:95 4:0 5:42 6:0 7:34 8:0 9:50 10:488 11:157 12:183 13:246 14:82 15:188 16:68 17:102 18:662 19:66 20:58 21:91 22:78 23:151 24:11 25:260 26:121 27:127 28:31 29:105 30:9 31:97 32:31 33:108 34:341 35:71 36:42 37:99 38:102 39:185 40:111 41:182 42:350 43:111 44:33 45:116 46:9 47:128 48:14 49:113 50:253 51:71 52:27 53:111 54:72 55:169 56:14 57:156 58:530 59:84 60:59 61:146 62:4 63:151 64:40 65:101 66:304 67:220 68:53 69:127 70:71 71:180 72:1 73:131 74:359 75:61 76:184 77:91 78:12 79:89 80:17 
1 1:214 2:874 3:91 4:111 5:71 6:2 7:64 8:0 9:91 10:0 11:101 12:1 13:177 14:7 15:192 16:6 17:380 18:721 19:51 20:171 21:47 22:2 23:53 24:1 25:51 26:7 27:79 28:20 29:86 30:50 31:252 32:29 33:184 34:823 35:78 36:37 37:82 38:2 39:187 40:1 41:150 42:5 43:59 44:37 45:91 46:31 47:170 48:64 49:173 50:725 51:52 52:74 53:93 54:21 55:174 56:3 57:210 58:23 59:85 60:58 61:59 62:53 63:154 64:44 65:197 66:708 67:37 68:248 69:81 70:10 71:99 72:3 73:172 74:6 75:93 76:10 77:42 78:4 79:279 80:10 
1 1:56 2:921 3:126 4:36 5:210 6:5 7:237 8:2 9:118 10:37 11:118 12:0 13:63 14:1 15:73 16:0 17:189 18:464 19:102 20:10 21:98 22:2 23:172 24:9 25:145 26:484 27:79 28:26 29:75 30:2 31:141 32:5 33:119 34:682 35:84 36:11 37:123 38:1 39:231 40:6 41:164 42:272 43:78 44:16 45:77 46:2 47:124 48:9 49:129 50:206 51:77 52:2 53:131 54:0 55:189 56:7 57:164 58:729 59:77 60:28 61:86 62:5 63:147 64:22 65:126 66:553 67:88 68:85 69:114 70:17 71:172 72:11 73:165 74:297 75:97 76:10 77:105 78:8 79:133 80:18 
1 1:171 2:315 3:100 4:72 5:151 6:35 7:120 8:77 9:153 10:471 11:84 12:4 13:88 14:4 15:133 16:22 17:154 18:40 19:84 20:8 21:98 22:2 23:160 24:33 25:192 26:895 27:86 28:8 29:81 30:4 31:145 32:10 33:195 34:54 35:105 36:7 37:83 38:3 39:127 40:15 41:130 42:833 43:84 44:50 45:88 46:18 47:189 48:21 49:184 50:404 51:107 52:34 53:83 54:16 55:111 56:33 57:112 58:449 59:106 60:27 61:121 62:5 63:177 64:33 65:251 66:817 67:74 68:79 69:102 70:28 71:86 72:26 73:88 74:49 75:102 76:0 77:71 78:1 79:228 80:1 
1 1:82 2:418 3:68 4:34 5:204 6:11 7:186 8:96 9:153 10:440 11:131 12:1 13:86 14:0 15:91 16:0 17:146 18:811 19:98 20:49 21:113 22:12 23:156 24:21 25:153 26:80 27:97 28:10 29:100 30:2 31:137 32:15 33:160 34:531 35:115 36:14 37:106 38:2 39:159 40:9 41:118 42:361 43:98 44:33 45:104 46:9 47:140 48:41 49:141 50:675 51:99 52:12 53:95 54:5 55:153 56:9 57:167 58:276 59:119 60:10 61:97 62:2 63:131 64:11 65:131 66:750 67:98 68:69 69:106 70:5 71:179 72:16 73:125 74:144 75:101 76:4 77:123 78:1 79:138 80:12 
1 1:118 2:612 3:81 4:4 5:135 6:0 7:181 8:0 9:192 10:0 11:94 12:305 13:81 14:53 15:118 16:25 17:97 18:317 19:84 20:162 21:131 22:0 23:228 24:0 25:183 26:0 27:81 28:0 29:85 30:0 31:111 32:522 33:122 34:360 35:72 36:171 37:102 38:0 39:249 40:0 41:201 42:0 43:84 44:34 45:74 46:4 47:97 48:432 49:97 50:267 51:82 52:510 53:114 54:0 55:217 56:0 57:220 58:0 59:92 60:0 61:72 62:4 63:106 64:218 65:105 66:489 67:106 68:476 69:167 70:0 71:154 72:0 73:201 74:0 75:95 76:0 77:78 78:15 79:93 80:21 
0.3763377944043524 1:107 2:930 3:130 4:58 5:143 6:0 7:266 8:0 9:216 10:0 11:79 12:1 13:27 14:6 15:32 16:6 17:224 18:997 19:134 20:2 21:77 22:0 23:102 24:0 25:114 26:0 27:72 28:0 29:95 30:0 31:184 32:1 33:224 34:927 35:95 36:67 37:68 38:2 39:149 40:0 41:138 42:1 43:75 44:1 45:55 46:0 47:198 48:1 49:102 50:926 51:42 52:74 53:102 54:0 55:245 56:0 57:270 58:0 59:107 60:0 61:48 62:0 63:84 64:0 65:296 66:986 67:61 68:15 69:155 70:0 71:93 72:0 73:68 74:0 75:41 76:0 77:72 78:0 79:215 80:0 
0.1684846903249275 1:85 2:583 3:237 4:33 5:149 6:3 7:106 8:6 9:155 10:319 11:102 12:19 13:109 14:17 15:57 16:20 17:135 18:144 19:77 20:13 21:120 22:9 23:135 24:14 25:143 26:482 27:162 28:100 29:90 30:49 31:139 32:189 33:191 34:121 35:108 36:36 37:91 38:12 39:95 40:12 41:100 42:769 43:120 44:35 45:116 46:6 47:180 48:11 49:164 50:177 51:168 52:155 53:132 54:7 55:97 56:9 57:81 58:610 59:82 60:30 61:111 62:7 63:166 64:5 65:159 66:747 67:127 68:149 69:150 70:12 71:112 72:13 73:100 74:77 75:97 76:2 77:119 78:0 79:137 80:0 
1 1:34 2:20 3:144 4:94 5:258 6:90 7:196 8:170 9:146 10:621 11:78 12:6 13:86 14:0 15:59 16:0 17:113 18:264 19:104 20:206 21:145 22:36 23:143 24:23 25:116 26:362 27:93 28:77 29:143 30:13 31:143 32:20 33:146 34:181 35:89 36:205 37:112 38:33 39:147 40:87 41:143 42:470 43:118 44:9 45:103 46:3 47:141 48:12 49:148 50:100 51:103 52:164 53:111 54:27 55:147 56:86 57:136 58:597 59:106 60:12 61:106 62:5 63:144 64:9 65:119 66:71 67:91 68:163 69:114 70:12 71:185 72:15 73:161 74:627 75:110 76:101 77:95 78:3 79:124 80:8 
1 1:54 2:463 3:76 4:117 5:218 6:0 7:227 8:2 9:202 10:343 11:101 12:75 13:70 14:0 15:52 16:0 17:153 18:606 19:99 20:114 21:102 22:6 23:151 24:11 25:135 26:137 27:92 28:57 29:116 30:14 31:151 32:56 33:150 34:270 35:93 36:238 37:110 38:54 39:151 40:53 41:162 42:326 43:91 44:27 45:109 46:8 47:135 48:25 49:147 50:83 51:92 52:157 53:112 54:22 55:144 56:36 57:134 58:600 59:114 60:89 61:109 62:1 63:148 64:13 65:148 66:171 67:88 68:96 69:99 70:6 71:168 72:6 73:159 74:464 75:103 76:203 77:77 78:7 79:159 80:47 
1 1:122 2:804 3:102 4:100 5:170 6:35 7:207 8:17 9:161 10:43 11:93 12:1 13:76 14:0 15:69 16:0 17:161 18:478 19:81 20:18 21:80 22:89 23:99 24:37 25:138 26:315 27:123 28:58 29:119 30:1 31:198 32:5 33:122 34:282 35:121 36:96 37:128 38:123 39:140 40:93 41:126 42:353 43:106 44:28 45:120 46:8 47:139 48:18 49:143 50:315 51:110 52:429 53:142 54:41 55:142 56:32 57:139 58:133 59:94 60:11 61:118 62:15 63:112 64:25 65:189 66:720 67:116 68:107 69:99 70:0 71:116 72:0 73:81 74:45 75:94 76:74 77:107 78:24 79:199 80:30 
1 1:52 2:714 3:71 4:180 5:121 6:47 7:283 8:35 9:259 10:23 11:95 12:1 13:62 14:0 15:57 16:0 17:193 18:177 19:102 20:177 21:87 22:366 23:76 24:120 25:98 26:133 27:113 28:18 29:129 30:2 31:203 32:8 33:126 34:458 35:102 36:124 37:99 38:45 39:160 40:35 41:145 42:191 43:114 44:50 45:123 46:30 47:133 48:68 49:165 50:205 51:101 52:71 53:74 54:21 55:111 56:21 57:110 58:491 59:82 60:114 61:114 62:13 63:242 64:65 65:170 66:147 67:116 68:80 69:115 70:12 71:115 72:77 73:81 74:594 75:82 76:77 77:125 78:4 79:195 80:9 
1 1:87 2:549 3:81 4:203 5:107 6:11 7:206 8:11 9:176 10:222 11:115 12:4 13:136 14:0 15:93 16:0 17:195 18:775 19:92 20:80 21:88 22:2 23:76 24:2 25:72 26:45 27:68 28:88 29:107 30:3 31:302 32:5 33:175 34:312 35:112 36:401 37:92 38:18 39:93 40:11 41:83 42:230 43:83 44:22 45:128 46:3 47:235 48:4 49:165 50:89 51:101 52:275 53:91 54:44 55:134 56:70 57:123 58:477 59:107 60:22 61:127 62:10 63:152 64:14 65:144 66:17 67:96 68:73 69:102 70:11 71:129 72:7 73:141 74:839 75:130 76:35 77:122 78:5 79:137 80:14 
1 1:232 2:392 3:93 4:49 5:86 6:23 7:98 8:43 9:106 10:379 11:87 12:96 13:103 14:8 15:196 16:11 17:177 18:242 19:99 20:48 21:113 22:27 23:100 24:99 25:70 26:328 27:78 28:35 29:107 30:14 31:256 32:208 33:178 34:111 35:105 36:263 37:90 38:16 39:98 40:18 41:89 42:422 43:76 44:97 45:119 46:13 47:244 48:59 49:219 50:108 51:119 52:126 53:101 54:56 55:82 56:115 57:68 58:436 59:71 60:62 61:105 62:22 63:235 64:75 65:252 66:309 67:113 68:69 69:72 70:55 71:61 72:46 73:100 74:484 75:76 76:33 77:102 78:3 79:225 80:2 
0.353466990945197 1:307 2:622 3:91 4:377 5:57 6:1 7:47 8:0 9:68 10:0 11:67 12:0 13:115 14:0 15:247 16:0 17:158 18:598 19:80 20:301 21:62 22:32 23:94 24:10 25:99 26:7 27:109 28:9 29:167 30:34 31:231 32:8 33:127 34:158 35:122 36:687 37:97 38:66 39:106 40:37 41:113 42:30 43:84 44:16 45:115 46:6 47:237 48:1 49:269 50:158 51:100 52:779 53:81 54:27 55:85 56:21 57:69 58:13 59:81 60:2 61:107 62:0 63:207 64:0 65:193 66:135 67:79 68:774 69:129 70:18 71:81 72:18 73:94 74:50 75:87 76:4 77:105 78:0 79:232 80:1 
0.6784108629388974 1:77 2:861 3:116 4:1 5:174 6:0 7:183 8:0 9:139 10:0 11:126 12:0 13:118 14:12 15:67 16:126 17:124 18:925 19:138 20:48 21:181 22:6 23:180 24:1 25:105 26:11 27:84 28:1 29:92 30:2 31:97 32:6 33:147 34:806 35:106 36:99 37:104 38:10 39:223 40:7 41:121 42:38 43:67 44:15 45:91 46:6 47:142 48:19 49:84 50:630 51:54 52:231 53:114 54:17 55:273 56:29 57:243 58:85 59:104 60:2 61:55 62:2 63:74 64:6 65:48 66:728 67:67 68:122 69:142 70:12 71:325 72:8 73:209 74:108 75:102 76:1 77:65 78:2 79:43 80:20 
1 1:101 2:438 3:101 4:8 5:85 6:1 7:195 8:12 9:189 10:474 11:36 12:26 13:126 14:6 15:168 16:35 17:168 18:622 19:103 20:4 21:89 22:0 23:95 24:3 25:101 26:183 27:117 28:45 29:130 30:22 31:197 32:122 33:163 34:656 35:86 36:54 37:84 38:15 39:134 40:14 41:160 42:242 43:123 44:6 45:101 46:1 47:149 48:12 49:104 50:790 51:150 52:145 53:104 54:8 55:153 56:5 57:168 58:31 59:98 60:0 61:97 62:1 63:125 64:20 65:125 66:930 67:86 68:46 69:130 70:4 71:152 72:4 73:182 74:14 75:128 76:0 77:95 78:0 79:103 80:3 
1 1:89 2:914 3:91 4:5 5:103 6:0 7:192 8:4 9:208 10:31 11:130 12:12 13:110 14:14 15:78 16:19 17:143 18:923 19:93 20:11 21:119 22:1 23:149 24:2 25:118 26:36 27:125 28:7 29:121 30:4 31:131 32:16 33:132 34:396 35:93 36:139 37:134 38:12 39:140 40:8 41:162 42:106 43:106 44:24 45:110 46:4 47:122 48:311 49:159 50:328 51:114 52:270 53:95 54:4 55:167 56:6 57:141 58:125 59:109 60:7 61:87 62:6 63:129 64:255 65:165 66:415 67:92 68:136 69:81 70:4 71:151 72:3 73:154 74:133 75:97 76:12 77:106 78:3 79:156 80:296 
1 1:49 2:579 3:82 4:12 5:405 6:0 7:296 8:2 9:63 10:401 11:37 12:0 13:43 14:1 15:25 16:5 17:94 18:538 19:73 20:50 21:106 22:15 23:161 24:8 25:152 26:245 27:131 28:12 29:174 30:1 31:109 32:131 33:93 34:561 35:88 36:245 37:107 38:7 39:184 40:3 41:155 42:78 43:129 44:19 45:161 46:16 47:84 48:72 49:160 50:682 51:91 52:201 53:110 54:16 55:150 56:9 57:108 58:53 59:106 60:3 61:109 62:2 63:165 64:34 65:99 66:781 67:105 68:126 69:145 70:10 71:195 72:5 73:166 74:57 75:106 76:10 77:91 78:5 79:94 80:7 
1 1:28 2:837 3:58 4:128 5:433 6:0 7:320 8:0 9:75 10:8 11:37 12:1 13:35 14:1 15:14 16:27 17:117 18:955 19:104 20:10 21:119 22:1 23:169 24:0 25:180 26:3 27:99 28:6 29:99 30:3 31:114 32:21 33:87 34:747 35:108 36:52 37:189 38:6 39:162 40:16 41:119 42:147 43:132 44:11 45:121 46:6 47:83 48:16 49:135 50:463 51:106 52:412 53:133 54:6 55:181 56:8 57:152 58:102 59:93 60:1 61:82 62:0 63:118 64:8 65:123 66:323 67:118 68:640 69:161 70:16 71:174 72:8 73:136 74:9 75:89 76:2 77:71 78:0 79:128 80:3 
1 1:27 2:980 3:30 4:2 5:199 6:0 7:487 8:1 9:149 10:5 11:58 12:3 13:32 14:2 15:18 16:7 17:93 18:645 19:99 20:261 21:189 22:5 23:212 24:1 25:216 26:6 27:77 28:5 29:55 30:3 31:58 32:75 33:83 34:291 35:76 36:476 37:167 38:65 39:249 40:26 41:158 42:88 43:93 44:4 45:70 46:2 47:104 48:48 49:124 50:295 51:84 52:318 53:95 54:240 55:135 56:20 57:184 58:57 59:130 60:6 61:100 62:1 63:148 64:62 65:128 66:404 67:81 68:393 69:107 70:42 71:152 72:9 73:169 74:113 75:107 76:6 77:92 78:1 79:165 80:33 
1 1:62 2:939 3:53 4:32 5:68 6:5 7:176 8:4 9:264 10:3 11:186 12:0 13:134 14:0 15:58 16:18 17:126 18:504 19:89 20:3 21:114 22:0 23:171 24:0 25:162 26:151 27:114 28:27 29:107 30:34 31:115 32:281 33:101 34:747 35:102 36:19 37:129 38:1 39:164 40:4 41:185 42:123 43:111 44:58 45:106 46:7 47:102 48:41 49:88 50:651 51:91 52:48 53:150 54:1 55:179 56:8 57:211 58:212 59:117 60:28 61:93 62:4 63:71 64:49 65:87 66:866 67:90 68:11 69:112 70:2 71:162 72:1 73:205 74:59 75:139 76:15 77:117 78:6 79:89 80:41 
1 1:109 2:361 3:82 4:0 5:77 6:1 7:289 8:15 9:177 10:608 11:120 12:11 13:63 14:2 15:83 16:2 17:79 18:805 19:121 20:187 21:116 22:4 23:202 24:1 25:206 26:3 27:90 28:0 29:96 30:0 31:90 32:0 33:126 34:597 35:114 36:397 37:103 38:3 39:106 40:0 41:245 42:3 43:98 44:0 45:112 46:0 47:97 48:0 49:160 50:323 51:132 52:592 53:113 54:8 55:117 56:5 57:156 58:64 59:121 60:2 61:97 62:1 63:105 64:6 65:127 66:477 67:88 68:334 69:97 70:50 71:181 72:19 73:172 74:114 75:106 76:3 77:112 78:2 79:116 80:2 
1 1:87 2:990 3:82 4:0 5:146 6:0 7:179 8:0 9:223 10:2 11:118 12:0 13:108 14:2 15:57 16:6 17:147 18:582 19:98 20:76 21:102 22:20 23:129 24:20 25:150 26:59 27:124 28:10 29:103 30:9 31:146 32:223 33:120 34:653 35:84 36:167 37:119 38:78 39:162 40:49 41:188 42:41 43:138 44:3 45:103 46:1 47:85 48:9 49:102 50:854 51:67 52:140 53:126 54:2 55:211 56:1 57:185 58:4 59:126 60:0 61:89 62:0 63:94 64:0 65:84 66:901 67:81 68:85 69:119 70:2 71:201 72:1 73:186 74:7 75:130 76:2 77:91 78:0 79:109 80:1 
1 1:183 2:751 3:181 4:2 5:184 6:0 7:84 8:1 9:129 10:105 11:50 12:45 13:48 14:45 15:142 16:52 17:167 18:836 19:148 20:63 21:84 22:3 23:110 24:3 25:96 26:73 27:84 28:8 29:127 30:3 31:183 32:11 33:198 34:874 35:106 36:60 37:73 38:1 39:68 40:2 41:81 42:42 43:60 44:2 45:167 46:2 47:248 48:18 49:88 50:935 51:79 52:61 53:131 54:0 55:158 56:1 57:174 58:0 59:112 60:0 61:147 62:1 63:110 64:2 65:94 66:938 67:88 68:24 69:110 70:0 71:164 72:0 73:235 74:0 75:131 76:0 77:83 78:0 79:97 80:38 
1 1:63 2:995 3:91 4:0 5:131 6:0 7:210 8:0 9:207 10:1 11:127 12:0 13:103 14:0 15:68 16:2 17:84 18:915 19:103 20:65 21:135 22:4 23:161 24:2 25:157 26:10 27:152 28:2 29:93 30:0 31:115 32:2 33:105 34:687 35:95 36:278 37:109 38:19 39:180 40:6 41:203 42:7 43:125 44:2 45:97 46:0 47:87 48:1 49:113 50:473 51:85 52:465 53:109 54:30 55:176 56:6 57:210 58:26 59:135 60:0 61:79 62:0 63:95 64:0 65:100 66:689 67:111 68:247 69:148 70:15 71:214 72:12 73:188 74:34 75:91 76:2 77:70 78:0 79:78 80:0 
1 1:169 2:650 3:77 4:0 5:97 6:0 7:133 8:1 9:86 10:312 11:214 12:32 13:139 14:1 15:84 16:4 17:116 18:890 19:83 20:91 21:121 22:1 23:163 24:1 25:207 26:16 27:140 28:1 29:75 30:0 31:95 32:0 33:112 34:747 35:126 36:209 37:139 38:13 39:182 40:9 41:187 42:21 43:84 44:1 45:72 46:0 47:98 48:0 49:105 50:729 51:113 52:255 53:116 54:6 55:168 56:3 57:219 58:5 59:109 60:0 61:86 62:0 63:84 64:1 65:160 66:719 67:96 68:254 69:107 70:1 71:124 72:1 73:172 74:22 75:111 76:1 77:86 78:1 79:143 80:2 
1 1:173 2:480 3:109 4:30 5:96 6:20 7:199 8:3 9:122 10:272 11:127 12:96 13:85 14:33 15:90 16:67 17:102 18:977 19:83 20:20 21:135 22:0 23:185 24:0 25:179 26:1 27:101 28:0 29:82 30:1 31:134 32:1 33:152 34:939 35:94 36:48 37:96 38:0 39:102 40:0 41:139 42:3 43:190 44:1 45:113 46:1 47:116 48:8 49:105 50:826 51:86 52:106 53:113 54:4 55:199 56:3 57:180 58:37 59:107 60:4 61:104 62:4 63:106 64:16 65:170 66:853 67:186 68:25 69:77 70:1 71:83 72:2 73:69 74:78 75:58 76:5 77:130 78:4 79:228 80:32 
1 1:17 2:913 3:19 4:0 5:48 6:0 7:55 8:1 9:150 10:58 11:505 12:15 13:180 14:6 15:26 16:6 17:135 18:878 19:97 20:108 21:153 22:1 23:140 24:0 25:166 26:1 27:71 28:0 29:91 30:0 31:147 32:11 33:90 34:596 35:96 36:385 37:152 38:7 39:204 40:2 41:183 42:5 43:100 44:0 45:74 46:0 47:101 48:5 49:120 50:451 51:105 52:534 53:118 54:3 55:143 56:2 57:174 58:10 59:102 60:0 61:111 62:0 63:127 64:0 65:89 66:587 67:106 68:300 69:119 70:11 71:137 72:2 73:168 74:18 75:174 76:0 77:132 78:1 79:76 80:82 
1 1:188 2:953 3:88 4:2 5:64 6:0 7:192 8:2 9:152 10:11 11:74 12:1 13:128 14:0 15:114 16:32 17:156 18:916 19:97 20:13 21:100 22:2 23:130 24:0 25:151 26:51 27:137 28:6 29:96 30:2 31:133 32:10 33:92 34:746 35:96 36:128 37:104 38:13 39:234 40:4 41:219 42:68 43:103 44:3 45:73 46:5 47:79 48:33 49:135 50:745 51:92 52:171 53:107 54:19 55:172 56:10 57:186 58:33 59:76 60:1 61:97 62:1 63:135 64:21 65:207 66:958 67:182 68:12 69:70 70:6 71:88 72:9 73:83 74:8 75:37 76:0 77:105 78:0 79:228 80:7 
1 1:76 2:998 3:92 4:1 5:95 6:0 7:195 8:0 9:309 10:1 11:88 12:0 13:86 14:0 15:60 16:0 17:162 18:739 19:100 20:189 21:93 22:2 23:203 24:2 25:148 26:59 27:80 28:2 29:92 30:1 31:123 32:7 33:89 34:361 35:109 36:510 37:100 38:11 39:225 40:15 41:194 42:52 43:82 44:3 45:105 46:4 47:95 48:44 49:102 50:448 51:75 52:302 53:101 54:21 55:196 56:34 57:176 58:186 59:107 60:2 61:130 62:1 63:112 64:6 65:182 66:702 67:75 68:173 69:86 70:9 71:150 72:5 73:136 74:52 75:103 76:4 77:108 78:2 79:160 80:54 
1 1:70 2:611 3:63 4:0 5:96 6:0 7:160 8:0 9:170 10:8 11:187 12:26 13:194 14:50 15:61 16:304 17:182 18:913 19:101 20:29 21:107 22:4 23:88 24:4 25:126 26:28 27:94 28:5 29:121 30:1 31:183 32:16 33:180 34:511 35:128 36:144 37:84 38:288 39:133 40:26 41:121 42:12 43:95 44:4 45:133 46:1 47:126 48:13 49:127 50:405 51:91 52:262 53:104 54:264 55:182 56:12 57:134 58:37 59:105 60:8 61:141 62:3 63:116 64:9 65:157 66:513 67:105 68:209 69:92 70:15 71:187 72:6 73:154 74:198 75:76 76:29 77:97 78:8 79:133 80:21 
1 1:114 2:802 3:75 4:74 5:107 6:8 7:152 8:10 9:192 10:95 11:152 12:2 13:106 14:2 15:102 16:8 17:238 18:790 19:114 20:43 21:89 22:1 23:129 24:2 25:92 26:24 27:74 28:9 29:103 30:7 31:162 32:123 33:151 34:856 35:111 36:84 37:101 38:7 39:147 40:9 41:160 42:37 43:103 44:1 45:104 46:1 47:123 48:6 49:155 50:502 51:97 52:323 53:104 54:35 55:156 56:21 57:164 58:40 59:95 60:1 61:108 62:2 63:122 64:76 65:127 66:346 67:93 68:352 69:110 70:73 71:150 72:61 73:146 74:162 75:124 76:0 77:110 78:0 79:141 80:6 
1 1:79 2:986 3:56 4:14 5:133 6:0 7:137 8:0 9:142 10:0 11:185 12:0 13:175 14:0 15:93 16:0 17:179 18:861 19:97 20:40 21:89 22:0 23:145 24:1 25:135 26:30 27:105 28:13 29:89 30:6 31:161 32:49 33:122 34:747 35:119 36:78 37:110 38:4 39:146 40:11 41:165 42:124 43:119 44:10 45:97 46:12 47:123 48:14 49:105 50:643 51:82 52:175 53:110 54:31 55:198 56:33 57:231 58:93 59:87 60:5 61:93 62:0 63:94 64:19 65:128 66:613 67:80 68:153 69:126 70:22 71:196 72:61 73:175 74:130 75:97 76:7 77:90 78:7 79:109 80:8 
1 1:76 2:913 3:65 4:83 5:112 6:2 7:230 8:1 9:241 10:2 11:121 12:0 13:84 14:0 15:72 16:0 17:118 18:799 19:97 20:38 21:114 22:2 23:166 24:4 25:165 26:70 27:111 28:10 29:114 30:17 31:114 32:59 33:121 34:724 35:116 36:80 37:129 38:10 39:142 40:13 41:145 42:142 43:103 44:16 45:111 46:3 47:133 48:14 49:97 50:589 51:92 52:171 53:113 54:39 55:166 56:49 57:216 58:123 59:110 60:8 61:93 62:8 63:113 64:14 65:131 66:395 67:126 68:283 69:115 70:53 71:170 72:87 73:147 74:182 75:92 76:1 77:100 78:0 79:119 80:0 
1 1:98 2:989 3:73 4:2 5:119 6:0 7:201 8:0 9:223 10:5 11:103 12:0 13:120 14:1 15:64 16:3 17:144 18:712 19:125 20:237 21:103 22:4 23:135 24:4 25:134 26:30 27:110 28:0 29:119 30:0 31:130 32:13 33:114 34:583 35:99 36:376 37:121 38:3 39:169 40:2 41:186 42:25 43:95 44:1 45:96 46:2 47:120 48:8 49:100 50:446 51:88 52:443 53:106 54:13 55:177 56:5 57:227 58:46 59:113 60:0 61:102 62:3 63:88 64:45 65:104 66:681 67:106 68:146 69:89 70:7 71:184 72:8 73:188 74:110 75:99 76:9 77:131 78:3 79:99 80:37 
1 1:47 2:991 3:74 4:0 5:144 6:0 7:219 8:0 9:214 10:4 11:169 12:1 13:90 14:1 15:43 16:3 17:95 18:871 19:96 20:24 21:131 22:2 23:172 24:2 25:181 26:30 27:115 28:7 29:93 30:10 31:118 32:53 33:126 34:728 35:86 36:133 37:96 38:10 39:203 40:13 41:173 42:83 43:119 44:6 45:94 46:2 47:103 48:26 49:73 50:546 51:91 52:253 53:101 54:9 55:163 56:12 57:166 58:151 59:236 60:7 61:98 62:6 63:72 64:18 65:89 66:458 67:89 68:141 69:111 70:22 71:220 72:27 73:160 74:171 75:119 76:12 77:117 78:39 79:96 80:131 
1 1:59 2:891 3:121 4:0 5:170 6:0 7:100 8:0 9:339 10:5 11:92 12:2 13:72 14:12 15:49 16:90 17:135 18:784 19:102 20:84 21:104 22:9 23:166 24:11 25:170 26:53 27:102 28:10 29:91 30:2 31:132 32:48 33:105 34:684 35:118 36:131 37:125 38:6 39:139 40:10 41:161 42:73 43:133 44:6 45:113 46:5 47:107 48:87 49:99 50:561 51:112 52:315 53:148 54:9 55:174 56:10 57:162 58:34 59:109 60:5 61:102 62:3 63:95 64:65 65:101 66:715 67:103 68:148 69:113 70:3 71:196 72:5 73:187 74:74 75:123 76:14 77:85 78:5 79:93 80:37 
1 1:36 2:998 3:83 4:0 5:237 6:0 7:347 8:0 9:156 10:1 11:63 12:0 13:48 14:0 15:31 16:0 17:124 18:890 19:109 20:27 21:118 22:7 23:160 24:22 25:200 26:35 27:96 28:1 29:78 30:4 31:116 32:14 33:86 34:784 35:75 36:82 37:110 38:9 39:262 40:7 41:206 42:84 43:107 44:2 45:83 46:1 47:71 48:31 49:106 50:705 51:93 52:52 53:126 54:17 55:263 56:16 57:188 58:56 59:83 60:3 61:71 62:3 63:70 64:147 65:135 66:718 67:102 68:19 69:93 70:8 71:226 72:8 73:134 74:63 75:92 76:4 77:99 78:3 79:119 80:177 
1 1:58 2:985 3:100 4:1 5:179 6:0 7:190 8:0 9:212 10:1 11:115 12:1 13:81 14:2 15:66 16:11 17:137 18:945 19:89 20:20 21:101 22:2 23:116 24:1 25:158 26:16 27:126 28:3 29:125 30:2 31:148 32:11 33:93 34:777 35:89 36:182 37:118 38:6 39:162 40:7 41:163 42:20 43:159 44:3 45:123 46:0 47:93 48:6 49:116 50:820 51:94 52:105 53:113 54:3 55:223 56:13 57:149 58:43 59:92 60:5 61:96 62:2 63:117 64:9 65:169 66:775 67:108 68:83 69:98 70:7 71:144 72:10 73:120 74:112 75:108 76:9 77:100 78:1 79:154 80:3 
1 1:104 2:851 3:110 4:0 5:142 6:0 7:168 8:1 9:194 10:90 11:102 12:9 13:87 14:2 15:94 16:48 17:118 18:901 19:97 20:10 21:89 22:1 23:143 24:1 25:160 26:56 27:88 28:11 29:124 30:5 31:182 32:15 33:111 34:841 35:72 36:32 37:133 38:5 39:188 40:6 41:163 42:101 43:133 44:9 45:102 46:2 47:99 48:5 49:128 50:949 51:81 52:15 53:113 54:6 55:151 56:6 57:163 58:16 59:138 60:1 61:114 62:1 63:111 64:8 65:139 66:927 67:83 68:8 69:110 70:1 71:117 72:4 73:188 74:15 75:137 76:2 77:114 78:11 79:113 80:33 
1 1:94 2:998 3:91 4:0 5:115 6:0 7:208 8:0 9:227 10:1 11:84 12:0 13:105 14:0 15:77 16:0 17:96 18:758 19:82 20:68 21:129 22:3 23:204 24:5 25:177 26:125 27:109 28:4 29:104 30:4 31:100 32:33 33:114 34:543 35:86 36:201 37:122 38:15 39:189 40:19 41:167 42:209 43:101 44:4 45:100 46:1 47:121 48:8 49:137 50:699 51:90 52:255 53:115 54:3 55:168 56:9 57:161 58:34 59:90 60:1 61:97 62:0 63:143 64:0 65:119 66:861 67:108 68:24 69:117 70:2 71:151 72:5 73:136 74:6 75:131 76:1 77:132 78:1 79:107 80:101 
1 1:165 2:199 3:133 4:63 5:188 6:38 7:154 8:60 9:74 10:617 11:77 12:3 13:74 14:1 15:136 16:19 17:138 18:817 19:86 20:93 21:111 22:3 23:149 24:6 25:129 26:53 27:115 28:13 29:110 30:5 31:163 32:10 33:80 34:709 35:103 36:136 37:148 38:9 39:214 40:13 41:201 42:86 43:101 44:25 45:73 46:8 47:81 48:15 49:123 50:749 51:76 52:112 53:135 54:21 55:208 56:24 57:145 58:49 59:95 60:11 61:102 62:7 63:115 64:28 65:123 66:860 67:108 68:56 69:129 70:6 71:273 72:8 73:114 74:23 75:80 76:25 77:83 78:7 79:90 80:15 
1 1:78 2:907 3:46 4:16 5:60 6:7 7:91 8:5 9:545 10:60 11:75 12:3 13:49 14:0 15:56 16:1 17:151 18:815 19:117 20:91 21:107 22:47 23:132 24:7 25:103 26:26 27:103 28:6 29:127 30:1 31:160 32:7 33:140 34:698 35:78 36:163 37:99 38:18 39:160 40:14 41:117 42:100 43:134 44:5 45:102 46:1 47:169 48:2 49:91 50:717 51:75 52:137 53:85 54:17 55:124 56:11 57:169 58:78 59:239 60:11 61:120 62:6 63:97 64:24 65:113 66:809 67:71 68:107 69:77 70:3 71:165 72:11 73:145 74:37 75:222 76:4 77:98 78:3 79:109 80:27 
1 1:195 2:552 3:134 4:174 5:144 6:27 7:90 8:6 9:87 10:120 11:83 12:87 13:113 14:18 15:154 16:17 17:161 18:575 19:106 20:219 21:89 22:23 23:107 24:14 25:123 26:77 27:108 28:18 29:121 30:4 31:185 32:70 33:123 34:123 35:113 36:225 37:137 38:94 39:164 40:23 41:119 42:107 43:99 44:36 45:118 46:20 47:128 48:372 49:136 50:462 51:119 52:121 53:134 54:20 55:167 56:7 57:106 58:19 59:89 60:12 61:105 62:55 63:145 64:305 65:136 66:586 67:98 68:136 69:104 70:3 71:157 72:3 73:133 74:46 75:114 76:7 77:129 78:5 79:129 80:214 
1 1:141 2:830 3:110 4:13 5:142 6:0 7:157 8:0 9:128 10:68 11:132 12:25 13:83 14:17 15:108 16:47 17:214 18:525 19:103 20:172 21:98 22:6 23:98 24:5 25:94 26:156 27:75 28:58 29:100 30:9 31:218 32:70 33:164 34:482 35:120 36:338 37:112 38:24 39:133 40:32 41:132 42:107 43:100 44:7 45:103 46:4 47:135 48:7 49:97 50:284 51:77 52:608 53:111 54:12 55:201 56:18 57:240 58:44 59:111 60:2 61:92 62:7 63:72 64:25 65:86 66:468 67:73 68:488 69:98 70:17 71:214 72:4 73:221 74:17 75:99 76:1 77:116 78:0 79:93 80:6 
1 1:154 2:997 3:124 4:0 5:132 6:0 7:93 8:0 9:114 10:0 11:106 12:0 13:167 14:0 15:109 16:3 17:114 18:606 19:83 20:203 21:84 22:16 23:143 24:19 25:154 26:135 27:155 28:10 29:159 30:4 31:110 32:8 33:96 34:636 35:77 36:211 37:101 38:33 39:209 40:23 41:195 42:93 43:112 44:2 45:113 46:0 47:98 48:2 49:103 50:783 51:92 52:50 53:118 54:28 55:207 56:28 57:212 58:105 59:95 60:2 61:77 62:1 63:97 64:4 65:141 66:845 67:93 68:40 69:125 70:2 71:133 72:2 73:138 74:100 75:90 76:5 77:120 78:2 79:160 80:4 
0.2591519838538001 1:43 2:995 3:39 4:5 5:55 6:0 7:85 8:0 9:286 10:0 11:400 12:0 13:51 14:0 15:41 16:0 17:82 18:633 19:89 20:13 21:124 22:2 23:201 24:3 25:177 26:247 27:135 28:35 29:89 30:8 31:102 32:61 33:93 34:491 35:73 36:326 37:87 38:32 39:213 40:20 41:182 42:114 43:160 44:4 45:79 46:2 47:114 48:11 49:69 50:547 51:107 52:229 53:143 54:15 55:178 56:60 57:163 58:142 59:142 60:2 61:109 62:3 63:88 64:3 65:88 66:712 67:91 68:153 69:112 70:63 71:251 72:28 73:215 74:43 75:80 76:0 77:73 78:0 79:90 80:1 
1 1:92 2:1000 3:102 4:0 5:129 6:0 7:119 8:0 9:181 10:0 11:141 12:0 13:126 14:0 15:108 16:0 17:96 18:899 19:98 20:94 21:147 22:2 23:272 24:1 25:158 26:2 27:83 28:1 29:74 30:0 31:72 32:2 33:87 34:764 35:106 36:143 37:159 38:11 39:216 40:27 41:125 42:43 43:154 44:2 45:78 46:1 47:75 48:11 49:73 50:709 51:115 52:215 53:165 54:11 55:228 56:20 57:147 58:43 59:128 60:0 61:71 62:0 63:74 64:2 65:62 66:662 67:93 68:282 69:161 70:10 71:240 72:19 73:178 74:26 75:147 76:0 77:71 78:0 79:50 80:1 
1 1:91 2:999 3:95 4:1 5:101 6:0 7:114 8:0 9:250 10:0 11:130 12:0 13:118 14:0 15:101 16:0 17:221 18:641 19:99 20:53 21:109 22:10 23:121 24:7 25:122 26:266 27:65 28:5 29:92 30:4 31:171 32:14 33:179 34:699 35:82 36:196 37:87 38:55 39:118 40:19 41:125 42:19 43:86 44:1 45:120 46:4 47:204 48:7 49:101 50:527 51:84 52:265 53:139 54:13 55:186 56:22 57:131 58:145 59:107 60:1 61:157 62:1 63:96 64:26 65:103 66:452 67:67 68:294 69:137 70:18 71:225 72:22 73:162 74:196 75:88 76:8 77:120 78:5 79:99 80:5 
0.473761510591768 1:28 2:895 3:35 4:2 5:190 6:0 7:134 8:0 9:403 10:15 11:132 12:63 13:42 14:17 15:37 16:7 17:114 18:662 19:78 20:275 21:103 22:6 23:160 24:4 25:141 26:27 27:123 28:9 29:152 30:4 31:129 32:13 33:150 34:416 35:64 36:360 37:87 38:50 39:176 40:36 41:157 42:99 43:93 44:10 45:110 46:16 47:162 48:13 49:140 50:356 51:84 52:420 53:108 54:68 55:189 56:19 57:176 58:39 59:84 60:10 61:90 62:52 63:129 64:37 65:109 66:324 67:93 68:344 69:137 70:72 71:194 72:52 73:174 74:188 75:93 76:6 77:81 78:8 79:120 80:5 
1 1:180 2:581 3:144 4:366 5:88 6:30 7:97 8:2 9:116 10:3 11:80 12:2 13:124 14:6 15:170 16:9 17:190 18:791 19:121 20:167 21:99 22:11 23:106 24:4 25:126 26:10 27:89 28:5 29:113 30:7 31:156 32:6 33:216 34:581 35:120 36:157 37:94 38:16 39:133 40:9 41:148 42:159 43:72 44:39 45:86 46:6 47:132 48:33 49:159 50:604 51:108 52:209 53:118 54:21 55:128 56:5 57:128 58:101 59:96 60:36 61:119 62:5 63:145 64:19 65:159 66:747 67:88 68:117 69:86 70:4 71:159 72:2 73:109 74:24 75:100 76:23 77:130 78:64 79:170 80:19 
1 1:157 2:525 3:102 4:243 5:106 6:100 7:93 8:24 9:103 10:95 11:95 12:4 13:133 14:1 15:211 16:9 17:202 18:644 19:71 20:290 21:84 22:11 23:115 24:3 25:126 26:5 27:86 28:18 29:95 30:17 31:222 32:12 33:144 34:402 35:81 36:217 37:86 38:32 39:168 40:24 41:191 42:78 43:87 44:6 45:87 46:4 47:156 48:237 49:99 50:419 51:91 52:280 53:111 54:52 55:196 56:50 57:198 58:135 59:108 60:13 61:87 62:13 63:110 64:39 65:149 66:280 67:102 68:366 69:135 70:72 71:122 72:94 73:126 74:155 75:124 76:6 77:113 78:9 79:128 80:18 
1 1:64 2:36 3:39 4:79 5:61 6:38 7:364 8:167 9:317 10:624 11:54 12:3 13:49 14:2 15:54 16:52 17:205 18:723 19:85 20:20 21:92 22:2 23:153 24:18 25:174 26:73 27:94 28:79 29:76 30:14 31:123 32:72 33:80 34:766 35:65 36:115 37:91 38:32 39:240 40:32 41:288 42:44 43:119 44:9 45:61 46:2 47:56 48:2 49:92 50:634 51:77 52:183 53:87 54:33 55:190 56:32 57:273 58:109 59:108 60:5 61:74 62:2 63:100 64:2 65:159 66:700 67:92 68:132 69:68 70:51 71:161 72:38 73:247 74:74 75:79 76:2 77:62 78:1 79:132 80:1 
1 1:172 2:156 3:134 4:300 5:122 6:34 7:104 8:10 9:103 10:174 11:88 12:262 13:111 14:45 15:166 16:20 17:98 18:492 19:105 20:400 21:129 22:28 23:176 24:18 25:192 26:50 27:95 28:12 29:102 30:1 31:102 32:0 33:92 34:502 35:83 36:229 37:115 38:28 39:218 40:20 41:192 42:58 43:121 44:5 45:95 46:0 47:85 48:158 49:150 50:582 51:102 52:210 53:105 54:89 55:154 56:20 57:135 58:74 59:96 60:1 61:106 62:2 63:153 64:22 65:196 66:802 67:147 68:161 69:123 70:9 71:92 72:2 73:104 74:8 75:82 76:1 77:103 78:1 79:154 80:18 
1 1:167 2:957 3:47 4:43 5:113 6:0 7:167 8:0 9:197 10:0 11:107 12:0 13:104 14:0 15:99 16:0 17:132 18:843 19:123 20:40 21:150 22:17 23:88 24:20 25:113 26:73 27:66 28:1 29:140 30:1 31:188 32:5 33:100 34:932 35:105 36:56 37:104 38:4 39:187 40:4 41:214 42:5 43:92 44:0 45:93 46:0 47:105 48:0 49:132 50:911 51:168 52:50 53:113 54:3 55:159 56:3 57:198 58:19 59:81 60:1 61:69 62:2 63:80 64:11 65:187 66:720 67:120 68:158 69:104 70:6 71:124 72:4 73:133 74:83 75:77 76:16 77:114 78:5 79:141 80:7 
1 1:32 2:98 3:31 4:899 5:29 6:3 7:226 8:0 9:568 10:0 11:52 12:0 13:35 14:0 15:27 16:0 17:213 18:357 19:65 20:600 21:55 22:10 23:120 24:5 25:121 26:18 27:89 28:5 29:97 30:4 31:240 32:2 33:148 34:181 35:93 36:752 37:94 38:25 39:164 40:7 41:160 42:35 43:71 44:1 45:93 46:0 47:178 48:0 49:70 50:6 51:37 52:777 53:85 54:167 55:255 56:32 57:297 58:18 59:125 60:0 61:51 62:0 63:79 64:0 65:375 66:0 67:64 68:902 69:61 70:94 71:85 72:4 73:93 74:0 75:51 76:0 77:62 78:0 79:210 80:0 
0.6459965671688943 1:67 2:394 3:48 4:230 5:107 6:64 7:223 8:4 9:206 10:17 11:146 12:39 13:124 14:28 15:79 16:226 17:217 18:6 19:89 20:0 21:109 22:1 23:105 24:1 25:122 26:10 27:68 28:279 29:67 30:488 31:223 32:217 33:139 34:311 35:85 36:56 37:111 38:22 39:145 40:7 41:134 42:41 43:134 44:44 45:121 46:170 47:130 48:349 49:102 50:416 51:64 52:251 53:104 54:147 55:215 56:21 57:255 58:21 59:95 60:9 61:76 62:21 63:89 64:114 65:272 66:35 67:48 68:84 69:64 70:495 71:142 72:351 73:184 74:32 75:76 76:0 77:83 78:0 79:131 80:2 
1 1:69 2:670 3:58 4:134 5:64 6:19 7:144 8:4 9:388 10:10 11:142 12:3 13:75 14:8 15:60 16:153 17:123 18:488 19:94 20:6 21:102 22:1 23:162 24:0 25:215 26:12 27:111 28:39 29:81 30:34 31:113 32:422 33:137 34:443 35:92 36:81 37:107 38:5 39:144 40:4 41:199 42:90 43:112 44:84 45:109 46:37 47:101 48:256 49:67 50:343 51:61 52:110 53:99 54:40 55:201 56:16 57:305 58:124 59:115 60:9 61:77 62:166 63:75 64:192 65:115 66:430 67:76 68:157 69:89 70:91 71:163 72:60 73:279 74:195 75:105 76:5 77:74 78:2 79:97 80:59 
1 1:48 2:505 3:42 4:63 5:60 6:0 7:324 8:0 9:374 10:1 11:63 12:22 13:41 14:64 15:48 16:346 17:142 18:351 19:119 20:6 21:121 22:0 23:145 24:0 25:150 26:26 27:88 28:11 29:112 30:71 31:124 32:535 33:137 34:464 35:98 36:36 37:102 38:9 39:122 40:18 41:153 42:56 43:124 44:13 45:117 46:17 47:147 48:388 49:84 50:317 51:82 52:22 53:104 54:2 55:212 56:5 57:188 58:589 59:127 60:23 61:100 62:9 63:105 64:33 65:92 66:759 67:95 68:125 69:100 70:15 71:210 72:5 73:246 74:30 75:101 76:2 77:70 78:1 79:87 80:62 
1 1:47 2:292 3:345 4:1 5:302 6:0 7:52 8:0 9:115 10:0 11:61 12:0 13:47 14:21 15:31 16:686 17:153 18:778 19:147 20:85 21:115 22:69 23:112 24:6 25:133 26:1 27:104 28:1 29:96 30:19 31:141 32:42 33:99 34:486 35:114 36:148 37:167 38:43 39:183 40:16 41:133 42:104 43:111 44:5 45:87 46:6 47:105 48:192 49:85 50:516 51:93 52:176 53:175 54:58 55:234 56:40 57:157 58:33 59:78 60:7 61:78 62:9 63:101 64:161 65:106 66:594 67:83 68:169 69:176 70:50 71:239 72:39 73:148 74:18 75:90 76:5 77:78 78:9 79:81 80:117 
1 1:36 2:405 3:21 4:5 5:47 6:0 7:106 8:0 9:84 10:0 11:334 12:0 13:153 14:16 15:220 16:574 17:101 18:635 19:103 20:93 21:193 22:95 23:185 24:83 25:135 26:29 27:90 28:2 29:88 30:3 31:107 32:60 33:80 34:390 35:102 36:33 37:142 38:103 39:157 40:76 41:111 42:322 43:208 44:19 45:101 46:4 47:99 48:53 49:93 50:389 51:79 52:58 53:111 54:86 55:137 56:56 57:100 58:225 59:183 60:12 61:116 62:10 63:182 64:165 65:123 66:557 67:105 68:90 69:92 70:18 71:148 72:10 73:113 74:8 75:107 76:1 77:115 78:3 79:198 80:314 
1 1:110 2:715 3:282 4:3 5:78 6:1 7:83 8:0 9:116 10:0 11:23 12:0 13:112 14:0 15:197 16:281 17:145 18:548 19:145 20:63 21:125 22:11 23:141 24:11 25:128 26:30 27:86 28:40 29:102 30:20 31:129 32:277 33:121 34:770 35:86 36:117 37:74 38:13 39:161 40:2 41:145 42:5 43:75 44:2 45:113 46:4 47:226 48:88 49:96 50:664 51:200 52:164 53:112 54:15 55:162 56:2 57:133 58:14 59:105 60:3 61:99 62:15 63:93 64:123 65:59 66:753 67:100 68:67 69:138 70:18 71:112 72:5 73:103 74:3 75:216 76:5 77:200 78:14 79:72 80:136 
1 1:84 2:126 3:100 4:0 5:99 6:0 7:99 8:18 9:147 10:491 11:138 12:110 13:241 14:39 15:92 16:215 17:50 18:773 19:74 20:62 21:128 22:10 23:182 24:1 25:239 26:62 27:186 28:9 29:95 30:4 31:47 32:81 33:121 34:74 35:92 36:84 37:105 38:10 39:158 40:4 41:176 42:597 43:116 44:111 45:114 46:58 47:120 48:63 49:120 50:297 51:96 52:116 53:94 54:19 55:163 56:5 57:150 58:97 59:94 60:106 61:114 62:93 63:171 64:267 65:171 66:427 67:70 68:191 69:83 70:96 71:209 72:26 73:174 74:108 75:80 76:50 77:73 78:29 79:140 80:73 
