svm_type c_svc
kernel_type linear
nr_class 2
total_sv 353
rho -31006
label 1 0
nr_sv 177 176
SV
0.1830938506989141 1:627 2:0 3:916 4:0 5:2012 6:0 7:1615 8:0 9:2179 10:9999 11:1218 12:1 13:1035 14:0 15:397 16:0 17:586 18:3 19:648 20:5 21:1251 22:352 23:2024 24:965 25:2178 26:8647 27:1889 28:19 29:952 30:3 31:472 32:6 33:163 34:10 35:199 36:5 37:582 38:64 39:1068 40:206 41:1710 42:4658 43:921 44:46 45:261 46:4 47:94 48:7 49:347 50:72 51:444 52:224 53:901 54:25 55:1276 56:1 57:902 58:4655 59:576 60:19 61:272 62:3 63:281 64:2 65:978 66:55 67:1034 68:1702 69:1706 70:553 71:1412 72:61 73:1670 74:7608 75:1520 76:13 77:932 78:4 79:749 80:5 
0.8361321959270441 1:2044 2:615 3:640 4:51 5:2899 6:5 7:514 8:47 9:1283 10:5816 11:765 12:2864 13:653 14:170 15:1202 16:432 17:2864 18:6323 19:1105 20:63 21:735 22:0 23:737 24:0 25:815 26:370 27:483 28:1483 29:797 30:467 31:2464 32:1294 33:863 34:2445 35:547 36:7 37:626 38:13 39:489 40:1021 41:589 42:841 43:522 44:541 45:498 46:50 47:868 48:82 49:819 50:2262 51:616 52:515 53:755 54:126 55:737 56:1480 57:564 58:403 59:467 60:56 61:406 62:23 63:637 64:136 65:3725 66:3689 67:1027 68:459 69:460 70:307 71:371 72:1904 73:296 74:2598 75:432 76:119 77:872 78:49 79:2817 80:876 
1 1:552 2:34 3:199 4:18 5:260 6:0 7:3435 8:0 9:4186 10:63 11:493 12:8083 13:347 14:1608 15:530 16:194 17:1594 18:2403 19:1087 20:5196 21:1147 22:67 23:1278 24:82 25:1367 26:518 27:1045 28:713 29:1166 30:329 31:1316 32:693 33:679 34:1816 35:471 36:647 37:493 38:134 39:859 40:86 41:1025 42:1663 43:493 44:158 45:446 46:34 47:535 48:462 49:637 50:839 51:446 52:517 53:478 54:193 55:868 56:97 57:1000 58:1855 59:439 60:793 61:401 62:206 63:730 64:500 65:1574 66:4294 67:578 68:430 69:630 70:42 71:1467 72:48 73:1512 74:568 75:912 76:3007 77:1125 78:336 79:2202 80:1275 
1 1:1276 2:3712 3:972 4:4587 5:922 6:1 7:1091 8:6 9:1730 10:152 11:1365 12:92 13:1319 14:318 15:1324 16:1131 17:1155 18:3245 19:1106 20:6515 21:1185 22:4 23:1191 24:4 25:1345 26:106 27:1635 28:88 29:1267 30:4 31:1117 32:33 33:651 34:1559 35:528 36:2694 37:590 38:192 39:673 40:37 41:731 42:55 43:566 44:90 45:629 46:41 47:631 48:333 49:586 50:1594 51:493 52:270 53:508 54:14 55:689 56:13 57:836 58:863 59:639 60:930 61:527 62:188 63:723 64:1128 65:1293 66:5189 67:920 68:1883 69:1046 70:84 71:1428 72:21 73:1438 74:671 75:1110 76:813 77:1255 78:372 79:1510 80:967 
1 1:1398 2:1373 3:974 4:2167 5:1674 6:324 7:1393 8:608 9:1158 10:3215 11:1023 12:1815 13:840 14:294 15:1540 16:204 17:1488 18:655 19:1196 20:45 21:815 22:7 23:950 24:9 25:2146 26:62 27:1256 28:64 29:878 30:12 31:1271 32:9145 33:572 34:1019 35:376 36:197 37:386 38:8 39:655 40:18 41:1342 42:237 43:686 44:231 45:375 46:46 47:608 48:3245 49:623 50:786 51:440 52:200 53:461 54:30 55:709 56:89 57:1016 58:407 59:736 60:140 61:414 62:30 63:601 64:3319 65:1166 66:6809 67:913 68:475 69:1246 70:282 71:1750 72:925 73:1555 74:491 75:844 76:66 77:1009 78:44 79:1516 80:907 
1 1:2294 2:1840 3:1298 4:5038 5:1196 6:3038 7:1407 8:10 9:1063 10:20 11:817 12:33 13:592 14:15 15:1331 16:6 17:880 18:4908 19:573 20:4458 21:798 22:281 23:1203 24:34 25:1235 26:159 27:799 28:41 29:1863 30:8 31:2649 32:110 33:731 34:1720 35:381 36:2132 37:442 38:471 39:551 40:34 41:767 42:452 43:922 44:105 45:583 46:22 47:623 48:63 49:378 50:827 51:427 52:2294 53:446 54:428 55:635 56:36 57:851 58:720 59:1147 60:488 61:615 62:108 63:502 64:99 65:845 66:3115 67:629 68:4421 69:910 70:601 71:1350 72:72 73:2158 74:631 75:2027 76:443 77:1118 78:502 79:963 80:214 
1 1:942 2:5187 3:1121 4:4498 5:1335 6:159 7:1208 8:0 9:1371 10:0 11:1559 12:0 13:1254 14:90 15:1212 16:65 17:1869 18:8823 19:1270 20:973 21:1074 22:0 23:977 24:0 25:1061 26:0 27:1133 28:0 29:1098 30:5 31:1519 32:200 33:320 34:1789 35:352 36:938 37:473 38:503 39:1264 40:51 41:1478 42:368 43:475 44:608 45:371 46:363 47:267 48:381 49:678 50:1026 51:509 52:718 53:544 54:1059 55:748 56:112 57:600 58:573 59:601 60:617 61:624 62:412 63:696 64:483 65:1372 66:7335 67:1410 68:1924 69:1216 70:144 71:1052 72:9 73:1281 74:22 75:1267 76:18 77:1234 78:131 79:1168 80:417 
1 1:985 2:386 3:1128 4:702 5:1293 6:2074 7:1399 8:4089 9:1449 10:2729 11:1350 12:0 13:1267 14:0 15:1129 16:21 17:1254 18:44 19:1214 20:329 21:1213 22:578 23:1415 24:1817 25:1443 26:6021 27:1091 28:1172 29:1170 30:21 31:1200 32:19 33:588 34:10 35:468 36:108 37:598 38:160 39:774 40:669 41:814 42:3528 43:602 44:522 45:574 46:3 47:582 48:1 49:502 50:14 51:526 52:135 53:538 54:105 55:737 56:352 57:953 58:3640 59:678 60:703 61:574 62:33 63:494 64:16 65:827 66:294 67:1211 68:589 69:1347 70:304 71:1510 72:288 73:2139 74:5337 75:1142 76:2450 77:942 78:278 79:881 80:460 
1 1:444 2:0 3:433 4:0 5:951 6:0 7:1359 8:0 9:2880 10:10000 11:1866 12:0 13:1619 14:0 15:448 16:0 17:878 18:665 19:919 20:149 21:1146 22:980 23:1893 24:1488 25:1814 26:5752 27:1299 28:70 29:1125 30:361 31:926 32:535 33:374 34:265 35:349 36:4 37:535 38:39 39:1124 40:112 41:1318 42:4218 43:471 44:100 45:496 46:129 47:334 48:133 49:547 50:197 51:327 52:36 53:528 54:24 55:1035 56:15 57:998 58:4274 59:515 60:57 61:490 62:23 63:560 64:373 65:950 66:494 67:854 68:12 69:1035 70:8 71:2010 72:28 73:2327 74:9017 75:783 76:318 77:959 78:23 79:1081 80:101 
1 1:571 2:0 3:655 4:0 5:2242 6:0 7:2091 8:0 9:2183 10:10000 11:1019 12:0 13:886 14:0 15:352 16:0 17:869 18:71 19:1033 20:3261 21:1252 22:547 23:1456 24:131 25:1762 26:5982 27:1454 28:8 29:1333 30:0 31:841 32:0 33:396 34:0 35:389 36:1046 37:650 38:450 39:1083 40:50 41:1202 42:3454 43:550 44:1 45:408 46:0 47:322 48:0 49:563 50:0 51:473 52:228 53:767 54:978 55:858 56:761 57:1114 58:3033 59:475 60:0 61:445 62:0 63:305 64:0 65:877 66:0 67:1404 68:565 69:1631 70:2381 71:1651 72:2651 73:1671 74:4401 75:1121 76:2 77:810 78:0 79:836 80:0 
1 1:1638 2:93 3:1201 4:5998 5:1585 6:2819 7:1144 8:409 9:1103 10:655 11:1069 12:23 13:1032 14:4 15:1228 16:0 17:2260 18:627 19:1059 20:3005 21:854 22:3958 23:820 24:936 25:988 26:903 27:1091 28:335 29:1105 30:198 31:1822 32:38 33:556 34:981 35:559 36:1621 37:673 38:1736 39:650 40:315 41:747 42:104 43:668 44:4 45:550 46:40 47:598 48:200 49:726 50:1211 51:674 52:417 53:596 54:272 55:590 56:80 57:552 58:41 59:514 60:2 61:646 62:6 63:701 64:2971 65:971 66:2258 67:1117 68:4589 69:1496 70:418 71:1512 72:96 73:1486 74:37 75:1316 76:5 77:1119 78:33 79:982 80:2564 
1 1:554 2:0 3:755 4:6 5:1771 6:11 7:1715 8:6 9:2091 10:9976 11:2294 12:0 13:587 14:0 15:234 16:0 17:1411 18:1473 19:1065 20:772 21:1307 22:191 23:1316 24:138 25:1502 26:6976 27:1124 28:384 29:1056 30:9 31:1219 32:57 33:466 34:1313 35:489 36:411 37:693 38:128 39:976 40:11 41:909 42:2788 43:564 44:270 45:472 46:35 47:431 48:44 49:385 50:971 51:484 52:163 53:703 54:20 55:1035 56:5 57:1137 58:3098 59:537 60:628 61:384 62:52 63:335 64:63 65:830 66:2695 67:895 68:1 69:997 70:25 71:2287 72:38 73:2127 74:4683 75:1160 76:2017 77:905 78:345 79:799 80:196 
0.8547711924214114 1:1062 2:0 3:1351 4:4129 5:1435 6:3035 7:1242 8:1607 9:1288 10:1230 11:1099 12:0 13:1266 14:0 15:1257 16:0 17:1007 18:0 19:1121 20:4217 21:1413 22:3606 23:1916 24:761 25:1649 26:1128 27:1191 28:287 29:950 30:1 31:753 32:0 33:526 34:9 35:641 36:458 37:740 38:2046 39:741 40:1399 41:746 42:803 43:617 44:285 45:542 46:0 47:447 48:0 49:679 50:42 51:629 52:565 53:589 54:2343 55:662 56:838 57:661 58:784 59:550 60:372 61:634 62:49 63:596 64:7 65:1074 66:246 67:1069 68:2350 69:1227 70:5513 71:1391 72:564 73:1606 74:660 75:1357 76:507 77:1202 78:126 79:1074 80:34 
1 1:203 2:0 3:190 4:0 5:901 6:0 7:2423 8:0 9:4095 10:10000 11:1584 12:0 13:439 14:0 15:164 16:0 17:724 18:1371 19:964 20:290 21:1196 22:23 23:1697 24:86 25:2214 26:8223 27:1465 28:5 29:1039 30:0 31:702 32:3 33:360 34:504 35:470 36:50 37:669 38:1 39:1022 40:7 41:1204 42:4369 43:605 44:52 45:375 46:5 47:295 48:13 49:224 50:556 51:248 52:48 53:563 54:0 55:1080 56:4 57:1404 58:4317 59:774 60:57 61:487 62:6 63:220 64:11 65:689 66:2028 67:806 68:71 69:1202 70:1 71:2099 72:1 73:2125 74:7602 75:1262 76:232 77:1015 78:26 79:802 80:39 
0.2739525806603972 1:597 2:0 3:305 4:0 5:970 6:0 7:876 8:0 9:2099 10:10000 11:2502 12:0 13:2137 14:0 15:514 16:0 17:1691 18:76 19:1280 20:131 21:1163 22:235 23:1543 24:915 25:1618 26:8401 27:790 28:114 29:828 30:8 31:1086 32:119 33:721 34:131 35:1040 36:8 37:790 38:23 39:529 40:131 41:631 42:4120 43:374 44:291 45:441 46:31 47:472 48:265 49:607 50:26 51:638 52:0 53:659 54:1 55:651 56:6 57:645 58:4032 59:532 60:178 61:526 62:80 63:742 64:677 65:897 66:509 67:1131 68:150 69:1410 70:606 71:1553 72:706 73:1982 74:7107 75:1286 76:339 77:992 78:256 79:749 80:327 
1 1:1118 2:1793 3:539 4:350 5:526 6:18 7:2979 8:34 9:2864 10:6977 11:511 12:650 13:527 14:114 15:936 16:65 17:1756 18:1036 19:986 20:1621 21:1020 22:3140 23:1399 24:1234 25:1445 26:2566 27:835 28:203 29:875 30:22 31:1685 32:178 33:741 34:407 35:555 36:671 37:488 38:1338 39:570 40:154 41:531 42:1731 43:510 44:556 45:699 46:43 47:905 48:99 49:772 50:140 51:483 52:734 53:537 54:211 55:670 56:78 57:775 58:3753 59:455 60:71 61:526 62:7 63:781 64:7 65:2021 66:831 67:934 68:1962 69:783 70:418 71:1367 72:190 73:1126 74:5659 75:963 76:706 77:984 78:125 79:1822 80:110 
1 1:1374 2:0 3:1080 4:7 5:1221 6:4 7:1024 8:640 9:1194 10:9286 11:1427 12:63 13:1582 14:1 15:1097 16:0 17:957 18:54 19:2231 20:35 21:1601 22:4 23:1193 24:339 25:1043 26:9557 27:1199 28:12 29:918 30:0 31:857 32:0 33:369 34:1 35:442 36:0 37:754 38:0 39:632 40:60 41:444 42:4938 43:854 44:2 45:1091 46:0 47:414 48:0 49:513 50:0 51:786 52:0 53:876 54:0 55:522 56:93 57:491 58:4907 59:618 60:0 61:730 62:0 63:464 64:0 65:1083 66:0 67:1321 68:0 69:1336 70:46 71:964 72:921 73:1233 74:8931 75:1381 76:101 77:1609 78:0 79:1072 80:0 
1 1:1363 2:1 3:1213 4:2 5:1031 6:352 7:937 8:2610 9:1026 10:6700 11:1438 12:333 13:1445 14:0 15:1546 16:2 17:887 18:4 19:1070 20:53 21:1956 22:361 23:1756 24:261 25:1466 26:3126 27:1056 28:5832 29:887 30:362 31:922 32:1 33:362 34:45 35:587 36:1 37:759 38:9 39:776 40:293 41:521 42:3538 43:828 44:1111 45:805 46:3 47:362 48:0 49:502 50:0 51:614 52:0 53:822 54:757 55:562 56:978 57:668 58:3235 59:717 60:29 61:634 62:0 63:481 64:0 65:1685 66:1 67:975 68:37 69:1043 70:4907 71:1167 72:2881 73:1289 74:2161 75:1135 76:13 77:1376 78:0 79:1330 80:1 
1 1:1245 2:0 3:1032 4:18 5:1379 6:8 7:1041 8:236 9:1221 10:5491 11:1381 12:4248 13:1346 14:0 15:1354 16:0 17:695 18:342 19:2635 20:70 21:1305 22:98 23:1211 24:83 25:1155 26:3960 27:1250 28:3938 29:1012 30:1245 31:736 32:263 33:307 34:2 35:474 36:1 37:655 38:1 39:569 40:57 41:387 42:4792 43:1022 44:143 45:1169 46:5 47:416 48:0 49:642 50:0 51:722 52:0 53:815 54:81 55:508 56:122 57:600 58:4606 59:563 60:191 61:650 62:0 63:500 64:0 65:1068 66:70 67:1207 68:145 69:1317 70:1196 71:1233 72:297 73:1328 74:3462 75:1433 76:4308 77:1486 78:457 79:929 80:65 
1 1:1290 2:0 3:1348 4:772 5:1280 6:3364 7:1226 8:1410 9:1319 10:4236 11:1117 12:217 13:1250 14:0 15:1170 16:0 17:764 18:95 19:909 20:305 21:1315 22:1079 23:1877 24:553 25:1345 26:7921 27:1469 28:29 29:1414 30:8 31:908 32:10 33:710 34:64 35:534 36:300 37:789 38:287 39:716 40:317 41:450 42:4023 43:562 44:8 45:517 46:0 47:722 48:1 49:600 50:0 51:465 52:51 53:742 54:325 55:653 56:243 57:737 58:4376 59:603 60:4 61:611 62:0 63:589 64:0 65:734 66:0 67:561 68:1 69:620 70:125 71:986 72:388 73:1284 74:9475 75:1702 76:5 77:2615 78:0 79:1499 80:6 
1 1:1136 2:54 3:894 4:30 5:1441 6:549 7:1212 8:1988 9:1586 10:5606 11:1289 12:1765 13:1509 14:6 15:933 16:2 17:694 18:66 19:920 20:248 21:1329 22:657 23:1614 24:792 25:1626 26:1956 27:1474 28:6171 29:1353 30:71 31:989 32:39 33:402 34:212 35:305 36:137 37:436 38:1068 39:954 40:203 41:1076 42:2356 43:625 44:985 45:560 46:16 47:641 48:23 49:351 50:285 51:344 52:576 53:558 54:3251 55:1190 56:436 57:1295 58:433 59:538 60:6 61:415 62:2 63:310 64:11 65:587 66:109 67:960 68:435 69:1309 70:6001 71:1944 72:2796 73:2446 74:639 75:1469 76:1 77:817 78:3 79:468 80:14 
0.9610890275556832 1:5696 2:0 3:380 4:0 5:886 6:0 7:0 8:0 9:570 10:0 11:759 12:0 13:1392 14:0 15:316 16:0 17:908 18:14 19:900 20:35 21:1719 22:87 23:2036 24:291 25:1584 26:9352 27:1286 28:191 29:879 30:25 31:688 32:4 33:332 34:2 35:483 36:3 37:788 38:23 39:1061 40:247 41:930 42:4637 43:606 44:52 45:375 46:13 47:425 48:24 49:360 50:0 51:463 52:2 53:766 54:1 55:1096 56:145 57:892 58:4802 59:627 60:38 61:444 62:5 63:351 64:7 65:768 66:0 67:810 68:5 69:1545 70:17 71:2238 72:133 73:2063 74:9499 75:1256 76:343 77:755 78:3 79:566 80:0 
0.704359301612442 1:1442 2:880 3:249 4:8531 5:1873 6:22 7:839 8:0 9:2007 10:0 11:292 12:0 13:2336 14:0 15:961 16:567 17:1956 18:6814 19:957 20:3150 21:936 22:23 23:1571 24:2 25:1558 26:4 27:877 28:0 29:685 30:0 31:1459 32:7 33:657 34:2564 35:491 36:2393 37:478 38:30 39:840 40:7 41:1011 42:5 43:552 44:0 45:386 46:0 47:584 48:1 49:818 50:2046 51:488 52:2919 53:485 54:30 55:678 56:2 57:767 58:3 59:525 60:0 61:374 62:0 63:866 64:0 65:1519 66:6991 67:804 68:2985 69:990 70:9 71:1632 72:2 73:1670 74:6 75:1115 76:0 77:782 78:0 79:1489 80:6 
1 1:2227 2:5132 3:533 4:4308 5:1499 6:0 7:907 8:0 9:1233 10:0 11:701 12:0 13:991 14:0 15:1909 16:560 17:1638 18:9457 19:1203 20:60 21:1170 22:0 23:1653 24:3 25:1835 26:0 27:800 28:0 29:617 30:8 31:1084 32:472 33:594 34:4824 35:424 36:88 37:554 38:11 39:1033 40:13 41:1028 42:10 43:495 44:0 45:425 46:0 47:448 48:54 49:693 50:3761 51:412 52:1120 53:520 54:89 55:878 56:25 57:908 58:4 59:517 60:0 61:371 62:0 63:702 64:0 65:1439 66:5790 67:769 68:4138 69:867 70:70 71:1508 72:1 73:1780 74:0 75:1057 76:0 77:1110 78:0 79:1469 80:0 
1 1:1149 2:6390 3:948 4:0 5:1521 6:0 7:1041 8:0 9:1400 10:0 11:1359 12:0 13:1610 14:49 15:971 16:3561 17:1679 18:4204 19:997 20:2732 21:922 22:2779 23:1562 24:245 25:1747 26:0 27:842 28:0 29:786 30:0 31:1466 32:40 33:713 34:1889 35:459 36:1511 37:482 38:1538 39:893 40:33 41:1117 42:8 43:490 44:0 45:302 46:0 47:544 48:22 49:648 50:1550 51:411 52:1645 53:581 54:1751 55:871 56:52 57:873 58:2 59:558 60:0 61:396 62:0 63:662 64:0 65:1259 66:4728 67:721 68:2961 69:961 70:2175 71:1702 72:125 73:2068 74:8 75:1015 76:0 77:896 78:0 79:1378 80:4 
1 1:1227 2:6299 3:882 4:3270 5:1716 6:0 7:1304 8:0 9:1577 10:0 11:996 12:0 13:1439 14:0 15:859 16:431 17:1444 18:9483 19:940 20:38 21:925 22:0 23:1844 24:0 25:1841 26:1 27:795 28:0 29:655 30:5 31:1554 32:472 33:903 34:4856 35:492 36:105 37:385 38:6 39:762 40:4 41:940 42:7 43:418 44:0 45:353 46:1 47:747 48:21 49:781 50:3760 51:372 52:1179 53:499 54:45 55:840 56:9 57:1005 58:3 59:429 60:0 61:317 62:0 63:758 64:4 65:1719 66:7139 67:579 68:2811 69:751 70:47 71:1577 72:1 73:1914 74:2 75:847 76:0 77:929 78:0 79:1684 80:0 
1 1:1411 2:0 3:834 4:0 5:1796 6:0 7:1014 8:1950 9:1773 10:8050 11:689 12:0 13:1561 14:0 15:922 16:0 17:2059 18:1516 19:994 20:471 21:937 22:2397 23:1423 24:913 25:1643 26:3443 27:784 28:145 29:635 30:39 31:1526 32:1076 33:652 34:379 35:431 36:215 37:477 38:1370 39:894 40:363 41:1120 42:1472 43:493 44:65 45:464 46:27 47:469 48:1109 49:958 50:118 51:499 52:102 53:484 54:1383 55:656 56:641 57:769 58:1892 59:472 60:80 61:419 62:27 63:743 64:757 65:1300 66:885 67:680 68:283 69:881 70:2961 71:1834 72:938 73:1960 74:2950 75:1009 76:201 77:857 78:81 79:1479 80:1702 
1 1:981 2:0 3:1147 4:0 5:1666 6:0 7:1207 8:0 9:1237 10:3971 11:1260 12:6029 13:1633 14:0 15:870 16:0 17:1792 18:387 19:968 20:52 21:915 22:1492 23:1572 24:848 25:1844 26:3567 27:768 28:1840 29:645 30:113 31:1495 32:1702 33:559 34:119 35:378 36:91 37:562 38:916 39:958 40:446 41:1070 42:1112 43:505 44:992 45:412 46:43 47:556 48:1282 49:821 50:54 51:449 52:112 53:488 54:898 55:735 56:618 57:797 58:1408 59:446 60:1121 61:448 62:57 63:816 64:732 65:1031 66:221 67:739 68:98 69:927 70:1895 71:1985 72:921 73:2302 74:2078 75:976 76:2474 77:787 78:186 79:1254 80:2126 
0.2931443624884739 1:1066 2:0 3:985 4:0 5:1774 6:0 7:1133 8:0 9:1350 10:8613 11:1210 12:1387 13:1539 14:0 15:943 16:0 17:1805 18:453 19:1062 20:0 21:923 22:556 23:1532 24:2263 25:1560 26:5042 27:678 28:360 29:647 30:30 31:1794 32:1296 33:507 34:172 35:412 36:30 37:520 38:534 39:1109 40:1101 41:1158 42:1337 43:469 44:752 45:351 46:41 47:474 48:1034 49:907 50:63 51:506 52:16 53:458 54:609 55:736 56:1015 57:753 58:1904 59:480 60:720 61:430 62:38 63:731 64:635 65:1226 66:178 67:686 68:64 69:967 70:533 71:1858 72:3266 73:2012 74:3941 75:1162 76:326 77:812 78:125 79:1277 80:1567 
1 1:1423 2:5959 3:1243 4:2748 5:1675 6:0 7:1474 8:0 9:1054 10:10 11:903 12:241 13:891 14:208 15:1336 16:833 17:979 18:5994 19:850 20:3624 21:1467 22:19 23:1450 24:4 25:2138 26:116 27:1270 28:65 29:985 30:43 31:861 32:135 33:467 34:3939 35:495 36:976 37:475 38:34 39:597 40:4 41:1121 42:13 43:756 44:5 45:588 46:2 47:500 48:28 49:513 50:2843 51:503 52:2102 53:553 54:3 55:825 56:0 57:958 58:28 59:635 60:7 61:544 62:0 63:469 64:16 65:1277 66:5414 67:1082 68:4576 69:1267 70:7 71:1375 72:3 73:1515 74:0 75:1144 76:0 77:1125 78:0 79:1214 80:1 
1 1:1714 2:6637 3:652 4:0 5:699 6:0 7:1969 8:2 9:2023 10:520 11:655 12:1221 13:599 14:587 15:1690 16:1033 17:988 18:5142 19:1037 20:4307 21:1185 22:156 23:2024 24:2 25:1879 26:110 27:815 28:128 29:857 30:51 31:1214 32:106 33:561 34:2894 35:346 36:1283 37:474 38:307 39:1203 40:25 41:1075 42:99 43:378 44:204 45:344 46:48 47:620 48:141 49:696 50:2376 51:320 52:1358 53:411 54:488 55:1032 56:74 57:921 58:130 59:474 60:77 61:428 62:76 63:718 64:420 65:1364 66:7547 67:702 68:1423 69:845 70:503 71:2276 72:77 73:2334 74:93 75:707 76:118 77:685 78:60 79:1086 80:180 
1 1:1201 2:7281 3:675 4:537 5:861 6:33 7:2314 8:32 9:2163 10:688 11:827 12:614 13:658 14:237 15:1302 16:580 17:1061 18:6600 19:1025 20:1675 21:1180 22:2 23:2199 24:0 25:1882 26:146 27:944 28:66 29:690 30:172 31:1020 32:1338 33:607 34:3042 35:424 36:1533 37:484 38:7 39:1055 40:3 41:968 42:170 43:463 44:70 45:329 46:39 47:670 48:136 49:563 50:2545 51:341 52:1455 53:391 54:167 55:1170 56:68 57:1034 58:551 59:427 60:82 61:410 62:34 63:665 64:98 65:1074 66:5980 67:804 68:3499 69:968 70:399 71:2152 72:55 73:2130 74:54 75:910 76:10 77:803 78:0 79:1158 80:3 
1 1:1510 2:6729 3:784 4:10 5:886 6:0 7:2086 8:0 9:1945 10:263 11:732 12:1117 13:706 14:446 15:1353 16:1435 17:1036 18:4236 19:1074 20:5198 21:1434 22:69 23:1705 24:8 25:1594 26:216 27:1010 28:72 29:933 30:49 31:1214 32:152 33:718 34:2994 35:334 36:1299 37:435 38:285 39:1011 40:18 41:1097 42:73 43:417 44:132 45:340 46:69 47:648 48:129 49:539 50:2349 51:315 52:1455 53:378 54:382 55:1192 56:110 57:1192 58:117 59:392 60:110 61:393 62:89 63:598 64:389 65:1333 66:7547 67:786 68:1863 69:1095 70:437 71:2130 72:37 73:2001 74:4 75:702 76:17 77:774 78:6 79:1178 80:89 
1 1:1278 2:7225 3:671 4:296 5:797 6:70 7:1970 8:58 9:2387 10:1414 11:865 12:436 13:648 14:178 15:1383 16:322 17:966 18:6067 19:782 20:2922 21:1041 22:6 23:2086 24:1 25:2146 26:189 27:1169 28:95 29:931 30:142 31:879 32:577 33:690 34:3188 35:381 36:1234 37:442 38:65 39:1008 40:13 41:1056 42:244 43:449 44:61 45:352 46:93 47:622 48:104 49:681 50:2626 51:336 52:1059 53:316 54:374 55:1087 56:146 57:1031 58:597 59:435 60:149 61:424 62:13 63:690 64:36 65:929 66:3880 67:658 68:4121 69:988 70:991 71:2305 72:324 73:2305 74:639 75:1012 76:45 77:797 78:0 79:1006 80:0 
1 1:959 2:9276 3:1227 4:309 5:2019 6:9 7:1554 8:24 9:1077 10:364 11:980 12:4 13:1093 14:4 15:1091 16:10 17:889 18:2221 19:842 20:7347 21:1091 22:255 23:1479 24:62 25:1430 26:52 27:1570 28:25 29:1706 30:20 31:993 32:18 33:464 34:680 35:394 36:3508 37:582 38:315 39:692 40:50 41:707 42:354 43:693 44:4 45:1033 46:1 47:434 48:87 49:392 50:862 51:636 52:3729 53:610 54:318 55:704 56:8 57:932 58:17 59:734 60:4 61:550 62:1 63:442 64:61 65:968 66:6286 67:799 68:3646 69:1119 70:58 71:1441 72:1 73:1991 74:0 75:1582 76:1 77:1134 78:1 79:966 80:8 
1 1:1060 2:4399 3:1222 4:3721 5:1585 6:0 7:1023 8:0 9:1177 10:314 11:1296 12:1101 13:1497 14:105 15:1140 16:360 17:1164 18:6541 19:1065 20:3413 21:1395 22:8 23:1571 24:3 25:1535 26:16 27:1279 28:10 29:1027 30:0 31:963 32:8 33:570 34:1855 35:527 36:2953 37:596 38:147 39:663 40:0 41:702 42:9 43:676 44:13 45:635 46:4 47:632 48:20 49:467 50:2352 51:466 52:1575 53:663 54:807 55:845 56:7 57:922 58:157 59:607 60:66 61:558 62:18 63:472 64:19 65:814 66:4863 67:807 68:2344 69:949 70:2052 71:2106 72:30 73:2403 74:592 75:1398 76:103 77:862 78:0 79:661 80:16 
1 1:1320 2:6743 3:1345 4:3121 5:1036 6:93 7:1362 8:10 9:1438 10:14 11:1146 12:0 13:1349 14:0 15:1005 16:19 17:1124 18:8481 19:1189 20:1261 21:1224 22:2 23:1440 24:0 25:1453 26:7 27:1293 28:9 29:1040 30:5 31:1236 32:235 33:551 34:3561 35:511 36:1303 37:657 38:9 39:820 40:4 41:777 42:53 43:614 44:36 45:538 46:15 47:531 48:20 49:526 50:2839 51:485 52:1195 53:540 54:243 55:734 56:46 57:929 58:544 59:610 60:76 61:498 62:9 63:678 64:49 65:948 66:2426 67:1089 68:7385 69:1254 70:142 71:1740 72:7 73:1902 74:39 75:1147 76:0 77:1038 78:0 79:882 80:0 
1 1:1115 2:2745 3:1281 4:5941 5:1686 6:46 7:852 8:0 9:1180 10:322 11:1243 12:757 13:1305 14:68 15:1338 16:120 17:1361 18:4131 19:1035 20:5799 21:1374 22:42 23:1011 24:8 25:1295 26:5 27:1402 28:6 29:1296 30:5 31:1226 32:4 33:690 34:1452 35:587 36:2898 37:555 38:622 39:614 40:4 41:626 42:7 43:694 44:4 45:570 46:0 47:662 48:12 49:527 50:2097 51:447 52:1290 53:601 54:1331 55:995 56:18 57:961 58:25 59:544 60:111 61:454 62:10 63:472 64:118 65:953 66:3950 67:1173 68:2757 69:1264 70:2558 71:1415 72:183 73:1555 74:429 75:1264 76:68 77:1202 78:5 79:1174 80:51 
0.1768203450311647 1:232 2:0 3:534 4:0 5:2057 6:0 7:2573 8:0 9:2720 10:10000 11:1169 12:0 13:524 14:0 15:191 16:0 17:1053 18:111 19:1110 20:1752 21:1415 22:1246 23:1816 24:292 25:1517 26:6573 27:1065 28:25 29:1086 30:0 31:937 32:0 33:442 34:53 35:463 36:525 37:689 38:771 39:861 40:155 41:962 42:3482 43:633 44:11 45:488 46:2 47:462 48:1 49:575 50:303 51:430 52:500 53:514 54:163 55:948 56:28 57:949 58:3934 59:540 60:48 61:553 62:8 63:492 64:16 65:847 66:13 67:769 68:2080 69:1535 70:136 71:2107 72:26 73:2000 74:7648 75:1345 76:93 77:762 78:3 79:634 80:1 
1 1:1056 2:0 3:1337 4:3893 5:1413 6:1507 7:1409 8:593 9:1265 10:4002 11:1412 12:4 13:1270 14:0 15:839 16:0 17:2789 18:2 19:1152 20:1443 21:869 22:1239 23:984 24:361 25:844 26:6939 27:1127 28:15 29:1001 30:0 31:1233 32:0 33:1692 34:2 35:426 36:692 37:312 38:370 39:259 40:159 41:299 42:3732 43:577 44:46 45:520 46:0 47:917 48:0 49:638 50:20 51:629 52:747 53:787 54:102 55:675 56:42 57:594 58:4088 59:581 60:0 61:622 62:0 63:474 64:0 65:1058 66:825 67:1163 68:2289 69:1422 70:6 71:1460 72:0 73:1400 74:6741 75:1027 76:124 77:1259 78:7 79:1211 80:8 
1 1:985 2:3148 3:706 4:0 5:1600 6:0 7:1343 8:0 9:892 10:6681 11:531 12:159 13:1965 14:7 15:1978 16:5 17:974 18:1114 19:3256 20:310 21:900 22:30 23:316 24:160 25:530 26:7923 27:1116 28:349 29:2171 30:35 31:736 32:80 33:1404 34:1618 35:624 36:5 37:516 38:0 39:563 40:6 41:681 42:3339 43:374 44:29 45:457 46:1 47:381 48:0 49:1061 50:3217 51:543 52:138 53:498 54:2 55:543 56:0 57:415 58:1625 59:418 60:15 61:609 62:0 63:913 64:1 65:1188 66:7939 67:1003 68:334 69:1012 70:0 71:1420 72:1 73:987 74:1438 75:901 76:274 77:1687 78:8 79:1801 80:6 
1 1:998 2:1985 3:1190 4:26 5:854 6:23 7:2243 8:222 9:2499 10:4237 11:575 12:231 13:603 14:620 15:1037 16:2655 17:990 18:180 19:810 20:2503 21:920 22:3640 23:2035 24:1177 25:2495 26:2480 27:1078 28:2 29:757 30:2 31:915 32:16 33:498 34:1542 35:286 36:99 37:379 38:117 39:1311 40:444 41:1185 42:2227 43:288 44:19 45:367 46:15 47:686 48:537 49:453 50:1421 51:449 52:29 53:432 54:4 55:1100 56:151 57:1183 58:1645 59:427 60:51 61:452 62:28 63:504 64:1671 65:626 66:5688 67:542 68:159 69:960 70:13 71:2816 72:82 73:2424 74:3098 75:810 76:82 77:860 78:45 79:961 80:833 
1 1:1216 2:4 3:1173 4:0 5:1165 6:3837 7:1241 8:2081 9:1381 10:3835 11:1292 12:239 13:1165 14:1 15:1367 16:3 17:1389 18:520 19:1077 20:284 21:1209 22:844 23:1523 24:2054 25:1599 26:5124 27:1001 28:413 29:1023 30:121 31:1180 32:639 33:496 34:189 35:510 36:251 37:571 38:436 39:790 40:201 41:987 42:471 43:617 44:1090 45:479 46:259 47:549 48:2102 49:639 50:343 51:517 52:567 53:526 54:717 55:733 56:744 57:693 58:487 59:592 60:328 61:594 62:184 63:706 64:1631 65:1102 66:433 67:1087 68:840 69:1547 70:1489 71:1436 72:1798 73:1352 74:2553 75:1192 76:603 77:1083 78:137 79:1202 80:2147 
1 1:1439 2:16 3:1291 4:3907 5:1270 6:4456 7:1005 8:1125 9:1018 10:467 11:1218 12:26 13:1336 14:2 15:1423 16:2 17:1159 18:293 19:1102 20:551 21:1284 22:936 23:1670 24:651 25:1477 26:6684 27:1133 28:671 29:1175 30:46 31:1000 32:169 33:480 34:341 35:472 36:427 37:479 38:298 39:985 40:58 41:858 42:3451 43:659 44:395 45:557 46:7 47:510 48:23 49:601 50:322 51:614 52:934 53:535 54:671 55:654 56:114 57:677 58:2456 59:602 60:439 61:630 62:17 63:687 64:45 65:885 66:161 67:860 68:1573 69:1058 70:815 71:2482 72:86 73:1847 74:6236 75:996 76:1102 77:866 78:2 79:1007 80:24 
1 1:1223 2:774 3:1404 4:8431 5:1035 6:794 7:918 8:0 9:1136 10:0 11:1234 12:0 13:1593 14:0 15:1457 16:0 17:1513 18:2080 19:1259 20:3663 21:1308 22:1946 23:1289 24:604 25:1081 26:1624 27:1012 28:20 29:1141 30:5 31:1397 32:58 33:484 34:148 35:504 36:1899 37:425 38:1162 39:723 40:143 41:919 42:961 43:758 44:106 45:650 46:53 47:537 48:527 49:481 50:703 51:501 52:2338 53:497 54:160 55:795 56:73 57:976 58:440 59:661 60:163 61:553 62:96 63:536 64:1028 65:1131 66:917 67:897 68:4228 69:1116 70:366 71:1578 72:116 73:1894 74:717 75:1335 76:1010 77:1047 78:379 79:1003 80:2266 
1 1:1146 2:0 3:1231 4:243 5:1232 6:1453 7:904 8:828 9:1397 10:7466 11:1326 12:10 13:1495 14:0 15:1270 16:0 17:703 18:128 19:983 20:84 21:1183 22:303 23:1093 24:472 25:1160 26:9008 27:2309 28:3 29:1804 30:2 31:764 32:1 33:501 34:89 35:511 36:0 37:1732 38:13 39:819 40:29 41:408 42:4762 43:338 44:21 45:396 46:8 47:297 48:77 49:493 50:343 51:347 52:3 53:2054 54:0 55:980 56:0 57:208 58:4279 59:174 60:30 61:304 62:12 63:439 64:333 65:935 66:1537 67:1047 68:1170 69:2284 70:105 71:1445 72:143 73:818 74:6809 75:1050 76:64 77:1375 78:11 79:1046 80:161 
1 1:1297 2:505 3:446 4:19 5:464 6:2 7:1419 8:461 9:2174 10:1376 11:584 12:836 13:1242 14:1342 15:2373 16:5458 17:1574 18:8229 19:842 20:49 21:776 22:5 23:1995 24:9 25:1432 26:1004 27:670 28:18 29:887 30:7 31:1824 32:679 33:661 34:2264 35:413 36:1211 37:472 38:15 39:1054 40:7 41:750 42:978 43:450 44:23 45:422 46:86 47:778 48:416 49:818 50:1598 51:496 52:1704 53:517 54:489 55:643 56:60 57:665 58:637 59:482 60:18 61:580 62:295 63:799 64:199 65:1176 66:2420 67:1008 68:1957 69:1271 70:2798 71:1545 72:806 73:1540 74:387 75:1283 76:51 77:1159 78:718 79:1018 80:863 
1 1:1196 2:1 3:1126 4:8 5:920 6:5 7:1326 8:286 9:1376 10:2271 11:1926 12:448 13:932 14:1442 15:1198 16:5540 17:2455 18:3173 19:1169 20:99 21:979 22:44 23:803 24:148 25:713 26:2099 27:627 28:310 29:945 30:116 31:2311 32:4011 33:774 34:2623 35:546 36:28 37:553 38:8 39:647 40:16 41:632 42:258 43:515 44:53 45:562 46:29 47:772 48:1984 49:750 50:482 51:496 52:11 53:543 54:5 55:687 56:12 57:579 58:1021 59:536 60:395 61:641 62:256 63:768 64:2818 65:1500 66:6122 67:883 68:24 69:942 70:3 71:1271 72:4 73:896 74:1914 75:976 76:625 77:1433 78:116 79:2099 80:1192 
1 1:462 2:2656 3:242 4:692 5:1038 6:277 7:4446 8:425 9:2945 10:472 11:400 12:259 13:229 14:1519 15:239 16:3699 17:923 18:2369 19:629 20:2559 21:915 22:269 23:2665 24:396 25:2319 26:3495 27:976 28:555 29:699 30:188 31:874 32:170 33:491 34:1033 35:445 36:1245 37:606 38:583 39:917 40:142 41:975 42:1737 43:574 44:98 45:477 46:74 47:515 48:87 49:536 50:1441 51:427 52:1077 53:523 54:272 55:872 56:98 57:918 58:1761 59:630 60:153 61:516 62:80 63:577 64:117 65:1096 66:4919 67:953 68:2584 69:1110 70:219 71:1717 72:164 73:1851 74:716 75:1300 76:497 77:947 78:300 79:1025 80:602 
1 1:1843 2:3174 3:1153 4:2572 5:1006 6:1283 7:1016 8:51 9:931 10:1718 11:815 12:511 13:1248 14:91 15:1989 16:600 17:703 18:1622 19:1597 20:4583 21:2599 22:1322 23:1840 24:133 25:1225 26:1806 27:748 28:165 29:689 30:18 31:599 32:352 33:431 34:568 35:618 36:769 37:1069 38:607 39:958 40:246 41:773 42:2366 43:405 44:319 45:379 46:35 47:367 48:91 49:457 50:848 51:547 52:176 53:575 54:207 55:901 56:114 57:862 58:2320 59:588 60:790 61:575 62:167 63:495 64:379 65:967 66:895 67:973 68:3957 69:1193 70:3125 71:1102 72:211 73:1421 74:656 75:1304 76:332 77:1672 78:143 79:1368 80:681 
1 1:1247 2:19 3:1273 4:1555 5:1024 6:1431 7:1108 8:353 9:1398 10:6624 11:1577 12:16 13:1397 14:2 15:976 16:0 17:2300 18:594 19:1653 20:2040 21:968 22:1392 23:771 24:450 25:869 26:5405 27:949 28:93 29:1055 30:17 31:1436 32:9 33:545 34:3 35:678 36:239 37:762 38:269 39:578 40:80 41:622 42:4348 43:729 44:9 45:649 46:18 47:436 48:34 49:723 50:59 51:704 52:454 53:725 54:409 55:640 56:30 57:565 58:3686 59:538 60:61 61:550 62:49 63:555 64:252 65:884 66:165 67:851 68:96 69:2082 70:243 71:1438 72:21 73:849 74:8021 75:939 76:879 77:1181 78:198 79:1776 80:378 
1 1:1780 2:2120 3:1570 4:3737 5:1259 6:435 7:1219 8:202 9:698 10:3155 11:790 12:352 13:1201 14:0 15:1482 16:0 17:1662 18:4233 19:772 20:2984 21:1115 22:460 23:1400 24:53 25:1547 26:2091 27:753 28:171 29:869 30:6 31:1883 32:2 33:358 34:618 35:421 36:2203 37:548 38:423 39:1227 40:24 41:1158 42:1480 43:485 44:138 45:401 46:22 47:403 48:91 49:441 50:569 51:329 52:626 53:503 54:196 55:1248 56:222 57:1281 58:2135 59:414 60:253 61:336 62:91 63:449 64:908 65:379 66:518 67:454 68:2170 69:1074 70:679 71:3163 72:623 73:3023 74:3643 75:965 76:759 77:517 78:80 79:425 80:1528 
1 1:1040 2:3271 3:502 4:91 5:840 6:8 7:3815 8:83 9:708 10:6192 11:365 12:354 13:683 14:0 15:2048 16:0 17:1899 18:5544 19:541 20:3596 21:357 22:15 23:436 24:55 25:533 26:656 27:1089 28:124 29:2438 30:0 31:2708 32:9 33:706 34:566 35:380 36:784 37:505 38:300 39:745 40:636 41:867 42:2479 43:519 44:228 45:647 46:0 47:630 48:7 49:474 50:55 51:515 52:644 53:544 54:1231 55:962 56:739 57:1073 58:1814 59:540 60:192 61:416 62:18 63:475 64:306 65:989 66:202 67:795 68:3109 69:1122 70:3488 71:1734 72:1512 73:2005 74:1239 75:1257 76:128 77:1130 78:13 79:969 80:308 
1 1:2695 2:7927 3:743 4:352 5:536 6:20 7:762 8:23 9:1218 10:127 11:914 12:537 13:723 14:463 15:2410 16:551 17:789 18:3502 19:808 20:6241 21:1800 22:199 23:2187 24:3 25:1530 26:2 27:1066 28:8 29:945 30:7 31:874 32:40 33:432 34:1638 35:382 36:640 37:655 38:168 39:855 40:16 41:1123 42:225 43:629 44:223 45:404 46:95 47:519 48:1994 49:401 50:838 51:621 52:275 53:1061 54:336 55:1119 56:26 57:785 58:165 59:429 60:85 61:281 62:64 63:303 64:3211 65:990 66:3282 67:886 68:503 69:1845 70:4 71:1743 72:1 73:1410 74:886 75:761 76:221 77:878 78:614 79:1486 80:4490 
1 1:621 2:888 3:523 4:4432 5:1055 6:927 7:1924 8:460 9:2547 10:2854 11:1582 12:240 13:1002 14:91 15:745 16:107 17:1049 18:216 19:929 20:5757 21:1603 22:1843 23:1941 24:366 25:1414 26:1800 27:990 28:10 29:1011 30:1 31:1063 32:7 33:416 34:533 35:427 36:1100 37:583 38:546 39:999 40:520 41:1126 42:2155 43:684 44:120 45:379 46:4 47:385 48:21 49:569 50:408 51:627 52:127 53:744 54:131 55:934 56:184 57:773 58:3577 59:492 60:491 61:409 62:14 63:453 64:68 65:1222 66:647 67:1429 68:1227 69:1768 70:134 71:1473 72:123 73:1520 74:6524 75:751 76:827 77:934 78:112 79:903 80:405 
1 1:631 2:5 3:1626 4:4900 5:1997 6:1752 7:1417 8:1025 9:1462 10:2303 11:916 12:14 13:1233 14:0 15:717 16:2 17:784 18:1049 19:875 20:5111 21:1222 22:566 23:2080 24:43 25:1818 26:2798 27:1282 28:258 29:1163 30:27 31:776 32:149 33:533 34:363 35:518 36:1276 37:658 38:1506 39:1021 40:88 41:848 42:1370 43:555 44:297 45:479 46:22 47:389 48:77 49:349 50:575 51:479 52:775 53:588 54:985 55:1035 56:427 57:1117 58:1940 59:526 60:263 61:499 62:20 63:406 64:16 65:819 66:2384 67:1004 68:2258 69:1346 70:1811 71:1815 72:502 73:1776 74:1830 75:1163 76:949 77:944 78:138 79:1133 80:128 
1 1:1658 2:7 3:1340 4:939 5:1127 6:6163 7:1020 8:2634 9:815 10:257 11:942 12:0 13:1224 14:0 15:1873 16:0 17:1313 18:463 19:706 20:2588 21:995 22:2815 23:2297 24:2300 25:1810 26:938 27:797 28:293 29:596 30:10 31:1487 32:594 33:698 34:2637 35:322 36:675 37:381 38:371 39:996 40:584 41:1141 42:242 43:376 44:86 45:332 46:17 47:754 48:389 49:773 50:406 51:304 52:346 53:446 54:269 55:953 56:1407 57:913 58:1913 59:395 60:103 61:371 62:19 63:845 64:537 65:1851 66:343 67:870 68:419 69:966 70:2043 71:1545 72:3023 73:1323 74:2702 75:839 76:253 77:789 78:64 79:1817 80:1153 
1 1:1117 2:123 3:1120 4:3391 5:1443 6:3364 7:1193 8:856 9:1288 10:2260 11:1666 12:6 13:1244 14:0 15:928 16:0 17:864 18:1165 19:1110 20:1896 21:1236 22:4300 23:1830 24:905 25:1738 26:1174 27:1151 28:185 29:1120 30:56 31:952 32:319 33:542 34:681 35:504 36:908 37:619 38:1167 39:831 40:229 41:841 42:1218 43:608 44:248 45:533 46:42 47:522 48:507 49:660 50:1965 51:505 52:280 53:615 54:300 55:688 56:202 57:791 58:711 59:635 60:70 61:494 62:23 63:612 64:1450 65:1392 66:8153 67:843 68:104 69:1109 70:38 71:1388 72:61 73:1318 74:941 75:1189 76:97 77:1124 78:43 79:1637 80:563 
1 1:1184 2:978 3:1691 4:7549 5:1459 6:1266 7:1050 8:82 9:1184 10:104 11:1153 12:15 13:1291 14:1 15:988 16:5 17:1167 18:1961 19:1101 20:4648 21:1081 22:102 23:1541 24:145 25:1565 26:1212 27:1042 28:1627 29:1200 30:171 31:1303 32:134 33:669 34:1221 35:396 36:51 37:424 38:17 39:777 40:69 41:963 42:2688 43:641 44:400 45:525 46:106 47:605 48:449 49:607 50:466 51:534 52:509 53:668 54:241 55:769 56:134 57:793 58:3402 59:537 60:129 61:434 62:13 63:658 64:106 65:1797 66:2247 67:1440 68:975 69:1222 70:303 71:931 72:250 73:1017 74:5584 75:968 76:102 77:1097 78:35 79:1529 80:505 
1 1:1862 2:55 3:1396 4:7715 5:1290 6:510 7:794 8:471 9:965 10:1209 11:969 12:33 13:1265 14:3 15:1458 16:4 17:1081 18:1928 19:1043 20:920 21:1317 22:52 23:1753 24:108 25:1596 26:2303 27:1056 28:782 29:1083 30:552 31:1072 32:3356 33:678 34:925 35:588 36:411 37:526 38:73 39:627 40:109 41:757 42:955 43:549 44:448 45:557 46:177 47:717 48:1902 49:712 50:946 51:494 52:631 53:545 54:128 55:749 56:51 57:737 58:1369 59:551 60:204 61:511 62:273 63:700 64:1397 65:1227 66:2228 67:908 68:2738 69:1095 70:240 71:1723 72:72 73:1720 74:1431 75:1016 76:638 77:934 78:362 79:1378 80:2292 
0.3593256733802334 1:1069 2:13 3:1359 4:3253 5:1285 6:1062 7:1175 8:2696 9:1036 10:2931 11:1379 12:44 13:1426 14:0 15:1270 16:2 17:1172 18:555 19:1163 20:4133 21:1266 22:2982 23:1432 24:564 25:1404 26:1307 27:1193 28:197 29:1288 30:110 31:1082 32:153 33:638 34:310 35:657 36:2406 37:534 38:820 39:640 40:109 41:660 42:1078 43:545 44:118 45:570 46:100 47:756 48:59 49:764 50:219 51:552 52:128 53:474 54:341 55:735 56:1252 57:618 58:2134 59:528 60:367 61:573 62:211 63:755 64:348 65:1113 66:830 67:1281 68:505 69:1242 70:1956 71:1394 72:1768 73:1572 74:2931 75:1139 76:588 77:1144 78:219 79:1115 80:1203 
1 1:1166 2:6 3:1103 4:6019 5:956 6:2091 7:1313 8:1276 9:1288 10:606 11:1290 12:2 13:1551 14:0 15:1332 16:0 17:783 18:1523 19:1138 20:2353 21:1271 22:1404 23:1591 24:993 25:1597 26:2302 27:1360 28:601 29:1283 30:176 31:977 32:648 33:466 34:993 35:454 36:1146 37:538 38:1211 39:808 40:228 41:1060 42:670 43:787 44:482 45:559 46:70 47:327 48:200 49:769 50:525 51:420 52:206 53:409 54:286 55:1147 56:1157 57:850 58:1353 59:378 60:810 61:387 62:47 63:641 64:616 65:878 66:1834 67:799 68:1308 69:1132 70:1195 71:2179 72:1846 73:2004 74:2807 75:1156 76:680 77:1080 78:88 79:772 80:242 
1 1:1185 2:560 3:1300 4:6583 5:1238 6:585 7:1297 8:150 9:1348 10:1944 11:1181 12:168 13:1219 14:7 15:1232 16:3 17:1378 18:1645 19:1100 20:2904 21:1349 22:1465 23:1287 24:375 25:1318 26:2821 27:1139 28:246 29:1124 30:32 31:1305 32:512 33:485 34:1314 35:543 36:735 37:597 38:729 39:814 40:162 41:827 42:1542 43:738 44:125 45:535 46:21 47:462 48:373 49:465 50:2123 51:522 52:985 53:592 54:75 55:991 56:60 57:930 58:1161 59:550 60:350 61:543 62:52 63:407 64:193 65:1143 66:3440 67:1192 68:3204 69:1085 70:360 71:1607 72:99 73:1587 74:1145 75:1193 76:566 77:1009 78:209 79:1186 80:976 
1 1:827 2:7 3:731 4:0 5:2112 6:0 7:1381 8:0 9:2471 10:7271 11:391 12:2706 13:1485 14:12 15:602 16:3 17:749 18:10 19:1032 20:658 21:1513 22:563 23:1730 24:316 25:1704 26:3646 27:1218 28:4763 29:1019 30:16 31:1034 32:29 33:332 34:67 35:467 36:659 37:853 38:634 39:1004 40:332 41:907 42:2251 43:664 44:874 45:446 46:79 47:327 48:105 49:253 50:311 51:397 52:818 53:742 54:358 55:1340 56:140 57:1090 58:2070 59:578 60:1149 61:354 62:80 63:246 64:74 65:629 66:562 67:737 68:1964 69:1285 70:235 71:3076 72:85 73:1939 74:4218 75:1185 76:2523 77:661 78:225 79:487 80:188 
1 1:1496 2:83 3:1409 4:1189 5:1194 6:6891 7:959 8:1478 9:882 10:352 11:1142 12:1 13:1398 14:0 15:1519 16:6 17:1751 18:1112 19:1160 20:524 21:1035 22:3143 23:1198 24:2546 25:1200 26:1095 27:867 28:1048 29:1225 30:212 31:1563 32:320 33:703 34:918 35:537 36:344 37:504 38:2408 39:715 40:781 41:806 42:169 43:523 44:143 45:539 46:64 47:673 48:173 49:619 50:2400 51:440 52:205 53:446 54:1118 55:790 56:336 57:880 58:262 59:511 60:203 61:598 62:118 63:716 64:358 65:1350 66:4198 67:1017 68:814 69:1005 70:1706 71:1495 72:322 73:1493 74:1381 75:973 76:511 77:1142 78:348 79:1524 80:720 
1 1:1816 2:28 3:1187 4:2270 5:901 6:2116 7:857 8:1656 9:780 10:2292 11:924 12:1315 13:1462 14:288 15:2073 16:36 17:1518 18:972 19:980 20:536 21:1061 22:960 23:1544 24:433 25:1048 26:2859 27:936 28:373 29:1293 30:230 31:1619 32:3636 33:792 34:1354 35:588 36:573 37:605 38:882 39:567 40:196 41:423 42:951 43:440 44:334 45:701 46:195 47:885 48:518 49:736 50:1866 51:525 52:117 53:535 54:158 55:743 56:74 57:570 58:483 59:447 60:324 61:557 62:94 63:887 64:1884 65:1503 66:3168 67:1095 68:505 69:923 70:474 71:1231 72:181 73:1149 74:972 75:1057 76:612 77:1328 78:582 79:1714 80:3506 
1 1:214 2:1306 3:293 4:24 5:726 6:261 7:2297 8:4337 9:4350 10:707 11:1529 12:1638 13:353 14:757 15:238 16:971 17:892 18:4453 19:649 20:28 21:1253 22:25 23:3224 24:56 25:1330 26:932 27:593 28:159 29:632 30:153 31:1427 32:4195 33:826 34:1922 35:305 36:15 37:437 38:19 39:711 40:57 41:760 42:320 43:475 44:29 45:442 46:40 47:1044 48:2597 49:248 50:2464 51:276 52:21 53:546 54:18 55:1376 56:289 57:1654 58:423 59:451 60:50 61:252 62:87 63:197 64:1649 65:554 66:3461 67:505 68:103 69:1207 70:128 71:3370 72:827 73:2425 74:361 75:873 76:165 77:474 78:402 79:591 80:4552 
1 1:1319 2:1913 3:1427 4:64 5:1264 6:232 7:1303 8:2814 9:1155 10:4855 11:1011 12:111 13:1281 14:11 15:1240 16:2 17:823 18:2662 19:1010 20:2011 21:1382 22:2451 23:1720 24:844 25:1621 26:753 27:1371 28:137 29:1230 30:114 31:844 32:1029 33:413 34:800 35:496 36:315 37:603 38:973 39:941 40:1266 41:1159 42:756 43:576 44:103 45:416 46:97 47:396 48:690 49:495 50:1303 51:440 52:486 53:618 54:139 55:861 56:361 57:853 58:1608 59:622 60:353 61:524 62:151 63:586 64:599 65:837 66:1890 67:1050 68:792 69:1232 70:288 71:2087 72:389 73:1682 74:3071 75:1198 76:377 77:929 78:377 79:985 80:2817 
1 1:742 2:2748 3:1455 4:367 5:1286 6:14 7:1348 8:204 9:1622 10:3307 11:1369 12:1648 13:1502 14:19 15:676 16:1693 17:1028 18:3492 19:973 20:948 21:1104 22:640 23:1582 24:685 25:1730 26:2462 27:1378 28:575 29:1177 30:68 31:1028 32:1129 33:658 34:2274 35:536 36:1019 37:603 38:173 39:743 40:258 41:774 42:627 43:526 44:83 45:538 46:35 47:621 48:531 49:695 50:2273 51:485 52:458 53:593 54:130 55:719 56:336 57:740 58:749 59:524 60:96 61:517 62:76 63:726 64:883 65:1390 66:3843 67:1118 68:294 69:1168 70:290 71:1344 72:464 73:1246 74:936 75:1129 76:710 77:1058 78:199 79:1547 80:3266 
1 1:319 2:37 3:482 4:1636 5:1224 6:2404 7:3256 8:832 9:2765 10:2213 11:742 12:2806 13:609 14:58 15:603 16:15 17:396 18:2976 19:690 20:4161 21:1212 22:19 23:3147 24:146 25:2731 26:1181 27:921 28:66 29:558 30:21 31:344 32:1430 33:293 34:1448 35:366 36:1833 37:568 38:37 39:1460 40:133 41:1430 42:696 43:385 44:12 45:320 46:5 47:179 48:838 49:240 50:1309 51:336 52:1872 53:503 54:50 55:1616 56:194 57:1370 58:611 59:434 60:13 61:276 62:4 63:226 64:947 65:511 66:3647 67:577 68:3469 69:1214 70:64 71:2633 72:142 73:2982 74:680 75:935 76:51 77:675 78:86 79:472 80:1862 
1 1:827 2:15 3:473 4:161 5:1001 6:103 7:3783 8:457 9:1874 10:9244 11:816 12:2 13:589 14:15 15:636 16:4 17:996 18:4493 19:794 20:1100 21:1104 22:52 23:2564 24:110 25:2297 26:3278 27:914 28:393 29:631 30:294 31:699 32:280 33:356 34:1209 35:382 36:145 37:592 38:15 39:1250 40:122 41:1101 42:3030 43:535 44:194 45:433 46:175 47:351 48:109 49:655 50:2406 51:298 52:25 53:471 54:6 55:1231 56:22 57:997 58:2150 59:416 60:50 61:277 62:237 63:655 64:104 65:1066 66:5634 67:601 68:4 69:896 70:7 71:2879 72:24 73:2349 74:3350 75:586 76:164 77:478 78:634 79:1146 80:183 
1 1:1795 2:9447 3:697 4:98 5:938 6:11 7:820 8:0 9:1324 10:117 11:982 12:155 13:1066 14:32 15:2378 16:139 17:972 18:490 19:1038 20:5926 21:1498 22:2583 23:1730 24:599 25:1557 26:264 27:1142 28:57 29:1052 30:9 31:1011 32:73 33:1062 34:623 35:522 36:2173 37:505 38:1153 39:530 40:445 41:418 42:420 43:415 44:27 45:528 46:17 47:1021 48:143 49:355 50:1479 51:476 52:133 53:763 54:610 55:1034 56:944 57:863 58:862 59:911 60:25 61:419 62:7 63:179 64:940 65:292 66:1061 67:338 68:2221 69:1665 70:2467 71:1921 72:911 73:2349 74:2257 75:2619 76:18 77:610 78:52 79:206 80:1013 
1 1:579 2:0 3:599 4:0 5:1824 6:0 7:1974 8:0 9:2395 10:10000 11:1269 12:0 13:943 14:0 15:416 16:0 17:1028 18:248 19:1001 20:687 21:1261 22:4239 23:1912 24:1061 25:1631 26:3759 27:1069 28:6 29:1180 30:0 31:919 32:0 33:454 34:23 35:571 36:544 37:710 38:1951 39:751 40:717 41:740 42:1764 43:665 44:1 45:579 46:0 47:530 48:0 49:566 50:149 51:547 52:156 53:567 54:2484 55:687 56:436 57:847 58:1763 59:598 60:11 61:578 62:0 63:609 64:0 65:1124 66:87 67:1133 68:564 69:1563 70:5356 71:1369 72:898 73:1293 74:3061 75:1488 76:32 77:1039 78:1 79:990 80:0 
1 1:1690 2:7226 3:951 4:250 5:1075 6:38 7:1135 8:79 9:899 10:2232 11:887 12:166 13:1114 14:5 15:2249 16:4 17:1426 18:4021 19:838 20:3276 21:769 22:587 23:1377 24:266 25:1803 26:1543 27:901 28:256 29:946 30:24 31:1940 32:27 33:525 34:1489 35:391 36:1817 37:458 38:617 39:925 40:102 41:1005 42:791 43:526 44:108 45:570 46:8 47:600 48:68 49:433 50:571 51:506 52:1269 53:661 54:1280 55:1030 56:239 57:1048 58:1011 59:494 60:341 61:423 62:29 63:404 64:260 65:1111 66:180 67:900 68:1339 69:961 70:2274 71:1987 72:788 73:2013 74:4544 75:1019 76:567 77:902 78:113 79:1108 80:195 
1 1:1640 2:1877 3:1162 4:147 5:1232 6:11 7:1110 8:16 9:1354 10:7869 11:960 12:66 13:958 14:4 15:1584 16:11 17:2403 18:4040 19:1386 20:156 21:1102 22:8 23:939 24:12 25:716 26:5008 27:550 28:196 29:903 30:113 31:2000 32:466 33:927 34:2383 35:475 36:55 37:491 38:9 39:640 40:23 41:726 42:2474 43:395 44:38 45:484 46:9 47:863 48:8 49:1025 50:263 51:381 52:59 53:446 54:21 55:584 56:33 57:459 58:4583 59:298 60:29 61:562 62:6 63:1245 64:6 65:1341 66:3070 67:873 68:80 69:943 70:11 71:1581 72:14 73:1568 74:6726 75:906 76:54 77:1305 78:13 79:1483 80:32 
1 1:2449 2:7345 3:1058 4:318 5:724 6:17 7:707 8:30 9:713 10:1513 11:842 12:229 13:1148 14:148 15:2360 16:400 17:1025 18:4323 19:886 20:2097 21:1123 22:973 23:1617 24:182 25:1961 26:2173 27:1336 28:200 29:989 30:18 31:1062 32:36 33:936 34:1726 35:386 36:327 37:396 38:854 39:549 40:181 41:663 42:1665 43:477 44:104 45:484 46:20 47:1108 48:123 49:937 50:908 51:483 52:518 53:500 54:1772 55:669 56:39 57:657 58:1499 59:496 60:136 61:410 62:47 63:847 64:81 65:1789 66:1567 67:1011 68:736 69:984 70:2236 71:1055 72:118 73:1148 74:3887 75:1055 76:880 77:1166 78:331 79:1792 80:244 
1 1:1711 2:9435 3:1060 4:292 5:1301 6:30 7:1402 8:45 9:1090 10:167 11:861 12:8 13:1050 14:0 15:1525 16:22 17:1840 18:1359 19:1439 20:2743 21:1347 22:2908 23:1045 24:718 25:978 26:1715 27:800 28:456 29:1047 30:12 31:1505 32:88 33:637 34:446 35:444 36:281 37:522 38:102 39:707 40:40 41:717 42:3916 43:640 44:175 45:699 46:14 47:634 48:28 49:534 50:1130 51:427 52:462 53:519 54:314 55:624 56:70 57:761 58:2826 59:809 60:161 61:710 62:10 63:617 64:26 65:876 66:3061 67:816 68:1333 69:915 70:1012 71:1298 72:414 73:1920 74:3759 75:2015 76:377 77:1179 78:13 79:982 80:32 
1 1:750 2:7350 3:969 4:1427 5:1401 6:168 7:1611 8:290 9:2421 10:581 11:1138 12:51 13:987 14:38 15:723 16:96 17:924 18:1883 19:909 20:237 21:945 22:1389 23:1403 24:1576 25:2305 26:3499 27:1416 28:905 29:1108 30:205 31:990 32:305 33:344 34:250 35:337 36:37 37:415 38:742 39:872 40:805 41:1480 42:2307 43:713 44:474 45:446 46:67 47:393 48:317 49:351 50:174 51:347 52:16 53:505 54:386 55:918 56:415 57:1413 58:3301 59:581 60:522 61:488 62:104 63:396 64:82 65:943 66:251 67:796 68:23 69:1041 70:259 71:1636 72:532 73:2289 74:7939 75:1317 76:784 77:1076 78:57 79:902 80:154 
1 1:1475 2:9153 3:835 4:437 5:933 6:29 7:1648 8:22 9:1416 10:222 11:918 12:14 13:1088 14:9 15:1689 16:113 17:587 18:5636 19:991 20:1737 21:1227 22:170 23:2410 24:29 25:2398 26:966 27:1064 28:777 29:672 30:537 31:651 32:148 33:629 34:2674 35:466 36:271 37:432 38:579 39:888 40:32 41:914 42:728 43:442 44:410 45:520 46:169 47:710 48:137 49:733 50:2889 51:443 52:662 53:550 54:307 55:735 56:26 57:927 58:360 59:483 60:393 61:450 62:152 63:680 64:212 65:996 66:5136 67:699 68:1923 69:898 70:33 71:1784 72:2 73:1965 74:338 75:1181 76:439 77:1194 78:665 79:1284 80:1464 
1 1:973 2:0 3:511 4:0 5:1779 6:0 7:1300 8:0 9:1969 10:10000 11:1090 12:0 13:1587 14:0 15:791 16:0 17:1104 18:0 19:1070 20:297 21:1111 22:925 23:1235 24:634 25:1441 26:8141 27:1519 28:2 29:1375 30:1 31:1145 32:0 33:506 34:0 35:691 36:13 37:850 38:1116 39:739 40:1164 41:654 42:2699 43:581 44:7 45:558 46:0 47:421 48:0 49:434 50:4 51:650 52:14 53:605 54:1343 55:624 56:791 57:749 58:2819 59:726 60:28 61:667 62:1 63:546 64:0 65:1195 66:0 67:1192 68:0 69:1164 70:1397 71:1051 72:1265 73:1320 74:7334 75:1347 76:4 77:1471 78:0 79:1260 80:0 
1 1:1265 2:0 3:614 4:0 5:775 6:0 7:1916 8:1902 9:2170 10:6579 11:1687 12:167 13:636 14:397 15:938 16:956 17:1151 18:3573 19:909 20:1449 21:938 22:177 23:1830 24:790 25:2210 26:2454 27:1191 28:378 29:862 30:387 31:908 32:792 33:889 34:2246 35:479 36:319 37:441 38:22 39:823 40:99 41:908 42:294 43:399 44:37 45:371 46:84 47:690 48:1899 49:668 50:956 51:652 52:1046 53:527 54:1088 55:709 56:186 57:664 58:378 59:546 60:123 61:544 62:34 63:690 64:1188 65:1419 66:622 67:1050 68:1780 69:1090 70:252 71:1421 72:100 73:1545 74:2891 75:1183 76:613 77:1049 78:438 79:1242 80:3304 
1 1:1608 2:4567 3:767 4:1059 5:721 6:303 7:582 8:659 9:1171 10:3181 11:1391 12:173 13:1518 14:0 15:2244 16:58 17:1298 18:6547 19:920 20:1623 21:967 22:335 23:1377 24:340 25:1778 26:1153 27:1389 28:1 29:1035 30:0 31:1235 32:1 33:999 34:3382 35:535 36:1016 37:473 38:111 39:465 40:143 41:499 42:302 43:504 44:8 45:518 46:0 47:1009 48:39 49:765 50:4143 51:391 52:442 53:761 54:4 55:666 56:10 57:647 58:388 59:266 60:14 61:357 62:0 63:1147 64:0 65:1092 66:8411 67:727 68:1002 69:1416 70:3 71:1666 72:6 73:1801 74:398 75:1233 76:85 77:1279 78:19 79:786 80:77 
1 1:1399 2:58 3:1371 4:1 5:1280 6:0 7:1163 8:5 9:1183 10:8499 11:1224 12:1387 13:1118 14:33 15:1262 16:15 17:1552 18:1386 19:1131 20:331 21:1043 22:301 23:1311 24:126 25:1254 26:6887 27:990 28:300 29:1204 30:123 31:1516 32:545 33:475 34:885 35:461 36:194 37:620 38:252 39:892 40:385 41:815 42:1085 43:648 44:113 45:515 46:162 47:575 48:1925 49:591 50:506 51:561 52:27 53:760 54:116 55:700 56:176 57:694 58:2111 59:613 60:225 61:602 62:65 63:479 64:1772 65:1227 66:2461 67:964 68:125 69:1003 70:9 71:1442 72:25 73:1651 74:750 75:1132 76:1766 77:1166 78:412 79:1415 80:4452 
1 1:621 2:0 3:1044 4:6 5:1783 6:0 7:1573 8:0 9:2048 10:9993 11:1294 12:0 13:1267 14:0 15:370 16:0 17:2282 18:1205 19:810 20:49 21:833 22:50 23:1350 24:203 25:1299 26:7379 27:818 28:418 29:680 30:145 31:1928 32:551 33:921 34:200 35:542 36:26 37:526 38:177 39:517 40:238 41:511 42:4066 43:466 44:75 45:622 46:28 47:895 48:191 49:644 50:331 51:602 52:102 53:618 54:306 55:607 56:214 57:579 58:3823 59:639 60:124 61:701 62:15 63:610 64:86 65:1285 66:153 67:1081 68:141 69:1125 70:200 71:1426 72:131 73:1320 74:9025 75:1246 76:239 77:1298 78:16 79:1219 80:96 
0.9860093067424284 1:1384 2:178 3:1088 4:3075 5:1329 6:5230 7:1177 8:359 9:1094 10:861 11:1151 12:67 13:1286 14:16 15:1490 16:213 17:944 18:6 19:1056 20:332 21:1236 22:7863 23:2033 24:1072 25:1825 26:591 27:979 28:125 29:905 30:5 31:1023 32:5 33:785 34:371 35:573 36:327 37:603 38:2796 39:654 40:305 41:642 42:908 43:405 44:205 45:520 46:23 47:817 48:66 49:521 50:1035 51:531 52:533 53:639 54:2797 55:855 56:170 57:708 58:223 59:660 60:83 61:542 62:33 63:543 64:126 65:1110 66:2297 67:880 68:2766 69:1223 70:3342 71:1557 72:119 73:1716 74:526 75:1257 76:236 77:1098 78:89 79:1159 80:624 
1 1:1457 2:2958 3:672 4:307 5:943 6:116 7:1697 8:68 9:2245 10:6420 11:810 12:110 13:809 14:3 15:1367 16:20 17:1624 18:6016 19:691 20:2020 21:841 22:1073 23:1416 24:346 25:1751 26:445 27:948 28:75 29:840 30:5 31:1890 32:20 33:331 34:2155 35:313 36:472 37:666 38:419 39:1333 40:330 41:1097 42:1517 43:566 44:42 45:347 46:6 47:348 48:61 49:598 50:2790 51:445 52:204 53:522 54:204 55:1011 56:263 57:919 58:1295 59:463 60:114 61:461 62:71 63:580 64:59 65:1023 66:4824 67:1011 68:860 69:1299 70:234 71:1808 72:253 73:1701 74:2823 75:1123 76:137 77:1002 78:454 79:1033 80:415 
1 1:161 2:7916 3:269 4:160 5:1326 6:21 7:4548 8:64 9:2711 10:1636 11:603 12:185 13:266 14:5 15:116 16:14 17:650 18:5261 19:841 20:471 21:1208 22:1749 23:2408 24:980 25:2280 26:1454 27:1230 28:24 29:726 30:2 31:658 32:60 33:510 34:2666 35:362 36:269 37:548 38:1131 39:1337 40:347 41:1017 42:517 43:426 44:25 45:315 46:4 47:484 48:41 49:499 50:4076 51:402 52:142 53:525 54:19 55:1253 56:192 57:1045 58:430 59:463 60:45 61:326 62:18 63:486 64:79 65:1171 66:8514 67:834 68:452 69:1042 70:117 71:1957 72:282 73:1641 74:420 75:1104 76:68 77:1037 78:61 79:1214 80:86 
0.626633221032021 1:478 2:0 3:863 4:2 5:1611 6:0 7:1666 8:11 9:2227 10:9974 11:1488 12:12 13:1061 14:1 15:607 16:0 17:2420 18:1135 19:383 20:4 21:450 22:0 23:2023 24:4 25:2203 26:8667 27:448 28:83 29:477 30:18 31:1595 32:87 33:1020 34:596 35:232 36:1 37:306 38:2 39:895 40:11 41:1199 42:4298 43:285 44:66 45:239 46:7 47:824 48:20 49:998 50:283 51:272 52:0 53:322 54:0 55:878 56:1 57:841 58:4666 59:589 60:25 61:370 62:2 63:729 64:23 65:1198 66:0 67:716 68:26 69:1169 70:488 71:1934 72:583 73:2063 74:8898 75:1077 76:5 77:762 78:0 79:1081 80:0 
1 1:551 2:0 3:764 4:0 5:2077 6:0 7:2373 8:0 9:2243 10:10000 11:896 12:0 13:809 14:0 15:287 16:0 17:658 18:17 19:732 20:9 21:1573 22:2068 23:2450 24:1745 25:1913 26:5961 27:1199 28:116 29:952 30:62 31:524 32:21 33:229 34:10 35:253 36:15 37:587 38:869 39:1823 40:920 41:1022 42:3065 43:460 44:105 45:363 46:2 47:263 48:13 49:579 50:27 51:312 52:62 53:513 54:1240 55:1048 56:898 57:1096 58:2652 59:499 60:111 61:459 62:4 63:494 64:5 65:790 66:95 67:715 68:141 69:1165 70:3016 71:1470 72:1545 73:3309 74:4383 75:1111 76:804 77:705 78:13 79:733 80:3 
1 1:913 2:0 3:1408 4:0 5:2655 6:0 7:1579 8:0 9:1262 10:9914 11:725 12:86 13:877 14:0 15:582 16:0 17:1120 18:0 19:1096 20:0 21:1614 22:0 23:1614 24:0 25:1522 26:10000 27:1264 28:0 29:1134 30:0 31:637 32:0 33:488 34:0 35:563 36:0 37:937 38:0 39:894 40:0 41:686 42:5000 43:511 44:0 45:565 46:0 47:356 48:0 49:479 50:0 51:709 52:0 53:798 54:74 55:633 56:302 57:560 58:4618 59:616 60:7 61:618 62:0 63:587 64:0 65:1098 66:0 67:1372 68:0 69:1832 70:302 71:1334 72:1457 73:1184 74:8218 75:1144 76:23 77:1115 78:0 79:921 80:0 
1 1:1971 2:28 3:658 4:20 5:1371 6:4 7:2106 8:82 9:1314 10:9824 11:274 12:42 13:485 14:0 15:1820 16:0 17:1156 18:32 19:955 20:30 21:1224 22:5 23:1515 24:257 25:1346 26:8785 27:1105 28:859 29:1214 30:18 31:1486 32:14 33:646 34:813 35:672 36:123 37:615 38:10 39:663 40:90 41:615 42:2755 43:519 44:722 45:653 46:187 47:617 48:300 49:731 50:847 51:572 52:79 53:622 54:8 55:608 56:77 57:689 58:3353 59:527 60:228 61:489 62:127 63:761 64:281 65:1591 66:762 67:1055 68:80 69:1169 70:15 71:1607 72:79 73:1506 74:6952 75:795 76:954 77:764 78:293 79:1512 80:865 
1 1:1061 2:2 3:1208 4:3569 5:1297 6:5437 7:1216 8:476 9:1247 10:407 11:1284 12:98 13:1454 14:7 15:1232 16:3 17:1323 18:336 19:1058 20:3589 21:1041 22:1962 23:1256 24:638 25:1293 26:1963 27:1205 28:810 29:1283 30:130 31:1540 32:571 33:588 34:197 35:634 36:709 37:804 38:1353 39:696 40:515 41:630 42:1645 43:542 44:543 45:498 46:20 47:608 48:17 49:608 50:3997 51:561 52:127 53:596 54:181 55:844 56:79 57:747 58:356 59:502 60:174 61:576 62:26 63:566 64:59 65:1537 66:9330 67:470 68:42 69:793 70:11 71:1853 72:13 73:1916 74:65 75:1005 76:223 77:713 78:110 79:1714 80:208 
1 1:988 2:7709 3:678 4:1105 5:1413 6:278 7:2398 8:52 9:1715 10:392 11:692 12:229 13:640 14:51 15:1476 16:184 17:954 18:2059 19:615 20:6485 21:1005 22:1071 23:2241 24:70 25:2130 26:260 27:1139 28:26 29:867 30:7 31:1049 32:22 33:813 34:2713 35:256 36:1530 37:382 38:270 39:1222 40:58 41:911 42:339 43:280 44:47 45:266 46:19 47:870 48:25 49:406 50:1721 51:226 52:1974 53:424 54:431 55:1385 56:73 57:1367 58:646 59:363 60:113 61:305 62:10 63:525 64:31 65:1459 66:4984 67:619 68:3971 69:906 70:54 71:1886 72:3 73:2029 74:250 75:550 76:256 77:773 78:56 79:1777 80:426 
1 1:672 2:27 3:1693 4:928 5:1073 6:1620 7:797 8:2741 9:1219 10:4658 11:2081 12:11 13:1125 14:16 15:1340 16:0 17:1181 18:1824 19:1249 20:1394 21:1222 22:2119 23:1516 24:750 25:1333 26:3340 27:1210 28:203 29:1211 30:159 31:1079 32:212 33:511 34:225 35:486 36:612 37:631 38:1118 39:781 40:1306 41:891 42:1528 43:692 44:43 45:551 46:95 47:456 48:73 49:407 50:154 51:481 52:253 53:633 54:995 55:897 56:1066 57:920 58:2256 59:605 60:69 61:626 62:122 63:431 64:85 65:794 66:181 67:979 68:359 69:1498 70:1390 71:1861 72:936 73:1674 74:5051 75:1332 76:1612 77:1044 78:236 79:819 80:235 
1 1:1628 2:1268 3:365 4:792 5:882 6:47 7:2352 8:90 9:922 10:1900 11:648 12:488 13:520 14:851 15:2683 16:4564 17:1540 18:4601 19:873 20:2144 21:1041 22:351 23:1650 24:349 25:1606 26:1704 27:925 28:354 29:833 30:85 31:1532 32:413 33:659 34:1900 35:490 36:359 37:594 38:89 39:824 40:87 41:743 42:1581 43:564 44:448 45:508 46:70 47:616 48:466 49:908 50:712 51:374 52:138 53:502 54:18 55:930 56:29 57:605 58:1479 59:419 60:1004 61:425 62:189 63:836 64:1430 65:1645 66:299 67:767 68:97 69:1027 70:737 71:1513 72:1335 73:1166 74:3655 75:1159 76:2862 77:881 78:208 79:1843 80:808 
1 1:1105 2:0 3:537 4:0 5:1283 6:0 7:4200 8:0 9:745 10:3316 11:935 12:2372 13:645 14:1576 15:550 16:2736 17:1736 18:5197 19:963 20:919 21:984 22:552 23:1769 24:125 25:1468 26:593 27:949 28:64 29:823 30:50 31:1308 32:2502 33:315 34:959 35:333 36:839 37:540 38:1205 39:1483 40:841 41:1071 42:916 43:594 44:103 45:334 46:1 47:331 48:137 49:528 50:1658 51:480 52:597 53:556 54:863 55:1194 56:184 57:707 58:760 59:538 60:141 61:429 62:12 63:567 64:785 65:948 66:2680 67:760 68:2188 69:1102 70:1756 71:1776 72:281 73:1554 74:990 75:1213 76:670 77:1488 78:207 79:1159 80:1229 
1 1:2206 2:67 3:908 4:163 5:843 6:4176 7:918 8:2986 9:1251 10:2522 11:972 12:29 13:1100 14:5 15:1802 16:52 17:2509 18:2175 19:555 20:165 21:761 22:1854 23:1369 24:3637 25:1402 26:1325 27:749 28:336 29:750 30:192 31:1905 32:316 33:677 34:57 35:440 36:8 37:696 38:1156 39:669 40:2010 41:732 42:1098 43:645 44:307 45:511 46:174 47:630 48:190 49:890 50:160 51:535 52:111 53:497 54:1115 55:538 56:1876 57:608 58:1470 59:606 60:108 61:554 62:35 63:772 64:126 65:1805 66:134 67:1266 68:427 69:1321 70:3199 71:1133 72:2986 73:1001 74:3148 75:737 76:90 77:1060 78:4 79:1677 80:12 
0.1563955522814569 1:1108 2:197 3:1056 4:8332 5:1044 6:76 7:1342 8:1 9:1967 10:49 11:1117 12:24 13:1115 14:56 15:1251 16:1264 17:4195 18:5491 19:738 20:107 21:386 22:77 23:623 24:140 25:674 26:860 27:260 28:103 29:453 30:37 31:2672 32:3185 33:1475 34:1324 35:240 36:333 37:179 38:14 39:567 40:51 41:506 42:1085 43:200 44:192 45:264 46:90 47:1569 48:1912 49:885 50:867 51:378 52:3437 53:421 54:101 55:622 56:22 57:644 58:185 59:467 60:28 61:568 62:11 63:1016 64:349 65:1569 66:1209 67:771 68:7770 69:931 70:563 71:861 72:88 73:1009 74:192 75:995 76:72 77:1589 78:0 79:2275 80:105 
1 1:623 2:0 3:483 4:0 5:1027 6:0 7:3814 8:1 9:1501 10:9975 11:1392 12:25 13:680 14:0 15:479 16:0 17:778 18:76 19:589 20:22 21:969 22:19 23:3108 24:235 25:2268 26:9618 27:804 28:27 29:729 30:0 31:756 32:2 33:768 34:93 35:347 36:15 37:382 38:10 39:804 40:23 41:1198 42:4843 43:490 44:13 45:503 46:1 47:509 48:1 49:521 50:779 51:306 52:166 53:396 54:4 55:1190 56:63 57:1360 58:3716 59:395 60:109 61:415 62:22 63:419 64:140 65:1182 66:133 67:666 68:12 69:799 70:1 71:1262 72:97 73:1480 74:9352 75:1488 76:216 77:1428 78:39 79:1695 80:149 
1 1:1038 2:0 3:678 4:0 5:1147 6:0 7:2538 8:0 9:2289 10:10000 11:719 12:0 13:839 14:0 15:752 16:0 17:549 18:12 19:642 20:32 21:1619 22:8 23:3351 24:87 25:2153 26:9738 27:597 28:111 29:568 30:9 31:522 32:4 33:377 34:44 35:371 36:1 37:837 38:1 39:1467 40:37 41:951 42:4672 43:353 44:197 45:334 46:13 47:311 48:35 49:349 50:81 51:321 52:5 53:808 54:3 55:1516 56:9 57:990 58:4651 59:372 60:214 61:318 62:8 63:327 64:29 65:988 66:62 67:634 68:34 69:1207 70:17 71:2882 72:18 73:1581 74:9569 75:862 76:267 77:814 78:25 79:1032 80:9 
1 1:1351 2:1859 3:1302 4:6466 5:1405 6:1004 7:1166 8:89 9:1081 10:201 11:1017 12:136 13:1211 14:167 15:1468 16:79 17:893 18:4452 19:550 20:2667 21:1208 22:42 23:2333 24:5 25:2923 26:2666 27:781 28:38 29:561 30:68 31:750 32:61 33:368 34:2342 35:408 36:749 37:574 38:39 39:1100 40:48 41:1164 42:1540 43:585 44:56 45:370 46:40 47:431 48:186 49:560 50:2082 51:415 52:1013 53:616 54:46 55:869 56:6 57:968 58:1648 59:539 60:61 61:454 62:38 63:578 64:106 65:981 66:2623 67:1173 68:3707 69:1254 70:263 71:1739 72:74 73:1603 74:2881 75:1244 76:367 77:973 78:41 79:1034 80:44 
1 1:1139 2:3456 3:1293 4:6543 5:1376 6:0 7:1316 8:0 9:1233 10:0 11:1532 12:0 13:1316 14:0 15:795 16:0 17:1031 18:1071 19:1118 20:5743 21:1344 22:2681 23:1807 24:48 25:1512 26:389 27:1071 28:27 29:1054 30:6 31:1062 32:34 33:696 34:345 35:579 36:952 37:490 38:1432 39:681 40:106 41:711 42:1136 43:446 44:59 45:508 46:1 47:889 48:969 49:274 50:21 51:211 52:12 53:373 54:32 55:1453 56:69 57:1552 58:4556 59:474 60:300 61:396 62:7 63:267 64:4 65:1226 66:2661 67:438 68:56 69:875 70:0 71:2521 72:201 73:2597 74:5073 75:897 76:1088 77:555 78:215 79:892 80:705 
1 1:1230 2:5459 3:1444 4:712 5:1584 6:9 7:1364 8:1 9:1058 10:2 11:1302 12:1 13:1127 14:548 15:891 16:3267 17:670 18:4244 19:863 20:1458 21:1556 22:148 23:2589 24:923 25:2082 26:964 27:908 28:417 29:695 30:281 31:636 32:1565 33:340 34:1684 35:428 36:612 37:750 38:52 39:978 40:205 41:927 42:425 43:535 44:242 45:615 46:169 47:428 48:1610 49:274 50:1693 51:347 52:822 53:691 54:98 55:1122 56:720 57:1000 58:810 59:705 60:92 61:527 62:62 63:335 64:704 65:370 66:1776 67:608 68:1561 69:1549 70:568 71:3323 72:2160 73:2463 74:2702 75:904 76:243 77:459 78:165 79:324 80:826 
1 1:1125 2:426 3:933 4:7144 5:1171 6:1586 7:654 8:790 9:2200 10:46 11:2301 12:5 13:1133 14:5 15:482 16:0 17:671 18:4884 19:690 20:2763 21:1166 22:425 23:1958 24:145 25:2393 26:958 27:1365 28:255 29:843 30:94 31:915 32:475 33:377 34:2805 35:465 36:567 37:757 38:140 39:1040 40:128 41:839 42:590 43:627 44:278 45:487 46:193 47:408 48:298 49:521 50:2908 51:465 52:421 53:674 54:88 55:1068 56:108 57:886 58:902 59:529 60:235 61:349 62:37 63:508 64:301 65:1085 66:3064 67:1058 68:4052 69:1242 70:667 71:1871 72:166 73:1693 74:1286 75:983 76:365 77:1057 78:142 79:1012 80:259 
1 1:980 2:1049 3:1119 4:5205 5:1744 6:893 7:963 8:9 9:1426 10:69 11:1736 12:88 13:1003 14:113 15:1029 16:2574 17:1429 18:6247 19:720 20:137 21:1378 22:21 23:2224 24:21 25:1740 26:590 27:727 28:92 29:551 30:128 31:1231 32:2764 33:917 34:2841 35:276 36:25 37:368 38:9 39:977 40:8 41:853 42:715 43:294 44:432 45:400 46:187 47:915 48:784 49:579 50:3166 51:273 52:43 53:318 54:6 55:1166 56:6 57:1234 58:218 59:469 60:487 61:306 62:116 63:655 64:958 65:1471 66:6506 67:651 68:1136 69:770 70:60 71:1969 72:6 73:2023 74:647 75:748 76:207 77:630 78:306 79:1738 80:1134 
1 1:898 2:2815 3:1145 4:6091 5:1686 6:40 7:1610 8:4 9:1759 10:3 11:1144 12:2 13:1083 14:331 15:673 16:714 17:688 18:2749 19:747 20:3743 21:1494 22:751 23:2618 24:608 25:2243 26:971 27:1032 28:777 29:622 30:257 31:555 32:144 33:606 34:1035 35:517 36:2123 37:661 38:59 39:782 40:71 41:741 42:1074 43:530 44:406 45:606 46:102 47:556 48:129 49:689 50:1287 51:606 52:1955 53:595 54:127 55:634 56:106 57:599 58:396 59:662 60:454 61:621 62:111 63:595 64:563 65:1366 66:2827 67:1262 68:3022 69:1301 70:284 71:1529 72:33 73:1206 74:340 75:1262 76:1199 77:1062 78:761 79:1012 80:1534 
1 1:841 2:4140 3:1344 4:56 5:1702 6:12 7:1646 8:16 9:1149 10:4847 11:1088 12:285 13:1381 14:155 15:850 16:490 17:1155 18:4367 19:1112 20:2664 21:1409 22:106 23:1603 24:174 25:1624 26:1793 27:1196 28:316 29:936 30:102 31:965 32:478 33:460 34:2144 35:539 36:770 37:831 38:62 39:878 40:155 41:818 42:917 43:555 44:402 45:480 46:121 47:439 48:429 49:631 50:2534 51:565 52:305 53:743 54:77 55:819 56:270 57:742 58:812 59:500 60:434 61:439 62:117 63:561 64:452 65:1146 66:5189 67:980 68:442 69:1277 70:163 71:1764 72:550 73:1595 74:1483 75:974 76:953 77:1038 78:223 79:1227 80:996 
1 1:981 2:7507 3:410 4:260 5:2001 6:0 7:1207 8:0 9:2391 10:0 11:577 12:14 13:1849 14:0 15:584 16:2219 17:1356 18:149 19:878 20:3946 21:1118 22:1607 23:1789 24:1627 25:1483 26:2191 27:896 28:136 29:874 30:24 31:1605 32:319 33:591 34:134 35:549 36:204 37:662 38:1089 39:925 40:1227 41:744 42:1894 43:510 44:161 45:397 46:23 47:621 48:268 49:674 50:141 51:484 52:187 53:498 54:392 55:1000 56:1389 57:875 58:2513 59:397 60:201 61:418 62:53 63:653 64:124 65:1034 66:817 67:767 68:158 69:1199 70:2565 71:2423 72:1750 73:2050 74:2447 75:764 76:184 77:759 78:64 79:1003 80:2015 
1 1:724 2:6572 3:465 4:126 5:1197 6:0 7:2532 8:9 9:2329 10:1957 11:1694 12:840 13:537 14:226 15:522 16:269 17:989 18:2892 19:918 20:144 21:1325 22:3892 23:1835 24:1601 25:2295 26:1247 27:1037 28:39 29:794 30:29 31:806 32:155 33:573 34:1670 35:454 36:68 37:530 38:424 39:580 40:278 41:767 42:1257 43:742 44:306 45:625 46:147 47:729 48:850 49:359 50:2022 51:368 52:57 53:650 54:752 55:782 56:658 57:968 58:1035 59:660 60:77 61:587 62:71 63:626 64:329 65:1723 66:3584 67:725 68:232 69:1242 70:788 71:1490 72:878 73:1045 74:3117 75:676 76:430 77:928 78:207 79:2171 80:764 
1 1:381 2:9581 3:627 4:396 5:1537 6:0 7:1937 8:0 9:2057 10:0 11:1808 12:0 13:1199 14:0 15:453 16:22 17:383 18:4812 19:523 20:5044 21:1083 22:72 23:2580 24:64 25:2834 26:7 27:1359 28:0 29:754 30:0 31:484 32:0 33:216 34:1438 35:322 36:3410 37:492 38:65 39:897 40:85 41:1535 42:1 43:887 44:0 45:407 46:0 47:242 48:0 49:404 50:1025 51:434 52:3707 53:555 54:151 55:984 56:85 57:1154 58:32 59:644 60:0 61:486 62:0 63:338 64:0 65:451 66:3345 67:910 68:6082 69:1286 70:279 71:2083 72:200 73:2831 74:93 75:1202 76:0 77:728 78:0 79:510 80:0 
1 1:2895 2:7619 3:628 4:793 5:528 6:2 7:577 8:3 9:1006 10:4 11:698 12:0 13:999 14:65 15:2670 16:1514 17:1154 18:6013 19:1043 20:3510 21:1111 22:0 23:1444 24:0 25:1697 26:0 27:1097 28:23 29:1335 30:47 31:1117 32:406 33:487 34:1985 35:464 36:2933 37:489 38:13 39:734 40:0 41:887 42:1 43:515 44:0 45:845 46:3 47:580 48:65 49:1019 50:2869 51:534 52:2065 53:469 54:4 55:534 56:0 57:472 58:0 59:374 60:0 61:532 62:2 63:1067 64:60 65:1317 66:5199 67:832 68:4795 69:800 70:1 71:1254 72:1 73:1468 74:0 75:1003 76:0 77:1725 78:0 79:1601 80:3 
1 1:1301 2:7991 3:946 4:1137 5:1172 6:0 7:1582 8:0 9:1696 10:1 11:806 12:16 13:973 14:79 15:1524 16:776 17:946 18:4949 19:1186 20:4976 21:1187 22:2 23:1677 24:1 25:1781 26:0 27:1093 28:1 29:1113 30:4 31:1017 32:67 33:539 34:2382 35:492 36:2577 37:550 38:15 39:823 40:19 41:981 42:2 43:627 44:0 45:422 46:0 47:566 48:5 49:494 50:1316 51:434 52:3662 53:633 54:15 55:837 56:3 57:1040 58:2 59:567 60:0 61:516 62:0 63:479 64:1 65:1073 66:4024 67:1169 68:5934 69:1242 70:14 71:1667 72:28 73:1699 74:0 75:1291 76:0 77:1022 78:0 79:837 80:0 
1 1:370 2:7600 3:604 4:431 5:3097 6:0 7:3322 8:0 9:1042 10:0 11:636 12:15 13:613 14:78 15:316 16:1876 17:909 18:5141 19:579 20:4827 21:814 22:32 23:2306 24:0 25:2532 26:0 27:1116 28:0 29:759 30:0 31:985 32:0 33:526 34:649 35:545 36:4323 37:636 38:28 39:792 40:0 41:925 42:0 43:676 44:0 45:448 46:0 47:452 48:0 49:506 50:322 51:411 52:4652 53:518 54:25 55:1003 56:1 57:1090 58:0 59:540 60:0 61:496 62:0 63:436 64:0 65:1519 66:971 67:1117 68:8958 69:1359 70:70 71:1447 72:0 73:1227 74:0 75:923 76:1 77:946 78:0 79:1463 80:0 
1 1:1206 2:7958 3:1307 4:179 5:2180 6:1 7:1594 8:1 9:1223 10:0 11:736 12:0 13:685 14:138 15:1069 16:1723 17:997 18:3506 19:1070 20:6481 21:1227 22:10 23:1486 24:1 25:1520 26:0 27:1424 28:0 29:1212 30:0 31:1066 32:1 33:527 34:1954 35:600 36:2992 37:867 38:20 39:617 40:3 41:709 42:13 43:661 44:0 45:540 46:2 47:480 48:15 49:554 50:2261 51:576 52:2713 53:724 54:12 55:787 56:0 57:797 58:0 59:539 60:0 61:507 62:1 63:515 64:12 65:993 66:4321 67:1102 68:5623 69:1373 70:4 71:1845 72:1 73:1885 74:3 75:1149 76:1 77:805 78:0 79:848 80:47 
1 1:1440 2:8749 3:798 4:41 5:908 6:0 7:1931 8:1 9:1998 10:32 11:804 12:346 13:638 14:245 15:1482 16:586 17:1257 18:5165 19:737 20:4578 21:1008 22:11 23:1914 24:3 25:1929 26:101 27:865 28:68 29:821 30:18 31:1468 32:56 33:953 34:3379 35:462 36:1513 37:475 38:26 39:726 40:13 41:668 42:18 43:393 44:10 45:515 46:10 47:808 48:32 49:729 50:3196 51:407 52:1718 53:430 54:22 55:986 56:22 57:759 58:2 59:451 60:4 61:456 62:2 63:782 64:34 65:1029 66:2507 67:871 68:7083 69:1057 70:327 71:1567 72:1 73:1766 74:21 75:1354 76:12 77:1404 78:13 79:953 80:36 
1 1:1621 2:8900 3:995 4:14 5:1427 6:0 7:1568 8:12 9:1134 10:23 11:713 12:388 13:837 14:205 15:1704 16:457 17:1479 18:3831 19:898 20:6026 21:1244 22:26 23:1971 24:5 25:1171 26:9 27:882 28:66 29:1049 30:17 31:1306 32:20 33:969 34:2733 35:502 36:2226 37:631 38:22 39:681 40:3 41:602 42:8 43:322 44:4 45:377 46:2 47:916 48:2 49:502 50:2266 51:458 52:2691 53:859 54:11 55:996 56:3 57:757 58:0 59:470 60:2 61:387 62:3 63:570 64:25 65:1449 66:5418 67:859 68:4396 69:1299 70:8 71:1817 72:2 73:1714 74:92 75:969 76:12 77:811 78:16 79:1082 80:55 
1 1:1606 2:8594 3:874 4:0 5:800 6:0 7:2025 8:3 9:1835 10:44 11:825 12:297 13:672 14:247 15:1364 16:815 17:961 18:4779 19:898 20:5075 21:1509 22:14 23:1999 24:2 25:1860 26:3 27:1170 28:7 29:754 30:12 31:848 32:108 33:684 34:2992 35:369 36:1850 37:543 38:14 39:935 40:4 41:1054 42:58 43:451 44:31 45:349 46:15 47:614 48:36 49:902 50:3732 51:449 52:1142 53:459 54:29 55:734 56:11 57:767 58:21 59:362 60:10 61:479 62:17 63:848 64:38 65:1282 66:7489 67:720 68:2273 69:988 70:40 71:2088 72:11 73:2014 74:27 75:871 76:21 77:815 78:15 79:1223 80:125 
1 1:1476 2:8666 3:922 4:248 5:1642 6:7 7:1550 8:2 9:711 10:2 11:1324 12:2 13:815 14:35 15:1560 16:1038 17:1038 18:8230 19:510 20:1669 21:945 22:7 23:2482 24:0 25:1987 26:35 27:1091 28:7 29:820 30:11 31:1127 32:42 33:721 34:2499 35:391 36:2424 37:566 38:6 39:923 40:7 41:845 42:53 43:385 44:4 45:442 46:1 47:727 48:8 49:368 50:1766 51:304 52:3229 53:668 54:5 55:1479 56:0 57:1110 58:0 59:456 60:0 61:283 62:0 63:332 64:0 65:1647 66:3953 67:866 68:6047 69:1010 70:0 71:2108 72:0 73:1497 74:0 75:833 76:0 77:705 78:0 79:1333 80:0 
1 1:1280 2:8908 3:893 4:120 5:1125 6:3 7:1355 8:2 9:1001 10:1 11:1287 12:12 13:1546 14:88 15:1512 16:866 17:1068 18:5645 19:680 20:4293 21:1180 22:51 23:2137 24:1 25:1719 26:0 27:1164 28:0 29:957 30:0 31:1095 32:11 33:384 34:2155 35:359 36:2845 37:689 38:0 39:1444 40:0 41:1143 42:0 43:409 44:0 45:302 46:0 47:269 48:0 49:1037 50:2016 51:488 52:2979 53:609 54:4 55:780 56:0 57:566 58:0 59:397 60:0 61:413 62:0 63:709 64:1 65:2236 66:4646 67:1015 68:5355 69:1163 70:0 71:1252 72:0 73:882 74:0 75:781 76:0 77:901 78:0 79:1770 80:0 
1 1:2754 2:9213 3:1497 4:36 5:1455 6:0 7:729 8:0 9:587 10:0 11:575 12:87 13:776 14:265 15:1627 16:399 17:1002 18:5120 19:1098 20:4319 21:1299 22:14 23:1996 24:1 25:1707 26:7 27:845 28:308 29:1046 30:183 31:1008 32:48 33:775 34:2688 35:510 36:2303 37:508 38:0 39:730 40:0 41:717 42:0 43:567 44:0 45:487 46:3 47:707 48:7 49:910 50:2724 51:496 52:2264 53:500 54:11 55:665 56:1 57:674 58:0 59:554 60:0 61:518 62:0 63:685 64:0 65:1315 66:3967 67:1448 68:6002 69:1416 70:13 71:1310 72:8 73:1170 74:5 75:1028 76:0 77:1083 78:0 79:1232 80:5 
1 1:2258 2:9516 3:1378 4:62 5:1569 6:0 7:918 8:0 9:556 10:0 11:700 12:68 13:600 14:97 15:2022 16:257 17:1367 18:5137 19:1031 20:4582 21:1078 22:0 23:1629 24:0 25:1493 26:2 27:973 28:188 29:1299 30:68 31:1131 32:22 33:712 34:2582 35:533 36:2418 37:639 38:0 39:760 40:0 41:652 42:0 43:566 44:0 45:487 46:0 47:652 48:0 49:804 50:2671 51:627 52:2320 53:575 54:8 55:618 56:0 57:556 58:0 59:541 60:0 61:521 62:0 63:758 64:0 65:988 66:2930 67:1036 68:7067 69:1511 70:2 71:2050 72:0 73:1793 74:1 75:829 76:0 77:832 78:0 79:960 80:1 
1 1:1484 2:4513 3:1084 4:5049 5:1300 6:0 7:1429 8:0 9:1415 10:6 11:1444 12:10 13:818 14:135 15:1027 16:287 17:1326 18:8272 19:971 20:1679 21:1180 22:10 23:1475 24:1 25:1704 26:0 27:784 28:0 29:1068 30:2 31:1492 32:34 33:626 34:3998 35:493 36:858 37:536 38:27 39:750 40:101 41:688 42:6 43:505 44:1 45:555 46:2 47:848 48:7 49:642 50:3403 51:530 52:1595 53:767 54:0 55:738 56:0 57:591 58:0 59:472 60:0 61:512 62:0 63:747 64:1 65:1233 66:7278 67:1227 68:2556 69:1534 70:0 71:1425 72:0 73:1252 74:5 75:1006 76:1 77:965 78:4 79:1360 80:156 
1 1:1752 2:5958 3:969 4:3794 5:1070 6:6 7:1019 8:20 9:1354 10:23 11:1212 12:25 13:977 14:35 15:1647 16:139 17:1524 18:7652 19:937 20:2226 21:1020 22:13 23:1667 24:12 25:1490 26:5 27:855 28:3 29:931 30:0 31:1577 32:89 33:755 34:4057 35:425 36:843 37:491 38:50 39:846 40:41 41:857 42:1 43:426 44:0 45:395 46:0 47:805 48:8 49:796 50:3679 51:389 52:1320 53:490 54:0 55:1000 56:0 57:806 58:0 59:376 60:1 61:337 62:0 63:806 64:0 65:1340 66:7606 67:741 68:2297 69:965 70:30 71:1838 72:8 73:2003 74:27 75:863 76:7 77:848 78:15 79:1402 80:9 
1 1:1989 2:6623 3:978 4:2552 5:787 6:0 7:929 8:0 9:1400 10:29 11:1396 12:138 13:704 14:214 15:1816 16:444 17:1539 18:7601 19:875 20:2323 21:1225 22:0 23:1561 24:0 25:1185 26:0 27:776 28:0 29:832 30:0 31:2007 32:75 33:559 34:3961 35:517 36:992 37:595 38:22 39:803 40:1 41:853 42:0 43:507 44:0 45:464 46:4 47:702 48:20 49:584 50:3389 51:443 52:1425 53:570 54:31 55:944 56:131 57:866 58:10 59:509 60:4 61:472 62:3 63:612 64:7 65:1546 66:6481 67:934 68:3507 69:1392 70:0 71:1655 72:0 73:1261 74:0 75:987 76:0 77:783 78:2 79:1442 80:11 
1 1:1328 2:4866 3:887 4:3807 5:990 6:5 7:873 8:8 9:1483 10:16 11:2163 12:218 13:977 14:461 15:1298 16:619 17:1247 18:8402 19:927 20:1363 21:1151 22:26 23:1446 24:81 25:2002 26:15 27:1070 28:6 29:876 30:24 31:1280 32:83 33:650 34:3196 35:352 36:1660 37:759 38:18 39:913 40:94 41:780 42:9 43:442 44:3 45:463 46:5 47:640 48:16 49:681 50:3323 51:538 52:1641 53:738 54:2 55:854 56:0 57:594 58:8 59:429 60:0 61:430 62:0 63:736 64:26 65:914 66:6554 67:922 68:3185 69:1721 70:6 71:1545 72:1 73:1735 74:22 75:1241 76:29 77:1064 78:19 79:858 80:185 
1 1:1236 2:5337 3:1102 4:3932 5:1076 6:0 7:1086 8:1 9:1128 10:0 11:1741 12:60 13:1324 14:155 15:1308 16:515 17:1316 18:7978 19:941 20:1891 21:1461 22:8 23:1970 24:9 25:1127 26:17 27:809 28:2 29:947 30:1 31:1428 32:93 33:550 34:4287 35:554 36:686 37:1032 38:0 39:779 40:0 41:558 42:0 43:419 44:0 45:474 46:1 47:635 48:26 49:541 50:3550 51:546 52:1137 53:619 54:2 55:731 56:3 57:680 58:3 59:675 60:10 61:654 62:12 63:553 64:283 65:1520 66:6749 67:1118 68:3173 69:1326 70:0 71:1184 72:0 73:1082 74:6 75:1370 76:5 77:981 78:12 79:1419 80:56 
1 1:1527 2:4336 3:846 4:5291 5:1408 6:0 7:1041 8:0 9:928 10:5 11:1354 12:13 13:1510 14:58 15:1387 16:296 17:1239 18:6265 19:839 20:3735 21:1857 22:0 23:1797 24:0 25:1250 26:0 27:916 28:0 29:839 30:0 31:1264 32:0 33:704 34:3652 35:512 36:1343 37:915 38:2 39:747 40:0 41:490 42:0 43:468 44:0 45:544 46:2 47:620 48:2 49:611 50:3171 51:476 52:1547 53:561 54:2 55:618 56:2 57:780 58:72 59:671 60:9 61:633 62:2 63:650 64:195 65:895 66:6037 67:836 68:3302 69:1049 70:1 71:2108 72:0 73:1739 74:80 75:1250 76:120 77:1105 78:13 79:1018 80:447 
1 1:973 2:4414 3:592 4:4861 5:731 6:0 7:831 8:0 9:951 10:2 11:2272 12:0 13:2257 14:125 15:1391 16:598 17:1369 18:7072 19:1091 20:2919 21:1716 22:0 23:1668 24:0 25:1155 26:0 27:734 28:0 29:1057 30:0 31:1210 32:9 33:543 34:3778 35:481 36:1194 37:865 38:0 39:703 40:0 41:605 42:3 43:577 44:0 45:621 46:1 47:604 48:24 49:656 50:2759 51:522 52:2218 53:635 54:0 55:613 56:0 57:613 58:5 59:544 60:1 61:649 62:1 63:768 64:16 65:1463 66:5772 67:1021 68:4180 69:1087 70:2 71:956 72:0 73:1228 74:0 75:1309 76:22 77:1478 78:11 79:1457 80:14 
1 1:1250 2:4812 3:917 4:4233 5:811 6:0 7:1044 8:4 9:1401 10:6 11:1897 12:74 13:1404 14:208 15:1277 16:663 17:1182 18:7438 19:987 20:2070 21:1488 22:35 23:1728 24:89 25:1504 26:29 27:1202 28:15 29:837 30:59 31:1074 32:265 33:675 34:3355 35:650 36:1416 37:728 38:9 39:575 40:11 41:573 42:20 43:606 44:41 45:546 46:44 47:647 48:104 49:480 50:3117 51:554 52:1835 53:714 54:2 55:706 56:1 57:710 58:9 59:560 60:4 61:674 62:8 63:603 64:25 65:1329 66:5202 67:1188 68:4754 69:1348 70:0 71:1183 72:3 73:1146 74:3 75:1091 76:17 77:1317 78:6 79:1397 80:15 
1 1:495 2:8825 3:658 4:622 5:1251 6:4 7:1196 8:0 9:2117 10:89 11:1826 12:141 13:1684 14:14 15:774 16:305 17:1262 18:3571 19:1352 20:5775 21:1143 22:440 23:1302 24:48 25:1478 26:65 27:1018 28:86 29:1127 30:8 31:1319 32:6 33:728 34:1333 35:546 36:3599 37:571 38:42 39:670 40:6 41:821 42:14 43:610 44:5 45:516 46:0 47:536 48:0 49:629 50:869 51:452 52:3964 53:489 54:56 55:788 56:13 57:949 58:98 59:516 60:0 61:556 62:0 63:622 64:0 65:802 66:1287 67:1107 68:8609 69:1463 70:29 71:1737 72:16 73:1644 74:49 75:1418 76:10 77:868 78:0 79:960 80:0 
1 1:845 2:8888 3:1421 4:319 5:2350 6:14 7:1888 8:15 9:1622 10:86 11:709 12:25 13:649 14:3 15:515 16:650 17:1216 18:3430 19:889 20:6364 21:1208 22:28 23:1622 24:16 25:1359 26:161 27:1331 28:0 29:1128 30:0 31:1247 32:2 33:582 34:899 35:502 36:4014 37:815 38:55 39:824 40:0 41:797 42:13 43:585 44:18 45:475 46:1 47:419 48:0 49:477 50:2357 51:490 52:2435 53:851 54:46 55:839 56:5 57:943 58:70 59:513 60:83 61:491 62:2 63:397 64:1 65:673 66:6891 67:845 68:2445 69:1123 70:388 71:1555 72:6 73:2438 74:59 75:1548 76:199 77:1018 78:7 79:799 80:5 
1 1:785 2:8412 3:1139 4:16 5:2348 6:0 7:2109 8:0 9:1307 10:261 11:797 12:642 13:942 14:50 15:572 16:620 17:1201 18:4290 19:908 20:5121 21:1180 22:56 23:1772 24:16 25:1627 26:192 27:1280 28:167 29:947 30:96 31:1085 32:62 33:769 34:1663 35:463 36:3235 37:532 38:80 39:719 40:4 41:738 42:5 43:562 44:2 45:439 46:10 47:778 48:2 49:591 50:1292 51:583 52:3638 53:723 54:58 55:741 56:3 57:733 58:5 59:506 60:0 61:588 62:0 63:535 64:4 65:1257 66:4262 67:1155 68:5303 69:1352 70:34 71:1654 72:6 73:1444 74:170 75:1054 76:121 77:992 78:28 79:1092 80:76 
1 1:3207 2:6706 3:1259 4:165 5:982 6:4 7:736 8:1 9:475 10:16 11:409 12:1310 13:1051 14:780 15:1882 16:1019 17:1602 18:7125 19:925 20:2854 21:914 22:12 23:1671 24:5 25:1524 26:0 27:892 28:0 29:994 30:0 31:1478 32:5 33:398 34:1388 35:443 36:3185 37:550 38:283 39:794 40:7 41:978 42:124 43:615 44:1 45:682 46:2 47:540 48:11 49:316 50:1116 51:392 52:3608 53:643 54:257 55:1174 56:4 57:1136 58:4 59:605 60:1 61:475 62:0 63:259 64:10 65:2806 66:7868 67:765 68:1990 69:755 70:25 71:1045 72:8 73:1119 74:3 75:535 76:1 77:726 78:5 79:2250 80:101 
1 1:2097 2:8841 3:1022 4:52 5:1026 6:1 7:954 8:2 9:703 10:5 11:793 12:248 13:1184 14:296 15:2220 16:555 17:1895 18:8370 19:705 20:1322 21:918 22:83 23:1650 24:6 25:1256 26:30 27:814 28:17 29:818 30:7 31:1944 32:165 33:911 34:2628 35:459 36:2012 37:432 38:90 39:676 40:53 41:729 42:26 43:406 44:40 45:481 46:21 47:905 48:130 49:1028 50:2177 51:447 52:2304 53:442 54:65 55:549 56:135 57:628 58:184 59:429 60:3 61:468 62:14 63:1008 64:119 65:1198 66:5656 67:922 68:4136 69:1202 70:64 71:1411 72:39 73:1527 74:54 75:1306 76:0 77:1007 78:0 79:1427 80:50 
1 1:1609 2:8948 3:878 4:138 5:964 6:0 7:1266 8:0 9:886 10:0 11:1115 12:7 13:1211 14:182 15:2073 16:724 17:1557 18:6483 19:885 20:3431 21:968 22:49 23:1608 24:5 25:1442 26:9 27:937 28:2 29:1093 30:1 31:1510 32:20 33:864 34:3319 35:493 36:1589 37:461 38:72 39:596 40:14 41:778 42:1 43:562 44:0 45:460 46:0 47:786 48:4 49:572 50:1812 51:546 52:3140 53:471 54:22 55:877 56:1 57:695 58:11 59:552 60:0 61:590 62:0 63:696 64:14 65:700 66:2207 67:715 68:7772 69:1315 70:14 71:2118 72:2 73:2018 74:4 75:1317 76:1 77:1171 78:0 79:646 80:1 
1 1:2172 2:8962 3:981 4:153 5:780 6:4 7:904 8:1 9:545 10:8 11:921 12:249 13:1070 14:210 15:2627 16:412 17:1941 18:7844 19:762 20:1673 21:799 22:170 23:1265 24:23 25:1284 26:4 27:838 28:11 29:927 30:15 31:2184 32:260 33:785 34:2242 35:478 36:2632 37:436 38:26 39:743 40:12 41:723 42:15 43:534 44:3 45:517 46:2 47:783 48:68 49:942 50:2229 51:449 52:2281 53:505 54:72 55:530 56:156 57:627 58:92 59:509 60:5 61:529 62:98 63:909 64:69 65:1408 66:5000 67:1065 68:4936 69:974 70:12 71:1197 72:1 73:1377 74:30 75:1219 76:5 77:1383 78:0 79:1377 80:15 
1 1:3047 2:8080 3:926 4:35 5:605 6:18 7:420 8:4 9:424 10:6 11:424 12:482 13:1007 14:347 15:3147 16:1029 17:2085 18:7515 19:724 20:1900 21:822 22:70 23:1251 24:8 25:1274 26:14 27:667 28:93 29:846 30:31 31:2330 32:368 33:917 34:3967 35:416 36:746 37:460 38:46 39:655 40:80 41:671 42:3 43:419 44:9 45:427 46:4 47:1035 48:143 49:901 50:2756 51:447 52:1841 53:477 54:7 55:554 56:8 57:675 58:74 59:451 60:26 61:542 62:15 63:954 64:273 65:2130 66:5851 67:899 68:2865 69:946 70:47 71:1118 72:65 73:1468 74:691 75:905 76:81 77:838 78:37 79:1697 80:364 
1 1:2869 2:7979 3:863 4:26 5:710 6:14 7:310 8:4 9:403 10:12 11:749 12:460 13:1090 14:724 15:3007 16:781 17:2279 18:8304 19:927 20:595 21:854 22:83 23:997 24:12 25:955 26:298 27:761 28:342 29:860 30:103 31:2367 32:265 33:1248 34:3142 35:480 36:1152 37:296 38:62 39:471 40:46 41:516 42:132 43:319 44:314 45:422 46:76 47:1248 48:77 49:785 50:2908 51:497 52:1546 53:528 54:78 55:612 56:156 57:548 58:106 59:671 60:8 61:531 62:4 63:830 64:195 65:1384 66:7029 67:1007 68:2840 69:1117 70:42 71:1111 72:43 73:992 74:16 75:1415 76:5 77:1420 78:2 79:1555 80:22 
1 1:2551 2:8383 3:1113 4:35 5:671 6:24 7:468 8:0 9:403 10:8 11:1136 12:547 13:1305 14:661 15:2352 16:342 17:2488 18:8473 19:751 20:1242 21:735 22:124 23:1090 24:5 25:982 26:7 27:638 28:4 29:945 30:2 31:2371 32:142 33:1261 34:2443 35:431 36:2220 37:320 38:85 39:441 40:34 41:441 42:15 43:371 44:46 45:401 46:12 47:1335 48:145 49:819 50:2189 51:484 52:2276 53:538 54:140 55:701 56:239 57:565 58:66 59:480 60:19 61:594 62:8 63:819 64:64 65:1164 66:5537 67:925 68:4180 69:931 70:118 71:1263 72:89 73:1500 74:50 75:1195 76:24 77:1372 78:2 79:1650 80:1 
1 1:1287 2:7166 3:1654 4:2812 5:1367 6:0 7:1070 8:0 9:903 10:0 11:975 12:0 13:1453 14:0 15:1290 16:22 17:1101 18:6049 19:1040 20:3935 21:1110 22:1 23:1667 24:0 25:1450 26:0 27:1464 28:0 29:1161 30:0 31:1008 32:15 33:548 34:2517 35:362 36:2476 37:558 38:2 39:747 40:0 41:819 42:0 43:731 44:0 45:681 46:0 47:553 48:5 49:581 50:1518 51:826 52:3470 53:768 54:3 55:626 56:0 57:511 58:6 59:521 60:2 61:684 62:0 63:484 64:0 65:1322 66:4511 67:1315 68:5468 69:1269 70:0 71:897 72:0 73:926 74:0 75:1153 76:0 77:1653 78:0 79:1465 80:21 
0.9227526577727607 1:1528 2:6424 3:548 4:164 5:798 6:0 7:445 8:0 9:969 10:0 11:2143 12:144 13:1910 14:623 15:1659 16:2645 17:1837 18:6048 19:866 20:3336 21:1071 22:5 23:1282 24:7 25:997 26:444 27:886 28:158 29:992 30:0 31:2070 32:2 33:742 34:3071 35:501 36:1884 37:617 38:1 39:598 40:0 41:487 42:5 43:562 44:28 45:628 46:7 47:865 48:4 49:752 50:2575 51:535 52:2310 53:665 54:7 55:761 56:0 57:547 58:85 59:555 60:13 61:503 62:0 63:683 64:10 65:1462 66:5889 67:916 68:4070 69:1127 70:1 71:1201 72:2 73:1538 74:16 75:1357 76:3 77:1120 78:9 79:1279 80:11 
1 1:577 2:7308 3:683 4:202 5:2031 6:1 7:1751 8:0 9:1568 10:0 11:1680 12:1 13:1016 14:584 15:693 16:1904 17:1254 18:4673 19:973 20:4432 21:1223 22:21 23:1499 24:16 25:1472 26:835 27:1489 28:5 29:1058 30:5 31:1031 32:14 33:805 34:2348 35:471 36:2194 37:485 38:25 39:518 40:11 41:479 42:408 43:583 44:14 45:702 46:0 47:955 48:1 49:828 50:2262 51:457 52:2687 53:537 54:11 55:564 56:0 57:602 58:14 59:550 60:18 61:670 62:5 63:791 64:2 65:1266 66:4749 67:1126 68:5124 69:1593 70:20 71:1753 72:10 73:1400 74:38 75:943 76:53 77:823 78:5 79:1096 80:1 
1 1:451 2:5518 3:488 4:43 5:2394 6:1 7:2404 8:0 9:1295 10:0 11:1705 12:0 13:927 14:1153 15:335 16:3284 17:1941 18:6382 19:701 20:3612 21:1263 22:0 23:1552 24:0 25:1196 26:0 27:635 28:0 29:778 30:0 31:1935 32:6 33:1008 34:3067 35:459 36:1700 37:510 38:5 39:463 40:2 41:443 42:102 43:511 44:119 45:637 46:2 47:971 48:3 49:729 50:2563 51:485 52:2389 53:577 54:2 55:586 56:1 57:550 58:11 59:702 60:17 61:558 62:11 63:812 64:5 65:1417 66:6031 67:1037 68:3840 69:1452 70:7 71:1845 72:9 73:1225 74:79 75:776 76:23 77:759 78:0 79:1490 80:10 
1 1:407 2:7264 3:454 4:439 5:2349 6:12 7:2301 8:1 9:1576 10:0 11:1670 12:6 13:717 14:285 15:527 16:1993 17:1569 18:2639 19:729 20:7361 21:1553 22:0 23:1622 24:0 25:1384 26:0 27:725 28:0 29:663 30:0 31:1753 32:0 33:1145 34:1594 35:386 36:3167 37:462 38:12 39:482 40:1 41:413 42:210 43:391 44:15 45:537 46:0 47:1183 48:0 49:919 50:1509 51:521 52:3459 53:532 54:5 55:533 56:2 57:444 58:8 59:580 60:12 61:575 62:2 63:896 64:4 65:1622 66:3918 67:1047 68:5811 69:1425 70:53 71:1500 72:12 73:1201 74:119 75:1045 76:70 77:933 78:15 79:1228 80:2 
1 1:525 2:9277 3:1237 4:267 5:2592 6:2 7:2352 8:2 9:1534 10:153 11:746 12:18 13:663 14:0 15:351 16:280 17:818 18:1240 19:803 20:8760 21:982 22:0 23:1273 24:0 25:1243 26:0 27:1870 28:0 29:1862 30:0 31:1149 32:0 33:728 34:422 35:483 36:4574 37:617 38:5 39:608 40:0 41:635 42:0 43:721 44:0 45:545 46:0 47:663 48:0 49:403 50:605 51:289 52:4395 53:498 54:0 55:1115 56:0 57:1030 58:0 59:455 60:0 61:550 62:0 63:659 64:0 65:698 66:267 67:704 68:9703 69:1356 70:8 71:1755 72:0 73:2322 74:21 75:1237 76:0 77:1094 78:0 79:835 80:0 
1 1:965 2:9071 3:1431 4:845 5:2253 6:3 7:1311 8:0 9:1162 10:0 11:1158 12:0 13:925 14:0 15:797 16:81 17:2055 18:7720 19:1334 20:2280 21:1027 22:0 23:1031 24:0 25:862 26:0 27:1046 28:0 29:918 30:0 31:1727 32:0 33:402 34:2855 35:502 36:2145 37:672 38:1 39:894 40:0 41:819 42:0 43:691 44:0 45:554 46:0 47:466 48:0 49:321 50:2372 51:467 52:2611 53:769 54:16 55:1022 56:0 57:985 58:0 59:656 60:0 61:495 62:0 63:285 64:0 65:874 66:3246 67:1319 68:6748 69:1531 70:6 71:1597 72:0 73:1647 74:0 75:1211 76:0 77:881 78:0 79:940 80:1 
1 1:862 2:8733 3:705 4:96 5:1264 6:0 7:1264 8:0 9:1208 10:0 11:1525 12:0 13:2171 14:0 15:1000 16:1172 17:495 18:4820 19:704 20:5178 21:1536 22:1 23:2431 24:0 25:1987 26:0 27:1345 28:0 29:1060 30:0 31:441 32:1 33:374 34:2015 35:497 36:2974 37:659 38:7 39:1070 40:0 41:916 42:0 43:696 44:0 45:436 46:0 47:352 48:3 49:368 50:1200 51:412 52:3591 53:690 54:9 55:1283 56:3 57:920 58:197 59:605 60:0 61:413 62:0 63:308 64:0 65:793 66:3236 67:627 68:5964 69:1322 70:62 71:2671 72:29 73:2015 74:676 75:955 76:14 77:827 78:5 79:791 80:12 
1 1:1123 2:6026 3:1703 4:3568 5:1663 6:0 7:1204 8:0 9:994 10:0 11:1243 12:0 13:1137 14:41 15:934 16:365 17:1964 18:8198 19:814 20:1652 21:848 22:0 23:1161 24:0 25:1086 26:0 27:1125 28:7 29:1306 30:26 31:1697 32:117 33:359 34:2888 35:536 36:2055 37:863 38:3 39:1131 40:1 41:808 42:3 43:507 44:0 45:420 46:0 47:376 48:50 49:405 50:2762 51:327 52:2207 53:525 54:1 55:1073 56:0 57:970 58:0 59:748 60:0 61:537 62:1 63:415 64:29 65:1154 66:5853 67:1169 68:4145 69:940 70:0 71:1155 72:0 73:1325 74:0 75:1278 76:0 77:1527 78:0 79:1451 80:2 
1 1:1013 2:4805 3:1856 4:4882 5:1586 6:0 7:1100 8:0 9:930 10:0 11:1137 12:0 13:1231 14:27 15:1147 16:285 17:1881 18:7586 19:982 20:2367 21:882 22:0 23:1120 24:0 25:973 26:0 27:1223 28:0 29:1163 30:9 31:1776 32:38 33:345 34:2717 35:500 36:2233 37:844 38:4 39:1226 40:0 41:850 42:3 43:511 44:0 45:433 46:0 47:291 48:43 49:435 50:2312 51:400 52:2667 53:553 54:0 55:993 56:0 57:926 58:0 59:619 60:0 61:615 62:1 63:458 64:21 65:1202 66:4769 67:1173 68:5227 69:1007 70:0 71:1205 72:1 73:1406 74:0 75:1127 76:0 77:1525 78:2 79:1355 80:2 
1 1:635 2:8596 3:465 4:248 5:1210 6:0 7:1494 8:0 9:2340 10:0 11:1833 12:0 13:1295 14:15 15:728 16:1142 17:650 18:3323 19:902 20:6678 21:1408 22:0 23:1955 24:0 25:2078 26:0 27:1294 28:0 29:898 30:0 31:816 32:0 33:317 34:708 35:481 36:4292 37:430 38:0 39:964 40:0 41:1134 42:0 43:670 44:0 45:619 46:0 47:386 48:0 49:290 50:380 51:428 52:4620 53:664 54:0 55:1075 56:0 57:1257 58:0 59:651 60:0 61:411 62:0 63:224 64:0 65:573 66:1758 67:1139 68:8242 69:1308 70:0 71:2292 72:0 73:2336 74:0 75:1093 76:0 77:758 78:0 79:501 80:0 
1 1:404 2:8745 3:659 4:0 5:1546 6:0 7:1806 8:0 9:2373 10:0 11:1623 12:0 13:1189 14:0 15:399 16:1255 17:1221 18:1182 19:1034 20:8800 21:1146 22:18 23:1364 24:0 25:1826 26:0 27:1150 28:0 29:1179 30:0 31:1080 32:0 33:580 34:479 35:455 36:4353 37:511 38:168 39:820 40:0 41:1031 42:0 43:560 44:0 45:500 46:0 47:543 48:0 49:307 50:260 51:295 52:4469 53:470 54:239 55:976 56:22 57:1492 58:10 59:643 60:0 61:495 62:0 63:322 64:0 65:1328 66:866 67:884 68:8848 69:996 70:286 71:1674 72:0 73:1632 74:0 75:980 76:0 77:1039 78:0 79:1468 80:0 
1 1:1941 2:6832 3:674 4:2415 5:1198 6:0 7:1685 8:0 9:1081 10:3 11:706 12:181 13:1008 14:162 15:1707 16:407 17:3674 18:8095 19:495 20:1811 21:538 22:29 23:910 24:0 25:693 26:0 27:332 28:0 29:729 30:0 31:2630 32:65 33:1831 34:2250 35:216 36:2703 37:605 38:9 39:363 40:1 41:257 42:4 43:445 44:26 45:342 46:2 47:941 48:5 49:1648 50:1359 51:119 52:3591 53:142 54:9 55:246 56:2 57:243 58:3 59:267 60:18 61:281 62:6 63:2055 64:12 65:2790 66:4111 67:327 68:5753 69:327 70:16 71:412 72:5 73:447 74:3 75:411 76:55 77:410 78:4 79:4877 80:52 
1 1:568 2:7525 3:694 4:0 5:1357 6:0 7:1626 8:0 9:2100 10:0 11:1690 12:0 13:1377 14:259 15:589 16:2216 17:806 18:3127 19:836 20:6844 21:1312 22:5 23:1969 24:0 25:1987 26:0 27:1457 28:1 29:986 30:4 31:647 32:21 33:381 34:495 35:435 36:4492 37:640 38:4 39:803 40:0 41:951 42:0 43:665 44:0 45:691 46:0 47:434 48:9 49:394 50:945 51:513 52:4047 53:707 54:5 55:770 56:2 57:895 58:0 59:718 60:0 61:628 62:0 63:375 64:0 65:723 66:3445 67:1331 68:6539 69:1326 70:15 71:1628 72:1 73:1552 74:0 75:1535 76:0 77:1105 78:0 79:800 80:0 
1 1:1417 2:7242 3:1307 4:315 5:1394 6:3 7:1078 8:4 9:909 10:31 11:837 12:1833 13:1597 14:393 15:1460 16:178 17:1099 18:8417 19:1327 20:1066 21:1350 22:10 23:1202 24:0 25:1307 26:2 27:1340 28:442 29:1266 30:49 31:1110 32:14 33:602 34:3594 35:614 36:1360 37:681 38:12 39:651 40:1 41:591 42:7 43:594 44:22 45:668 46:2 47:599 48:1 49:617 50:2882 51:545 52:2097 53:749 54:2 55:684 56:1 57:758 58:5 59:625 60:10 61:505 62:1 63:516 64:2 65:1306 66:6272 67:1146 68:3610 69:1180 70:0 71:1374 72:0 73:1263 74:0 75:1403 76:4 77:1243 78:58 79:1085 80:56 
1 1:1213 2:8087 3:1238 4:1142 5:1330 6:0 7:1186 8:0 9:1341 10:2 11:1436 12:64 13:1156 14:509 15:1099 16:195 17:1150 18:4467 19:1112 20:5387 21:1195 22:5 23:1626 24:0 25:1443 26:4 27:1118 28:13 29:1204 30:67 31:1154 32:58 33:438 34:2591 35:550 36:2393 37:684 38:2 39:875 40:0 41:831 42:0 43:620 44:0 45:584 46:2 47:418 48:13 49:527 50:2408 51:505 52:2539 53:707 54:30 55:752 56:0 57:715 58:0 59:669 60:3 61:607 62:6 63:519 64:13 65:1104 66:5795 67:1186 68:4195 69:1211 70:3 71:1311 72:0 73:1099 74:0 75:1344 76:0 77:1469 78:3 79:1276 80:4 
1 1:1178 2:8659 3:1152 4:181 5:1359 6:0 7:1124 8:0 9:1468 10:3 11:1431 12:32 13:1197 14:564 15:1091 16:561 17:1033 18:5306 19:1236 20:4498 21:1395 22:0 23:1667 24:0 25:1260 26:0 27:1074 28:19 29:1278 30:96 31:1057 32:81 33:437 34:2926 35:526 36:2048 37:702 38:1 39:829 40:0 41:845 42:0 43:671 44:0 45:615 46:2 47:376 48:23 49:368 50:2818 51:578 52:2141 53:650 54:12 55:816 56:0 57:739 58:0 59:743 60:1 61:624 62:8 63:481 64:20 65:1024 66:6717 67:1160 68:3265 69:1269 70:2 71:1311 72:0 73:1121 74:0 75:1205 76:0 77:1533 78:4 79:1377 80:12 
1 1:454 2:8261 3:766 4:66 5:2035 6:0 7:2411 8:0 9:2416 10:0 11:1017 12:0 13:607 14:13 15:295 16:1660 17:885 18:566 19:991 20:9312 21:1384 22:123 23:1786 24:0 25:1685 26:0 27:1305 28:0 29:1026 30:0 31:937 32:0 33:491 34:230 35:513 36:4544 37:638 38:226 39:837 40:0 41:921 42:0 43:621 44:0 45:527 46:0 47:452 48:0 49:575 50:154 51:529 52:4593 53:594 54:243 55:994 56:4 57:789 58:5 59:518 60:0 61:516 62:0 63:485 64:1 65:1429 66:149 67:1696 68:9339 69:1358 70:512 71:1053 72:0 73:1135 74:0 75:986 76:0 77:1124 78:0 79:1219 80:0 
1 1:731 2:2264 3:754 4:7684 5:1221 6:0 7:2255 8:0 9:2754 10:0 11:989 12:0 13:631 14:12 15:665 16:40 17:900 18:6279 19:1080 20:3682 21:1970 22:0 23:1674 24:0 25:1066 26:0 27:1227 28:0 29:1190 30:0 31:892 32:39 33:467 34:1338 35:557 36:3608 37:681 38:51 39:787 40:3 41:868 42:0 43:661 44:0 45:493 46:0 47:486 48:0 49:592 50:87 51:698 52:4752 53:673 54:137 55:667 56:16 57:704 58:7 59:581 60:0 61:529 62:0 63:554 64:1 65:1389 66:201 67:1441 68:9267 69:1424 70:531 71:1168 72:0 73:937 74:0 75:1298 76:0 77:1265 78:0 79:1078 80:0 
0.5134957695544008 1:1317 2:2767 3:954 4:6312 5:906 6:1 7:757 8:0 9:1596 10:0 11:1235 12:0 13:2010 14:0 15:1225 16:920 17:1331 18:7789 19:1087 20:2103 21:1163 22:0 23:1255 24:0 25:1260 26:0 27:1045 28:0 29:1377 30:6 31:1481 32:102 33:618 34:2538 35:576 36:2363 37:482 38:98 39:651 40:1 41:740 42:1 43:558 44:0 45:691 46:0 47:684 48:0 49:584 50:2847 51:593 52:1997 53:599 54:144 55:752 56:3 57:739 58:0 59:656 60:1 61:519 62:1 63:558 64:6 65:1092 66:2931 67:1155 68:6885 69:1096 70:115 71:1332 72:11 73:1628 74:27 75:1274 76:3 77:1258 78:0 79:1164 80:27 
1 1:1156 2:7925 3:944 4:2071 5:1061 6:0 7:1228 8:0 9:1600 10:0 11:1811 12:0 13:1277 14:0 15:922 16:4 17:985 18:6233 19:968 20:3730 21:1305 22:0 23:1408 24:0 25:1663 26:0 27:1720 28:0 29:1103 30:0 31:848 32:37 33:413 34:2780 35:441 36:2210 37:818 38:3 39:965 40:0 41:848 42:4 43:711 44:2 45:431 46:0 47:374 48:0 49:394 50:2932 51:530 52:2068 53:683 54:0 55:967 56:0 57:972 58:0 59:598 60:0 61:466 62:0 63:390 64:0 65:1166 66:4382 67:1246 68:5618 69:1282 70:0 71:1166 72:0 73:1445 74:0 75:1405 76:0 77:1269 78:0 79:1021 80:0 
0.5653085006217081 1:499 2:4732 3:386 4:823 5:613 6:2 7:3350 8:2 9:3044 10:0 11:786 12:18 13:632 14:1327 15:689 16:3096 17:893 18:1967 19:1067 20:7807 21:1204 22:28 23:1679 24:19 25:1818 26:29 27:1217 28:68 29:1097 30:53 31:1025 32:30 33:746 34:664 35:514 36:4266 37:541 38:10 39:682 40:9 41:668 42:7 43:506 44:8 45:545 46:18 47:798 48:19 49:655 50:1049 51:536 52:3951 53:500 54:0 55:847 56:0 57:858 58:0 59:505 60:0 61:505 62:0 63:593 64:0 65:1019 66:2103 67:997 68:7896 69:1022 70:0 71:1924 72:0 73:1960 74:0 75:1022 76:0 77:1025 78:0 79:1032 80:0 
0.4105864837391341 1:850 2:4339 3:1286 4:5526 5:2280 6:0 7:1561 8:0 9:1588 10:0 11:1123 12:0 13:800 14:0 15:513 16:135 17:505 18:8918 19:786 20:905 21:1737 22:0 23:2438 24:0 25:1867 26:0 27:1268 28:0 29:963 30:0 31:436 32:177 33:242 34:1683 35:457 36:3316 37:836 38:0 39:1024 40:0 41:1120 42:0 43:729 44:0 45:348 46:0 47:245 48:1 49:516 50:805 51:611 52:4194 53:719 54:0 55:856 56:0 57:731 58:0 59:584 60:0 61:545 62:0 63:437 64:1 65:849 66:728 67:1079 68:9264 69:1306 70:8 71:1776 72:0 73:1767 74:0 75:1224 76:0 77:1106 78:0 79:894 80:0 
1 1:1895 2:6359 3:380 4:7 5:674 6:0 7:301 8:0 9:878 10:2404 11:1659 12:323 13:993 14:218 15:3220 16:689 17:2274 18:9589 19:524 20:383 21:682 22:0 23:1058 24:0 25:1737 26:0 27:1234 28:0 29:555 30:0 31:1937 32:27 33:740 34:4848 35:385 36:114 37:525 38:2 39:699 40:0 41:962 42:0 43:605 44:1 45:310 46:0 47:773 48:35 49:984 50:4857 51:265 52:59 53:344 54:2 55:578 56:0 57:795 58:61 59:555 60:3 61:398 62:3 63:1081 64:15 65:1373 66:9031 67:553 68:86 69:686 70:0 71:1402 72:1 73:2641 74:718 75:855 76:63 77:758 78:18 79:1731 80:82 
0.8431730613389518 1:783 2:0 3:349 4:0 5:999 6:0 7:2650 8:0 9:3517 10:9910 11:619 12:74 13:808 14:9 15:275 16:7 17:1221 18:8925 19:503 20:313 21:833 22:3 23:2268 24:5 25:2442 26:660 27:772 28:35 29:723 30:30 31:1237 32:28 33:942 34:4549 35:361 36:212 37:323 38:14 39:669 40:12 41:638 42:163 43:436 44:11 45:445 46:15 47:1186 48:24 49:787 50:4644 51:443 52:113 53:422 54:5 55:631 56:3 57:800 58:107 59:542 60:70 61:478 62:24 63:897 64:35 65:1248 66:8729 67:758 68:241 69:775 70:2 71:1968 72:12 73:2232 74:986 75:938 76:0 77:978 78:0 79:1104 80:30 
1 1:1078 2:8083 3:746 4:974 5:1175 6:7 7:1032 8:89 9:1442 10:7 11:1436 12:18 13:1990 14:26 15:1101 16:795 17:1739 18:7936 19:702 20:1513 21:745 22:74 23:1884 24:355 25:1734 26:116 27:562 28:5 29:609 30:0 31:2026 32:0 33:905 34:3553 35:410 36:1149 37:335 38:36 39:526 40:240 41:629 42:20 43:259 44:0 45:398 46:0 47:1538 48:0 49:845 50:3210 51:317 52:1540 53:324 54:119 55:598 56:124 57:646 58:7 59:378 60:0 61:578 62:0 63:1314 64:0 65:865 66:7232 67:646 68:2408 69:1095 70:323 71:2324 72:36 73:2061 74:0 75:565 76:0 77:1038 78:0 79:1405 80:0 
1 1:1189 2:5518 3:958 4:0 5:1051 6:0 7:1518 8:0 9:2059 10:663 11:1482 12:2281 13:718 14:749 15:1025 16:789 17:824 18:4120 19:856 20:2935 21:1362 22:86 23:2036 24:41 25:2143 26:173 27:1094 28:2207 29:899 30:192 31:786 32:245 33:373 34:2495 35:380 36:1388 37:618 38:3 39:1107 40:2 41:1091 42:14 43:589 44:343 45:379 46:295 47:463 48:459 49:563 50:2928 51:418 52:1250 53:485 54:10 55:1036 56:14 57:980 58:321 59:543 60:161 61:383 62:118 63:592 64:199 65:1127 66:6755 67:699 68:2014 69:986 70:25 71:1962 72:31 73:2089 74:854 75:1216 76:181 77:754 78:29 79:1166 80:110 
1 1:2026 2:143 3:646 4:0 5:700 6:0 7:703 8:0 9:818 10:475 11:552 12:9321 13:1779 14:38 15:2775 16:23 17:1318 18:9485 19:968 20:30 21:1072 22:4 23:1102 24:2 25:1272 26:75 27:1206 28:363 29:1209 30:5 31:1854 32:36 33:479 34:4025 35:459 36:177 37:535 38:1 39:776 40:1 41:952 42:327 43:562 44:466 45:611 46:0 47:627 48:2 49:808 50:4009 51:431 52:370 53:507 54:18 55:721 56:10 57:739 58:299 59:631 60:264 61:496 62:7 63:668 64:23 65:1217 66:7542 67:1076 68:635 69:1375 70:67 71:1457 72:18 73:1745 74:656 75:1177 76:237 77:799 78:28 79:1155 80:817 
1 1:3916 2:8513 3:1483 4:14 5:492 6:2 7:162 8:29 9:161 10:263 11:210 12:196 13:1090 14:394 15:2487 16:589 17:2128 18:9914 19:1011 20:85 21:1052 22:0 23:770 24:0 25:720 26:0 27:1145 28:0 29:1241 30:0 31:1931 32:1 33:1235 34:4694 35:401 36:186 37:437 38:25 39:394 40:11 41:369 42:20 43:319 44:32 45:555 46:13 47:1291 48:20 49:782 50:4418 51:686 52:491 53:432 54:13 55:641 56:4 57:738 58:1 59:532 60:5 61:523 62:4 63:666 64:63 65:1977 66:9628 67:1477 68:210 69:1026 70:0 71:873 72:1 73:1074 74:2 75:947 76:12 77:931 78:72 79:1696 80:75 
1 1:1136 2:337 3:600 4:4724 5:1816 6:23 7:1582 8:2002 9:2417 10:2607 11:648 12:307 13:1223 14:0 15:578 16:0 17:1829 18:5353 19:1201 20:3842 21:1048 22:379 23:1082 24:206 25:1231 26:112 27:886 28:18 29:1161 30:5 31:1562 32:85 33:405 34:2931 35:519 36:1932 37:673 38:66 39:771 40:50 41:885 42:21 43:687 44:0 45:584 46:0 47:476 48:0 49:489 50:2874 51:473 52:1688 53:660 54:99 55:885 56:146 57:845 58:170 59:675 60:0 61:535 62:1 63:438 64:23 65:921 66:6184 67:987 68:3557 69:1849 70:99 71:1367 72:61 73:1761 74:16 75:1450 76:0 77:830 78:0 79:836 80:82 
1 1:1154 2:7599 3:1075 4:0 5:1862 6:0 7:1520 8:0 9:1546 10:0 11:1017 12:171 13:1081 14:175 15:745 16:2056 17:1120 18:7862 19:827 20:1676 21:1450 22:71 23:2495 24:22 25:1906 26:333 27:681 28:13 29:661 30:0 31:859 32:21 33:607 34:3406 35:408 36:1067 37:662 38:75 39:958 40:40 41:948 42:297 43:424 44:57 45:478 46:18 47:515 48:41 49:350 50:3521 51:465 52:993 53:739 54:55 55:1118 56:55 57:810 58:203 59:564 60:72 61:488 62:76 63:465 64:25 65:1046 66:5985 67:700 68:3728 69:1221 70:49 71:2004 72:71 73:1975 74:159 75:1217 76:0 77:897 78:0 79:941 80:8 
1 1:687 2:8733 3:652 4:15 5:1500 6:0 7:1591 8:0 9:2654 10:88 11:1352 12:58 13:1069 14:143 15:494 16:963 17:1060 18:6981 19:967 20:2072 21:1577 22:106 23:1888 24:43 25:1544 26:479 27:638 28:250 29:941 30:9 31:1384 32:60 33:400 34:3308 35:346 36:1368 37:792 38:30 39:1199 40:18 41:887 42:200 43:428 44:52 45:461 46:9 47:488 48:16 49:322 50:2962 51:419 52:1816 53:815 54:32 55:1108 56:30 57:948 58:154 59:573 60:2 61:492 62:0 63:324 64:3 65:1060 66:5259 67:999 68:4496 69:1346 70:35 71:1682 72:55 73:1976 74:144 75:1151 76:1 77:854 78:0 79:930 80:9 
1 1:653 2:2834 3:545 4:0 5:1252 6:0 7:1552 8:0 9:2604 10:221 11:1537 12:251 13:1236 14:1197 15:620 16:5497 17:721 18:9064 19:740 20:513 21:1899 22:5 23:2166 24:2 25:1540 26:215 27:1089 28:123 29:1073 30:2 31:774 32:74 33:357 34:3993 35:525 36:753 37:865 38:3 39:1155 40:8 41:843 42:134 43:516 44:76 45:430 46:17 47:310 48:16 49:477 50:3832 51:408 52:866 53:600 54:29 55:985 56:9 57:1055 58:179 59:560 60:49 61:459 62:7 63:456 64:30 65:2627 66:8438 67:797 68:1177 69:796 70:2 71:1670 72:13 73:1690 74:316 75:651 76:9 77:619 78:2 79:1151 80:44 
1 1:1474 2:4677 3:663 4:32 5:517 6:10 7:2116 8:38 9:1811 10:405 11:547 12:292 13:712 14:947 15:2161 16:3600 17:1013 18:4962 19:940 20:3070 21:1285 22:949 23:1926 24:4 25:1929 26:4 27:1061 28:10 29:847 30:243 31:998 32:757 33:528 34:3004 35:595 36:1865 37:615 38:26 39:981 40:2 41:782 42:8 43:467 44:2 45:528 46:4 47:504 48:89 49:616 50:3011 51:520 52:1844 53:534 54:60 55:956 56:3 57:881 58:33 59:437 60:0 61:493 62:6 63:564 64:43 65:1123 66:5832 67:746 68:3794 69:1039 70:189 71:2051 72:37 73:1755 74:97 75:1261 76:6 77:1006 78:5 79:1021 80:40 
1 1:1400 2:2801 3:1571 4:6069 5:1332 6:47 7:937 8:12 9:1219 10:74 11:894 12:78 13:1247 14:157 15:1401 16:762 17:1377 18:8207 19:941 20:1228 21:1213 22:23 23:1357 24:9 25:1217 26:80 27:1154 28:4 29:1274 30:61 31:1466 32:389 33:460 34:3657 35:589 36:825 37:701 38:64 39:759 40:30 41:901 42:52 43:537 44:13 45:525 46:19 47:529 48:340 49:450 50:3245 51:446 52:1157 53:557 54:108 55:779 56:17 57:874 58:10 59:749 60:37 61:639 62:31 63:506 64:394 65:810 66:5469 67:860 68:3997 69:1111 70:215 71:1567 72:18 73:2005 74:0 75:1809 76:8 77:914 78:22 79:925 80:271 
1 1:945 2:7459 3:515 4:678 5:690 6:9 7:4779 8:17 9:1726 10:206 11:199 12:332 13:250 14:467 15:897 16:834 17:744 18:3753 19:1514 20:6210 21:2081 22:22 23:2447 24:1 25:1442 26:4 27:626 28:1 29:551 30:0 31:596 32:9 33:346 34:3484 35:664 36:1338 37:876 38:57 39:1318 40:18 41:887 42:81 43:251 44:7 45:208 46:0 47:451 48:14 49:542 50:3156 51:343 52:1360 53:320 54:92 55:1506 56:84 57:1007 58:193 59:336 60:24 61:354 62:3 63:591 64:89 65:942 66:3395 67:660 68:6551 69:1036 70:40 71:2554 72:6 73:1708 74:4 75:972 76:1 77:1062 78:0 79:1066 80:3 
1 1:588 2:1257 3:363 4:74 5:777 6:0 7:3217 8:0 9:3769 10:11 11:512 12:0 13:425 14:2913 15:349 16:5745 17:2913 18:7960 19:937 20:1477 21:595 22:0 23:917 24:2 25:1424 26:23 27:557 28:146 29:689 30:148 31:1968 32:244 33:520 34:3030 35:403 36:1674 37:459 38:4 39:1010 40:1 41:1097 42:32 43:440 44:124 45:459 46:78 47:613 48:58 49:636 50:3155 51:429 52:1536 53:490 54:8 55:1017 56:5 57:1009 58:23 59:458 60:114 61:456 62:57 63:506 64:102 65:1068 66:6448 67:778 68:3022 69:997 70:1 71:2038 72:17 73:1773 74:60 75:1038 76:32 77:1052 78:165 79:1257 80:256 
1 1:825 2:763 3:1175 4:5956 5:1119 6:2427 7:1871 8:247 9:1958 10:243 11:1318 12:169 13:964 14:34 15:770 16:159 17:1372 18:1982 19:996 20:2727 21:925 22:3449 23:1379 24:406 25:1877 26:385 27:1239 28:298 29:1069 30:519 31:1143 32:234 33:1137 34:998 35:481 36:2171 37:430 38:200 39:417 40:40 41:491 42:1011 43:473 44:534 45:570 46:11 47:1002 48:35 49:879 50:1603 51:493 52:1123 53:409 54:1701 55:590 56:73 57:595 58:257 59:581 60:73 61:567 62:25 63:887 64:144 65:1717 66:2743 67:1082 68:1494 69:911 70:2368 71:990 72:507 73:1184 74:2044 75:1143 76:451 77:1399 78:104 79:1575 80:289 
-1 1:1168 2:1317 3:872 4:6186 5:1075 6:1106 7:1884 8:606 9:2293 10:783 11:671 12:2 13:1066 14:0 15:970 16:0 17:1213 18:2089 19:791 20:1503 21:1101 22:86 23:1814 24:240 25:2001 26:2798 27:1003 28:3090 29:950 30:73 31:1129 32:121 33:497 34:20 35:417 36:391 37:432 38:89 39:1194 40:169 41:1111 42:2727 43:458 44:1574 45:455 46:14 47:436 48:17 49:553 50:30 51:314 52:644 53:486 54:256 55:1113 56:305 57:1092 58:2612 59:470 60:1150 61:488 62:2 63:484 64:1 65:1080 66:449 67:794 68:554 69:790 70:1294 71:2662 72:2228 73:2194 74:4016 75:849 76:1459 77:877 78:1 79:753 80:0 
-1 1:734 2:705 3:911 4:4846 5:1572 6:1670 7:2444 8:1205 9:2413 10:1575 11:822 12:0 13:588 14:0 15:515 16:0 17:1102 18:1604 19:751 20:2221 21:887 22:50 23:2189 24:244 25:2251 26:3032 27:911 28:2775 29:760 30:61 31:1150 32:13 33:297 34:207 35:381 36:872 37:505 38:47 39:1372 40:192 41:1068 42:2561 43:533 44:1103 45:496 46:13 47:348 48:5 49:449 50:416 51:331 52:690 53:447 54:268 55:1418 56:329 57:1000 58:2497 59:426 60:797 61:486 62:2 63:444 64:0 65:824 66:311 67:832 68:1103 69:1675 70:1909 71:2724 72:3040 73:1496 74:2814 75:988 76:820 77:748 78:2 79:713 80:1 
-1 1:722 2:262 3:1318 4:2487 5:1124 6:346 7:2024 8:703 9:2003 10:4527 11:885 12:1667 13:1027 14:7 15:897 16:1 17:1206 18:1841 19:790 20:1126 21:947 22:97 23:2032 24:273 25:1929 26:2825 27:960 28:3720 29:954 30:107 31:1182 32:12 33:494 34:13 35:416 36:304 37:496 38:124 39:1001 40:116 41:1167 42:2690 43:483 44:1719 45:410 46:28 47:532 48:6 49:551 50:9 51:432 52:375 53:475 54:346 55:958 56:322 57:1013 58:2751 59:474 60:1189 61:566 62:7 63:530 64:1 65:890 66:52 67:1284 68:982 69:1235 70:2741 71:1944 72:2665 73:1680 74:2638 75:946 76:919 77:957 78:3 79:1063 80:1 
