svm_type c_svc
kernel_type linear
nr_class 2
total_sv 354
rho -383
label 1 0
nr_sv 178 176
SV
0.6607666290146804 1:79 2:0 3:80 4:0 5:195 6:0 7:158 8:0 9:234 10:1000 11:127 12:0 13:92 14:0 15:35 16:0 17:43 18:0 19:56 20:0 21:159 22:29 23:229 24:92 25:205 26:876 27:181 28:2 29:92 30:0 31:35 32:1 33:18 34:2 35:29 36:1 37:149 38:9 39:227 40:34 41:343 42:942 43:171 44:9 45:51 46:1 47:13 48:1 49:67 50:14 51:89 52:39 53:199 54:4 55:255 56:0 57:167 58:938 59:114 60:4 61:48 62:1 63:60 64:0 65:96 66:4 67:106 68:164 69:176 70:54 71:128 72:5 73:167 74:770 75:162 76:1 77:91 78:1 79:75 80:1 
1 1:211 2:64 3:61 4:5 5:266 6:0 7:60 8:5 9:138 10:565 11:83 12:299 13:72 14:18 15:110 16:44 17:288 18:628 19:109 20:6 21:74 22:0 23:75 24:0 25:80 26:38 27:48 28:154 29:80 30:48 31:247 32:126 33:183 34:484 35:110 36:1 37:119 38:3 39:98 40:206 41:119 42:170 43:95 44:109 45:101 46:10 47:176 48:17 49:164 50:449 51:120 52:104 53:154 54:25 55:137 56:298 57:114 58:81 59:91 60:11 61:87 62:5 63:133 64:27 65:355 66:376 67:102 68:46 69:52 70:31 71:44 72:176 73:37 74:263 75:47 76:12 77:105 78:5 79:258 80:90 
1 1:54 2:3 3:19 4:2 5:29 6:0 7:327 8:0 9:437 10:6 11:52 12:808 13:33 14:161 15:49 16:19 17:156 18:247 19:105 20:507 21:124 22:7 23:125 24:9 25:138 26:53 27:102 28:73 29:116 30:35 31:133 32:70 33:125 34:364 35:86 36:130 37:96 38:27 39:189 40:17 41:232 42:331 43:102 44:32 45:82 46:7 47:89 48:93 49:122 50:168 51:78 52:104 53:97 54:39 55:182 56:19 57:222 58:369 59:75 60:159 61:83 62:41 63:142 64:100 65:157 66:430 67:50 68:41 69:65 70:4 71:152 72:5 73:168 74:54 75:84 76:305 77:116 78:34 79:209 80:129 
1 1:130 2:346 3:100 4:484 5:91 6:0 7:113 8:1 9:159 10:14 11:139 12:10 13:136 14:33 15:133 16:112 17:116 18:325 19:109 20:654 21:117 22:0 23:121 24:0 25:131 26:10 27:166 28:7 29:126 30:0 31:115 32:3 33:127 34:312 35:110 36:541 37:124 38:39 39:133 40:8 41:149 42:10 43:114 44:18 45:125 46:8 47:120 48:65 49:120 50:314 51:95 52:55 53:102 54:3 55:139 56:3 57:178 58:174 59:126 60:188 61:95 62:38 63:145 64:227 65:123 66:506 67:94 68:194 69:102 70:8 71:146 72:2 73:143 74:68 75:115 76:84 77:123 78:39 79:155 80:100 
1 1:135 2:135 3:101 4:191 5:167 6:34 7:141 8:63 9:116 10:327 11:98 12:197 13:85 14:31 15:156 16:22 17:181 18:60 19:121 20:4 21:80 22:1 23:106 24:1 25:201 26:6 27:127 28:6 29:75 30:1 31:110 32:922 33:123 34:204 35:74 36:39 37:81 38:1 39:132 40:3 41:266 42:47 43:122 44:46 45:85 46:9 47:118 48:650 49:121 50:157 51:77 52:40 53:91 54:6 55:143 56:17 57:202 58:81 59:148 60:28 61:89 62:6 63:130 64:665 65:120 66:677 67:97 68:43 69:127 70:27 71:158 72:96 73:147 74:51 75:85 76:7 77:107 78:5 79:159 80:95 
1 1:243 2:189 3:128 4:491 5:120 6:312 7:140 8:0 9:108 10:2 11:80 12:4 13:60 14:2 15:121 16:1 17:90 18:487 19:55 20:451 21:83 22:27 23:116 24:3 25:125 26:16 27:77 28:4 29:191 30:1 31:263 32:11 33:142 34:348 35:77 36:427 37:90 38:88 39:107 40:7 41:150 42:92 43:183 44:21 45:120 46:5 47:130 48:13 49:71 50:169 51:91 52:450 53:91 54:84 55:124 56:7 57:173 58:147 59:231 60:100 61:125 62:22 63:94 64:20 65:87 66:323 67:64 68:428 69:84 70:55 71:143 72:7 73:217 74:63 75:202 76:47 77:110 78:54 79:94 80:23 
1 1:96 2:525 3:112 4:442 5:137 6:16 7:115 8:0 9:137 10:0 11:149 12:0 13:136 14:10 15:117 16:7 17:197 18:884 19:121 20:95 21:99 22:0 23:98 24:0 25:107 26:0 27:106 28:0 29:113 30:1 31:159 32:21 33:67 34:350 35:72 36:190 37:92 38:102 39:250 40:10 41:299 42:74 43:94 44:123 45:73 46:74 47:54 48:77 49:132 50:202 51:105 52:145 53:109 54:213 55:145 56:23 57:121 58:115 59:120 60:123 61:128 62:82 63:141 64:97 65:140 66:728 67:143 68:195 69:121 70:15 71:97 72:1 73:132 74:2 75:137 76:2 77:121 78:14 79:109 80:43 
1 1:98 2:42 3:115 4:70 5:122 6:190 7:145 8:406 9:145 10:290 11:135 12:0 13:129 14:0 15:113 16:2 17:121 18:4 19:115 20:33 21:127 22:56 23:139 24:177 25:144 26:608 27:111 28:118 29:130 30:2 31:112 32:2 33:122 34:2 35:94 36:22 37:124 38:32 39:147 40:134 41:171 42:708 43:117 44:101 45:114 46:1 47:112 48:0 49:96 50:3 51:109 52:27 53:105 54:21 55:141 56:71 57:194 58:732 59:142 60:136 61:110 62:7 63:103 64:3 65:85 66:26 67:119 68:59 69:135 70:31 71:153 72:29 73:211 74:535 75:120 76:246 77:89 78:28 79:88 80:45 
0.06918963658967069 1:65 2:0 3:85 4:0 5:237 6:0 7:199 8:0 9:198 10:1000 11:86 12:0 13:88 14:0 15:42 16:0 17:90 18:7 19:96 20:312 21:128 22:55 23:146 24:13 25:179 26:613 27:149 28:1 29:129 30:0 31:82 32:0 33:76 34:0 35:79 36:197 37:116 38:91 39:217 40:10 41:255 42:702 43:109 44:0 45:88 46:0 47:61 48:0 49:115 50:0 51:84 52:46 53:154 54:186 55:172 56:154 57:224 58:614 59:99 60:0 61:86 62:0 63:68 64:0 65:89 66:0 67:145 68:59 69:157 70:229 71:169 72:267 73:167 74:445 75:113 76:0 77:78 78:0 79:83 80:0 
0.1827969740353839 1:155 2:10 3:125 4:601 5:156 6:287 7:120 8:40 9:111 10:62 11:101 12:1 13:110 14:0 15:121 16:0 17:220 18:46 19:107 20:311 21:91 22:411 23:85 24:97 25:97 26:82 27:117 28:30 29:112 30:19 31:171 32:3 33:113 34:197 35:115 36:326 37:139 38:348 39:122 40:62 41:140 42:20 43:139 44:1 45:115 46:8 47:118 48:39 49:146 50:244 51:117 52:84 53:129 54:55 55:125 56:16 57:117 58:8 59:97 60:0 61:130 62:1 63:140 64:593 65:95 66:228 67:108 68:449 69:151 70:42 71:157 72:10 73:153 74:4 75:132 76:0 77:112 78:3 79:93 80:264 
1 1:51 2:0 3:74 4:1 5:181 6:1 7:142 8:1 9:235 10:998 11:228 12:0 13:58 14:0 15:31 16:0 17:143 18:149 19:101 20:68 21:124 22:19 23:137 24:13 25:151 26:705 27:113 28:40 29:107 30:1 31:124 32:6 33:94 34:263 35:89 36:82 37:136 38:26 39:187 40:2 41:196 42:558 43:116 44:54 45:97 46:7 47:85 48:8 49:81 50:194 51:91 52:33 53:144 54:4 55:206 56:1 57:228 58:621 59:111 60:125 61:74 62:10 63:66 64:13 65:88 66:255 67:85 68:0 69:102 70:1 71:228 72:2 73:217 74:478 75:115 76:210 77:89 78:35 79:76 80:19 
1 1:9 2:0 3:11 4:0 5:58 6:0 7:231 8:0 9:526 10:1000 11:117 12:0 13:41 14:0 15:8 16:0 17:76 18:146 19:94 20:363 21:111 22:3 23:176 24:9 25:216 26:476 27:139 28:2 29:112 30:1 31:77 32:1 33:80 34:163 35:108 36:266 37:141 38:7 39:186 40:3 41:199 42:550 43:123 44:5 45:97 46:2 47:67 48:4 49:77 50:148 51:80 52:346 53:128 54:9 55:199 56:1 57:207 58:484 59:132 60:10 61:114 62:1 63:62 64:2 65:76 66:136 67:89 68:359 69:128 70:7 71:188 72:0 73:209 74:467 75:129 76:23 77:104 78:4 79:77 80:5 
1 1:143 2:3 3:122 4:275 5:90 6:206 7:86 8:173 9:118 10:343 11:167 12:0 13:150 14:0 15:124 16:0 17:294 18:8 19:79 20:128 21:73 22:190 23:103 24:157 25:101 26:384 27:74 28:127 29:65 30:5 31:211 32:2 33:151 34:77 35:127 36:341 37:113 38:152 39:110 40:58 41:127 42:125 43:115 44:204 45:121 46:18 47:137 48:26 49:114 50:68 51:132 52:206 53:117 54:217 55:108 56:83 57:155 58:67 59:124 60:277 61:139 62:20 63:112 64:62 65:108 66:40 67:91 68:403 69:105 70:114 71:162 72:40 73:164 74:134 75:135 76:243 77:125 78:23 79:110 80:5 
1 1:48 2:0 3:76 4:0 5:155 6:0 7:218 8:0 9:237 10:999 11:123 12:1 13:101 14:0 15:44 16:0 17:99 18:195 19:120 20:77 21:149 22:25 23:174 24:29 25:155 26:662 27:106 28:10 29:104 30:1 31:92 32:1 33:86 34:146 35:85 36:53 37:121 38:1 39:209 40:6 41:181 42:777 43:122 44:14 45:104 46:0 47:93 48:3 49:113 50:218 51:109 52:34 53:144 54:24 55:151 56:13 57:136 58:687 59:123 60:18 61:123 62:1 63:102 64:6 65:88 66:161 67:94 68:14 69:153 70:5 71:186 72:2 73:171 74:713 75:135 76:83 77:97 78:10 79:77 80:12 
1 1:20 2:0 3:15 4:0 5:105 6:0 7:223 8:0 9:396 10:1000 11:168 12:0 13:59 14:0 15:14 16:0 17:66 18:133 19:95 20:27 21:119 22:2 23:191 24:8 25:228 26:829 27:139 28:1 29:92 30:0 31:71 32:0 33:66 34:90 35:91 36:10 37:135 38:0 39:203 40:1 41:237 42:885 43:129 44:11 45:79 46:1 47:61 48:3 49:43 50:108 51:48 52:9 53:119 54:0 55:210 56:1 57:289 58:867 59:154 60:11 61:92 62:1 63:45 64:2 65:64 66:196 67:80 68:6 69:118 70:0 71:202 72:0 73:239 74:767 75:126 76:24 77:99 78:3 79:72 80:4 
1 1:144 2:204 3:57 4:39 5:50 6:2 7:268 8:3 9:254 10:660 11:64 12:74 13:57 14:12 15:106 16:7 17:178 18:104 19:98 20:161 21:96 22:315 23:136 24:120 25:145 26:258 27:83 28:21 29:92 30:2 31:173 32:18 33:147 34:79 35:107 36:135 37:97 38:270 39:111 40:31 41:110 42:344 43:104 44:112 45:136 46:9 47:189 48:20 49:163 50:28 51:97 52:148 53:109 54:42 55:134 56:16 57:145 58:749 59:89 60:14 61:104 62:1 63:160 64:1 65:222 66:79 67:91 68:189 69:81 70:38 71:126 72:19 73:104 74:579 75:91 76:72 77:98 78:13 79:187 80:11 
1 1:126 2:0 3:114 4:1 5:122 6:0 7:95 8:65 9:119 10:929 11:146 12:5 13:159 14:0 15:120 16:0 17:93 18:5 19:291 20:4 21:133 22:0 23:106 24:32 25:109 26:958 27:109 28:1 29:92 30:0 31:68 32:0 33:72 34:0 35:116 36:0 37:136 38:0 39:113 40:12 41:101 42:987 43:168 44:0 45:207 46:0 47:88 48:0 49:107 50:0 51:158 52:0 53:169 54:0 55:110 56:19 57:116 58:981 59:113 60:0 61:136 62:0 63:91 64:0 65:108 66:0 67:139 68:0 69:126 70:4 71:107 72:90 73:117 74:897 75:143 76:9 77:157 78:0 79:104 80:0 
1 1:130 2:0 3:126 4:0 5:102 6:35 7:93 8:260 9:112 10:669 11:136 12:36 13:143 14:0 15:159 16:0 17:90 18:0 19:117 20:5 21:172 22:37 23:167 24:26 25:157 26:315 27:115 28:580 29:89 30:36 31:93 32:0 33:79 34:8 35:129 36:0 37:138 38:2 39:147 40:59 41:110 42:713 43:163 44:217 45:160 46:1 47:74 48:0 49:100 50:0 51:126 52:0 53:169 54:153 55:120 56:198 57:127 58:644 59:135 60:5 61:128 62:0 63:96 64:0 65:156 66:0 67:106 68:4 69:104 70:489 71:123 72:297 73:130 74:209 75:115 76:1 77:136 78:0 79:130 80:0 
1 1:128 2:0 3:107 4:2 5:128 6:1 7:96 8:25 9:133 10:543 11:151 12:429 13:137 14:0 15:121 16:0 17:61 18:34 19:306 20:7 21:120 22:10 23:103 24:9 25:119 26:403 27:123 28:393 29:103 30:120 31:66 32:25 33:59 34:0 35:115 36:0 37:118 38:0 39:105 40:11 41:103 42:958 43:186 44:29 45:212 46:1 47:103 48:0 49:121 50:0 51:138 52:0 53:167 54:16 55:107 56:25 57:127 58:921 59:111 60:39 61:126 62:0 63:105 64:0 65:112 66:6 67:119 68:14 69:134 70:120 71:127 72:31 73:134 74:346 75:133 76:431 77:144 78:45 79:97 80:6 
0.002863938757675876 1:150 2:4 3:98 4:4 5:118 6:28 7:131 8:29 9:148 10:919 11:126 12:14 13:101 14:1 15:127 16:1 17:118 18:1 19:90 20:40 21:133 22:89 23:142 24:42 25:144 26:819 27:133 28:9 29:135 30:0 31:106 32:0 33:88 34:18 35:66 36:6 37:75 38:29 39:156 40:128 41:139 42:814 43:137 44:4 45:186 46:0 47:154 48:1 49:51 50:49 51:39 52:5 53:75 54:142 55:142 56:330 57:198 58:473 59:95 60:2 61:255 62:0 63:145 64:1 65:41 66:37 67:37 68:21 69:99 70:417 71:173 72:239 73:206 74:278 75:141 76:6 77:237 78:1 79:67 80:1 
1 1:124 2:0 3:139 4:74 5:128 6:344 7:120 8:142 9:136 10:417 11:117 12:24 13:116 14:0 15:120 16:0 17:73 18:10 19:90 20:32 21:137 22:108 23:179 24:56 25:136 26:790 27:149 28:3 29:144 30:1 31:93 32:1 33:141 34:13 35:105 36:61 37:164 38:58 39:140 40:64 41:92 42:803 43:110 44:2 45:105 46:0 47:144 48:0 49:121 50:0 51:88 52:10 53:155 54:66 55:133 56:49 57:141 58:874 59:123 60:1 61:121 62:0 63:118 64:0 65:85 66:0 67:54 68:0 69:62 70:12 71:107 72:36 73:131 74:952 75:164 76:1 77:258 78:0 79:138 80:1 
0.6632681794501373 1:100 2:0 3:104 4:0 5:182 6:0 7:134 8:79 9:138 10:921 11:110 12:0 13:132 14:0 15:101 16:0 17:104 18:0 19:77 20:1 21:125 22:50 23:119 24:81 25:161 26:868 27:138 28:0 29:149 30:0 31:128 32:0 33:99 34:6 35:72 36:6 37:104 38:89 39:172 40:163 41:170 42:735 43:124 44:1 45:142 46:0 47:118 48:1 49:61 50:7 51:68 52:83 53:110 54:558 55:191 56:160 57:272 58:191 59:119 60:1 61:103 62:0 63:76 64:0 65:61 66:0 67:65 68:151 69:129 70:667 71:239 72:48 73:247 74:129 75:125 76:5 77:84 78:0 79:51 80:0 
1 1:93 2:6 3:92 4:3 5:166 6:60 7:160 8:195 9:144 10:552 11:139 12:182 13:115 14:1 15:93 16:0 17:72 18:7 19:94 20:26 21:131 22:67 23:161 24:82 25:158 26:193 27:145 28:616 29:137 30:7 31:101 32:4 33:81 34:43 35:56 36:28 37:88 38:216 39:196 40:41 41:215 42:466 43:127 44:198 45:113 46:3 47:124 48:5 49:73 50:58 51:66 52:115 53:110 54:648 55:247 56:88 57:255 58:87 59:106 60:1 61:84 62:0 63:59 64:2 65:59 66:12 67:95 68:46 69:134 70:595 71:194 72:279 73:246 74:67 75:146 76:0 77:82 78:0 79:45 80:2 
0.1299037430348009 1:974 2:0 3:0 4:0 5:26 6:0 7:0 8:0 9:0 10:0 11:0 12:0 13:0 14:0 15:0 16:0 17:126 18:7 19:121 20:17 21:158 22:60 23:147 24:206 25:155 26:655 27:101 28:16 29:88 30:3 31:105 32:35 33:69 34:5 35:94 36:0 37:140 38:0 39:207 40:58 41:181 42:933 43:143 44:2 45:98 46:1 47:70 48:2 49:74 50:2 51:106 52:0 53:132 54:0 55:196 56:55 57:198 58:928 59:131 60:8 61:81 62:2 63:82 64:4 65:79 66:0 67:89 68:0 69:134 70:0 71:172 72:17 73:200 74:950 75:163 76:22 77:109 78:8 79:55 80:3 
1 1:581 2:0 3:39 4:0 5:84 6:0 7:0 8:0 9:58 10:0 11:71 12:0 13:136 14:0 15:32 16:0 17:81 18:1 19:95 20:3 21:170 22:5 23:207 24:28 25:159 26:941 27:126 28:19 29:90 30:3 31:73 32:0 33:71 34:0 35:93 36:1 37:163 38:5 39:201 40:50 41:184 42:927 43:126 44:11 45:75 46:3 47:89 48:5 49:70 50:0 51:88 52:0 53:155 54:0 55:216 56:29 57:194 58:960 59:124 60:8 61:87 62:1 63:67 64:1 65:76 66:0 67:78 68:1 69:154 70:2 71:224 72:14 73:214 74:949 75:126 76:35 77:77 78:0 79:51 80:0 
1 1:196 2:528 3:50 4:418 5:144 6:0 7:79 8:0 9:127 10:0 11:73 12:0 13:97 14:0 15:235 16:54 17:159 18:948 19:118 20:6 21:124 22:0 23:166 24:0 25:182 26:0 27:84 28:0 29:66 30:1 31:101 32:45 33:117 34:964 35:83 36:18 37:104 38:2 39:213 40:3 41:223 42:2 43:100 44:0 45:78 46:0 47:82 48:11 49:130 50:755 51:71 52:222 53:106 54:17 55:183 56:5 57:190 58:1 59:106 60:0 61:76 62:0 63:139 64:0 65:145 66:595 67:73 68:399 69:88 70:7 71:149 72:0 73:193 74:0 75:105 76:0 77:113 78:0 79:134 80:0 
1 1:105 2:655 3:94 4:0 5:171 6:0 7:111 8:0 9:148 10:0 11:129 12:0 13:155 14:2 15:87 16:344 17:166 18:426 19:98 20:270 21:92 22:277 23:160 24:24 25:185 26:0 27:84 28:0 29:71 30:0 31:145 32:4 33:142 34:389 35:92 36:310 37:93 38:288 39:187 40:7 41:230 42:2 43:96 44:0 45:59 46:0 47:103 48:5 49:128 50:317 51:85 52:332 53:110 54:341 55:182 56:11 57:177 58:0 59:110 60:0 61:80 62:0 63:127 64:0 65:123 66:492 67:74 68:308 69:96 70:185 71:170 72:13 73:214 74:1 75:98 76:0 77:93 78:0 79:133 80:0 
1 1:112 2:641 3:79 4:318 5:199 6:0 7:128 8:0 9:153 10:0 11:97 12:0 13:163 14:0 15:69 16:40 17:139 18:949 19:94 20:4 21:100 22:0 23:179 24:0 25:188 26:0 27:83 28:0 29:63 30:1 31:153 32:47 33:170 34:971 35:98 36:21 37:79 38:1 39:157 40:1 41:212 42:2 43:85 44:0 45:64 46:0 47:136 48:4 49:151 50:753 51:76 52:235 53:104 54:9 55:174 56:2 57:203 58:1 59:84 60:0 61:63 62:0 63:146 64:1 65:155 66:718 67:55 68:277 69:74 70:5 71:165 72:0 73:204 74:0 75:91 76:0 77:96 78:0 79:162 80:0 
1 1:97 2:0 3:113 4:0 5:159 6:0 7:114 8:0 9:131 10:366 11:134 12:634 13:159 14:0 15:92 16:0 17:171 18:42 19:104 20:6 21:93 22:135 23:155 24:88 25:182 26:354 27:84 28:196 29:61 30:11 31:150 32:168 33:113 34:24 35:69 36:18 37:112 38:179 39:194 40:85 41:222 42:223 43:100 44:202 45:79 46:9 47:111 48:261 49:177 50:11 51:88 52:23 53:96 54:181 55:146 56:118 57:157 58:282 59:89 60:227 61:91 62:12 63:158 64:148 65:97 66:20 67:74 68:10 69:89 70:192 71:203 72:81 73:242 74:210 75:96 76:250 77:76 78:19 79:123 80:218 
0.5279599965196978 1:112 2:0 3:111 4:0 5:169 6:0 7:104 8:0 9:137 10:852 11:114 12:149 13:156 14:0 15:98 16:0 17:170 18:45 19:116 20:0 21:94 22:48 23:153 24:227 25:155 26:510 27:67 28:38 29:66 30:3 31:180 32:129 33:105 34:35 35:79 36:6 37:105 38:107 39:220 40:213 41:245 42:270 43:87 44:152 45:68 46:8 47:92 48:209 49:188 50:13 51:98 52:3 53:93 54:123 55:143 56:196 57:155 58:384 59:90 60:145 61:91 62:8 63:141 64:128 65:117 66:17 67:66 68:5 69:95 70:45 71:190 72:325 73:208 74:404 75:116 76:31 77:76 78:13 79:131 80:161 
1 1:140 2:605 3:123 4:269 5:175 6:0 7:146 8:0 9:108 10:1 11:87 12:21 13:93 14:19 15:129 16:85 17:99 18:607 19:91 20:357 21:143 22:2 23:149 24:0 25:204 26:11 27:122 28:7 29:105 30:4 31:88 32:11 33:98 34:790 35:104 36:193 37:101 38:7 39:122 40:1 41:208 42:3 43:156 44:1 45:113 46:0 47:98 48:6 49:115 50:570 51:101 52:419 53:118 54:1 55:160 56:0 57:173 58:6 59:128 60:2 61:114 62:0 63:91 64:3 65:136 66:555 67:106 68:444 69:124 70:1 71:138 72:0 73:143 74:0 75:118 76:0 77:113 78:0 79:122 80:0 
1 1:164 2:662 3:68 4:0 5:77 6:0 7:194 8:0 9:213 10:54 11:70 12:123 13:53 14:55 15:162 16:106 17:93 18:526 19:105 20:418 21:118 22:15 23:203 24:0 25:200 26:12 27:83 28:14 29:84 30:5 31:114 32:11 33:101 34:581 35:70 36:257 37:92 38:59 39:244 40:5 41:230 42:20 43:76 44:41 45:69 46:10 47:118 48:28 49:136 50:477 51:67 52:273 53:82 54:94 55:204 56:15 57:186 58:26 59:94 60:15 61:87 62:15 63:145 64:84 65:125 66:750 67:67 68:146 69:91 70:48 71:233 72:8 73:234 74:10 75:77 76:12 77:66 78:6 79:107 80:19 
1 1:113 2:741 3:57 4:54 5:97 6:3 7:229 8:2 9:233 10:62 11:90 12:52 13:59 14:24 15:123 16:61 17:108 18:659 19:95 20:171 21:120 22:0 23:227 24:0 25:194 26:15 27:88 28:7 29:75 30:17 31:96 32:131 33:113 34:606 35:81 36:309 37:101 38:1 39:216 40:1 41:205 42:34 43:95 44:14 45:65 46:8 47:125 48:27 49:109 50:506 51:68 52:293 53:82 54:34 55:239 56:14 57:213 58:111 59:87 60:17 61:80 62:7 63:124 64:19 65:105 66:606 67:75 68:345 69:102 70:39 71:213 72:6 73:225 74:4 75:91 76:1 77:83 78:0 79:107 80:0 
1 1:148 2:673 3:77 4:1 5:90 6:0 7:216 8:0 9:203 10:28 11:73 12:110 13:65 14:44 15:129 16:144 17:105 18:420 19:109 20:523 21:139 22:7 23:173 24:1 25:162 26:22 27:101 28:7 29:95 30:5 31:117 32:15 33:133 34:601 35:70 36:260 37:86 38:55 39:204 40:4 41:227 42:15 43:89 44:27 45:67 46:14 47:124 48:26 49:104 50:472 51:63 52:291 53:78 54:73 55:245 56:22 57:232 58:24 59:82 60:22 61:80 62:18 63:117 64:78 65:129 66:760 67:75 68:183 69:114 70:42 71:218 72:4 73:203 74:1 75:77 76:2 77:76 78:1 79:107 80:9 
1 1:119 2:725 3:68 4:27 5:81 6:6 7:206 8:6 9:248 10:146 11:79 12:41 13:65 14:18 15:134 16:32 17:93 18:604 19:80 20:297 21:103 22:1 23:210 24:0 25:222 26:20 27:115 28:10 29:90 30:14 31:88 32:55 33:129 34:635 35:72 36:248 37:91 38:13 39:205 40:3 41:223 42:49 43:95 44:12 45:69 46:19 47:116 48:21 49:128 50:526 51:66 52:213 53:64 54:75 55:225 56:29 57:211 58:119 59:90 60:29 61:81 62:2 63:135 64:7 65:88 66:401 67:68 68:405 69:93 70:95 71:234 72:32 73:242 74:63 75:99 76:4 77:81 78:0 79:95 80:0 
1 1:136 2:928 3:140 4:33 5:261 6:1 7:152 8:2 9:75 10:34 11:86 12:1 13:90 14:1 15:61 16:1 17:87 18:222 19:80 20:732 21:109 22:27 23:151 24:7 25:145 26:6 27:160 28:3 29:170 30:2 31:98 32:2 33:95 34:138 35:83 36:698 37:108 38:63 39:138 40:10 41:151 42:72 43:142 44:1 45:192 46:0 47:92 48:18 49:82 50:174 51:119 52:744 53:130 54:64 55:141 56:2 57:186 58:4 59:145 60:1 61:107 62:0 63:90 64:12 65:108 66:631 67:83 68:363 69:111 70:6 71:145 72:0 73:191 74:0 75:143 76:0 77:111 78:0 79:107 80:1 
1 1:105 2:446 3:121 4:370 5:161 6:0 7:98 8:0 9:120 10:29 11:130 12:107 13:153 14:11 15:112 16:38 17:118 18:658 19:102 20:338 21:142 22:1 23:150 24:0 25:150 26:2 27:142 28:1 29:105 30:0 31:93 32:1 33:118 34:377 35:106 36:583 37:117 38:30 39:132 40:0 41:140 42:2 43:136 44:3 45:122 46:1 47:130 48:4 49:93 50:479 51:91 52:302 53:137 54:164 55:165 56:1 57:179 58:32 59:126 60:14 61:111 62:4 63:98 64:4 65:81 66:491 67:74 68:235 69:95 70:205 71:215 72:3 73:233 74:54 75:140 76:10 77:89 78:0 79:71 80:2 
1 1:132 2:675 3:138 4:313 5:102 6:8 7:143 8:1 9:146 10:1 11:110 12:0 13:136 14:0 15:95 16:2 17:115 18:846 19:120 20:130 21:122 22:0 23:143 24:0 25:149 26:1 27:124 28:1 29:106 30:1 31:120 32:22 33:111 34:710 35:97 36:263 37:129 38:2 39:167 40:1 41:158 42:11 43:121 44:7 45:109 46:3 47:109 48:4 49:106 50:566 51:89 52:240 53:111 54:49 55:154 56:9 57:180 58:109 59:126 60:15 61:102 62:2 63:133 64:10 65:93 66:241 67:115 68:743 69:122 70:12 71:171 72:1 73:195 74:4 75:113 76:0 77:102 78:0 79:90 80:0 
1 1:118 2:282 3:125 4:589 5:169 6:5 7:83 8:0 9:119 10:31 11:117 12:75 13:135 14:7 15:133 16:12 17:134 18:414 19:105 20:579 21:133 22:4 23:103 24:1 25:129 26:1 27:141 28:1 29:132 30:1 31:123 32:0 33:138 34:294 35:115 36:577 37:115 38:123 39:120 40:1 41:124 42:1 43:135 44:1 45:116 46:0 47:137 48:3 49:100 50:425 51:84 52:261 53:123 54:257 55:186 56:4 57:197 58:5 59:110 60:23 61:94 62:2 63:106 64:24 65:99 66:402 67:115 68:270 69:122 70:254 71:131 72:16 73:153 74:45 75:136 76:7 77:121 78:1 79:124 80:5 
1 1:112 2:0 3:139 4:392 5:134 6:147 7:131 8:59 9:127 10:402 11:138 12:1 13:127 14:0 15:91 16:0 17:280 18:0 19:114 20:139 21:88 22:123 23:92 24:36 25:90 26:700 27:110 28:1 29:89 30:0 31:137 32:0 33:336 34:0 35:87 36:133 37:62 38:73 39:45 40:32 41:66 42:752 43:97 44:9 45:102 46:0 47:204 48:0 49:128 50:4 51:127 52:141 53:139 54:21 55:139 56:8 57:141 58:826 59:111 60:0 61:120 62:0 63:96 64:0 65:113 66:80 67:112 68:224 69:125 70:1 71:140 72:0 73:145 74:681 75:104 76:12 77:130 78:1 79:130 80:1 
1 1:97 2:303 3:94 4:0 5:156 6:0 7:137 8:0 9:93 10:681 11:47 12:16 13:199 14:1 15:178 16:0 17:93 18:106 19:320 20:26 21:95 22:2 23:29 24:16 25:52 26:805 27:114 28:35 29:236 30:4 31:61 32:8 33:286 34:312 35:128 36:1 37:111 38:0 39:129 40:1 41:122 42:680 43:60 44:6 45:92 46:0 47:72 48:0 49:180 50:641 51:119 52:25 53:113 54:1 55:112 56:0 57:93 58:330 59:85 60:3 61:124 62:0 63:175 64:0 65:130 66:791 67:101 68:33 69:108 70:0 71:144 72:0 73:104 74:147 75:96 76:28 77:158 78:1 79:160 80:1 
1 1:96 2:204 3:120 4:3 5:90 6:3 7:214 8:21 9:252 10:410 11:55 12:24 13:72 14:66 15:101 16:271 17:99 18:19 19:77 20:245 21:100 22:371 23:196 24:115 25:251 26:249 27:108 28:0 29:77 30:0 31:92 32:2 33:100 34:308 35:65 36:19 37:85 38:24 39:242 40:87 41:234 42:447 43:68 44:4 45:73 46:3 47:133 48:108 49:83 50:286 51:88 52:6 53:90 54:1 55:218 56:27 57:245 58:329 59:90 60:10 61:88 62:6 63:98 64:336 65:70 66:590 67:59 68:12 69:95 70:1 71:277 72:3 73:236 74:293 75:85 76:9 77:83 78:5 79:96 80:87 
1 1:125 2:1 3:122 4:0 5:117 6:390 7:121 8:205 9:134 10:383 11:125 12:23 13:125 14:0 15:132 16:0 17:137 18:52 19:106 20:27 21:118 22:84 23:153 24:203 25:166 26:515 27:98 28:42 29:103 30:12 31:120 32:66 33:108 34:38 35:97 36:47 37:112 38:85 39:152 40:41 41:214 42:95 43:124 44:219 45:86 46:52 47:108 48:423 49:124 50:67 51:104 52:114 53:112 54:144 55:153 56:149 57:133 58:98 59:119 60:66 61:126 62:37 63:130 64:327 65:113 66:43 67:103 68:82 69:153 70:152 71:147 72:181 73:134 74:250 75:121 76:58 77:104 78:14 79:124 80:220 
1 1:140 2:0 3:137 4:680 5:148 6:109 7:111 8:48 9:126 10:146 11:102 12:17 13:112 14:0 15:125 16:0 17:149 18:261 19:98 20:484 21:103 22:67 23:132 24:11 25:106 26:113 27:116 28:35 29:135 30:16 31:162 32:13 33:227 34:202 35:143 36:198 37:93 38:16 39:87 40:6 41:91 42:196 43:82 44:322 45:97 46:37 47:181 48:23 49:156 50:97 51:96 52:113 53:92 54:69 55:124 56:11 57:116 58:330 59:110 60:352 61:146 62:10 63:161 64:18 65:89 66:38 67:76 68:196 69:123 70:139 71:192 72:24 73:212 74:524 75:138 76:63 77:95 78:6 79:77 80:11 
0.882230413091597 1:83 2:0 3:241 4:0 5:270 6:0 7:124 8:0 9:95 10:975 11:59 12:23 13:71 14:1 15:58 16:1 17:129 18:527 19:161 20:56 21:170 22:13 23:126 24:9 25:111 26:346 27:98 28:15 29:110 30:9 31:95 32:25 33:120 34:229 35:131 36:56 37:145 38:74 39:104 40:10 41:109 42:551 43:134 44:37 45:131 46:8 47:126 48:34 49:79 50:0 51:146 52:21 53:176 54:172 55:136 56:11 57:144 58:796 59:123 60:1 61:109 62:0 63:88 64:0 65:97 66:0 67:119 68:35 69:166 70:241 71:125 72:50 73:137 74:674 75:131 76:0 77:130 78:0 79:95 80:0 
1 1:148 2:2 3:126 4:392 5:126 6:450 7:101 8:108 9:99 10:45 11:119 12:3 13:140 14:0 15:142 16:0 17:117 18:30 19:112 20:54 21:126 22:94 23:163 24:65 25:145 26:671 27:113 28:65 29:119 30:5 31:105 32:18 33:101 34:69 35:93 36:87 37:93 38:61 39:196 40:12 41:170 42:685 43:125 44:80 45:119 46:1 47:105 48:5 49:119 50:65 51:123 52:189 53:112 54:136 55:133 56:23 57:132 58:486 59:116 60:88 61:126 62:3 63:139 64:9 65:97 66:17 67:88 68:159 69:111 70:83 71:226 72:9 73:176 74:624 75:102 76:106 77:94 78:0 79:106 80:3 
1 1:122 2:78 3:142 4:841 5:103 6:80 7:90 8:0 9:111 10:0 11:125 12:0 13:156 14:0 15:152 16:0 17:145 18:207 19:120 20:371 21:131 22:198 23:139 24:58 25:110 26:158 27:107 28:2 29:111 30:0 31:137 32:6 33:96 34:30 35:98 36:381 37:83 38:232 39:146 40:28 41:187 42:192 43:155 44:21 45:130 46:11 47:105 48:106 49:96 50:141 51:97 52:468 53:104 54:32 55:154 56:15 57:194 58:87 59:137 60:33 61:113 62:19 63:106 64:206 65:111 66:93 67:94 68:420 69:108 70:36 71:158 72:12 73:199 74:70 75:132 76:99 77:102 78:38 79:97 80:233 
1 1:124 2:0 3:117 4:23 5:132 6:141 7:107 8:83 9:131 10:752 11:128 12:1 13:147 14:0 15:114 16:0 17:81 18:10 19:103 20:8 21:124 22:28 23:110 24:47 25:117 26:907 27:196 28:0 29:184 30:0 31:85 32:0 33:100 34:18 35:112 36:0 37:330 38:3 39:175 40:6 41:67 42:954 43:77 44:4 45:77 46:2 47:63 48:14 49:112 50:68 51:85 52:1 53:371 54:0 55:179 56:0 57:40 58:857 59:38 60:6 61:80 62:2 63:95 64:66 65:92 66:155 67:98 68:117 69:210 70:10 71:146 72:13 73:84 74:681 75:109 76:7 77:144 78:1 79:118 80:17 
1 1:151 2:50 3:45 4:2 5:51 6:0 7:146 8:38 9:210 10:134 11:63 12:79 13:121 14:143 15:214 16:555 17:151 18:825 19:75 20:5 21:87 22:1 23:204 24:1 25:142 26:97 27:72 28:2 29:79 30:1 31:192 32:69 33:122 34:456 35:81 36:244 37:91 38:3 39:214 40:2 41:147 42:190 43:92 44:5 45:81 46:17 47:172 48:84 49:161 50:323 51:99 52:344 53:97 54:99 55:140 56:12 57:130 58:120 59:104 60:4 61:112 62:60 63:158 64:40 65:115 66:238 67:96 68:199 69:122 70:283 71:164 72:82 73:157 74:36 75:130 76:5 77:111 78:72 79:105 80:84 
1 1:115 2:0 3:125 4:1 5:88 6:1 7:142 8:26 9:156 10:214 11:177 12:46 13:93 14:134 15:105 16:580 17:250 18:322 19:116 20:10 21:89 22:4 23:85 24:14 25:75 26:201 27:63 28:31 29:91 30:12 31:231 32:407 33:162 34:528 35:103 36:6 37:110 38:2 39:134 40:3 41:119 42:48 43:106 44:9 45:104 46:6 47:162 48:399 49:156 50:98 51:100 52:2 53:106 54:1 55:144 56:2 57:114 58:194 59:114 60:80 61:120 62:52 63:146 64:571 65:146 66:622 67:88 68:3 69:97 70:0 71:128 72:0 73:103 74:184 75:103 76:63 77:137 78:12 79:199 80:117 
1 1:48 2:261 3:27 4:76 5:102 6:28 7:450 8:46 9:284 10:52 11:45 12:28 13:22 14:155 15:23 16:355 17:92 18:240 19:63 20:252 21:87 22:26 23:271 24:40 25:233 26:351 27:91 28:55 29:70 30:19 31:91 32:18 33:93 34:207 35:87 36:249 37:121 38:117 39:188 40:29 41:195 42:348 43:116 44:19 45:96 46:15 47:104 48:17 49:107 50:288 51:88 52:216 53:107 54:55 55:168 56:20 57:186 58:353 59:133 60:30 61:101 62:16 63:110 64:24 65:110 66:487 67:96 68:262 69:109 70:21 71:174 72:17 73:181 74:72 75:131 76:50 77:93 78:30 79:105 80:61 
1 1:182 2:324 3:108 4:248 5:107 6:131 7:98 8:5 9:98 10:177 11:78 12:49 13:130 14:8 15:199 16:59 17:68 18:166 19:159 20:455 21:272 22:132 23:177 24:13 25:125 26:181 27:70 28:16 29:69 30:2 31:61 32:35 33:90 34:114 35:130 36:155 37:209 38:122 39:195 40:50 41:151 42:469 43:76 44:64 45:75 46:7 47:75 48:18 49:87 50:171 51:115 52:35 53:116 54:42 55:180 56:23 57:174 58:462 59:120 60:158 61:113 62:34 63:95 64:76 65:100 66:92 67:92 68:391 69:119 70:312 71:111 72:21 73:136 74:67 75:137 76:34 77:166 78:14 79:139 80:69 
1 1:134 2:2 3:112 4:142 5:121 6:149 7:110 8:38 9:125 10:667 11:159 12:2 13:138 14:0 15:102 16:0 17:226 18:58 19:170 20:201 21:109 22:141 23:73 24:45 25:82 26:544 27:97 28:8 29:103 30:1 31:141 32:1 33:110 34:1 35:128 36:47 37:160 38:53 39:109 40:16 41:119 42:872 43:160 44:2 45:122 46:4 47:93 48:7 49:129 50:12 51:149 52:87 53:140 54:80 55:125 56:6 57:118 58:742 59:107 60:12 61:125 62:10 63:106 64:51 65:118 66:16 67:85 68:8 69:189 70:17 71:145 72:2 73:84 74:814 75:108 76:86 77:150 78:19 79:122 80:38 
1 1:179 2:216 3:152 4:375 5:118 6:46 7:118 8:22 9:70 10:304 11:81 12:36 13:120 14:0 15:163 16:0 17:153 18:429 19:80 20:299 21:116 22:47 23:155 24:5 25:162 26:202 27:80 28:17 29:86 30:1 31:169 32:0 33:70 34:125 35:77 36:444 37:111 38:85 39:254 40:5 41:242 42:290 43:93 44:28 45:76 46:5 47:76 48:18 49:88 50:115 51:58 52:126 53:107 54:39 55:247 56:45 57:262 58:422 59:78 60:51 61:69 62:18 63:92 64:184 65:41 66:49 67:43 68:215 69:108 70:70 71:311 72:64 73:309 74:364 75:97 76:76 77:53 78:8 79:39 80:155 
1 1:112 2:295 3:47 4:7 5:90 6:1 7:383 8:9 9:70 10:649 11:33 12:39 13:67 14:0 15:199 16:0 17:190 18:554 19:54 20:357 21:37 22:2 23:44 24:5 25:51 26:68 27:106 28:13 29:251 30:0 31:268 32:1 33:133 34:104 35:75 36:153 37:105 38:61 39:140 40:129 41:180 42:504 43:101 44:46 45:129 46:0 47:137 48:1 49:96 50:11 51:97 52:129 53:112 54:246 55:200 56:147 57:212 58:363 59:112 60:39 61:79 62:4 63:93 64:61 65:96 66:20 67:84 68:302 69:113 70:349 71:177 72:156 73:198 74:128 75:123 76:13 77:116 78:1 79:93 80:32 
0.04788140652697124 1:142 2:365 3:136 4:87 5:116 6:9 7:207 8:5 9:122 10:444 11:67 12:46 13:83 14:5 15:128 16:40 17:93 18:75 19:95 20:288 21:138 22:401 23:221 24:30 25:146 26:179 27:110 28:23 29:111 30:1 31:86 32:5 33:143 34:34 35:109 36:176 37:141 38:115 39:143 40:114 41:110 42:511 43:104 44:39 45:125 46:7 47:127 48:5 49:268 50:165 51:73 52:31 53:93 54:53 55:123 56:2 57:121 58:617 59:100 60:62 61:76 62:20 63:147 64:52 65:169 66:710 67:93 68:195 69:97 70:72 71:111 72:0 73:130 74:7 75:178 76:5 77:102 78:2 79:121 80:10 
1 1:273 2:794 3:74 4:31 5:52 6:1 7:76 8:2 9:123 10:11 11:95 12:58 13:65 14:46 15:242 16:57 17:80 18:345 19:81 20:630 21:178 22:20 23:224 24:0 25:153 26:0 27:103 28:1 29:93 30:1 31:88 32:4 33:102 34:328 35:75 36:128 37:141 38:34 39:178 40:3 41:184 42:45 43:113 44:44 45:89 46:19 47:119 48:399 49:82 50:168 51:127 52:55 53:202 54:67 55:216 56:5 57:164 58:33 59:90 60:17 61:56 62:13 63:62 64:643 65:102 66:327 67:84 68:50 69:169 70:0 71:180 72:0 73:153 74:90 75:83 76:22 77:98 78:59 79:132 80:453 
1 1:69 2:92 3:51 4:443 5:104 6:93 7:196 8:49 9:261 10:282 11:155 12:23 13:92 14:8 15:73 16:10 17:111 18:21 19:95 20:570 21:153 22:187 23:191 24:34 25:142 26:185 27:97 28:1 29:102 30:0 31:109 32:1 33:87 34:105 35:85 36:220 37:118 38:110 39:198 40:104 41:217 42:432 43:141 44:24 45:74 46:1 47:79 48:4 49:107 50:79 51:128 52:25 53:137 54:26 55:186 56:37 57:164 58:718 59:98 60:99 61:86 62:3 63:94 64:13 65:129 66:67 67:151 68:126 69:180 70:14 71:137 72:12 73:148 74:644 75:80 76:84 77:79 78:12 79:97 80:42 
1 1:23 2:0 3:46 4:0 5:213 6:0 7:216 8:0 9:283 10:1000 11:129 12:0 13:74 14:0 15:16 16:0 17:111 18:190 19:81 20:77 21:120 22:4 23:201 24:4 25:178 26:645 27:98 28:33 29:86 30:6 31:126 32:41 33:175 34:106 35:84 36:77 37:92 38:9 39:178 40:1 41:132 42:770 43:71 44:31 45:99 46:1 47:169 48:5 49:84 50:66 51:70 52:22 53:130 54:9 55:231 56:3 57:206 58:863 59:87 60:34 61:92 62:1 63:100 64:2 65:121 66:104 67:94 68:79 69:103 70:10 71:209 72:2 73:196 74:715 75:89 76:76 77:77 78:8 79:111 80:8 
0.9324753345000316 1:68 2:1 3:161 4:479 5:197 6:179 7:139 8:105 9:143 10:235 11:103 12:2 13:116 14:0 15:73 16:0 17:83 18:106 19:84 20:516 21:121 22:57 23:200 24:3 25:183 26:274 27:125 28:26 29:121 30:3 31:83 32:15 33:104 34:73 35:106 36:257 37:136 38:303 39:203 40:17 41:173 42:271 43:108 44:59 45:95 46:4 47:76 48:16 49:78 50:115 51:93 52:156 53:115 54:197 55:200 56:86 57:231 58:387 59:100 60:53 61:96 62:4 63:87 64:3 65:84 66:240 67:102 68:217 69:135 70:185 71:181 72:52 73:177 74:184 75:116 76:95 77:95 78:14 79:110 80:13 
0.8319523941046743 1:162 2:1 3:132 4:81 5:115 6:616 7:101 8:276 9:77 10:27 11:102 12:0 13:122 14:0 15:190 16:0 17:135 18:47 19:65 20:260 21:100 22:281 23:230 24:231 25:177 26:96 27:84 28:30 29:60 30:1 31:151 32:55 33:131 34:528 35:58 36:136 37:76 38:74 39:206 40:117 41:248 42:49 43:71 44:17 45:66 46:4 47:143 48:76 49:154 50:79 51:64 52:69 53:93 54:54 55:171 56:282 57:175 58:384 59:89 60:21 61:80 62:4 63:174 64:107 65:194 66:34 67:89 68:41 69:94 70:201 71:153 72:308 73:135 74:268 75:82 76:25 77:83 78:7 79:172 80:115 
0.9471142353205519 1:109 2:13 3:117 4:341 5:135 6:339 7:125 8:86 9:129 10:221 11:158 12:1 13:131 14:0 15:97 16:0 17:82 18:114 19:108 20:194 21:125 22:434 23:192 24:91 25:174 26:116 27:111 28:19 29:113 30:4 31:95 32:28 33:100 34:136 35:98 36:182 37:134 38:234 39:167 40:46 41:175 42:242 43:125 44:50 45:108 46:9 47:94 48:102 49:156 50:395 51:106 52:56 53:110 54:60 55:134 56:41 57:160 58:138 59:110 60:14 61:92 62:5 63:133 64:291 65:156 66:824 67:88 68:11 69:93 70:4 71:128 72:6 73:126 74:90 75:111 76:9 77:106 78:4 79:193 80:52 
1 1:123 2:94 3:172 4:760 5:145 6:125 7:107 8:9 9:117 10:10 11:115 12:2 13:121 14:0 15:100 16:1 17:122 18:202 19:108 20:463 21:107 22:9 23:150 24:14 25:159 26:119 27:107 28:162 29:118 30:18 31:129 32:14 33:132 34:246 35:89 36:10 37:84 38:4 39:148 40:14 41:197 42:535 43:131 44:80 45:98 46:21 47:120 48:90 49:117 50:93 51:96 52:102 53:140 54:48 55:155 56:27 57:178 58:680 59:111 60:26 61:85 62:3 63:119 64:21 65:174 66:214 67:133 68:96 69:115 70:31 71:101 72:25 73:118 74:569 75:108 76:10 77:100 78:4 79:150 80:52 
1 1:187 2:6 3:149 4:779 5:116 6:50 7:84 8:46 9:97 10:114 11:102 12:4 13:123 14:0 15:143 16:0 17:107 18:187 19:90 20:95 21:163 22:5 23:190 24:11 25:157 26:236 27:96 28:80 29:101 30:55 31:97 32:331 33:144 34:184 35:108 36:81 37:110 38:14 39:143 40:22 41:145 42:191 43:115 44:90 45:98 46:36 47:137 48:381 49:135 50:189 51:88 52:126 53:100 54:26 55:153 56:10 57:169 58:274 59:122 60:41 61:96 62:55 63:137 64:280 65:128 66:228 67:88 68:274 69:99 70:24 71:177 72:7 73:172 74:143 75:114 76:64 77:90 78:35 79:134 80:225 
0.212378351158019 1:108 2:1 3:133 4:332 5:138 6:104 7:116 8:270 9:101 10:290 11:142 12:3 13:137 14:0 15:125 16:0 17:113 18:56 19:111 20:411 21:132 22:304 23:144 24:57 25:146 26:131 27:120 28:16 29:128 30:11 31:106 32:15 33:134 34:60 35:122 36:482 37:111 38:164 39:134 40:22 41:137 42:216 43:112 44:24 45:108 46:20 47:143 48:12 49:160 50:41 51:102 52:26 53:99 54:68 55:149 56:251 57:125 58:428 59:110 60:74 61:115 62:42 63:140 64:70 65:119 66:83 67:119 68:51 69:120 70:199 71:143 72:183 73:159 74:294 75:114 76:60 77:114 78:22 79:113 80:110 
1 1:115 2:1 3:111 4:592 5:95 6:215 7:132 8:130 9:123 10:62 11:137 12:0 13:155 14:0 15:133 16:0 17:71 18:153 19:119 20:237 21:124 22:143 23:158 24:101 25:169 26:224 27:136 28:60 29:127 30:18 31:97 32:64 33:90 34:195 35:95 36:230 37:105 38:243 39:165 40:46 41:212 42:135 43:149 44:97 45:116 46:14 47:70 48:40 49:153 50:101 51:81 52:41 53:78 54:58 55:234 56:233 57:173 58:272 59:73 60:163 61:75 62:10 63:133 64:124 65:82 66:182 67:82 68:130 69:118 70:119 71:209 72:187 73:202 74:281 75:120 76:69 77:107 78:9 79:81 80:24 
1 1:120 2:48 3:128 4:654 5:131 6:63 7:126 8:15 9:133 10:202 11:119 12:17 13:127 14:1 15:115 16:0 17:148 18:161 19:109 20:286 21:130 22:150 23:123 24:38 25:122 26:284 27:116 28:25 29:116 30:3 31:135 32:53 33:99 34:262 35:111 36:147 37:117 38:146 39:162 40:32 41:165 42:309 43:140 44:25 45:106 46:4 47:99 48:75 49:96 50:424 51:109 52:197 53:114 54:15 55:192 56:12 57:181 58:233 59:110 60:70 61:113 62:11 63:86 64:39 65:118 66:343 67:122 68:319 69:110 70:36 71:160 72:10 73:148 74:116 75:116 76:57 77:107 78:21 79:119 80:97 
0.9467637807862813 1:158 2:0 3:67 4:0 5:186 6:0 7:82 8:0 9:144 10:626 11:69 12:374 13:200 14:0 15:95 16:0 17:64 18:24 19:114 20:111 21:137 22:246 23:163 24:156 25:205 26:293 27:135 28:169 29:110 30:0 31:72 32:0 33:77 34:91 35:74 36:117 37:114 38:227 39:178 40:62 41:195 42:223 43:148 44:274 45:140 46:2 47:74 48:5 49:63 50:73 51:92 52:12 53:135 54:71 55:249 56:121 57:192 58:325 59:110 60:371 61:94 62:6 63:64 64:22 65:71 66:92 67:97 68:80 69:123 70:165 71:209 72:54 73:215 74:158 75:123 76:425 77:96 78:9 79:67 80:17 
0.6735549745757072 1:121 2:262 3:113 4:3 5:52 6:1 7:94 8:41 9:142 10:522 11:181 12:146 13:38 14:19 15:261 16:5 17:50 18:1 19:75 20:104 21:195 22:68 23:346 24:24 25:188 26:786 27:56 28:14 29:47 30:2 31:43 32:1 33:50 34:114 35:66 36:94 37:158 38:79 39:380 40:56 41:163 42:590 43:84 44:17 45:57 46:5 47:42 48:45 49:100 50:432 51:184 52:47 53:158 54:66 55:170 56:26 57:139 58:284 59:89 60:74 61:81 62:6 63:80 64:65 65:146 66:330 67:103 68:63 69:101 70:15 71:153 72:14 73:112 74:412 75:93 76:125 77:119 78:14 79:172 80:27 
1 1:75 2:1 3:59 4:0 5:272 6:0 7:162 8:0 9:223 10:733 11:49 12:265 13:123 14:1 15:37 16:0 17:78 18:1 19:102 20:69 21:157 22:57 23:169 24:31 25:157 26:360 27:124 28:477 29:97 30:2 31:116 32:3 33:72 34:14 35:89 36:135 37:171 38:130 39:200 40:68 41:179 42:446 43:136 44:171 45:84 46:15 47:69 48:21 49:52 50:64 51:77 52:170 53:140 54:74 55:292 56:28 57:198 58:393 59:122 60:238 61:72 62:17 63:48 64:15 65:63 66:58 67:70 68:205 69:128 70:24 71:316 72:9 73:195 74:404 75:112 76:256 77:66 78:23 79:51 80:20 
1 1:149 2:9 3:139 4:114 5:124 6:693 7:97 8:149 9:85 10:35 11:116 12:0 13:137 14:0 15:153 16:1 17:177 18:106 19:115 20:51 21:102 22:316 23:118 24:260 25:117 26:110 27:87 28:108 29:122 30:22 31:163 32:29 33:143 34:181 35:109 36:69 37:98 38:484 39:142 40:157 41:162 42:34 43:103 44:29 45:107 46:13 47:137 48:34 49:128 50:480 51:87 52:41 53:91 54:224 55:154 56:67 57:169 58:53 59:101 60:41 61:123 62:24 63:147 64:70 65:134 66:424 67:102 68:79 69:101 70:167 71:151 72:32 73:147 74:140 75:93 76:50 77:119 78:35 79:154 80:72 
1 1:179 2:3 3:123 4:236 5:89 6:213 7:84 8:166 9:75 10:219 11:95 12:130 13:147 14:30 15:210 16:4 17:140 18:97 19:108 20:52 21:111 22:100 23:147 24:41 25:112 26:285 27:105 28:37 29:131 30:23 31:146 32:365 33:151 34:270 35:126 36:114 37:115 38:177 39:114 40:39 41:90 42:191 43:93 44:67 45:139 46:39 47:172 48:104 49:143 50:372 51:115 52:23 53:110 54:32 55:141 56:15 57:111 58:97 59:94 60:65 61:126 62:19 63:160 64:378 65:147 66:314 67:107 68:51 69:95 70:48 71:126 72:19 73:114 74:95 75:106 76:62 77:137 78:57 79:169 80:355 
1 1:23 2:134 3:29 4:2 5:78 6:27 7:247 8:443 9:412 10:66 11:153 12:156 13:34 14:71 15:24 16:100 17:100 18:443 19:57 20:3 21:121 22:3 23:345 24:6 25:127 26:96 27:53 28:16 29:67 30:16 31:131 32:419 33:144 34:384 35:57 36:3 37:95 38:4 39:183 40:12 41:145 42:64 43:87 44:6 45:89 46:8 47:201 48:520 49:54 50:493 51:52 52:4 53:107 54:4 55:277 56:58 57:317 58:85 59:90 60:10 61:56 62:17 63:48 64:330 65:56 66:348 67:55 68:10 69:118 70:13 71:336 72:83 73:234 74:35 75:78 76:15 77:58 78:38 79:65 80:458 
1 1:147 2:200 3:126 4:7 5:126 6:24 7:123 8:289 9:110 10:468 11:105 12:10 13:146 14:1 15:117 16:0 17:89 18:270 19:93 20:201 21:130 22:241 23:181 24:85 25:179 26:75 27:128 28:13 29:115 30:11 31:86 32:104 33:89 34:160 35:87 36:63 37:122 38:195 39:179 40:254 41:218 42:152 43:133 44:21 45:89 46:19 47:83 48:137 49:104 50:261 51:85 52:97 53:124 54:28 55:177 56:72 57:162 58:321 59:117 60:69 61:110 62:30 63:121 64:120 65:90 66:190 67:103 68:77 69:125 70:29 71:212 72:40 73:159 74:307 75:113 76:37 77:94 78:38 79:105 80:283 
1 1:77 2:283 3:143 4:38 5:118 6:2 7:154 8:19 9:156 10:320 11:109 12:159 13:156 14:2 15:87 16:177 17:97 18:354 19:96 20:93 21:119 22:58 23:148 24:69 25:170 26:246 27:143 28:59 29:122 30:7 31:104 32:115 33:132 34:457 35:110 36:201 37:119 38:34 39:143 40:52 41:154 42:126 43:100 44:17 45:111 46:7 47:131 48:107 49:143 50:456 51:96 52:90 53:114 54:26 55:148 56:67 57:147 58:150 59:105 60:19 61:103 62:15 63:144 64:177 65:136 66:388 67:115 68:29 69:128 70:29 71:127 72:45 73:130 74:89 75:116 76:68 77:97 78:20 79:153 80:331 
1 1:30 2:4 3:48 4:153 5:116 6:243 7:339 8:85 9:278 10:230 11:75 12:279 13:57 14:6 15:57 16:2 17:40 18:294 19:75 20:410 21:120 22:2 23:329 24:15 25:269 26:122 27:83 28:7 29:52 30:2 31:32 32:147 33:50 34:279 35:72 36:372 37:119 38:8 39:298 40:27 41:271 42:141 43:92 44:2 45:65 46:1 47:35 48:170 49:51 50:259 51:59 52:372 53:103 54:10 55:315 56:39 57:283 58:124 59:84 60:3 61:63 62:1 63:42 64:192 65:51 66:359 67:58 68:350 69:109 70:6 71:256 72:14 73:321 74:68 75:91 76:5 77:68 78:9 79:46 80:189 
1 1:76 2:2 3:43 4:16 5:91 6:10 7:380 8:44 9:188 10:926 11:74 12:0 13:56 14:2 15:92 16:0 17:99 18:449 19:84 20:112 21:122 22:5 23:238 24:11 25:226 26:327 27:91 28:39 29:72 30:29 31:68 32:28 33:78 34:242 35:93 36:29 37:118 38:3 39:236 40:25 41:209 42:607 43:106 44:39 45:92 46:34 47:68 48:22 49:137 50:482 51:54 52:5 53:87 54:1 55:233 56:4 57:204 58:431 59:85 60:10 61:49 62:46 63:151 64:21 65:104 66:563 67:67 68:0 69:89 70:1 71:272 72:2 73:240 74:338 75:57 76:16 77:54 78:61 79:118 80:18 
1 1:209 2:948 3:66 4:7 5:98 6:0 7:72 8:0 9:107 10:11 11:98 12:16 13:117 14:3 15:233 16:15 17:97 18:51 19:106 20:583 21:156 22:265 23:167 24:62 25:157 26:26 27:120 28:6 29:105 30:1 31:92 32:8 33:226 34:124 35:104 36:436 37:102 38:229 39:98 40:89 41:81 42:84 43:82 44:5 45:109 46:3 47:198 48:29 49:75 50:292 51:87 52:27 53:144 54:123 55:203 56:190 57:172 58:173 59:200 60:5 61:85 62:1 63:34 64:189 65:27 66:108 67:31 68:220 69:166 70:247 71:178 72:94 73:232 74:226 75:283 76:2 77:65 78:4 79:18 80:99 
0.6246068685272195 1:70 2:0 3:78 4:9 5:278 6:139 7:204 8:91 9:133 10:599 11:112 12:157 13:64 14:3 15:61 16:3 17:97 18:202 19:128 20:212 21:162 22:51 23:175 24:16 25:169 26:261 27:100 28:60 29:83 30:110 31:85 32:88 33:55 34:47 35:63 36:13 37:131 38:24 39:309 40:38 41:222 42:459 43:94 44:73 45:69 46:305 47:56 48:41 49:80 50:12 51:71 52:136 53:117 54:54 55:224 56:75 57:201 58:365 59:104 60:36 61:104 62:297 63:100 64:25 65:59 66:166 67:79 68:257 69:152 70:90 71:242 72:54 73:265 74:418 75:90 76:4 77:63 78:5 79:50 80:6 
0.8720808698867728 1:128 2:25 3:67 4:872 5:104 6:22 7:112 8:1 9:148 10:7 11:105 12:54 13:188 14:2 15:149 16:17 17:129 18:570 19:68 20:428 21:109 22:1 23:204 24:0 25:168 26:0 27:79 28:0 29:80 30:0 31:164 32:0 33:210 34:729 35:107 36:227 37:104 38:23 39:105 40:5 41:117 42:11 43:93 44:3 45:103 46:1 47:162 48:3 49:68 50:720 51:61 52:7 53:93 54:1 55:144 56:5 57:136 58:221 59:113 60:24 61:246 62:6 63:140 64:16 65:62 66:689 67:85 68:191 69:116 70:7 71:197 72:5 73:248 74:78 75:150 76:17 77:84 78:3 79:57 80:9 
1 1:53 2:0 3:82 4:0 5:136 6:0 7:216 8:0 9:245 10:1000 11:117 12:0 13:101 14:0 15:50 16:0 17:98 18:25 19:94 20:68 21:126 22:414 23:208 24:110 25:178 26:382 27:105 28:1 29:107 30:0 31:85 32:0 33:85 34:5 35:107 36:107 37:143 38:385 39:167 40:146 41:168 42:358 43:127 44:0 45:110 46:0 47:94 48:0 49:104 50:30 51:103 52:31 53:116 54:488 55:169 56:89 57:187 58:359 59:114 60:2 61:100 62:0 63:107 64:0 65:106 66:8 67:116 68:55 69:143 70:528 71:139 72:92 73:134 74:314 75:148 76:3 77:109 78:0 79:104 80:0 
1 1:164 2:727 3:90 4:21 5:111 6:3 7:126 8:8 9:90 10:223 11:97 12:17 13:112 14:1 15:211 16:0 17:142 18:401 19:81 20:330 21:77 22:60 23:143 24:27 25:188 26:152 27:82 28:25 29:93 30:2 31:194 32:3 33:104 34:298 35:80 36:364 37:87 38:123 39:189 40:20 41:206 42:158 43:109 44:22 45:108 46:2 47:116 48:14 49:92 50:114 51:97 52:251 53:132 54:257 55:210 56:48 57:214 58:203 59:97 60:68 61:77 62:6 63:81 64:52 65:115 66:18 67:80 68:124 69:106 70:222 71:196 72:80 73:205 74:468 75:102 76:58 77:91 78:12 79:104 80:20 
1 1:254 2:731 3:117 4:32 5:77 6:2 7:62 8:3 9:59 10:154 11:77 12:22 13:116 14:15 15:238 16:41 17:105 18:433 19:95 20:209 21:120 22:98 23:155 24:19 25:192 26:215 27:138 28:21 29:94 30:2 31:101 32:4 33:186 34:347 35:77 36:66 37:80 38:172 39:116 40:37 41:141 42:329 43:93 44:21 45:97 46:4 47:211 48:25 49:183 50:183 51:94 52:104 53:100 54:357 55:136 56:8 57:136 58:295 59:98 60:28 61:90 62:10 63:163 64:16 65:187 66:162 67:99 68:75 69:94 70:227 71:114 72:12 73:116 74:380 75:96 76:88 77:117 78:32 79:178 80:25 
1 1:165 2:945 3:106 4:28 5:132 6:3 7:140 8:5 9:121 10:17 11:88 12:1 13:97 14:0 15:151 16:1 17:184 18:139 19:146 20:279 21:130 22:289 23:105 24:74 25:96 26:164 27:83 28:46 29:106 30:1 31:150 32:9 33:133 34:91 35:89 36:57 37:104 38:21 39:137 40:8 41:141 42:778 43:126 44:36 45:140 46:3 47:131 48:6 49:112 50:230 51:79 52:94 53:104 54:64 55:129 56:14 57:143 58:558 59:177 60:33 61:146 62:2 63:111 64:5 65:78 66:312 67:82 68:134 69:92 70:101 71:131 72:42 73:205 74:368 75:206 76:39 77:112 78:1 79:95 80:3 
1 1:74 2:736 3:109 4:141 5:135 6:16 7:151 8:29 9:245 10:59 11:108 12:5 13:106 14:4 15:72 16:10 17:93 18:193 19:86 20:23 21:99 22:143 23:141 24:162 25:233 26:338 27:141 28:89 29:106 30:21 31:102 32:31 33:68 34:51 35:71 36:8 37:88 38:149 39:163 40:157 41:302 42:462 43:141 44:96 45:89 46:14 47:78 48:64 49:73 50:35 51:69 52:3 53:101 54:73 55:187 56:74 57:278 58:670 59:119 60:106 61:95 62:21 63:78 64:17 65:94 66:26 67:86 68:2 69:107 70:25 71:161 72:53 73:223 74:801 75:140 76:78 77:98 78:6 79:91 80:10 
1 1:152 2:916 3:80 4:40 5:84 6:2 7:176 8:2 9:140 10:24 11:99 12:2 13:102 14:1 15:166 16:12 17:59 18:560 19:98 20:166 21:118 22:18 23:253 24:3 25:235 26:100 27:105 28:81 29:69 30:56 31:63 32:16 33:128 34:526 35:91 36:55 37:89 38:118 39:177 40:7 41:182 42:148 43:92 44:83 45:103 46:34 47:138 48:28 49:143 50:572 51:92 52:134 53:115 54:62 55:142 56:5 57:178 58:73 59:101 60:80 61:95 62:31 63:134 64:43 65:100 66:510 67:72 68:192 69:92 70:3 71:181 72:0 73:197 74:35 75:114 76:44 77:122 78:67 79:121 80:149 
0.3133536563649088 1:25 2:0 3:39 4:0 5:157 6:0 7:232 8:0 9:309 10:1000 11:126 12:0 13:89 14:0 15:24 16:0 17:76 18:104 19:107 20:196 21:133 22:105 23:212 24:70 25:192 26:504 27:122 28:18 29:87 30:2 31:72 32:2 33:118 34:391 35:93 36:185 37:122 38:33 39:170 40:34 41:159 42:318 43:118 44:36 45:112 46:1 47:109 48:2 49:54 50:58 51:55 52:191 53:110 54:47 55:228 56:42 57:223 58:597 59:155 60:60 61:123 62:3 63:52 64:1 65:129 66:26 67:82 68:96 69:81 70:40 71:172 72:43 73:177 74:716 75:104 76:75 77:102 78:4 79:155 80:1 
1 1:76 2:0 3:35 4:0 5:184 6:0 7:115 8:0 9:220 10:1000 11:124 12:0 13:184 14:0 15:62 16:0 17:121 18:0 19:104 20:31 21:112 22:91 23:120 24:62 25:149 26:817 27:138 28:0 29:142 30:0 31:114 32:0 33:83 34:0 35:156 36:3 37:145 38:218 39:151 40:234 41:143 42:544 43:112 44:1 45:119 46:0 47:91 48:0 49:96 50:1 51:122 52:3 53:131 54:263 55:122 56:159 57:147 58:569 59:139 60:6 61:132 62:0 63:111 64:0 65:123 66:0 67:116 68:0 69:124 70:135 71:109 72:127 73:128 74:738 75:126 76:0 77:154 78:0 79:119 80:0 
1 1:138 2:7 3:133 4:0 5:124 6:0 7:116 8:1 9:126 10:861 11:108 12:127 13:120 14:4 15:135 16:2 17:151 18:137 19:112 20:29 21:111 22:32 23:133 24:13 25:128 26:696 27:96 28:31 29:129 30:13 31:141 32:49 33:97 34:171 35:91 36:40 37:127 38:52 39:177 40:79 41:161 42:220 43:131 44:23 45:104 46:32 47:111 48:384 49:115 50:99 51:116 52:6 53:151 54:24 55:140 56:36 57:135 58:426 59:125 60:44 61:120 62:13 63:98 64:353 65:123 66:259 67:98 68:13 69:97 70:1 71:147 72:3 73:163 74:72 75:117 76:154 77:116 78:37 79:139 80:460 
1 1:43 2:0 3:71 4:0 5:227 6:0 7:167 8:0 9:232 10:1000 11:138 12:0 13:89 14:0 15:32 16:0 17:233 18:120 19:79 20:5 21:78 22:3 23:138 24:18 25:127 26:740 27:81 28:42 29:70 30:15 31:196 32:57 33:182 34:40 35:104 36:5 37:114 38:36 39:108 40:41 41:106 42:818 43:83 44:15 45:124 46:6 47:179 48:39 49:139 50:67 51:116 52:20 53:121 54:61 55:126 56:42 57:113 58:765 59:127 60:25 61:140 62:3 63:118 64:17 65:128 66:15 67:109 68:15 69:118 70:21 71:138 72:14 73:133 74:902 75:122 76:23 77:127 78:2 79:125 80:10 
1 1:135 2:19 3:105 4:298 5:130 6:542 7:128 8:37 9:108 10:80 11:115 12:6 13:127 14:1 15:152 16:18 17:94 18:1 19:104 20:35 21:123 22:780 23:210 24:111 25:183 26:60 27:95 28:13 29:90 30:1 31:101 32:1 33:148 34:73 35:117 36:65 37:116 38:561 39:138 40:61 41:128 42:181 43:81 44:41 45:98 46:5 47:175 48:13 49:107 50:205 51:105 52:107 53:133 54:561 55:170 56:34 57:148 58:45 59:129 60:17 61:109 62:7 63:100 64:25 65:108 66:227 67:86 68:276 69:117 70:336 71:160 72:12 73:179 74:53 75:124 76:24 77:114 78:9 79:112 80:63 
1 1:141 2:292 3:66 4:31 5:111 6:12 7:189 8:7 9:218 10:646 11:83 12:10 13:65 14:0 15:126 16:2 17:166 18:598 19:63 20:200 21:86 22:107 23:142 24:37 25:180 26:47 27:93 28:8 29:89 30:1 31:181 32:2 33:71 34:435 35:59 36:92 37:144 38:83 39:254 40:66 41:213 42:302 43:116 44:8 45:70 46:1 47:73 48:12 49:120 50:564 51:91 52:41 53:102 54:41 55:205 56:53 57:175 58:252 59:95 60:23 61:92 62:14 63:119 64:12 65:109 66:475 67:98 68:87 69:126 70:24 71:180 72:26 73:168 74:287 75:112 76:12 77:97 78:46 79:111 80:43 
1 1:14 2:825 3:31 4:16 5:127 6:1 7:459 8:7 9:276 10:135 11:54 12:13 13:29 14:1 15:11 16:1 17:63 18:529 19:75 20:43 21:128 22:173 23:246 24:96 25:218 26:149 27:127 28:3 29:76 30:0 31:67 32:6 33:101 34:541 35:72 36:53 37:116 38:220 39:252 40:69 41:210 42:103 43:86 44:5 45:62 46:1 47:101 48:8 49:109 50:821 51:90 52:29 53:113 54:4 55:230 56:38 57:190 58:81 59:95 60:9 61:78 62:4 63:96 64:16 65:117 66:856 67:95 68:45 69:102 70:11 71:184 72:28 73:152 74:40 75:104 76:6 77:114 78:5 79:132 80:7 
1 1:29 2:0 3:45 4:0 5:213 6:0 7:303 8:0 9:251 10:1000 11:84 12:0 13:56 14:0 15:20 16:0 17:71 18:2 19:62 20:1 21:163 22:201 23:269 24:175 25:195 26:602 27:118 28:11 29:77 30:6 31:46 32:2 33:42 34:2 35:52 36:3 37:115 38:169 39:385 40:184 41:197 42:617 43:89 44:21 45:68 46:1 47:54 48:3 49:117 50:6 51:53 52:13 53:105 54:241 55:233 56:181 57:216 58:536 59:92 60:23 61:87 62:1 63:98 64:1 65:78 66:8 67:67 68:13 69:112 70:301 71:185 72:156 73:322 74:440 75:95 76:81 77:66 78:1 79:74 80:0 
1 1:200 2:1 3:70 4:2 5:132 6:0 7:203 8:6 9:131 10:987 11:28 12:3 13:54 14:0 15:184 16:0 17:114 18:3 19:94 20:3 21:120 22:1 23:147 24:22 25:136 26:879 27:107 28:89 29:120 30:2 31:162 32:2 33:134 34:163 35:131 36:25 37:126 38:2 39:130 40:16 41:120 42:552 43:104 44:145 45:134 46:38 47:120 48:60 49:144 50:170 51:118 52:16 53:126 54:2 55:123 56:14 57:136 58:672 59:107 60:46 61:101 62:26 63:145 64:56 65:162 66:76 67:105 68:6 69:118 70:2 71:159 72:7 73:150 74:694 75:81 76:97 77:74 78:30 79:151 80:88 
1 1:103 2:0 3:120 4:342 5:134 6:552 7:122 8:50 9:121 10:44 11:127 12:11 13:151 14:1 15:122 16:0 17:132 18:33 19:106 20:351 21:102 22:196 23:123 24:64 25:131 26:200 27:121 28:83 29:130 30:13 31:156 32:59 33:117 34:39 35:127 36:140 37:163 38:272 39:140 40:103 41:130 42:330 43:106 44:109 45:98 46:4 47:119 48:4 49:122 50:800 51:108 52:24 53:122 54:36 55:170 56:16 57:138 58:71 59:107 60:35 61:113 62:5 63:120 64:12 65:155 66:933 67:54 68:4 69:85 70:1 71:182 72:1 73:158 74:6 75:111 76:22 77:72 78:11 79:184 80:21 
1 1:94 2:771 3:66 4:109 5:128 6:29 7:277 8:5 9:154 10:37 11:68 12:24 13:60 14:6 15:155 16:20 17:100 18:206 19:59 20:644 21:100 22:110 23:231 24:7 25:216 26:27 27:112 28:3 29:82 30:1 31:102 32:2 33:154 34:541 35:52 36:307 37:76 38:54 39:251 40:12 41:192 42:68 43:56 44:9 45:56 46:4 47:164 48:5 49:79 50:342 51:39 52:396 53:76 54:87 55:302 56:15 57:272 58:130 59:66 60:23 61:56 62:2 63:110 64:6 65:148 66:492 67:59 68:401 69:84 70:6 71:194 72:0 73:199 74:26 75:48 76:26 77:69 78:6 79:199 80:44 
1 1:66 2:3 3:173 4:99 5:109 6:173 7:82 8:267 9:128 10:455 11:193 12:1 13:121 14:2 15:129 16:0 17:115 18:185 19:127 20:138 21:124 22:208 23:152 24:75 25:135 26:335 27:117 28:21 29:121 30:17 31:110 32:22 33:102 34:46 35:96 36:124 37:127 38:225 39:156 40:263 41:173 42:300 43:139 44:9 45:110 46:19 47:96 48:15 49:80 50:31 51:99 52:51 53:124 54:200 55:180 56:215 57:180 58:447 59:121 60:14 61:127 62:25 63:90 64:17 65:83 66:18 67:97 68:37 69:147 70:141 71:183 72:96 73:171 74:501 75:132 76:159 77:104 78:24 79:83 80:24 
1 1:156 2:127 3:43 4:74 5:87 6:4 7:233 8:9 9:99 10:183 11:64 12:51 13:53 14:68 15:265 16:483 17:152 18:476 19:91 20:212 21:106 22:35 23:164 24:34 25:162 26:156 27:96 28:36 29:87 30:9 31:143 32:43 33:131 34:380 35:97 36:71 37:122 38:18 39:166 40:17 41:149 42:317 43:103 44:90 45:98 46:14 47:134 48:94 49:184 50:141 51:72 52:28 53:97 54:4 55:192 56:5 57:117 58:297 59:78 60:202 61:93 62:38 63:167 64:287 65:164 66:31 67:75 68:10 69:102 70:74 71:152 72:127 73:122 74:362 75:103 76:292 77:97 78:22 79:186 80:84 
1 1:127 2:0 3:43 4:0 5:127 6:0 7:465 8:0 9:50 10:343 11:89 12:250 13:68 14:169 15:30 16:239 17:164 18:516 19:95 20:99 21:100 22:59 23:188 24:13 25:144 26:64 27:95 28:7 29:78 30:5 31:135 32:237 33:60 34:193 35:68 36:168 37:107 38:238 39:307 40:168 41:216 42:184 43:115 44:21 45:69 46:0 47:58 48:28 49:98 50:333 51:95 52:120 53:119 54:171 55:242 56:36 57:147 58:153 59:104 60:28 61:89 62:2 63:106 64:157 65:99 66:262 67:70 68:218 69:105 70:176 71:180 72:28 73:157 74:101 75:113 76:68 77:153 78:21 79:122 80:127 
1 1:128 2:27 3:44 4:14 5:24 6:1 7:317 8:13 9:289 10:930 11:22 12:15 13:48 14:0 15:127 16:1 17:125 18:100 19:98 20:78 21:88 22:173 23:173 24:108 25:200 26:480 27:79 28:29 29:101 30:8 31:135 32:24 33:128 34:38 35:88 36:170 37:113 38:262 39:182 40:9 41:208 42:207 43:92 44:82 45:91 46:19 47:99 48:213 49:111 50:269 51:88 52:31 53:98 54:43 55:195 56:7 57:216 58:290 59:98 60:48 61:82 62:14 63:113 64:299 65:108 66:258 67:94 68:399 69:108 70:51 71:183 72:7 73:213 74:205 75:95 76:46 77:106 78:7 79:93 80:28 
1 1:217 2:7 3:89 4:18 5:89 6:411 7:92 8:297 9:120 10:258 11:97 12:3 13:111 14:1 15:185 16:6 17:250 18:230 19:59 20:18 21:74 22:167 23:138 24:356 25:144 26:140 27:73 28:36 29:76 30:20 31:187 32:34 33:132 34:12 35:86 36:2 37:142 38:229 39:142 40:394 41:140 42:226 43:132 44:63 45:109 46:36 47:118 48:39 49:173 50:32 51:109 52:22 53:102 54:225 55:110 56:373 57:118 58:294 59:119 60:22 61:114 62:7 63:155 64:25 65:184 66:14 67:123 68:41 69:135 70:320 71:112 72:303 73:98 74:311 75:77 76:9 77:104 78:0 79:167 80:1 
1 1:99 2:0 3:67 4:0 5:89 6:0 7:231 8:0 9:237 10:1000 11:82 12:0 13:117 14:0 15:78 16:0 17:54 18:1 19:63 20:2 21:163 22:1 23:358 24:8 25:206 26:975 27:56 28:12 29:52 30:1 31:48 32:0 33:76 34:9 35:65 36:0 37:167 38:0 39:327 40:7 41:184 42:934 43:64 44:40 45:62 46:3 47:55 48:7 49:64 50:16 51:59 52:1 53:159 54:1 55:329 56:2 57:186 58:930 59:73 60:43 61:56 62:2 63:74 64:6 65:96 66:7 67:60 68:4 69:118 70:2 71:324 72:2 73:155 74:957 75:74 76:26 77:75 78:3 79:98 80:1 
1 1:69 2:0 3:49 4:0 5:188 6:0 7:169 8:0 9:217 10:1000 11:119 12:0 13:134 14:0 15:55 16:0 17:244 18:19 19:93 20:4 21:97 22:10 23:93 24:22 25:103 26:937 27:88 28:6 29:79 30:1 31:204 32:2 33:170 34:58 35:98 36:7 37:111 38:11 39:126 40:11 41:119 42:890 43:107 44:5 45:96 46:2 47:172 48:17 49:139 50:96 51:73 52:10 53:103 54:11 55:219 56:21 57:173 58:794 59:79 60:23 61:75 62:8 63:140 64:36 65:132 66:117 67:71 68:2 69:71 70:0 71:210 72:1 73:178 74:837 75:91 76:22 77:90 78:6 79:158 80:16 
1 1:134 2:189 3:129 4:647 5:146 6:98 7:117 8:9 9:110 10:18 11:96 12:13 13:122 14:18 15:146 16:7 17:88 18:448 19:65 20:271 21:117 22:4 23:226 24:1 25:276 26:259 27:94 28:4 29:59 30:7 31:76 32:6 33:80 34:473 35:75 36:151 37:118 38:8 39:221 40:10 41:228 42:302 43:119 44:11 45:79 46:8 47:81 48:38 49:114 50:420 51:85 52:205 53:125 54:9 55:162 56:1 57:188 58:323 59:114 60:12 61:90 62:8 63:123 64:22 65:106 66:264 67:114 68:370 69:128 70:27 71:177 72:8 73:151 74:285 75:114 76:37 77:107 78:4 79:105 80:5 
1 1:108 2:359 3:135 4:641 5:145 6:0 7:125 8:0 9:124 10:0 11:149 12:0 13:129 14:0 15:85 16:0 17:111 18:107 19:111 20:576 21:136 22:268 23:175 24:5 25:144 26:38 27:109 28:3 29:112 30:0 31:101 32:4 33:142 34:69 35:115 36:191 37:97 38:287 39:135 40:21 41:140 42:225 43:90 44:12 45:99 46:0 47:183 48:195 49:59 50:4 51:42 52:2 53:74 54:6 55:275 56:13 57:315 58:912 59:97 60:60 61:83 62:1 63:54 64:1 65:119 66:258 67:42 68:5 69:87 70:0 71:255 72:16 73:261 74:520 75:90 76:111 77:59 78:21 79:88 80:68 
1 1:122 2:551 3:158 4:75 5:154 6:1 7:137 8:0 9:99 10:0 11:128 12:0 13:111 14:57 15:91 16:315 17:70 18:423 19:84 20:145 21:154 22:15 23:261 24:89 25:209 26:97 27:94 28:43 29:67 30:29 31:61 32:160 33:63 34:339 35:87 36:123 37:151 38:11 39:206 40:36 41:184 42:85 43:110 44:49 45:112 46:34 47:89 48:324 49:55 50:341 51:71 52:165 53:137 54:20 55:212 56:139 57:220 58:163 59:131 60:19 61:105 62:13 63:69 64:142 65:34 66:174 67:59 68:146 69:157 70:53 71:331 72:221 73:244 74:280 75:95 76:25 77:43 78:17 79:37 80:85 
1 1:117 2:49 3:89 4:724 5:120 6:159 7:69 8:62 9:212 10:5 11:222 12:1 13:123 14:1 15:48 16:0 17:75 18:498 19:68 20:266 21:116 22:44 23:203 24:15 25:234 26:95 27:130 28:26 29:85 30:10 31:90 32:47 33:75 34:563 35:93 36:114 37:150 38:28 39:210 40:26 41:175 42:116 43:137 44:55 45:92 46:39 47:68 48:60 49:108 50:587 51:87 52:85 53:142 54:18 55:206 56:22 57:182 58:174 59:106 60:47 61:69 62:8 63:100 64:61 65:109 66:316 67:105 68:390 69:125 70:64 71:187 72:17 73:157 74:132 75:97 76:39 77:104 78:15 79:115 80:28 
1 1:101 2:102 3:111 4:507 5:157 6:92 7:101 8:1 9:148 10:7 11:184 12:9 13:97 14:12 15:102 16:271 17:144 18:630 19:67 20:14 21:123 22:2 23:221 24:2 25:184 26:59 27:76 28:9 29:47 30:13 31:140 32:273 33:147 34:570 35:64 36:5 37:82 38:2 39:214 40:2 41:185 42:143 43:63 44:85 45:81 46:37 47:164 48:157 49:107 50:634 51:51 52:9 53:67 54:1 55:249 56:1 57:261 58:44 59:90 60:96 61:54 62:23 63:121 64:192 65:152 66:657 67:55 68:104 69:74 70:6 71:203 72:1 73:212 74:66 75:72 76:20 77:59 78:31 79:173 80:115 
1 1:86 2:280 3:112 4:617 5:176 6:4 7:156 8:0 9:182 10:0 11:116 12:0 13:106 14:30 15:66 16:69 17:63 18:277 19:75 20:374 21:154 22:75 23:269 24:62 25:225 26:99 27:99 28:74 29:70 30:25 31:46 32:15 33:117 34:208 35:96 36:426 37:158 38:12 39:156 40:14 41:149 42:215 43:100 44:80 45:118 46:20 47:106 48:26 49:133 50:258 51:129 52:392 53:121 54:26 55:133 56:21 57:115 58:79 59:118 60:89 61:136 62:22 63:116 64:113 65:132 66:281 67:124 68:307 69:132 70:22 71:152 72:3 73:115 74:35 75:123 76:122 77:112 78:75 79:111 80:155 
1 1:94 2:422 3:113 4:6 5:193 6:1 7:147 8:2 9:116 10:470 11:108 12:30 13:150 14:16 15:79 16:52 17:130 18:438 19:99 20:263 21:150 22:11 23:154 24:18 25:162 26:180 27:121 28:32 29:91 30:10 31:93 32:49 33:97 34:428 35:106 36:154 37:166 38:12 39:171 40:31 41:159 42:184 43:110 44:81 45:99 46:24 47:91 48:86 49:140 50:505 51:106 52:61 53:140 54:15 55:155 56:54 57:150 58:163 59:97 60:87 61:85 62:23 63:127 64:91 65:109 66:513 67:96 68:45 69:125 70:17 71:171 72:56 73:156 74:148 75:100 76:98 77:98 78:23 79:145 80:102 
1 1:97 2:757 3:37 4:21 5:212 6:0 7:115 8:0 9:250 10:0 11:53 12:0 13:191 14:0 15:46 16:221 17:135 18:15 19:85 20:378 21:114 22:159 23:193 24:171 25:147 26:228 27:82 28:14 29:89 30:3 31:157 32:33 33:119 34:27 35:106 36:41 37:131 38:220 39:185 40:248 41:152 42:374 43:101 44:31 45:77 46:5 47:129 48:54 49:136 50:29 51:96 52:38 53:102 54:80 55:196 56:283 57:180 58:495 59:79 60:40 61:84 62:11 63:128 64:25 65:98 66:81 67:72 68:16 69:123 70:256 71:259 72:176 73:202 74:241 75:79 76:18 77:69 78:6 79:98 80:207 
1 1:64 2:641 3:41 4:13 5:121 6:0 7:249 8:1 9:245 10:206 11:160 12:87 13:58 14:24 15:63 16:28 17:100 18:296 19:94 20:12 21:128 22:396 23:183 24:166 25:228 26:108 27:104 28:4 29:84 30:3 31:79 32:15 33:114 34:338 35:91 36:14 37:110 38:86 39:116 40:56 41:151 42:243 43:146 44:62 45:131 46:30 47:140 48:172 49:67 50:407 51:75 52:12 53:124 54:152 55:162 56:133 57:202 58:201 59:129 60:16 61:119 62:14 63:123 64:67 65:173 66:357 67:68 68:22 69:127 70:77 71:147 72:89 73:106 74:313 75:70 76:45 77:91 78:21 79:218 80:76 
1 1:33 2:962 3:59 4:38 5:142 6:0 7:184 8:0 9:234 10:0 11:179 12:0 13:129 14:0 15:41 16:0 17:38 18:483 19:52 20:502 21:117 22:8 23:248 24:7 25:286 26:1 27:134 28:0 29:77 30:0 31:47 32:0 33:44 34:291 35:64 36:679 37:101 38:13 39:175 40:17 41:315 42:0 43:172 44:0 45:83 46:0 47:46 48:0 49:82 50:205 51:83 52:740 53:113 54:31 55:197 56:17 57:233 58:6 59:127 60:0 61:100 62:0 63:65 64:0 65:42 66:333 67:88 68:609 69:131 70:29 71:207 72:20 73:288 74:9 75:116 76:0 77:76 78:0 79:53 80:0 
1 1:290 2:770 3:62 4:81 5:52 6:0 7:60 8:0 9:97 10:1 11:75 12:0 13:99 14:6 15:265 16:141 17:116 18:599 19:105 20:364 21:103 22:0 23:150 24:0 25:168 26:0 27:111 28:2 29:139 30:4 31:108 32:30 33:94 34:395 35:91 36:588 37:91 38:3 39:155 40:0 41:176 42:0 43:103 44:0 45:161 46:1 47:127 48:13 49:203 50:573 51:100 52:414 53:93 54:1 55:110 56:0 57:92 58:0 59:77 60:0 61:109 62:0 63:216 64:12 65:131 66:523 67:79 68:477 69:83 70:0 71:119 72:0 73:150 74:0 75:105 76:0 77:161 78:0 79:171 80:0 
1 1:134 2:814 3:96 4:115 5:114 6:0 7:163 8:0 9:175 10:0 11:76 12:2 13:92 14:6 15:151 16:64 17:100 18:479 19:119 20:515 21:118 22:0 23:167 24:0 25:171 26:0 27:110 28:0 29:108 30:0 31:106 32:6 33:106 34:475 35:98 36:517 37:111 38:3 39:165 40:4 41:201 42:0 43:114 44:0 45:88 46:0 47:118 48:1 49:97 50:261 51:90 52:735 53:122 54:3 55:172 56:1 57:204 58:0 59:117 60:0 61:103 62:0 63:94 64:0 65:101 66:394 67:119 68:601 69:123 70:2 71:163 72:3 73:169 74:0 75:131 76:0 77:105 78:0 79:90 80:0 
1 1:38 2:792 3:51 4:42 5:324 6:0 7:338 8:0 9:94 10:0 11:61 12:1 13:64 14:3 15:30 16:162 17:91 18:532 19:54 20:465 21:80 22:3 23:247 24:0 25:245 26:0 27:111 28:0 29:74 30:0 31:97 32:0 33:102 34:131 35:110 36:864 37:131 38:6 39:156 40:0 41:186 42:0 43:129 44:0 45:95 46:0 47:92 48:0 49:104 50:65 51:85 52:930 53:99 54:5 55:204 56:0 57:215 58:0 59:109 60:0 61:102 62:0 63:82 64:0 65:148 66:97 67:112 68:896 69:138 70:7 71:140 72:0 73:132 74:0 75:89 76:0 77:98 78:0 79:143 80:0 
1 1:124 2:818 3:130 4:17 5:220 6:0 7:155 8:0 9:122 10:0 11:70 12:0 13:71 14:13 15:108 16:151 17:100 18:348 19:104 20:651 21:120 22:1 23:150 24:0 25:153 26:0 27:148 28:0 29:124 30:0 31:101 32:0 33:105 34:389 35:119 36:600 37:176 38:4 39:124 40:1 41:135 42:3 43:135 44:0 45:108 46:1 47:97 48:3 49:113 50:451 51:117 52:544 53:145 54:2 55:160 56:0 57:155 58:0 59:105 60:0 61:100 62:0 63:105 64:3 65:100 66:429 67:110 68:565 69:136 70:0 71:185 72:0 73:188 74:0 75:114 76:0 77:80 78:0 79:87 80:5 
1 1:131 2:886 3:74 4:4 5:86 6:0 7:216 8:0 9:212 10:3 11:83 12:36 13:61 14:24 15:138 16:47 17:111 18:527 19:68 20:447 21:105 22:1 23:201 24:0 25:205 26:11 27:90 28:7 29:87 30:2 31:133 32:6 33:179 34:675 35:96 36:303 37:102 38:5 39:152 40:3 41:141 42:4 43:85 44:2 45:102 46:2 47:143 48:6 49:130 50:642 51:76 52:341 53:95 54:4 55:219 56:4 57:167 58:0 59:91 60:1 61:82 62:0 63:139 64:7 65:101 66:256 67:89 68:704 69:104 70:32 71:149 72:0 73:191 74:2 75:137 76:1 77:144 78:1 79:87 80:3 
1 1:153 2:906 3:99 4:2 5:148 6:0 7:166 8:1 9:122 10:2 11:76 12:34 13:80 14:19 15:156 16:36 17:135 18:387 19:90 20:599 21:127 22:3 23:209 24:1 25:123 26:1 27:95 28:6 29:103 30:2 31:118 32:2 33:186 34:547 35:102 36:445 37:130 38:4 39:142 40:1 41:118 42:2 43:71 44:1 45:76 46:0 47:176 48:0 49:92 50:452 51:94 52:539 53:169 54:2 55:206 56:1 57:155 58:0 59:96 60:0 61:77 62:1 63:110 64:5 65:130 66:539 67:81 68:443 69:138 70:1 71:196 72:0 73:175 74:9 75:97 76:1 77:81 78:2 79:103 80:5 
1 1:154 2:869 3:87 4:0 5:83 6:0 7:211 8:0 9:188 10:4 11:91 12:28 13:65 14:23 15:123 16:75 17:93 18:478 19:90 20:507 21:145 22:2 23:212 24:0 25:194 26:0 27:112 28:1 29:69 30:1 31:84 32:11 33:124 34:598 35:71 36:370 37:109 38:3 39:199 40:1 41:217 42:12 43:102 44:6 45:68 46:3 47:112 48:7 49:167 50:747 51:89 52:228 53:95 54:6 55:153 56:2 57:163 58:4 59:77 60:2 61:101 62:3 63:157 64:8 65:118 66:753 67:73 68:223 69:96 70:4 71:223 72:1 73:217 74:3 75:83 76:2 77:75 78:2 79:115 80:12 
1 1:152 2:887 3:85 4:24 5:178 6:1 7:151 8:0 9:65 10:0 11:139 12:0 13:78 14:3 15:153 16:85 17:105 18:823 19:56 20:167 21:90 22:1 23:249 24:0 25:195 26:4 27:111 28:1 29:83 30:1 31:111 32:4 33:154 34:501 35:74 36:483 37:107 38:1 39:183 40:1 41:169 42:11 43:79 44:1 45:84 46:0 47:149 48:2 49:78 50:354 51:61 52:645 53:136 54:1 55:281 56:0 57:229 58:0 59:91 60:0 61:58 62:0 63:66 64:0 65:166 66:395 67:84 68:605 69:108 70:0 71:203 72:0 73:149 74:0 75:84 76:0 77:69 78:0 79:137 80:0 
1 1:129 2:902 3:94 4:11 5:111 6:0 7:141 8:0 9:97 10:0 11:128 12:1 13:156 14:6 15:145 16:80 17:110 18:551 19:69 20:443 21:115 22:5 23:215 24:0 25:171 26:0 27:114 28:0 29:96 30:0 31:110 32:1 33:84 34:430 35:70 36:570 37:141 38:0 39:280 40:0 41:228 42:0 43:85 44:0 45:59 46:0 47:53 48:0 49:204 50:405 51:98 52:594 53:125 54:1 55:150 56:0 57:119 58:0 59:75 60:0 61:82 62:0 63:147 64:0 65:223 66:459 67:105 68:541 69:113 70:0 71:124 72:0 73:86 74:0 75:81 76:0 77:90 78:0 79:177 80:0 
1 1:273 2:927 3:145 4:4 5:154 6:0 7:69 8:0 9:69 10:0 11:59 12:7 13:75 14:28 15:156 16:34 17:102 18:506 19:105 20:439 21:132 22:2 23:194 24:0 25:177 26:1 27:86 28:30 29:102 30:19 31:102 32:5 33:141 34:535 35:104 36:463 37:114 38:0 39:149 40:0 41:143 42:0 43:108 44:0 45:112 46:1 47:130 48:1 49:184 50:543 51:102 52:455 53:99 54:2 55:134 56:0 57:132 58:0 59:112 60:0 61:107 62:0 63:131 64:0 65:130 66:397 67:143 68:600 69:147 70:1 71:129 72:1 73:120 74:1 75:94 76:0 77:113 78:0 79:125 80:0 
1 1:207 2:953 3:141 4:6 5:169 6:0 7:97 8:0 9:61 10:0 11:66 12:6 13:60 14:10 15:200 16:24 17:127 18:514 19:107 20:460 21:112 22:0 23:167 24:0 25:151 26:0 27:109 28:18 29:128 30:7 31:99 32:2 33:141 34:514 35:108 36:486 37:135 38:0 39:147 40:0 41:135 42:0 43:117 44:0 45:95 46:0 47:123 48:0 49:163 50:533 51:124 52:466 53:113 54:2 55:123 56:0 57:115 58:0 59:101 60:0 61:111 62:0 63:149 64:0 65:101 66:294 67:103 68:706 69:154 70:0 71:210 72:0 73:174 74:0 75:88 76:0 77:85 78:0 79:86 80:0 
1 1:150 2:454 3:105 4:506 5:125 6:0 7:138 8:0 9:146 10:1 11:145 12:1 13:86 14:12 15:105 16:26 17:134 18:826 19:94 20:169 21:121 22:1 23:140 24:0 25:173 26:0 27:85 28:0 29:104 30:0 31:149 32:4 33:128 34:799 35:98 36:172 37:106 38:6 39:151 40:20 41:141 42:1 43:103 44:0 45:108 46:0 47:165 48:1 49:129 50:684 51:116 52:316 53:147 54:0 55:139 56:0 57:118 58:0 59:95 60:0 61:109 62:0 63:148 64:0 65:126 66:726 67:119 68:257 69:148 70:0 71:142 72:0 73:132 74:1 75:102 76:0 77:95 78:0 79:137 80:16 
1 1:175 2:605 3:102 4:373 5:98 6:1 7:107 8:2 9:135 10:3 11:119 12:3 13:99 14:3 15:166 16:11 17:154 18:767 19:97 20:221 21:99 22:1 23:165 24:1 25:150 26:1 27:84 28:0 29:95 30:0 31:157 32:9 33:153 34:811 35:87 36:169 37:98 38:10 39:174 40:8 41:166 42:0 43:87 44:0 45:81 46:0 47:154 48:2 49:151 50:736 51:81 52:264 53:102 54:0 55:198 56:0 57:164 58:0 59:73 60:0 61:75 62:0 63:157 64:0 65:132 66:751 67:69 68:239 69:96 70:3 71:184 72:1 73:209 74:3 75:87 76:1 77:83 78:2 79:141 80:1 
1 1:195 2:667 3:101 4:251 5:84 6:0 7:91 8:0 9:136 10:3 11:139 12:14 13:73 14:21 15:181 16:45 17:153 18:756 19:92 20:236 21:122 22:0 23:153 24:0 25:122 26:0 27:78 28:0 29:83 30:0 31:197 32:8 33:114 34:792 35:96 36:199 37:121 38:5 39:159 40:0 41:179 42:0 43:100 44:0 45:99 46:1 47:131 48:4 49:122 50:678 51:90 52:285 53:117 54:6 55:183 56:26 57:172 58:2 59:104 60:1 61:91 62:1 63:121 64:1 65:156 66:649 67:94 68:351 69:139 70:0 71:163 72:0 73:123 74:0 75:96 76:0 77:81 78:0 79:148 80:0 
1 1:129 2:476 3:99 4:398 5:94 6:0 7:87 8:0 9:151 10:1 11:206 12:22 13:101 14:44 15:133 16:59 17:123 18:841 19:95 20:138 21:120 22:2 23:137 24:8 25:199 26:1 27:110 28:1 29:90 30:2 31:127 32:7 33:132 34:639 35:76 36:332 37:150 38:4 39:187 40:19 41:153 42:2 43:89 44:1 45:88 46:1 47:126 48:3 49:144 50:663 51:108 52:330 53:145 54:0 55:162 56:0 57:120 58:2 59:85 60:0 61:89 62:0 63:147 64:5 65:97 66:660 67:91 68:315 69:158 70:1 71:160 72:0 73:178 74:2 75:127 76:2 77:104 78:2 79:86 80:19 
1 1:120 2:530 3:108 4:407 5:114 6:0 7:107 8:0 9:99 10:0 11:189 12:6 13:129 14:15 15:135 16:43 17:137 18:796 19:97 20:193 21:152 22:0 23:187 24:1 25:117 26:2 27:77 28:0 29:95 30:0 31:139 32:9 33:116 34:857 35:119 36:138 37:176 38:0 39:161 40:0 41:112 42:0 43:90 44:0 45:95 46:0 47:132 48:5 49:111 50:709 51:108 52:228 53:126 54:0 55:143 56:1 57:146 58:1 59:129 60:2 61:137 62:3 63:100 64:57 65:159 66:678 67:109 68:315 69:122 70:0 71:114 72:0 73:111 74:1 75:141 76:1 77:98 78:1 79:146 80:5 
0.8802278140152755 1:150 2:425 3:87 4:545 5:136 6:0 7:104 8:0 9:92 10:0 11:131 12:0 13:158 14:5 15:140 16:25 17:126 18:620 19:89 20:380 21:183 22:0 23:176 24:0 25:128 26:0 27:86 28:0 29:89 30:0 31:123 32:0 33:141 34:730 35:105 36:269 37:163 38:0 39:152 40:0 41:103 42:0 43:96 44:0 45:110 46:0 47:131 48:0 49:123 50:635 51:103 52:309 53:110 54:0 55:116 56:0 57:149 58:15 59:138 60:2 61:126 62:0 63:136 64:39 65:80 66:601 67:82 68:331 69:107 70:0 71:205 72:0 73:181 74:8 75:126 76:12 77:114 78:1 79:106 80:46 
1 1:125 2:471 3:91 4:441 5:84 6:0 7:102 8:0 9:136 10:1 11:190 12:8 13:145 14:18 15:128 16:62 17:121 18:740 19:91 20:212 21:161 22:3 23:171 24:8 25:155 26:3 27:111 28:2 29:89 30:6 31:100 32:27 33:138 34:670 35:133 36:284 37:138 38:2 39:117 40:2 41:116 42:4 43:125 44:8 45:105 46:9 47:128 48:21 49:93 50:623 51:116 52:367 53:139 54:0 55:142 56:0 57:139 58:2 59:113 60:1 61:140 62:2 63:119 64:5 65:126 66:520 67:125 68:476 69:129 70:0 71:111 72:0 73:120 74:0 75:110 76:2 77:135 78:1 79:145 80:1 
1 1:45 2:905 3:57 4:62 5:125 6:0 7:133 8:0 9:221 10:4 11:178 12:13 13:170 14:1 15:72 16:15 17:124 18:333 19:135 20:596 21:114 22:48 23:130 24:5 25:145 26:7 27:109 28:9 29:108 30:1 31:135 32:1 33:149 34:269 35:112 36:717 37:119 38:9 39:134 40:1 41:157 42:3 43:120 44:1 45:99 46:0 47:110 48:0 49:128 50:175 51:92 52:791 53:89 54:11 55:156 56:3 57:191 58:20 59:103 60:0 61:111 62:0 63:129 64:0 65:90 66:128 67:106 68:861 69:153 70:3 71:165 72:2 73:176 74:5 75:135 76:1 77:84 78:0 79:91 80:0 
1 1:75 2:926 3:146 4:32 5:250 6:1 7:202 8:2 9:157 10:9 11:67 12:1 13:55 14:0 15:50 16:29 17:123 18:344 19:95 20:641 21:115 22:2 23:158 24:2 25:131 26:12 27:129 28:0 29:116 30:0 31:134 32:0 33:119 34:181 35:90 36:802 37:171 38:11 39:165 40:0 41:165 42:3 43:110 44:4 45:98 46:0 47:82 48:0 49:85 50:477 51:99 52:481 53:174 54:9 55:167 56:1 57:193 58:14 59:107 60:17 61:89 62:0 63:86 64:0 65:75 66:691 67:89 68:243 69:113 70:37 71:166 72:1 73:222 74:6 75:143 76:21 77:112 78:1 79:80 80:1 
1 1:90 2:879 3:97 4:1 5:212 6:0 7:215 8:0 9:131 10:18 11:83 12:63 13:106 14:5 15:67 16:34 17:122 18:429 19:90 20:514 21:120 22:6 23:176 24:2 25:158 26:19 27:132 28:16 29:94 30:10 31:110 32:5 33:158 34:336 35:91 36:644 37:103 38:16 39:148 40:1 41:142 42:1 43:118 44:0 45:87 46:2 47:154 48:0 49:113 50:260 51:114 52:726 53:145 54:12 55:149 56:1 57:148 58:1 59:109 60:0 61:106 62:0 63:117 64:1 65:121 66:420 67:116 68:536 69:141 70:4 71:158 72:1 73:147 74:17 75:103 76:12 77:106 78:3 79:108 80:8 
1 1:305 2:679 3:129 4:18 5:101 6:0 7:79 8:0 9:51 10:2 11:46 12:125 13:109 14:72 15:180 16:103 17:156 18:711 19:101 20:287 21:89 22:1 23:162 24:1 25:145 26:0 27:88 28:0 29:98 30:0 31:162 32:1 33:78 34:279 35:95 36:635 37:101 38:57 39:160 40:2 41:201 42:25 43:121 44:0 45:135 46:0 47:109 48:2 49:62 50:224 51:74 52:720 53:133 54:52 55:234 56:1 57:233 58:1 59:113 60:0 61:94 62:0 63:58 64:2 65:272 66:785 67:80 68:204 69:77 70:3 71:104 72:1 73:113 74:0 75:58 76:0 77:68 78:1 79:228 80:6 
1 1:202 2:896 3:97 4:5 5:110 6:0 7:107 8:0 9:67 10:0 11:78 12:20 13:118 14:25 15:220 16:53 17:184 18:838 19:77 20:131 21:87 22:9 23:163 24:1 25:130 26:3 27:85 28:2 29:83 30:1 31:190 32:17 33:175 34:529 35:93 36:399 37:91 38:18 39:136 40:11 41:150 42:5 43:92 44:8 45:94 46:4 47:169 48:26 49:197 50:438 51:94 52:457 53:92 54:13 55:107 56:27 57:128 58:37 59:85 60:1 61:104 62:3 63:193 64:24 65:114 66:566 67:93 68:412 69:121 70:7 71:141 72:4 73:158 74:6 75:130 76:0 77:100 78:0 79:143 80:5 
1 1:215 2:899 3:104 4:16 5:81 6:0 7:98 8:0 9:60 10:1 11:87 12:21 13:116 14:20 15:240 16:42 17:182 18:777 19:89 20:172 21:79 22:18 23:129 24:2 25:126 26:1 27:88 28:1 29:103 30:2 31:205 32:28 33:151 34:452 35:95 36:523 37:89 38:5 39:155 40:2 41:154 42:3 43:109 44:1 45:114 46:1 47:133 48:14 49:182 50:450 51:89 52:452 53:105 54:15 55:108 56:31 57:123 58:19 59:104 60:1 61:105 62:20 63:184 64:14 65:140 66:509 67:104 68:485 69:101 70:1 71:115 72:0 73:136 74:3 75:127 76:1 77:133 78:0 79:145 80:2 
1 1:294 2:824 3:104 4:4 5:60 6:2 7:44 8:0 9:44 10:1 11:43 12:45 13:104 14:31 15:308 16:94 17:212 18:757 19:76 20:193 21:77 22:7 23:129 24:1 25:129 26:1 27:71 28:7 29:78 30:3 31:228 32:32 33:180 34:797 35:83 36:146 37:93 38:9 39:129 40:16 41:139 42:1 43:86 44:2 45:83 46:1 47:209 48:29 49:169 50:555 51:91 52:364 53:98 54:1 55:117 56:2 57:139 58:15 59:96 60:5 61:113 62:3 63:176 64:55 65:202 66:586 67:98 68:281 69:92 70:5 71:117 72:7 73:147 74:70 75:93 76:9 77:89 78:4 79:163 80:39 
1 1:286 2:814 3:82 4:3 5:76 6:1 7:37 8:0 9:44 10:1 11:74 12:40 13:104 14:70 15:298 16:71 17:229 18:835 19:95 20:56 21:85 22:9 23:98 24:1 25:97 26:31 27:73 28:36 29:87 30:11 31:236 32:22 33:235 34:632 35:100 36:226 37:63 38:13 39:95 40:9 41:108 42:27 43:70 44:63 45:92 46:15 47:237 48:16 49:154 50:584 51:92 52:306 53:118 54:16 55:124 56:31 57:104 58:21 59:134 60:2 61:107 62:1 63:168 64:39 65:139 66:707 67:102 68:280 69:103 70:5 71:115 72:5 73:101 74:2 75:145 76:0 77:145 78:0 79:150 80:2 
1 1:247 2:857 3:113 4:4 5:73 6:3 7:43 8:0 9:49 10:0 11:115 12:47 13:135 14:61 15:225 16:28 17:249 18:859 19:77 20:119 21:72 22:13 23:112 24:1 25:104 26:0 27:65 28:0 29:90 30:0 31:232 32:9 33:234 34:495 35:98 36:437 37:66 38:17 39:97 40:7 41:93 42:3 43:74 44:9 45:92 46:2 47:246 48:29 49:161 50:442 51:95 52:450 53:109 54:28 55:152 56:48 57:113 58:13 59:97 60:4 61:111 62:2 63:163 64:13 65:113 66:563 67:95 68:408 69:92 70:12 71:127 72:9 73:153 74:5 75:122 76:2 77:133 78:0 79:166 80:0 
1 1:130 2:717 3:161 4:281 5:143 6:0 7:109 8:0 9:87 10:0 11:92 12:0 13:148 14:0 15:130 16:2 17:113 18:601 19:99 20:399 21:115 22:0 23:161 24:0 25:150 26:0 27:147 28:0 29:114 30:0 31:101 32:0 33:114 34:501 35:71 36:497 37:111 38:1 39:147 40:0 41:164 42:0 43:143 44:0 45:143 46:0 47:107 48:1 49:120 50:301 51:161 52:697 53:159 54:1 55:120 56:0 57:107 58:1 59:102 60:0 61:132 62:0 63:100 64:0 65:127 66:449 67:135 68:549 69:127 70:0 71:87 72:0 73:94 74:0 75:119 76:0 77:162 78:0 79:150 80:2 
1 1:148 2:487 3:80 4:219 5:57 6:0 7:35 8:0 9:68 10:0 11:201 12:35 13:179 14:60 15:231 16:199 17:206 18:642 19:74 20:283 21:107 22:0 23:123 24:0 25:110 26:55 27:77 28:17 29:79 30:0 31:224 32:3 33:169 34:910 35:82 36:77 37:109 38:0 39:145 40:0 41:130 42:0 43:99 44:2 45:91 46:3 47:175 48:9 49:182 50:795 51:93 52:162 53:122 54:0 55:135 56:1 57:111 58:20 59:101 60:10 61:98 62:3 63:159 64:9 65:126 66:808 67:83 68:157 69:131 70:0 71:172 72:0 73:146 74:5 75:126 76:7 77:82 78:5 79:134 80:19 
1 1:151 2:665 3:56 4:0 5:81 6:0 7:47 8:0 9:96 10:0 11:210 12:13 13:191 14:50 15:168 16:272 17:184 18:617 19:87 20:317 21:109 22:1 23:120 24:1 25:99 26:47 27:88 28:17 29:98 30:0 31:216 32:0 33:149 34:618 35:98 36:373 37:128 38:0 39:115 40:0 41:99 42:1 43:112 44:6 45:126 46:1 47:174 48:1 49:151 50:518 51:104 52:459 53:139 54:1 55:148 56:0 57:114 58:17 59:109 60:3 61:98 62:0 63:138 64:2 65:150 66:589 67:89 68:407 69:115 70:0 71:118 72:0 73:152 74:2 75:138 76:0 77:112 78:1 79:126 80:1 
1 1:53 2:754 3:67 4:21 5:206 6:0 7:188 8:0 9:157 10:0 11:172 12:0 13:100 14:31 15:58 16:194 17:125 18:472 19:96 20:449 21:110 22:2 23:138 24:1 25:160 26:73 27:168 28:0 29:105 30:0 31:99 32:1 33:168 34:476 35:91 36:441 37:107 38:5 39:102 40:2 41:98 42:74 43:109 44:3 45:135 46:0 47:190 48:0 49:169 50:450 51:89 52:540 53:106 54:2 55:111 56:0 57:123 58:3 59:110 60:4 61:133 62:1 63:160 64:0 65:129 66:478 67:108 68:508 69:162 70:2 71:180 72:1 73:132 74:4 75:99 76:6 77:80 78:1 79:111 80:0 
1 1:42 2:578 3:47 4:5 5:235 6:0 7:253 8:0 9:134 10:0 11:173 12:0 13:85 14:78 15:31 16:340 17:197 18:641 19:70 20:359 21:129 22:0 23:149 24:0 25:118 26:0 27:63 28:0 29:77 30:0 31:198 32:1 33:203 34:616 35:91 36:338 37:103 38:1 39:91 40:0 41:89 42:20 43:104 44:24 45:127 46:0 47:193 48:1 49:142 50:517 51:99 52:473 53:115 54:1 55:116 56:0 57:112 58:2 59:144 60:3 61:105 62:2 63:168 64:1 65:142 66:604 67:100 68:382 69:151 70:1 71:184 72:1 73:126 74:8 75:80 76:3 77:72 78:0 79:145 80:1 
1 1:119 2:926 3:117 4:5 5:241 6:0 7:170 8:0 9:129 10:0 11:57 12:28 13:94 14:9 15:74 16:32 17:100 18:241 19:125 20:759 21:122 22:0 23:125 24:0 25:134 26:0 27:153 28:0 29:138 30:0 31:103 32:0 33:61 34:171 35:67 36:827 37:133 38:1 39:155 40:0 41:214 42:0 43:189 44:0 45:118 46:0 47:63 48:0 49:103 50:203 51:69 52:796 53:97 54:1 55:228 56:0 57:193 58:0 59:95 60:0 61:105 62:0 63:110 64:0 65:69 66:53 67:57 68:928 69:105 70:0 71:209 72:0 73:254 74:17 75:123 76:2 77:99 78:0 79:83 80:0 
0.5419232938611051 1:62 2:948 3:104 4:28 5:278 6:0 7:220 8:0 9:161 10:10 11:79 12:1 13:63 14:0 15:33 16:12 17:88 18:128 19:73 20:873 21:105 22:0 23:124 24:0 25:124 26:0 27:183 28:0 29:193 30:0 31:111 32:0 33:145 34:85 35:100 36:914 37:122 38:1 39:119 40:0 41:125 42:0 43:143 44:0 45:116 46:0 47:130 48:0 49:84 50:122 51:58 52:878 53:96 54:0 55:227 56:0 57:210 58:0 59:85 60:0 61:111 62:0 63:128 64:0 65:68 66:27 67:71 68:972 69:134 70:0 71:174 72:0 73:235 74:2 75:125 76:0 77:108 78:0 79:84 80:0 
1 1:93 2:916 3:151 4:79 5:221 6:0 7:135 8:0 9:115 10:0 11:112 12:0 13:95 14:0 15:79 16:5 17:212 18:769 19:132 20:231 21:103 22:0 23:102 24:0 25:85 26:0 27:107 28:0 29:89 30:0 31:172 32:0 33:80 34:569 35:101 36:431 37:136 38:0 39:174 40:0 41:166 42:0 43:136 44:0 45:113 46:0 47:94 48:0 49:65 50:471 51:93 52:526 53:150 54:3 55:198 56:0 57:202 58:0 59:132 60:0 61:98 62:0 63:62 64:0 65:95 66:320 67:131 68:680 69:151 70:1 71:159 72:0 73:162 74:0 75:121 76:0 77:90 78:0 79:93 80:0 
1 1:95 2:911 3:69 4:9 5:126 6:0 7:130 8:0 9:138 10:0 11:131 12:0 13:212 14:0 15:100 16:80 17:47 18:476 19:70 20:524 21:159 22:0 23:243 24:0 25:207 26:0 27:129 28:0 29:103 30:0 31:43 32:0 33:77 34:403 35:98 36:595 37:135 38:1 39:213 40:0 41:184 42:0 43:135 44:0 45:91 46:0 47:68 48:1 49:72 50:241 51:82 52:718 53:141 54:2 55:251 56:1 57:187 58:40 59:125 60:0 61:80 62:0 63:63 64:0 65:80 66:317 67:66 68:599 69:138 70:7 71:255 72:3 73:202 74:72 75:98 76:2 77:85 78:1 79:78 80:1 
1 1:112 2:600 3:176 4:358 5:166 6:0 7:116 8:0 9:100 10:0 11:120 12:0 13:119 14:4 15:92 16:39 17:204 18:824 19:80 20:163 21:85 22:0 23:113 24:0 25:109 26:0 27:110 28:0 29:130 30:3 31:170 32:10 33:73 34:574 35:109 36:414 37:174 38:1 39:219 40:0 41:164 42:1 43:100 44:0 45:85 46:0 47:78 48:10 49:84 50:548 51:66 52:446 53:109 54:0 55:212 56:0 57:191 58:0 59:146 60:0 61:111 62:0 63:81 64:6 65:118 66:578 67:117 68:422 69:89 70:0 71:117 72:0 73:131 74:0 75:131 76:0 77:154 78:0 79:144 80:0 
1 1:104 2:493 3:181 4:475 5:162 6:0 7:110 8:0 9:93 10:0 11:110 12:0 13:126 14:2 15:114 16:30 17:189 18:764 19:100 20:231 21:84 22:0 23:111 24:0 25:99 26:0 27:116 28:0 29:123 30:1 31:179 32:4 33:72 34:540 35:99 36:450 37:171 38:1 39:245 40:0 41:167 42:1 43:98 44:0 45:91 46:0 47:57 48:9 49:89 50:458 51:80 52:538 53:112 54:0 55:196 56:0 57:187 58:0 59:118 60:0 61:128 62:0 63:91 64:4 65:124 66:470 67:115 68:530 69:98 70:0 71:119 72:0 73:142 74:0 75:112 76:0 77:155 78:0 79:135 80:0 
1 1:74 2:899 3:54 4:25 5:130 6:0 7:136 8:0 9:229 10:0 11:182 12:0 13:135 14:0 15:61 16:76 17:67 18:332 19:89 20:668 21:142 22:0 23:196 24:0 25:207 26:0 27:125 28:0 29:95 30:0 31:79 32:0 33:63 34:143 35:95 36:857 37:88 38:0 39:195 40:0 41:221 42:0 43:133 44:0 45:126 46:0 47:78 48:0 49:57 50:77 51:85 52:923 53:135 54:0 55:214 56:0 57:252 58:0 59:122 60:0 61:91 62:0 63:45 64:0 65:57 66:166 67:115 68:835 69:132 70:0 71:228 72:0 73:232 74:0 75:108 76:0 77:74 78:0 79:53 80:0 
1 1:42 2:924 3:47 4:0 5:154 6:0 7:185 8:0 9:222 10:0 11:156 12:0 13:147 14:0 15:46 16:76 17:123 18:118 19:98 20:881 21:123 22:2 23:129 24:0 25:187 26:0 27:117 28:0 29:112 30:0 31:111 32:0 33:114 34:96 35:93 36:871 37:102 38:33 39:158 40:0 41:213 42:0 43:111 44:0 45:101 46:0 47:109 48:0 49:63 50:52 51:57 52:895 53:88 54:46 55:196 56:4 57:307 58:2 59:121 60:0 61:104 62:0 63:65 64:0 65:135 66:86 67:88 68:885 69:100 70:29 71:164 72:0 73:168 74:0 75:98 76:0 77:104 78:0 79:143 80:0 
1 1:63 2:794 3:58 4:0 5:150 6:0 7:168 8:0 9:211 10:0 11:162 12:0 13:133 14:14 15:56 16:192 17:83 18:314 19:84 20:683 21:127 22:0 23:201 24:0 25:200 26:0 27:140 28:0 29:103 30:0 31:63 32:2 33:77 34:100 35:85 36:897 37:131 38:1 39:160 40:0 41:190 42:0 43:133 44:0 45:134 46:0 47:90 48:2 49:86 50:191 51:102 52:808 53:138 54:1 55:152 56:1 57:174 58:0 59:144 60:0 61:127 62:0 63:77 64:0 65:75 66:351 67:138 68:648 69:134 70:2 71:161 72:0 73:147 74:0 75:157 76:0 77:109 78:0 79:79 80:0 
1 1:122 2:723 3:135 4:34 5:149 6:0 7:96 8:0 9:84 10:3 11:91 12:187 13:183 14:38 15:141 16:15 17:120 18:841 19:127 20:108 21:134 22:1 23:124 24:0 25:126 26:0 27:134 28:44 29:125 30:5 31:111 32:1 33:123 34:716 35:132 36:274 37:128 38:3 39:128 40:0 41:117 42:1 43:115 44:4 45:135 46:1 47:122 48:0 49:122 50:573 51:110 52:422 53:153 54:0 55:135 56:0 57:143 58:1 59:130 60:2 61:103 62:0 63:104 64:0 65:129 66:619 67:118 68:369 69:121 70:0 71:134 72:0 73:125 74:0 75:138 76:0 77:128 78:6 79:106 80:6 
1 1:119 2:809 3:124 4:116 5:135 6:0 7:121 8:0 9:138 10:0 11:138 12:6 13:115 14:50 15:110 16:19 17:116 18:448 19:112 20:537 21:117 22:1 23:160 24:0 25:143 26:0 27:113 28:1 29:127 30:7 31:112 32:6 33:88 34:516 35:109 36:481 37:139 38:0 39:171 40:0 41:169 42:0 43:123 44:0 45:117 46:0 47:84 48:3 49:104 50:482 51:103 52:508 53:142 54:6 55:146 56:0 57:141 58:0 59:137 60:1 61:120 62:1 63:108 64:3 65:113 66:565 67:120 68:434 69:122 70:0 71:128 72:0 73:107 74:0 75:134 76:0 77:151 78:0 79:126 80:1 
1 1:117 2:871 3:118 4:18 5:134 6:0 7:115 8:0 9:146 10:0 11:141 12:2 13:123 14:56 15:106 16:53 17:99 18:533 19:125 20:447 21:140 22:0 23:166 24:0 25:129 26:0 27:105 28:1 29:132 30:10 31:104 32:9 33:89 34:582 35:100 36:413 37:144 38:0 39:165 40:0 41:169 42:0 43:135 44:0 45:122 46:0 47:76 48:5 49:74 50:561 51:112 52:431 53:130 54:2 55:162 56:0 57:148 58:0 59:148 60:0 61:124 62:2 63:100 64:4 65:105 66:655 67:119 68:343 69:125 70:0 71:127 72:0 73:107 74:0 75:123 76:0 77:155 78:0 79:139 80:1 
1 1:39 2:863 3:66 4:7 5:219 6:0 7:250 8:0 9:240 10:0 11:97 12:0 13:65 14:0 15:24 16:130 17:86 18:59 19:101 20:928 21:141 22:13 23:175 24:0 25:169 26:0 27:128 28:0 29:107 30:0 31:94 32:0 33:103 34:47 35:100 36:910 37:131 38:44 39:166 40:0 41:186 42:0 43:119 44:0 45:107 46:0 47:89 48:0 49:116 50:31 51:108 52:919 53:119 54:48 55:194 56:1 57:166 58:1 59:105 60:0 61:103 62:0 63:91 64:0 65:144 66:13 67:170 68:934 69:136 70:53 71:111 72:0 73:110 74:0 75:95 76:0 77:114 78:0 79:121 80:0 
0.7093100143408618 1:74 2:217 3:72 4:781 5:129 6:0 7:220 8:0 9:281 10:0 11:94 12:0 13:62 14:0 15:68 16:3 17:86 18:621 19:116 20:376 21:189 22:0 23:164 24:0 25:111 26:0 27:116 28:0 29:127 30:0 31:91 32:3 33:95 34:261 35:111 36:728 37:135 38:10 39:161 40:1 41:170 42:0 43:128 44:0 45:103 46:0 47:98 48:0 49:119 50:18 51:137 52:950 53:133 54:28 55:133 56:3 57:148 58:1 59:113 60:0 61:107 62:0 63:109 64:0 65:140 66:19 67:144 68:927 69:143 70:54 71:116 72:0 73:95 74:0 75:128 76:0 77:127 78:0 79:107 80:0 
0.7959050294403117 1:133 2:258 3:98 4:654 5:91 6:0 7:69 8:0 9:152 10:0 11:132 12:0 13:202 14:0 15:124 16:88 17:136 18:774 19:108 20:215 21:117 22:0 23:125 24:0 25:123 26:0 27:102 28:0 29:142 30:1 31:148 32:11 33:123 34:505 35:115 36:475 37:95 38:20 39:130 40:0 41:149 42:0 43:110 44:0 45:136 46:0 47:142 48:0 49:116 50:567 51:119 52:401 53:121 54:29 55:151 56:1 57:148 58:0 59:132 60:0 61:104 62:0 63:111 64:1 65:111 66:291 67:116 68:691 69:109 70:11 71:133 72:1 73:162 74:3 75:129 76:0 77:125 78:0 79:117 80:3 
1 1:115 2:789 3:99 4:211 5:108 6:0 7:112 8:0 9:163 10:0 11:184 12:0 13:119 14:0 15:100 16:0 17:94 18:620 19:98 20:376 21:131 22:0 23:140 24:0 25:166 26:0 27:174 28:0 29:110 30:0 31:87 32:4 33:81 34:553 35:93 36:446 37:157 38:1 39:195 40:0 41:170 42:1 43:144 44:0 45:87 46:0 47:74 48:0 49:82 50:584 51:107 52:417 53:135 54:0 55:192 56:0 57:194 58:0 59:119 60:0 61:91 62:0 63:80 64:0 65:116 66:439 67:126 68:561 69:128 70:0 71:115 72:0 73:148 74:0 75:135 76:0 77:132 78:0 79:101 80:0 
1 1:32 2:532 3:42 4:115 5:97 6:3 7:222 8:1 9:300 10:2 11:229 12:3 13:36 14:16 15:42 16:327 17:77 18:437 19:71 20:506 21:104 22:3 23:193 24:0 25:271 26:0 27:129 28:0 29:73 30:6 31:82 32:48 33:83 34:341 35:74 36:647 37:117 38:1 39:184 40:0 41:233 42:0 43:143 44:0 45:94 46:0 47:72 48:11 49:103 50:196 51:104 52:796 53:151 54:4 55:196 56:0 57:179 58:0 59:100 60:0 61:78 62:0 63:90 64:4 65:174 66:131 67:82 68:847 69:107 70:17 71:137 72:3 73:148 74:1 75:95 76:1 77:77 78:0 79:180 80:1 
1 1:208 2:644 3:43 4:1 5:76 6:0 7:31 8:0 9:92 10:243 11:156 12:26 13:95 14:22 15:298 16:64 17:224 18:959 19:51 20:39 21:75 22:0 23:113 24:0 25:163 26:0 27:126 28:0 29:64 30:0 31:185 32:2 33:142 34:970 35:80 36:23 37:109 38:0 39:143 40:0 41:188 42:0 43:128 44:0 45:64 46:0 47:147 48:7 49:190 50:973 51:57 52:10 53:75 54:0 55:114 56:0 57:165 58:12 59:106 60:1 61:84 62:1 63:211 64:3 65:137 66:903 67:58 68:8 69:72 70:0 71:144 72:0 73:252 74:73 75:93 76:6 77:78 78:2 79:166 80:9 
1 1:114 2:830 3:76 4:107 5:145 6:1 7:95 8:8 9:130 10:1 11:134 12:1 13:190 14:1 15:116 16:53 17:160 18:804 19:78 20:140 21:80 22:7 23:192 24:36 25:173 26:11 27:58 28:1 29:67 30:0 31:194 32:0 33:179 34:717 35:86 36:223 37:68 38:7 39:115 40:49 41:129 42:4 43:58 44:0 45:82 46:0 47:283 48:0 49:172 50:651 51:72 52:298 53:68 54:24 55:112 56:25 57:141 58:1 59:76 60:0 61:116 62:0 63:243 64:0 65:90 66:720 67:61 68:243 69:112 70:33 71:228 72:4 73:219 74:0 75:56 76:0 77:98 78:0 79:135 80:0 
1 1:119 2:558 3:102 4:0 5:97 6:0 7:155 8:0 9:197 10:60 11:135 12:230 13:87 14:77 15:109 16:75 17:85 18:414 19:86 20:293 21:135 22:9 23:203 24:4 25:209 26:13 27:117 28:223 29:88 30:20 31:77 32:25 33:83 34:500 35:76 36:277 37:121 38:0 39:220 40:0 41:212 42:3 43:122 44:69 45:78 46:59 47:90 48:92 49:115 50:586 51:83 52:249 53:99 54:2 55:201 56:3 57:185 58:64 59:114 60:32 61:83 62:24 63:119 64:40 65:115 66:668 67:69 68:201 69:100 70:3 71:194 72:3 73:205 74:91 75:120 76:19 77:81 78:3 79:116 80:12 
1 1:224 2:9 3:72 4:0 5:68 6:0 7:72 8:0 9:81 10:51 11:61 12:934 13:174 14:4 15:249 16:2 17:135 18:948 19:97 20:2 21:113 22:0 23:108 24:0 25:127 26:8 27:117 28:38 29:122 30:1 31:181 32:3 33:96 34:804 35:88 36:35 37:117 38:0 39:153 40:0 41:193 42:66 43:110 44:94 45:121 46:0 47:121 48:1 49:152 50:800 51:88 52:75 53:98 54:4 55:148 56:2 57:152 58:60 59:135 60:53 61:92 62:1 63:135 64:5 65:119 66:751 67:107 68:63 69:142 70:7 71:148 72:2 73:164 74:68 75:119 76:23 77:90 78:3 79:110 80:83 
1 1:386 2:859 3:157 4:1 5:47 6:0 7:19 8:3 9:15 10:25 11:20 12:20 13:106 14:35 15:250 16:56 17:219 18:993 19:97 20:7 21:108 22:0 23:76 24:0 25:73 26:0 27:112 28:0 29:125 30:0 31:190 32:0 33:249 34:945 35:77 36:31 37:85 38:5 39:81 40:2 41:75 42:4 43:60 44:7 45:109 46:3 47:264 48:4 49:158 50:891 51:132 52:91 53:90 54:3 55:125 56:1 57:150 58:0 59:99 60:1 61:106 62:1 63:141 64:13 65:197 66:970 67:146 68:13 69:98 70:0 71:89 72:0 73:111 74:0 75:95 76:1 77:100 78:8 79:164 80:8 
1 1:104 2:35 3:55 4:482 5:198 6:2 7:172 8:206 9:249 10:244 11:50 12:30 13:122 14:0 15:51 16:0 17:180 18:540 19:127 20:377 21:104 22:39 23:111 24:21 25:117 26:12 27:89 28:2 29:117 30:1 31:155 32:9 33:84 34:591 35:100 36:382 37:146 38:13 39:148 40:10 41:168 42:4 43:138 44:0 45:121 46:0 47:95 48:0 49:96 50:579 51:101 52:333 53:136 54:20 55:163 56:29 57:169 58:34 59:124 60:0 61:118 62:0 63:92 64:5 65:98 66:619 67:103 68:356 69:183 70:10 71:139 72:6 73:166 74:2 75:140 76:0 77:88 78:0 79:83 80:8 
1 1:104 2:804 3:98 4:0 5:182 6:0 7:138 8:0 9:159 10:0 11:103 12:14 13:136 14:9 15:80 16:173 17:104 18:787 19:85 20:165 21:148 22:8 23:246 24:2 25:186 26:34 27:73 28:1 29:73 30:0 31:85 32:2 33:121 34:687 35:85 36:206 37:135 38:15 39:185 40:8 41:192 42:60 43:88 44:12 45:99 46:4 47:95 48:8 49:75 50:711 51:93 52:190 53:145 54:11 55:219 56:11 57:161 58:41 59:108 60:15 61:106 62:15 63:92 64:5 65:103 66:600 67:69 68:371 69:122 70:5 71:206 72:8 73:185 74:16 75:124 76:0 77:91 78:0 79:100 80:1 
1 1:66 2:900 3:64 4:1 5:182 6:0 7:153 8:0 9:242 10:8 11:104 12:6 13:135 14:9 15:54 16:76 17:104 18:696 19:95 20:205 21:166 22:11 23:187 24:5 25:152 26:49 27:66 28:27 29:108 30:1 31:121 32:6 33:86 34:671 35:71 36:263 37:155 38:6 39:235 40:4 41:189 42:41 43:79 44:11 45:95 46:2 47:90 48:3 49:68 50:601 51:82 52:354 53:163 54:7 55:214 56:6 57:193 58:31 59:116 60:1 61:98 62:0 63:67 64:1 65:104 66:528 67:97 68:447 69:143 70:4 71:166 72:6 73:196 74:15 75:111 76:0 77:89 78:0 79:94 80:1 
1 1:75 2:302 3:52 4:0 5:159 6:0 7:153 8:0 9:230 10:19 11:133 12:26 13:149 14:92 15:50 16:561 17:69 18:910 19:73 20:47 21:183 22:1 23:225 24:0 25:153 26:23 27:111 28:12 29:118 30:0 31:68 32:7 33:65 34:809 35:106 36:139 37:175 38:1 39:225 40:2 41:178 42:27 43:94 44:15 45:95 46:3 47:64 48:3 49:95 50:777 51:80 52:162 53:123 54:6 55:196 56:2 57:204 58:36 59:113 60:10 61:93 62:2 63:96 64:6 65:258 66:853 67:83 68:107 69:81 70:0 71:165 72:1 73:162 74:33 75:68 76:1 77:61 78:0 79:122 80:4 
0.5230406418644445 1:63 2:23 3:63 4:0 5:152 6:0 7:129 8:0 9:239 10:0 11:163 12:348 13:141 14:132 15:52 16:497 17:62 18:696 19:79 20:213 21:93 22:48 23:249 24:0 25:256 26:0 27:132 28:31 29:71 30:6 31:59 32:6 33:82 34:650 35:68 36:201 37:99 38:83 39:247 40:2 41:281 42:2 43:105 44:56 45:64 46:2 47:54 48:5 49:54 50:660 51:68 52:176 53:94 54:90 55:233 56:0 57:264 58:18 59:149 60:51 61:82 62:4 63:57 64:1 65:56 66:714 67:63 68:190 69:110 70:33 71:202 72:0 73:259 74:11 75:171 76:36 77:84 78:8 79:54 80:9 
1 1:144 2:276 3:158 4:614 5:128 6:5 7:94 8:1 9:121 10:7 11:87 12:8 13:127 14:14 15:141 16:74 17:142 18:821 19:95 20:123 21:124 22:3 23:138 24:1 25:120 26:9 27:111 28:0 29:126 30:7 31:144 32:38 33:96 34:737 35:105 36:158 37:147 38:13 39:150 40:6 41:185 42:11 43:100 44:3 45:112 46:4 47:104 48:69 49:94 50:648 51:86 52:232 53:110 54:22 55:156 56:3 57:170 58:2 59:148 60:8 61:136 62:6 63:100 64:79 65:75 66:539 67:91 68:409 69:114 70:23 71:154 72:2 73:203 74:0 75:178 76:0 77:96 78:2 79:90 80:26 
1 1:101 2:763 3:54 4:73 5:67 6:1 7:470 8:2 9:171 10:20 11:22 12:27 13:24 14:28 15:91 16:86 17:76 18:371 19:134 20:626 21:194 22:2 23:255 24:0 25:150 26:0 27:64 28:0 29:60 30:0 31:66 32:1 33:75 34:704 35:104 36:261 37:171 38:12 39:269 40:4 41:191 42:16 43:54 44:2 45:45 46:0 47:92 48:3 49:114 50:639 51:67 52:263 53:65 54:19 55:298 56:17 57:199 58:39 59:70 60:5 61:71 62:1 63:116 64:18 65:94 66:343 67:67 68:652 69:102 70:4 71:249 72:1 73:174 74:0 75:97 76:0 77:107 78:0 79:111 80:0 
0.2335407469635234 1:35 2:84 3:48 4:9 5:65 6:0 7:385 8:0 9:316 10:3 11:51 12:451 13:59 14:276 15:41 16:178 17:84 18:292 19:79 20:700 21:114 22:5 23:274 24:0 25:218 26:0 27:87 28:0 29:70 30:1 31:74 32:2 33:82 34:340 35:65 36:635 37:101 38:14 39:263 40:1 41:241 42:2 43:89 44:2 45:70 46:1 47:90 48:6 49:99 50:752 51:96 52:188 53:81 54:2 55:249 56:4 57:260 58:33 59:72 60:11 61:62 62:2 63:81 64:9 65:91 66:367 67:73 68:630 69:96 70:2 71:215 72:0 73:235 74:0 75:109 76:0 77:95 78:0 79:86 80:1 
1 1:57 2:112 3:34 4:9 5:70 6:0 7:314 8:0 9:384 10:1 11:53 12:0 13:38 14:315 15:50 16:563 17:290 18:805 19:93 20:136 21:60 22:0 23:91 24:0 25:144 26:2 27:59 28:16 29:69 30:16 31:194 32:25 33:109 34:615 35:76 36:325 37:94 38:1 39:196 40:0 41:227 42:7 43:87 44:25 45:89 46:16 47:122 48:12 49:127 50:640 51:84 52:297 53:101 54:2 55:205 56:1 57:200 58:5 59:93 60:23 61:89 62:12 63:102 64:21 65:113 66:646 67:80 68:299 69:101 70:0 71:201 72:2 73:179 74:6 75:101 76:3 77:104 78:17 79:122 80:26 
1 1:85 2:77 3:113 4:595 5:117 6:241 7:179 8:25 9:208 10:25 11:128 12:16 13:96 14:4 15:75 16:17 17:136 18:199 19:91 20:276 21:97 22:341 23:137 24:40 25:189 26:38 27:123 28:30 29:104 30:53 31:123 32:23 33:239 34:200 35:95 36:436 37:80 38:40 39:86 40:8 41:89 42:199 43:95 44:107 45:109 46:2 47:207 48:7 49:176 50:321 51:107 52:223 53:83 54:341 55:106 56:15 57:115 58:51 59:115 60:15 61:118 62:5 63:179 64:28 65:166 66:274 67:106 68:154 69:91 70:229 71:95 72:50 73:115 74:207 75:118 76:46 77:144 78:11 79:165 80:29 
-1 1:122 2:149 3:88 4:601 5:108 6:110 7:187 8:63 9:227 10:76 11:73 12:0 13:104 14:0 15:92 16:0 17:115 18:163 19:68 20:115 21:122 22:10 23:186 24:27 25:194 26:315 27:106 28:348 29:89 30:8 31:120 32:14 33:94 34:4 35:74 36:50 37:106 38:18 39:230 40:35 41:234 42:562 43:94 44:324 45:97 46:3 47:73 48:3 49:105 50:5 51:83 52:89 53:98 54:54 55:215 56:64 57:206 58:548 59:96 60:241 61:109 62:0 63:89 64:0 65:129 66:36 67:70 68:25 69:89 70:131 71:233 72:228 73:215 74:424 75:87 76:156 77:85 78:0 79:92 80:0 
-1 1:83 2:47 3:92 4:498 5:150 6:168 7:238 8:131 9:246 10:157 11:81 12:0 13:59 14:0 15:52 16:0 17:109 18:110 19:80 20:187 21:87 22:6 23:232 24:28 25:224 26:345 27:92 28:316 29:69 30:7 31:107 32:2 33:65 34:26 35:85 36:148 37:90 38:10 39:280 40:41 41:206 42:540 43:111 44:232 45:101 46:3 47:61 48:1 49:95 50:80 51:80 52:125 53:88 54:53 55:256 56:65 57:197 58:512 59:92 60:165 61:102 62:1 63:91 64:0 65:87 66:33 67:86 68:112 69:169 70:193 71:256 72:271 73:147 74:301 75:103 76:90 77:82 78:0 79:70 80:0 
-1 1:69 2:16 3:129 4:137 5:118 6:40 7:191 8:82 9:203 10:528 11:95 12:197 13:97 14:1 15:98 16:0 17:115 18:138 19:63 20:75 21:109 22:11 23:193 24:31 25:209 26:316 27:94 28:416 29:94 30:12 31:124 32:1 33:102 34:3 35:74 36:41 37:105 38:25 39:221 40:24 41:210 42:550 43:109 44:351 45:85 46:6 47:93 48:1 49:103 50:2 51:91 52:55 53:94 54:71 55:190 56:66 57:203 58:562 59:117 60:243 61:102 62:1 63:100 64:0 65:90 66:5 67:125 68:72 69:125 70:282 71:190 72:270 73:174 74:275 75:95 76:97 77:94 78:0 79:105 80:0 
-1 1:88 2:7 3:123 4:121 5:133 6:44 7:194 8:75 9:197 10:591 11:98 12:162 13:84 14:1 15:83 16:0 17:113 18:129 19:92 20:78 21:101 22:10 23:179 24:36 25:207 26:305 27:97 28:432 29:93 30:8 31:119 32:1 33:90 34:1 35:94 36:45 37:117 38:21 39:182 40:24 41:227 42:550 43:97 44:354 45:98 46:5 47:96 48:1 49:99 50:3 51:90 52:58 53:100 54:67 55:205 56:67 57:209 58:594 59:108 60:211 61:85 62:1 63:104 64:1 65:85 66:1 67:123 68:93 69:149 70:279 71:193 72:248 73:167 74:311 75:95 76:67 77:104 78:0 79:86 80:0 
-1 1:99 2:266 3:139 4:149 5:161 6:0 7:141 8:0 9:114 10:0 11:123 12:0 13:123 14:0 15:100 16:585 17:128 18:198 19:155 20:124 21:158 22:0 23:118 24:0 25:118 26:0 27:110 28:0 29:113 30:0 31:100 32:678 33:120 34:168 35:144 36:122 37:152 38:0 39:125 40:0 41:114 42:0 43:124 44:0 45:114 46:0 47:107 48:709 49:134 50:193 51:157 52:219 53:135 54:0 55:119 56:0 57:117 58:0 59:122 60:0 61:124 62:0 63:93 64:588 65:96 66:164 67:112 68:89 69:141 70:0 71:133 72:0 73:160 74:0 75:155 76:0 77:113 78:0 79:90 80:747 
-1 1:45 2:27 3:28 4:941 5:162 6:0 7:270 8:0 9:310 10:0 11:110 12:0 13:37 14:0 15:37 16:32 17:38 18:8 19:10 20:992 21:26 22:0 23:209 24:0 25:293 26:0 27:222 28:0 29:177 30:0 31:25 32:0 33:173 34:224 35:85 36:338 37:87 38:0 39:136 40:0 41:161 42:1 43:100 44:2 45:121 46:3 47:137 48:432 49:124 50:171 51:176 52:179 53:83 54:1 55:132 56:0 57:186 58:5 59:89 60:4 61:108 62:9 63:101 64:631 65:90 66:35 67:105 68:965 69:232 70:0 71:219 72:0 73:186 74:0 75:11 76:0 77:24 78:0 79:133 80:0 
-1 1:153 2:912 3:90 4:7 5:106 6:2 7:50 8:0 9:69 10:0 11:51 12:0 13:222 14:11 15:259 16:68 17:45 18:912 19:77 20:60 21:200 22:0 23:269 24:0 25:173 26:1 27:115 28:1 29:75 30:4 31:47 32:23 33:44 34:806 35:58 36:34 37:161 38:5 39:251 40:1 41:247 42:3 43:144 44:12 45:56 46:39 47:41 48:101 49:74 50:872 51:101 52:79 53:134 54:4 55:185 56:1 57:198 58:0 59:149 60:1 61:99 62:2 63:61 64:42 65:57 66:963 67:83 68:22 69:165 70:0 71:177 72:0 73:227 74:0 75:128 76:0 77:106 78:0 79:57 80:14 
-1 1:171 2:228 3:106 4:157 5:126 6:0 7:89 8:1 9:101 10:558 11:88 12:0 13:91 14:0 15:228 16:56 17:111 18:760 19:74 20:153 21:115 22:76 23:211 24:0 25:149 26:6 27:100 28:1 29:89 30:0 31:151 32:4 33:132 34:313 35:100 36:0 37:114 38:0 39:118 40:0 41:130 42:614 43:118 44:42 45:130 46:12 47:158 48:19 49:185 50:322 51:137 52:3 53:125 54:1 55:112 56:3 57:126 58:625 59:107 60:29 61:92 62:4 63:118 64:14 65:52 66:965 67:61 68:8 69:108 70:0 71:219 72:0 73:350 74:0 75:125 76:0 77:45 78:0 79:41 80:28 
-1 1:67 2:695 3:54 4:74 5:163 6:0 7:233 8:1 9:227 10:106 11:136 12:110 13:81 14:4 15:40 16:9 17:52 18:536 19:81 20:203 21:148 22:0 23:218 24:0 25:215 26:10 27:186 28:33 29:56 30:37 31:43 32:182 33:34 34:202 35:57 36:528 37:101 38:45 39:245 40:1 41:367 42:4 43:122 44:6 45:44 46:35 47:30 48:178 49:30 50:409 51:36 52:479 53:95 54:1 55:445 56:0 57:255 58:11 59:70 60:2 61:44 62:0 63:25 64:98 65:60 66:701 67:61 68:289 69:115 70:0 71:322 72:1 73:186 74:4 75:102 76:1 77:88 78:1 79:66 80:4 
-1 1:94 2:597 3:128 4:87 5:116 6:5 7:167 8:1 9:184 10:208 11:119 12:83 13:113 14:8 15:80 16:11 17:65 18:838 19:108 20:157 21:145 22:0 23:163 24:0 25:170 26:0 27:87 28:0 29:132 30:0 31:129 32:5 33:49 34:818 35:60 36:118 37:124 38:1 39:168 40:0 41:169 42:13 43:213 44:12 45:159 46:2 47:59 48:36 49:75 50:827 51:63 52:66 53:78 54:0 55:165 56:0 57:234 58:44 59:175 60:50 61:116 62:3 63:95 64:10 65:77 66:970 67:78 68:28 69:134 70:0 71:199 72:0 73:209 74:0 75:139 76:0 77:86 78:0 79:78 80:2 
-0.03537678036784905 1:84 2:743 3:64 4:2 5:132 6:33 7:64 8:204 9:146 10:18 11:130 12:0 13:170 14:0 15:210 16:0 17:262 18:604 19:72 20:17 21:63 22:3 23:213 24:1 25:152 26:374 27:54 28:1 29:64 30:0 31:120 32:1 33:139 34:795 35:149 36:118 37:151 38:7 39:116 40:12 41:120 42:62 43:81 44:3 45:125 46:1 47:119 48:2 49:150 50:36 51:121 52:28 53:109 54:35 55:98 56:27 57:111 58:875 59:124 60:0 61:136 62:0 63:150 64:0 65:158 66:0 67:163 68:1 69:130 70:6 71:97 72:25 73:98 74:966 75:109 76:2 77:109 78:0 79:137 80:0 
-1 1:174 2:72 3:52 4:301 5:67 6:199 7:177 8:374 9:237 10:51 11:83 12:2 13:66 14:0 15:144 16:2 17:307 18:0 19:83 20:0 21:63 22:2 23:25 24:552 25:36 26:445 27:59 28:0 29:152 30:0 31:275 32:0 33:161 34:9 35:71 36:32 37:94 38:60 39:134 40:487 41:144 42:407 43:84 44:1 45:102 46:0 47:210 48:3 49:241 50:10 51:126 52:35 53:107 54:289 55:70 56:626 57:72 58:41 59:77 60:0 61:132 62:0 63:176 64:0 65:647 66:415 67:17 68:240 69:21 70:5 71:34 72:78 73:56 74:262 75:33 76:0 77:21 78:0 79:170 80:0 
-1 1:123 2:3 3:91 4:109 5:92 6:11 7:112 8:1 9:243 10:72 11:113 12:804 13:132 14:1 15:94 16:0 17:244 18:6 19:96 20:28 21:126 22:1 23:96 24:0 25:178 26:72 27:96 28:894 29:74 30:0 31:90 32:1 33:73 34:289 35:69 36:0 37:131 38:0 39:150 40:0 41:204 42:205 43:186 44:479 45:100 46:7 47:88 48:20 49:127 50:46 51:106 52:1 53:102 54:0 55:99 56:0 57:104 58:65 59:132 60:884 61:137 62:2 63:194 64:3 65:245 66:8 67:56 68:166 69:43 70:40 71:42 72:6 73:39 74:93 75:119 76:634 77:280 78:51 79:176 80:2 
-1 1:271 2:957 3:92 4:43 5:90 6:0 7:49 8:0 9:46 10:0 11:51 12:0 13:168 14:0 15:234 16:0 17:104 18:977 19:125 20:8 21:131 22:0 23:131 24:1 25:148 26:11 27:117 28:1 29:133 30:1 31:112 32:1 33:116 34:918 35:117 36:78 37:128 38:0 39:104 40:2 41:111 42:2 43:161 44:1 45:138 46:0 47:125 48:1 49:77 50:963 51:113 52:37 53:136 54:0 55:151 56:0 57:136 58:0 59:169 60:0 61:132 62:0 63:87 64:0 65:90 66:922 67:166 68:77 69:212 70:0 71:91 72:0 73:57 74:0 75:97 76:0 77:182 78:0 79:105 80:1 
-1 1:75 2:0 3:77 4:366 5:140 6:401 7:188 8:44 9:223 10:188 11:110 12:1 13:118 14:0 15:69 16:0 17:119 18:20 19:119 20:139 21:137 22:274 23:122 24:137 25:142 26:330 27:128 28:100 29:122 30:0 31:111 32:0 33:120 34:96 35:96 36:150 37:158 38:144 39:129 40:39 41:150 42:247 43:115 44:315 45:139 46:5 47:95 48:4 49:89 50:6 51:88 52:45 53:114 54:53 55:129 56:8 57:214 58:128 59:159 60:745 61:129 62:11 63:79 64:6 65:92 66:0 67:110 68:3 69:134 70:6 71:124 72:5 73:192 74:375 75:143 76:611 77:125 78:0 79:81 80:0 
-1 1:109 2:635 3:125 4:20 5:145 6:1 7:110 8:0 9:147 10:0 11:136 12:0 13:129 14:3 15:99 16:341 17:129 18:150 19:113 20:42 21:145 22:497 23:116 24:41 25:130 26:0 27:138 28:0 29:140 30:12 31:90 32:259 33:120 34:249 35:116 36:27 37:143 38:462 39:121 40:20 41:126 42:1 43:125 44:0 45:155 46:1 47:93 48:241 49:108 50:342 51:132 52:122 53:147 54:429 55:109 56:3 57:122 58:0 59:110 60:0 61:156 62:1 63:116 64:104 65:121 66:416 67:128 68:380 69:151 70:158 71:101 72:0 73:127 74:0 75:115 76:0 77:159 78:0 79:98 80:47 
-1 1:119 2:0 3:68 4:0 5:211 6:0 7:116 8:0 9:183 10:907 11:92 12:93 13:147 14:0 15:64 16:0 17:99 18:0 19:47 20:0 21:135 22:0 23:100 24:2 25:211 26:995 27:136 28:3 29:199 30:0 31:73 32:0 33:99 34:0 35:76 36:0 37:182 38:0 39:117 40:0 41:193 42:991 43:92 44:9 45:171 46:0 47:70 48:0 49:153 50:0 51:92 52:0 53:225 54:0 55:104 56:0 57:117 58:992 59:56 60:9 61:173 62:0 63:81 64:0 65:183 66:0 67:95 68:0 69:209 70:0 71:77 72:1 73:114 74:969 75:47 76:30 77:173 78:0 79:102 80:0 
-1 1:67 2:117 3:46 4:8 5:89 6:0 7:306 8:28 9:313 10:279 11:44 12:122 13:55 14:16 15:80 16:430 17:64 18:121 19:128 20:237 21:203 22:6 23:146 24:146 25:191 26:461 27:112 28:30 29:95 30:0 31:61 32:0 33:71 34:384 35:83 36:454 37:107 38:2 39:173 40:13 41:303 42:121 43:123 44:17 45:88 46:1 47:52 48:9 49:74 50:835 51:139 52:50 53:145 54:3 55:281 56:9 57:159 58:24 59:84 60:4 61:77 62:1 63:41 64:74 65:87 66:692 67:80 68:99 69:152 70:91 71:146 72:59 73:206 74:22 75:149 76:7 77:110 78:2 79:70 80:28 
-1 1:77 2:717 3:56 4:254 5:150 6:18 7:209 8:2 9:243 10:2 11:123 12:0 13:75 14:1 15:67 16:5 17:60 18:792 19:141 20:93 21:119 22:14 23:111 24:11 25:250 26:69 27:195 28:16 29:73 30:0 31:52 32:5 33:38 34:828 35:55 36:145 37:127 38:4 39:275 40:4 41:299 42:5 43:129 44:4 45:46 46:0 47:31 48:11 49:65 50:690 51:75 52:286 53:137 54:6 55:277 56:3 57:125 58:2 59:98 60:0 61:102 62:0 63:123 64:13 65:32 66:799 67:42 68:155 69:98 70:9 71:236 72:15 73:270 74:20 75:197 76:1 77:90 78:0 79:36 80:0 
-1 1:58 2:412 3:120 4:239 5:172 6:66 7:216 8:36 9:199 10:213 11:111 12:32 13:74 14:1 15:51 16:1 17:94 18:77 19:261 20:699 21:211 22:50 23:143 24:97 25:75 26:78 27:89 28:0 29:72 30:0 31:55 32:0 33:95 34:166 35:99 36:650 37:139 38:72 39:140 40:51 41:167 42:43 43:156 44:8 45:102 46:0 47:104 48:11 49:44 50:429 51:95 52:117 53:130 54:113 55:140 56:82 57:309 58:45 59:178 60:17 61:66 62:4 63:39 64:194 65:98 66:534 67:195 68:346 69:109 70:24 71:59 72:30 73:281 74:59 75:150 76:6 77:62 78:0 79:48 80:2 
-0.0114864912535213 1:41 2:517 3:67 4:388 5:105 6:52 7:178 8:20 9:257 10:17 11:152 12:4 13:107 14:0 15:93 16:3 17:143 18:334 19:150 20:325 21:93 22:11 23:129 24:125 25:111 26:197 27:98 28:8 29:153 30:0 31:123 32:1 33:63 34:606 35:86 36:384 37:136 38:1 39:140 40:5 41:182 42:1 43:192 44:2 45:128 46:0 47:72 48:2 49:76 50:943 51:84 52:55 53:114 54:1 55:175 56:1 57:162 58:1 59:152 60:0 61:140 62:0 63:98 64:0 65:74 66:880 67:86 68:106 69:146 70:6 71:119 72:2 73:166 74:3 75:169 76:0 77:153 78:0 79:87 80:4 
-1 1:93 2:892 3:117 4:38 5:173 6:2 7:100 8:23 9:89 10:0 11:118 12:0 13:164 14:0 15:146 16:45 17:47 18:537 19:77 20:142 21:234 22:92 23:274 24:53 25:122 26:106 27:81 28:10 29:61 30:4 31:105 32:57 33:73 34:820 35:91 36:68 37:175 38:1 39:93 40:3 41:259 42:42 43:126 44:15 45:106 46:2 47:78 48:49 49:32 50:729 51:47 52:202 53:158 54:4 55:383 56:17 57:136 58:39 59:150 60:8 61:64 62:0 63:31 64:0 65:55 66:369 67:60 68:345 69:171 70:25 71:105 72:44 73:130 74:199 75:149 76:16 77:240 78:0 79:90 80:3 
